{"learner":{"attributes":{"best_iteration":"0","best_score":"0.674585"},"feature_names":["merchant","category","amt","gender","street","city","state","zip","lat","long","city_pop","job","merch_lat","merch_long","age","trans_hour","trans_day","trans_month","trans_dayofweek"],"feature_types":["int","int","float","int","int","int","int","int","float","float","float","int","float","float","float","float","float","float","float"],"gradient_booster":{"model":{"gbtree_model_param":{"num_parallel_tree":"1","num_trees":"31"},"iteration_indptr":[0,1,2,3,4,5,6,7,8,9,10,11,12,13,14,15,16,17,18,19,20,21,22,23,24,25,26,27,28,29,30,31],"tree_info":[0,0,0,0,0,0,0,0,0,0,0,0,0,0,0,0,0,0,0,0,0,0,0,0,0,0,0,0,0,0,0],"trees":[{"base_weights":[-1.0748856E0,-1.1041164E0,2.6422102E0,-1.1210963E0,-2.5882474E-1,9.384736E-1,6.176174E0,-1.1212034E0,2.4212633E-1,1.9258398E0,-7.534612E-1,3.9046612E0,1.02724254E-1,4.6774716E0,7.7851515E0,-1.1225606E0,-7.5906426E-1,-9.967449E-1,4.0272662E-1,-8.764341E-1,7.2558E-1,6.5862637E0,8.2332224E-1,-2.5998812E-2,5.252481E0,2.4560943E0,6.186337E0,4.0662694E-1,2.428532E0,-5.6149542E-2,3.4911412E-1,3.5184163E-1,-4.3812837E-2,-5.448557E-2,7.710474E-2,-4.467341E-2,1.3229154E-1,3.8295743E-1,-1.1365636E-3,2.4070306E-1,3.8147688E-1,2.6095903E-2,3.0131912E-1,7.284922E-2,-1.2551012E-2,1.1172449E-1,2.9476935E-1,2.7997595E-1,6.29935E-2,3.9466086E-1,2.3859797E-1,-4.8697162E-2,3.2872757E-1],"categories":[],"categories_nodes":[],"categories_segments":[],"categories_sizes":[],"default_left":[0,0,0,0,0,0,0,0,0,0,0,0,0,0,0,0,0,0,0,0,0,0,0,0,0,0,0,0,0,0,0,0,0,0,0,0,0,0,0,0,0,0,0,0,0,0,0,0,0,0,0,0,0],"id":0,"left_children":[1,3,5,7,9,11,13,15,-1,17,19,21,23,25,27,29,31,33,-1,35,37,39,41,43,45,47,49,-1,51,-1,-1,-1,-1,-1,-1,-1,-1,-1,-1,-1,-1,-1,-1,-1,-1,-1,-1,-1,-1,-1,-1,-1,-1],"loss_changes":[1.4052484E4,1.8411562E3,6.0705825E3,8.578125E1,2.7329592E3,1.6905375E3,7.5475586E2,6.096875E1,0E0,8.37162E3,3.7564014E2,1.2333164E3,3.5358594E2,5.6256836E2,2.7188477E2,4.4473438E2,4.3800943E2,7.6514404E1,0E0,1.1660034E2,8.2417413E2,1.11208496E2,1.080437E2,1.7428676E2,1.2065186E1,2.613651E2,2.0856055E2,0E0,1.6116211E2,0E0,0E0,0E0,0E0,0E0,0E0,0E0,0E0,0E0,0E0,0E0,0E0,0E0,0E0,0E0,0E0,0E0,0E0,0E0,0E0,0E0,0E0,0E0,0E0],"parents":[2147483647,0,0,1,1,2,2,3,3,4,4,5,5,6,6,7,7,9,9,10,10,11,11,12,12,13,13,14,14,15,15,16,16,17,17,19,19,20,20,21,21,22,22,23,23,24,24,25,25,26,26,28,28],"right_children":[2,4,6,8,10,12,14,16,-1,18,20,22,24,26,28,30,32,34,-1,36,38,40,42,44,46,48,50,-1,52,-1,-1,-1,-1,-1,-1,-1,-1,-1,-1,-1,-1,-1,-1,-1,-1,-1,-1,-1,-1,-1,-1,-1,-1],"split_conditions":[2.3153994E0,1.6089319E0,1.3489168E0,5E1,2E0,-1.2920247E0,2.3845756E-1,9E2,2.4212633E-1,1E0,1.3677286E0,2.3845756E-1,8.92E2,1E0,1E1,8.89E2,8.89E2,1.3489168E0,4.0272662E-1,8.89E2,1.4956357E0,1E0,8E0,3E0,9E2,-1.1975513E0,-1.17034994E-1,4.0662694E-1,1.2E1,-5.6149542E-2,3.4911412E-1,3.5184163E-1,-4.3812837E-2,-5.448557E-2,7.710474E-2,-4.467341E-2,1.3229154E-1,3.8295743E-1,-1.1365636E-3,2.4070306E-1,3.8147688E-1,2.6095903E-2,3.0131912E-1,7.284922E-2,-1.2551012E-2,1.1172449E-1,2.9476935E-1,2.7997595E-1,6.29935E-2,3.9466086E-1,2.3859797E-1,-4.8697162E-2,3.2872757E-1],"split_indices":[2,2,15,6,1,15,14,4,0,1,15,14,4,3,1,7,7,15,0,7,15,1,1,1,4,14,10,0,1,0,0,0,0,0,0,0,0,0,0,0,0,0,0,0,0,0,0,0,0,0,0,0,0],"split_type":[0,0,0,0,0,0,0,0,0,0,0,0,0,0,0,0,0,0,0,0,0,0,0,0,0,0,0,0,0,0,0,0,0,0,0,0,0,0,0,0,0,0,0,0,0,0,0,0,0,0,0,0,0],"sum_hessian":[1.29305016E5,1.28296805E5,1.008207E3,1.2577007E5,2.5267356E3,6.81108E2,3.2709906E2,1.25768625E5,1.447341E0,4.6593658E2,2.060799E3,1.489153E2,5.321926E2,1.7137589E2,1.5572318E2,1.2529695E5,4.7167233E2,3.160564E2,1.498802E2,1.9029854E3,1.5781377E2,7.90141E1,6.990121E1,5.2018506E2,1.2007569E1,7.038365E1,1.0099223E2,1.457526E2,9.9705715E0,1.25291164E5,5.789364E0,6.1109953E0,4.6556134E2,3.0544254E2,1.0613833E1,1.8945693E3,8.416019E0,1.447341E1,1.4334036E2,3.1359055E1,4.765504E1,6.711374E1,2.7874715E0,6.781061E1,4.5237445E2,2.894682E0,9.112887E0,1.8386591E1,5.1997063E1,4.3688255E1,5.730398E1,5.8965745E0,4.073997E0],"tree_param":{"num_deleted":"0","num_feature":"19","num_nodes":"53","size_leaf_vector":"1"}},{"base_weights":[-1.0650933E0,-1.0952048E0,2.257908E0,-1.1127295E0,-2.5247E-1,8.5651064E-1,4.6734304E0,-1.1128407E0,2.1030775E-1,1.6738394E0,-7.374364E-1,3.2033346E0,9.719168E-2,3.7007554E0,5.550357E0,-1.1142458E0,-7.4303925E-1,-9.845786E-1,2.8582427E-1,-9.1409534E-1,2.9052103E-1,4.93518E0,7.634968E-1,-2.492167E-2,4.214788E0,2.06129E0,4.684502E0,2.8655E-1,2.1177075E0,-5.5734523E-2,2.675012E-1,2.6862475E-1,-4.3071087E-2,-5.4013696E-2,6.969936E-2,-5.8483086E-3,-5.0595503E-2,-1.2676552E-2,1.8450442E-1,1.9224179E-1,2.758147E-1,8.4621785E-3,1.406798E-1,-3.8021158E-3,3.1506318E-1,9.305463E-2,2.3169816E-1,2.1866636E-1,4.9977817E-2,2.858653E-1,1.9076262E-1,-4.859522E-2,2.597204E-1],"categories":[],"categories_nodes":[],"categories_segments":[],"categories_sizes":[],"default_left":[0,0,0,0,0,0,0,0,0,0,0,0,0,0,0,0,0,0,0,0,0,0,0,0,0,0,0,0,0,0,0,0,0,0,0,0,0,0,0,0,0,0,0,0,0,0,0,0,0,0,0,0,0],"id":1,"left_children":[1,3,5,7,9,11,13,15,-1,17,19,21,23,25,27,29,31,33,-1,35,37,39,41,43,45,47,49,-1,51,-1,-1,-1,-1,-1,-1,-1,-1,-1,-1,-1,-1,-1,-1,-1,-1,-1,-1,-1,-1,-1,-1,-1,-1],"loss_changes":[1.2423469E4,1.8165625E3,3.7706533E3,7.590625E1,2.343625E3,1.2593701E3,3.2847656E2,6.1796875E1,0E0,5.428616E3,3.6414868E2,7.262781E2,2.6917157E2,3.0806934E2,1.2005322E2,3.5107812E2,3.370501E2,7.099106E1,0E0,1.3322522E2,5.458423E2,4.270044E1,8.834755E1,1.6887392E2,6.5879517E0,1.8136618E2,8.801611E1,0E0,1.2143588E2,0E0,0E0,0E0,0E0,0E0,0E0,0E0,0E0,0E0,0E0,0E0,0E0,0E0,0E0,0E0,0E0,0E0,0E0,0E0,0E0,0E0,0E0,0E0,0E0],"parents":[2147483647,0,0,1,1,2,2,3,3,4,4,5,5,6,6,7,7,9,9,10,10,11,11,12,12,13,13,14,14,15,15,16,16,17,17,19,19,20,20,21,21,22,22,23,23,24,24,25,25,26,26,28,28],"right_children":[2,4,6,8,10,12,14,16,-1,18,20,22,24,26,28,30,32,34,-1,36,38,40,42,44,46,48,50,-1,52,-1,-1,-1,-1,-1,-1,-1,-1,-1,-1,-1,-1,-1,-1,-1,-1,-1,-1,-1,-1,-1,-1,-1,-1],"split_conditions":[2.3153994E0,1.6089319E0,1.3489168E0,5E1,2E0,-1.2920247E0,1.810172E-1,9E2,2.1030775E-1,1E0,1.3489168E0,2.3845756E-1,8.92E2,1E0,1E1,8.89E2,8.89E2,1.3489168E0,2.8582427E-1,-1.2920247E0,2.3845756E-1,1E0,3.47E2,1.2E1,-1.1827295E-1,-1.1975513E0,-1.7074172E-1,2.8655E-1,1.2E1,-5.5734523E-2,2.675012E-1,2.6862475E-1,-4.3071087E-2,-5.4013696E-2,6.969936E-2,-5.8483086E-3,-5.0595503E-2,-1.2676552E-2,1.8450442E-1,1.9224179E-1,2.758147E-1,8.4621785E-3,1.406798E-1,-3.8021158E-3,3.1506318E-1,9.305463E-2,2.3169816E-1,2.1866636E-1,4.9977817E-2,2.858653E-1,1.9076262E-1,-4.859522E-2,2.597204E-1],"split_indices":[2,2,15,6,1,15,14,4,0,1,15,14,4,3,1,7,7,15,0,15,14,1,0,1,15,14,10,0,1,0,0,0,0,0,0,0,0,0,0,0,0,0,0,0,0,0,0,0,0,0,0,0,0],"split_type":[0,0,0,0,0,0,0,0,0,0,0,0,0,0,0,0,0,0,0,0,0,0,0,0,0,0,0,0,0,0,0,0,0,0,0,0,0,0,0,0,0,0,0,0,0,0,0,0,0,0,0,0,0],"sum_hessian":[1.2413343E5,1.2301935E5,1.1140774E3,1.2051296E5,2.5063882E3,7.0589667E2,4.0818073E2,1.20511234E5,1.7263958E0,5.0360278E2,2.0027853E3,1.7177467E2,5.3412195E2,1.9600012E2,2.1218059E2,1.2005307E5,4.5816434E2,3.0427194E2,1.9933084E2,1.7091681E3,2.9361716E2,9.986543E1,7.190924E1,5.1970337E2,1.4418616E1,7.4664E1,1.2133612E2,2.0093677E2,1.124382E1,1.2004564E5,7.430584E0,7.8577433E0,4.5030658E2,2.9302856E2,1.1243387E1,1.8704712E2,1.522121E3,2.539082E2,3.9708946E1,3.7368042E1,6.2497395E1,5.6588676E1,1.53205595E1,5.1651746E2,3.1858954E0,3.0020127E0,1.1416603E1,2.251537E1,5.2148632E1,5.2902473E1,6.843365E1,5.951476E0,5.2923436E0],"tree_param":{"num_deleted":"0","num_feature":"19","num_nodes":"53","size_leaf_vector":"1"}},{"base_weights":[-1.0558002E0,-1.086745E0,1.9868157E0,-1.1047927E0,-2.4563275E-1,7.892063E-1,3.82201E0,-1.1049076E0,1.85369E-1,1.4998839E0,-7.216199E-1,2.7356963E0,9.260873E-2,3.1328225E0,4.456864E0,-1.1063617E0,-7.27466E-1,-9.727242E-1,2.2705315E-1,-9.003562E-1,2.7187648E-1,4.0042458E0,7.06314E-1,-5.0887875E-2,3.0483642E0,1.8756032E0,3.828125E0,2.287151E-1,1.928291E0,-5.5340994E-2,2.1909855E-1,-4.135986E-2,2.9971406E-1,-5.35593E-2,6.3375115E-2,-5.5828886E-3,-5.0026637E-2,-1.2164091E-2,1.537618E-1,1.6061242E-1,2.2048557E-1,2.2041706E-2,2.5406495E-1,6.558458E-2,-1.363177E-2,8.725207E-2,2.1487775E-1,2.6509032E-1,6.815791E-2,2.2594874E-1,1.583674E-1,-4.7611702E-2,2.1433906E-1],"categories":[],"categories_nodes":[],"categories_segments":[],"categories_sizes":[],"default_left":[0,0,0,0,0,0,0,0,0,0,0,0,0,0,0,0,0,0,0,0,0,0,0,0,0,0,0,0,0,0,0,0,0,0,0,0,0,0,0,0,0,0,0,0,0,0,0,0,0,0,0,0,0],"id":2,"left_children":[1,3,5,7,9,11,13,15,-1,17,19,21,23,25,27,29,31,33,-1,35,37,39,41,43,45,47,49,-1,51,-1,-1,-1,-1,-1,-1,-1,-1,-1,-1,-1,-1,-1,-1,-1,-1,-1,-1,-1,-1,-1,-1,-1,-1],"loss_changes":[1.1217219E4,1.7897188E3,2.633542E3,6.796875E1,2.0601328E3,9.8572046E2,1.9318652E2,6.25625E1,0E0,3.9998037E3,3.4614777E2,4.9045154E2,2.2772801E2,1.942024E2,6.3657715E1,2.939375E2,3.0389975E2,6.618118E1,0E0,1.3034497E2,4.3079462E2,2.362976E1,8.477461E1,1.5526659E2,3.2973328E1,1.4025244E2,5.2964355E1,0E0,8.9420746E1,0E0,0E0,0E0,0E0,0E0,0E0,0E0,0E0,0E0,0E0,0E0,0E0,0E0,0E0,0E0,0E0,0E0,0E0,0E0,0E0,0E0,0E0,0E0,0E0],"parents":[2147483647,0,0,1,1,2,2,3,3,4,4,5,5,6,6,7,7,9,9,10,10,11,11,12,12,13,13,14,14,15,15,16,16,17,17,19,19,20,20,21,21,22,22,23,23,24,24,25,25,26,26,28,28],"right_children":[2,4,6,8,10,12,14,16,-1,18,20,22,24,26,28,30,32,34,-1,36,38,40,42,44,46,48,50,-1,52,-1,-1,-1,-1,-1,-1,-1,-1,-1,-1,-1,-1,-1,-1,-1,-1,-1,-1,-1,-1,-1,-1,-1,-1],"split_conditions":[2.3153994E0,1.6089319E0,1.3489168E0,5E1,2E0,-1.2920247E0,2.3845756E-1,9E2,1.85369E-1,1E0,1.3489168E0,2.3845756E-1,7.92E2,1E0,1E1,8.89E2,1.3298243E0,1.3489168E0,2.2705315E-1,-1.2920247E0,2.3845756E-1,1E0,9E2,3E0,8.27E2,3E0,-1.17034994E-1,2.287151E-1,1.2E1,-5.5340994E-2,2.1909855E-1,-4.135986E-2,2.9971406E-1,-5.35593E-2,6.3375115E-2,-5.5828886E-3,-5.0026637E-2,-1.2164091E-2,1.537618E-1,1.6061242E-1,2.2048557E-1,2.2041706E-2,2.5406495E-1,6.558458E-2,-1.363177E-2,8.725207E-2,2.1487775E-1,2.6509032E-1,6.815791E-2,2.2594874E-1,1.583674E-1,-4.7611702E-2,2.1433906E-1],"split_indices":[2,2,15,6,1,15,14,4,0,1,15,14,5,3,1,7,14,15,0,15,14,1,4,1,5,1,10,0,1,0,0,0,0,0,0,0,0,0,0,0,0,0,0,0,0,0,0,0,0,0,0,0,0],"split_type":[0,0,0,0,0,0,0,0,0,0,0,0,0,0,0,0,0,0,0,0,0,0,0,0,0,0,0,0,0,0,0,0,0,0,0,0,0,0,0,0,0,0,0,0,0,0,0,0,0,0,0,0,0],"sum_hessian":[1.19114E5,1.1791539E5,1.1986101E3,1.15438125E5,2.4772654E3,7.26162E2,4.724481E2,1.1543613E5,1.987911E0,5.303266E2,1.9469387E3,1.9061176E2,5.3555023E2,2.2937587E2,2.4307222E2,1.14991195E5,4.4493622E2,2.9288156E2,2.3744504E2,1.6501584E3,2.9678024E2,1.1669413E2,7.3917625E1,5.116913E2,2.385891E1,8.299856E1,1.4637732E2,2.3151074E2,1.1561469E1,1.149824E5,8.79799E0,4.3929532E2,5.6409287E0,2.8105072E2,1.183082E1,1.8621187E2,1.4639467E3,2.5148027E2,4.5299957E1,4.2534245E1,7.415989E1,7.07266E1,3.1910226E0,7.093002E1,4.407613E2,1.2849517E1,1.1009394E1,9.58269E0,7.341587E1,6.870577E1,7.767154E1,5.4731407E0,6.0883284E0],"tree_param":{"num_deleted":"0","num_feature":"19","num_nodes":"53","size_leaf_vector":"1"}},{"base_weights":[-1.0469549E0,-1.0786957E0,1.7805833E0,-1.0972472E0,-2.3885146E-1,7.316E-1,3.2621017E0,-1.0987985E0,-7.0127153E-1,1.3689705E0,-7.0607626E-1,2.3993807E0,8.777458E-2,2.7103071E0,3.7584665E0,-1.0992733E0,1.873971E-1,2.1279536E-1,-8.30136E-1,-9.6114165E-1,1.9090953E-1,-8.867498E-1,2.552166E-1,3.396573E0,6.579493E-1,-8.0061905E-2,2.1847348E0,1.6754119E0,3.2567997E0,1.9222715E-1,1.7567172E0,-5.5331092E-2,-5.1710714E-2,3.2630393E-1,-4.467338E-2,-5.312061E-2,5.7911325E-2,-5.328464E-3,-4.946743E-2,-1.1668111E-2,1.3182393E-1,1.3815859E-1,1.858104E-1,2.0876983E-2,2.5384295E-1,-1.9692285E-2,3.358174E-2,2.4752879E-1,8.078774E-2,1.6569635E-1,4.4405952E-2,1.79426E-1,1.151374E-1,-4.7088176E-2,1.8422979E-1],"categories":[],"categories_nodes":[],"categories_segments":[],"categories_sizes":[],"default_left":[0,0,0,0,0,0,0,0,0,0,0,0,0,0,0,0,0,0,0,0,0,0,0,0,0,0,0,0,0,0,0,0,0,0,0,0,0,0,0,0,0,0,0,0,0,0,0,0,0,0,0,0,0,0,0],"id":3,"left_children":[1,3,5,7,9,11,13,15,17,19,21,23,25,27,29,31,-1,-1,33,35,-1,37,39,41,43,45,47,49,51,-1,53,-1,-1,-1,-1,-1,-1,-1,-1,-1,-1,-1,-1,-1,-1,-1,-1,-1,-1,-1,-1,-1,-1,-1,-1],"loss_changes":[1.0256133E4,1.760125E3,1.9693167E3,6.7125E1,1.8363014E3,7.987521E2,1.3378174E2,2.5753125E2,2.8084937E2,3.1450654E3,3.2912567E2,3.575802E2,1.8947899E2,1.373523E2,4.048047E1,5.1484375E1,0E0,0E0,2.0334335E2,6.1945526E1,0E0,1.2751318E2,3.5009348E2,1.6357788E1,7.934857E1,1.17959496E2,5.4785202E1,1.1227942E2,4.369812E1,0E0,7.184619E1,0E0,0E0,0E0,0E0,0E0,0E0,0E0,0E0,0E0,0E0,0E0,0E0,0E0,0E0,0E0,0E0,0E0,0E0,0E0,0E0,0E0,0E0,0E0,0E0],"parents":[2147483647,0,0,1,1,2,2,3,3,4,4,5,5,6,6,7,7,8,8,9,9,10,10,11,11,12,12,13,13,14,14,15,15,18,18,19,19,21,21,22,22,23,23,24,24,25,25,26,26,27,27,28,28,30,30],"right_children":[2,4,6,8,10,12,14,16,18,20,22,24,26,28,30,32,-1,-1,34,36,-1,38,40,42,44,46,48,50,52,-1,54,-1,-1,-1,-1,-1,-1,-1,-1,-1,-1,-1,-1,-1,-1,-1,-1,-1,-1,-1,-1,-1,-1,-1,-1],"split_conditions":[2.3153994E0,1.6089319E0,1.3489168E0,9E2,2E0,-1.2920247E0,2.3845756E-1,8.89E2,8.89E2,1E0,1.3489168E0,2.3845756E-1,7.47E2,1E0,1E1,1.3489168E0,1.873971E-1,2.1279536E-1,-1.1975513E0,1.3489168E0,1.9090953E-1,-1.2920247E0,2.3845756E-1,1E0,-1.430611E0,2.958979E-1,8.1E2,-1.1975513E0,7E0,1.9222715E-1,1.2E1,-5.5331092E-2,-5.1710714E-2,3.2630393E-1,-4.467338E-2,-5.312061E-2,5.7911325E-2,-5.328464E-3,-4.946743E-2,-1.1668111E-2,1.3182393E-1,1.3815859E-1,1.858104E-1,2.0876983E-2,2.5384295E-1,-1.9692285E-2,3.358174E-2,2.4752879E-1,8.078774E-2,1.6569635E-1,4.4405952E-2,1.79426E-1,1.151374E-1,-4.7088176E-2,1.8422979E-1],"split_indices":[2,2,15,4,1,15,14,7,7,1,15,14,5,3,1,15,0,0,14,15,0,15,14,1,15,14,4,14,1,0,1,0,0,0,0,0,0,0,0,0,0,0,0,0,0,0,0,0,0,0,0,0,0,0,0],"split_type":[0,0,0,0,0,0,0,0,0,0,0,0,0,0,0,0,0,0,0,0,0,0,0,0,0,0,0,0,0,0,0,0,0,0,0,0,0,0,0,0,0,0,0,0,0,0,0,0,0,0,0,0,0,0,0],"sum_hessian":[1.1425393E5,1.1298621E5,1.2677202E3,1.1054405E5,2.4421575E3,7.430796E2,5.246407E2,1.1011093E5,4.3311792E2,5.4945013E2,1.8927074E3,2.0620206E2,5.368775E2,2.5150742E2,2.731333E2,1.1010092E5,1.0013569E1,1.0162415E1,4.229555E2,2.8188297E2,2.6756717E2,1.5933224E3,2.9938504E2,1.3051505E2,7.568703E1,4.9798184E2,3.8895645E1,8.8320435E1,1.6318698E2,2.6098996E2,1.2143339E1,9.89126E4,1.1188318E4,2.7392068E0,4.2021628E2,2.695039E2,1.2379085E1,1.8541681E2,1.4079055E3,2.4916438E2,5.022066E1,4.7007614E1,8.350742E1,7.281977E1,2.867252E0,3.5166214E2,1.463197E2,5.322401E0,3.3573246E1,2.7622723E1,6.0697712E1,1.1903695E2,4.4150036E1,5.273477E0,6.869862E0],"tree_param":{"num_deleted":"0","num_feature":"19","num_nodes":"55","size_leaf_vector":"1"}},{"base_weights":[-1.0385168E0,-1.0710249E0,1.6163608E0,-1.0900658E0,-2.3228708E-1,6.8128973E-1,2.861706E0,-1.0916708E0,-6.8620586E-1,1.0644411E0,-7.663571E-1,2.1425192E0,8.3238244E-2,2.3730323E0,3.267829E0,-1.0921571E0,1.6442725E-1,1.8270792E-1,-8.154543E-1,-9.4979405E-1,2.336275E0,-1.0417538E0,-3.1311736E-1,2.9652257E0,6.1441344E-1,-6.700438E-2,2.1697478E0,1.4655542E0,2.83878E0,1.6686803E-1,1.5846008E0,-5.4989457E-2,-5.1239192E-2,-4.4482622E-2,2.7898046E-1,-5.269595E-2,5.3143747E-2,1.6623299E-1,1.2016583E-2,-5.2396324E-2,1.6796669E-2,3.2234487E-1,-2.7063683E-2,1.21298015E-1,1.6185819E-1,1.8143477E-2,2.1371375E-1,5.4605156E-2,-1.3278727E-2,2.7072415E-1,8.28571E-2,1.4364173E-1,3.556408E-2,1.686988E-1,1.1668593E-1,-4.7367528E-2,1.631451E-1],"categories":[],"categories_nodes":[],"categories_segments":[],"categories_sizes":[],"default_left":[0,0,0,0,0,0,0,0,0,0,0,0,0,0,0,0,0,0,0,0,0,0,0,0,0,0,0,0,0,0,0,0,0,0,0,0,0,0,0,0,0,0,0,0,0,0,0,0,0,0,0,0,0,0,0,0,0],"id":4,"left_children":[1,3,5,7,9,11,13,15,17,19,21,23,25,27,29,31,-1,-1,33,35,37,39,41,43,45,47,49,51,53,-1,55,-1,-1,-1,-1,-1,-1,-1,-1,-1,-1,-1,-1,-1,-1,-1,-1,-1,-1,-1,-1,-1,-1,-1,-1,-1,-1],"loss_changes":[9.457E3,1.72825E3,1.5417549E3,6.784375E1,1.6655503E3,6.62632E2,1.05010254E2,2.2819531E2,2.3948036E2,1.799663E3,2.1226306E2,2.750468E2,1.6918459E2,1.0638049E2,3.071875E1,5.30625E1,0E0,0E0,1.9960791E2,5.818007E1,8.907512E2,9.357788E0,9.985418E2,1.3101929E1,7.0564865E1,1.1628811E2,5.1321E1,9.430823E1,3.855591E1,0E0,6.3044056E1,0E0,0E0,0E0,0E0,0E0,0E0,0E0,0E0,0E0,0E0,0E0,0E0,0E0,0E0,0E0,0E0,0E0,0E0,0E0,0E0,0E0,0E0,0E0,0E0,0E0,0E0],"parents":[2147483647,0,0,1,1,2,2,3,3,4,4,5,5,6,6,7,7,8,8,9,9,10,10,11,11,12,12,13,13,14,14,15,15,18,18,19,19,20,20,21,21,22,22,23,23,24,24,25,25,26,26,27,27,28,28,30,30],"right_children":[2,4,6,8,10,12,14,16,18,20,22,24,26,28,30,32,-1,-1,34,36,38,40,42,44,46,48,50,52,54,-1,56,-1,-1,-1,-1,-1,-1,-1,-1,-1,-1,-1,-1,-1,-1,-1,-1,-1,-1,-1,-1,-1,-1,-1,-1,-1,-1],"split_conditions":[2.3153994E0,1.6089319E0,1.3489168E0,9E2,4E0,-1.2920247E0,1.810172E-1,8.89E2,8.89E2,1E0,8E0,2.3845756E-1,8.26E2,1E0,1E1,1.3489168E0,1.6442725E-1,1.8270792E-1,1.3298243E0,1.3489168E0,2E0,8.89E2,-2.6499194E-1,1E0,8E0,3E0,8.1E2,-1.1975513E0,-1.17034994E-1,1.6686803E-1,1.2E1,-5.4989457E-2,-5.1239192E-2,-4.4482622E-2,2.7898046E-1,-5.269595E-2,5.3143747E-2,1.6623299E-1,1.2016583E-2,-5.2396324E-2,1.6796669E-2,3.2234487E-1,-2.7063683E-2,1.21298015E-1,1.6185819E-1,1.8143477E-2,2.1371375E-1,5.4605156E-2,-1.3278727E-2,2.7072415E-1,8.28571E-2,1.4364173E-1,3.556408E-2,1.686988E-1,1.1668593E-1,-4.7367528E-2,1.631451E-1],"split_indices":[2,2,15,4,1,15,14,7,7,1,1,14,7,3,1,15,0,0,14,15,1,7,15,1,1,1,4,14,10,0,1,0,0,0,0,0,0,0,0,0,0,0,0,0,0,0,0,0,0,0,0,0,0,0,0,0,0],"split_type":[0,0,0,0,0,0,0,0,0,0,0,0,0,0,0,0,0,0,0,0,0,0,0,0,0,0,0,0,0,0,0,0,0,0,0,0,0,0,0,0,0,0,0,0,0,0,0,0,0,0,0,0,0,0,0,0,0],"sum_hessian":[1.09555484E5,1.0823083E5,1.3246527E3,1.0582803E5,2.4027974E3,7.574593E2,5.671934E2,1.0540745E5,4.205806E2,7.006407E2,1.7021566E3,2.1922952E2,5.382298E2,2.60539E2,3.0665442E2,1.053965E5,1.0954421E1,1.1373352E1,4.0920724E2,2.7127264E2,4.2936804E2,1.057999E3,6.441576E2,1.4189513E2,7.733439E1,5.0297977E2,3.525002E1,8.977163E1,1.7076738E2,2.9354578E2,1.3108644E1,9.465836E4,1.0738139E4,4.0536493E2,3.8423228E0,2.5838168E2,1.2890955E1,2.91377E2,1.3799103E2,1.0535181E3,4.4809237E0,2.0141161E1,6.240164E2,5.089299E1,9.100214E1,7.338945E1,3.9449408E0,7.290629E1,4.300735E2,3.5044692E0,3.174555E1,3.034565E1,5.9425983E1,8.0152374E1,9.061501E1,5.399011E0,7.7096324E0],"tree_param":{"num_deleted":"0","num_feature":"19","num_nodes":"57","size_leaf_vector":"1"}},{"base_weights":[-1.0304388E0,-1.0636841E0,1.4826242E0,-1.0832173E0,-2.2599818E-1,6.3714623E-1,2.5613532E0,-1.0848762E0,-6.716881E-1,9.950756E-1,-7.513746E-1,1.938886E0,7.916284E-2,2.1306126E0,2.9178772E0,-1.0853734E0,1.4724663E-1,1.6109422E-1,-8.010441E-1,-9.3864745E-1,2.1182575E0,-8.6482257E-1,4.1144553E-1,2.6899827E0,6.539135E-1,-2.6767008E-2,2.7676394E0,1.3361386E0,2.5297537E0,1.4876263E-1,1.4729489E0,-5.4665387E-2,-5.0777316E-2,2.6911438E-1,-4.33865E-2,-5.2283783E-2,4.894768E-2,1.4824495E-1,1.13124065E-2,-5.261005E-2,-2.69728E-2,2.4063216E-1,-1.8536752E-2,1.0941195E-1,1.4787124E-1,1.04205094E-1,6.703736E-3,-3.759299E-3,2.384701E-1,6.250164E-2,1.5468194E-1,1.8780482E-1,4.72861E-2,1.5113771E-1,1.05008446E-1,-4.6852577E-2,1.4637661E-1],"categories":[],"categories_nodes":[],"categories_segments":[],"categories_sizes":[],"default_left":[0,0,0,0,0,0,0,0,0,0,0,0,0,0,0,0,0,0,0,0,0,0,0,0,0,0,0,0,0,0,0,0,0,0,0,0,0,0,0,0,0,0,0,0,0,0,0,0,0,0,0,0,0,0,0,0,0],"id":5,"left_children":[1,3,5,7,9,11,13,15,17,19,21,23,25,27,29,31,-1,-1,33,35,37,39,41,43,45,47,49,51,53,-1,55,-1,-1,-1,-1,-1,-1,-1,-1,-1,-1,-1,-1,-1,-1,-1,-1,-1,-1,-1,-1,-1,-1,-1,-1,-1,-1],"loss_changes":[8.77582E3,1.6957578E3,1.2493259E3,6.841406E1,1.5167303E3,5.5932715E2,8.628369E1,2.0533594E2,2.0872986E2,1.5468986E3,2.1839099E2,2.2124988E2,1.5391754E2,8.429468E1,2.2714844E1,5.478125E1,0E0,0E0,1.6834682E2,5.4805237E1,7.2058655E2,9.126001E1,5.0988324E2,1.3053345E1,6.407486E1,1.2128133E2,6.268753E0,8.580098E1,3.238916E1,0E0,5.3445915E1,0E0,0E0,0E0,0E0,0E0,0E0,0E0,0E0,0E0,0E0,0E0,0E0,0E0,0E0,0E0,0E0,0E0,0E0,0E0,0E0,0E0,0E0,0E0,0E0,0E0,0E0],"parents":[2147483647,0,0,1,1,2,2,3,3,4,4,5,5,6,6,7,7,8,8,9,9,10,10,11,11,12,12,13,13,14,14,15,15,18,18,19,19,20,20,21,21,22,22,23,23,24,24,25,25,26,26,27,27,28,28,30,30],"right_children":[2,4,6,8,10,12,14,16,18,20,22,24,26,28,30,32,-1,-1,34,36,38,40,42,44,46,48,50,52,54,-1,56,-1,-1,-1,-1,-1,-1,-1,-1,-1,-1,-1,-1,-1,-1,-1,-1,-1,-1,-1,-1,-1,-1,-1,-1,-1,-1],"split_conditions":[2.3153994E0,1.6089319E0,1.3489168E0,9E2,4E0,-1.2920247E0,1.810172E-1,8.89E2,8.89E2,1E0,1.3677286E0,1.810172E-1,8.92E2,1E0,1E1,1.3489168E0,1.4724663E-1,1.6109422E-1,-1.1975513E0,1.3489168E0,2E0,8E0,1.4956357E0,1E0,3E0,1.2E1,9E2,3E0,-1.7074172E-1,1.4876263E-1,1.2E1,-5.4665387E-2,-5.0777316E-2,2.6911438E-1,-4.33865E-2,-5.2283783E-2,4.894768E-2,1.4824495E-1,1.13124065E-2,-5.261005E-2,-2.69728E-2,2.4063216E-1,-1.8536752E-2,1.0941195E-1,1.4787124E-1,1.04205094E-1,6.703736E-3,-3.759299E-3,2.384701E-1,6.250164E-2,1.5468194E-1,1.8780482E-1,4.72861E-2,1.5113771E-1,1.05008446E-1,-4.6852577E-2,1.4637661E-1],"split_indices":[2,2,15,4,1,15,14,7,7,1,15,14,4,3,1,15,0,0,14,15,1,1,15,1,1,1,4,1,10,0,1,0,0,0,0,0,0,0,0,0,0,0,0,0,0,0,0,0,0,0,0,0,0,0,0,0,0],"split_type":[0,0,0,0,0,0,0,0,0,0,0,0,0,0,0,0,0,0,0,0,0,0,0,0,0,0,0,0,0,0,0,0,0,0,0,0,0,0,0,0,0,0,0,0,0,0,0,0,0,0,0,0,0,0,0,0,0],"sum_hessian":[1.0501985E5,1.0364925E5,1.3706011E3,1.0128715E5,2.3620981E3,7.692639E2,6.013371E2,1.0087884E5,4.0830435E2,7.1030994E2,1.6517882E3,2.300641E2,5.391998E2,2.7548315E2,3.2585394E2,1.0086713E5,1.1716007E1,1.2360174E1,3.9594418E2,2.6104565E2,4.4926428E2,1.5051936E3,1.4659459E2,1.4450446E2,8.555965E1,5.1971246E2,1.9487377E1,9.357451E1,1.8190866E2,3.123904E2,1.346356E1,9.056212E4,1.0305013E4,3.3741188E0,3.9257007E2,2.4767665E2,1.336902E1,3.099845E2,1.3927977E2,9.537153E2,5.5147833E2,2.13438E1,1.2525079E2,5.343608E1,9.106838E1,2.2006336E1,6.355331E1,5.154927E2,4.2197514E0,4.300757E0,1.5186619E1,1.180176E1,8.177274E1,8.189163E1,1.0001703E2,5.2014403E0,8.26212E0],"tree_param":{"num_deleted":"0","num_feature":"19","num_nodes":"57","size_leaf_vector":"1"}},{"base_weights":[-1.0226983E0,-1.0566645E0,1.3703673E0,-1.0766726E0,-2.1994135E-1,5.97679E-1,2.325357E0,-1.0783874E0,-6.5742904E-1,9.3623114E-1,-7.3690796E-1,1.7697207E0,7.562163E-2,1.9453759E0,2.6641617E0,-1.0788947E0,1.3391249E-1,-7.628563E-1,3.8933444E0,-9.276706E-1,1.9435604E0,-8.5132617E-1,3.8652447E-1,2.3924625E0,5.301205E-1,1.2537806E0,-1.4924967E-1,1.2555584E0,2.2882707E0,1.3560408E-1,1.4069946E0,-5.435753E-2,-5.0323665E-2,2.1240027E-1,-4.2093914E-2,1.0365434E-1,2.3605049E-1,-5.1882666E-2,4.522675E-2,1.3452446E-1,1.0655644E-2,-5.2194525E-2,-2.6193485E-2,2.012856E-1,-1.7870788E-2,1.03577375E-1,1.3653533E-1,1.4022069E-2,1.805525E-1,-1.2025845E-2,1.9141786E-1,-1.0410826E-2,2.0286024E-1,4.468482E-2,1.6630982E-1,1.3585635E-1,9.42158E-2,-4.555458E-2,1.3267012E-1],"categories":[],"categories_nodes":[],"categories_segments":[],"categories_sizes":[],"default_left":[0,0,0,0,0,0,0,0,0,0,0,0,0,0,0,0,0,0,0,0,0,0,0,0,0,0,0,0,0,0,0,0,0,0,0,0,0,0,0,0,0,0,0,0,0,0,0,0,0,0,0,0,0,0,0,0,0,0,0],"id":6,"left_children":[1,3,5,7,9,11,13,15,17,19,21,23,25,27,29,31,-1,33,35,37,39,41,43,45,47,49,51,53,55,-1,57,-1,-1,-1,-1,-1,-1,-1,-1,-1,-1,-1,-1,-1,-1,-1,-1,-1,-1,-1,-1,-1,-1,-1,-1,-1,-1,-1,-1],"loss_changes":[8.1822188E3,1.6611094E3,1.0382927E3,6.896094E1,1.3866654E3,4.772249E2,7.589673E1,1.8685156E2,1.9361497E2,1.3478562E3,2.063706E2,1.842865E2,1.434605E2,6.822107E1,1.607837E1,5.6617188E1,0E0,1.5768774E2,4.0146637E0,5.175888E1,6.013784E2,9.1204834E1,4.04428E2,1.167926E1,6.1804916E1,3.347852E2,1.1370533E2,7.346471E1,2.9450317E1,0E0,4.345536E1,0E0,0E0,0E0,0E0,0E0,0E0,0E0,0E0,0E0,0E0,0E0,0E0,0E0,0E0,0E0,0E0,0E0,0E0,0E0,0E0,0E0,0E0,0E0,0E0,0E0,0E0,0E0,0E0],"parents":[2147483647,0,0,1,1,2,2,3,3,4,4,5,5,6,6,7,7,8,8,9,9,10,10,11,11,12,12,13,13,14,14,15,15,17,17,18,18,19,19,20,20,21,21,22,22,23,23,24,24,25,25,26,26,27,27,28,28,30,30],"right_children":[2,4,6,8,10,12,14,16,18,20,22,24,26,28,30,32,-1,34,36,38,40,42,44,46,48,50,52,54,56,-1,58,-1,-1,-1,-1,-1,-1,-1,-1,-1,-1,-1,-1,-1,-1,-1,-1,-1,-1,-1,-1,-1,-1,-1,-1,-1,-1,-1,-1],"split_conditions":[2.3153994E0,1.6089319E0,1.3489168E0,9E2,4E0,-1.2920247E0,2.3845756E-1,8.89E2,1.3298243E0,1E0,1.3677286E0,2.3845756E-1,3E0,1E0,1E1,1.3489168E0,1.3391249E-1,-9.103495E-1,8.56E2,1.3489168E0,2E0,8E0,1.4956357E0,5E0,8.84E2,-1.1827295E-1,1.2E1,7.44E2,-1.17034994E-1,1.3560408E-1,1.2E1,-5.435753E-2,-5.0323665E-2,2.1240027E-1,-4.2093914E-2,1.0365434E-1,2.3605049E-1,-5.1882666E-2,4.522675E-2,1.3452446E-1,1.0655644E-2,-5.2194525E-2,-2.6193485E-2,2.012856E-1,-1.7870788E-2,1.03577375E-1,1.3653533E-1,1.4022069E-2,1.805525E-1,-1.2025845E-2,1.9141786E-1,-1.0410826E-2,2.0286024E-1,4.468482E-2,1.6630982E-1,1.3585635E-1,9.42158E-2,-4.555458E-2,1.3267012E-1],"split_indices":[2,2,15,4,1,15,14,7,14,1,15,14,1,3,1,15,0,14,7,15,1,1,15,1,4,15,1,7,10,0,1,0,0,0,0,0,0,0,0,0,0,0,0,0,0,0,0,0,0,0,0,0,0,0,0,0,0,0,0],"split_type":[0,0,0,0,0,0,0,0,0,0,0,0,0,0,0,0,0,0,0,0,0,0,0,0,0,0,0,0,0,0,0,0,0,0,0,0,0,0,0,0,0,0,0,0,0,0,0,0,0,0,0,0,0,0,0,0,0,0,0],"sum_hessian":[1.0064398E5,9.9236016E4,1.4079572E3,9.691818E4,2.3178381E3,7.7915985E2,6.2879736E2,9.652182E4,3.963627E2,7.159152E2,1.601923E3,2.3937117E2,5.3978864E2,2.9956592E2,3.2923145E2,9.65095E4,1.2321036E1,3.8820163E2,8.1610565E0,2.5119609E2,4.6471912E2,1.4540724E3,1.4785068E2,1.5870966E2,8.0661514E1,8.578152E1,4.5400714E2,1.0101363E2,1.9855229E2,3.1602795E2,1.3203488E1,8.6620914E4,9.888579E3,5.207875E0,3.8299377E2,3.646396E0,4.5146604E0,2.373804E2,1.3815694E1,3.242188E2,1.4050032E2,9.1425006E2,5.398223E2,2.4345695E1,1.2350499E2,8.50969E1,7.361276E1,7.562396E1,5.037555E0,5.4851818E1,3.0929699E1,4.4866812E2,5.3390093E0,8.7205345E1,1.380829E1,9.3530174E1,1.0502212E2,4.710977E0,8.492512E0],"tree_param":{"num_deleted":"0","num_feature":"19","num_nodes":"59","size_leaf_vector":"1"}},{"base_weights":[-1.015258E0,-1.0499263E0,1.274372E0,-1.0704011E0,-2.1414292E-1,5.6178916E-1,2.1348014E0,-1.0797871E0,-9.884553E-1,8.8548994E-1,-7.226794E-1,1.6302882E0,7.1576215E-2,1.7807229E0,2.4527805E0,-1.027704E0,-1.0886697E0,-9.9714553E-1,8.2607055E-1,-9.168344E-1,1.7999694E0,-1.0155921E0,-2.7694532E-1,2.224259E0,5.651759E-1,-2.693645E-1,7.6798785E-1,2.776008E0,1.5676395E0,1.2474072E-1,1.3251936E0,-5.1570274E-2,3.442612E-1,-5.445328E-2,-4.918161E-2,-5.015865E-2,1.5299879E-2,-9.208011E-3,2.4352954E-1,-5.1491257E-2,4.190533E-2,1.2370386E-1,1.0042399E-2,-5.1122498E-2,1.9122176E-2,2.5429246E-1,-2.5402872E-2,8.924561E-2,1.23313226E-1,1.7417667E-2,1.7592384E-1,4.2823873E-2,-2.3005867E-2,-4.2708058E-2,1.7274688E-1,6.250735E-2,1.4117496E-1,-6.2015034E-2,8.731439E-2,-4.5064323E-2,1.2223949E-1],"categories":[],"categories_nodes":[],"categories_segments":[],"categories_sizes":[],"default_left":[0,0,0,0,0,0,0,0,0,0,0,0,0,0,0,0,0,0,0,0,0,0,0,0,0,0,0,0,0,0,0,0,0,0,0,0,0,0,0,0,0,0,0,0,0,0,0,0,0,0,0,0,0,0,0,0,0,0,0,0,0],"id":7,"left_children":[1,3,5,7,9,11,13,15,17,19,21,23,25,27,29,31,33,35,37,39,41,43,45,47,49,51,53,55,57,-1,59,-1,-1,-1,-1,-1,-1,-1,-1,-1,-1,-1,-1,-1,-1,-1,-1,-1,-1,-1,-1,-1,-1,-1,-1,-1,-1,-1,-1,-1,-1],"loss_changes":[7.655578E3,1.6253047E3,8.809292E2,7.024219E1,1.2715227E3,4.128087E2,6.897266E1,3.7359375E1,1.5126367E2,1.1868851E3,2.0268292E2,1.5556659E2,1.287668E2,6.1785706E1,1.2834717E1,3.6257617E2,1.8828125E0,7.488867E1,1.8893307E2,4.8991943E1,5.1412695E2,9.381348E0,7.683362E2,1.2482178E1,5.6460518E1,7.861672E1,7.79729E2,3.6123657E-1,1.321687E2,0E0,3.80282E1,0E0,0E0,0E0,0E0,0E0,0E0,0E0,0E0,0E0,0E0,0E0,0E0,0E0,0E0,0E0,0E0,0E0,0E0,0E0,0E0,0E0,0E0,0E0,0E0,0E0,0E0,0E0,0E0,0E0,0E0],"parents":[2147483647,0,0,1,1,2,2,3,3,4,4,5,5,6,6,7,7,8,8,9,9,10,10,11,11,12,12,13,13,14,14,15,15,16,16,17,17,18,18,19,19,20,20,21,21,22,22,23,23,24,24,25,25,26,26,27,27,28,28,30,30],"right_children":[2,4,6,8,10,12,14,16,18,20,22,24,26,28,30,32,34,36,38,40,42,44,46,48,50,52,54,56,58,-1,60,-1,-1,-1,-1,-1,-1,-1,-1,-1,-1,-1,-1,-1,-1,-1,-1,-1,-1,-1,-1,-1,-1,-1,-1,-1,-1,-1,-1,-1,-1],"split_conditions":[2.3153994E0,1.6089319E0,1.3489168E0,1.3489168E0,4E0,-1.2920247E0,2.3845756E-1,-1.2920247E0,1.5311643E0,1E0,8E0,1.810172E-1,2.958979E-1,3E0,1E1,9E0,9E2,9E2,1.3E1,1.3489168E0,2E0,8.89E2,-2.6499194E-1,1E0,8E0,3E0,-1.1827295E-1,2.7E1,5E0,1.2474072E-1,1.2E1,-5.1570274E-2,3.442612E-1,-5.445328E-2,-4.918161E-2,-5.015865E-2,1.5299879E-2,-9.208011E-3,2.4352954E-1,-5.1491257E-2,4.190533E-2,1.2370386E-1,1.0042399E-2,-5.1122498E-2,1.9122176E-2,2.5429246E-1,-2.5402872E-2,8.924561E-2,1.23313226E-1,1.7417667E-2,1.7592384E-1,4.2823873E-2,-2.3005867E-2,-4.2708058E-2,1.7274688E-1,6.250735E-2,1.4117496E-1,-6.2015034E-2,8.731439E-2,-4.5064323E-2,1.2223949E-1],"split_indices":[2,2,15,15,1,15,14,15,2,1,1,14,14,1,1,1,4,4,1,15,1,7,15,1,1,1,15,0,1,0,1,0,0,0,0,0,0,0,0,0,0,0,0,0,0,0,0,0,0,0,0,0,0,0,0,0,0,0,0,0,0],"split_type":[0,0,0,0,0,0,0,0,0,0,0,0,0,0,0,0,0,0,0,0,0,0,0,0,0,0,0,0,0,0,0,0,0,0,0,0,0,0,0,0,0,0,0,0,0,0,0,0,0,0,0,0,0,0,0,0,0,0,0,0,0],"sum_hessian":[9.642723E4,9.498949E4,1.4377365E3,9.271782E4,2.2716663E3,7.8733844E2,6.50398E2,8.317842E4,9.539402E3,7.181135E2,1.5535526E3,2.4688551E2,5.4045294E2,3.1085373E2,3.3954428E2,1.2135754E4,7.1042664E4,9.494382E3,4.5020744E1,2.4171701E2,4.7639648E2,9.367149E2,6.1683777E2,1.5779903E2,8.9086494E1,3.63237E2,1.7721594E2,5.2694885E1,2.5815884E2,3.2617276E2,1.3371526E1,1.2130949E4,4.8048544E0,7.076658E4,2.7608734E2,9.450899E3,4.3483017E1,3.6786713E1,8.234032E0,2.2748381E2,1.4233208E1,3.3474005E2,1.4165643E2,9.324098E2,4.305145E0,2.4616774E1,5.92221E2,5.902259E1,9.8776436E1,8.403486E1,5.0516353E0,5.2121403E1,3.111156E2,1.1092879E2,6.628715E1,2.4153476E0,5.0279537E1,1.5086772E1,2.4307208E2,4.539353E0,8.832173E0],"tree_param":{"num_deleted":"0","num_feature":"19","num_nodes":"61","size_leaf_vector":"1"}},{"base_weights":[-1.0080547E0,-1.0434128E0,1.1897036E0,-1.0661097E0,-2.6966023E-1,5.284545E-1,1.9737005E0,-1.0750464E0,-9.8830044E-1,8.686609E-1,-6.468712E-1,1.5119319E0,6.6630855E-2,1.635453E0,2.281677E0,-1.0240798E0,-1.0837595E0,-9.945842E-1,2.7952114E-1,-9.338758E-1,2.2021976E0,-8.52077E-1,3.6516288E-1,2.0217972E0,4.6295872E-1,-7.7339225E-2,1.5810349E0,1.9358541E0,9.8998696E-1,1.15965106E-1,1.254706E0,-5.1371813E-2,2.6999852E-1,-5.4207545E-2,-4.9017522E-2,-4.9845554E-2,1.3276364E-1,1.17122665E-1,-3.9064805E-3,-5.1636226E-2,3.3545554E-2,4.9636375E-2,1.14948295E-1,-4.1860607E-3,-4.7740135E-2,2.5101467E-3,1.2264263E-1,8.07598E-2,1.1198749E-1,-2.2707363E-4,9.496122E-2,-1.8392114E-2,2.8196154E-2,1.779766E-1,5.7271373E-2,6.607569E-2,1.0876884E-1,8.855149E-2,5.0456845E-3,-4.4580318E-2,1.1367156E-1],"categories":[],"categories_nodes":[],"categories_segments":[],"categories_sizes":[],"default_left":[0,0,0,0,0,0,0,0,0,0,0,0,0,0,0,0,0,0,0,0,0,0,0,0,0,0,0,0,0,0,0,0,0,0,0,0,0,0,0,0,0,0,0,0,0,0,0,0,0,0,0,0,0,0,0,0,0,0,0,0,0],"id":8,"left_children":[1,3,5,7,9,11,13,15,17,19,21,23,25,27,29,31,33,35,37,39,41,43,45,47,49,51,53,55,57,-1,59,-1,-1,-1,-1,-1,-1,-1,-1,-1,-1,-1,-1,-1,-1,-1,-1,-1,-1,-1,-1,-1,-1,-1,-1,-1,-1,-1,-1,-1,-1],"loss_changes":[7.1794062E3,1.5962578E3,7.574304E2,6.0359375E1,1.1135656E3,3.6099353E2,6.5963135E1,3.40625E1,7.286426E1,1.5538821E3,4.0475647E2,1.3490753E2,1.1830097E2,6.059204E1,1.0523193E1,2.5529297E2,1.6640625E0,7.964551E1,3.3913044E1,4.4351578E1,4.118152E1,1.2774487E2,2.1621573E2,1.1502563E1,5.6660988E1,9.25935E1,3.6518127E1,2.9342712E1,7.2338936E1,0E0,3.3655678E1,0E0,0E0,0E0,0E0,0E0,0E0,0E0,0E0,0E0,0E0,0E0,0E0,0E0,0E0,0E0,0E0,0E0,0E0,0E0,0E0,0E0,0E0,0E0,0E0,0E0,0E0,0E0,0E0,0E0,0E0],"parents":[2147483647,0,0,1,1,2,2,3,3,4,4,5,5,6,6,7,7,8,8,9,9,10,10,11,11,12,12,13,13,14,14,15,15,16,16,17,17,18,18,19,19,20,20,21,21,22,22,23,23,24,24,25,25,26,26,27,27,28,28,30,30],"right_children":[2,4,6,8,10,12,14,16,18,20,22,24,26,28,30,32,34,36,38,40,42,44,46,48,50,52,54,56,58,-1,60,-1,-1,-1,-1,-1,-1,-1,-1,-1,-1,-1,-1,-1,-1,-1,-1,-1,-1,-1,-1,-1,-1,-1,-1,-1,-1,-1,-1,-1,-1],"split_conditions":[2.3153994E0,1.5311643E0,1.3489168E0,1.3489168E0,2E0,-1.2920247E0,2.3845756E-1,-1.2920247E0,8.89E2,1E0,1.3489168E0,2.3845756E-1,7.47E2,7E0,1E1,9E0,9E2,9E2,8.92E2,1.3489168E0,1.6089319E0,-1.2920247E0,1.2E1,1E0,3.47E2,2.958979E-1,8.1E2,1E0,2.57613E0,1.15965106E-1,1.2E1,-5.1371813E-2,2.6999852E-1,-5.4207545E-2,-4.9017522E-2,-4.9845554E-2,1.3276364E-1,1.17122665E-1,-3.9064805E-3,-5.1636226E-2,3.3545554E-2,4.9636375E-2,1.14948295E-1,-4.1860607E-3,-4.7740135E-2,2.5101467E-3,1.2264263E-1,8.07598E-2,1.1198749E-1,-2.2707363E-4,9.496122E-2,-1.8392114E-2,2.8196154E-2,1.779766E-1,5.7271373E-2,6.607569E-2,1.0876884E-1,8.855149E-2,5.0456845E-3,-4.4580318E-2,1.1367156E-1],"split_indices":[2,2,15,15,1,15,14,15,7,1,15,14,5,1,1,1,4,4,4,15,2,15,1,1,0,14,4,3,2,0,1,0,0,0,0,0,0,0,0,0,0,0,0,0,0,0,0,0,0,0,0,0,0,0,0,0,0,0,0,0,0],"split_type":[0,0,0,0,0,0,0,0,0,0,0,0,0,0,0,0,0,0,0,0,0,0,0,0,0,0,0,0,0,0,0,0,0,0,0,0,0,0,0,0,0,0,0,0,0,0,0,0,0,0,0,0,0,0,0,0,0,0,0,0,0],"sum_hessian":[9.2371805E4,9.090975E4,1.4620558E3,8.831868E4,2.5910742E3,7.940238E2,6.68032E2,7.920848E4,9.110197E3,6.4458563E2,1.9464886E3,2.5299149E2,5.410323E2,3.213771E2,3.4665488E2,1.15816455E4,6.7626836E4,9.065481E3,4.4716465E1,2.7422134E2,3.7036432E2,1.6184753E3,3.2801324E2,1.696189E2,8.337259E1,4.949297E2,4.6102627E1,2.1794563E2,1.0343146E2,3.3318945E2,1.3465415E1,1.1576437E4,5.2084193E0,6.736241E4,2.6443253E2,9.060432E3,5.049208E0,5.787067E0,3.8929398E1,2.5864618E2,1.5575147E1,2.8271294E1,3.4209302E2,1.9107909E2,1.4273964E3,2.8590424E2,4.2108986E1,6.212757E1,1.07491325E2,6.3651165E1,1.9721426E1,3.409154E2,1.5401428E2,7.0248504E0,3.9077778E1,6.2965588E1,1.5498006E2,5.4532845E1,4.8898613E1,4.3742537E0,9.091161E0],"tree_param":{"num_deleted":"0","num_feature":"19","num_nodes":"61","size_leaf_vector":"1"}},{"base_weights":[-1.001097E0,-1.0585705E0,3.3142823E-1,-1.0687507E0,-9.703981E-1,-9.85715E-2,1.420233E0,-1.0125837E0,-1.0783792E0,-9.8271775E-1,3.672348E-1,1.1529629E0,-5.8140963E-1,8.381038E-1,2.1732252E0,-1.0164821E0,4.7498846E0,-1.0788177E0,-9.634039E-1,-9.8856366E-1,3.998E-1,-4.7457275E-1,3.3771298E0,1.8035123E0,5.3790563E-1,-8.395716E-1,6.334855E-2,-3.794079E-2,1.5139813E0,2.254813E0,1.0446928E0,-4.1701462E-2,-5.374912E-2,2.606421E-1,6.2559985E-2,-5.3950228E-2,1.0735799E-1,1.2467004E-1,-5.0828587E-2,-4.9576435E-2,2.7297853E-2,3.192707E-1,-6.4540203E-3,1.08451106E-1,-3.1314883E-2,2.3829567E-1,1.1474603E-3,3.5653643E-2,1.1023431E-1,7.3389694E-2,-1.8427594E-2,-4.313496E-2,9.202298E-2,5.27665E-2,-7.0916708E-3,-9.903366E-3,1.10965446E-1,4.6770465E-2,9.044283E-2,1.2787767E-1,1.0873014E-1,-2.3173217E-2,7.987682E-2],"categories":[],"categories_nodes":[],"categories_segments":[],"categories_sizes":[],"default_left":[0,0,0,0,0,0,0,0,0,0,0,0,0,0,0,0,0,0,0,0,0,0,0,0,0,0,0,0,0,0,0,0,0,0,0,0,0,0,0,0,0,0,0,0,0,0,0,0,0,0,0,0,0,0,0,0,0,0,0,0,0,0,0],"id":9,"left_children":[1,3,5,7,9,11,13,15,17,19,21,23,25,27,29,31,33,35,37,39,41,43,45,47,49,51,53,55,57,59,61,-1,-1,-1,-1,-1,-1,-1,-1,-1,-1,-1,-1,-1,-1,-1,-1,-1,-1,-1,-1,-1,-1,-1,-1,-1,-1,-1,-1,-1,-1,-1,-1],"loss_changes":[6.775789E3,7.509375E1,1.7131375E3,4.0023438E1,1.4520703E2,1.586242E3,4.5226855E2,2.5511914E2,2.2265625E0,7.078613E1,2.0668832E2,2.9144226E2,3.1532373E2,3.4695743E2,3.9174805E1,1.1795215E2,5.9637604E0,4.1273438E1,4.9560623E1,4.0004883E1,1.19172554E2,2.7080189E1,8.286929E1,1.5360608E2,3.183776E2,8.542462E1,1.1056389E2,9.301766E1,5.473584E1,4.631836E0,2.7649494E1,0E0,0E0,0E0,0E0,0E0,0E0,0E0,0E0,0E0,0E0,0E0,0E0,0E0,0E0,0E0,0E0,0E0,0E0,0E0,0E0,0E0,0E0,0E0,0E0,0E0,0E0,0E0,0E0,0E0,0E0,0E0,0E0],"parents":[2147483647,0,0,1,1,2,2,3,3,4,4,5,5,6,6,7,7,8,8,9,9,10,10,11,11,12,12,13,13,14,14,15,15,16,16,17,17,18,18,19,19,20,20,21,21,22,22,23,23,24,24,25,25,26,26,27,27,28,28,29,29,30,30],"right_children":[2,4,6,8,10,12,14,16,18,20,22,24,26,28,30,32,34,36,38,40,42,44,46,48,50,52,54,56,58,60,62,-1,-1,-1,-1,-1,-1,-1,-1,-1,-1,-1,-1,-1,-1,-1,-1,-1,-1,-1,-1,-1,-1,-1,-1,-1,-1,-1,-1,-1,-1,-1,-1],"split_conditions":[1.6089319E0,1.3489168E0,1.3489168E0,-1.2920247E0,1.4784065E0,-1.2920247E0,2.3845756E-1,9E0,9E2,8.27E2,1.3E1,1.810172E-1,2.3153994E0,2.3153994E0,1.1E1,-2.4003759E-1,8.77E2,8.89E2,8.1E2,8.89E2,8.8E2,2E0,1E0,1E0,4E0,8.89E2,3E0,1.2E1,1E0,2.3153994E0,1.2E1,-4.1701462E-2,-5.374912E-2,2.606421E-1,6.2559985E-2,-5.3950228E-2,1.0735799E-1,1.2467004E-1,-5.0828587E-2,-4.9576435E-2,2.7297853E-2,3.192707E-1,-6.4540203E-3,1.08451106E-1,-3.1314883E-2,2.3829567E-1,1.1474603E-3,3.5653643E-2,1.1023431E-1,7.3389694E-2,-1.8427594E-2,-4.313496E-2,9.202298E-2,5.27665E-2,-7.0916708E-3,-9.903366E-3,1.10965446E-1,4.6770465E-2,9.044283E-2,1.2787767E-1,1.0873014E-1,-2.3173217E-2,7.987682E-2],"split_indices":[2,15,15,15,2,15,14,1,4,5,1,14,2,2,1,2,4,7,7,7,7,1,3,1,1,7,1,1,3,2,1,0,0,0,0,0,0,0,0,0,0,0,0,0,0,0,0,0,0,0,0,0,0,0,0,0,0,0,0,0,0,0,0],"split_type":[0,0,0,0,0,0,0,0,0,0,0,0,0,0,0,0,0,0,0,0,0,0,0,0,0,0,0,0,0,0,0,0,0,0,0,0,0,0,0,0,0,0,0,0,0,0,0,0,0,0,0,0,0,0,0,0,0,0,0,0,0,0,0],"sum_hessian":[8.846872E4,8.481092E4,3.6577986E3,7.6022336E4,8.788585E3,2.6228647E3,1.0349338E3,1.1140571E4,6.4881766E4,8.708644E3,7.994147E1,7.298023E2,1.8930625E3,5.848818E2,4.5005212E2,1.1133862E4,6.7086773E0,6.4626902E4,2.5486595E2,8.672259E3,3.6384876E1,6.312812E1,1.6813347E1,3.5372894E2,3.7607333E2,1.3515844E3,5.4147815E2,2.5513289E2,3.2974887E2,4.1877832E2,3.1273815E1,2.7068577E3,8.427005E3,5.492013E0,1.2166643E0,6.4623824E4,3.0773213E0,3.1653984E0,2.5170055E2,8.655887E3,1.6371546E1,2.0549126E0,3.4329964E1,2.7048106E0,6.042331E1,1.1592596E1,5.2207503E0,9.588343E1,2.5784552E2,1.8533176E2,1.9074158E2,1.3406927E3,1.0891547E1,9.2093864E1,4.493843E2,2.3908476E2,1.6048126E1,1.12731544E2,2.1701733E2,8.124522E1,3.375331E2,8.432266E0,2.284155E1],"tree_param":{"num_deleted":"0","num_feature":"19","num_nodes":"63","size_leaf_vector":"1"}},{"base_weights":[-9.942444E-1,-1.0529842E0,3.1652972E-1,-1.0635971E0,-9.6146053E-1,-9.546969E-2,1.3326721E0,-1.0052208E0,-1.0736326E0,-9.7415966E-1,3.4455103E-1,1.0831567E0,-5.6623167E-1,7.8685063E-1,2.037714E0,-1.0092174E0,4.0709634E0,-1.0740896E0,-9.543748E-1,-9.8019105E-1,3.8307872E-1,-4.59338E-1,2.8377852E0,9.4428056E-1,3.8519363E0,-8.2607514E-1,6.000907E-2,-3.6024768E-2,1.4071224E0,2.1150248E0,9.7555125E-1,-4.1074272E-2,-5.3501643E-2,2.190434E-1,6.0644206E-2,-5.3714056E-2,1.0098433E-1,1.1587483E-1,-5.0430287E-2,-4.9162216E-2,2.5597403E-2,2.714286E-1,-5.7506864E-3,9.770912E-2,-3.0551521E-2,1.8993677E-1,-2.7230322E-2,7.39964E-2,5.8207647E-3,2.2555025E-1,1.2826556E-1,-4.246987E-2,8.4624074E-2,-1.6548776E-3,1.0598593E-1,6.0952462E-2,-1.6212456E-2,1.1432641E-1,6.1090954E-2,7.812267E-2,1.07093774E-1,-2.2480477E-2,7.374314E-2],"categories":[],"categories_nodes":[],"categories_segments":[],"categories_sizes":[],"default_left":[0,0,0,0,0,0,0,0,0,0,0,0,0,0,0,0,0,0,0,0,0,0,0,0,0,0,0,0,0,0,0,0,0,0,0,0,0,0,0,0,0,0,0,0,0,0,0,0,0,0,0,0,0,0,0,0,0,0,0,0,0,0,0],"id":10,"left_children":[1,3,5,7,9,11,13,15,17,19,21,23,25,27,29,31,33,35,37,39,41,43,45,47,49,51,53,55,57,59,61,-1,-1,-1,-1,-1,-1,-1,-1,-1,-1,-1,-1,-1,-1,-1,-1,-1,-1,-1,-1,-1,-1,-1,-1,-1,-1,-1,-1,-1,-1,-1,-1],"loss_changes":[6.523828E3,7.775E1,1.5218293E3,4.1484375E1,1.4026074E2,1.4360894E3,4.019464E2,2.2065723E2,2.359375E0,6.877588E1,1.6562253E2,2.804259E2,3.0098895E2,3.0256638E2,3.546045E1,1.2089844E2,2.3002014E0,3.875E1,4.5912964E1,3.8402344E1,9.533497E1,2.4206327E1,6.749187E1,3.1236365E2,1.8072815E1,7.8215454E1,1.0425273E2,9.289966E1,5.2282043E1,2.9603271E0,2.4046028E1,0E0,0E0,0E0,0E0,0E0,0E0,0E0,0E0,0E0,0E0,0E0,0E0,0E0,0E0,0E0,0E0,0E0,0E0,0E0,0E0,0E0,0E0,0E0,0E0,0E0,0E0,0E0,0E0,0E0,0E0,0E0,0E0],"parents":[2147483647,0,0,1,1,2,2,3,3,4,4,5,5,6,6,7,7,8,8,9,9,10,10,11,11,12,12,13,13,14,14,15,15,16,16,17,17,18,18,19,19,20,20,21,21,22,22,23,23,24,24,25,25,26,26,27,27,28,28,29,29,30,30],"right_children":[2,4,6,8,10,12,14,16,18,20,22,24,26,28,30,32,34,36,38,40,42,44,46,48,50,52,54,56,58,60,62,-1,-1,-1,-1,-1,-1,-1,-1,-1,-1,-1,-1,-1,-1,-1,-1,-1,-1,-1,-1,-1,-1,-1,-1,-1,-1,-1,-1,-1,-1,-1,-1],"split_conditions":[1.6089319E0,1.3489168E0,1.3489168E0,-1.2920247E0,1.4784065E0,-1.2920247E0,2.3845756E-1,9E0,9E2,8.27E2,1.3E1,8E0,2.3153994E0,2.3153994E0,1.1E1,-2.4003759E-1,8.77E2,8.89E2,8.1E2,8.89E2,8.92E2,2E0,2.958979E-1,4E0,2.3153994E0,8.89E2,8.92E2,4E0,3E0,1.7013973E0,1.2E1,-4.1074272E-2,-5.3501643E-2,2.190434E-1,6.0644206E-2,-5.3714056E-2,1.0098433E-1,1.1587483E-1,-5.0430287E-2,-4.9162216E-2,2.5597403E-2,2.714286E-1,-5.7506864E-3,9.770912E-2,-3.0551521E-2,1.8993677E-1,-2.7230322E-2,7.39964E-2,5.8207647E-3,2.2555025E-1,1.2826556E-1,-4.246987E-2,8.4624074E-2,-1.6548776E-3,1.0598593E-1,6.0952462E-2,-1.6212456E-2,1.1432641E-1,6.1090954E-2,7.812267E-2,1.07093774E-1,-2.2480477E-2,7.374314E-2],"split_indices":[2,15,15,15,2,15,14,1,4,5,1,1,2,2,1,2,4,7,7,7,4,1,14,1,2,7,4,1,1,2,1,0,0,0,0,0,0,0,0,0,0,0,0,0,0,0,0,0,0,0,0,0,0,0,0,0,0,0,0,0,0,0,0],"split_type":[0,0,0,0,0,0,0,0,0,0,0,0,0,0,0,0,0,0,0,0,0,0,0,0,0,0,0,0,0,0,0,0,0,0,0,0,0,0,0,0,0,0,0,0,0,0,0,0,0,0,0,0,0,0,0,0,0,0,0,0,0,0,0],"sum_hessian":[8.4725695E4,8.1091914E4,3.6337832E3,7.265623E4,8.4356875E3,2.5861309E3,1.0476522E3,1.0672943E4,6.1983285E4,8.354703E3,8.098392E1,7.3775214E2,1.8483788E3,5.916958E2,4.559564E2,1.0665347E4,7.5959096E0,6.1738703E4,2.4458347E2,8.318017E3,3.6686428E1,6.1855675E1,1.9128248E1,7.037924E2,3.3959694E1,1.3061178E3,5.4226105E2,2.547186E2,3.3697717E2,4.240967E2,3.1859674E1,2.6131846E3,8.0521626E3,6.372167E0,1.2237425E0,6.173553E4,3.1685977E0,3.3073928E0,2.4127606E2,8.301372E3,1.6645308E1,2.4068813E0,3.427955E1,2.9551332E0,5.890054E1,1.4800327E1,4.3279204E0,4.2683374E2,2.7695868E2,2.0799276E1,1.3160418E1,1.2947905E3,1.1327205E1,5.197503E2,2.251074E1,4.6967766E1,2.0775084E2,5.667441E1,2.8030276E2,2.2395655E1,4.0170108E2,8.291939E0,2.3567738E1],"tree_param":{"num_deleted":"0","num_feature":"19","num_nodes":"63","size_leaf_vector":"1"}},{"base_weights":[-9.875102E-1,-1.0475926E0,3.0228904E-1,-1.0586593E0,-9.5258605E-1,-9.222253E-2,1.2559749E0,-9.979679E-1,-1.0691237E0,-9.6565944E-1,3.2376423E-1,1.0119658E0,-5.5128855E-1,7.4047434E-1,1.9238877E0,-1.002057E0,3.5748417E0,-1.0695996E0,-9.4551927E-1,-9.724588E-1,2.6068074E-1,-4.4444886E-1,2.4405057E0,1.5972998E0,4.520521E-1,-8.12569E-1,5.707414E-2,-3.445794E-2,1.3111E0,1.9982669E0,9.13414E-1,-4.0444445E-2,-5.3265553E-2,1.896255E-1,5.8847208E-2,-5.3489786E-2,9.5445804E-2,1.0840269E-1,-5.0037812E-2,-4.874725E-2,1.0423543E-1,1.2542085E-1,-4.0487316E-3,8.854568E-2,-2.9792681E-2,1.5853505E-1,-2.6583945E-2,2.8472448E-2,9.937795E-2,6.313634E-2,-1.8628446E-2,-1.0887321E-2,-4.5793332E-2,-1.30566945E-2,3.133052E-2,5.610139E-2,-1.56055335E-2,3.8657073E-2,7.963256E-2,7.295041E-2,1.01255275E-1,-2.1801785E-2,6.8366244E-2],"categories":[],"categories_nodes":[],"categories_segments":[],"categories_sizes":[],"default_left":[0,0,0,0,0,0,0,0,0,0,0,0,0,0,0,0,0,0,0,0,0,0,0,0,0,0,0,0,0,0,0,0,0,0,0,0,0,0,0,0,0,0,0,0,0,0,0,0,0,0,0,0,0,0,0,0,0,0,0,0,0,0,0],"id":11,"left_children":[1,3,5,7,9,11,13,15,17,19,21,23,25,27,29,31,33,35,37,39,41,43,45,47,49,51,53,55,57,59,61,-1,-1,-1,-1,-1,-1,-1,-1,-1,-1,-1,-1,-1,-1,-1,-1,-1,-1,-1,-1,-1,-1,-1,-1,-1,-1,-1,-1,-1,-1,-1,-1],"loss_changes":[6.287914E3,8.050781E1,1.359135E3,4.3015625E1,1.3543994E2,1.2962117E3,3.6252722E2,1.947832E2,2.4765625E0,6.70957E1,1.3581685E2,2.4539691E2,2.871306E2,2.6457523E2,3.273462E1,1.2397754E2,4.189682E-1,3.6476562E1,4.2705673E1,6.2626953E1,3.4752735E1,2.1729778E1,4.9902924E1,1.4598346E2,2.5798444E2,7.743634E1,9.867478E1,8.212432E1,5.0955383E1,3.2320557E0,2.1035456E1,0E0,0E0,0E0,0E0,0E0,0E0,0E0,0E0,0E0,0E0,0E0,0E0,0E0,0E0,0E0,0E0,0E0,0E0,0E0,0E0,0E0,0E0,0E0,0E0,0E0,0E0,0E0,0E0,0E0,0E0,0E0,0E0],"parents":[2147483647,0,0,1,1,2,2,3,3,4,4,5,5,6,6,7,7,8,8,9,9,10,10,11,11,12,12,13,13,14,14,15,15,16,16,17,17,18,18,19,19,20,20,21,21,22,22,23,23,24,24,25,25,26,26,27,27,28,28,29,29,30,30],"right_children":[2,4,6,8,10,12,14,16,18,20,22,24,26,28,30,32,34,36,38,40,42,44,46,48,50,52,54,56,58,60,62,-1,-1,-1,-1,-1,-1,-1,-1,-1,-1,-1,-1,-1,-1,-1,-1,-1,-1,-1,-1,-1,-1,-1,-1,-1,-1,-1,-1,-1,-1,-1,-1],"split_conditions":[1.6089319E0,1.3489168E0,1.3489168E0,-1.2920247E0,1.4784065E0,-1.2920247E0,2.3845756E-1,9E0,9E2,9E2,1.3E1,1.810172E-1,2.3153994E0,2.3153994E0,1.1E1,-2.4003759E-1,8.77E2,8.89E2,8.1E2,8.89E2,8.89E2,2E0,2.958979E-1,1E0,4E0,2E0,2.3845756E-1,4E0,1E0,1.7013973E0,1.2E1,-4.0444445E-2,-5.3265553E-2,1.896255E-1,5.8847208E-2,-5.3489786E-2,9.5445804E-2,1.0840269E-1,-5.0037812E-2,-4.874725E-2,1.0423543E-1,1.2542085E-1,-4.0487316E-3,8.854568E-2,-2.9792681E-2,1.5853505E-1,-2.6583945E-2,2.8472448E-2,9.937795E-2,6.313634E-2,-1.8628446E-2,-1.0887321E-2,-4.5793332E-2,-1.30566945E-2,3.133052E-2,5.610139E-2,-1.56055335E-2,3.8657073E-2,7.963256E-2,7.295041E-2,1.01255275E-1,-2.1801785E-2,6.8366244E-2],"split_indices":[2,15,15,15,2,15,14,1,4,4,1,14,2,2,1,2,4,7,7,7,7,1,14,1,1,1,14,1,3,2,1,0,0,0,0,0,0,0,0,0,0,0,0,0,0,0,0,0,0,0,0,0,0,0,0,0,0,0,0,0,0,0,0],"split_type":[0,0,0,0,0,0,0,0,0,0,0,0,0,0,0,0,0,0,0,0,0,0,0,0,0,0,0,0,0,0,0,0,0,0,0,0,0,0,0,0,0,0,0,0,0,0,0,0,0,0,0,0,0,0,0,0,0,0,0,0,0,0,0],"sum_hessian":[8.113526E4,7.752415E4,3.6111062E3,6.9426984E4,8.0971646E3,2.5550579E3,1.0560483E3,1.0224393E4,5.9202594E4,8.015309E3,8.185559E1,7.499658E2,1.805092E3,5.972187E2,4.5882968E2,1.0216038E4,8.354505E0,5.89679E4,2.3469579E2,7.97132E3,4.398934E1,6.0638535E1,2.1217056E1,3.6575385E2,3.84212E2,1.2625253E3,5.4256683E2,2.5366762E2,3.4355106E2,4.264611E2,3.2368576E1,2.5234883E3,7.69255E3,7.126043E0,1.2284619E0,5.8964656E4,3.2408957E0,3.4243345E0,2.3127145E2,7.965523E3,5.7966166E0,4.9673567E0,3.9021984E1,3.1948442E0,5.7443687E1,1.6978941E1,4.2381144E0,1.0133101E2,2.6442285E2,1.9347643E2,1.9073557E2,1.872699E2,1.0752554E3,3.484335E2,1.9413329E2,4.8521908E1,2.051457E2,1.1931756E2,2.2423349E2,2.2843102E1,4.0361798E2,8.157173E0,2.4211403E1],"tree_param":{"num_deleted":"0","num_feature":"19","num_nodes":"63","size_leaf_vector":"1"}},{"base_weights":[-9.8102146E-1,-1.0423855E0,2.8945655E-1,-1.0539196E0,-9.4382477E-1,-8.935664E-2,1.1881337E0,-9.908051E-1,-1.0648358E0,-9.5726883E-1,3.0515036E-1,9.554454E-1,-5.365765E-1,6.987599E-1,1.8254825E0,-9.9498117E-1,1.5985954E-1,-1.0653311E0,-9.368133E-1,-9.637087E-1,3.7984893E-1,-4.2989722E-1,2.1397903E0,8.295922E-1,3.2693245E0,-7.993361E-1,5.401381E-2,-3.294629E-2,1.2276812E0,1.8977627E0,8.5718E-1,-3.9811525E-2,-5.304001E-2,-5.327658E-2,9.0591915E-2,1.01983346E-1,-4.965008E-2,-4.8342444E-2,2.4705937E-2,2.3505798E-1,-5.7281884E-3,8.06572E-2,-2.9038671E-2,1.4467944E-1,-6.2605143E-3,6.4940654E-2,4.2056977E-3,1.0768779E-1,1.7855595E-1,-1.0422207E-2,-4.5261275E-2,4.7476675E-2,-6.9689187E-3,-9.48378E-3,1.015593E-1,8.199459E-2,4.3439846E-2,6.833511E-2,9.6243866E-2,-2.1137131E-2,6.36056E-2],"categories":[],"categories_nodes":[],"categories_segments":[],"categories_sizes":[],"default_left":[0,0,0,0,0,0,0,0,0,0,0,0,0,0,0,0,0,0,0,0,0,0,0,0,0,0,0,0,0,0,0,0,0,0,0,0,0,0,0,0,0,0,0,0,0,0,0,0,0,0,0,0,0,0,0,0,0,0,0,0,0],"id":12,"left_children":[1,3,5,7,9,11,13,15,17,19,21,23,25,27,29,31,-1,33,35,37,39,41,43,45,47,49,51,53,55,57,59,-1,-1,-1,-1,-1,-1,-1,-1,-1,-1,-1,-1,-1,-1,-1,-1,-1,-1,-1,-1,-1,-1,-1,-1,-1,-1,-1,-1,-1,-1],"loss_changes":[6.0565547E3,8.325781E1,1.2188376E3,4.4640625E1,1.3081104E2,1.1776871E3,3.2985046E2,1.744961E2,2.5898438E0,6.6586426E1,1.13572556E2,2.1729816E2,2.739148E2,2.3308197E2,3.060205E1,1.2717578E2,0E0,3.4421875E1,3.985466E1,3.5515625E1,8.0825424E1,1.9577703E1,4.1445488E1,2.5099881E2,5.3152466E0,7.6237915E1,9.440714E1,8.243336E1,5.0283752E1,3.527588E0,1.8493372E1,0E0,0E0,0E0,0E0,0E0,0E0,0E0,0E0,0E0,0E0,0E0,0E0,0E0,0E0,0E0,0E0,0E0,0E0,0E0,0E0,0E0,0E0,0E0,0E0,0E0,0E0,0E0,0E0,0E0,0E0],"parents":[2147483647,0,0,1,1,2,2,3,3,4,4,5,5,6,6,7,7,8,8,9,9,10,10,11,11,12,12,13,13,14,14,15,15,17,17,18,18,19,19,20,20,21,21,22,22,23,23,24,24,25,25,26,26,27,27,28,28,29,29,30,30],"right_children":[2,4,6,8,10,12,14,16,18,20,22,24,26,28,30,32,-1,34,36,38,40,42,44,46,48,50,52,54,56,58,60,-1,-1,-1,-1,-1,-1,-1,-1,-1,-1,-1,-1,-1,-1,-1,-1,-1,-1,-1,-1,-1,-1,-1,-1,-1,-1,-1,-1,-1,-1],"split_conditions":[1.6089319E0,1.3489168E0,1.3489168E0,-1.2920247E0,1.4784065E0,-1.2920247E0,2.3845756E-1,9E0,9E2,8.27E2,1.3E1,8E0,2.3153994E0,2.3153994E0,1.1E1,-2.4003759E-1,1.5985954E-1,8.89E2,8.1E2,9E2,8.8E2,2E0,1E0,4E0,9E0,2E0,3E0,1.2E1,-1.17034994E-1,1.7013973E0,1.2E1,-3.9811525E-2,-5.304001E-2,-5.327658E-2,9.0591915E-2,1.01983346E-1,-4.965008E-2,-4.8342444E-2,2.4705937E-2,2.3505798E-1,-5.7281884E-3,8.06572E-2,-2.9038671E-2,1.4467944E-1,-6.2605143E-3,6.4940654E-2,4.2056977E-3,1.0768779E-1,1.7855595E-1,-1.0422207E-2,-4.5261275E-2,4.7476675E-2,-6.9689187E-3,-9.48378E-3,1.015593E-1,8.199459E-2,4.3439846E-2,6.833511E-2,9.6243866E-2,-2.1137131E-2,6.36056E-2],"split_indices":[2,15,15,15,2,15,14,1,4,5,1,1,2,2,1,2,0,7,7,4,7,1,3,1,1,1,1,1,10,2,1,0,0,0,0,0,0,0,0,0,0,0,0,0,0,0,0,0,0,0,0,0,0,0,0,0,0,0,0,0,0],"split_type":[0,0,0,0,0,0,0,0,0,0,0,0,0,0,0,0,0,0,0,0,0,0,0,0,0,0,0,0,0,0,0,0,0,0,0,0,0,0,0,0,0,0,0,0,0,0,0,0,0,0,0,0,0,0,0,0,0,0,0,0,0],"sum_hessian":[7.7681484E4,7.4102516E4,3.578969E3,6.633055E4,7.7719634E3,2.5183337E3,1.0606354E3,9.794343E3,5.6536207E4,7.689427E3,8.253629E1,7.545068E2,1.7638269E3,6.011513E2,4.5948398E2,9.785348E3,8.995119E0,5.631101E4,2.2519287E2,7.6528486E3,3.6578484E1,5.947382E1,2.3062477E1,7.1687415E2,3.7632656E1,1.2204728E3,5.433541E2,2.526184E2,3.4853293E2,4.2667444E2,3.2809536E1,2.4376333E3,7.347715E3,5.630772E4,3.295887E0,3.5182638E0,2.216746E2,7.636736E3,1.611285E1,2.8818352E0,3.3696648E1,3.4235184E0,5.60503E1,1.7095518E1,5.9669576E0,4.395004E2,2.7737372E2,9.745479E0,2.7887177E1,1.8592566E2,1.0345471E3,9.5806E1,4.475481E2,2.3563478E2,1.698361E1,1.6055348E2,1.8797946E2,2.3223824E1,4.0345062E2,8.027778E0,2.478176E1],"tree_param":{"num_deleted":"0","num_feature":"19","num_nodes":"61","size_leaf_vector":"1"}},{"base_weights":[-9.745763E-1,-1.0373292E0,2.7693143E-1,-1.0493628E0,-9.350043E-1,-8.635299E-2,1.1257913E0,-9.8372275E-1,-1.0607531E0,-9.488155E-1,2.8862986E-1,8.971251E-1,-5.2206767E-1,6.5920365E-1,1.7393918E0,-9.8797107E-1,1.4513157E-1,-1.0612683E0,-9.2823404E-1,-9.554472E-1,3.6322218E-1,-4.1567665E-1,1.904728E0,1.4087965E0,3.5424381E-1,-7.860764E-1,5.119772E-2,-3.1261403E-2,1.1510507E0,1.8102124E0,8.059783E-1,-3.9175145E-2,-5.28242E-2,-5.307367E-2,8.630503E-2,9.6413225E-2,-4.9266063E-2,-4.3821402E-2,-5.1014062E-2,2.0751129E-1,-5.098933E-3,7.3808275E-2,-2.8289864E-2,1.2155682E-1,-2.7517859E-2,2.0865502E-2,8.942581E-2,5.9152313E-2,-1.8617617E-2,-9.973989E-3,-4.4728257E-2,-2.8399655E-3,8.181398E-2,5.2523334E-2,-1.5033788E-2,7.066937E-2,3.0215556E-2,6.418239E-2,9.1891274E-2,1.0647249E-1,2.1064015E-2],"categories":[],"categories_nodes":[],"categories_segments":[],"categories_sizes":[],"default_left":[0,0,0,0,0,0,0,0,0,0,0,0,0,0,0,0,0,0,0,0,0,0,0,0,0,0,0,0,0,0,0,0,0,0,0,0,0,0,0,0,0,0,0,0,0,0,0,0,0,0,0,0,0,0,0,0,0,0,0,0,0],"id":13,"left_children":[1,3,5,7,9,11,13,15,17,19,21,23,25,27,29,31,-1,33,35,37,39,41,43,45,47,49,51,53,55,57,59,-1,-1,-1,-1,-1,-1,-1,-1,-1,-1,-1,-1,-1,-1,-1,-1,-1,-1,-1,-1,-1,-1,-1,-1,-1,-1,-1,-1,-1,-1],"loss_changes":[5.8414297E3,8.622656E1,1.0954713E3,4.6335938E1,1.2637891E2,1.0667953E3,3.0365698E2,1.5779004E2,2.6992188E0,6.4549805E1,9.645924E1,2.1182019E2,2.6112408E2,2.0596335E2,2.8900269E1,1.3048535E2,0E0,3.2558594E1,3.7296555E1,3.6720215E1,6.707454E1,1.7693436E1,3.4539757E1,1.4726971E2,2.2458183E2,7.4990845E1,9.336875E1,7.41151E1,4.9941193E1,3.8360596E0,1.651053E1,0E0,0E0,0E0,0E0,0E0,0E0,0E0,0E0,0E0,0E0,0E0,0E0,0E0,0E0,0E0,0E0,0E0,0E0,0E0,0E0,0E0,0E0,0E0,0E0,0E0,0E0,0E0,0E0,0E0,0E0],"parents":[2147483647,0,0,1,1,2,2,3,3,4,4,5,5,6,6,7,7,8,8,9,9,10,10,11,11,12,12,13,13,14,14,15,15,17,17,18,18,19,19,20,20,21,21,22,22,23,23,24,24,25,25,26,26,27,27,28,28,29,29,30,30],"right_children":[2,4,6,8,10,12,14,16,18,20,22,24,26,28,30,32,-1,34,36,38,40,42,44,46,48,50,52,54,56,58,60,-1,-1,-1,-1,-1,-1,-1,-1,-1,-1,-1,-1,-1,-1,-1,-1,-1,-1,-1,-1,-1,-1,-1,-1,-1,-1,-1,-1,-1,-1],"split_conditions":[1.6089319E0,1.3489168E0,1.3489168E0,-1.2920247E0,1.4784065E0,-1.2920247E0,2.3845756E-1,9E0,9E2,8.27E2,1.3E1,2.3845756E-1,2.3153994E0,2.3153994E0,1.1E1,-2.4003759E-1,1.4513157E-1,8.89E2,8.1E2,-2.2078851E-1,8.92E2,2E0,2.958979E-1,1E0,2E0,2E0,7.92E2,4E0,7E0,1.7013973E0,3.5E2,-3.9175145E-2,-5.28242E-2,-5.307367E-2,8.630503E-2,9.6413225E-2,-4.9266063E-2,-4.3821402E-2,-5.1014062E-2,2.0751129E-1,-5.098933E-3,7.3808275E-2,-2.8289864E-2,1.2155682E-1,-2.7517859E-2,2.0865502E-2,8.942581E-2,5.9152313E-2,-1.8617617E-2,-9.973989E-3,-4.4728257E-2,-2.8399655E-3,8.181398E-2,5.2523334E-2,-1.5033788E-2,7.066937E-2,3.0215556E-2,6.418239E-2,9.1891274E-2,1.0647249E-1,2.1064015E-2],"split_indices":[2,15,15,15,2,15,14,1,4,5,1,14,2,2,1,2,0,7,7,2,4,1,14,1,1,1,5,1,1,2,0,0,0,0,0,0,0,0,0,0,0,0,0,0,0,0,0,0,0,0,0,0,0,0,0,0,0,0,0,0,0],"split_type":[0,0,0,0,0,0,0,0,0,0,0,0,0,0,0,0,0,0,0,0,0,0,0,0,0,0,0,0,0,0,0,0,0,0,0,0,0,0,0,0,0,0,0,0,0,0,0,0,0,0,0,0,0,0,0,0,0,0,0,0,0],"sum_hessian":[7.437469E4,7.082363E4,3.551055E3,6.3362754E4,7.4608794E3,2.487419E3,1.0636361E3,9.382183E3,5.398057E4,7.37783E3,8.304946E1,7.633519E2,1.7240669E3,6.053764E2,4.582597E2,9.372683E3,9.499892E0,5.3764508E4,2.1606453E2,7.340997E3,3.6833145E1,5.8359005E1,2.4690458E1,3.9215067E2,3.7120126E2,1.1801812E3,5.438858E2,2.5222882E2,3.5314758E2,4.2506924E2,3.3190464E1,2.3554827E3,7.0172E3,5.376117E4,3.3352015E0,3.5912244E0,2.124733E2,3.3150974E3,4.0258994E3,3.1630151E0,3.367013E1,3.6410291E0,5.4717976E1,2.0339178E1,4.35128E0,1.0917709E2,2.8297357E2,1.7311124E2,1.9809004E2,1.8464531E2,9.9553577E2,5.1009546E2,3.379037E1,4.9715714E1,2.025131E2,2.375711E2,1.15576485E2,2.3546097E1,4.0152313E2,6.45343E0,2.6737032E1],"tree_param":{"num_deleted":"0","num_feature":"19","num_nodes":"61","size_leaf_vector":"1"}},{"base_weights":[-9.6833575E-1,-1.0324119E0,2.657025E-1,-1.0449723E0,-9.2616135E-1,-8.362937E-2,1.0698369E0,-9.766934E-1,-1.0568612E0,-9.4033295E-1,2.7314532E-1,8.5057545E-1,-5.077771E-1,6.2330353E-1,1.6634192E0,-9.8100865E-1,1.332596E-1,-1.057397E0,-9.197604E-1,-9.478255E-1,2.6275095E-1,-5.6711847E-1,1.4378163E0,1.3568859E0,3.6044854E-1,-7.727818E-1,4.8669104E-2,-2.9881166E-2,1.0817473E0,1.7572372E0,9.7178566E-1,-3.8535025E-2,-5.261738E-2,-5.2880317E-2,8.249216E-2,9.153666E-2,-4.8884805E-2,-4.752944E-2,1.0224582E-1,9.581993E-5,1.5378866E-1,6.7815065E-2,-3.78901E-2,9.6626095E-2,-6.5970817E-3,2.1479119E-2,8.61696E-2,5.1796455E-2,-1.827441E-2,-3.9939057E-2,8.523643E-2,-1.2634327E-2,2.8472561E-2,-9.085188E-3,9.1955565E-2,2.8697226E-2,6.80648E-2,7.220744E-2,8.9693666E-2,1.2333071E-1,2.5275668E-2],"categories":[],"categories_nodes":[],"categories_segments":[],"categories_sizes":[],"default_left":[0,0,0,0,0,0,0,0,0,0,0,0,0,0,0,0,0,0,0,0,0,0,0,0,0,0,0,0,0,0,0,0,0,0,0,0,0,0,0,0,0,0,0,0,0,0,0,0,0,0,0,0,0,0,0,0,0,0,0,0,0],"id":14,"left_children":[1,3,5,7,9,11,13,15,17,19,21,23,25,27,29,31,-1,33,35,37,39,41,43,45,47,49,51,53,55,57,59,-1,-1,-1,-1,-1,-1,-1,-1,-1,-1,-1,-1,-1,-1,-1,-1,-1,-1,-1,-1,-1,-1,-1,-1,-1,-1,-1,-1,-1,-1],"loss_changes":[5.6300547E3,8.9359375E1,9.8753937E2,4.809375E1,1.2202051E2,9.7182623E2,2.81156E2,1.4387305E2,2.8164062E0,6.407568E1,8.345266E1,1.8956543E2,2.4875366E2,1.8245303E2,2.7911743E1,1.3389355E2,0E0,3.0839844E1,3.498294E1,6.0138184E1,3.272393E1,1.9281494E1,2.7956871E1,1.271676E2,1.9186969E2,7.496039E1,8.568695E1,7.189928E1,5.0036224E1,2.0057373E0,3.831488E1,0E0,0E0,0E0,0E0,0E0,0E0,0E0,0E0,0E0,0E0,0E0,0E0,0E0,0E0,0E0,0E0,0E0,0E0,0E0,0E0,0E0,0E0,0E0,0E0,0E0,0E0,0E0,0E0,0E0,0E0],"parents":[2147483647,0,0,1,1,2,2,3,3,4,4,5,5,6,6,7,7,8,8,9,9,10,10,11,11,12,12,13,13,14,14,15,15,17,17,18,18,19,19,20,20,21,21,22,22,23,23,24,24,25,25,26,26,27,27,28,28,29,29,30,30],"right_children":[2,4,6,8,10,12,14,16,18,20,22,24,26,28,30,32,-1,34,36,38,40,42,44,46,48,50,52,54,56,58,60,-1,-1,-1,-1,-1,-1,-1,-1,-1,-1,-1,-1,-1,-1,-1,-1,-1,-1,-1,-1,-1,-1,-1,-1,-1,-1,-1,-1,-1,-1],"split_conditions":[1.6089319E0,1.3489168E0,1.3489168E0,-1.2920247E0,1.4784065E0,-1.2920247E0,2.3845756E-1,9E0,9E2,9E2,1.2E1,1.810172E-1,2.3153994E0,2.3153994E0,9E0,-2.4003759E-1,1.332596E-1,8.89E2,8.1E2,8.89E2,1.3298243E0,2E0,2.958979E-1,1E0,4E0,8.89E2,2.3845756E-1,1.2E1,1E0,1.8142639E0,3.47E2,-3.8535025E-2,-5.261738E-2,-5.2880317E-2,8.249216E-2,9.153666E-2,-4.8884805E-2,-4.752944E-2,1.0224582E-1,9.581993E-5,1.5378866E-1,6.7815065E-2,-3.78901E-2,9.6626095E-2,-6.5970817E-3,2.1479119E-2,8.61696E-2,5.1796455E-2,-1.827441E-2,-3.9939057E-2,8.523643E-2,-1.2634327E-2,2.8472561E-2,-9.085188E-3,9.1955565E-2,2.8697226E-2,6.80648E-2,7.220744E-2,8.9693666E-2,1.2333071E-1,2.5275668E-2],"split_indices":[2,15,15,15,2,15,14,1,4,4,1,14,2,2,1,2,0,7,7,7,14,1,14,1,1,7,14,1,3,2,0,0,0,0,0,0,0,0,0,0,0,0,0,0,0,0,0,0,0,0,0,0,0,0,0,0,0,0,0,0,0],"split_type":[0,0,0,0,0,0,0,0,0,0,0,0,0,0,0,0,0,0,0,0,0,0,0,0,0,0,0,0,0,0,0,0,0,0,0,0,0,0,0,0,0,0,0,0,0,0,0,0,0,0,0,0,0,0,0,0,0,0,0,0,0],"sum_hessian":[7.1196836E4,6.768265E4,3.5141855E3,6.0519492E4,7.163157E3,2.4505251E3,1.0636604E3,8.987357E3,5.1532137E4,7.0797153E3,8.3441696E1,7.648664E2,1.6856587E3,6.0818896E2,4.554714E2,8.97745E3,9.906677E0,5.1324836E4,2.0730034E2,7.036108E3,4.3607246E1,4.8769505E1,3.467219E1,3.7535208E2,3.8951428E2,1.1415923E3,5.440664E2,2.5120714E2,3.5698184E2,3.997111E2,5.5760323E1,2.2769033E3,6.7005474E3,5.1321477E4,3.360399E0,3.645204E0,2.0365514E2,7.0302993E3,5.808762E0,4.0822685E1,2.7845597E0,3.8474572E0,4.4922047E1,2.6188005E1,8.484187E0,1.06943825E2,2.6840826E2,2.0154793E2,1.8796637E2,1.1304072E3,1.1185078E1,3.4496426E2,1.9910213E2,2.3316905E2,1.8038082E1,1.2783021E2,2.2915164E2,4.610669E1,3.536044E2,1.223759E1,4.352273E1],"tree_param":{"num_deleted":"0","num_feature":"19","num_nodes":"61","size_leaf_vector":"1"}},{"base_weights":[-9.6218985E-1,-1.0276312E0,2.5508648E-1,-1.0407335E0,-9.173849E-1,-8.091049E-2,1.0189731E0,-9.697E-1,-1.0531466E0,-9.3192077E-1,2.586182E-1,8.072168E-1,-4.9340314E-1,5.901638E-1,1.5965079E0,-7.474024E-1,-1.0462704E0,-1.0537035E0,-9.1137195E-1,-9.3963826E-1,2.5158468E-1,-5.524122E-1,1.3095921E0,6.9111687E-1,2.8279612E0,-7.5911677E-1,4.6078987E-2,-2.833956E-2,1.0205448E0,1.6916926E0,9.1367716E-1,-4.5446243E-2,2.109676E-3,-5.269551E-2,1.4950206E-2,-5.2695867E-2,7.9078935E-2,8.723287E-2,-4.8505392E-2,-4.7121715E-2,9.67065E-2,1.1503662E-1,-3.6345168E-3,-4.130387E-2,3.7871778E-2,8.968238E-2,-4.680291E-3,5.4817803E-2,1.5407352E-3,1.4428075E-1,1.5722979E-2,-8.005572E-3,-4.371925E-2,-3.5181448E-3,6.673383E-2,4.9286764E-2,-1.4485578E-2,9.282068E-2,4.2672746E-2,6.901594E-2,8.642943E-2,1.1543187E-1,2.3774548E-2],"categories":[],"categories_nodes":[],"categories_segments":[],"categories_sizes":[],"default_left":[0,0,0,0,0,0,0,0,0,0,0,0,0,0,0,0,0,0,0,0,0,0,0,0,0,0,0,0,0,0,0,0,0,0,0,0,0,0,0,0,0,0,0,0,0,0,0,0,0,0,0,0,0,0,0,0,0,0,0,0,0,0,0],"id":15,"left_children":[1,3,5,7,9,11,13,15,17,19,21,23,25,27,29,31,33,35,37,39,41,43,45,47,49,51,53,55,57,59,61,-1,-1,-1,-1,-1,-1,-1,-1,-1,-1,-1,-1,-1,-1,-1,-1,-1,-1,-1,-1,-1,-1,-1,-1,-1,-1,-1,-1,-1,-1,-1,-1],"loss_changes":[5.429242E3,9.246094E1,8.9269275E2,4.9941406E1,1.17819824E2,8.8559094E2,2.621808E2,1.4577734E2,2.921875E0,6.2296875E1,7.297324E1,1.7792044E2,2.3664078E2,1.6276045E2,2.7840942E1,2.8182812E2,6.611084E1,2.9261719E1,3.287613E1,5.6065918E1,2.9941803E1,1.802762E1,2.5446552E1,1.9432837E2,5.0823364E0,7.622125E1,8.196385E1,6.70296E1,4.876706E1,2.1593018E0,3.4043324E1,0E0,0E0,0E0,0E0,0E0,0E0,0E0,0E0,0E0,0E0,0E0,0E0,0E0,0E0,0E0,0E0,0E0,0E0,0E0,0E0,0E0,0E0,0E0,0E0,0E0,0E0,0E0,0E0,0E0,0E0,0E0,0E0],"parents":[2147483647,0,0,1,1,2,2,3,3,4,4,5,5,6,6,7,7,8,8,9,9,10,10,11,11,12,12,13,13,14,14,15,15,16,16,17,17,18,18,19,19,20,20,21,21,22,22,23,23,24,24,25,25,26,26,27,27,28,28,29,29,30,30],"right_children":[2,4,6,8,10,12,14,16,18,20,22,24,26,28,30,32,34,36,38,40,42,44,46,48,50,52,54,56,58,60,62,-1,-1,-1,-1,-1,-1,-1,-1,-1,-1,-1,-1,-1,-1,-1,-1,-1,-1,-1,-1,-1,-1,-1,-1,-1,-1,-1,-1,-1,-1,-1,-1],"split_conditions":[1.6089319E0,1.3489168E0,1.3489168E0,-1.2920247E0,1.4784065E0,-1.2920247E0,2.3845756E-1,-2.4003759E-1,9E2,9E2,1.2E1,8E0,2.3153994E0,2.3153994E0,9E0,-8.814738E-1,1.5311643E0,8.89E2,8.1E2,8.89E2,8.89E2,3.5333827E-1,1E0,4E0,2.1339893E0,2E0,8.26E2,4E0,3E0,1.8142639E0,3.47E2,-4.5446243E-2,2.109676E-3,-5.269551E-2,1.4950206E-2,-5.2695867E-2,7.9078935E-2,8.723287E-2,-4.8505392E-2,-4.7121715E-2,9.67065E-2,1.1503662E-1,-3.6345168E-3,-4.130387E-2,3.7871778E-2,8.968238E-2,-4.680291E-3,5.4817803E-2,1.5407352E-3,1.4428075E-1,1.5722979E-2,-8.005572E-3,-4.371925E-2,-3.5181448E-3,6.673383E-2,4.9286764E-2,-1.4485578E-2,9.282068E-2,4.2672746E-2,6.901594E-2,8.642943E-2,1.1543187E-1,2.3774548E-2],"split_indices":[2,15,15,15,2,15,14,2,4,4,1,1,2,2,1,2,2,7,7,7,7,14,3,1,14,1,7,1,1,2,0,0,0,0,0,0,0,0,0,0,0,0,0,0,0,0,0,0,0,0,0,0,0,0,0,0,0,0,0,0,0,0,0],"split_type":[0,0,0,0,0,0,0,0,0,0,0,0,0,0,0,0,0,0,0,0,0,0,0,0,0,0,0,0,0,0,0,0,0,0,0,0,0,0,0,0,0,0,0,0,0,0,0,0,0,0,0,0,0,0,0,0,0,0,0,0,0,0,0],"sum_hessian":[6.815067E4,6.4673926E4,3.4767444E3,5.7796617E4,6.8773076E3,2.4152751E3,1.0614692E3,8.609282E3,4.9187336E4,6.7935444E3,8.376326E1,7.657029E2,1.6495721E3,6.103312E2,4.5113803E2,2.2084666E3,6.400816E3,4.8988445E4,1.9888976E2,6.749736E3,4.3808315E1,4.7546375E1,3.621688E1,7.253695E2,4.0333412E1,1.1049425E3,5.446296E2,2.5081598E2,3.595152E2,3.9464777E2,5.649026E1,1.833291E3,3.7517545E2,6.3648867E3,3.5929417E1,4.8985074E4,3.3729546E0,3.6821012E0,1.9520766E2,6.7438467E3,5.889435E0,5.1526785E0,3.8655636E1,3.9634842E1,7.9115357E0,2.6720844E1,9.496037E0,4.4909283E2,2.7627667E2,3.928428E1,1.049134E0,1.7869923E2,9.262433E2,5.0036078E2,4.4268837E1,5.083074E1,1.9998523E2,5.820982E1,3.013054E2,4.5878624E1,3.4876917E2,1.2482802E1,4.4007458E1],"tree_param":{"num_deleted":"0","num_feature":"19","num_nodes":"63","size_leaf_vector":"1"}},{"base_weights":[-9.5604783E-1,-1.0229504E0,2.4464376E-1,-1.0366151E0,-9.086038E-1,-7.815876E-2,9.7218573E-1,-9.626205E-1,-1.0495965E0,-9.235075E-1,2.4466915E-1,7.613651E-1,-4.7946313E-1,5.593536E-1,1.5364684E0,-7.343109E-1,-1.0423526E0,-1.0501685E0,-8.987244E-1,-9.3081146E-1,3.6453322E-1,-3.8178945E-1,1.4449468E0,1.2345817E0,3.0351204E-1,-7.4574447E-1,4.3792974E-2,-2.7080137E-2,9.6296185E-1,1.6425852E0,9.176761E-1,-4.9202126E-2,-1.0440531E-2,-5.251622E-2,1.4042775E-2,-5.25221E-2,-3.7217256E-2,-2.0508386E-2,-4.836486E-2,-4.212718E-2,-5.0186325E-2,1.9105147E-1,-5.1169232E-3,-2.4770971E-2,9.629966E-2,9.600481E-2,-1.0701015E-2,1.7051907E-2,8.005444E-2,4.874405E-2,-1.5312604E-2,-7.6491768E-3,-4.3179043E-2,4.2751733E-2,-6.9135553E-3,3.0138452E-2,-2.1635521E-2,2.4023162E-2,6.1795063E-2,9.346421E-2,7.9625726E-2,1.01491265E-1,2.611049E-2],"categories":[],"categories_nodes":[],"categories_segments":[],"categories_sizes":[],"default_left":[0,0,0,0,0,0,0,0,0,0,0,0,0,0,0,0,0,0,0,0,0,0,0,0,0,0,0,0,0,0,0,0,0,0,0,0,0,0,0,0,0,0,0,0,0,0,0,0,0,0,0,0,0,0,0,0,0,0,0,0,0,0,0],"id":16,"left_children":[1,3,5,7,9,11,13,15,17,19,21,23,25,27,29,31,33,35,37,39,41,43,45,47,49,51,53,55,57,59,61,-1,-1,-1,-1,-1,-1,-1,-1,-1,-1,-1,-1,-1,-1,-1,-1,-1,-1,-1,-1,-1,-1,-1,-1,-1,-1,-1,-1,-1,-1,-1,-1],"loss_changes":[5.2408555E3,9.5609375E1,8.0892285E2,5.201172E1,1.1374512E2,8.043964E2,2.4573157E2,1.494082E2,3.1015625E0,6.1683594E1,6.450426E1,1.6693909E2,2.2509744E2,1.450878E2,2.7822266E1,2.8046448E2,6.47666E1,3.1328125E0,5.7749176E0,4.0885742E1,6.088274E1,1.5816324E1,2.3567245E1,1.2370923E2,1.6151572E2,7.464618E1,8.0720505E1,6.43426E1,4.7217896E1,1.3366699E0,2.8694134E1,0E0,0E0,0E0,0E0,0E0,0E0,0E0,0E0,0E0,0E0,0E0,0E0,0E0,0E0,0E0,0E0,0E0,0E0,0E0,0E0,0E0,0E0,0E0,0E0,0E0,0E0,0E0,0E0,0E0,0E0,0E0,0E0],"parents":[2147483647,0,0,1,1,2,2,3,3,4,4,5,5,6,6,7,7,8,8,9,9,10,10,11,11,12,12,13,13,14,14,15,15,16,16,17,17,18,18,19,19,20,20,21,21,22,22,23,23,24,24,25,25,26,26,27,27,28,28,29,29,30,30],"right_children":[2,4,6,8,10,12,14,16,18,20,22,24,26,28,30,32,34,36,38,40,42,44,46,48,50,52,54,56,58,60,62,-1,-1,-1,-1,-1,-1,-1,-1,-1,-1,-1,-1,-1,-1,-1,-1,-1,-1,-1,-1,-1,-1,-1,-1,-1,-1,-1,-1,-1,-1,-1,-1],"split_conditions":[1.6089319E0,1.3489168E0,1.3489168E0,-1.2920247E0,1.4784065E0,-1.2920247E0,2.3845756E-1,-2.4003759E-1,8.27E2,8.27E2,1.3E1,1.810172E-1,2.3153994E0,2.3153994E0,8E0,-1.0204487E0,1.5311643E0,9E2,1.7E1,-2.2078851E-1,8.8E2,8.64E2,1E0,1E0,2E0,2E0,3E0,1.8142639E0,1E0,2.3153994E0,3.47E2,-4.9202126E-2,-1.0440531E-2,-5.251622E-2,1.4042775E-2,-5.25221E-2,-3.7217256E-2,-2.0508386E-2,-4.836486E-2,-4.212718E-2,-5.0186325E-2,1.9105147E-1,-5.1169232E-3,-2.4770971E-2,9.629966E-2,9.600481E-2,-1.0701015E-2,1.7051907E-2,8.005444E-2,4.874405E-2,-1.5312604E-2,-7.6491768E-3,-4.3179043E-2,4.2751733E-2,-6.9135553E-3,3.0138452E-2,-2.1635521E-2,2.4023162E-2,6.1795063E-2,9.346421E-2,7.9625726E-2,1.01491265E-1,2.611049E-2],"split_indices":[2,15,15,15,2,15,14,2,5,5,1,14,2,2,1,2,2,4,6,2,7,7,3,1,1,1,1,2,3,2,0,0,0,0,0,0,0,0,0,0,0,0,0,0,0,0,0,0,0,0,0,0,0,0,0,0,0,0,0,0,0,0,0],"split_type":[0,0,0,0,0,0,0,0,0,0,0,0,0,0,0,0,0,0,0,0,0,0,0,0,0,0,0,0,0,0,0,0,0,0,0,0,0,0,0,0,0,0,0,0,0,0,0,0,0,0,0,0,0,0,0,0,0,0,0,0,0,0,0],"sum_hessian":[6.5237945E4,6.179488E4,3.443065E3,5.5191336E4,6.603545E3,2.3855256E3,1.0575394E3,8.248708E3,4.6942625E4,6.519493E3,8.40519E1,7.712283E2,1.6142974E3,6.1187775E2,4.4566165E2,2.1376985E3,6.11101E3,4.6759406E4,1.8321982E2,6.483008E3,3.64854E1,5.567531E1,2.8376593E1,3.784169E2,3.9281134E2,1.0695737E3,5.4472363E2,2.4982317E2,3.6205457E2,3.7901056E2,6.6651085E1,1.4484733E3,6.8922516E2,6.0746187E3,3.6390926E1,4.6715203E4,4.420441E1,2.3410412E1,1.598094E2,2.9384265E3,3.544581E3,3.4867601E0,3.2998642E1,5.38111E1,1.8642092E0,2.193634E1,6.4402537E0,1.106305E2,2.677864E2,1.8667628E2,2.0613507E2,1.7774553E2,8.918282E2,9.9165474E1,4.4555817E2,9.767331E1,1.5214986E2,1.3180742E2,2.3024713E2,6.1994114E1,3.1701645E2,1.6399342E1,5.0251747E1],"tree_param":{"num_deleted":"0","num_feature":"19","num_nodes":"63","size_leaf_vector":"1"}},{"base_weights":[-9.5003134E-1,-1.0183411E0,2.3512074E-1,-1.032606E0,-8.9966714E-1,-7.5638264E-2,9.289417E-1,-9.555418E-1,-1.0461817E0,-9.1670847E-1,1.2775521E-1,7.244877E-1,-4.6565825E-1,5.308121E-1,1.4814303E0,-7.2116363E-1,-1.0385717E0,-1.0467815E0,-8.891848E-1,-9.2496955E-1,2.628555E-1,-4.9389124E-1,1.4315063E0,-1.1163337E-1,9.6705747E-1,-7.3232335E-1,4.1532688E-2,-2.5984963E-2,9.1157144E-1,1.5903109E0,8.6499757E-1,-4.7837563E-2,-7.735615E-3,-5.234457E-2,1.3200672E-2,-5.235351E-2,-3.648627E-2,-1.9872105E-2,-4.7997884E-2,-4.6394404E-2,9.355738E-2,4.9867545E-4,1.4147882E-1,-2.9448403E-2,8.618344E-2,9.920524E-2,-1.7503781E-2,-5.101951E-2,3.5966303E-2,8.318063E-2,1.7510666E-2,-7.3069357E-3,-4.2635113E-2,-1.21949786E-4,1.6764091E-1,-8.575767E-3,8.1399105E-2,6.574352E-2,2.8798336E-2,5.4217864E-2,8.034139E-2,9.593086E-2,2.457194E-2],"categories":[],"categories_nodes":[],"categories_segments":[],"categories_sizes":[],"default_left":[0,0,0,0,0,0,0,0,0,0,0,0,0,0,0,0,0,0,0,0,0,0,0,0,0,0,0,0,0,0,0,0,0,0,0,0,0,0,0,0,0,0,0,0,0,0,0,0,0,0,0,0,0,0,0,0,0,0,0,0,0,0,0],"id":17,"left_children":[1,3,5,7,9,11,13,15,17,19,21,23,25,27,29,31,33,35,37,39,41,43,45,47,49,51,53,55,57,59,61,-1,-1,-1,-1,-1,-1,-1,-1,-1,-1,-1,-1,-1,-1,-1,-1,-1,-1,-1,-1,-1,-1,-1,-1,-1,-1,-1,-1,-1,-1,-1,-1],"loss_changes":[5.0556445E3,9.901953E1,7.3398535E2,5.413672E1,1.11180664E2,7.3426556E2,2.3084253E2,1.530791E2,3.2851562E0,6.104785E1,8.529983E1,1.5650235E2,2.1396027E2,1.3010472E2,2.8187439E1,2.762301E2,6.35083E1,3.3203125E0,5.7836914E0,5.2305664E1,2.8645483E1,1.6073084E1,3.412387E1,1.3235403E2,2.562757E2,7.303174E1,7.950737E1,6.0492397E1,4.8566193E1,1.3760376E0,2.5944496E1,0E0,0E0,0E0,0E0,0E0,0E0,0E0,0E0,0E0,0E0,0E0,0E0,0E0,0E0,0E0,0E0,0E0,0E0,0E0,0E0,0E0,0E0,0E0,0E0,0E0,0E0,0E0,0E0,0E0,0E0,0E0,0E0],"parents":[2147483647,0,0,1,1,2,2,3,3,4,4,5,5,6,6,7,7,8,8,9,9,10,10,11,11,12,12,13,13,14,14,15,15,16,16,17,17,18,18,19,19,20,20,21,21,22,22,23,23,24,24,25,25,26,26,27,27,28,28,29,29,30,30],"right_children":[2,4,6,8,10,12,14,16,18,20,22,24,26,28,30,32,34,36,38,40,42,44,46,48,50,52,54,56,58,60,62,-1,-1,-1,-1,-1,-1,-1,-1,-1,-1,-1,-1,-1,-1,-1,-1,-1,-1,-1,-1,-1,-1,-1,-1,-1,-1,-1,-1,-1,-1,-1,-1],"split_conditions":[1.6089319E0,1.3489168E0,1.3489168E0,-1.2920247E0,1.4406224E0,-1.2920247E0,2.3845756E-1,-2.4003759E-1,8.27E2,9E2,1.3E1,1E0,2.3153994E0,2.3153994E0,8E0,-9.833035E-1,1.5311643E0,9E2,1.7E1,8.89E2,1.3298243E0,8.64E2,1E0,2.3153994E0,4E0,2E0,1.2E1,1.2E1,-1.17034994E-1,1.7013973E0,3.47E2,-4.7837563E-2,-7.735615E-3,-5.234457E-2,1.3200672E-2,-5.235351E-2,-3.648627E-2,-1.9872105E-2,-4.7997884E-2,-4.6394404E-2,9.355738E-2,4.9867545E-4,1.4147882E-1,-2.9448403E-2,8.618344E-2,9.920524E-2,-1.7503781E-2,-5.101951E-2,3.5966303E-2,8.318063E-2,1.7510666E-2,-7.3069357E-3,-4.2635113E-2,-1.21949786E-4,1.6764091E-1,-8.575767E-3,8.1399105E-2,6.574352E-2,2.8798336E-2,5.4217864E-2,8.034139E-2,9.593086E-2,2.457194E-2],"split_indices":[2,15,15,15,2,15,14,2,5,4,1,1,2,2,1,2,2,4,6,7,14,7,3,2,1,1,1,1,10,2,0,0,0,0,0,0,0,0,0,0,0,0,0,0,0,0,0,0,0,0,0,0,0,0,0,0,0,0,0,0,0,0,0],"split_type":[0,0,0,0,0,0,0,0,0,0,0,0,0,0,0,0,0,0,0,0,0,0,0,0,0,0,0,0,0,0,0,0,0,0,0,0,0,0,0,0,0,0,0,0,0,0,0,0,0,0,0,0,0,0,0,0,0,0,0,0,0,0,0],"sum_hessian":[6.2444312E4,5.904143E4,3.402883E3,5.2699098E4,6.3423315E3,2.350843E3,1.05204E3,7.903698E3,4.47954E4,6.2389565E3,1.0337473E2,7.7010834E2,1.5807347E3,6.125733E2,4.3946674E2,2.07004E3,5.833658E3,4.461925E4,1.761507E2,6.195781E3,4.3176083E1,7.041911E1,3.2955624E1,1.7329887E2,5.9680945E2,1.0357343E3,5.450004E2,2.49156E2,3.634173E2,3.7215335E2,6.731338E1,1.4615084E3,6.0853174E2,5.7968296E3,3.682893E1,4.457636E4,4.2889236E1,2.2994759E1,1.5315593E2,6.189988E3,5.792858E0,4.0217594E1,2.9584873E0,6.8228264E1,2.1908457E0,2.5066881E1,7.888743E0,8.2665726E1,9.063315E1,2.794974E2,3.1731204E2,1.7683775E2,8.5889655E2,5.388442E2,6.1562314E0,2.2982988E2,1.9326128E1,1.6373624E2,1.9968106E2,1.3871918E1,3.5828143E2,1.6536436E1,5.0776943E1],"tree_param":{"num_deleted":"0","num_feature":"19","num_nodes":"63","size_leaf_vector":"1"}},{"base_weights":[-9.4407505E-1,-1.0138289E0,2.26099E-1,-1.0287077E0,-8.9078474E-1,-7.315374E-2,8.8816977E-1,-9.484505E-1,-1.0429065E0,-9.082191E-1,1.2228203E-1,6.9076157E-1,-4.5188364E-1,5.034332E-1,1.4320337E0,-7.079625E-1,-1.0349156E0,-1.0435357E0,-8.7957424E-1,-9.16012E-1,3.554797E-1,-4.7954765E-1,1.3146826E0,1.1262838E0,2.2909817E-1,-7.188513E-1,3.9661814E-2,-2.4627106E-2,8.6242086E-1,1.5440892E0,8.167211E-1,-4.8539292E-2,-9.513575E-3,-5.218001E-2,1.2417985E-2,-5.219203E-2,-3.575342E-2,-1.9246396E-2,-4.76302E-2,-4.097493E-2,-4.9840156E-2,1.7507003E-1,-4.8686224E-3,-2.8719245E-2,8.068269E-2,8.988812E-2,-1.6925406E-2,1.4237468E-2,7.327807E-2,4.4814415E-2,-1.8611547E-2,-6.978435E-3,-4.2086918E-2,-1.1824728E-2,2.6501242E-2,4.591146E-2,-1.3829946E-2,8.423858E-2,3.5191312E-2,5.200934E-2,7.804416E-2,9.104966E-2,2.3142634E-2],"categories":[],"categories_nodes":[],"categories_segments":[],"categories_sizes":[],"default_left":[0,0,0,0,0,0,0,0,0,0,0,0,0,0,0,0,0,0,0,0,0,0,0,0,0,0,0,0,0,0,0,0,0,0,0,0,0,0,0,0,0,0,0,0,0,0,0,0,0,0,0,0,0,0,0,0,0,0,0,0,0,0,0],"id":18,"left_children":[1,3,5,7,9,11,13,15,17,19,21,23,25,27,29,31,33,35,37,39,41,43,45,47,49,51,53,55,57,59,61,-1,-1,-1,-1,-1,-1,-1,-1,-1,-1,-1,-1,-1,-1,-1,-1,-1,-1,-1,-1,-1,-1,-1,-1,-1,-1,-1,-1,-1,-1,-1,-1],"loss_changes":[4.878879E3,1.02359375E2,6.66413E2,5.6339844E1,1.0771924E2,6.7072363E2,2.1836395E2,1.5677344E2,3.4804688E0,5.931006E1,7.523265E1,1.5424753E2,2.03401E2,1.1656091E2,2.8612E1,2.7279993E2,6.232715E1,3.515625E0,5.788391E0,4.560254E1,5.3665554E1,1.4787119E1,2.8669945E1,1.1240588E2,1.5049469E2,7.137982E1,7.41186E1,5.9592194E1,4.6548004E1,1.4683838E0,2.3631989E1,0E0,0E0,0E0,0E0,0E0,0E0,0E0,0E0,0E0,0E0,0E0,0E0,0E0,0E0,0E0,0E0,0E0,0E0,0E0,0E0,0E0,0E0,0E0,0E0,0E0,0E0,0E0,0E0,0E0,0E0,0E0,0E0],"parents":[2147483647,0,0,1,1,2,2,3,3,4,4,5,5,6,6,7,7,8,8,9,9,10,10,11,11,12,12,13,13,14,14,15,15,16,16,17,17,18,18,19,19,20,20,21,21,22,22,23,23,24,24,25,25,26,26,27,27,28,28,29,29,30,30],"right_children":[2,4,6,8,10,12,14,16,18,20,22,24,26,28,30,32,34,36,38,40,42,44,46,48,50,52,54,56,58,60,62,-1,-1,-1,-1,-1,-1,-1,-1,-1,-1,-1,-1,-1,-1,-1,-1,-1,-1,-1,-1,-1,-1,-1,-1,-1,-1,-1,-1,-1,-1,-1,-1],"split_conditions":[1.6089319E0,1.3489168E0,1.3489168E0,-1.2920247E0,1.4406224E0,-1.2920247E0,2.3845756E-1,-2.4003759E-1,8.27E2,8.27E2,1.3E1,2.3845756E-1,2.3153994E0,2.3153994E0,8E0,-1.0204487E0,1.5311643E0,9E2,1.7E1,-2.2078851E-1,8.8E2,8.64E2,1E0,1E0,2E0,2E0,2.958979E-1,4E0,3E0,1.7013973E0,3.47E2,-4.8539292E-2,-9.513575E-3,-5.218001E-2,1.2417985E-2,-5.219203E-2,-3.575342E-2,-1.9246396E-2,-4.76302E-2,-4.097493E-2,-4.9840156E-2,1.7507003E-1,-4.8686224E-3,-2.8719245E-2,8.068269E-2,8.988812E-2,-1.6925406E-2,1.4237468E-2,7.327807E-2,4.4814415E-2,-1.8611547E-2,-6.978435E-3,-4.2086918E-2,-1.1824728E-2,2.6501242E-2,4.591146E-2,-1.3829946E-2,8.423858E-2,3.5191312E-2,5.200934E-2,7.804416E-2,9.104966E-2,2.3142634E-2],"split_indices":[2,15,15,15,2,15,14,2,5,5,1,14,2,2,1,2,2,4,6,2,7,7,3,1,1,1,14,1,1,2,0,0,0,0,0,0,0,0,0,0,0,0,0,0,0,0,0,0,0,0,0,0,0,0,0,0,0,0,0,0,0,0,0],"split_type":[0,0,0,0,0,0,0,0,0,0,0,0,0,0,0,0,0,0,0,0,0,0,0,0,0,0,0,0,0,0,0,0,0,0,0,0,0,0,0,0,0,0,0,0,0,0,0,0,0,0,0,0,0,0,0,0,0,0,0,0,0,0,0],"sum_hessian":[5.976872E4,5.6406473E4,3.3622456E3,5.03149E4,6.0915723E3,2.3162166E3,1.0460289E3,7.573651E3,4.274125E4,5.9886147E3,1.02957504E2,7.674372E2,1.5487793E3,6.137674E2,4.3226157E2,2.0053363E3,5.5683145E3,4.257186E4,1.6938837E2,5.9521846E3,3.6430317E1,6.882029E1,3.413722E1,3.9415817E2,3.7327905E2,1.00336847E3,5.454109E2,2.4876811E2,3.649993E2,3.643921E2,6.786946E1,1.329497E3,6.7583936E2,5.53107E3,3.724468E1,4.2530227E4,4.1632633E1,2.2597982E1,1.4679039E2,2.717269E3,3.2349155E3,3.7371068E0,3.269321E1,6.6531525E1,2.2887661E0,2.6350018E1,7.7872024E0,1.13780235E2,2.8037793E2,1.7671675E2,1.965623E2,1.7597372E2,8.273947E2,3.4924518E2,1.961657E2,5.1903942E1,1.9686417E2,5.7455524E1,3.0754376E2,1.3782649E1,3.5060947E2,1.6603386E1,5.126607E1],"tree_param":{"num_deleted":"0","num_feature":"19","num_nodes":"63","size_leaf_vector":"1"}},{"base_weights":[-9.3814945E-1,-1.0093762E0,2.1745472E-1,-1.0249084E0,-8.817411E-1,-7.078164E-2,8.5061216E-1,-9.4133264E-1,-1.039761E0,-8.9955956E-1,1.1715617E-1,6.586971E-1,-4.3842667E-1,4.7828934E-1,1.3867968E0,-6.947097E-1,-1.0313728E0,-1.040421E0,-8.6988103E-1,-9.0837944E-1,2.7045602E-1,-4.6540588E-1,1.2135615E0,5.484384E-1,2.4968038E0,-7.0532775E-1,3.7566062E-2,-2.3523798E-2,8.1707996E-1,1.5022278E0,7.722689E-1,-4.820434E-2,-9.115854E-3,-5.202198E-2,1.1689493E-2,-5.2037127E-2,-3.5019014E-2,-1.8631605E-2,-4.7261067E-2,-4.55739E-2,9.100075E-2,1.1027085E-1,-2.2424029E-3,5.5232234E-2,-2.9555043E-2,7.924989E-2,-3.3971924E-2,5.1294614E-2,4.7281473E-3,1.2718932E-1,1.57437E-2,-3.674777E-2,8.732937E-2,-1.6878548E-3,9.416752E-2,2.7418507E-2,-2.0530405E-2,1.7606236E-2,5.4651577E-2,4.9931545E-2,7.5969234E-2,5.0254192E-2,-2.7132902E-2],"categories":[],"categories_nodes":[],"categories_segments":[],"categories_sizes":[],"default_left":[0,0,0,0,0,0,0,0,0,0,0,0,0,0,0,0,0,0,0,0,0,0,0,0,0,0,0,0,0,0,0,0,0,0,0,0,0,0,0,0,0,0,0,0,0,0,0,0,0,0,0,0,0,0,0,0,0,0,0,0,0,0,0],"id":19,"left_children":[1,3,5,7,9,11,13,15,17,19,21,23,25,27,29,31,33,35,37,39,41,43,45,47,49,51,53,55,57,59,61,-1,-1,-1,-1,-1,-1,-1,-1,-1,-1,-1,-1,-1,-1,-1,-1,-1,-1,-1,-1,-1,-1,-1,-1,-1,-1,-1,-1,-1,-1,-1,-1],"loss_changes":[4.709121E3,1.0593359E2,6.0637E2,5.8640625E1,1.0429053E2,6.128049E2,2.068299E2,1.6047705E2,3.671875E0,5.9592773E1,6.665367E1,1.5381909E2,1.930257E2,1.04565445E2,2.901764E1,2.6821454E2,6.1217285E1,3.7148438E0,5.788742E0,4.9916016E1,2.6820707E1,1.4130065E1,2.6515335E1,1.5672755E2,3.6123352E0,7.1997345E1,7.204074E1,5.5305416E1,4.671965E1,1.5679321E0,2.1770348E1,0E0,0E0,0E0,0E0,0E0,0E0,0E0,0E0,0E0,0E0,0E0,0E0,0E0,0E0,0E0,0E0,0E0,0E0,0E0,0E0,0E0,0E0,0E0,0E0,0E0,0E0,0E0,0E0,0E0,0E0,0E0,0E0],"parents":[2147483647,0,0,1,1,2,2,3,3,4,4,5,5,6,6,7,7,8,8,9,9,10,10,11,11,12,12,13,13,14,14,15,15,16,16,17,17,18,18,19,19,20,20,21,21,22,22,23,23,24,24,25,25,26,26,27,27,28,28,29,29,30,30],"right_children":[2,4,6,8,10,12,14,16,18,20,22,24,26,28,30,32,34,36,38,40,42,44,46,48,50,52,54,56,58,60,62,-1,-1,-1,-1,-1,-1,-1,-1,-1,-1,-1,-1,-1,-1,-1,-1,-1,-1,-1,-1,-1,-1,-1,-1,-1,-1,-1,-1,-1,-1,-1,-1],"split_conditions":[1.6089319E0,1.3489168E0,1.3489168E0,-1.2920247E0,1.4406224E0,-1.2920247E0,2.3845756E-1,-2.4003759E-1,8.27E2,9E2,1.3E1,8E0,2.3153994E0,2.3153994E0,8E0,-1.0204487E0,1.5311643E0,9E2,1.7E1,8.89E2,8.89E2,2E0,2.958979E-1,1.810172E-1,2.1339893E0,8.89E2,9E2,1.8142639E0,1E0,1.7013973E0,1.1234995E0,-4.820434E-2,-9.115854E-3,-5.202198E-2,1.1689493E-2,-5.2037127E-2,-3.5019014E-2,-1.8631605E-2,-4.7261067E-2,-4.55739E-2,9.100075E-2,1.1027085E-1,-2.2424029E-3,5.5232234E-2,-2.9555043E-2,7.924989E-2,-3.3971924E-2,5.1294614E-2,4.7281473E-3,1.2718932E-1,1.57437E-2,-3.674777E-2,8.732937E-2,-1.6878548E-3,9.416752E-2,2.7418507E-2,-2.0530405E-2,1.7606236E-2,5.4651577E-2,4.9931545E-2,7.5969234E-2,5.0254192E-2,-2.7132902E-2],"split_indices":[2,15,15,15,2,15,14,2,5,4,1,1,2,2,1,2,2,4,6,7,7,1,14,14,14,7,4,2,3,2,17,0,0,0,0,0,0,0,0,0,0,0,0,0,0,0,0,0,0,0,0,0,0,0,0,0,0,0,0,0,0,0,0],"split_type":[0,0,0,0,0,0,0,0,0,0,0,0,0,0,0,0,0,0,0,0,0,0,0,0,0,0,0,0,0,0,0,0,0,0,0,0,0,0,0,0,0,0,0,0,0,0,0,0,0,0,0,0,0,0,0,0,0,0,0,0,0,0,0],"sum_hessian":[5.7208523E4,5.388726E4,3.3212637E3,4.8034766E4,5.8524927E3,2.282895E3,1.0383689E3,7.258018E3,4.077675E4,5.7500225E3,1.0247014E2,7.647304E2,1.5181646E3,6.139431E2,4.2442572E2,1.9434797E3,5.314538E3,4.061383E4,1.6292146E2,5.7072236E3,4.279897E1,6.7291245E1,3.5178894E1,7.2267896E2,4.205148E1,9.724215E2,5.45743E2,2.4781407E2,3.6612906E2,3.560937E2,6.833202E1,1.2732306E3,6.702492E2,5.276899E3,3.763933E1,4.0573395E4,4.0432186E1,2.2219276E1,1.4070218E2,5.7014146E3,5.8089256E0,5.1569815E0,3.7641987E1,4.410582E0,6.2880665E1,2.9544504E1,5.634389E0,3.5157727E2,3.7110165E2,4.1002743E1,1.048737E0,9.615035E2,1.0918046E1,5.2638464E2,1.9358376E1,9.9860085E1,1.4795398E2,1.3721288E2,2.2891618E2,1.3682532E1,3.4241116E2,5.8253555E1,1.0078473E1],"tree_param":{"num_deleted":"0","num_feature":"19","num_nodes":"63","size_leaf_vector":"1"}},{"base_weights":[-9.3216664E-1,-1.0049964E0,2.0887673E-1,-1.0211966E0,-8.727293E-1,-6.819345E-2,8.153526E-1,-9.341744E-1,-1.0367345E0,-8.9094293E-1,1.117132E-1,6.2386584E-1,-4.2506E-1,4.548482E-1,1.3441576E0,-6.8140566E-1,-1.0279325E0,-1.037427E0,-8.6009455E-1,-8.9998037E-1,2.590594E-1,-4.5130703E-1,1.1229385E0,-1.6318962E-1,8.578762E-1,-6.9139206E-1,3.5836343E-2,-2.257162E-2,7.762337E-1,1.46412E0,7.273615E-1,-4.8940457E-2,-1.0519001E-2,-5.1869996E-2,1.1010557E-2,-5.1888313E-2,-3.428342E-2,-1.802804E-2,-4.688981E-2,-3.983805E-2,-4.9352996E-2,7.130254E-4,1.3133976E-1,-2.7389888E-2,7.673578E-2,7.6761514E-2,-1.7815232E-2,-5.1074345E-2,3.035891E-2,7.741444E-2,1.3521509E-2,-1.0370613E-2,-4.246239E-2,3.9024338E-2,-6.833104E-3,4.2333093E-2,-1.3170754E-2,3.1057367E-2,7.977189E-2,4.7970153E-2,7.408583E-2,8.4696375E-2,1.9748947E-2],"categories":[],"categories_nodes":[],"categories_segments":[],"categories_sizes":[],"default_left":[0,0,0,0,0,0,0,0,0,0,0,0,0,0,0,0,0,0,0,0,0,0,0,0,0,0,0,0,0,0,0,0,0,0,0,0,0,0,0,0,0,0,0,0,0,0,0,0,0,0,0,0,0,0,0,0,0,0,0,0,0,0,0],"id":20,"left_children":[1,3,5,7,9,11,13,15,17,19,21,23,25,27,29,31,33,35,37,39,41,43,45,47,49,51,53,55,57,59,61,-1,-1,-1,-1,-1,-1,-1,-1,-1,-1,-1,-1,-1,-1,-1,-1,-1,-1,-1,-1,-1,-1,-1,-1,-1,-1,-1,-1,-1,-1,-1,-1],"loss_changes":[4.5512383E3,1.0941406E2,5.523196E2,6.1035156E1,1.0094092E2,5.5764923E2,1.958797E2,1.6417969E2,3.8632812E0,5.7624023E1,5.917858E1,1.4163339E2,1.828787E2,9.4288E1,2.981305E1,2.639037E2,6.017334E1,3.9179688E0,5.784439E0,4.8462402E1,2.536943E1,1.366276E1,2.3199623E1,1.1759178E2,2.3981888E2,7.195447E1,7.0304504E1,5.2175884E1,4.5664993E1,1.6724854E0,2.1799286E1,0E0,0E0,0E0,0E0,0E0,0E0,0E0,0E0,0E0,0E0,0E0,0E0,0E0,0E0,0E0,0E0,0E0,0E0,0E0,0E0,0E0,0E0,0E0,0E0,0E0,0E0,0E0,0E0,0E0,0E0,0E0,0E0],"parents":[2147483647,0,0,1,1,2,2,3,3,4,4,5,5,6,6,7,7,8,8,9,9,10,10,11,11,12,12,13,13,14,14,15,15,16,16,17,17,18,18,19,19,20,20,21,21,22,22,23,23,24,24,25,25,26,26,27,27,28,28,29,29,30,30],"right_children":[2,4,6,8,10,12,14,16,18,20,22,24,26,28,30,32,34,36,38,40,42,44,46,48,50,52,54,56,58,60,62,-1,-1,-1,-1,-1,-1,-1,-1,-1,-1,-1,-1,-1,-1,-1,-1,-1,-1,-1,-1,-1,-1,-1,-1,-1,-1,-1,-1,-1,-1,-1,-1],"split_conditions":[1.6089319E0,1.3489168E0,1.3489168E0,-1.2920247E0,1.4406224E0,-1.2920247E0,2.3845756E-1,-2.4003759E-1,8.27E2,9E2,1.3E1,1E0,2.3153994E0,2.3153994E0,8E0,-1.0585726E0,1.5311643E0,9E2,1.7E1,-2.2078851E-1,1.3298243E0,8.64E2,1E0,2.3153994E0,4E0,4E0,3E0,4E0,7.66E2,1.7013973E0,3.47E2,-4.8940457E-2,-1.0519001E-2,-5.1869996E-2,1.1010557E-2,-5.1888313E-2,-3.428342E-2,-1.802804E-2,-4.688981E-2,-3.983805E-2,-4.9352996E-2,7.130254E-4,1.3133976E-1,-2.7389888E-2,7.673578E-2,7.6761514E-2,-1.7815232E-2,-5.1074345E-2,3.035891E-2,7.741444E-2,1.3521509E-2,-1.0370613E-2,-4.246239E-2,3.9024338E-2,-6.833104E-3,4.2333093E-2,-1.3170754E-2,3.1057367E-2,7.977189E-2,4.7970153E-2,7.408583E-2,8.4696375E-2,1.9748947E-2],"split_indices":[2,15,15,15,2,15,14,2,5,4,1,1,2,2,1,2,2,4,6,2,14,7,3,2,1,1,1,1,4,2,0,0,0,0,0,0,0,0,0,0,0,0,0,0,0,0,0,0,0,0,0,0,0,0,0,0,0,0,0,0,0,0,0],"split_type":[0,0,0,0,0,0,0,0,0,0,0,0,0,0,0,0,0,0,0,0,0,0,0,0,0,0,0,0,0,0,0,0,0,0,0,0,0,0,0,0,0,0,0,0,0,0,0,0,0,0,0,0,0,0,0,0,0,0,0,0,0,0,0],"sum_hessian":[5.476345E4,5.1477875E4,3.2855742E3,4.5854785E4,5.623091E3,2.2558643E3,1.0297102E3,6.9562524E3,3.8898535E4,5.5210386E3,1.02052246E2,7.6723773E2,1.4886265E3,6.133968E2,4.163134E2,1.8843569E3,5.0718955E3,3.8741793E4,1.5673875E2,5.478205E3,4.283377E1,6.590949E1,3.614275E1,1.7590677E2,5.9133093E2,9.431314E2,5.45495E2,2.4716365E2,3.6623312E2,3.4737726E2,6.893613E1,1.1543976E3,7.2995935E2,5.0338813E3,3.8013996E1,3.8702508E4,3.928559E1,2.1857845E1,1.348809E2,2.511434E3,2.9667708E3,3.9731934E1,3.1018395E0,6.354628E1,2.3632157E0,2.8235231E1,7.907517E0,8.3050705E1,9.285606E1,2.7108963E2,3.2024133E2,2.3252675E2,7.106047E2,1.01934425E2,4.4356058E2,5.307914E1,1.9408452E2,3.0941495E2,5.6818176E1,1.3573553E1,3.338037E2,1.659159E1,5.234454E1],"tree_param":{"num_deleted":"0","num_feature":"19","num_nodes":"63","size_leaf_vector":"1"}},{"base_weights":[-9.262824E-1,-1.0035409E0,1.592271E-1,-1.0191636E0,-8.762163E-1,-1.8957983E-1,6.341655E-1,-9.33557E-1,-1.0344962E0,-8.8552004E-1,2.591573E-1,4.509209E-1,-5.6166667E-1,2.8983375E-1,1.010956E0,-6.6804767E-1,-1.0344714E0,-1.0351994E0,-8.6605746E-1,-8.889834E-1,8.9589596E-2,1.0501136E-1,-5.4164838E-2,-9.277603E-1,1.1443129E0,-9.564486E-1,-3.203179E-2,9.024544E-1,-3.9691288E-2,6.9363755E-1,1.4242345E0,-4.864423E-2,-1.0088681E-2,-5.181814E-2,1.06915094E-1,-5.1774878E-2,8.682968E-2,9.0269506E-2,-4.678471E-2,-3.9549537E-2,-4.8537996E-2,-1.5770596E-2,1.2803917E-1,-5.453793E-2,-1.3259657E-2,8.1983335E-2,2.5371665E-3,-4.826291E-2,1.7381765E-2,1.4116275E-1,-1.8888487E-2,6.275408E-2,1.1182102E-2,-7.358079E-3,5.4390658E-2,8.3343424E-2,2.5787523E-2,1.3085803E-1,6.849885E-2],"categories":[],"categories_nodes":[],"categories_segments":[],"categories_sizes":[],"default_left":[0,0,0,0,0,0,0,0,0,0,0,0,0,0,0,0,0,0,0,0,0,0,0,0,0,0,0,0,0,0,0,0,0,0,0,0,0,0,0,0,0,0,0,0,0,0,0,0,0,0,0,0,0,0,0,0,0,0,0],"id":21,"left_children":[1,3,5,7,9,11,13,15,17,19,21,23,25,27,29,31,33,35,37,39,-1,-1,41,43,45,47,49,51,53,55,57,-1,-1,-1,-1,-1,-1,-1,-1,-1,-1,-1,-1,-1,-1,-1,-1,-1,-1,-1,-1,-1,-1,-1,-1,-1,-1,-1,-1],"loss_changes":[4.39641E3,9.645703E1,5.7726697E2,5.6234375E1,5.6801758E1,4.7914636E2,1.9113287E2,1.7696436E2,3.484375E0,5.0851074E1,2.5669632E1,7.074687E2,2.6582605E2,1.5594937E2,9.1350525E1,2.597561E2,3.1034668E1,3.2203125E1,3.1410995E1,4.1751953E1,0E0,0E0,2.7337294E1,2.6475784E1,2.6649738E2,8.704407E0,5.3813135E2,6.438994E1,6.1129425E1,6.843338E1,1.6147217E1,0E0,0E0,0E0,0E0,0E0,0E0,0E0,0E0,0E0,0E0,0E0,0E0,0E0,0E0,0E0,0E0,0E0,0E0,0E0,0E0,0E0,0E0,0E0,0E0,0E0,0E0,0E0,0E0],"parents":[2147483647,0,0,1,1,2,2,3,3,4,4,5,5,6,6,7,7,8,8,9,9,10,10,11,11,12,12,13,13,14,14,15,15,16,16,17,17,18,18,19,19,22,22,23,23,24,24,25,25,26,26,27,27,28,28,29,29,30,30],"right_children":[2,4,6,8,10,12,14,16,18,20,22,24,26,28,30,32,34,36,38,40,-1,-1,42,44,46,48,50,52,54,56,58,-1,-1,-1,-1,-1,-1,-1,-1,-1,-1,-1,-1,-1,-1,-1,-1,-1,-1,-1,-1,-1,-1,-1,-1,-1,-1,-1,-1],"split_conditions":[1.5311643E0,1.3489168E0,2.3153994E0,-1.2920247E0,9E2,4E0,1.2021978E0,-2.4003759E-1,9E2,8.89E2,8.89E2,1E0,8E0,-1.2920247E0,2.3845756E-1,-1.0585726E0,9E0,8.89E2,8.1E2,-2.2078851E-1,8.9589596E-2,1.0501136E-1,1.3298243E0,2.1073816E0,2E0,8.89E2,3.42E2,2.3845756E-1,8.26E2,3E0,1.3489168E0,-4.864423E-2,-1.0088681E-2,-5.181814E-2,1.06915094E-1,-5.1774878E-2,8.682968E-2,9.0269506E-2,-4.678471E-2,-3.9549537E-2,-4.8537996E-2,-1.5770596E-2,1.2803917E-1,-5.453793E-2,-1.3259657E-2,8.1983335E-2,2.5371665E-3,-4.826291E-2,1.7381765E-2,1.4116275E-1,-1.8888487E-2,6.275408E-2,1.1182102E-2,-7.358079E-3,5.4390658E-2,8.3343424E-2,2.5787523E-2,1.3085803E-1,6.849885E-2],"split_indices":[2,15,2,15,4,1,15,2,4,7,7,1,1,15,14,2,1,7,7,2,0,0,14,2,1,7,0,14,7,1,15,0,0,0,0,0,0,0,0,0,0,0,0,0,0,0,0,0,0,0,0,0,0,0,0,0,0,0,0],"split_type":[0,0,0,0,0,0,0,0,0,0,0,0,0,0,0,0,0,0,0,0,0,0,0,0,0,0,0,0,0,0,0,0,0,0,0,0,0,0,0,0,0,0,0,0,0,0,0,0,0,0,0,0,0,0,0,0,0,0,0],"sum_hessian":[5.241969E4,4.893681E4,3.4828853E3,4.358226E4,5.354546E3,2.0084379E3,1.4744473E3,6.629472E3,3.695279E4,5.311243E3,4.3302616E1,7.379455E2,1.2704923E3,7.713315E2,7.031158E2,1.82788E3,4.8015923E3,3.6794023E4,1.5876756E2,5.3050483E3,6.1946898E0,5.468254E0,3.7834362E1,2.4683063E2,4.911149E2,7.274535E2,5.430388E2,2.6917294E2,5.0215857E2,3.9924826E2,3.0386752E2,1.1046223E3,7.232577E2,4.799405E3,2.1876135E0,3.679069E4,3.3309305E0,3.4002264E0,1.5536734E2,2.4181062E3,2.8869421E3,3.5197342E1,2.6370187E0,1.9757812E2,4.92525E1,3.3766397E2,1.5345093E2,7.228303E2,4.6231704E0,5.7878845E1,4.8516E2,1.7658977E2,9.258318E1,4.5925342E2,4.2905155E1,6.0404003E1,3.3884424E2,1.1164507E1,2.92703E2],"tree_param":{"num_deleted":"0","num_feature":"19","num_nodes":"59","size_leaf_vector":"1"}},{"base_weights":[-9.205839E-1,-9.993631E-1,1.5359321E-1,-1.0156869E0,-8.6721444E-1,-1.1205309E-1,7.493428E-1,-9.265357E-1,-1.0317317E0,-8.7599355E-1,3.7566608E-1,5.60735E-1,-4.4644597E-1,4.2105E-1,1.266937E0,-6.546443E-1,-1.0316945E0,-1.0324434E0,-8.523464E-1,-7.732974E-1,-9.626101E-1,1.6952252E-1,-8.1685945E-2,-2.086411E-1,7.8827554E-1,-6.970673E-1,3.1076841E-2,3.1536034E-1,1.6839088E0,1.4210929E0,6.001945E-1,-5.0743222E-2,-1.2630819E-2,-5.1681947E-2,1.01166956E-1,-5.1639535E-2,-3.4012035E-2,-2.9107733E-2,-5.1860142E-2,-4.582983E-2,5.276648E-4,-4.87881E-2,-1.1648248E-2,1.3615422E-1,-1.3691138E-2,-5.0364673E-2,2.5944931E-2,7.488583E-2,1.0264748E-2,-3.6225587E-2,8.031428E-2,-5.28599E-4,1.4793491E-1,2.5054533E-2,-5.7510443E-2,9.802209E-2,1.0393414E-2,1.3163917E-1,7.025006E-2,8.160368E-2,1.4512278E-2],"categories":[],"categories_nodes":[],"categories_segments":[],"categories_sizes":[],"default_left":[0,0,0,0,0,0,0,0,0,0,0,0,0,0,0,0,0,0,0,0,0,0,0,0,0,0,0,0,0,0,0,0,0,0,0,0,0,0,0,0,0,0,0,0,0,0,0,0,0,0,0,0,0,0,0,0,0,0,0,0,0],"id":22,"left_children":[1,3,5,7,9,11,13,15,17,19,21,23,25,27,29,31,33,35,37,39,41,-1,43,45,47,49,51,53,55,57,59,-1,-1,-1,-1,-1,-1,-1,-1,-1,-1,-1,-1,-1,-1,-1,-1,-1,-1,-1,-1,-1,-1,-1,-1,-1,-1,-1,-1,-1,-1],"loss_changes":[4.2456133E3,9.994531E1,5.427256E2,5.855078E1,5.647705E1,5.3395526E2,1.7916766E2,1.8100342E2,3.6171875E0,4.4710205E1,5.1007187E1,1.3812575E2,1.8973651E2,8.6039154E1,4.128186E1,2.56786E2,2.9298828E1,3.5898438E0,6.63813E0,2.6319592E2,2.6334229E1,0E0,1.8487673E1,1.05496056E2,2.513208E2,6.688394E1,6.667647E1,1.6382773E2,1.9943985E1,2.7786865E0,2.4701296E1,0E0,0E0,0E0,0E0,0E0,0E0,0E0,0E0,0E0,0E0,0E0,0E0,0E0,0E0,0E0,0E0,0E0,0E0,0E0,0E0,0E0,0E0,0E0,0E0,0E0,0E0,0E0,0E0,0E0,0E0],"parents":[2147483647,0,0,1,1,2,2,3,3,4,4,5,5,6,6,7,7,8,8,9,9,10,10,11,11,12,12,13,13,14,14,15,15,16,16,17,17,18,18,19,19,20,20,22,22,23,23,24,24,25,25,26,26,27,27,28,28,29,29,30,30],"right_children":[2,4,6,8,10,12,14,16,18,20,22,24,26,28,30,32,34,36,38,40,42,-1,44,46,48,50,52,54,56,58,60,-1,-1,-1,-1,-1,-1,-1,-1,-1,-1,-1,-1,-1,-1,-1,-1,-1,-1,-1,-1,-1,-1,-1,-1,-1,-1,-1,-1,-1,-1],"split_conditions":[1.5311643E0,1.3489168E0,1.3489168E0,-1.2920247E0,8.27E2,-1.2920247E0,2.3845756E-1,-2.4003759E-1,8.27E2,-2.2078851E-1,8.8E2,1E0,2.3153994E0,1.2E1,8E0,-1.1409445E0,9E0,9E2,-3.2598743E-1,-4.9265003E-1,1.4406224E0,1.6952252E-1,-1.1975513E0,2.3153994E0,4E0,8.89E2,1.2E1,1.1E1,9.785556E-1,1.6089319E0,3.44E2,-5.0743222E-2,-1.2630819E-2,-5.1681947E-2,1.01166956E-1,-5.1639535E-2,-3.4012035E-2,-2.9107733E-2,-5.1860142E-2,-4.582983E-2,5.276648E-4,-4.87881E-2,-1.1648248E-2,1.3615422E-1,-1.3691138E-2,-5.0364673E-2,2.5944931E-2,7.488583E-2,1.0264748E-2,-3.6225587E-2,8.031428E-2,-5.28599E-4,1.4793491E-1,2.5054533E-2,-5.7510443E-2,9.802209E-2,1.0393414E-2,1.3163917E-1,7.025006E-2,8.160368E-2,1.4512278E-2],"split_indices":[2,15,15,15,5,15,14,2,5,2,7,1,2,1,1,2,1,4,2,2,2,0,14,2,1,7,1,1,10,2,0,0,0,0,0,0,0,0,0,0,0,0,0,0,0,0,0,0,0,0,0,0,0,0,0,0,0,0,0,0,0],"split_type":[0,0,0,0,0,0,0,0,0,0,0,0,0,0,0,0,0,0,0,0,0,0,0,0,0,0,0,0,0,0,0,0,0,0,0,0,0,0,0,0,0,0,0,0,0,0,0,0,0,0,0,0,0,0,0,0,0,0,0,0,0],"sum_hessian":[5.016817E4,4.6740344E4,3.4278274E3,4.1595543E4,5.144803E3,2.3712795E3,1.0565479E3,6.353243E3,3.5242297E4,5.1090107E3,3.579256E1,7.8706085E2,1.5842188E3,6.4760626E2,4.089416E2,1.7739266E3,4.579317E3,3.5098305E4,1.4399355E2,2.342077E3,2.7669338E3,3.869866E0,3.1922695E1,1.796611E2,6.073997E2,1.038642E3,5.455768E2,5.987464E2,4.885985E1,3.3122784E2,7.771372E1,9.3480756E2,8.391191E2,4.5770654E3,2.2514167E0,3.50618E4,3.6503765E1,6.018073E1,8.381281E1,1.9799452E3,3.6213156E2,2.7176116E3,4.9322487E1,1.2020984E0,3.0720598E1,8.546161E1,9.419949E1,2.7327576E2,3.3412396E2,1.0270896E3,1.1552315E1,5.389066E2,6.6701846E0,5.319863E2,6.676007E1,4.087402E1,7.98583E0,2.209946E0,3.290179E2,1.6965782E1,6.0747944E1],"tree_param":{"num_deleted":"0","num_feature":"19","num_nodes":"61","size_leaf_vector":"1"}},{"base_weights":[-9.146273E-1,-9.9518347E-1,1.4780983E-1,-1.0122533E0,-8.5798365E-1,-1.0825569E-1,7.1658427E-1,-9.194391E-1,-1.0290418E0,-8.67813E-1,2.7054858E-1,5.364901E-1,-4.3292648E-1,3.9818603E-1,1.2318202E0,-6.4118737E-1,-1.029017E0,-1.0298125E0,-8.478567E-1,-8.714619E-1,8.678108E-2,1.00382045E-1,-3.3273634E-2,4.3187422E-1,2.1873991E0,-6.8337804E-1,2.9735686E-2,2.639995E-1,1.2873542E0,1.3897378E0,5.698235E-1,-4.181901E-2,5.727153E-3,-5.1550716E-2,9.6042715E-2,-5.1506825E-2,8.515667E-2,8.761635E-2,-4.6076935E-2,-3.8415965E-2,-4.7951482E-2,-1.4598685E-2,1.20119706E-1,3.9654482E-2,-6.201788E-3,6.605644E-2,1.2176342E-1,-7.4833236E-3,-4.020197E-2,-1.1829812E-2,2.3061102E-2,1.0264764E-2,1.4814562E-1,1.4932887E-1,4.682543E-2,1.1866007E-1,6.874388E-2,4.00302E-2,-3.28068E-2],"categories":[],"categories_nodes":[],"categories_segments":[],"categories_sizes":[],"default_left":[0,0,0,0,0,0,0,0,0,0,0,0,0,0,0,0,0,0,0,0,0,0,0,0,0,0,0,0,0,0,0,0,0,0,0,0,0,0,0,0,0,0,0,0,0,0,0,0,0,0,0,0,0,0,0,0,0,0,0],"id":23,"left_children":[1,3,5,7,9,11,13,15,17,19,21,23,25,27,29,31,33,35,37,39,-1,-1,41,43,45,47,49,51,53,55,57,-1,-1,-1,-1,-1,-1,-1,-1,-1,-1,-1,-1,-1,-1,-1,-1,-1,-1,-1,-1,-1,-1,-1,-1,-1,-1,-1,-1],"loss_changes":[4.110828E3,1.0369141E2,4.9321677E2,6.0910156E1,5.510498E1,4.89157E2,1.7197046E2,1.850376E2,3.8203125E0,4.8099854E1,2.30107E1,1.3423505E2,1.8008594E2,7.7360695E1,4.1133667E1,2.5432599E2,2.7716797E1,3.1386719E1,2.9971436E1,4.35E1,0E0,0E0,2.463638E1,1.4814973E2,6.7450256E0,6.480899E1,6.293814E1,8.924039E1,4.795659E1,1.4591675E0,2.2858805E1,0E0,0E0,0E0,0E0,0E0,0E0,0E0,0E0,0E0,0E0,0E0,0E0,0E0,0E0,0E0,0E0,0E0,0E0,0E0,0E0,0E0,0E0,0E0,0E0,0E0,0E0,0E0,0E0],"parents":[2147483647,0,0,1,1,2,2,3,3,4,4,5,5,6,6,7,7,8,8,9,9,10,10,11,11,12,12,13,13,14,14,15,15,16,16,17,17,18,18,19,19,22,22,23,23,24,24,25,25,26,26,27,27,28,28,29,29,30,30],"right_children":[2,4,6,8,10,12,14,16,18,20,22,24,26,28,30,32,34,36,38,40,-1,-1,42,44,46,48,50,52,54,56,58,-1,-1,-1,-1,-1,-1,-1,-1,-1,-1,-1,-1,-1,-1,-1,-1,-1,-1,-1,-1,-1,-1,-1,-1,-1,-1,-1,-1],"split_conditions":[1.5311643E0,1.3489168E0,1.3489168E0,-1.2920247E0,9E2,-1.2920247E0,2.3845756E-1,-2.4003759E-1,9E2,8.89E2,8.89E2,8E0,2.3153994E0,7.66E2,8E0,-8.814738E-1,9E0,8.89E2,8.1E2,-2.2078851E-1,8.678108E-2,1.00382045E-1,1.3298243E0,4E0,9E0,2E0,2.3845756E-1,7.57E2,7.57E2,1.6089319E0,1.1234995E0,-4.181901E-2,5.727153E-3,-5.1550716E-2,9.6042715E-2,-5.1506825E-2,8.515667E-2,8.761635E-2,-4.6076935E-2,-3.8415965E-2,-4.7951482E-2,-1.4598685E-2,1.20119706E-1,3.9654482E-2,-6.201788E-3,6.605644E-2,1.2176342E-1,-7.4833236E-3,-4.020197E-2,-1.1829812E-2,2.3061102E-2,1.0264764E-2,1.4814562E-1,1.4932887E-1,4.682543E-2,1.1866007E-1,6.874388E-2,4.00302E-2,-3.28068E-2],"split_indices":[2,15,15,15,4,15,14,2,4,7,7,1,2,4,1,2,1,7,7,2,0,0,14,1,1,1,14,7,7,2,17,0,0,0,0,0,0,0,0,0,0,0,0,0,0,0,0,0,0,0,0,0,0,0,0,0,0,0,0],"split_type":[0,0,0,0,0,0,0,0,0,0,0,0,0,0,0,0,0,0,0,0,0,0,0,0,0,0,0,0,0,0,0,0,0,0,0,0,0,0,0,0,0,0,0,0,0,0,0,0,0,0,0,0,0,0,0,0,0,0,0],"sum_hessian":[4.8028875E4,4.464394E4,3.384933E3,3.9698453E4,4.945489E3,2.3346638E3,1.0502694E3,6.0893906E3,3.3609062E4,4.903015E3,4.247352E1,7.8169214E2,1.5529716E3,6.502252E2,4.0004416E2,1.7224407E3,4.36695E3,3.3462055E4,1.4700937E2,4.896817E3,6.1980577E0,5.4880204E0,3.6985497E1,7.362957E2,4.5396446E1,1.0072453E3,5.4572626E2,5.6609186E2,8.413339E1,3.22107E2,7.7937164E1,1.3687963E3,3.5364438E2,4.364645E3,2.3048754E0,3.345871E4,3.3437757E0,3.423245E0,1.4358614E2,2.2529385E3,2.6438787E3,3.422995E1,2.7555468E0,4.4604257E2,2.9025314E2,1.1507876E1,3.388857E1,1.8614134E2,8.2110394E2,3.3772165E2,2.0800464E2,5.5509406E2,1.0997819E1,1.311278E1,7.1020615E1,2.4323583E0,3.1967465E2,6.588215E1,1.2055014E1],"tree_param":{"num_deleted":"0","num_feature":"19","num_nodes":"59","size_leaf_vector":"1"}},{"base_weights":[-9.085194E-1,-9.910525E-1,1.4195615E-1,-1.0088874E0,-8.4874344E-1,-1.8287346E-1,5.6734055E-1,-9.122517E-1,-1.0264599E0,-8.5800713E-1,3.7711874E-1,4.12562E-1,-5.3524673E-1,2.5994566E-1,9.15303E-1,-6.2766874E-1,-1.0264305E0,-1.0272437E0,-8.318075E-1,-7.501273E-1,-9.506376E-1,1.5723427E-1,-6.743341E-2,-9.149389E-1,1.0640258E0,-9.435629E-1,-8.373942E-3,8.152896E-1,-4.0381428E-2,6.1694986E-1,1.3389233E0,-5.0382446E-2,-1.1296869E-2,-5.1424045E-2,9.145124E-2,-5.1381033E-2,-3.2829143E-2,-2.731652E-2,-5.1572826E-2,-4.511842E-2,2.3937623E-3,-4.8251063E-2,-9.285318E-3,8.137066E-2,-1.8509133E-2,-5.425283E-2,-1.2625592E-2,7.716845E-2,2.1164923E-3,-4.7642034E-2,1.4494953E-2,1.23379014E-1,-1.7213745E-2,5.8056273E-2,8.481455E-3,-5.6879567E-3,7.156311E-2,7.84091E-2,2.2402978E-2,7.0142716E-2,1.9011796E-2],"categories":[],"categories_nodes":[],"categories_segments":[],"categories_sizes":[],"default_left":[0,0,0,0,0,0,0,0,0,0,0,0,0,0,0,0,0,0,0,0,0,0,0,0,0,0,0,0,0,0,0,0,0,0,0,0,0,0,0,0,0,0,0,0,0,0,0,0,0,0,0,0,0,0,0,0,0,0,0,0,0],"id":24,"left_children":[1,3,5,7,9,11,13,15,17,19,21,23,25,27,29,31,33,35,37,39,41,-1,43,45,47,49,51,53,55,57,59,-1,-1,-1,-1,-1,-1,-1,-1,-1,-1,-1,-1,-1,-1,-1,-1,-1,-1,-1,-1,-1,-1,-1,-1,-1,-1,-1,-1,-1,-1],"loss_changes":[3.987496E3,1.0737109E2,4.6314145E2,6.3398438E1,5.432251E1,3.9904926E2,1.5498349E2,1.8906494E2,4.0351562E0,4.6450684E1,4.4945362E1,6.126231E2,2.5698615E2,1.287748E2,8.5153564E1,2.5535461E2,2.626709E1,3.7890625E0,7.061493E0,2.6551233E2,2.7718994E1,0E0,1.7179008E1,2.6023788E1,2.3251111E2,7.9779053E0,4.354709E2,6.0309387E1,5.4364204E1,6.3721405E1,1.6644196E1,0E0,0E0,0E0,0E0,0E0,0E0,0E0,0E0,0E0,0E0,0E0,0E0,0E0,0E0,0E0,0E0,0E0,0E0,0E0,0E0,0E0,0E0,0E0,0E0,0E0,0E0,0E0,0E0,0E0,0E0],"parents":[2147483647,0,0,1,1,2,2,3,3,4,4,5,5,6,6,7,7,8,8,9,9,10,10,11,11,12,12,13,13,14,14,15,15,16,16,17,17,18,18,19,19,20,20,22,22,23,23,24,24,25,25,26,26,27,27,28,28,29,29,30,30],"right_children":[2,4,6,8,10,12,14,16,18,20,22,24,26,28,30,32,34,36,38,40,42,-1,44,46,48,50,52,54,56,58,60,-1,-1,-1,-1,-1,-1,-1,-1,-1,-1,-1,-1,-1,-1,-1,-1,-1,-1,-1,-1,-1,-1,-1,-1,-1,-1,-1,-1,-1,-1],"split_conditions":[1.5311643E0,1.3489168E0,2.3153994E0,-1.2920247E0,8.27E2,4E0,1.2021978E0,-2.4003759E-1,8.27E2,-2.2078851E-1,8.8E2,1E0,8E0,-1.2920247E0,2.3845756E-1,-1.1409445E0,9E0,9E2,-3.2598743E-1,-4.9265003E-1,1.4406224E0,1.5723427E-1,1.8E1,2.1073816E0,2E0,8.89E2,3.42E2,2.3845756E-1,8.92E2,3E0,1E1,-5.0382446E-2,-1.1296869E-2,-5.1424045E-2,9.145124E-2,-5.1381033E-2,-3.2829143E-2,-2.731652E-2,-5.1572826E-2,-4.511842E-2,2.3937623E-3,-4.8251063E-2,-9.285318E-3,8.137066E-2,-1.8509133E-2,-5.425283E-2,-1.2625592E-2,7.716845E-2,2.1164923E-3,-4.7642034E-2,1.4494953E-2,1.23379014E-1,-1.7213745E-2,5.8056273E-2,8.481455E-3,-5.6879567E-3,7.156311E-2,7.84091E-2,2.2402978E-2,7.0142716E-2,1.9011796E-2],"split_indices":[2,15,2,15,5,1,15,2,5,2,7,1,1,15,14,2,1,4,2,2,2,0,6,2,1,7,0,14,4,1,1,0,0,0,0,0,0,0,0,0,0,0,0,0,0,0,0,0,0,0,0,0,0,0,0,0,0,0,0,0,0],"split_type":[0,0,0,0,0,0,0,0,0,0,0,0,0,0,0,0,0,0,0,0,0,0,0,0,0,0,0,0,0,0,0,0,0,0,0,0,0,0,0,0,0,0,0,0,0,0,0,0,0,0,0,0,0,0,0,0,0,0,0,0,0],"sum_hessian":[4.5989766E4,4.2639727E4,3.3500369E3,3.7885637E4,4.7540903E3,1.8998525E3,1.4501844E3,5.837403E3,3.2048234E4,4.7187314E3,3.5358856E1,7.0625757E2,1.193595E3,7.7090393E2,6.7928046E2,1.6733027E3,4.1641E3,3.1915451E4,1.3278339E2,2.1841323E3,2.534599E3,4.0530014E0,3.1305855E1,2.323628E2,4.738948E2,6.7200964E2,5.215853E2,2.6997336E2,5.009306E2,4.000114E2,2.7926904E2,8.591561E2,8.141466E2,4.1617515E3,2.3485932E0,3.1881254E4,3.4195557E1,5.618342E1,7.6599976E1,1.8340968E3,3.5003552E2,2.4875618E3,4.703746E1,4.0814857E0,2.722437E1,1.8437543E2,4.7987362E1,3.2221326E2,1.5168153E2,6.6721857E2,4.7910714E0,6.1549866E1,4.6003546E2,1.7528622E2,9.468711E1,4.7801877E2,2.291182E1,5.9063885E1,3.4094754E2,2.6137564E2,1.789339E1],"tree_param":{"num_deleted":"0","num_feature":"19","num_nodes":"61","size_leaf_vector":"1"}},{"base_weights":[-9.027776E-1,-9.8690087E-1,1.3707083E-1,-1.0055462E0,-8.392764E-1,-1.0460377E-1,6.688899E-1,-9.0497905E-1,-1.0239346E0,-7.208609E-1,-9.4244915E-1,4.9472648E-1,-4.1179433E-1,3.6941576E-1,1.1764675E0,-6.1414737E-1,-1.0239277E0,-1.0247571E0,-8.2177037E-1,-8.802864E-1,7.535161E-2,-9.574532E-1,-1.727748E-1,-2.4431993E-1,7.1677965E-1,-6.6258585E-1,2.7138347E-2,2.6941928E-1,1.5160776E0,1.3410652E0,5.2790177E-1,-5.0188076E-2,-1.0843351E-2,-5.1301558E-2,8.7317325E-2,-5.125776E-2,-3.2091852E-2,-2.66296E-2,-5.142936E-2,-4.4715866E-2,2.7925197E-2,1.7149528E-2,-5.1591106E-2,-4.957474E-2,-4.156608E-2,-4.032376E-2,5.3613942E-2,-4.98205E-2,2.0041032E-2,7.346342E-2,1.2336389E-2,-6.93786E-3,-3.9258726E-2,3.5150632E-2,-6.7318515E-3,2.2086466E-2,-5.7276692E-2,8.777505E-2,9.454645E-3,1.04385905E-1,6.637124E-2,3.709552E-2,-3.1869765E-2],"categories":[],"categories_nodes":[],"categories_segments":[],"categories_sizes":[],"default_left":[0,0,0,0,0,0,0,0,0,0,0,0,0,0,0,0,0,0,0,0,0,0,0,0,0,0,0,0,0,0,0,0,0,0,0,0,0,0,0,0,0,0,0,0,0,0,0,0,0,0,0,0,0,0,0,0,0,0,0,0,0,0,0],"id":25,"left_children":[1,3,5,7,9,11,13,15,17,19,21,23,25,27,29,31,33,35,37,39,41,43,45,47,49,51,53,55,57,59,61,-1,-1,-1,-1,-1,-1,-1,-1,-1,-1,-1,-1,-1,-1,-1,-1,-1,-1,-1,-1,-1,-1,-1,-1,-1,-1,-1,-1,-1,-1,-1,-1],"loss_changes":[3.8511133E3,1.1126172E2,4.2367017E2,6.59375E1,5.5194336E1,4.175612E2,1.5611588E2,1.9302002E2,4.2402344E0,2.709004E2,2.8020264E1,1.2631419E2,1.650588E2,7.402875E1,4.0040222E1,2.516789E2,2.4933594E1,3.9804688E0,7.159935E0,3.638806E1,1.0610101E2,9.454102E0,3.8649143E1,8.692679E1,2.0878693E2,6.116284E1,5.9806564E1,1.4638547E2,1.6143356E1,3.227539E-1,2.0152496E1,0E0,0E0,0E0,0E0,0E0,0E0,0E0,0E0,0E0,0E0,0E0,0E0,0E0,0E0,0E0,0E0,0E0,0E0,0E0,0E0,0E0,0E0,0E0,0E0,0E0,0E0,0E0,0E0,0E0,0E0,0E0,0E0],"parents":[2147483647,0,0,1,1,2,2,3,3,4,4,5,5,6,6,7,7,8,8,9,9,10,10,11,11,12,12,13,13,14,14,15,15,16,16,17,17,18,18,19,19,20,20,21,21,22,22,23,23,24,24,25,25,26,26,27,27,28,28,29,29,30,30],"right_children":[2,4,6,8,10,12,14,16,18,20,22,24,26,28,30,32,34,36,38,40,42,44,46,48,50,52,54,56,58,60,62,-1,-1,-1,-1,-1,-1,-1,-1,-1,-1,-1,-1,-1,-1,-1,-1,-1,-1,-1,-1,-1,-1,-1,-1,-1,-1,-1,-1,-1,-1,-1,-1],"split_conditions":[1.5311643E0,1.3489168E0,1.3489168E0,-1.2920247E0,-2.2078851E-1,-1.2920247E0,2.3845756E-1,-2.4003759E-1,8.27E2,-4.9265003E-1,1.4406224E0,1E0,2.3153994E0,1.2E1,8E0,-1.1409445E0,9E0,9E2,-3.2598743E-1,8.27E2,1.3E1,8.4536463E-1,1.3E1,2.3153994E0,2E0,2E0,3E0,1.1E1,9.785556E-1,1.6089319E0,1.1234995E0,-5.0188076E-2,-1.0843351E-2,-5.1301558E-2,8.7317325E-2,-5.125776E-2,-3.2091852E-2,-2.66296E-2,-5.142936E-2,-4.4715866E-2,2.7925197E-2,1.7149528E-2,-5.1591106E-2,-4.957474E-2,-4.156608E-2,-4.032376E-2,5.3613942E-2,-4.98205E-2,2.0041032E-2,7.346342E-2,1.2336389E-2,-6.93786E-3,-3.9258726E-2,3.5150632E-2,-6.7318515E-3,2.2086466E-2,-5.7276692E-2,8.777505E-2,9.454645E-3,1.04385905E-1,6.637124E-2,3.709552E-2,-3.1869765E-2],"split_indices":[2,15,15,15,2,15,14,2,5,2,2,1,2,1,1,2,1,4,2,5,1,2,1,2,1,1,1,1,10,2,17,0,0,0,0,0,0,0,0,0,0,0,0,0,0,0,0,0,0,0,0,0,0,0,0,0,0,0,0,0,0,0,0],"split_type":[0,0,0,0,0,0,0,0,0,0,0,0,0,0,0,0,0,0,0,0,0,0,0,0,0,0,0,0,0,0,0,0,0,0,0,0,0,0,0,0,0,0,0,0,0,0,0,0,0,0,0,0,0,0,0,0,0,0,0,0,0,0,0],"sum_hessian":[4.402253E4,4.072773E4,3.2948032E3,3.615541E4,4.572321E3,2.2659092E3,1.0288942E3,5.5967656E3,3.0558643E4,2.1326177E3,2.4397031E3,7.6763635E2,1.4982727E3,6.4818726E2,3.8070688E2,1.626385E3,3.9703804E3,3.0430766E4,1.27877144E2,