{"learner":{"attributes":{"scikit_learn":"{\"_estimator_type\": \"classifier\"}"},"feature_names":["merchant","category","amt","gender","street","city","state","zip","lat","long","city_pop","job","merch_lat","merch_long","age","trans_hour","trans_day","trans_month","trans_dayofweek"],"feature_types":["int","int","float","int","int","int","int","int","float","float","float","int","float","float","float","float","float","float","float"],"gradient_booster":{"model":{"gbtree_model_param":{"num_parallel_tree":"1","num_trees":"450"},"iteration_indptr":[0,1,2,3,4,5,6,7,8,9,10,11,12,13,14,15,16,17,18,19,20,21,22,23,24,25,26,27,28,29,30,31,32,33,34,35,36,37,38,39,40,41,42,43,44,45,46,47,48,49,50,51,52,53,54,55,56,57,58,59,60,61,62,63,64,65,66,67,68,69,70,71,72,73,74,75,76,77,78,79,80,81,82,83,84,85,86,87,88,89,90,91,92,93,94,95,96,97,98,99,100,101,102,103,104,105,106,107,108,109,110,111,112,113,114,115,116,117,118,119,120,121,122,123,124,125,126,127,128,129,130,131,132,133,134,135,136,137,138,139,140,141,142,143,144,145,146,147,148,149,150,151,152,153,154,155,156,157,158,159,160,161,162,163,164,165,166,167,168,169,170,171,172,173,174,175,176,177,178,179,180,181,182,183,184,185,186,187,188,189,190,191,192,193,194,195,196,197,198,199,200,201,202,203,204,205,206,207,208,209,210,211,212,213,214,215,216,217,218,219,220,221,222,223,224,225,226,227,228,229,230,231,232,233,234,235,236,237,238,239,240,241,242,243,244,245,246,247,248,249,250,251,252,253,254,255,256,257,258,259,260,261,262,263,264,265,266,267,268,269,270,271,272,273,274,275,276,277,278,279,280,281,282,283,284,285,286,287,288,289,290,291,292,293,294,295,296,297,298,299,300,301,302,303,304,305,306,307,308,309,310,311,312,313,314,315,316,317,318,319,320,321,322,323,324,325,326,327,328,329,330,331,332,333,334,335,336,337,338,339,340,341,342,343,344,345,346,347,348,349,350,351,352,353,354,355,356,357,358,359,360,361,362,363,364,365,366,367,368,369,370,371,372,373,374,375,376,377,378,379,380,381,382,383,384,385,386,387,388,389,390,391,392,393,394,395,396,397,398,399,400,401,402,403,404,405,406,407,408,409,410,411,412,413,414,415,416,417,418,419,420,421,422,423,424,425,426,427,428,429,430,431,432,433,434,435,436,437,438,439,440,441,442,443,444,445,446,447,448,449,450],"tree_info":[0,0,0,0,0,0,0,0,0,0,0,0,0,0,0,0,0,0,0,0,0,0,0,0,0,0,0,0,0,0,0,0,0,0,0,0,0,0,0,0,0,0,0,0,0,0,0,0,0,0,0,0,0,0,0,0,0,0,0,0,0,0,0,0,0,0,0,0,0,0,0,0,0,0,0,0,0,0,0,0,0,0,0,0,0,0,0,0,0,0,0,0,0,0,0,0,0,0,0,0,0,0,0,0,0,0,0,0,0,0,0,0,0,0,0,0,0,0,0,0,0,0,0,0,0,0,0,0,0,0,0,0,0,0,0,0,0,0,0,0,0,0,0,0,0,0,0,0,0,0,0,0,0,0,0,0,0,0,0,0,0,0,0,0,0,0,0,0,0,0,0,0,0,0,0,0,0,0,0,0,0,0,0,0,0,0,0,0,0,0,0,0,0,0,0,0,0,0,0,0,0,0,0,0,0,0,0,0,0,0,0,0,0,0,0,0,0,0,0,0,0,0,0,0,0,0,0,0,0,0,0,0,0,0,0,0,0,0,0,0,0,0,0,0,0,0,0,0,0,0,0,0,0,0,0,0,0,0,0,0,0,0,0,0,0,0,0,0,0,0,0,0,0,0,0,0,0,0,0,0,0,0,0,0,0,0,0,0,0,0,0,0,0,0,0,0,0,0,0,0,0,0,0,0,0,0,0,0,0,0,0,0,0,0,0,0,0,0,0,0,0,0,0,0,0,0,0,0,0,0,0,0,0,0,0,0,0,0,0,0,0,0,0,0,0,0,0,0,0,0,0,0,0,0,0,0,0,0,0,0,0,0,0,0,0,0,0,0,0,0,0,0,0,0,0,0,0,0,0,0,0,0,0,0,0,0,0,0,0,0,0,0,0,0,0,0,0,0,0,0,0,0,0,0,0,0,0,0,0,0,0,0,0,0,0,0,0,0,0,0,0,0,0,0,0,0,0,0,0,0,0,0,0,0,0,0,0,0,0,0,0,0,0,0,0,0,0,0,0,0],"trees":[{"base_weights":[1.7639644E-3,-1.1003296E0,2.1304507E0,-5.154755E-1,-1.5657539E0,5.837175E-1,2.1542447E0,-1.547883E0,9.877905E-2,-1.651047E0,-1.2966406E0,-9.2935574E-1,1.6362084E0,1.9842834E0,2.2787917E0,-1.6376936E0,-9.3910027E-1,1.0409454E0,-5.629879E-1,-1.5378349E0,-1.728942E0,-1.703214E0,-6.8634415E-1,-1.3679014E0,1.8604377E-1,5.8957887E-1,1.8384638E0,2.2060237E0,1.6753311E0,2.293842E0,2.2375314E0,-8.62856E-2,-6.327501E-2,-2.2026298E-3,-7.0482634E-2,-8.755933E-2,8.562092E-2,-8.756702E-2,-4.0285387E-3,-8.509417E-2,-5.558097E-2,-8.718803E-2,-7.846799E-2,-1.3100716E-2,-8.547997E-2,2.3036702E-2,-5.5577207E-2,-7.903347E-2,3.6073115E-2,-8.627429E-2,4.48548E-2,4.6488743E-2,-8.432636E-2,-8.108369E-2,9.4082646E-2,6.58318E-2,1.1409569E-1,2.4809109E-2,1.0124898E-1,1.156014E-1,1.1398893E-1,1.14297725E-1,1.06943004E-1],"categories":[],"categories_nodes":[],"categories_segments":[],"categories_sizes":[],"default_left":[0,0,0,0,0,0,0,0,0,0,0,0,0,0,0,0,0,0,0,0,0,0,0,0,0,0,0,0,0,0,0,0,0,0,0,0,0,0,0,0,0,0,0,0,0,0,0,0,0,0,0,0,0,0,0,0,0,0,0,0,0,0,0],"id":0,"left_children":[1,3,5,7,9,11,13,15,17,19,21,23,25,27,29,31,33,35,37,39,41,43,45,47,49,51,53,55,57,59,61,-1,-1,-1,-1,-1,-1,-1,-1,-1,-1,-1,-1,-1,-1,-1,-1,-1,-1,-1,-1,-1,-1,-1,-1,-1,-1,-1,-1,-1,-1,-1,-1],"loss_changes":[9.64773E5,7.375491E4,5.1615625E3,7.614644E4,3.4611875E3,3.388279E3,2.9200625E3,2.4474453E3,4.693961E4,1.0076875E3,9.010164E3,4.2732928E2,2.6449976E2,3.9995E3,4.434375E1,1.2764844E3,2.4261426E3,5.8238727E4,2.5352133E4,3.2638281E3,1.5775E2,2.0013281E2,7.0835415E3,2.7978894E2,3.376484E2,1.6003656E2,1.601062E2,2.292875E3,1.0067016E4,9.6875E0,9.7125E1,0E0,0E0,0E0,0E0,0E0,0E0,0E0,0E0,0E0,0E0,0E0,0E0,0E0,0E0,0E0,0E0,0E0,0E0,0E0,0E0,0E0,0E0,0E0,0E0,0E0,0E0,0E0,0E0,0E0,0E0,0E0,0E0],"parents":[2147483647,0,0,1,1,2,2,3,3,4,4,5,5,6,6,7,7,8,8,9,9,10,10,11,11,12,12,13,13,14,14,15,15,16,16,17,17,18,18,19,19,20,20,21,21,22,22,23,23,24,24,25,25,26,26,27,27,28,28,29,29,30,30],"right_children":[2,4,6,8,10,12,14,16,18,20,22,24,26,28,30,32,34,36,38,40,42,44,46,48,50,52,54,56,58,60,62,-1,-1,-1,-1,-1,-1,-1,-1,-1,-1,-1,-1,-1,-1,-1,-1,-1,-1,-1,-1,-1,-1,-1,-1,-1,-1,-1,-1,-1,-1,-1,-1],"split_conditions":[1.4860421E0,-2.2018518E-1,1.5427313E0,-1.1253029E0,8.6557746E-1,9E0,2.3511784E0,-1.1993781E0,6E0,3.5936427E-1,8E0,4.107786E-1,1.2E1,4E0,7E0,1.1E1,6E0,3E0,9E0,2.652762E-1,8.111535E-1,-1.8666468E0,9E0,4.3E1,2.4E1,8.315247E-1,-1.4454529E0,1E0,8E0,3E0,2.586513E0,-8.62856E-2,-6.327501E-2,-2.2026298E-3,-7.0482634E-2,-8.755933E-2,8.562092E-2,-8.756702E-2,-4.0285387E-3,-8.509417E-2,-5.558097E-2,-8.718803E-2,-7.846799E-2,-1.3100716E-2,-8.547997E-2,2.3036702E-2,-5.5577207E-2,-7.903347E-2,3.6073115E-2,-8.627429E-2,4.48548E-2,4.6488743E-2,-8.432636E-2,-8.108369E-2,9.4082646E-2,6.58318E-2,1.1409569E-1,2.4809109E-2,1.0124898E-1,1.156014E-1,1.1398893E-1,1.14297725E-1,1.06943004E-1],"split_indices":[2,2,2,2,2,1,2,2,1,2,1,14,1,1,1,1,1,1,1,2,2,10,1,6,6,17,12,1,1,1,2,0,0,0,0,0,0,0,0,0,0,0,0,0,0,0,0,0,0,0,0,0,0,0,0,0,0,0,0,0,0,0,0],"split_type":[0,0,0,0,0,0,0,0,0,0,0,0,0,0,0,0,0,0,0,0,0,0,0,0,0,0,0,0,0,0,0,0,0,0,0,0,0,0,0,0,0,0,0,0,0,0,0,0,0,0,0,0,0,0,0,0,0,0,0,0,0,0,0],"sum_hessian":[4.112376E5,2.7095528E5,1.402823E5,1.2007307E5,1.5088222E5,2.1256985E3,1.381566E5,4.4790305E4,7.5282766E4,1.1456628E5,3.6315934E4,8.720894E2,1.253609E3,5.843334E4,7.972325E4,3.9030625E4,5.7596763E3,3.1060688E4,4.4222082E4,4.670551E4,6.786077E4,2.1794723E4,1.4521212E4,6.258107E2,2.4627866E2,2.0365446E2,1.0499546E3,3.401445E4,2.4418889E4,5.8375066E4,2.1348186E4,3.1562844E4,7.467783E3,1.9850203E3,3.7746562E3,6.021279E3,2.5039408E4,1.2767903E4,3.1454178E4,3.3722773E4,1.2982738E4,6.208564E4,5.7751323E3,9.632253E1,2.1698398E4,3.9270303E3,1.0594182E4,5.6819293E2,5.7617817E1,6.638594E1,1.7989272E2,1.7768802E2,2.5966457E1,1.2493296E1,1.0374613E3,2.6756538E3,3.1338797E4,5.5853525E3,1.8833537E4,2.5385559E4,3.2989508E4,1.4305581E4,7.0426035E3],"tree_param":{"num_deleted":"0","num_feature":"19","num_nodes":"63","size_leaf_vector":"1"}},{"base_weights":[-6.6074147E-3,-1.0460684E0,2.0170174E0,-1.2792084E0,1.8691108E-1,1.8536497E0,2.135642E0,-3.223487E-1,-1.517125E0,6.859665E-1,-5.25594E-1,2.0646274E0,1.5584196E0,2.0710225E0,2.1772752E0,9.526755E-1,-1.5087885E0,-1.3276058E0,-1.6423005E0,-9.893478E-1,1.19133E0,-1.0827222E0,5.4130244E-1,1.1185144E0,2.137881E0,4.942082E-1,1.8905704E0,2.158584E0,1.9736094E0,2.165002E0,1.09279595E-1,-7.101635E-2,7.490352E-2,-8.1264585E-2,2.7474126E-2,-8.130405E-2,-5.0787486E-2,-8.264677E-2,-4.799205E-2,-7.333846E-2,5.4618623E-4,6.563425E-2,-8.730949E-2,-7.205337E-2,-2.4736714E-2,-6.178245E-2,4.5572758E-2,-8.997153E-2,9.970023E-2,1.09035924E-1,9.3078524E-2,6.520496E-2,-2.567459E-2,1.0519767E-1,7.321993E-2,1.08143985E-1,8.362957E-2,9.996436E-2,7.017873E-2,1.0648807E-1,1.0885642E-1],"categories":[],"categories_nodes":[],"categories_segments":[],"categories_sizes":[],"default_left":[0,0,0,0,0,0,0,0,0,0,0,0,0,0,0,0,0,0,0,0,0,0,0,0,0,0,0,0,0,0,0,0,0,0,0,0,0,0,0,0,0,0,0,0,0,0,0,0,0,0,0,0,0,0,0,0,0,0,0,0,0],"id":1,"left_children":[1,3,5,7,9,11,13,15,17,19,21,23,25,27,29,31,33,35,37,39,41,43,45,47,49,51,53,55,57,59,-1,-1,-1,-1,-1,-1,-1,-1,-1,-1,-1,-1,-1,-1,-1,-1,-1,-1,-1,-1,-1,-1,-1,-1,-1,-1,-1,-1,-1,-1,-1],"loss_changes":[8.612421E5,7.7755625E4,2.68875E3,5.1786094E4,1.5295411E4,3.6378438E3,2.1203125E2,6.8528E4,4.3197812E3,2.1418477E4,1.0532544E4,2.3602188E3,8.612461E3,2.6492188E2,2.8125E-1,2.8261885E4,5.6277656E3,6.7441016E3,7.946875E2,2.7998813E3,6.9304473E3,2.4519844E3,3.9996372E3,6.2671436E3,3.704375E2,4.7322617E3,1.6857109E3,3.1054688E1,2.1601953E2,3.8515625E0,0E0,0E0,0E0,0E0,0E0,0E0,0E0,0E0,0E0,0E0,0E0,0E0,0E0,0E0,0E0,0E0,0E0,0E0,0E0,0E0,0E0,0E0,0E0,0E0,0E0,0E0,0E0,0E0,0E0,0E0,0E0],"parents":[2147483647,0,0,1,1,2,2,3,3,4,4,5,5,6,6,7,7,8,8,9,9,10,10,11,11,12,12,13,13,14,14,15,15,16,16,17,17,18,18,19,19,20,20,21,21,22,22,23,23,24,24,25,25,26,26,27,27,28,28,29,29],"right_children":[2,4,6,8,10,12,14,16,18,20,22,24,26,28,30,32,34,36,38,40,42,44,46,48,50,52,54,56,58,60,-1,-1,-1,-1,-1,-1,-1,-1,-1,-1,-1,-1,-1,-1,-1,-1,-1,-1,-1,-1,-1,-1,-1,-1,-1,-1,-1,-1,-1,-1,-1],"split_conditions":[1.5427313E0,1.3456979E0,2.3511784E0,-1.2920247E0,-2.2018518E-1,4E0,1.3456979E0,-2.3941912E-1,-2.2018518E-1,-1.1253029E0,8.6557746E-1,1E0,8E0,-1.2920247E0,1.3723257E-1,-1.1993781E0,8E0,-1.0585726E0,1.4463857E0,1.3723257E-1,1.3E1,1.3723257E-1,8E0,2.1227863E0,2E0,6E0,1.1E1,1.8467875E0,1.4154743E0,1E0,1.09279595E-1,-7.101635E-2,7.490352E-2,-8.1264585E-2,2.7474126E-2,-8.130405E-2,-5.0787486E-2,-8.264677E-2,-4.799205E-2,-7.333846E-2,5.4618623E-4,6.563425E-2,-8.730949E-2,-7.205337E-2,-2.4736714E-2,-6.178245E-2,4.5572758E-2,-8.997153E-2,9.970023E-2,1.09035924E-1,9.3078524E-2,6.520496E-2,-2.567459E-2,1.0519767E-1,7.321993E-2,1.08143985E-1,8.362957E-2,9.996436E-2,7.017873E-2,1.0648807E-1,1.0885642E-1],"split_indices":[2,15,2,15,2,1,15,2,2,2,2,1,1,15,14,2,1,2,2,14,1,14,1,2,1,1,1,14,17,3,0,0,0,0,0,0,0,0,0,0,0,0,0,0,0,0,0,0,0,0,0,0,0,0,0,0,0,0,0,0,0],"split_type":[0,0,0,0,0,0,0,0,0,0,0,0,0,0,0,0,0,0,0,0,0,0,0,0,0,0,0,0,0,0,0,0,0,0,0,0,0,0,0,0,0,0,0,0,0,0,0,0,0,0,0,0,0,0,0,0,0,0,0,0,0],"sum_hessian":[4.09435E5,2.7049316E5,1.3894183E5,2.2747973E5,4.301343E4,5.845519E4,8.048664E4,4.5298645E4,1.821811E5,2.5295734E4,1.7717693E4,3.4088703E4,2.4366488E4,3.1556994E4,4.8929645E4,2.18343E4,2.3464342E4,7.2470445E4,1.0971065E5,5.861965E3,1.943377E4,1.1639559E4,6.0781357E3,2.4508428E3,3.163786E4,5.7966167E3,1.8569873E4,1.6607676E4,1.4949319E4,1.986991E4,2.9059734E4,4.0801296E3,1.775417E4,2.220755E4,1.2567919E3,3.7027496E4,3.5442945E4,1.08025836E5,1.6848126E3,3.9677324E3,1.8942322E3,1.8663303E4,7.704662E2,7.231138E3,4.4084204E3,1.0474447E3,5.030691E3,5.6538855E2,1.8854542E3,2.738531E4,4.252549E3,3.213569E3,2.5830476E3,1.237154E4,6.1983325E3,1.6458754E4,1.4892114E2,1.4302543E4,6.4677625E2,5.1320063E3,1.4737903E4],"tree_param":{"num_deleted":"0","num_feature":"19","num_nodes":"61","size_leaf_vector":"1"}},{"base_weights":[-1.7961317E-3,-1.0140991E0,1.8860595E0,-1.2307676E0,1.3515313E-1,4.5742932E-1,1.9061334E0,-3.1340992E-1,-1.4605485E0,6.22428E-1,-5.877123E-1,-5.881725E-1,1.7971861E0,1.7530814E0,2.0164437E0,9.0023434E-1,-1.46928E0,-1.2722827E0,-1.5866205E0,-9.9575514E-1,1.1053002E0,-1.013209E0,2.8437278E-1,-8.7429035E-1,1.5619831E0,-2.772996E-1,1.9729172E0,1.9501299E0,1.4834658E0,1.956676E0,1.02752626E-1,-7.063381E-2,7.057378E-2,-8.000278E-2,3.2085788E-2,-7.902905E-2,-4.7718722E-2,-7.952599E-2,-5.2774668E-2,-7.31087E-2,-1.3939566E-3,6.1121862E-2,-8.418621E-2,-7.289347E-2,-1.9169996E-2,-5.7259735E-2,3.0736525E-2,-6.581398E-2,3.9876984E-3,-7.727986E-2,9.346423E-2,-8.058876E-2,4.39232E-2,-6.617461E-2,9.938705E-2,5.709186E-2,1.0091294E-1,2.3004776E-2,8.942095E-2,1.0189122E-1,9.334924E-2],"categories":[],"categories_nodes":[],"categories_segments":[],"categories_sizes":[],"default_left":[0,0,0,0,0,0,0,0,0,0,0,0,0,0,0,0,0,0,0,0,0,0,0,0,0,0,0,0,0,0,0,0,0,0,0,0,0,0,0,0,0,0,0,0,0,0,0,0,0,0,0,0,0,0,0,0,0,0,0,0,0],"id":2,"left_children":[1,3,5,7,9,11,13,15,17,19,21,23,25,27,29,31,33,35,37,39,41,43,45,47,49,51,53,55,57,59,-1,-1,-1,-1,-1,-1,-1,-1,-1,-1,-1,-1,-1,-1,-1,-1,-1,-1,-1,-1,-1,-1,-1,-1,-1,-1,-1,-1,-1,-1,-1],"loss_changes":[7.799607E5,6.615347E4,4.0845625E3,4.7117188E4,1.4844384E4,2.768097E3,2.36825E3,6.2813094E4,4.2406562E3,1.9671355E4,6.297183E3,6.843411E2,3.162788E2,3.1236094E3,1.843125E2,2.5829793E4,6.3323438E3,7.025633E3,2.200625E2,2.612002E3,6.33634E3,3.1934883E3,2.6290522E3,4.1353174E2,1.27739624E2,1.07087105E2,4.1653076E1,1.8698516E3,7.7553516E3,2.2953906E2,0E0,0E0,0E0,0E0,0E0,0E0,0E0,0E0,0E0,0E0,0E0,0E0,0E0,0E0,0E0,0E0,0E0,0E0,0E0,0E0,0E0,0E0,0E0,0E0,0E0,0E0,0E0,0E0,0E0,0E0,0E0],"parents":[2147483647,0,0,1,1,2,2,3,3,4,4,5,5,6,6,7,7,8,8,9,9,10,10,11,11,12,12,13,13,14,14,15,15,16,16,17,17,18,18,19,19,20,20,21,21,22,22,23,23,24,24,25,25,26,26,27,27,28,28,29,29],"right_children":[2,4,6,8,10,12,14,16,18,20,22,24,26,28,30,32,34,36,38,40,42,44,46,48,50,52,54,56,58,60,-1,-1,-1,-1,-1,-1,-1,-1,-1,-1,-1,-1,-1,-1,-1,-1,-1,-1,-1,-1,-1,-1,-1,-1,-1,-1,-1,-1,-1,-1,-1],"split_conditions":[1.4860421E0,1.3456979E0,1.5427313E0,-1.2920247E0,-2.2018518E-1,1.3456979E0,2.3511784E0,-2.3941912E-1,-2.2018518E-1,-1.1253029E0,8.375313E-1,4.24E2,9E0,4E0,1.3456979E0,-1.1993781E0,8E0,-1.0585726E0,1.4463857E0,1.3723257E-1,1.3E1,8.128017E-2,8E0,9E0,1.7E1,3.2E1,-1.4454529E0,1E0,8E0,-1.2920247E0,1.02752626E-1,-7.063381E-2,7.057378E-2,-8.000278E-2,3.2085788E-2,-7.902905E-2,-4.7718722E-2,-7.952599E-2,-5.2774668E-2,-7.31087E-2,-1.3939566E-3,6.1121862E-2,-8.418621E-2,-7.289347E-2,-1.9169996E-2,-5.7259735E-2,3.0736525E-2,-6.581398E-2,3.9876984E-3,-7.727986E-2,9.346423E-2,-8.058876E-2,4.39232E-2,-6.617461E-2,9.938705E-2,5.709186E-2,1.0091294E-1,2.3004776E-2,8.942095E-2,1.0189122E-1,9.334924E-2],"split_indices":[2,15,2,15,2,15,2,2,2,2,2,11,1,1,15,2,1,2,2,14,1,14,1,1,6,6,12,1,1,15,0,0,0,0,0,0,0,0,0,0,0,0,0,0,0,0,0,0,0,0,0,0,0,0,0,0,0,0,0,0,0],"split_type":[0,0,0,0,0,0,0,0,0,0,0,0,0,0,0,0,0,0,0,0,0,0,0,0,0,0,0,0,0,0,0,0,0,0,0,0,0,0,0,0,0,0,0,0,0,0,0,0,0,0,0,0,0,0,0,0,0,0,0,0,0],"sum_hessian":[4.081232E5,2.6566772E5,1.4245547E5,2.2352625E5,4.214147E4,1.9742546E3,1.404812E5,4.4774523E4,1.7875172E5,2.5172877E4,1.6968594E4,1.1091719E3,8.6508276E2,5.884818E4,8.163303E4,2.1841518E4,2.2933008E4,7.169673E4,1.07055E5,5.7850786E3,1.9387799E4,1.1404227E4,5.5643677E3,9.794336E2,1.2973834E2,6.751365E1,7.9756915E2,3.3996E4,2.4852178E4,3.2057904E4,4.957513E4,3.953535E3,1.7887982E4,2.159542E4,1.3375869E3,3.6396484E4,3.530024E4,1.062728E5,7.8220294E2,3.903482E3,1.8815963E3,1.8606885E4,7.8091425E2,6.68391E3,4.720316E3,1.0440314E3,4.5203364E3,6.690819E2,3.1035165E2,1.1312399E1,1.1842594E2,3.1151146E1,3.63625E1,3.175351E0,7.943938E2,2.6440708E3,3.135193E4,5.7060776E3,1.9146102E4,1.6819072E4,1.5238831E4],"tree_param":{"num_deleted":"0","num_feature":"19","num_nodes":"61","size_leaf_vector":"1"}},{"base_weights":[4.430931E-3,-9.7090334E-1,1.790726E0,-4.409201E-1,-1.4061722E0,4.293561E-1,1.8097707E0,-1.3954766E0,1.0001474E-1,-1.4805924E0,-1.1456785E0,-4.672966E-1,1.0646678E0,1.6647372E0,1.9145532E0,-1.4165233E0,8.457326E-1,2.092618E-2,1.9832951E0,-1.3687991E0,-1.5545394E0,-1.3323183E0,-8.566778E-1,-9.2884046E-1,6.6368407E-1,-5.2955097E-1,1.1854987E0,1.7831686E0,1.28169E0,1.9031193E0,9.744819E-2,-7.129305E-2,1.1743373E-1,-3.301057E-2,8.89581E-2,-1.1114596E-2,2.4772651E-2,1.0108774E-1,2.7495963E-2,-7.690734E-2,-4.676011E-2,-7.898471E-2,-6.886173E-2,-6.716951E-2,1.107438E-1,-4.967151E-2,1.27463285E-2,-5.63925E-2,1.01042785E-1,-8.080186E-2,5.3388685E-2,-8.2805954E-2,4.28516E-2,7.3878616E-2,3.1378757E-2,6.720186E-2,9.208751E-2,4.727984E-2,7.9594396E-2,9.6103676E-2,9.365131E-2],"categories":[],"categories_nodes":[],"categories_segments":[],"categories_sizes":[],"default_left":[0,0,0,0,0,0,0,0,0,0,0,0,0,0,0,0,0,0,0,0,0,0,0,0,0,0,0,0,0,0,0,0,0,0,0,0,0,0,0,0,0,0,0,0,0,0,0,0,0,0,0,0,0,0,0,0,0,0,0,0,0],"id":3,"left_children":[1,3,5,7,9,11,13,15,17,19,21,23,25,27,29,31,33,35,37,39,41,43,45,47,49,51,53,55,57,59,-1,-1,-1,-1,-1,-1,-1,-1,-1,-1,-1,-1,-1,-1,-1,-1,-1,-1,-1,-1,-1,-1,-1,-1,-1,-1,-1,-1,-1,-1,-1],"loss_changes":[7.0739344E5,6.058397E4,3.717125E3,6.115218E4,2.7937188E3,1.1282346E3,2.1459375E3,2.021875E3,1.1259381E4,9.250156E2,1.7274141E3,4.2953082E2,2.2388843E2,2.6889531E3,2.859375E1,1.4954062E3,5.62277E2,8.373176E3,1.6684082E2,3.2778047E3,2.9885938E2,7.676211E2,1.91225E3,3.4507263E2,2.2163864E2,1.3005215E2,1.7468286E2,1.1631562E3,1.4595156E3,3.1578125E1,0E0,0E0,0E0,0E0,0E0,0E0,0E0,0E0,0E0,0E0,0E0,0E0,0E0,0E0,0E0,0E0,0E0,0E0,0E0,0E0,0E0,0E0,0E0,0E0,0E0,0E0,0E0,0E0,0E0,0E0,0E0],"parents":[2147483647,0,0,1,1,2,2,3,3,4,4,5,5,6,6,7,7,8,8,9,9,10,10,11,11,12,12,13,13,14,14,15,15,16,16,17,17,18,18,19,19,20,20,21,21,22,22,23,23,24,24,25,25,26,26,27,27,28,28,29,29],"right_children":[2,4,6,8,10,12,14,16,18,20,22,24,26,28,30,32,34,36,38,40,42,44,46,48,50,52,54,56,58,60,-1,-1,-1,-1,-1,-1,-1,-1,-1,-1,-1,-1,-1,-1,-1,-1,-1,-1,-1,-1,-1,-1,-1,-1,-1,-1,-1,-1,-1,-1,-1],"split_conditions":[1.4860421E0,-2.2018518E-1,1.5427313E0,-1.1253029E0,8.9522934E-1,3.68E2,2.3511784E0,8.9E2,9.01E2,3.5936427E-1,3.76E2,4.6821898E-1,-1.0615032E0,1.8304965E0,7.66E2,9.01E2,-1.2968122E0,-4.91366E-1,1.6575611E0,2.652762E-1,8.111535E-1,4.9E1,1.3877578E0,8.9E2,-5.52047E-1,5.35E2,-4.4399735E-2,1.6227789E0,2.1227863E0,2.586513E0,9.744819E-2,-7.129305E-2,1.1743373E-1,-3.301057E-2,8.89581E-2,-1.1114596E-2,2.4772651E-2,1.0108774E-1,2.7495963E-2,-7.690734E-2,-4.676011E-2,-7.898471E-2,-6.886173E-2,-6.716951E-2,1.107438E-1,-4.967151E-2,1.27463285E-2,-5.63925E-2,1.01042785E-1,-8.080186E-2,5.3388685E-2,-8.2805954E-2,4.28516E-2,7.3878616E-2,3.1378757E-2,6.720186E-2,9.208751E-2,4.727984E-2,7.9594396E-2,9.6103676E-2,9.365131E-2],"split_indices":[2,2,2,2,2,0,2,7,4,2,0,14,12,2,4,4,2,2,12,2,2,6,2,7,10,5,17,2,2,2,0,0,0,0,0,0,0,0,0,0,0,0,0,0,0,0,0,0,0,0,0,0,0,0,0,0,0,0,0,0,0],"split_type":[0,0,0,0,0,0,0,0,0,0,0,0,0,0,0,0,0,0,0,0,0,0,0,0,0,0,0,0,0,0,0,0,0,0,0,0,0,0,0,0,0,0,0,0,0,0,0,0,0,0,0,0,0,0,0,0,0,0,0,0,0],"sum_hessian":[4.060245E5,2.6262772E5,1.4339681E5,1.1842972E5,1.4419798E5,1.978688E3,1.4141811E5,4.28367E4,7.559302E4,1.1215254E5,3.2045447E4,8.2067944E2,1.1580085E3,5.932328E4,8.2094836E4,4.243853E4,3.9816443E2,7.25474E4,3.0456248E3,4.465798E4,6.749456E4,1.9468725E4,1.2576723E4,5.829579E2,2.3772156E2,8.134714E1,1.0766614E3,4.531044E4,1.4012838E4,6.166229E4,2.0432549E4,4.2334168E4,1.0436489E2,1.5247014E2,2.456943E2,4.796403E4,2.458337E4,2.9656414E3,7.998339E1,3.2113164E4,1.2544816E4,5.9101707E4,8.3928545E3,1.9408766E4,5.995885E1,1.1199089E4,1.3776337E3,5.4669147E2,3.6266422E1,3.5341118E1,2.0238045E2,4.4774475E1,3.657266E1,7.0562E2,3.7104135E2,5.3359316E3,3.997451E4,6.7276294E3,7.285208E3,3.779443E4,2.386786E4],"tree_param":{"num_deleted":"0","num_feature":"19","num_nodes":"61","size_leaf_vector":"1"}},{"base_weights":[-8.136102E-3,-9.488005E-1,1.7050704E0,-4.370585E-1,-1.3644559E0,4.2732605E-1,1.7231493E0,-1.2588009E0,1.4908695E-1,-1.5305797E0,-1.2539319E0,-8.6920667E-1,1.329893E0,1.5811524E0,1.8263748E0,-1.4269688E0,-7.206612E-1,9.845299E-1,-4.6357065E-1,-1.5338498E0,-7.205893E-1,-1.3774756E0,-8.450212E-1,-1.1024762E0,1.4536682E0,7.641551E-2,1.478147E0,1.7721759E0,1.314921E0,1.839936E0,1.7893937E0,-7.591679E-2,-5.245621E-2,7.6870294E-3,-6.086359E-2,-8.3331704E-2,7.85334E-2,-8.281632E-2,-1.833748E-3,-4.063051E-2,-7.679503E-2,-6.4808294E-2,1.12049416E-1,-4.026445E-2,-7.109161E-2,-7.0918545E-2,-2.9821465E-2,-6.529771E-2,9.237903E-3,9.219126E-2,-7.5902045E-2,6.4860635E-2,-8.625858E-2,7.851084E-2,9.505206E-3,4.7424402E-2,9.186745E-2,1.3229526E-2,8.098986E-2,9.159109E-2,9.315411E-2,9.1581725E-2,8.5246615E-2],"categories":[],"categories_nodes":[],"categories_segments":[],"categories_sizes":[],"default_left":[0,0,0,0,0,0,0,0,0,0,0,0,0,0,0,0,0,0,0,0,0,0,0,0,0,0,0,0,0,0,0,0,0,0,0,0,0,0,0,0,0,0,0,0,0,0,0,0,0,0,0,0,0,0,0,0,0,0,0,0,0,0,0],"id":4,"left_children":[1,3,5,7,9,11,13,15,17,19,21,23,25,27,29,31,33,35,37,39,41,43,45,47,49,51,53,55,57,59,61,-1,-1,-1,-1,-1,-1,-1,-1,-1,-1,-1,-1,-1,-1,-1,-1,-1,-1,-1,-1,-1,-1,-1,-1,-1,-1,-1,-1,-1,-1,-1,-1],"loss_changes":[6.447225E5,5.4933594E4,3.2749062E3,5.575372E4,2.614625E3,2.3178237E3,2.046625E3,4.3601875E3,3.4581598E4,1.496875E2,4.3222344E3,4.422005E2,2.1686206E2,2.991375E3,3.73125E1,1.2659453E3,4.9835483E3,4.4421254E4,1.984734E4,8.2625E1,3.9632953E2,1.6668906E3,2.8297383E3,1.9393152E2,8.933438E1,2.7615533E2,1.2351367E2,1.838E3,7.875625E3,7.703125E0,7.450781E1,0E0,0E0,0E0,0E0,0E0,0E0,0E0,0E0,0E0,0E0,0E0,0E0,0E0,0E0,0E0,0E0,0E0,0E0,0E0,0E0,0E0,0E0,0E0,0E0,0E0,0E0,0E0,0E0,0E0,0E0,0E0,0E0],"parents":[2147483647,0,0,1,1,2,2,3,3,4,4,5,5,6,6,7,7,8,8,9,9,10,10,11,11,12,12,13,13,14,14,15,15,16,16,17,17,18,18,19,19,20,20,21,21,22,22,23,23,24,24,25,25,26,26,27,27,28,28,29,29,30,30],"right_children":[2,4,6,8,10,12,14,16,18,20,22,24,26,28,30,32,34,36,38,40,42,44,46,48,50,52,54,56,58,60,62,-1,-1,-1,-1,-1,-1,-1,-1,-1,-1,-1,-1,-1,-1,-1,-1,-1,-1,-1,-1,-1,-1,-1,-1,-1,-1,-1,-1,-1,-1,-1,-1],"split_conditions":[1.4860421E0,-2.3941912E-1,1.5427313E0,-1.0585726E0,4E0,9E0,2.3511784E0,-1.1993781E0,6E0,9.01E2,8.6557746E-1,4.4E1,-5.9642833E-1,4E0,7E0,1.1E1,6E0,3E0,9E0,-2.2018518E-1,5.8E2,5E0,8E0,1.1575032E0,6E0,4.21E2,1.1234995E0,1E0,8E0,7.66E2,2.586513E0,-7.591679E-2,-5.245621E-2,7.6870294E-3,-6.086359E-2,-8.3331704E-2,7.85334E-2,-8.281632E-2,-1.833748E-3,-4.063051E-2,-7.679503E-2,-6.4808294E-2,1.12049416E-1,-4.026445E-2,-7.109161E-2,-7.0918545E-2,-2.9821465E-2,-6.529771E-2,9.237903E-3,9.219126E-2,-7.5902045E-2,6.4860635E-2,-8.625858E-2,7.851084E-2,9.505206E-3,4.7424402E-2,9.186745E-2,1.3229526E-2,8.098986E-2,9.159109E-2,9.315411E-2,9.1581725E-2,8.5246615E-2],"split_indices":[2,2,2,2,1,1,2,2,1,4,2,6,12,1,1,1,1,1,1,2,0,1,1,14,1,0,17,1,1,4,2,0,0,0,0,0,0,0,0,0,0,0,0,0,0,0,0,0,0,0,0,0,0,0,0,0,0,0,0,0,0,0,0],"split_type":[0,0,0,0,0,0,0,0,0,0,0,0,0,0,0,0,0,0,0,0,0,0,0,0,0,0,0,0,0,0,0,0,0,0,0,0,0,0,0,0,0,0,0,0,0,0,0,0,0,0,0,0,0,0,0,0,0,0,0,0,0,0,0],"sum_hessian":[4.00061E5,2.5825969E5,1.4180131E5,1.1575175E5,1.4250792E5,1.9787068E3,1.3982261E5,4.819041E4,6.756134E4,5.692845E4,8.5579484E4,8.1212726E2,1.1665796E3,5.8864684E4,8.095792E4,3.671528E4,1.1475129E4,2.8583373E4,3.897797E4,5.669865E4,2.2979988E2,6.5720914E4,1.9858566E4,7.384913E2,7.363596E1,1.2354346E2,1.0430361E3,3.426999E4,2.4594697E4,5.920006E4,2.175786E4,2.9563484E4,7.1517964E3,4.1567915E3,7.3183374E3,5.1749023E3,2.340847E4,1.0272766E4,2.8705205E4,1.6188074E2,5.653677E4,1.9287697E2,3.6922905E1,4.729586E3,6.099133E4,6.0046953E3,1.3853871E4,6.376768E2,1.0081449E2,6.542573E1,8.21023E0,7.380884E1,4.9734615E1,9.732488E2,6.978731E1,2.5138796E3,3.1756107E4,5.533404E3,1.9061293E4,4.3892875E4,1.5307184E4,1.4490297E4,7.2675615E3],"tree_param":{"num_deleted":"0","num_feature":"19","num_nodes":"63","size_leaf_vector":"1"}},{"base_weights":[-4.81563E-3,-9.04852E-1,1.6305196E0,-1.1192318E0,2.0101075E-1,9.814955E-1,1.6654664E0,-2.2084664E-1,-1.350185E0,6.2534416E-1,-4.6869624E-1,4.3662316E-1,1.6851037E0,1.5573925E0,1.7777741E0,8.689309E-1,-1.3559228E0,-1.3627318E0,5.338911E-1,-9.36272E-1,9.994256E-1,-8.6576825E-1,3.241606E-1,1.4226263E0,-3.5359594E-1,5.9976363E-1,1.7104883E0,1.7604889E0,1.2425094E0,1.7365936E0,1.8058118E0,-6.1450433E-2,6.537481E-2,-7.2774164E-2,-5.5562414E-2,-6.8391554E-2,1.16617166E-1,1.2207045E-1,-1.0842758E-3,-6.855346E-2,5.6733354E-3,2.517052E-2,7.452768E-2,-6.493372E-2,-7.1972595E-3,-4.5422606E-2,2.2238856E-2,1.7623406E-2,7.919975E-2,-3.0581607E-2,4.9215656E-2,-8.75955E-2,8.121102E-2,8.6874254E-2,6.2340707E-2,8.968296E-2,8.526512E-2,3.9710857E-2,7.983797E-2,8.1124775E-2,8.8757776E-2,9.200055E-2,8.972873E-2],"categories":[],"categories_nodes":[],"categories_segments":[],"categories_sizes":[],"default_left":[0,0,0,0,0,0,0,0,0,0,0,0,0,0,0,0,0,0,0,0,0,0,0,0,0,0,0,0,0,0,0,0,0,0,0,0,0,0,0,0,0,0,0,0,0,0,0,0,0,0,0,0,0,0,0,0,0,0,0,0,0,0,0],"id":5,"left_children":[1,3,5,7,9,11,13,15,17,19,21,23,25,27,29,31,33,35,37,39,41,43,45,47,49,51,53,55,57,59,61,-1,-1,-1,-1,-1,-1,-1,-1,-1,-1,-1,-1,-1,-1,-1,-1,-1,-1,-1,-1,-1,-1,-1,-1,-1,-1,-1,-1,-1,-1,-1,-1],"loss_changes":[5.815074E5,6.041439E4,3.1794688E3,4.4287875E4,1.1759682E4,2.7474736E3,1.6125312E3,5.399896E4,4.0146562E3,1.4798561E4,5.053244E3,3.1492957E3,8.51582E1,4.3355312E3,7.2203125E1,2.0493195E4,5.192539E2,3.1815E3,1.19124E3,2.234726E3,4.977633E3,3.3416987E3,7.9678864E2,3.0995825E2,7.753518E2,1.7879182E2,3.6088867E1,7.2421875E1,4.2227617E3,1.1353125E2,1.1609375E1,0E0,0E0,0E0,0E0,0E0,0E0,0E0,0E0,0E0,0E0,0E0,0E0,0E0,0E0,0E0,0E0,0E0,0E0,0E0,0E0,0E0,0E0,0E0,0E0,0E0,0E0,0E0,0E0,0E0,0E0,0E0,0E0],"parents":[2147483647,0,0,1,1,2,2,3,3,4,4,5,5,6,6,7,7,8,8,9,9,10,10,11,11,12,12,13,13,14,14,15,15,16,16,17,17,18,18,19,19,20,20,21,21,22,22,23,23,24,24,25,25,26,26,27,27,28,28,29,29,30,30],"right_children":[2,4,6,8,10,12,14,16,18,20,22,24,26,28,30,32,34,36,38,40,42,44,46,48,50,52,54,56,58,60,62,-1,-1,-1,-1,-1,-1,-1,-1,-1,-1,-1,-1,-1,-1,-1,-1,-1,-1,-1,-1,-1,-1,-1,-1,-1,-1,-1,-1,-1,-1,-1,-1],"split_conditions":[1.4860421E0,1.3456979E0,1.6227789E0,-1.2920247E0,-2.0023987E-1,1.3456979E0,1.3456979E0,-2.0023987E-1,8.9E2,-1.1846133E0,8.375313E-1,-1.2920247E0,-1.1975513E0,-1.2920247E0,1.3723257E-1,-1.1846133E0,8.375313E-1,9.01E2,8.69E2,2.7783743E-1,-4.91366E-1,2.3845756E-1,-1.1975513E0,1.5427313E0,7.76E2,7.56E2,1.3046856E0,2.3845756E-1,2.3511784E0,2.3511784E0,2.3511784E0,-6.1450433E-2,6.537481E-2,-7.2774164E-2,-5.5562414E-2,-6.8391554E-2,1.16617166E-1,1.2207045E-1,-1.0842758E-3,-6.855346E-2,5.6733354E-3,2.517052E-2,7.452768E-2,-6.493372E-2,-7.1972595E-3,-4.5422606E-2,2.2238856E-2,1.7623406E-2,7.919975E-2,-3.0581607E-2,4.9215656E-2,-8.75955E-2,8.121102E-2,8.6874254E-2,6.2340707E-2,8.968296E-2,8.526512E-2,3.9710857E-2,7.983797E-2,8.1124775E-2,8.8757776E-2,9.200055E-2,8.972873E-2],"split_indices":[2,15,2,15,2,15,15,2,7,2,2,15,14,15,14,2,2,4,4,14,2,14,14,2,4,4,10,14,2,2,2,0,0,0,0,0,0,0,0,0,0,0,0,0,0,0,0,0,0,0,0,0,0,0,0,0,0,0,0,0,0,0,0],"split_type":[0,0,0,0,0,0,0,0,0,0,0,0,0,0,0,0,0,0,0,0,0,0,0,0,0,0,0,0,0,0,0,0,0,0,0,0,0,0,0,0,0,0,0,0,0,0,0,0,0,0,0,0,0,0,0,0,0,0,0,0,0,0,0],"sum_hessian":[3.9508106E5,2.5483077E5,1.4025028E5,2.1345155E5,4.1379215E4,7.167431E3,1.3308286E5,4.3651895E4,1.6979966E5,2.5329955E4,1.604926E4,4.0402737E3,3.1271572E3,6.782734E4,6.5255504E4,2.227045E4,2.1381445E4,1.6867666E5,1.1230029E3,4.8948267E3,2.0435129E4,1.0693658E4,5.355602E3,1.7971113E3,2.2431624E3,7.203138E1,3.0551257E3,4.12299E4,2.659745E4,2.6458098E4,3.8797406E4,3.8502803E3,1.842017E4,1.5193943E4,6.1875015E3,1.6844483E5,2.3183301E2,2.5253938E2,8.7046356E2,3.4609924E3,1.433834E3,1.0167987E4,1.0267142E4,6.684123E3,4.0095347E3,4.7677524E2,4.8788267E3,2.3589539E2,1.561216E3,1.8809377E3,3.6222467E2,2.1641811E1,5.0389565E1,2.8844365E3,1.706893E2,2.5731941E4,1.5497956E4,1.1741806E4,1.4855645E4,6.694181E3,1.9763918E4,9.5551045E3,2.9242303E4],"tree_param":{"num_deleted":"0","num_feature":"19","num_nodes":"63","size_leaf_vector":"1"}},{"base_weights":[-5.102997E-3,-8.7473273E-1,1.5651215E0,-1.0797802E0,1.771158E-1,9.7051924E-1,1.598646E0,-2.0937525E-1,-1.3051834E0,5.8422315E-1,-4.3153635E-1,4.0542504E-1,1.6241876E0,1.4915925E0,1.708729E0,8.363658E-1,-1.3010068E0,-1.318187E0,5.5701053E-1,-8.175815E-1,9.8472714E-1,-8.021251E-1,3.6673576E-1,1.3432413E0,-2.7882814E-1,1.075558E0,1.7233883E0,1.6909132E0,1.1811478E0,1.7176352E0,1.5800662E0,-6.418725E-2,6.198315E-2,-7.139863E-2,3.622497E-2,-6.616427E-2,1.13605335E-1,5.974535E-2,-3.8629428E-2,-6.291019E-2,1.2574628E-3,5.4544043E-2,-8.282894E-2,-1.615662E-2,-6.8003885E-2,-5.399136E-2,3.4250144E-2,-8.853134E-2,7.1976654E-2,-4.2009067E-2,2.5106177E-2,7.1081735E-2,-8.897487E-2,-7.4806176E-2,8.631878E-2,7.944972E-2,8.523796E-2,3.762413E-2,7.645923E-2,8.505521E-2,8.6435415E-2,-2.5795025E-3,8.632488E-2],"categories":[],"categories_nodes":[],"categories_segments":[],"categories_sizes":[],"default_left":[0,0,0,0,0,0,0,0,0,0,0,0,0,0,0,0,0,0,0,0,0,0,0,0,0,0,0,0,0,0,0,0,0,0,0,0,0,0,0,0,0,0,0,0,0,0,0,0,0,0,0,0,0,0,0,0,0,0,0,0,0,0,0],"id":6,"left_children":[1,3,5,7,9,11,13,15,17,19,21,23,25,27,29,31,33,35,37,39,41,43,45,47,49,51,53,55,57,59,61,-1,-1,-1,-1,-1,-1,-1,-1,-1,-1,-1,-1,-1,-1,-1,-1,-1,-1,-1,-1,-1,-1,-1,-1,-1,-1,-1,-1,-1,-1,-1,-1],"loss_changes":[5.317573E5,5.4053547E4,2.76525E3,4.114792E4,1.0131372E4,2.7366948E3,1.5458438E3,4.925121E4,4.0348438E3,1.3755768E4,4.848218E3,2.5517305E3,1.8513086E2,4.120297E3,7.15E1,1.8842363E4,5.4295273E3,3.0312188E3,9.8133014E2,2.0218479E3,5.34484E3,2.9907178E3,2.3931104E3,5.0549097E2,1.0085173E3,5.2497754E2,3.0550781E1,5.4546875E1,3.8855508E3,8.140625E0,1.0049531E3,0E0,0E0,0E0,0E0,0E0,0E0,0E0,0E0,0E0,0E0,0E0,0E0,0E0,0E0,0E0,0E0,0E0,0E0,0E0,0E0,0E0,0E0,0E0,0E0,0E0,0E0,0E0,0E0,0E0,0E0,0E0,0E0],"parents":[2147483647,0,0,1,1,2,2,3,3,4,4,5,5,6,6,7,7,8,8,9,9,10,10,11,11,12,12,13,13,14,14,15,15,16,16,17,17,18,18,19,19,20,20,21,21,22,22,23,23,24,24,25,25,26,26,27,27,28,28,29,29,30,30],"right_children":[2,4,6,8,10,12,14,16,18,20,22,24,26,28,30,32,34,36,38,40,42,44,46,48,50,52,54,56,58,60,62,-1,-1,-1,-1,-1,-1,-1,-1,-1,-1,-1,-1,-1,-1,-1,-1,-1,-1,-1,-1,-1,-1,-1,-1,-1,-1,-1,-1,-1,-1,-1,-1],"split_conditions":[1.4860421E0,1.3456979E0,1.6227789E0,-1.2920247E0,-2.3941912E-1,1.3456979E0,1.3456979E0,-2.3941912E-1,9.01E2,-1.1253029E0,8.6557746E-1,-1.2920247E0,9E0,-1.2920247E0,1.1E1,-1.2144294E0,8E0,8.9E2,-3.0283627E-1,1.1E1,1.3E1,3.5936427E-1,8E0,1E0,9E0,5E0,-1.56043E0,1E0,2.3511784E0,1E0,1.2E1,-6.418725E-2,6.198315E-2,-7.139863E-2,3.622497E-2,-6.616427E-2,1.13605335E-1,5.974535E-2,-3.8629428E-2,-6.291019E-2,1.2574628E-3,5.4544043E-2,-8.282894E-2,-1.615662E-2,-6.8003885E-2,-5.399136E-2,3.4250144E-2,-8.853134E-2,7.1976654E-2,-4.2009067E-2,2.5106177E-2,7.1081735E-2,-8.897487E-2,-7.4806176E-2,8.631878E-2,7.944972E-2,8.523796E-2,3.762413E-2,7.645923E-2,8.505521E-2,8.6435415E-2,-2.5795025E-3,8.632488E-2],"split_indices":[2,15,2,15,2,15,15,2,4,2,2,15,1,15,1,2,1,7,2,1,1,2,1,1,1,1,16,1,2,3,1,0,0,0,0,0,0,0,0,0,0,0,0,0,0,0,0,0,0,0,0,0,0,0,0,0,0,0,0,0,0,0,0],"split_type":[0,0,0,0,0,0,0,0,0,0,0,0,0,0,0,0,0,0,0,0,0,0,0,0,0,0,0,0,0,0,0,0,0,0,0,0,0,0,0,0,0,0,0,0,0,0,0,0,0,0,0,0,0,0,0,0,0,0,0,0,0,0,0],"sum_hessian":[3.894172E5,2.5061869E5,1.3879848E5,2.0973325E5,4.088544E4,7.4095854E3,1.3138889E5,4.3141676E4,1.6659158E5,2.4498943E4,1.6386496E4,3.9749094E3,3.434676E3,6.66184E4,6.47705E4,2.2034096E4,2.110758E4,1.6543664E5,1.1549407E3,5.4438555E3,1.9055088E4,1.1191135E4,5.195362E3,1.6763679E3,2.2985413E3,5.277569E2,2.9069192E3,4.0567582E4,2.605081E4,6.056574E4,4.2047617E3,3.5211938E3,1.8512902E4,1.9862807E4,1.2447743E3,1.6520267E5,2.3395805E2,7.805571E2,3.7438348E2,3.5744558E3,1.8693994E3,1.831942E4,7.3566797E2,6.0225005E3,5.1686343E3,9.364931E2,4.2588687E3,4.9762688E1,1.6266052E3,1.337245E3,9.612963E2,4.7114853E2,5.66084E1,2.2313502E0,2.9046877E3,4.8659097E3,3.570167E4,1.167467E4,1.4376142E4,2.4357324E4,3.6208414E4,3.4632904E2,3.8584326E3],"tree_param":{"num_deleted":"0","num_feature":"19","num_nodes":"63","size_leaf_vector":"1"}},{"base_weights":[-3.330553E-3,-8.5006326E-1,1.5060444E0,-1.0600282E0,1.923396E-1,9.241096E-1,1.5386603E0,-2.1410513E-1,-1.2801857E0,5.726496E-1,-4.096501E-1,4.4777983E-1,1.5501955E0,1.4340091E0,1.6463832E0,7.837613E-1,-1.2709606E0,-1.2928944E0,5.007978E-1,-8.870467E-1,9.054036E-1,-8.1651145E-1,4.009319E-1,1.335445E0,-3.422851E-1,1.0685502E0,1.6661963E0,1.6296848E0,1.1357958E0,1.6025096E0,1.6760445E0,-6.839204E-2,5.8225323E-2,-6.956654E-2,3.2005697E-2,-6.490643E-2,1.05375014E-1,5.556452E-2,-4.79279E-2,-6.694369E-2,1.3246707E-3,5.0349306E-2,-8.018593E-2,-6.039092E-2,-1.0710621E-2,-4.9750857E-2,3.4716543E-2,-8.556282E-2,7.089885E-2,-4.421108E-2,2.8241515E-2,-8.486881E-2,5.980555E-2,-7.687973E-2,8.347984E-2,8.323688E-2,7.865471E-2,3.58699E-2,7.360955E-2,7.282589E-2,8.241019E-2,8.5237004E-2,8.331595E-2],"categories":[],"categories_nodes":[],"categories_segments":[],"categories_sizes":[],"default_left":[0,0,0,0,0,0,0,0,0,0,0,0,0,0,0,0,0,0,0,0,0,0,0,0,0,0,0,0,0,0,0,0,0,0,0,0,0,0,0,0,0,0,0,0,0,0,0,0,0,0,0,0,0,0,0,0,0,0,0,0,0,0,0],"id":7,"left_children":[1,3,5,7,9,11,13,15,17,19,21,23,25,27,29,31,33,35,37,39,41,43,45,47,49,51,53,55,57,59,61,-1,-1,-1,-1,-1,-1,-1,-1,-1,-1,-1,-1,-1,-1,-1,-1,-1,-1,-1,-1,-1,-1,-1,-1,-1,-1,-1,-1,-1,-1,-1,-1],"loss_changes":[4.9051003E5,5.3813375E4,2.6165312E3,3.811289E4,9.437732E3,2.1831309E3,1.47E3,4.4572188E4,3.676125E3,1.2271472E4,5.2639297E3,2.918042E3,1.7497412E2,3.8643906E3,8.10625E1,1.7810508E4,4.722508E3,2.8724688E3,1.0267609E3,1.9360344E3,5.245451E3,2.5042988E3,2.1855332E3,4.950896E2,1.0829463E3,2.1966333E2,3.0321777E1,7.6734375E1,3.694039E3,1.7091406E2,7.859375E0,0E0,0E0,0E0,0E0,0E0,0E0,0E0,0E0,0E0,0E0,0E0,0E0,0E0,0E0,0E0,0E0,0E0,0E0,0E0,0E0,0E0,0E0,0E0,0E0,0E0,0E0,0E0,0E0,0E0,0E0,0E0,0E0],"parents":[2147483647,0,0,1,1,2,2,3,3,4,4,5,5,6,6,7,7,8,8,9,9,10,10,11,11,12,12,13,13,14,14,15,15,16,16,17,17,18,18,19,19,20,20,21,21,22,22,23,23,24,24,25,25,26,26,27,27,28,28,29,29,30,30],"right_children":[2,4,6,8,10,12,14,16,18,20,22,24,26,28,30,32,34,36,38,40,42,44,46,48,50,52,54,56,58,60,62,-1,-1,-1,-1,-1,-1,-1,-1,-1,-1,-1,-1,-1,-1,-1,-1,-1,-1,-1,-1,-1,-1,-1,-1,-1,-1,-1,-1,-1,-1,-1,-1],"split_conditions":[1.4860421E0,1.3456979E0,1.6227789E0,-1.2920247E0,-2.0023987E-1,1.3456979E0,1.3456979E0,-2.3941912E-1,8.9E2,-1.1846133E0,8.6557746E-1,-1.2920247E0,1E1,-1.2920247E0,1.3723257E-1,-1.2308862E0,8E0,9.01E2,-2.3941912E-1,1.3723257E-1,1.3E1,1.3723257E-1,8E0,1E0,1E1,-1.0826706E0,-1.6027853E0,1.810172E-1,2.3511784E0,2.3511784E0,2.3511784E0,-6.839204E-2,5.8225323E-2,-6.956654E-2,3.2005697E-2,-6.490643E-2,1.05375014E-1,5.556452E-2,-4.79279E-2,-6.694369E-2,1.3246707E-3,5.0349306E-2,-8.018593E-2,-6.039092E-2,-1.0710621E-2,-4.9750857E-2,3.4716543E-2,-8.556282E-2,7.089885E-2,-4.421108E-2,2.8241515E-2,-8.486881E-2,5.980555E-2,-7.687973E-2,8.347984E-2,8.323688E-2,7.865471E-2,3.58699E-2,7.360955E-2,7.282589E-2,8.241019E-2,8.5237004E-2,8.331595E-2],"split_indices":[2,15,2,15,2,15,15,2,7,2,2,15,1,15,14,2,1,4,2,14,1,14,1,1,1,14,10,14,2,2,2,0,0,0,0,0,0,0,0,0,0,0,0,0,0,0,0,0,0,0,0,0,0,0,0,0,0,0,0,0,0,0,0],"split_type":[0,0,0,0,0,0,0,0,0,0,0,0,0,0,0,0,0,0,0,0,0,0,0,0,0,0,0,0,0,0,0,0,0,0,0,0,0,0,0,0,0,0,0,0,0,0,0,0,0,0,0,0,0,0,0,0,0,0,0,0,0,0,0],"sum_hessian":[3.8379747E5,2.4586947E5,1.37928E5,2.0464838E5,4.1221098E4,7.321783E3,1.3060622E5,4.2262574E4,1.623858E5,2.526185E4,1.595925E4,4.1591743E3,3.162609E3,6.625486E4,6.435136E4,2.1738078E4,2.0524496E4,1.6123553E5,1.1502694E3,4.68935E3,2.0572498E4,1.0625771E4,5.3334785E3,1.9582843E3,2.2008901E3,6.158327E2,2.5467761E3,4.00024E4,2.6252463E4,2.5979197E4,3.837216E4,3.2679883E3,1.847009E4,1.9308604E4,1.2158928E3,1.6098834E5,2.4719095E2,8.111707E2,3.3909863E2,3.1372397E3,1.5521105E3,1.9772598E4,7.999007E2,6.440467E3,4.1853047E3,9.258812E2,4.4075977E3,5.1128353E1,1.907156E3,1.3777866E3,8.231036E2,2.6606724E1,5.8922595E2,2.2217293E0,2.5445544E3,2.4684322E4,1.5318075E4,1.1701559E4,1.4550904E4,6.200753E3,1.9778443E4,9.669027E3,2.8703135E4],"tree_param":{"num_deleted":"0","num_feature":"19","num_nodes":"63","size_leaf_vector":"1"}},{"base_weights":[-4.857752E-3,-8.2731235E-1,1.4545891E0,-3.6371028E-1,-1.2317924E0,3.5403943E-1,1.471118E0,-1.2205958E0,8.437207E-2,-1.3175151E0,-9.7436255E-1,-8.260196E-1,1.1381603E0,1.3397095E0,1.5680505E0,-1.3137598E0,-7.950037E-1,8.3036864E-1,-4.5297197E-1,-1.2085689E0,-1.3917315E0,-1.3758676E0,-4.2783797E-1,-1.0473737E0,1.3254765E0,1.2639261E0,2.2474447E-1,1.5273571E0,1.0818033E0,1.582168E0,1.5281986E0,-6.988408E-2,-4.8300315E-2,-3.8355624E-3,-5.8355194E-2,-7.892241E-2,6.868549E-2,-7.770072E-2,-1.8360267E-3,-6.902657E-2,-3.4441598E-2,-7.0398115E-2,-6.097585E-2,-6.928196E-2,4.018866E-2,3.1939413E-2,-4.2523183E-2,-5.7732057E-2,5.1327176E-2,8.411075E-2,-7.3843785E-2,4.5220822E-2,7.56542E-2,-8.9486614E-2,4.2879928E-2,3.808855E-2,7.967905E-2,4.713751E-3,6.8960495E-2,8.005523E-2,7.838205E-2,7.859402E-2,7.216727E-2],"categories":[],"categories_nodes":[],"categories_segments":[],"categories_sizes":[],"default_left":[0,0,0,0,0,0,0,0,0,0,0,0,0,0,0,0,0,0,0,0,0,0,0,0,0,0,0,0,0,0,0,0,0,0,0,0,0,0,0,0,0,0,0,0,0,0,0,0,0,0,0,0,0,0,0,0,0,0,0,0,0,0,0],"id":8,"left_children":[1,3,5,7,9,11,13,15,17,19,21,23,25,27,29,31,33,35,37,39,41,43,45,47,49,51,53,55,57,59,61,-1,-1,-1,-1,-1,-1,-1,-1,-1,-1,-1,-1,-1,-1,-1,-1,-1,-1,-1,-1,-1,-1,-1,-1,-1,-1,-1,-1,-1,-1,-1,-1],"loss_changes":[4.5213128E5,4.5174562E4,2.4690938E3,4.3100195E4,2.8378906E3,1.8609342E3,1.7016562E3,1.5272148E3,2.9547504E4,7.787031E2,7.052832E3,3.838324E2,1.3849683E2,2.7465469E3,4.0890625E1,9.2146094E2,1.8507188E3,4.0396254E4,1.9637488E4,3.4949766E3,1.5873438E2,3.9577344E2,6.137922E3,1.6329272E2,7.781673E1,9.372949E1,1.894809E2,1.6651797E3,7.0248926E3,1.3109375E1,7.246094E1,0E0,0E0,0E0,0E0,0E0,0E0,0E0,0E0,0E0,0E0,0E0,0E0,0E0,0E0,0E0,0E0,0E0,0E0,0E0,0E0,0E0,0E0,0E0,0E0,0E0,0E0,0E0,0E0,0E0,0E0,0E0,0E0],"parents":[2147483647,0,0,1,1,2,2,3,3,4,4,5,5,6,6,7,7,8,8,9,9,10,10,11,11,12,12,13,13,14,14,15,15,16,16,17,17,18,18,19,19,20,20,21,21,22,22,23,23,24,24,25,25,26,26,27,27,28,28,29,29,30,30],"right_children":[2,4,6,8,10,12,14,16,18,20,22,24,26,28,30,32,34,36,38,40,42,44,46,48,50,52,54,56,58,60,62,-1,-1,-1,-1,-1,-1,-1,-1,-1,-1,-1,-1,-1,-1,-1,-1,-1,-1,-1,-1,-1,-1,-1,-1,-1,-1,-1,-1,-1,-1,-1,-1],"split_conditions":[1.4860421E0,-2.0023987E-1,1.5427313E0,-1.1253029E0,8.6557746E-1,9E0,2.3511784E0,-1.2308862E0,6E0,3.5936427E-1,8E0,4.4E1,8.315247E-1,4E0,7E0,1.1E1,6E0,3E0,9E0,2.8140244E-1,8.111535E-1,9.01E2,9E0,1.7067181E0,6E0,1.3E1,4.1264113E-2,1E0,8E0,3E0,2.586513E0,-6.988408E-2,-4.8300315E-2,-3.8355624E-3,-5.8355194E-2,-7.892241E-2,6.868549E-2,-7.770072E-2,-1.8360267E-3,-6.902657E-2,-3.4441598E-2,-7.0398115E-2,-6.097585E-2,-6.928196E-2,4.018866E-2,3.1939413E-2,-4.2523183E-2,-5.7732057E-2,5.1327176E-2,8.411075E-2,-7.3843785E-2,4.5220822E-2,7.56542E-2,-8.9486614E-2,4.2879928E-2,3.808855E-2,7.967905E-2,4.713751E-3,6.8960495E-2,8.005523E-2,7.838205E-2,7.859402E-2,7.216727E-2],"split_indices":[2,2,2,2,2,1,2,2,1,2,1,6,17,1,1,1,1,1,1,2,2,4,1,16,1,1,10,1,1,1,2,0,0,0,0,0,0,0,0,0,0,0,0,0,0,0,0,0,0,0,0,0,0,0,0,0,0,0,0,0,0,0,0],"split_type":[0,0,0,0,0,0,0,0,0,0,0,0,0,0,0,0,0,0,0,0,0,0,0,0,0,0,0,0,0,0,0,0,0,0,0,0,0,0,0,0,0,0,0,0,0,0,0,0,0,0,0,0,0,0,0,0,0,0,0,0,0,0,0],"sum_hessian":[3.7667084E5,2.409095E5,1.3576136E5,1.1225189E5,1.286576E5,2.0091328E3,1.3375223E5,3.8542957E4,7.370894E4,9.651464E4,3.2142965E4,8.020453E2,1.2070875E3,5.6785156E4,7.696707E4,3.161927E4,6.9236875E3,3.0862238E4,4.2846695E4,3.9114137E4,5.7400504E4,1.8529053E4,1.3613912E4,7.2769086E2,7.435439E1,1.0606638E3,1.464237E2,3.2866906E4,2.3918248E4,5.6805215E4,2.0161857E4,2.5469756E4,6.1495137E3,2.3631433E3,4.560544E3,5.679806E3,2.5182432E4,1.17537295E4,3.1092967E4,2.9388787E4,9.72535E3,5.2450023E4,4.950481E3,1.8446719E4,8.233317E1,3.8632634E3,9.750649E3,6.9232556E2,3.5365337E1,6.631254E1,8.04185E0,4.3607764E2,6.2458624E2,3.4566124E1,1.1185758E2,2.6176648E3,3.0249244E4,5.53634E3,1.8381908E4,2.4612604E4,3.2192613E4,1.3298423E4,6.8634336E3],"tree_param":{"num_deleted":"0","num_feature":"19","num_nodes":"63","size_leaf_vector":"1"}},{"base_weights":[-2.4674223E-3,-7.947235E-1,1.406489E0,-1.0024246E0,2.0953412E-1,8.517913E-1,1.438009E0,-1.8958448E-1,-1.2171383E0,5.644786E-1,-3.742089E-1,4.2590123E-1,1.4484502E0,1.3344562E0,1.5465344E0,7.1284795E-1,-1.1975716E0,-1.230487E0,5.4197586E-1,-8.031125E-1,8.6569095E-1,-7.454239E-1,3.4602535E-1,1.2142929E0,-1.782127E-1,4.758644E-1,1.4710168E0,1.5287019E0,1.0355796E0,1.5041953E0,1.5756198E0,-6.2311083E-2,5.2321803E-2,-6.450527E-2,-1.9834904E-2,-6.179406E-2,9.942322E-2,5.6517553E-2,-5.1246017E-2,-6.4611435E-2,6.152173E-3,2.0485904E-2,6.6113256E-2,-1.227217E-2,-6.6070594E-2,9.027277E-3,6.751971E-2,1.4464714E-2,6.820403E-2,-1.925186E-2,5.199645E-2,-8.523956E-2,7.079086E-2,-7.422026E-2,7.371269E-2,7.8073405E-2,7.359107E-2,3.1313177E-2,6.846733E-2,6.839165E-2,7.736431E-2,8.009168E-2,7.833393E-2],"categories":[],"categories_nodes":[],"categories_segments":[],"categories_sizes":[],"default_left":[0,0,0,0,0,0,0,0,0,0,0,0,0,0,0,0,0,0,0,0,0,0,0,0,0,0,0,0,0,0,0,0,0,0,0,0,0,0,0,0,0,0,0,0,0,0,0,0,0,0,0,0,0,0,0,0,0,0,0,0,0,0,0],"id":9,"left_children":[1,3,5,7,9,11,13,15,17,19,21,23,25,27,29,31,33,35,37,39,41,43,45,47,49,51,53,55,57,59,61,-1,-1,-1,-1,-1,-1,-1,-1,-1,-1,-1,-1,-1,-1,-1,-1,-1,-1,-1,-1,-1,-1,-1,-1,-1,-1,-1,-1,-1,-1,-1,-1],"loss_changes":[4.1326056E5,4.942903E4,2.3285E3,3.4270156E4,8.414901E3,1.8206147E3,1.4148906E3,3.7325152E4,3.648125E3,1.0404515E4,4.1061904E3,1.9926848E3,6.480713E1,3.7445547E3,7.3421875E1,1.4150155E4,1.4359043E3,2.6792344E3,1.0802766E3,2.065429E3,4.3084434E3,2.9181973E3,8.6797546E2,2.510835E2,5.9734686E2,1.4417125E2,3.0089844E1,7.058594E1,3.4720469E3,1.453086E2,6.046875E0,0E0,0E0,0E0,0E0,0E0,0E0,0E0,0E0,0E0,0E0,0E0,0E0,0E0,0E0,0E0,0E0,0E0,0E0,0E0,0E0,0E0,0E0,0E0,0E0,0E0,0E0,0E0,0E0,0E0,0E0,0E0,0E0],"parents":[2147483647,0,0,1,1,2,2,3,3,4,4,5,5,6,6,7,7,8,8,9,9,10,10,11,11,12,12,13,13,14,14,15,15,16,16,17,17,18,18,19,19,20,20,21,21,22,22,23,23,24,24,25,25,26,26,27,27,28,28,29,29,30,30],"right_children":[2,4,6,8,10,12,14,16,18,20,22,24,26,28,30,32,34,36,38,40,42,44,46,48,50,52,54,56,58,60,62,-1,-1,-1,-1,-1,-1,-1,-1,-1,-1,-1,-1,-1,-1,-1,-1,-1,-1,-1,-1,-1,-1,-1,-1,-1,-1,-1,-1,-1,-1,-1,-1],"split_conditions":[1.4860421E0,1.3456979E0,1.6227789E0,-1.2920247E0,-2.0023987E-1,1.3456979E0,1.3456979E0,-1.6266353E-1,8.9E2,-1.1846133E0,8.5613996E-1,-1.2920247E0,-1.1975513E0,-1.2920247E0,1.3723257E-1,-1.2308862E0,3.47E2,9.01E2,-3.0283627E-1,1.3723257E-1,-4.91366E-1,3.5936427E-1,1.3877578E0,1.5427313E0,7.94E2,7.56E2,-2.3682115E0,2.3845756E-1,2.3511784E0,2.3511784E0,2.3511784E0,-6.2311083E-2,5.2321803E-2,-6.450527E-2,-1.9834904E-2,-6.179406E-2,9.942322E-2,5.6517553E-2,-5.1246017E-2,-6.4611435E-2,6.152173E-3,2.0485904E-2,6.6113256E-2,-1.227217E-2,-6.6070594E-2,9.027277E-3,6.751971E-2,1.4464714E-2,6.820403E-2,-1.925186E-2,5.199645E-2,-8.523956E-2,7.079086E-2,-7.422026E-2,7.371269E-2,7.8073405E-2,7.359107E-2,3.1313177E-2,6.846733E-2,6.839165E-2,7.736431E-2,8.009168E-2,7.833393E-2],"split_indices":[2,15,2,15,2,15,15,2,7,2,2,15,14,15,14,2,0,4,2,14,2,2,2,2,4,4,8,14,2,2,2,0,0,0,0,0,0,0,0,0,0,0,0,0,0,0,0,0,0,0,0,0,0,0,0,0,0,0,0,0,0,0,0],"split_type":[0,0,0,0,0,0,0,0,0,0,0,0,0,0,0,0,0,0,0,0,0,0,0,0,0,0,0,0,0,0,0,0,0,0,0,0,0,0,0,0,0,0,0,0,0,0,0,0,0,0,0,0,0,0,0,0,0,0,0,0,0,0,0],"sum_hessian":[3.7021878E5,2.3697064E5,1.3324814E5,1.9635948E5,4.061116E4,7.166068E3,1.2608208E5,4.1030926E4,1.5532856E5,2.5254945E4,1.5356215E4,4.1824116E3,2.983656E3,6.4525945E4,6.1556133E4,2.164914E4,1.9381785E4,1.5415905E5,1.1695082E3,4.558116E3,2.0696828E4,1.0133358E4,5.2228564E3,1.8140271E3,2.3683845E3,6.815971E1,2.9154963E3,3.910605E4,2.5419895E4,2.5088287E4,3.6467848E4,3.1496125E3,1.849953E4,1.7373787E4,2.0079973E3,1.5390177E5,2.5728723E2,8.5044257E2,3.190656E2,2.9825786E3,1.5755378E3,1.0356182E4,1.0340646E4,5.4253574E3,4.7080005E3,4.485075E3,7.377813E2,2.5322066E2,1.5608065E3,2.0252135E3,3.4317087E2,2.028517E1,4.787454E1,2.6891506E0,2.9128071E3,2.4795846E4,1.4310204E4,1.14190205E4,1.4000874E4,6.032134E3,1.9056154E4,9.229986E3,2.7237861E4],"tree_param":{"num_deleted":"0","num_feature":"19","num_nodes":"63","size_leaf_vector":"1"}},{"base_weights":[-8.967869E-3,-7.7709234E-1,1.3617014E0,-9.77316E-1,1.8245634E-1,1.2339898E0,1.4972268E0,-1.7984827E-1,-1.1899843E0,-1.5056908E0,2.8847775E-1,1.4707184E0,8.940674E-1,1.443725E0,1.5144882E0,6.9308E-1,-1.1824726E0,-1.0152447E0,-1.3128386E0,-1.6745479E0,-7.092445E-2,1.3922228E0,9.259921E-2,5.611421E-1,1.4773217E0,4.7034657E-1,1.3219259E0,-9.9743046E-2,1.4474139E0,1.5196717E0,1.4079801E0,-8.179135E-2,4.815396E-2,-6.611547E-2,3.846398E-2,-2.7352152E-2,-5.9589203E-2,-6.5869115E-2,-3.6162686E-2,-7.045566E-2,-8.9467295E-2,-4.7002953E-2,7.668875E-2,-7.596547E-2,1.3188953E-2,-3.5721492E-2,9.15901E-2,6.767608E-2,7.469135E-2,5.780021E-2,5.6619677E-3,6.745103E-2,3.679278E-2,7.4282765E-2,6.212468E-2,7.665129E-2,7.565924E-2,-1.27529E-1,7.626128E-2],"categories":[],"categories_nodes":[],"categories_segments":[],"categories_sizes":[],"default_left":[0,0,0,0,0,0,0,0,0,0,0,0,0,0,0,0,0,0,0,0,0,0,0,0,0,0,0,0,0,0,0,0,0,0,0,0,0,0,0,0,0,0,0,0,0,0,0,0,0,0,0,0,0,0,0,0,0,0,0],"id":10,"left_children":[1,3,5,7,9,11,13,15,17,19,21,23,25,27,29,31,33,35,37,39,-1,41,43,45,47,49,51,-1,53,55,57,-1,-1,-1,-1,-1,-1,-1,-1,-1,-1,-1,-1,-1,-1,-1,-1,-1,-1,-1,-1,-1,-1,-1,-1,-1,-1,-1,-1],"loss_changes":[3.802611E5,4.446983E4,2.24325E3,3.2478016E4,7.152593E3,5.3729844E3,5.5921875E1,3.5288934E4,3.2442344E3,3.239746E1,8.1290293E3,2.3560938E2,4.9704375E3,1.9786523E2,2.4109375E1,1.3554966E4,5.1227363E3,5.1585156E3,2.3682812E2,2.1815674E1,0E0,1.8723457E3,8.811878E3,4.638145E2,7.785156E1,3.3735117E3,2.1565039E2,0E0,1.18484375E2,1.609375E0,1.0345508E3,0E0,0E0,0E0,0E0,0E0,0E0,0E0,0E0,0E0,0E0,0E0,0E0,0E0,0E0,0E0,0E0,0E0,0E0,0E0,0E0,0E0,0E0,0E0,0E0,0E0,0E0,0E0,0E0],"parents":[2147483647,0,0,1,1,2,2,3,3,4,4,5,5,6,6,7,7,8,8,9,9,10,10,11,11,12,12,13,13,14,14,15,15,16,16,17,17,18,18,19,19,21,21,22,22,23,23,24,24,25,25,26,26,28,28,29,29,30,30],"right_children":[2,4,6,8,10,12,14,16,18,20,22,24,26,28,30,32,34,36,38,40,-1,42,44,46,48,50,52,-1,54,56,58,-1,-1,-1,-1,-1,-1,-1,-1,-1,-1,-1,-1,-1,-1,-1,-1,-1,-1,-1,-1,-1,-1,-1,-1,-1,-1,-1,-1],"split_conditions":[1.4860421E0,1.3456979E0,1.3456979E0,-1.2920247E0,3E0,-1.2920247E0,2.1227863E0,-1.6266353E-1,-2.2018518E-1,-2.0023987E-1,6E0,1.5427313E0,2.3511784E0,1E0,1E1,3E0,8E0,6E0,1.4463857E0,-1.1846133E0,-7.092445E-2,-1.2308862E0,8E0,3.87E2,1E0,2E0,1.4154743E0,-9.9743046E-2,1.8304965E0,3E0,1.2E1,-8.179135E-2,4.815396E-2,-6.611547E-2,3.846398E-2,-2.7352152E-2,-5.9589203E-2,-6.5869115E-2,-3.6162686E-2,-7.045566E-2,-8.9467295E-2,-4.7002953E-2,7.668875E-2,-7.596547E-2,1.3188953E-2,-3.5721492E-2,9.15901E-2,6.767608E-2,7.469135E-2,5.780021E-2,5.6619677E-3,6.745103E-2,3.679278E-2,7.4282765E-2,6.212468E-2,7.665129E-2,7.565924E-2,-1.27529E-1,7.626128E-2],"split_indices":[2,15,15,15,1,15,2,2,2,2,1,2,2,1,1,1,1,1,2,2,0,2,1,11,1,1,17,0,2,1,1,0,0,0,0,0,0,0,0,0,0,0,0,0,0,0,0,0,0,0,0,0,0,0,0,0,0,0,0],"split_type":[0,0,0,0,0,0,0,0,0,0,0,0,0,0,0,0,0,0,0,0,0,0,0,0,0,0,0,0,0,0,0,0,0,0,0,0,0,0,0,0,0,0,0,0,0,0,0,0,0,0,0,0,0,0,0,0,0,0,0],"sum_hessian":[3.6117294E5,2.3146189E5,1.29711055E5,1.9150219E5,3.995971E4,6.678589E4,6.292516E4,4.031818E4,1.51184E5,2.3605283E3,3.7599184E4,3.936678E4,2.7419111E4,1.5370082E4,4.755508E4,2.1553273E4,1.8764908E4,6.2416387E4,8.876762E4,7.976879E2,1.5628403E3,5.666008E3,3.1933176E4,2.8435333E2,3.908243E4,1.3777222E4,1.3641891E4,1.5893038E1,1.5354189E4,4.5335414E4,2.2196616E3,2.238634E3,1.9314639E4,1.7510648E4,1.2542594E3,1.7091613E4,4.5324773E4,8.808755E4,6.800752E2,2.4484193E2,5.52846E2,3.2388492E2,5.3421226E3,3.0648884E3,2.8868287E4,1.4212083E2,1.422325E2,4.607355E3,3.4475074E4,4.717407E3,9.059814E3,1.3037832E4,6.04058E2,1.2934208E4,2.4199812E3,1.4745335E4,3.059008E4,6.3254265E1,2.1564075E3],"tree_param":{"num_deleted":"0","num_feature":"19","num_nodes":"59","size_leaf_vector":"1"}},{"base_weights":[-3.9243624E-3,-7.5167334E-1,1.3217291E0,-9.481795E-1,1.7529342E-1,1.1709113E0,1.438073E0,-1.7688441E-1,-1.1554999E0,-1.4709542E0,2.7648634E-1,1.3972988E0,9.496002E-1,1.376933E0,1.4773457E0,6.757967E-1,-1.1538261E0,-9.716489E-1,-1.2867085E0,-1.6227173E0,-6.9475606E-2,1.3671079E0,8.051835E-2,4.5567313E-1,1.4881134E0,5.751396E-1,1.3736863E0,1.4615809E0,1.2831463E0,1.4658141E0,7.426325E-2,-6.1790872E-2,4.9800783E-2,-6.1281312E-2,1.2580703E-1,-2.4250207E-2,-5.8004748E-2,-6.436217E-2,1.4614163E-1,-6.907862E-2,-8.613893E-2,-4.499629E-2,7.490306E-2,-7.414406E-2,1.211873E-2,-1.02256395E-1,6.8032585E-2,-1.3722561E-2,7.5384095E-2,6.4583026E-2,5.5429162E-3,6.285263E-2,7.497472E-2,7.319739E-2,-1.9578647E-2,6.561578E-2,2.7371798E-2,7.368005E-2,7.209491E-2],"categories":[],"categories_nodes":[],"categories_segments":[],"categories_sizes":[],"default_left":[0,0,0,0,0,0,0,0,0,0,0,0,0,0,0,0,0,0,0,0,0,0,0,0,0,0,0,0,0,0,0,0,0,0,0,0,0,0,0,0,0,0,0,0,0,0,0,0,0,0,0,0,0,0,0,0,0,0,0],"id":11,"left_children":[1,3,5,7,9,11,13,15,17,19,21,23,25,27,29,31,33,35,37,39,-1,41,43,45,47,49,51,53,55,57,-1,-1,-1,-1,-1,-1,-1,-1,-1,-1,-1,-1,-1,-1,-1,-1,-1,-1,-1,-1,-1,-1,-1,-1,-1,-1,-1,-1,-1],"loss_changes":[3.5165625E5,4.1316266E4,2.24325E3,2.9925453E4,6.60958E3,2.7903906E3,1.7135938E2,3.302854E4,3.5568281E3,2.6143555E1,7.9883584E3,2.3545547E3,4.4741934E3,2.2248828E2,1.8359375E0,1.2960819E4,4.8721387E3,5.633039E3,1.975625E2,1.6837158E1,0E0,1.6914775E3,8.0181064E3,5.488922E3,8.668008E2,4.9788867E3,1.92E2,6.569336E1,2.8716406E2,1.2265625E0,0E0,0E0,0E0,0E0,0E0,0E0,0E0,0E0,0E0,0E0,0E0,0E0,0E0,0E0,0E0,0E0,0E0,0E0,0E0,0E0,0E0,0E0,0E0,0E0,0E0,0E0,0E0,0E0,0E0],"parents":[2147483647,0,0,1,1,2,2,3,3,4,4,5,5,6,6,7,7,8,8,9,9,10,10,11,11,12,12,13,13,14,14,15,15,16,16,17,17,18,18,19,19,21,21,22,22,23,23,24,24,25,25,26,26,27,27,28,28,29,29],"right_children":[2,4,6,8,10,12,14,16,18,20,22,24,26,28,30,32,34,36,38,40,-1,42,44,46,48,50,52,54,56,58,-1,-1,-1,-1,-1,-1,-1,-1,-1,-1,-1,-1,-1,-1,-1,-1,-1,-1,-1,-1,-1,-1,-1,-1,-1,-1,-1,-1,-1],"split_conditions":[1.4860421E0,1.3456979E0,2.3511784E0,-1.2920247E0,3E0,2E0,1.3456979E0,-2.3941912E-1,-2.2018518E-1,-2.0023987E-1,6E0,1E0,1.3456979E0,-1.2920247E0,1.3723257E-1,-1.2308862E0,9E0,6E0,5E1,-1.1846133E0,-6.9475606E-2,-1.2308862E0,8E0,2.1227863E0,1.5427313E0,-1.2920247E0,1.3723257E-1,2.3063102E0,1.4154743E0,7E0,7.426325E-2,-6.1790872E-2,4.9800783E-2,-6.1281312E-2,1.2580703E-1,-2.4250207E-2,-5.8004748E-2,-6.436217E-2,1.4614163E-1,-6.907862E-2,-8.613893E-2,-4.499629E-2,7.490306E-2,-7.414406E-2,1.211873E-2,-1.02256395E-1,6.8032585E-2,-1.3722561E-2,7.5384095E-2,6.4583026E-2,5.5429162E-3,6.285263E-2,7.497472E-2,7.319739E-2,-1.9578647E-2,6.561578E-2,2.7371798E-2,7.368005E-2,7.209491E-2],"split_indices":[2,15,2,15,1,1,15,2,2,2,1,1,15,15,14,2,1,1,6,2,0,2,1,2,2,15,14,14,17,1,0,0,0,0,0,0,0,0,0,0,0,0,0,0,0,0,0,0,0,0,0,0,0,0,0,0,0,0,0],"split_type":[0,0,0,0,0,0,0,0,0,0,0,0,0,0,0,0,0,0,0,0,0,0,0,0,0,0,0,0,0,0,0,0,0,0,0,0,0,0,0,0,0,0,0,0,0,0,0,0,0,0,0,0,0,0,0,0,0,0,0],"sum_hessian":[3.5475628E5,2.2681775E5,1.2793854E5,1.8714512E5,3.9672613E4,5.5719668E4,7.221887E4,3.9647234E4,1.4749789E5,2.2966265E3,3.737599E4,2.7541312E4,2.8178357E4,2.8259844E4,4.3959023E4,2.1170121E4,1.8477111E4,6.1429918E4,8.606798E4,7.9544086E2,1.5011857E3,5.692046E3,3.1683943E4,2.4230938E3,2.5118219E4,1.4965999E4,1.3212357E4,1.4845945E4,1.3413898E4,1.7973295E4,2.5985729E4,3.0370366E3,1.8133084E4,1.812321E4,3.5390067E2,1.7148654E4,4.4281266E4,8.6057734E4,1.024132E1,2.3761105E2,5.5782983E2,3.1052054E2,5.3815254E3,2.9716885E3,2.8712254E4,6.4352606E2,1.7795677E3,2.7566492E2,2.4842553E4,5.8838022E3,9.082197E3,6.8618687E3,6.350489E3,1.4827218E4,1.8727331E1,1.2901596E4,5.1230316E2,1.351296E4,4.460334E3],"tree_param":{"num_deleted":"0","num_feature":"19","num_nodes":"59","size_leaf_vector":"1"}},{"base_weights":[1.3083145E-3,-7.2391033E-1,1.2871908E0,-2.754409E-1,-1.1249243E0,1.1409936E0,1.4019605E0,-1.1286168E0,1.5503065E-1,-1.2020854E0,-8.635611E-1,1.3651047E0,9.2463416E-1,1.4177592E0,1.3582436E0,-1.2361532E0,-7.0527804E-1,8.308464E-1,-3.6773238E-1,-1.0799774E0,-1.2873155E0,-1.269449E0,-3.3765358E-1,5.433882E-1,1.4523985E0,3.929826E-1,1.1982365E0,1.4369642E0,1.4032416E0,1.4084293E0,1.2576272E0,-6.60787E-2,-4.2658996E-2,1.0126114E-1,-4.1654706E-2,-7.521504E-2,6.522349E-2,-7.385532E-2,1.9929695E-3,-6.279664E-2,-2.9408066E-2,-6.595446E-2,-5.3569574E-2,-6.403964E-2,4.8484445E-2,6.5855935E-2,-2.9748041E-2,-9.7109534E-2,6.76455E-2,-1.0235449E-2,7.355918E-2,4.6719056E-2,-5.114416E-2,6.7056194E-2,3.4770705E-2,7.2182484E-2,6.890712E-2,5.5902123E-2,7.090377E-2,6.9106214E-2,7.307359E-2,6.566672E-2,-1.4331852E-1],"categories":[],"categories_nodes":[],"categories_segments":[],"categories_sizes":[],"default_left":[0,0,0,0,0,0,0,0,0,0,0,0,0,0,0,0,0,0,0,0,0,0,0,0,0,0,0,0,0,0,0,0,0,0,0,0,0,0,0,0,0,0,0,0,0,0,0,0,0,0,0,0,0,0,0,0,0,0,0,0,0,0,0],"id":12,"left_children":[1,3,5,7,9,11,13,15,17,19,21,23,25,27,29,31,33,35,37,39,41,43,45,47,49,51,53,55,57,59,61,-1,-1,-1,-1,-1,-1,-1,-1,-1,-1,-1,-1,-1,-1,-1,-1,-1,-1,-1,-1,-1,-1,-1,-1,-1,-1,-1,-1,-1,-1,-1,-1],"loss_changes":[3.2475278E5,4.004414E4,2.1054844E3,3.8605137E4,2.3696094E3,2.6769297E3,4.665625E1,1.6038672E3,2.4682943E4,9.43125E2,5.7197324E3,1.945168E3,4.08783E3,1.2390625E1,9.264453E1,9.1840625E2,2.4945178E3,3.37034E4,1.7812816E4,3.2282031E3,3.652422E2,3.8539648E2,4.9715015E3,5.2478633E3,7.6366016E2,7.3222827E3,1.3322422E3,6.7382812E0,1.2303906E2,1.5376953E1,1.4354238E3,0E0,0E0,0E0,0E0,0E0,0E0,0E0,0E0,0E0,0E0,0E0,0E0,0E0,0E0,0E0,0E0,0E0,0E0,0E0,0E0,0E0,0E0,0E0,0E0,0E0,0E0,0E0,0E0,0E0,0E0,0E0,0E0],"parents":[2147483647,0,0,1,1,2,2,3,3,4,4,5,5,6,6,7,7,8,8,9,9,10,10,11,11,12,12,13,13,14,14,15,15,16,16,17,17,18,18,19,19,20,20,21,21,22,22,23,23,24,24,25,25,26,26,27,27,28,28,29,29,30,30],"right_children":[2,4,6,8,10,12,14,16,18,20,22,24,26,28,30,32,34,36,38,40,42,44,46,48,50,52,54,56,58,60,62,-1,-1,-1,-1,-1,-1,-1,-1,-1,-1,-1,-1,-1,-1,-1,-1,-1,-1,-1,-1,-1,-1,-1,-1,-1,-1,-1,-1,-1,-1,-1,-1],"split_conditions":[1.4860421E0,-2.3941912E-1,2.3511784E0,-1.1253029E0,8.9522934E-1,2E0,7E0,1.1E1,6E0,3.5936427E-1,8E0,1E0,8E0,3E0,2.586513E0,-1.2308862E0,3.5E2,3E0,9E0,2.7298194E-1,8.111535E-1,9.01E2,3.42E2,2.1227863E0,1.5427313E0,6E0,1.8304965E0,2.586513E0,5E0,1.2E1,8E0,-6.60787E-2,-4.2658996E-2,1.0126114E-1,-4.1654706E-2,-7.521504E-2,6.522349E-2,-7.385532E-2,1.9929695E-3,-6.279664E-2,-2.9408066E-2,-6.595446E-2,-5.3569574E-2,-6.403964E-2,4.8484445E-2,6.5855935E-2,-2.9748041E-2,-9.7109534E-2,6.76455E-2,-1.0235449E-2,7.355918E-2,4.6719056E-2,-5.114416E-2,6.7056194E-2,3.4770705E-2,7.2182484E-2,6.890712E-2,5.5902123E-2,7.090377E-2,6.9106214E-2,7.307359E-2,6.566672E-2,-1.4331852E-1],"split_indices":[2,2,2,2,2,1,1,1,1,2,1,1,1,1,2,2,0,1,1,2,2,4,0,2,2,1,2,2,1,1,1,0,0,0,0,0,0,0,0,0,0,0,0,0,0,0,0,0,0,0,0,0,0,0,0,0,0,0,0,0,0,0,0],"split_type":[0,0,0,0,0,0,0,0,0,0,0,0,0,0,0,0,0,0,0,0,0,0,0,0,0,0,0,0,0,0,0,0,0,0,0,0,0,0,0,0,0,0,0,0,0,0,0,0,0,0,0,0,0,0,0,0,0,0,0,0,0,0,0],"sum_hessian":[3.482412E5,2.22663E5,1.2557819E5,1.0511289E5,1.1755011E5,5.5232414E4,7.034577E4,3.5249094E4,6.98638E4,9.075371E4,2.67964E4,2.7127604E4,2.810481E4,5.1649137E4,1.8696637E4,2.8107352E4,7.141741E3,3.0471004E4,3.939279E4,3.7311613E4,5.3442094E4,1.5123152E4,1.1673247E4,2.6058074E3,2.4521797E4,9.550041E3,1.855477E4,2.2192758E4,2.9456377E4,1.2465877E4,6.2307593E3,2.2979432E4,5.12792E3,3.1869525E2,6.823046E3,5.1377456E3,2.533326E4,1.0583698E4,2.8809092E4,2.7479E4,9.832616E3,4.6582305E4,6.8597886E3,1.504735E4,7.580335E1,1.5703068E3,1.010294E4,6.398363E2,1.9659711E3,2.7475174E2,2.4247045E4,6.9086523E3,2.641389E3,1.4447536E4,4.1072334E3,1.9906662E4,2.2860957E3,1.4601111E3,2.7996266E4,8.351313E3,4.1145635E3,6.148388E3,8.2371155E1],"tree_param":{"num_deleted":"0","num_feature":"19","num_nodes":"63","size_leaf_vector":"1"}},{"base_weights":[-3.2244285E-3,-3.7611547E-1,9.1221935E-1,5.9045E-1,-8.138021E-1,1.1445827E0,5.7687664E-1,5.195515E-1,1.6037357E0,-8.5717475E-1,8.997311E-1,8.352116E-1,1.4048357E0,1.820672E-1,8.075457E-1,4.5235074E-1,1.2949995E0,7.450844E-2,1.6760334E0,-8.75845E-1,2.5948253E-1,1.2143556E-1,1.15279E0,3.6333728E-1,1.0885625E0,1.3024284E0,1.4759469E0,4.6922415E-1,-3.9312026E-1,1.6467948E0,3.9007932E-1,3.2350335E-2,8.532818E-3,4.9415227E-2,7.137715E-2,8.98918E-2,7.1179554E-2,-4.0298514E-2,-5.7015914E-2,8.702762E-2,-2.6207883E-2,5.967589E-2,-2.0422086E-2,6.713637E-2,2.047333E-2,9.993787E-3,5.7085644E-2,6.464367E-2,4.4300478E-2,7.135346E-2,4.0410977E-2,9.079875E-2,7.053428E-2,3.0364627E-2,-2.9940778E-2,-2.4716428E-2,5.244592E-2,7.485082E-2,8.913603E-2,2.8983155E-2,3.485451E-3],"categories":[],"categories_nodes":[],"categories_segments":[],"categories_sizes":[],"default_left":[0,0,0,0,0,0,0,0,0,0,0,0,0,0,0,0,0,0,0,0,0,0,0,0,0,0,0,0,0,0,0,0,0,0,0,0,0,0,0,0,0,0,0,0,0,0,0,0,0,0,0,0,0,0,0,0,0,0,0,0,0],"id":13,"left_children":[1,3,5,7,9,11,13,15,17,19,21,23,25,27,29,31,33,-1,35,37,39,41,43,45,47,49,51,53,55,57,59,-1,-1,-1,-1,-1,-1,-1,-1,-1,-1,-1,-1,-1,-1,-1,-1,-1,-1,-1,-1,-1,-1,-1,-1,-1,-1,-1,-1,-1,-1],"loss_changes":[1.159162E5,1.02077516E5,7.6577812E3,5.4020312E3,1.2343984E4,4.673133E3,3.6636094E3,3.6622715E3,3.7876953E1,3.3772734E3,8.0747656E2,3.1709082E3,2.2767969E2,2.4509019E3,8.896123E3,3.5468389E3,2.2643652E2,0E0,8.958301E1,2.9432812E3,3.0934395E3,5.726752E2,4.363164E2,1.1790432E3,7.131211E2,7.953008E2,4.101953E2,1.4598323E3,7.216988E2,1.690586E2,1.0300149E3,0E0,0E0,0E0,0E0,0E0,0E0,0E0,0E0,0E0,0E0,0E0,0E0,0E0,0E0,0E0,0E0,0E0,0E0,0E0,0E0,0E0,0E0,0E0,0E0,0E0,0E0,0E0,0E0,0E0,0E0],"parents":[2147483647,0,0,1,1,2,2,3,3,4,4,5,5,6,6,7,7,8,8,9,9,10,10,11,11,12,12,13,13,14,14,15,15,16,16,18,18,19,19,20,20,21,21,22,22,23,23,24,24,25,25,26,26,27,27,28,28,29,29,30,30],"right_children":[2,4,6,8,10,12,14,16,18,20,22,24,26,28,30,32,34,-1,36,38,40,42,44,46,48,50,52,54,56,58,60,-1,-1,-1,-1,-1,-1,-1,-1,-1,-1,-1,-1,-1,-1,-1,-1,-1,-1,-1,-1,-1,-1,-1,-1,-1,-1,-1,-1,-1,-1],"split_conditions":[1.3456979E0,-1.2920247E0,8E0,9E0,8.92E2,1.3723257E-1,1.3559574E0,8.77E2,1.1E1,4.53E2,9.01E2,1E0,3E0,1E0,1.4956357E0,2.3845756E-1,9.01E2,7.450844E-2,1.3E1,1.1234995E0,7.94E2,-1.212299E0,1.156014E0,7.63E2,-1.7074172E-1,2E0,6E0,9.8518217E-1,8.69E2,1.1E1,1E0,3.2350335E-2,8.532818E-3,4.9415227E-2,7.137715E-2,8.98918E-2,7.1179554E-2,-4.0298514E-2,-5.7015914E-2,8.702762E-2,-2.6207883E-2,5.967589E-2,-2.0422086E-2,6.713637E-2,2.047333E-2,9.993787E-3,5.7085644E-2,6.464367E-2,4.4300478E-2,7.135346E-2,4.0410977E-2,9.079875E-2,7.053428E-2,3.0364627E-2,-2.9940778E-2,-2.4716428E-2,5.244592E-2,7.485082E-2,8.913603E-2,2.8983155E-2,3.485451E-3],"split_indices":[15,15,1,1,4,14,15,4,1,11,4,3,1,3,15,14,4,0,1,17,4,17,8,4,10,1,1,14,4,1,3,0,0,0,0,0,0,0,0,0,0,0,0,0,0,0,0,0,0,0,0,0,0,0,0,0,0,0,0,0,0],"split_type":[0,0,0,0,0,0,0,0,0,0,0,0,0,0,0,0,0,0,0,0,0,0,0,0,0,0,0,0,0,0,0,0,0,0,0,0,0,0,0,0,0,0,0,0,0,0,0,0,0,0,0,0,0,0,0,0,0,0,0,0,0],"sum_hessian":[3.3956894E5,2.4128573E5,9.828321E4,7.520544E4,1.660803E5,5.8054246E4,4.0228965E4,7.0288914E4,4.9165254E3,1.6198078E5,4.0995234E3,2.6526059E4,3.1528186E4,1.4836629E4,2.5392336E4,6.4684867E4,5.6040435E3,1.9208368E3,2.9956887E3,1.5931723E5,2.6635342E3,1.006245E3,3.0932786E3,9.26749E3,1.7258568E4,1.2928786E4,1.85994E4,9.896219E3,4.94041E3,8.434064E3,1.6958271E4,3.8251258E4,2.643361E4,1.6936134E3,3.9104302E3,2.0165758E3,9.7911304E2,1.2602505E5,3.329219E4,9.212197E2,1.7423145E3,3.324196E2,6.738254E2,2.4630913E3,6.301872E2,7.6600996E3,1.6073905E3,8.589317E3,8.669251E3,1.0323329E4,2.6054573E3,2.9906284E3,1.5608771E4,8.763738E3,1.1324806E3,4.6170254E3,3.233849E2,4.0182766E3,4.4157876E3,1.0653248E4,6.3050244E3],"tree_param":{"num_deleted":"0","num_feature":"19","num_nodes":"61","size_leaf_vector":"1"}},{"base_weights":[-2.3139638E-3,-6.932772E-1,1.2545235E0,-2.7946267E-1,-1.0651338E0,1.1234003E0,1.3541445E0,-1.0939319E0,1.2196773E-1,-1.1001596E0,1.9103262E-1,1.3150166E0,8.720858E-1,1.3705175E0,1.3073374E0,-1.2009659E0,-6.9223994E-1,7.532314E-1,-3.4652498E-1,-1.1859838E0,-8.6370915E-1,-7.2260076E-1,1.2923043E0,5.644919E-1,1.3855448E0,-4.3282043E-2,1.1668711E0,1.3917515E0,1.3540154E0,1.357096E0,1.2085625E0,-6.462725E-2,-4.172367E-2,-4.1483464E-3,-5.076042E-2,-7.3235296E-2,6.0719993E-2,-7.199891E-2,1.8947934E-3,-5.286351E-2,-6.412676E-2,-6.1738547E-2,-1.9008456E-2,-4.172841E-2,9.030791E-2,7.2634816E-2,2.7863432E-2,-9.473061E-2,6.428581E-2,7.128273E-2,5.6251563E-2,3.5417963E-2,-4.8724685E-2,6.929157E-2,3.6885466E-2,6.991565E-2,6.688236E-2,5.409975E-2,6.8430506E-2,6.662809E-2,7.053358E-2,6.322654E-2,-1.2807618E-1],"categories":[],"categories_nodes":[],"categories_segments":[],"categories_sizes":[],"default_left":[0,0,0,0,0,0,0,0,0,0,0,0,0,0,0,0,0,0,0,0,0,0,0,0,0,0,0,0,0,0,0,0,0,0,0,0,0,0,0,0,0,0,0,0,0,0,0,0,0,0,0,0,0,0,0,0,0,0,0,0,0,0,0],"id":14,"left_children":[1,3,5,7,9,11,13,15,17,19,21,23,25,27,29,31,33,35,37,39,41,43,45,47,49,51,53,55,57,59,61,-1,-1,-1,-1,-1,-1,-1,-1,-1,-1,-1,-1,-1,-1,-1,-1,-1,-1,-1,-1,-1,-1,-1,-1,-1,-1,-1,-1,-1,-1,-1,-1],"loss_changes":[2.9144888E5,3.3322695E4,1.5536094E3,3.3511207E4,5.018586E3,2.4743281E3,5.0054688E1,1.4540625E3,2.0305105E4,2.2507969E3,3.1148784E3,1.5430039E3,6.0016094E3,1.5671875E1,8.463086E1,8.9566406E2,1.401345E3,2.9917943E4,1.6565955E4,1.0103672E3,5.30226E3,4.806316E2,1.6467749E2,4.4486567E3,2.7695703E2,3.7935293E3,1.5798809E3,5.8867188E0,1.10578125E2,1.3451172E1,1.2459062E3,0E0,0E0,0E0,0E0,0E0,0E0,0E0,0E0,0E0,0E0,0E0,0E0,0E0,0E0,0E0,0E0,0E0,0E0,0E0,0E0,0E0,0E0,0E0,0E0,0E0,0E0,0E0,0E0,0E0,0E0,0E0,0E0],"parents":[2147483647,0,0,1,1,2,2,3,3,4,4,5,5,6,6,7,7,8,8,9,9,10,10,11,11,12,12,13,13,14,14,15,15,16,16,17,17,18,18,19,19,20,20,21,21,22,22,23,23,24,24,25,25,26,26,27,27,28,28,29,29,30,30],"right_children":[2,4,6,8,10,12,14,16,18,20,22,24,26,28,30,32,34,36,38,40,42,44,46,48,50,52,54,56,58,60,62,-1,-1,-1,-1,-1,-1,-1,-1,-1,-1,-1,-1,-1,-1,-1,-1,-1,-1,-1,-1,-1,-1,-1,-1,-1,-1,-1,-1,-1,-1,-1,-1],"split_conditions":[1.5427313E0,-2.2018518E-1,2.3511784E0,-1.1253029E0,1.4463857E0,4E0,7E0,-1.2465672E0,6E0,8.375313E-1,1.2E1,1E0,8E0,3E0,2.586513E0,1.1E1,6E0,3E0,9E0,3.5936427E-1,8E0,8.9E2,1E0,2.1227863E0,2E0,6E0,1.1E1,2.586513E0,5E0,1.2E1,8E0,-6.462725E-2,-4.172367E-2,-4.1483464E-3,-5.076042E-2,-7.3235296E-2,6.0719993E-2,-7.199891E-2,1.8947934E-3,-5.286351E-2,-6.412676E-2,-6.1738547E-2,-1.9008456E-2,-4.172841E-2,9.030791E-2,7.2634816E-2,2.7863432E-2,-9.473061E-2,6.428581E-2,7.128273E-2,5.6251563E-2,3.5417963E-2,-4.8724685E-2,6.929157E-2,3.6885466E-2,6.991565E-2,6.688236E-2,5.409975E-2,6.8430506E-2,6.662809E-2,7.053358E-2,6.322654E-2,-1.2807618E-1],"split_indices":[2,2,2,2,2,1,1,2,1,2,1,1,1,1,2,1,1,1,1,2,1,7,3,2,1,1,1,2,1,1,1,0,0,0,0,0,0,0,0,0,0,0,0,0,0,0,0,0,0,0,0,0,0,0,0,0,0,0,0,0,0,0,0],"split_type":[0,0,0,0,0,0,0,0,0,0,0,0,0,0,0,0,0,0,0,0,0,0,0,0,0,0,0,0,0,0,0,0,0,0,0,0,0,0,0,0,0,0,0,0,0,0,0,0,0,0,0,0,0,0,0,0,0,0,0,0,0,0,0],"sum_hessian":[3.3560294E5,2.1655138E5,1.1905156E5,1.0249417E5,1.1405721E5,5.1404324E4,6.764724E4,3.3837977E4,6.8656195E4,1.1096332E5,3.0938848E3,2.9163896E4,2.2240428E4,5.0095562E4,1.755168E4,2.6717027E4,7.1209517E3,2.9247062E4,3.9409133E4,8.141002E4,2.9553297E4,1.6911895E3,1.4026952E3,2.5059397E3,2.6657957E4,5.4178286E3,1.68226E4,2.1870477E4,2.8225084E4,1.1663418E4,5.8882607E3,2.1373646E4,5.343381E3,2.4674387E3,4.6535127E3,5.0340747E3,2.4212986E4,1.0250289E4,2.9158844E4,3.4898492E4,4.6511535E4,1.6720596E4,1.28327E4,1.6201243E3,7.1065285E1,1.1506382E3,2.5205707E2,5.679196E2,1.9380201E3,2.309732E4,3.5606367E3,2.998104E3,2.4197249E3,1.1137809E4,5.6847905E3,1.948286E4,2.387619E3,1.4410688E3,2.6784016E4,8.0177104E3,3.6457083E3,5.802781E3,8.5479935E1],"tree_param":{"num_deleted":"0","num_feature":"19","num_nodes":"63","size_leaf_vector":"1"}},{"base_weights":[-2.8174773E-3,-6.805764E-1,1.2086697E0,-8.765832E-1,1.8306547E-1,6.749483E-1,1.2408246E0,-1.6663903E-1,-1.0762702E0,-1.398616E0,2.7643925E-1,3.0466646E-1,1.2182963E0,1.2681875E0,8.6387116E-1,5.903965E-1,-1.0925634E0,-8.9494E-1,-1.2105166E0,-1.5157373E0,-6.66802E-2,4.1974923E-1,-9.853772E-1,1.0157514E0,-1.806349E-1,7.6070744E-1,1.344262E0,1.1884756E0,1.3545448E0,-1.2454554E0,1.3223425E0,-7.724861E-2,4.147742E-2,-6.1774082E-2,3.661653E-2,-5.811522E-2,-2.88402E-2,-6.055474E-2,1.324995E-1,-6.627885E-2,-7.96492E-2,-3.644946E-2,2.7348539E-2,-7.444696E-2,7.7192515E-2,-7.868205E-2,5.4848623E-2,-3.9186835E-2,2.6420435E-2,6.7545734E-2,1.1759451E-2,-9.793792E-2,6.749926E-2,6.645545E-2,4.895513E-2,6.57157E-2,6.820735E-2,6.771726E-2,-1.22213654E-1,-1.14628196E-1,6.6350766E-2],"categories":[],"categories_nodes":[],"categories_segments":[],"categories_sizes":[],"default_left":[0,0,0,0,0,0,0,0,0,0,0,0,0,0,0,0,0,0,0,0,0,0,0,0,0,0,0,0,0,0,0,0,0,0,0,0,0,0,0,0,0,0,0,0,0,0,0,0,0,0,0,0,0,0,0,0,0,0,0,0,0],"id":15,"left_children":[1,3,5,7,9,11,13,15,17,19,21,23,25,27,29,31,33,35,37,39,-1,41,43,45,47,49,51,53,55,57,59,-1,-1,-1,-1,-1,-1,-1,-1,-1,-1,-1,-1,-1,-1,-1,-1,-1,-1,-1,-1,-1,-1,-1,-1,-1,-1,-1,-1,-1,-1],"loss_changes":[2.685161E5,3.549878E4,2.0125469E3,2.4229766E4,5.729257E3,1.3412886E3,1.1402031E3,2.630143E4,3.246125E3,1.4444824E1,6.6240645E3,1.3692317E3,1.5474146E2,7.085156E2,7.246517E3,1.0543667E4,4.4029434E3,4.8263633E3,1.7430469E2,9.119629E0,0E0,4.807648E3,4.7607026E3,3.4020618E2,1.00909955E3,1.8132397E2,4.2676758E1,1.5784688E3,1.7335938E1,4.173793E3,1.0700293E2,0E0,0E0,0E0,0E0,0E0,0E0,0E0,0E0,0E0,0E0,0E0,0E0,0E0,0E0,0E0,0E0,0E0,0E0,0E0,0E0,0E0,0E0,0E0,0E0,0E0,0E0,0E0,0E0,0E0,0E0],"parents":[2147483647,0,0,1,1,2,2,3,3,4,4,5,5,6,6,7,7,8,8,9,9,10,10,11,11,12,12,13,13,14,14,15,15,16,16,17,17,18,18,19,19,21,21,22,22,23,23,24,24,25,25,26,26,27,27,28,28,29,29,30,30],"right_children":[2,4,6,8,10,12,14,16,18,20,22,24,26,28,30,32,34,36,38,40,-1,42,44,46,48,50,52,54,56,58,60,-1,-1,-1,-1,-1,-1,-1,-1,-1,-1,-1,-1,-1,-1,-1,-1,-1,-1,-1,-1,-1,-1,-1,-1,-1,-1,-1,-1,-1,-1],"split_conditions":[1.4860421E0,1.3456979E0,1.6227789E0,-1.2920247E0,3E0,1.3456979E0,1.1E1,-1.6266353E-1,-2.2018518E-1,-2.0023987E-1,1.3E1,-1.2920247E0,1E1,1.3456979E0,1.2E1,3E0,8E0,-9.833035E-1,5E1,-1.1846133E0,-6.66802E-2,-1.2465672E0,1.2332398E0,1E0,9E0,2E0,-1.6027853E0,-1.2920247E0,2.1227863E0,1.8304965E0,-1.56043E0,-7.724861E-2,4.147742E-2,-6.1774082E-2,3.661653E-2,-5.811522E-2,-2.88402E-2,-6.055474E-2,1.324995E-1,-6.627885E-2,-7.96492E-2,-3.644946E-2,2.7348539E-2,-7.444696E-2,7.7192515E-2,-7.868205E-2,5.4848623E-2,-3.9186835E-2,2.6420435E-2,6.7545734E-2,1.1759451E-2,-9.793792E-2,6.749926E-2,6.645545E-2,4.895513E-2,6.57157E-2,6.820735E-2,6.771726E-2,-1.22213654E-1,-1.14628196E-1,6.6350766E-2],"split_indices":[2,15,2,15,1,15,1,2,2,2,1,15,1,15,1,1,1,2,6,2,0,2,2,1,1,1,10,15,2,2,16,0,0,0,0,0,0,0,0,0,0,0,0,0,0,0,0,0,0,0,0,0,0,0,0,0,0,0,0,0,0],"split_type":[0,0,0,0,0,0,0,0,0,0,0,0,0,0,0,0,0,0,0,0,0,0,0,0,0,0,0,0,0,0,0,0,0,0,0,0,0,0,0,0,0,0,0,0,0,0,0,0,0,0,0,0,0,0,0,0,0,0,0,0,0],"sum_hessian":[3.2701947E5,2.097029E5,1.17316555E5,1.7091344E5,3.878947E4,6.667558E3,1.1064899E5,3.7520215E4,1.3339323E5,2.1614895E3,3.6627977E4,3.9662153E3,2.7013428E3,1.0315839E5,7.4906006E3,2.0642926E4,1.687729E4,5.6748785E4,7.6644445E4,7.635724E2,1.3979171E3,3.289286E4,3.7351177E3,1.6084097E3,2.3578057E3,5.846295E2,2.1167134E3,5.3650832E4,4.950756E4,1.3371141E3,6.153487E3,2.0785195E3,1.8564406E4,1.5651825E4,1.2254644E3,3.083344E4,2.5915348E4,7.663365E4,1.0792371E1,2.2582185E2,5.377505E2,3.2791619E3,2.9613697E4,3.1152847E3,6.1983295E2,4.8357544E1,1.5600521E3,1.2740298E3,1.0837759E3,2.7462683E2,3.1000266E2,3.070995E0,2.1136423E3,3.20906E4,2.1560232E4,9.566224E3,3.9941336E4,4.2194302E2,9.151711E2,7.3119993E0,6.146175E3],"tree_param":{"num_deleted":"0","num_feature":"19","num_nodes":"61","size_leaf_vector":"1"}},{"base_weights":[3.0567995E-4,-3.4408456E-1,8.3924335E-1,5.445177E-1,-7.5375545E-1,1.0640378E0,5.2270687E-1,4.7668016E-1,1.5240856E0,-7.882171E-1,1.096641E0,1.2883039E0,9.8773265E-1,1.24848E0,3.8169914E-1,4.1281456E-1,1.2184021E0,1.4085096E0,1.5967298E0,-8.0181766E-1,1.4048638E0,1.3003407E0,1.6349001E-1,1.2714378E0,6.6614844E-2,4.0125984E-1,1.076409E0,5.772996E-1,1.5187508E0,4.8279506E-1,-1.2543128E-1,2.3593351E-2,-5.211736E-3,4.4258483E-2,6.7791246E-2,9.973554E-2,7.017482E-2,8.568645E-2,6.7198865E-2,-3.729264E-2,-5.8458656E-2,9.5130354E-2,-2.303842E-2,7.246109E-2,-1.694251E-2,8.6450666E-2,-7.9669645E-3,6.3723825E-2,4.8752986E-2,9.924938E-4,3.061898E-2,4.979552E-2,6.591494E-2,-7.657101E-2,3.2893293E-2,6.47591E-2,8.3064355E-2,2.1915106E-2,7.940719E-2,-2.4550662E-3,-7.059969E-2],"categories":[],"categories_nodes":[],"categories_segments":[],"categories_sizes":[],"default_left":[0,0,0,0,0,0,0,0,0,0,0,0,0,0,0,0,0,0,0,0,0,0,0,0,0,0,0,0,0,0,0,0,0,0,0,0,0,0,0,0,0,0,0,0,0,0,0,0,0,0,0,0,0,0,0,0,0,0,0,0,0],"id":16,"left_children":[1,3,5,7,9,11,13,15,17,19,21,23,25,27,29,31,33,35,37,39,41,43,45,47,-1,49,51,53,55,57,59,-1,-1,-1,-1,-1,-1,-1,-1,-1,-1,-1,-1,-1,-1,-1,-1,-1,-1,-1,-1,-1,-1,-1,-1,-1,-1,-1,-1,-1,-1],"loss_changes":[9.242872E4,8.2564945E4,6.624375E3,4.755127E3,9.8999375E3,9.3035156E2,3.9564756E3,3.1702402E3,3.6664062E1,4.546742E3,5.393689E2,8.558594E0,2.1122969E3,1.1400527E3,1.6599575E3,1.8817998E3,2.4178076E2,2.4824219E0,8.163818E1,3.1129766E3,8.7344116E2,5.6908936E2,2.579135E2,7.7734375E0,0E0,4.2976733E2,6.858047E2,3.0803766E2,1.407168E2,1.3269316E3,5.2848096E2,0E0,0E0,0E0,0E0,0E0,0E0,0E0,0E0,0E0,0E0,0E0,0E0,0E0,0E0,0E0,0E0,0E0,0E0,0E0,0E0,0E0,0E0,0E0,0E0,0E0,0E0,0E0,0E0,0E0,0E0],"parents":[2147483647,0,0,1,1,2,2,3,3,4,4,5,5,6,6,7,7,8,8,9,9,10,10,11,11,12,12,13,13,14,14,15,15,16,16,17,17,18,18,19,19,20,20,21,21,22,22,23,23,25,25,26,26,27,27,28,28,29,29,30,30],"right_children":[2,4,6,8,10,12,14,16,18,20,22,24,26,28,30,32,34,36,38,40,42,44,46,48,-1,50,52,54,56,58,60,-1,-1,-1,-1,-1,-1,-1,-1,-1,-1,-1,-1,-1,-1,-1,-1,-1,-1,-1,-1,-1,-1,-1,-1,-1,-1,-1,-1,-1,-1],"split_conditions":[1.3456979E0,-1.2920247E0,8E0,9E0,8.9E2,2E0,3.42E2,8.64E2,1.1E1,8.27E2,1.156014E0,7.51E2,3E0,9E0,1.1234995E0,1.4154743E0,8.9E2,4E0,1.3E1,1.4154743E0,8.64E2,1.938785E0,8.19E2,2.3378112E0,6.6614844E-2,1.3559574E0,7.44E2,7.4E1,1.1E1,8.9E2,1.6335454E0,2.3593351E-2,-5.211736E-3,4.4258483E-2,6.7791246E-2,9.973554E-2,7.017482E-2,8.568645E-2,6.7198865E-2,-3.729264E-2,-5.8458656E-2,9.5130354E-2,-2.303842E-2,7.246109E-2,-1.694251E-2,8.6450666E-2,-7.9669645E-3,6.3723825E-2,4.8752986E-2,9.924938E-4,3.061898E-2,4.979552E-2,6.591494E-2,-7.657101E-2,3.2893293E-2,6.47591E-2,8.3064355E-2,2.1915106E-2,7.940719E-2,-2.4550662E-3,-7.059969E-2],"split_indices":[15,15,1,1,7,1,0,7,1,5,8,7,1,1,17,17,7,7,1,17,7,10,5,10,0,15,7,7,1,7,10,0,0,0,0,0,0,0,0,0,0,0,0,0,0,0,0,0,0,0,0,0,0,0,0,0,0,0,0,0,0],"split_type":[0,0,0,0,0,0,0,0,0,0,0,0,0,0,0,0,0,0,0,0,0,0,0,0,0,0,0,0,0,0,0,0,0,0,0,0,0,0,0,0,0,0,0,0,0,0,0,0,0,0,0,0,0,0,0,0,0,0,0,0,0],"sum_hessian":[3.1990694E5,2.2680314E5,9.3103805E4,7.1567766E4,1.5523538E5,5.4439902E4,3.8663906E4,6.6933914E4,4.6338564E3,1.523977E5,2.83767E3,1.3816474E4,4.062343E4,6.2885586E3,3.2375346E4,6.162894E4,5.304973E3,1.7963188E3,2.8375376E3,1.5145905E5,9.3865E2,2.3288962E3,5.087738E2,1.0009089E4,3.8073848E3,5.3363384E3,3.528709E4,1.8062134E3,4.482345E3,2.699414E4,5.381206E3,5.5311832E4,6.317108E3,1.5511284E3,3.7538447E3,1.186628E1,1.7844525E3,1.9357145E3,9.01823E2,1.3143811E5,2.0020947E4,7.409482E2,1.9770184E2,2.1350906E3,1.938057E2,8.6234375E1,4.2253943E2,9.904244E3,1.0484512E2,1.90174E3,3.4345984E3,2.6479941E4,8.807149E3,6.580632E1,1.7404071E3,1.749045E3,2.7333003E3,2.5950947E4,1.0431921E3,5.080807E3,3.0039908E2],"tree_param":{"num_deleted":"0","num_feature":"19","num_nodes":"61","size_leaf_vector":"1"}},{"base_weights":[-1.9073196E-3,-6.478827E-1,1.1855648E0,-8.4214354E-1,1.6084112E-1,1.0523995E0,1.2878152E0,-1.8053381E-1,-1.0350052E0,-1.3817354E0,2.4818371E-1,1.2480613E0,8.0089384E-1,1.2410241E0,1.3154662E0,5.627526E-1,-1.0370663E0,-8.524915E-1,-1.1709827E0,-1.488381E0,-1.3231914E0,1.1301593E0,1.0065772E-1,4.641913E-1,1.3218966E0,-4.918185E-2,1.0933495E0,1.3143203E0,1.1561798E0,1.3016012E0,1.3253212E0,-6.11269E-2,4.2367604E-2,-5.9179436E-2,3.5551455E-2,-1.8902114E-2,-5.218495E-2,-5.9286535E-2,-2.253008E-2,-6.563241E-2,-7.797382E-2,-6.5937996E-2,-8.4535755E-2,3.201887E-2,8.6742684E-2,-7.16948E-2,1.25321215E-2,-9.1512375E-2,5.9273224E-2,6.824178E-2,5.214597E-2,3.195847E-2,-4.298168E-2,6.5591365E-2,3.4246273E-2,6.582566E-2,-1.9533655E-2,5.922799E-2,3.0043883E-2,6.2722765E-2,6.591547E-2,6.998426E-2,6.61214E-2],"categories":[],"categories_nodes":[],"categories_segments":[],"categories_sizes":[],"default_left":[0,0,0,0,0,0,0,0,0,0,0,0,0,0,0,0,0,0,0,0,0,0,0,0,0,0,0,0,0,0,0,0,0,0,0,0,0,0,0,0,0,0,0,0,0,0,0,0,0,0,0,0,0,0,0,0,0,0,0,0,0,0,0],"id":17,"left_children":[1,3,5,7,9,11,13,15,17,19,21,23,25,27,29,31,33,35,37,39,41,43,45,47,49,51,53,55,57,59,61,-1,-1,-1,-1,-1,-1,-1,-1,-1,-1,-1,-1,-1,-1,-1,-1,-1,-1,-1,-1,-1,-1,-1,-1,-1,-1,-1,-1,-1,-1,-1,-1],"loss_changes":[2.4194814E5,3.2094102E4,1.5118125E3,2.1017852E4,5.33137E3,2.3745508E3,7.9703125E1,2.367105E4,3.1642656E3,1.1269775E1,4.872407E3,1.5707109E3,5.252002E3,1.4378125E2,3.6640625E0,1.0115359E4,4.4254023E3,4.9397734E3,7.759297E2,7.2418213E0,1.46484375E-2,1.5881704E3,7.384536E3,3.8724922E3,2.9579688E2,3.017782E3,1.4016309E3,4.736328E1,1.7008789E2,1.1318359E1,3.1054688E0,0E0,0E0,0E0,0E0,0E0,0E0,0E0,0E0,0E0,0E0,0E0,0E0,0E0,0E0,0E0,0E0,0E0,0E0,0E0,0E0,0E0,0E0,0E0,0E0,0E0,0E0,0E0,0E0,0E0,0E0,0E0,0E0],"parents":[2147483647,0,0,1,1,2,2,3,3,4,4,5,5,6,6,7,7,8,8,9,9,10,10,11,11,12,12,13,13,14,14,15,15,16,16,17,17,18,18,19,19,20,20,21,21,22,22,23,23,24,24,25,25,26,26,27,27,28,28,29,29,30,30],"right_children":[2,4,6,8,10,12,14,16,18,20,22,24,26,28,30,32,34,36,38,40,42,44,46,48,50,52,54,56,58,60,62,-1,-1,-1,-1,-1,-1,-1,-1,-1,-1,-1,-1,-1,-1,-1,-1,-1,-1,-1,-1,-1,-1,-1,-1,-1,-1,-1,-1,-1,-1,-1,-1],"split_conditions":[1.5427313E0,1.3456979E0,2.3511784E0,-1.2920247E0,3E0,4E0,1.2021978E0,-2.8133386E-1,-2.2018518E-1,-2.0023987E-1,6E0,1E0,8E0,-1.2920247E0,1.3723257E-1,-1.2465672E0,8E0,6E0,1.4463857E0,-1.1846133E0,1.4860421E0,1.3723257E-1,8E0,2.1227863E0,2E0,6E0,1.1E1,2.4786313E0,1.4154743E0,1E0,1.3456979E0,-6.11269E-2,4.2367604E-2,-5.9179436E-2,3.5551455E-2,-1.8902114E-2,-5.218495E-2,-5.9286535E-2,-2.253008E-2,-6.563241E-2,-7.797382E-2,-6.5937996E-2,-8.4535755E-2,3.201887E-2,8.6742684E-2,-7.16948E-2,1.25321215E-2,-9.1512375E-2,5.9273224E-2,6.824178E-2,5.214597E-2,3.195847E-2,-4.298168E-2,6.5591365E-2,3.4246273E-2,6.582566E-2,-1.9533655E-2,5.922799E-2,3.0043883E-2,6.2722765E-2,6.591547E-2,6.998426E-2,6.61214E-2],"split_indices":[2,15,2,15,1,1,15,2,2,2,1,1,1,15,14,2,1,1,2,2,2,14,1,2,1,1,1,14,17,3,15,0,0,0,0,0,0,0,0,0,0,0,0,0,0,0,0,0,0,0,0,0,0,0,0,0,0,0,0,0,0,0,0],"split_type":[0,0,0,0,0,0,0,0,0,0,0,0,0,0,0,0,0,0,0,0,0,0,0,0,0,0,0,0,0,0,0,0,0,0,0,0,0,0,0,0,0,0,0,0,0,0,0,0,0,0,0,0,0,0,0,0,0,0,0,0,0,0,0],"sum_hessian":[3.154134E5,2.0428464E5,1.1112877E5,1.6471819E5,3.9566453E4,4.8272586E4,6.2856188E4,3.7178777E4,1.27539414E5,2.119456E3,3.7446996E4,2.714829E4,2.1124297E4,2.3364506E4,3.949168E4,1.9905455E4,1.727332E4,5.4455117E4,7.30843E4,7.4249097E2,1.3769651E3,5.3651426E3,3.2081854E4,2.3376804E3,2.481061E4,5.4074346E3,1.5716862E4,1.2527566E4,1.0836939E4,1.6463082E4,2.30286E4,2.736446E3,1.716901E4,1.5937767E4,1.335554E3,1.5642895E4,3.8812223E4,7.161747E4,1.4668268E3,2.1947008E2,5.2302094E2,1.3650934E3,1.187174E1,2.9653604E3,2.3997822E3,2.8556807E3,2.9226174E4,5.5873944E2,1.7789409E3,2.1497855E4,3.3127544E3,2.9240908E3,2.4833435E3,1.0238032E4,5.47883E3,1.2511701E4,1.5865015E1,1.0308943E4,5.2799677E2,4.327695E3,1.2135387E4,8.4432526E2,2.2184273E4],"tree_param":{"num_deleted":"0","num_feature":"19","num_nodes":"63","size_leaf_vector":"1"}},{"base_weights":[-2.7186181E-3,-6.280063E-1,1.1569331E0,-2.2949421E-1,-1.0037801E0,1.0193694E0,1.2630513E0,-1.0950384E0,1.2280681E-1,-1.0361401E0,-1.0001359E-1,1.2547071E0,7.861407E-1,1.2818761E0,1.2096313E0,-1.2021163E0,-6.8024707E-1,7.018651E-1,-3.0477044E-1,-1.2200999E0,-9.216432E-1,-1.0478034E0,8.196233E-1,4.79984E-1,1.3410097E0,3.115528E-1,1.0527927E0,1.3052087E0,1.2638961E0,1.266954E0,1.0964091E0,-3.256574E-3,-6.0646564E-2,7.966215E-2,-3.7761837E-2,-7.068231E-2,5.684626E-2,-7.019525E-2,4.121505E-3,-6.12226E-2,-1.5507199E-2,-5.2162655E-2,-2.8678486E-2,-5.837354E-2,4.8212152E-2,9.657201E-3,6.696942E-2,-8.799169E-2,5.847602E-2,6.446292E-2,6.724203E-2,4.0165E-2,-4.641768E-2,6.396071E-2,3.1199345E-2,6.5634616E-2,6.1713994E-2,4.6585366E-2,6.400832E-2,6.1940737E-2,6.629463E-2,5.791542E-2,-1.1248014E-1],"categories":[],"categories_nodes":[],"categories_segments":[],"categories_sizes":[],"default_left":[0,0,0,0,0,0,0,0,0,0,0,0,0,0,0,0,0,0,0,0,0,0,0,0,0,0,0,0,0,0,0,0,0,0,0,0,0,0,0,0,0,0,0,0,0,0,0,0,0,0,0,0,0,0,0,0,0,0,0,0,0,0,0],"id":18,"left_children":[1,3,5,7,9,11,13,15,17,19,21,23,25,27,29,31,33,35,37,39,41,43,45,47,49,51,53,55,57,59,61,-1,-1,-1,-1,-1,-1,-1,-1,-1,-1,-1,-1,-1,-1,-1,-1,-1,-1,-1,-1,-1,-1,-1,-1,-1,-1,-1,-1,-1,-1,-1,-1],"loss_changes":[2.2283803E5,2.9898586E4,1.5702656E3,2.954759E4,3.0051875E3,2.5725234E3,5.95625E1,1.2441836E3,1.7051479E4,2.0884844E3,3.0980066E3,1.5596406E3,2.9801357E3,1.71875E1,1.0149609E2,2.738672E2,9.8215283E2,2.6925092E4,1.6860375E4,1.5033203E2,2.5879492E3,4.2255908E2,5.871642E2,3.6169792E3,2.4257812E0,5.1674307E3,1.4632188E3,8.7421875E0,1.3609766E2,1.5802734E1,1.1077192E3,0E0,0E0,0E0,0E0,0E0,0E0,0E0,0E0,0E0,0E0,0E0,0E0,0E0,0E0,0E0,0E0,0E0,0E0,0E0,0E0,0E0,0E0,0E0,0E0,0E0,0E0,0E0,0E0,0E0,0E0,0E0,0E0],"parents":[2147483647,0,0,1,1,2,2,3,3,4,4,5,5,6,6,7,7,8,8,9,9,10,10,11,11,12,12,13,13,14,14,15,15,16,16,17,17,18,18,19,19,20,20,21,21,22,22,23,23,24,24,25,25,26,26,27,27,28,28,29,29,30,30],"right_children":[2,4,6,8,10,12,14,16,18,20,22,24,26,28,30,32,34,36,38,40,42,44,46,48,50,52,54,56,58,60,62,-1,-1,-1,-1,-1,-1,-1,-1,-1,-1,-1,-1,-1,-1,-1,-1,-1,-1,-1,-1,-1,-1,-1,-1,-1,-1,-1,-1,-1,-1,-1,-1],"split_conditions":[1.5427313E0,-2.2018518E-1,2.3511784E0,-1.1690993E0,1.415007E0,2E0,7E0,1.1E1,6E0,4E0,9E0,1E0,8E0,3E0,2.586513E0,8E0,3.5E2,3E0,9E0,9.01E2,8.375313E-1,4.39E2,1.3E1,2.1227863E0,1.6227789E0,6E0,1.1E1,2.586513E0,5E0,1.2E1,8E0,-3.256574E-3,-6.0646564E-2,7.966215E-2,-3.7761837E-2,-7.068231E-2,5.684626E-2,-7.019525E-2,4.121505E-3,-6.12226E-2,-1.5507199E-2,-5.2162655E-2,-2.8678486E-2,-5.837354E-2,4.8212152E-2,9.657201E-3,6.696942E-2,-8.799169E-2,5.847602E-2,6.446292E-2,6.724203E-2,4.0165E-2,-4.641768E-2,6.396071E-2,3.1199345E-2,6.5634616E-2,6.1713994E-2,4.6585366E-2,6.400832E-2,6.1940737E-2,6.629463E-2,5.791542E-2,-1.1248014E-1],"split_indices":[2,2,2,2,2,1,1,1,1,1,1,1,1,1,2,0,0,1,1,4,2,11,1,2,2,1,1,2,1,1,1,0,0,0,0,0,0,0,0,0,0,0,0,0,0,0,0,0,0,0,0,0,0,0,0,0,0,0,0,0,0,0,0],"split_type":[0,0,0,0,0,0,0,0,0,0,0,0,0,0,0,0,0,0,0,0,0,0,0,0,0,0,0,0,0,0,0,0,0,0,0,0,0,0,0,0,0,0,0,0,0,0,0,0,0,0,0,0,0,0,0,0,0,0,0,0,0,0,0],"sum_hessian":[3.0731166E5,1.9965666E5,1.0765501E5,9.689747E4,1.0275918E5,4.6886008E4,6.0768996E4,2.8030111E4,6.886736E4,9.920687E4,3.5523132E3,2.33353E4,2.3550707E4,4.4917375E4,1.5851622E4,2.2277344E4,5.752766E3,2.9251742E4,3.9615617E4,3.8054984E4,6.115188E4,1.749311E3,1.8030023E3,2.3396096E3,2.099569E4,8.472858E3,1.5077849E4,1.9517709E4,2.5399668E4,1.0516887E4,5.3347354E3,2.099729E2,2.2067371E4,1.8304596E2,5.56972E3,4.9891914E3,2.426255E4,1.0319457E4,2.929616E4,3.78735E4,1.8148436E2,4.5317035E4,1.5834847E4,1.6515067E3,9.780431E1,8.181943E2,9.8480804E2,5.5035187E2,1.7892577E3,1.4703188E3,1.9525371E4,6.067026E3,2.405832E3,9.866224E3,5.211625E3,1.7639107E4,1.8786013E3,1.1886777E3,2.4210988E4,7.1332485E3,3.383638E3,5.2384805E3,9.625496E1],"tree_param":{"num_deleted":"0","num_feature":"19","num_nodes":"63","size_leaf_vector":"1"}},{"base_weights":[-1.584861E-3,-6.156622E-1,1.1340494E0,-8.166422E-1,1.8623748E-1,9.962412E-1,1.2423245E0,-1.9263843E-1,-9.974762E-1,-1.3356979E0,2.6826823E-1,1.2024179E0,7.335043E-1,1.1915675E0,1.2737817E0,4.9224272E-1,-1.0190129E0,-8.0354214E-1,-1.1466323E0,-1.4247283E0,-6.42608E-2,1.1191219E0,1.2069444E-1,4.730974E-1,1.2727367E0,-1.2887624E-1,1.029822E0,1.2720276E0,1.0968984E0,1.2585204E0,1.2850176E0,-7.522258E-2,3.599077E-2,-5.8420014E-2,3.4047224E-2,-5.725933E-2,-2.5731286E-2,-5.7861626E-2,-3.115252E-2,-6.382998E-2,-7.411697E-2,3.455485E-2,8.339872E-2,-6.9053404E-2,1.3034183E-2,-8.4972374E-2,5.7060223E-2,6.586251E-2,4.958244E-2,2.7128726E-2,-4.625357E-2,6.258894E-2,3.1257164E-2,6.387209E-2,3.6164008E-2,6.3525684E-2,5.1025927E-2,5.803125E-2,6.322728E-2,6.742034E-2,6.4132184E-2],"categories":[],"categories_nodes":[],"categories_segments":[],"categories_sizes":[],"default_left":[0,0,0,0,0,0,0,0,0,0,0,0,0,0,0,0,0,0,0,0,0,0,0,0,0,0,0,0,0,0,0,0,0,0,0,0,0,0,0,0,0,0,0,0,0,0,0,0,0,0,0,0,0,0,0,0,0,0,0,0,0],"id":19,"left_children":[1,3,5,7,9,11,13,15,17,19,21,23,25,27,29,31,33,35,37,39,-1,41,43,45,47,49,51,53,55,57,59,-1,-1,-1,-1,-1,-1,-1,-1,-1,-1,-1,-1,-1,-1,-1,-1,-1,-1,-1,-1,-1,-1,-1,-1,-1,-1,-1,-1,-1,-1],"loss_changes":[2.0938131E5,3.1406773E4,1.5710625E3,1.758257E4,4.876027E3,2.5109297E3,9.2703125E1,1.981574E4,3.4936484E3,7.14624E0,4.6528975E3,1.3317539E3,5.2106914E3,1.7069531E2,4.6210938E0,8.700559E3,4.0302383E3,5.1838867E3,3.7826562E2,4.1968994E0,0E0,1.2855552E3,6.639651E3,3.3202998E3,2.9515625E2,2.7886938E3,1.3623516E3,3.5345703E1,1.3644336E2,7.669922E0,1.4179688E0,0E0,0E0,0E0,0E0,0E0,0E0,0E0,0E0,0E0,0E0,0E0,0E0,0E0,0E0,0E0,0E0,0E0,0E0,0E0,0E0,0E0,0E0,0E0,0E0,0E0,0E0,0E0,0E0,0E0,0E0],"parents":[2147483647,0,0,1,1,2,2,3,3,4,4,5,5,6,6,7,7,8,8,9,9,10,10,11,11,12,12,13,13,14,14,15,15,16,16,17,17,18,18,19,19,21,21,22,22,23,23,24,24,25,25,26,26,27,27,28,28,29,29,30,30],"right_children":[2,4,6,8,10,12,14,16,18,20,22,24,26,28,30,32,34,36,38,40,-1,42,44,46,48,50,52,54,56,58,60,-1,-1,-1,-1,-1,-1,-1,-1,-1,-1,-1,-1,-1,-1,-1,-1,-1,-1,-1,-1,-1,-1,-1,-1,-1,-1,-1,-1,-1,-1],"split_conditions":[1.5427313E0,1.3456979E0,2.3511784E0,-1.2920247E0,3E0,4E0,1.2021978E0,-2.0023987E-1,-2.2018518E-1,-2.0023987E-1,6E0,1E0,8E0,-1.2920247E0,1.3723257E-1,3E0,8E0,-1.0585726E0,1.4463857E0,-1.1846133E0,-6.42608E-2,1.3723257E-1,8E0,2.1227863E0,2E0,6E0,1.1E1,1.8467875E0,3E0,1.3456979E0,1.3456979E0,-7.522258E-2,3.599077E-2,-5.8420014E-2,3.4047224E-2,-5.725933E-2,-2.5731286E-2,-5.7861626E-2,-3.115252E-2,-6.382998E-2,-7.411697E-2,3.455485E-2,8.339872E-2,-6.9053404E-2,1.3034183E-2,-8.4972374E-2,5.7060223E-2,6.586251E-2,4.958244E-2,2.7128726E-2,-4.625357E-2,6.258894E-2,3.1257164E-2,6.387209E-2,3.6164008E-2,6.3525684E-2,5.1025927E-2,5.803125E-2,6.322728E-2,6.742034E-2,6.4132184E-2],"split_indices":[2,15,2,15,1,1,15,2,2,2,1,1,1,15,14,1,1,2,2,2,0,14,1,2,1,1,1,14,1,15,15,0,0,0,0,0,0,0,0,0,0,0,0,0,0,0,0,0,0,0,0,0,0,0,0,0,0,0,0,0,0],"split_type":[0,0,0,0,0,0,0,0,0,0,0,0,0,0,0,0,0,0,0,0,0,0,0,0,0,0,0,0,0,0,0,0,0,0,0,0,0,0,0,0,0,0,0,0,0,0,0,0,0,0,0,0,0,0,0,0,0,0,0,0,0],"sum_hessian":[3.0024334E5,1.9487048E5,1.0537286E5,1.5581786E5,3.9052617E4,4.636786E4,5.9005E4,3.5010215E4,1.2080765E5,1.9964648E3,3.7056152E4,2.5978365E4,2.0389492E4,2.2591691E4,3.641331E4,1.9144268E4,1.5865946E4,5.2523055E4,6.828459E4,7.1256006E2,1.2839048E3,5.4761567E3,3.1579998E4,2.2851711E3,2.3693195E4,5.2144165E3,1.5175076E4,1.2205599E4,1.0386093E4,1.5488615E4,2.0924693E4,1.9581437E3,1.7186123E4,1.4584606E4,1.2813402E3,2.406416E4,2.8458895E4,6.6928375E4,1.3562181E3,2.0601562E2,5.0654446E2,3.0780137E3,2.398143E3,2.6920134E3,2.8887984E4,5.3709766E2,1.7480734E3,2.0450879E4,3.2423164E3,2.828984E3,2.3854326E3,9.798654E3,5.376422E3,1.2085033E4,1.2056495E2,3.1684426E3,7.2176504E3,9.0923773E2,1.4579377E4,7.348783E2,2.0189816E4],"tree_param":{"num_deleted":"0","num_feature":"19","num_nodes":"61","size_leaf_vector":"1"}},{"base_weights":[-2.7972828E-3,-3.2549974E-1,7.63654E-1,4.8119333E-1,-7.0071363E-1,9.829166E-1,4.8454064E-1,4.1531777E-1,1.4505647E0,-7.410108E-1,8.261112E-1,6.5992403E-1,1.2508966E0,1.160119E0,3.615655E-1,3.5901946E-1,1.1787348E0,1.3306558E0,1.5185882E0,-7.5452214E-1,1.7403603E0,1.4846525E-1,1.0327368E0,2.3243257E-1,9.065523E-1,1.1495196E0,1.3177668E0,5.405867E-1,1.423424E0,5.370525E-1,5.190258E-2,2.7592674E-2,4.6864725E-3,4.0798143E-2,6.401161E-2,6.6203594E-2,8.6736E-2,8.117861E-2,6.3200474E-2,-3.0341117E-2,-4.4409446E-2,9.930701E-2,7.746469E-2,6.449702E-2,-1.0211494E-2,6.0195774E-2,1.893985E-2,5.555438E-3,4.9046498E-2,5.6527074E-2,3.5307094E-2,6.335317E-2,3.518224E-2,7.975207E-2,6.292993E-2,3.1313017E-2,-6.1906792E-2,5.9026547E-2,7.87564E-2,3.245877E-2,-2.96722E-3,-2.209567E-2,1.7584417E-2],"categories":[],"categories_nodes":[],"categories_segments":[],"categories_sizes":[],"default_left":[0,0,0,0,0,0,0,0,0,0,0,0,0,0,0,0,0,0,0,0,0,0,0,0,0,0,0,0,0,0,0,0,0,0,0,0,0,0,0,0,0,0,0,0,0,0,0,0,0,0,0,0,0,0,0,0,0,0,0,0,0,0,0],"id":20,"left_children":[1,3,5,7,9,11,13,15,17,19,21,23,25,27,29,31,33,35,37,39,41,43,45,47,49,51,53,55,57,59,61,-1,-1,-1,-1,-1,-1,-1,-1,-1,-1,-1,-1,-1,-1,-1,-1,-1,-1,-1,-1,-1,-1,-1,-1,-1,-1,-1,-1,-1,-1,-1,-1],"loss_changes":[7.2317414E4,6.2278906E4,5.301211E3,4.1706445E3,8.641164E3,4.198496E3,3.1661729E3,2.628415E3,3.1879883E1,4.5886016E3,5.0554663E2,2.3194873E3,1.7823438E2,9.566489E2,1.7523374E3,2.9141616E3,1.536167E2,1.7265625E0,6.8632324E1,2.6861172E3,3.173413E1,3.4049225E2,3.0934644E2,7.30989E2,6.255078E2,5.518369E2,2.5998633E2,2.6777606E2,1.4988379E2,1.3763955E3,1.7270931E3,0E0,0E0,0E0,0E0,0E0,0E0,0E0,0E0,0E0,0E0,0E0,0E0,0E0,0E0,0E0,0E0,0E0,0E0,0E0,0E0,0E0,0E0,0E0,0E0,0E0,0E0,0E0,0E0,0E0,0E0,0E0,0E0],"parents":[2147483647,0,0,1,1,2,2,3,3,4,4,5,5,6,6,7,7,8,8,9,9,10,10,11,11,12,12,13,13,14,14,15,15,16,16,17,17,18,18,19,19,20,20,21,21,22,22,23,23,24,24,25,25,26,26,27,27,28,28,29,29,30,30],"right_children":[2,4,6,8,10,12,14,16,18,20,22,24,26,28,30,32,34,36,38,40,42,44,46,48,50,52,54,56,58,60,62,-1,-1,-1,-1,-1,-1,-1,-1,-1,-1,-1,-1,-1,-1,-1,-1,-1,-1,-1,-1,-1,-1,-1,-1,-1,-1,-1,-1,-1,-1,-1,-1],"split_conditions":[1.3456979E0,-1.2920247E0,8E0,9E0,8.92E2,1.3723257E-1,3.42E2,8.84E2,1.1E1,8.27E2,9.01E2,1E0,3E0,9E0,1E0,2.3845756E-1,9.01E2,6.76E2,1.3E1,7E0,6E0,8.19E2,1.156014E0,7.9E2,-2.2274667E-1,2E0,6E0,1.4234083E0,1.1E1,8.128611E-1,1.3559574E0,2.7592674E-2,4.6864725E-3,4.0798143E-2,6.401161E-2,6.6203594E-2,8.6736E-2,8.117861E-2,6.3200474E-2,-3.0341117E-2,-4.4409446E-2,9.930701E-2,7.746469E-2,6.449702E-2,-1.0211494E-2,6.0195774E-2,1.893985E-2,5.555438E-3,4.9046498E-2,5.6527074E-2,3.5307094E-2,6.335317E-2,3.518224E-2,7.975207E-2,6.292993E-2,3.1313017E-2,-6.1906792E-2,5.9026547E-2,7.87564E-2,3.245877E-2,-2.96722E-3,-2.209567E-2,1.7584417E-2],"split_indices":[15,15,1,1,4,14,0,4,1,5,4,3,1,1,3,14,4,0,1,1,1,5,8,4,10,1,1,10,1,14,15,0,0,0,0,0,0,0,0,0,0,0,0,0,0,0,0,0,0,0,0,0,0,0,0,0,0,0,0,0,0,0,0],"split_type":[0,0,0,0,0,0,0,0,0,0,0,0,0,0,0,0,0,0,0,0,0,0,0,0,0,0,0,0,0,0,0,0,0,0,0,0,0,0,0,0,0,0,0,0,0,0,0,0,0,0,0,0,0,0,0,0,0,0,0,0,0,0,0],"sum_hessian":[2.9238362E5,2.0575447E5,8.6629164E4,6.5319715E4,1.4043475E5,4.8514883E4,3.811428E4,6.116458E4,4.155134E3,1.368241E5,3.6106543E3,2.2000932E4,2.6513953E4,5.8681997E3,3.2246082E4,5.696515E4,4.199432E3,1.5114219E3,2.643712E3,1.360838E5,7.4029565E2,8.4409436E2,2.76656E3,8.049803E3,1.3951128E4,1.0545251E4,1.5968702E4,1.7510924E3,4.1171074E3,2.0581656E4,1.1664427E4,3.2986695E4,2.3978451E4,9.2004614E2,3.2793862E3,1.4913978E3,2.002404E1,1.8680013E3,7.7571045E2,6.4650965E4,7.143284E4,3.19679E2,4.206167E2,1.986191E2,6.454752E2,2.191944E3,5.7461584E2,6.927994E3,1.1218091E3,6.585825E3,7.3653027E3,8.343778E3,2.201472E3,2.8037583E3,1.3164944E4,1.6712434E3,7.98489E1,1.58621E3,2.5308975E3,1.7324545E4,3.2571113E3,4.4060977E3,7.258329E3],"tree_param":{"num_deleted":"0","num_feature":"19","num_nodes":"63","size_leaf_vector":"1"}},{"base_weights":[-1.2711027E-4,-5.913813E-1,1.1055858E0,-2.1537896E-1,-9.539243E-1,9.69189E-1,1.2137161E0,-1.0206401E0,1.4410158E-1,-1.0902058E0,-6.207996E-1,1.096711E0,5.9519404E-1,1.2208309E0,1.1045157E0,-1.0433675E0,7.5900024E-1,-7.0012815E-2,5.815644E-1,-9.480947E-1,-1.1937609E0,-7.168786E-1,2.1513282E-1,7.040402E-1,1.1543045E0,2.7313787E-1,9.165075E-1,1.2389487E0,1.1942587E0,-1.3515243E-1,1.1106745E0,-5.254903E-2,1.0336008E-1,1.199129E-1,-5.8052144E-3,-7.7714995E-3,5.8657568E-2,3.935025E-2,-2.1659988E-3,-5.8415342E-2,-1.9968046E-2,-6.0726434E-2,-5.1836092E-2,-3.738431E-2,7.027742E-2,5.8477656E-3,6.80818E-2,2.200489E-2,4.781391E-2,5.8612097E-2,4.5253005E-2,2.7168846E-2,-5.098169E-3,-3.0458221E-2,4.7036648E-2,6.122879E-2,6.257548E-2,5.802501E-2,6.1265547E-2,3.8861732E-3,5.5881005E-2],"categories":[],"categories_nodes":[],"categories_segments":[],"categories_sizes":[],"default_left":[0,0,0,0,0,0,0,0,0,0,0,0,0,0,0,0,0,0,0,0,0,0,0,0,0,0,0,0,0,0,0,0,0,0,0,0,0,0,0,0,0,0,0,0,0,0,0,0,0,0,0,0,0,0,0,0,0,0,0,0,0],"id":21,"left_children":[1,3,5,7,9,11,13,15,17,19,21,23,25,27,29,31,33,35,37,39,41,43,45,47,49,51,53,55,57,-1,59,-1,-1,-1,-1,-1,-1,-1,-1,-1,-1,-1,-1,-1,-1,-1,-1,-1,-1,-1,-1,-1,-1,-1,-1,-1,-1,-1,-1,-1,-1],"loss_changes":[1.886259E5,2.562714E4,1.4814688E3,2.6715092E4,4.3445312E3,2.1196914E3,4.2203125E1,1.1528379E3,5.9764766E3,9.984375E2,2.23213E3,7.489414E2,1.1697844E3,2.3859375E1,8.3674805E1,6.6819727E2,5.1633923E2,4.549154E3,2.6917134E3,3.4598672E3,1.26875E2,1.6308506E3,3.223938E2,2.820713E2,1.2819531E2,5.726046E2,2.0974756E2,4.1132812E0,2.0978516E1,0E0,2.455957E1,0E0,0E0,0E0,0E0,0E0,0E0,0E0,0E0,0E0,0E0,0E0,0E0,0E0,0E0,0E0,0E0,0E0,0E0,0E0,0E0,0E0,0E0,0E0,0E0,0E0,0E0,0E0,0E0,0E0,0E0],"parents":[2147483647,0,0,1,1,2,2,3,3,4,4,5,5,6,6,7,7,8,8,9,9,10,10,11,11,12,12,13,13,14,14,15,15,16,16,17,17,18,18,19,19,20,20,21,21,22,22,23,23,24,24,25,25,26,26,27,27,28,28,30,30],"right_children":[2,4,6,8,10,12,14,16,18,20,22,24,26,28,30,32,34,36,38,40,42,44,46,48,50,52,54,56,58,-1,60,-1,-1,-1,-1,-1,-1,-1,-1,-1,-1,-1,-1,-1,-1,-1,-1,-1,-1,-1,-1,-1,-1,-1,-1,-1,-1,-1,-1,-1,-1],"split_conditions":[1.5427313E0,-2.2018518E-1,2.3511784E0,-1.1253029E0,8.468914E-1,1.8304965E0,1.4154743E0,8.9E2,-4.661219E-1,3.5290617E-1,1.4463857E0,1.6227789E0,2.1227863E0,2.586513E0,1E0,9.01E2,8.32E2,8.64E2,-3.0283627E-1,2.652762E-1,7.7803594E-1,9.01E2,4.4E1,5.52E2,1.4154743E0,1E0,3.7E1,1E0,1.3723257E-1,-1.3515243E-1,2.1E1,-5.254903E-2,1.0336008E-1,1.199129E-1,-5.8052144E-3,-7.7714995E-3,5.8657568E-2,3.935025E-2,-2.1659988E-3,-5.8415342E-2,-1.9968046E-2,-6.0726434E-2,-5.1836092E-2,-3.738431E-2,7.027742E-2,5.8477656E-3,6.80818E-2,2.200489E-2,4.781391E-2,5.8612097E-2,4.5253005E-2,2.7168846E-2,-5.098169E-3,-3.0458221E-2,4.7036648E-2,6.122879E-2,6.257548E-2,5.802501E-2,6.1265547E-2,3.8861732E-3,5.5881005E-2],"split_indices":[2,2,2,2,2,2,17,7,2,2,2,2,2,2,6,4,4,7,2,2,2,4,6,4,17,3,4,3,14,0,11,0,0,0,0,0,0,0,0,0,0,0,0,0,0,0,0,0,0,0,0,0,0,0,0,0,0,0,0,0,0],"split_type":[0,0,0,0,0,0,0,0,0,0,0,0,0,0,0,0,0,0,0,0,0,0,0,0,0,0,0,0,0,0,0,0,0,0,0,0,0,0,0,0,0,0,0,0,0,0,0,0,0,0,0,0,0,0,0,0,0,0,0,0,0],"sum_hessian":[2.8852384E5,1.879972E5,1.0052665E5,9.2286336E4,9.571086E4,4.4457484E4,5.6069164E4,2.8482264E4,6.3804074E4,6.792175E4,2.7789105E4,3.315172E4,1.1305764E4,5.2629992E4,3.4391748E3,2.812352E4,3.5874414E2,4.2838023E4,2.0966053E4,2.8635182E4,3.928657E4,2.4924518E4,2.8645886E3,4.2421387E3,2.8909582E4,5.6472803E3,5.6584834E3,3.1266086E4,2.1363906E4,4.8468246E0,3.4343281E3,2.8055516E4,6.8003944E1,1.2425237E2,2.3449176E2,4.00847E4,2.7533242E3,1.5778398E4,5.1876543E3,2.0433783E4,8.201399E3,3.4691965E4,4.5946045E3,2.4568547E4,3.559709E2,2.6396516E3,2.2493695E2,2.074315E3,2.167824E3,2.6965268E4,1.9443137E3,3.2821963E3,2.365084E3,8.806672E1,5.570417E3,1.4627112E4,1.6638973E4,1.0254293E4,1.1109612E4,2.3019663E1,3.4113083E3],"tree_param":{"num_deleted":"0","num_feature":"19","num_nodes":"61","size_leaf_vector":"1"}},{"base_weights":[-4.1628326E-3,-5.742001E-1,1.0798668E0,-1.9879584E-1,-9.532134E-1,9.377955E-1,1.1938806E0,-9.6722454E-1,1.3294064E-1,-9.9454015E-1,6.435359E-2,1.1527389E0,6.7533046E-1,1.2129412E0,1.1422257E0,-1.0906328E0,-5.0448555E-1,6.869696E-1,-2.7563214E-1,-1.180444E0,-8.794962E-1,-8.1533384E-1,9.97998E-1,3.603138E-1,1.2297258E0,-1.1109723E-1,9.7141296E-1,1.2381932E0,1.1929575E0,1.2035433E0,1.0156168E0,-5.585162E-2,3.650249E-2,9.028938E-2,-3.1336073E-2,-6.7913294E-2,5.4402925E-2,-6.8885595E-2,3.5987168E-3,-5.925698E-2,-1.5020448E-2,-5.0101202E-2,-2.5808914E-2,-4.5920383E-2,8.65409E-2,1.5131739E-2,6.9751434E-2,-8.303144E-2,5.301186E-2,6.3898675E-2,4.7560662E-2,2.3404775E-2,-3.7518524E-2,6.0306985E-2,2.6714673E-2,6.2374044E-2,5.7494212E-2,4.281061E-2,6.0578533E-2,5.879997E-2,6.316556E-2,5.3961415E-2,-1.103606E-1],"categories":[],"categories_nodes":[],"categories_segments":[],"categories_sizes":[],"default_left":[0,0,0,0,0,0,0,0,0,0,0,0,0,0,0,0,0,0,0,0,0,0,0,0,0,0,0,0,0,0,0,0,0,0,0,0,0,0,0,0,0,0,0,0,0,0,0,0,0,0,0,0,0,0,0,0,0,0,0,0,0,0,0],"id":22,"left_children":[1,3,5,7,9,11,13,15,17,19,21,23,25,27,29,31,33,35,37,39,41,43,45,47,49,51,53,55,57,59,61,-1,-1,-1,-1,-1,-1,-1,-1,-1,-1,-1,-1,-1,-1,-1,-1,-1,-1,-1,-1,-1,-1,-1,-1,-1,-1,-1,-1,-1,-1,-1,-1],"loss_changes":[1.7396119E5,2.6251047E4,1.5704062E3,2.362892E4,3.8608516E3,2.4363242E3,5.1601562E1,1.5955527E3,1.46556045E4,1.8858516E3,2.9444548E3,1.4483555E3,4.5294746E3,1.8351562E1,1.1153516E2,1.0613555E3,1.6634675E3,2.2544266E4,1.4275598E4,1.3899219E2,2.4257773E3,4.8603125E2,4.797251E2,2.9783623E3,2.8963867E2,1.9706385E3,1.4493252E3,1.2783203E1,1.3663086E2,1.4612305E1,9.752261E2,0E0,0E0,0E0,0E0,0E0,0E0,0E0,0E0,0E0,0E0,0E0,0E0,0E0,0E0,0E0,0E0,0E0,0E0,0E0,0E0,0E0,0E0,0E0,0E0,0E0,0E0,0E0,0E0,0E0,0E0,0E0,0E0],"parents":[2147483647,0,0,1,1,2,2,3,3,4,4,5,5,6,6,7,7,8,8,9,9,10,10,11,11,12,12,13,13,14,14,15,15,16,16,17,17,18,18,19,19,20,20,21,21,22,22,23,23,24,24,25,25,26,26,27,27,28,28,29,29,30,30],"right_children":[2,4,6,8,10,12,14,16,18,20,22,24,26,28,30,32,34,36,38,40,42,44,46,48,50,52,54,56,58,60,62,-1,-1,-1,-1,-1,-1,-1,-1,-1,-1,-1,-1,-1,-1,-1,-1,-1,-1,-1,-1,-1,-1,-1,-1,-1,-1,-1,-1,-1,-1,-1,-1],"split_conditions":[1.5427313E0,-2.0023987E-1,2.3511784E0,-1.1253029E0,1.415007E0,4E0,7E0,1.1E1,6E0,4E0,1E1,1E0,8E0,3E0,2.586513E0,8.9E2,3.5E2,3E0,9E0,9.01E2,8.6557746E-1,8.9E2,1.3E1,2.1227863E0,2E0,6E0,1.1E1,2.586513E0,5E0,1.2E1,8E0,-5.585162E-2,3.650249E-2,9.028938E-2,-3.1336073E-2,-6.7913294E-2,5.4402925E-2,-6.8885595E-2,3.5987168E-3,-5.925698E-2,-1.5020448E-2,-5.0101202E-2,-2.5808914E-2,-4.5920383E-2,8.65409E-2,1.5131739E-2,6.9751434E-2,-8.303144E-2,5.301186E-2,6.3898675E-2,4.7560662E-2,2.3404775E-2,-3.7518524E-2,6.0306985E-2,2.6714673E-2,6.2374044E-2,5.7494212E-2,4.281061E-2,6.0578533E-2,5.879997E-2,6.316556E-2,5.3961415E-2,-1.103606E-1],"split_indices":[2,2,2,2,2,1,1,1,1,1,1,1,1,1,2,7,0,1,1,4,2,7,1,2,1,1,1,2,1,1,1,0,0,0,0,0,0,0,0,0,0,0,0,0,0,0,0,0,0,0,0,0,0,0,0,0,0,0,0,0,0,0,0],"split_type":[0,0,0,0,0,0,0,0,0,0,0,0,0,0,0,0,0,0,0,0,0,0,0,0,0,0,0,0,0,0,0,0,0,0,0,0,0,0,0,0,0,0,0,0,0,0,0,0,0,0,0,0,0,0,0,0,0,0,0,0,0,0,0],"sum_hessian":[2.815172E5,1.8449888E5,9.7018305E4,9.2691516E4,9.180735E4,4.319843E4,5.3819875E4,2.7949004E4,6.474251E4,8.82243E4,3.5830579E3,2.374735E4,1.9451078E4,3.929685E4,1.4523023E4,2.2063514E4,5.8854917E3,2.7479434E4,3.726308E4,3.3722156E4,5.450214E4,1.8449023E3,1.7381555E3,2.1033416E3,2.1644008E4,5.320327E3,1.4130751E4,1.733318E4,2.1963674E4,9.778655E3,4.744368E3,2.1748549E4,3.1496396E2,2.950595E2,5.590432E3,4.5050195E3,2.2974414E4,8.934249E3,2.8328828E4,3.354284E4,1.7931769E2,4.0755656E4,1.3746482E4,1.7737369E3,7.116548E1,6.3237335E2,1.1057821E3,5.4071655E2,1.562625E3,1.8445113E4,3.1988958E3,2.7914722E3,2.528855E3,9.192665E3,4.938086E3,1.5671801E4,1.6613783E3,1.1528823E3,2.0810793E4,6.707971E3,3.0706846E3,4.6531895E3,9.117861E1],"tree_param":{"num_deleted":"0","num_feature":"19","num_nodes":"63","size_leaf_vector":"1"}},{"base_weights":[-4.477876E-3,-5.635616E-1,1.0605949E0,-7.601685E-1,1.758798E-1,9.184077E-1,1.1758804E0,-1.6386887E-1,-9.425926E-1,-1.2956749E0,2.5236088E-1,1.133381E0,6.6151565E-1,1.1193929E0,1.2114565E0,4.6308586E-1,-9.710568E-1,-7.5757504E-1,-1.0919828E0,-1.3786882E0,-6.2424686E-2,3.773494E-1,-7.6655644E-1,2.9537547E-1,1.2110832E0,-9.758245E-2,9.477218E-1,1.2083375E0,1.0193322E0,1.1951241E0,1.2228585E0,-7.20732E-2,3.375354E-2,-5.622336E-2,3.2459203E-2,-1.4339231E-2,-4.7842015E-2,-5.5243947E-2,-2.584723E-2,-6.1936628E-2,-7.162731E-2,-2.9443657E-2,2.3487527E-2,-7.221698E-2,6.326067E-2,-8.0359004E-2,5.0104916E-2,6.2943764E-2,4.6665933E-2,2.3808869E-2,-3.752603E-2,5.917527E-2,2.6062293E-2,6.0525876E-2,-2.2552935E-2,5.2742183E-2,1.3571682E-2,5.7119247E-2,6.0768753E-2,6.444248E-2,6.100998E-2],"categories":[],"categories_nodes":[],"categories_segments":[],"categories_sizes":[],"default_left":[0,0,0,0,0,0,0,0,0,0,0,0,0,0,0,0,0,0,0,0,0,0,0,0,0,0,0,0,0,0,0,0,0,0,0,0,0,0,0,0,0,0,0,0,0,0,0,0,0,0,0,0,0,0,0,0,0,0,0,0,0],"id":23,"left_children":[1,3,5,7,9,11,13,15,17,19,21,23,25,27,29,31,33,35,37,39,-1,41,43,45,47,49,51,53,55,57,59,-1,-1,-1,-1,-1,-1,-1,-1,-1,-1,-1,-1,-1,-1,-1,-1,-1,-1,-1,-1,-1,-1,-1,-1,-1,-1,-1,-1,-1,-1],"loss_changes":[1.6328598E5,2.6142594E4,1.5462266E3,1.5452289E4,4.2512607E3,2.3336055E3,1.03390625E2,1.6841754E4,3.0057031E3,5.5878906E0,4.5729443E3,1.4980078E3,4.184457E3,1.7814844E2,4.4882812E0,7.563384E3,3.6169316E3,4.558674E3,4.4570312E2,3.2509766E0,0E0,2.855706E3,5.404901E3,2.6288218E3,2.783711E2,1.9762609E3,1.4058164E3,3.912793E1,2.5179785E2,1.2697266E1,1.7207031E0,0E0,0E0,0E0,0E0,0E0,0E0,0E0,0E0,0E0,0E0,0E0,0E0,0E0,0E0,0E0,0E0,0E0,0E0,0E0,0E0,0E0,0E0,0E0,0E0,0E0,0E0,0E0,0E0,0E0,0E0],"parents":[2147483647,0,0,1,1,2,2,3,3,4,4,5,5,6,6,7,7,8,8,9,9,10,10,11,11,12,12,13,13,14,14,15,15,16,16,17,17,18,18,19,19,21,21,22,22,23,23,24,24,25,25,26,26,27,27,28,28,29,29,30,30],"right_children":[2,4,6,8,10,12,14,16,18,20,22,24,26,28,30,32,34,36,38,40,-1,42,44,46,48,50,52,54,56,58,60,-1,-1,-1,-1,-1,-1,-1,-1,-1,-1,-1,-1,-1,-1,-1,-1,-1,-1,-1,-1,-1,-1,-1,-1,-1,-1,-1,-1,-1,-1],"split_conditions":[1.5427313E0,1.3456979E0,2.3511784E0,-1.2920247E0,3E0,4E0,1.2021978E0,-1.6266353E-1,-2.2018518E-1,-2.2018518E-1,1.3E1,1E0,8E0,-1.2920247E0,1.3723257E-1,3E0,8E0,6E0,1.4463857E0,-1.1846133E0,-6.2424686E-2,-1.2968122E0,1.2332398E0,2.1227863E0,2E0,6E0,1.1E1,2.5360718E0,1.4154743E0,1E0,1.3456979E0,-7.20732E-2,3.375354E-2,-5.622336E-2,3.2459203E-2,-1.4339231E-2,-4.7842015E-2,-5.5243947E-2,-2.584723E-2,-6.1936628E-2,-7.162731E-2,-2.9443657E-2,2.3487527E-2,-7.221698E-2,6.326067E-2,-8.0359004E-2,5.0104916E-2,6.2943764E-2,4.6665933E-2,2.3808869E-2,-3.752603E-2,5.917527E-2,2.6062293E-2,6.0525876E-2,-2.2552935E-2,5.2742183E-2,1.3571682E-2,5.7119247E-2,6.0768753E-2,6.444248E-2,6.100998E-2],"split_indices":[2,15,2,15,1,1,15,2,2,2,1,1,1,15,14,1,1,1,2,2,0,2,2,2,1,1,1,14,17,3,15,0,0,0,0,0,0,0,0,0,0,0,0,0,0,0,0,0,0,0,0,0,0,0,0,0,0,0,0,0,0],"split_type":[0,0,0,0,0,0,0,0,0,0,0,0,0,0,0,0,0,0,0,0,0,0,0,0,0,0,0,0,0,0,0,0,0,0,0,0,0,0,0,0,0,0,0,0,0,0,0,0,0,0,0,0,0,0,0,0,0,0,0,0,0],"sum_hessian":[2.7421394E5,1.7982153E5,9.4392414E4,1.4205194E5,3.7769594E4,4.2268973E4,5.212344E4,3.3277586E4,1.0877435E5,1.8652285E3,3.5904363E4,2.3010133E4,1.925884E4,2.0154535E4,3.1968906E4,1.8730084E4,1.4547504E4,4.859556E4,6.017879E4,6.657138E2,1.1995148E3,3.1981848E4,3.9225183E3,1.9529276E3,2.1057205E4,5.2732847E3,1.3985556E4,1.0664083E4,9.490453E3,1.3186392E4,1.8782516E4,1.8753606E3,1.6854723E4,1.3289511E4,1.2579934E3,1.4452367E4,3.414319E4,5.8857906E4,1.3208843E3,1.9166158E2,4.7405222E2,2.7910405E3,2.9190807E4,2.941534E3,9.809844E2,5.286052E2,1.4243224E3,1.7962977E4,3.0942292E3,2.806971E3,2.466314E3,9.005148E3,4.980407E3,1.0650361E4,1.37210655E1,9.059864E3,4.3058844E2,3.6744648E3,9.511927E3,7.0872864E2,1.8073787E4],"tree_param":{"num_deleted":"0","num_feature":"19","num_nodes":"61","size_leaf_vector":"1"}},{"base_weights":[-3.0261758E-3,-5.430795E-1,1.0408269E0,-1.8484859E-1,-9.0727574E-1,8.9702594E-1,1.1588434E0,-8.490057E-1,1.791053E-1,-1.0293894E0,-5.623599E-1,1.1176169E0,6.3205874E-1,1.2069219E0,1.1361359E0,-1.0438918E0,-4.737244E-1,6.819968E-1,-1.8937133E-1,-8.822767E-1,-1.1340032E0,-1.0819196E0,-2.6910275E-2,2.6589358E-1,1.1941199E0,-1.1979512E-1,9.191149E-1,1.2156808E0,1.1304504E0,7.9082453E-1,1.1469514E0,-5.9058543E-2,-2.7101537E-2,7.934294E-3,-4.4182505E-2,-6.60392E-2,5.2709688E-2,-6.7982994E-2,6.452729E-3,-5.673153E-2,-1.6082292E-2,-5.874881E-2,-4.355428E-2,-5.5245597E-2,6.793249E-2,6.896373E-2,-1.3364869E-2,-7.813401E-2,4.864444E-2,6.211136E-2,4.590497E-2,2.223002E-2,-3.7582293E-2,5.5614777E-2,1.7167106E-2,6.001581E-2,6.2129226E-2,5.3765714E-2,6.0523104E-2,4.814217E-2,-2.7279342E-2,5.873139E-2,5.540074E-2],"categories":[],"categories_nodes":[],"categories_segments":[],"categories_sizes":[],"default_left":[0,0,0,0,0,0,0,0,0,0,0,0,0,0,0,0,0,0,0,0,0,0,0,0,0,0,0,0,0,0,0,0,0,0,0,0,0,0,0,0,0,0,0,0,0,0,0,0,0,0,0,0,0,0,0,0,0,0,0,0,0,0,0],"id":24,"left_children":[1,3,5,7,9,11,13,15,17,19,21,23,25,27,29,31,33,35,37,39,41,43,45,47,49,51,53,55,57,59,61,-1,-1,-1,-1,-1,-1,-1,-1,-1,-1,-1,-1,-1,-1,-1,-1,-1,-1,-1,-1,-1,-1,-1,-1,-1,-1,-1,-1,-1,-1,-1,-1],"loss_changes":[1.5062577E5,2.2973562E4,1.5450469E3,2.1458574E4,3.6771328E3,2.3997852E3,5.325E1,2.297914E3,1.0626917E4,9.914297E2,6.352063E3,1.4599219E3,4.027478E3,9.365234E0,1.26078125E2,1.4243574E3,2.7852732E3,1.8078797E4,1.2334119E4,3.79175E3,4.0491406E2,6.5178125E2,3.8016943E3,2.3909973E3,2.7190625E2,1.8393373E3,1.5017041E3,4.451172E0,6.0305176E0,2.3864734E2,3.4222656E1,0E0,0E0,0E0,0E0,0E0,0E0,0E0,0E0,0E0,0E0,0E0,0E0,0E0,0E0,0E0,0E0,0E0,0E0,0E0,0E0,0E0,0E0,0E0,0E0,0E0,0E0,0E0,0E0,0E0,0E0,0E0,0E0],"parents":[2147483647,0,0,1,1,2,2,3,3,4,4,5,5,6,6,7,7,8,8,9,9,10,10,11,11,12,12,13,13,14,14,15,15,16,16,17,17,18,18,19,19,20,20,21,21,22,22,23,23,24,24,25,25,26,26,27,27,28,28,29,29,30,30],"right_children":[2,4,6,8,10,12,14,16,18,20,22,24,26,28,30,32,34,36,38,40,42,44,46,48,50,52,54,56,58,60,62,-1,-1,-1,-1,-1,-1,-1,-1,-1,-1,-1,-1,-1,-1,-1,-1,-1,-1,-1,-1,-1,-1,-1,-1,-1,-1,-1,-1,-1,-1,-1,-1],"split_conditions":[1.5427313E0,-2.2018518E-1,2.3511784E0,-1.0585726E0,8.9522934E-1,4E0,3E0,-1.2465672E0,6E0,3.5936427E-1,8E0,