{"learner":{"attributes":{"best_iteration":"0","best_score":"0.669183"},"feature_names":["merchant","category","amt","gender","street","city","state","zip","lat","long","city_pop","job","merch_lat","merch_long","age","trans_hour","trans_day","trans_month","trans_dayofweek"],"feature_types":["int","int","float","int","int","int","int","int","float","float","float","int","float","float","float","float","float","float","float"],"gradient_booster":{"model":{"gbtree_model_param":{"num_parallel_tree":"1","num_trees":"31"},"iteration_indptr":[0,1,2,3,4,5,6,7,8,9,10,11,12,13,14,15,16,17,18,19,20,21,22,23,24,25,26,27,28,29,30,31],"tree_info":[0,0,0,0,0,0,0,0,0,0,0,0,0,0,0,0,0,0,0,0,0,0,0,0,0,0,0,0,0,0,0],"trees":[{"base_weights":[-1.0671093E0,-1.0992153E0,3.0273802E0,-1.1188208E0,-1.2557153E-1,1.2741815E0,6.3788843E0,-1.1189907E0,2.84866E-1,1.9710842E0,-5.963306E-1,4.4052086E0,3.1688613E-1,4.9781523E0,7.7217064E0,-1.1207614E0,-6.7547107E-1,-8.302992E-1,4.0329432E-1,-7.8908116E-1,1.481965E0,6.8277307E0,1.5335795E0,1.7303151E-1,5.519885E0,2.8037245E0,6.375737E0,4.0189454E-1,3.510499E0,-5.610772E-2,-3.5280414E-2,-4.3523703E-2,3.790774E-2,-5.1402565E-2,1.5619054E-1,1.8725412E-2,-4.6449363E-2,3.9561602E-1,1.1691115E-3,2.5669536E-1,3.846499E-1,2.9292604E-2,2.068373E-1,4.462169E-3,3.418626E-1,1.13244966E-1,3.008838E-1,2.8422543E-1,8.549927E-2,3.9773858E-1,2.5644326E-1,-4.8986875E-2,3.5632315E-1],"categories":[],"categories_nodes":[],"categories_segments":[],"categories_sizes":[],"default_left":[0,0,0,0,0,0,0,0,0,0,0,0,0,0,0,0,0,0,0,0,0,0,0,0,0,0,0,0,0,0,0,0,0,0,0,0,0,0,0,0,0,0,0,0,0,0,0,0,0,0,0,0,0],"id":0,"left_children":[1,3,5,7,9,11,13,15,-1,17,19,21,23,25,27,29,31,33,-1,35,37,39,41,43,45,47,49,-1,51,-1,-1,-1,-1,-1,-1,-1,-1,-1,-1,-1,-1,-1,-1,-1,-1,-1,-1,-1,-1,-1,-1,-1,-1],"loss_changes":[1.7063953E4,2.4579531E3,5.9264395E3,1.5259375E2,2.5110796E3,1.9899088E3,6.1354785E2,9.8359375E1,0E0,7.9716367E3,8.333662E2,1.071176E3,3.8067526E2,5.0625488E2,2.0500977E2,7.19375E1,1.4168405E2,2.5382588E2,0E0,3.0993982E2,1.6567821E3,8.368628E1,1.7628615E2,2.7701282E2,8.545441E0,2.0852448E2,1.6436621E2,0E0,2.34426E2,0E0,0E0,0E0,0E0,0E0,0E0,0E0,0E0,0E0,0E0,0E0,0E0,0E0,0E0,0E0,0E0,0E0,0E0,0E0,0E0,0E0,0E0,0E0,0E0],"parents":[2147483647,0,0,1,1,2,2,3,3,4,4,5,5,6,6,7,7,9,9,10,10,11,11,12,12,13,13,14,14,15,15,16,16,17,17,19,19,20,20,21,21,22,22,23,23,24,24,25,25,26,26,28,28],"right_children":[2,4,6,8,10,12,14,16,-1,18,20,22,24,26,28,30,32,34,-1,36,38,40,42,44,46,48,50,-1,52,-1,-1,-1,-1,-1,-1,-1,-1,-1,-1,-1,-1,-1,-1,-1,-1,-1,-1,-1,-1,-1,-1,-1,-1],"split_conditions":[2.3511784E0,1.6227789E0,1.3456979E0,5E1,2E0,-1.2920247E0,1.3723257E-1,1.5427313E0,2.84866E-1,1E0,1.3559574E0,2.3845756E-1,8.81E2,1E0,9E0,9.01E2,1.3456979E0,1.3456979E0,4.0329432E-1,-1.2920247E0,1.4956357E0,1E0,3.47E2,1.2E1,-2.4593891E-1,-1.1975513E0,-1.7074172E-1,4.0189454E-1,1.2E1,-5.610772E-2,-3.5280414E-2,-4.3523703E-2,3.790774E-2,-5.1402565E-2,1.5619054E-1,1.8725412E-2,-4.6449363E-2,3.9561602E-1,1.1691115E-3,2.5669536E-1,3.846499E-1,2.9292604E-2,2.068373E-1,4.462169E-3,3.418626E-1,1.13244966E-1,3.008838E-1,2.8422543E-1,8.549927E-2,3.9773858E-1,2.5644326E-1,-4.8986875E-2,3.5632315E-1],"split_indices":[2,2,15,6,1,15,14,2,0,1,15,14,7,3,1,4,15,15,0,15,15,1,0,1,15,14,10,0,1,0,0,0,0,0,0,0,0,0,0,0,0,0,0,0,0,0,0,0,0,0,0,0,0],"split_type":[0,0,0,0,0,0,0,0,0,0,0,0,0,0,0,0,0,0,0,0,0,0,0,0,0,0,0,0,0,0,0,0,0,0,0,0,0,0,0,0,0,0,0,0,0,0,0,0,0,0,0,0,0],"sum_hessian":[1.2977966E5,1.28770664E5,1.0089923E3,1.2622875E5,2.5419124E3,6.633623E2,3.4563E2,1.2622644E5,2.311367E0,4.6549857E2,2.0764138E3,1.5448532E2,5.08877E2,1.7147118E2,1.7415881E2,1.2572299E5,5.0344797E2,3.1950616E2,1.4599239E2,1.90075E3,1.756639E2,8.304795E1,7.143736E1,4.9619138E2,1.2685642E1,6.826595E1,1.0320522E2,1.6115065E2,1.3008159E1,1.2530087E5,4.2212012E2,4.435137E2,5.9934284E1,3.0499295E2,1.4513234E1,2.0383032E2,1.6969197E3,3.1660353E1,1.4400354E2,3.042404E1,5.2623913E1,5.3268948E1,1.8168419E1,4.910311E2,5.160261E0,2.4188724E0,1.0266769E1,1.7630892E1,5.0635063E1,4.3163433E1,6.004179E1,6.12781E0,6.880348E0],"tree_param":{"num_deleted":"0","num_feature":"19","num_nodes":"53","size_leaf_vector":"1"}},{"base_weights":[-1.0570397E0,-1.0900921E0,2.552959E0,-1.1103215E0,-1.2453714E-1,1.149153E0,4.796357E0,-1.1104975E0,2.3616286E-1,1.7119807E0,-5.80707E-1,3.5495815E0,2.9793754E-1,3.9738517E0,5.5932827E0,-1.1123313E0,-6.5897864E-1,-8.1505144E-1,2.862406E-1,-7.731258E-1,1.3214159E0,5.0747447E0,1.3767892E0,2.280764E0,-3.1548973E-2,2.51947E0,4.813982E0,2.8817934E-1,2.8878114E0,-5.568872E-2,-3.4451697E-2,-4.2775776E-2,3.502205E-2,-5.083237E-2,1.332265E-1,1.7539281E-2,-4.575456E-2,2.843177E-1,1.1100674E-3,2.0281999E-1,2.7745458E-1,2.7243558E-2,1.6993377E-1,6.0696676E-3,2.66831E-1,-6.5410933E-3,2.6759785E-1,2.9908693E-1,9.588935E-2,2.8348696E-1,2.0095709E-1,-4.818829E-2,2.6824066E-1],"categories":[],"categories_nodes":[],"categories_segments":[],"categories_sizes":[],"default_left":[0,0,0,0,0,0,0,0,0,0,0,0,0,0,0,0,0,0,0,0,0,0,0,0,0,0,0,0,0,0,0,0,0,0,0,0,0,0,0,0,0,0,0,0,0,0,0,0,0,0,0,0,0],"id":1,"left_children":[1,3,5,7,9,11,13,15,-1,17,19,21,23,25,27,29,31,33,-1,35,37,39,41,43,45,47,49,-1,51,-1,-1,-1,-1,-1,-1,-1,-1,-1,-1,-1,-1,-1,-1,-1,-1,-1,-1,-1,-1,-1,-1,-1,-1],"loss_changes":[1.4873969E4,2.4122344E3,3.5565566E3,1.2942188E2,2.1252007E3,1.4231836E3,2.6292676E2,9.9421875E1,0E0,5.1230913E3,7.4467584E2,5.973904E2,3.369586E2,2.5366968E2,8.402881E1,7.2828125E1,1.3198454E2,2.2057584E2,0E0,2.9482922E2,1.0604954E3,2.9074219E1,1.269783E2,4.8429782E2,2.3754453E2,1.588241E2,7.0253174E1,0E0,1.477387E2,0E0,0E0,0E0,0E0,0E0,0E0,0E0,0E0,0E0,0E0,0E0,0E0,0E0,0E0,0E0,0E0,0E0,0E0,0E0,0E0,0E0,0E0,0E0,0E0],"parents":[2147483647,0,0,1,1,2,2,3,3,4,4,5,5,6,6,7,7,9,9,10,10,11,11,12,12,13,13,14,14,15,15,16,16,17,17,19,19,20,20,21,21,22,22,23,23,24,24,25,25,26,26,28,28],"right_children":[2,4,6,8,10,12,14,16,-1,18,20,22,24,26,28,30,32,34,-1,36,38,40,42,44,46,48,50,-1,52,-1,-1,-1,-1,-1,-1,-1,-1,-1,-1,-1,-1,-1,-1,-1,-1,-1,-1,-1,-1,-1,-1,-1,-1],"split_conditions":[2.3511784E0,1.6227789E0,1.3456979E0,5E1,2E0,-1.2920247E0,2.3845756E-1,1.5427313E0,2.3616286E-1,1E0,1.3559574E0,2.3845756E-1,3E0,1E0,9E0,9.01E2,1.3456979E0,1.3456979E0,2.862406E-1,-1.2920247E0,1.4956357E0,1E0,3.47E2,-2.4593891E-1,1.2E1,3E0,-1.17034994E-1,2.8817934E-1,1.2E1,-5.568872E-2,-3.4451697E-2,-4.2775776E-2,3.502205E-2,-5.083237E-2,1.332265E-1,1.7539281E-2,-4.575456E-2,2.843177E-1,1.1100674E-3,2.0281999E-1,2.7745458E-1,2.7243558E-2,1.6993377E-1,6.0696676E-3,2.66831E-1,-6.5410933E-3,2.6759785E-1,2.9908693E-1,9.588935E-2,2.8348696E-1,2.0095709E-1,-4.818829E-2,2.6824066E-1],"split_indices":[2,2,15,6,1,15,14,2,0,1,15,14,1,3,1,4,15,15,0,15,15,1,0,15,1,1,10,0,1,0,0,0,0,0,0,0,0,0,0,0,0,0,0,0,0,0,0,0,0,0,0,0,0],"split_type":[0,0,0,0,0,0,0,0,0,0,0,0,0,0,0,0,0,0,0,0,0,0,0,0,0,0,0,0,0,0,0,0,0,0,0,0,0,0,0,0,0,0,0,0,0,0,0,0,0,0,0,0,0],"sum_hessian":[1.24633164E5,1.2350309E5,1.1300684E3,1.2096852E5,2.5345667E3,6.960361E2,4.3403223E2,1.2096569E5,2.8392353E0,5.037481E2,2.0308185E3,1.8137851E2,5.146576E2,2.1653415E2,2.1749806E2,1.2047493E5,4.907554E2,3.0958658E2,1.9416153E2,1.8447927E3,1.8602576E2,1.0578707E2,7.5591446E1,7.249081E1,4.4216675E2,8.074768E1,1.3578647E2,2.0355437E2,1.3943699E1,1.2006396E5,4.109706E2,4.2909067E2,6.166472E1,2.9330145E2,1.628513E1,2.0672453E2,1.6380681E3,4.18951E1,1.4413066E2,3.665227E1,6.9134796E1,5.445505E1,2.1136393E1,4.308513E1,2.9405682E1,4.3511877E2,7.0479765E0,1.0631143E1,7.011654E1,6.243415E1,7.3352325E1,5.696666E0,8.247033E0],"tree_param":{"num_deleted":"0","num_feature":"19","num_nodes":"53","size_leaf_vector":"1"}},{"base_weights":[-1.0474757E0,-1.0814185E0,2.224404E0,-1.1022443E0,-1.221577E-1,1.0470784E0,3.9084682E0,-1.1024259E0,2.0178585E-1,1.5326087E0,-5.655089E-1,3.0004756E0,2.791753E-1,3.2809687E0,4.43462E0,-1.1043264E0,-6.427227E-1,-8.0022573E-1,2.2742312E-1,-7.5733227E-1,1.1988816E0,4.1030555E0,1.2468035E0,1.9877162E0,-2.9845051E-2,2.0933645E0,3.911295E0,2.270885E-1,2.58196E0,-5.5291153E-2,-3.3629514E-2,-3.9185304E-2,5.8984436E-2,-5.0273903E-2,1.15925066E-1,1.644437E-2,-4.506601E-2,2.2688869E-1,1.0540428E-3,1.6849177E-1,2.2164305E-1,2.5380818E-2,1.4431845E-1,5.7466696E-3,2.1009259E-1,-6.253005E-3,2.3130107E-1,1.9909768E-1,6.4283006E-2,2.1466053E-1,1.471815E-1,-4.8051648E-2,2.2206612E-1],"categories":[],"categories_nodes":[],"categories_segments":[],"categories_sizes":[],"default_left":[0,0,0,0,0,0,0,0,0,0,0,0,0,0,0,0,0,0,0,0,0,0,0,0,0,0,0,0,0,0,0,0,0,0,0,0,0,0,0,0,0,0,0,0,0,0,0,0,0,0,0,0,0],"id":2,"left_children":[1,3,5,7,9,11,13,15,-1,17,19,21,23,25,27,29,31,33,-1,35,37,39,41,43,45,47,49,-1,51,-1,-1,-1,-1,-1,-1,-1,-1,-1,-1,-1,-1,-1,-1,-1,-1,-1,-1,-1,-1,-1,-1,-1,-1],"loss_changes":[1.3288766E4,2.3653281E3,2.4320356E3,1.1265625E2,1.8475593E3,1.0859458E3,1.522417E2,1.00546875E2,0E0,3.7476948E3,6.730683E2,3.8999292E2,2.752238E2,1.6716382E2,4.2256836E1,7.3828125E1,1.2412308E2,1.9495299E2,0E0,2.805476E2,7.672632E2,1.529541E1,9.587509E1,3.305814E2,1.9666748E2,1.2205652E2,4.3490234E1,0E0,1.1748019E2,0E0,0E0,0E0,0E0,0E0,0E0,0E0,0E0,0E0,0E0,0E0,0E0,0E0,0E0,0E0,0E0,0E0,0E0,0E0,0E0,0E0,0E0,0E0,0E0],"parents":[2147483647,0,0,1,1,2,2,3,3,4,4,5,5,6,6,7,7,9,9,10,10,11,11,12,12,13,13,14,14,15,15,16,16,17,17,19,19,20,20,21,21,22,22,23,23,24,24,25,25,26,26,28,28],"right_children":[2,4,6,8,10,12,14,16,-1,18,20,22,24,26,28,30,32,34,-1,36,38,40,42,44,46,48,50,-1,52,-1,-1,-1,-1,-1,-1,-1,-1,-1,-1,-1,-1,-1,-1,-1,-1,-1,-1,-1,-1,-1,-1,-1,-1],"split_conditions":[2.3511784E0,1.6227789E0,1.3456979E0,5E1,2E0,-1.2920247E0,1.3723257E-1,1.5427313E0,2.0178585E-1,1E0,1.3559574E0,2.3845756E-1,3E0,1E0,9E0,9.01E2,1.3559574E0,1.3456979E0,2.2742312E-1,-1.2920247E0,1.4956357E0,1E0,3.47E2,-2.4593891E-1,9.01E2,-1.1975513E0,5.843857E-1,2.270885E-1,1.2E1,-5.5291153E-2,-3.3629514E-2,-3.9185304E-2,5.8984436E-2,-5.0273903E-2,1.15925066E-1,1.644437E-2,-4.506601E-2,2.2688869E-1,1.0540428E-3,1.6849177E-1,2.2164305E-1,2.5380818E-2,1.4431845E-1,5.7466696E-3,2.1009259E-1,-6.253005E-3,2.3130107E-1,1.9909768E-1,6.4283006E-2,2.1466053E-1,1.471815E-1,-4.8051648E-2,2.2206612E-1],"split_indices":[2,2,15,6,1,15,14,2,0,1,15,14,1,3,1,4,15,15,0,15,15,1,0,15,4,14,10,0,1,0,0,0,0,0,0,0,0,0,0,0,0,0,0,0,0,0,0,0,0,0,0,0,0],"split_type":[0,0,0,0,0,0,0,0,0,0,0,0,0,0,0,0,0,0,0,0,0,0,0,0,0,0,0,0,0,0,0,0,0,0,0,0,0,0,0,0,0,0,0,0,0,0,0,0,0,0,0,0,0],"sum_hessian":[1.1963475E5,1.18407055E5,1.2276973E3,1.158909E5,2.5161553E3,7.235128E2,5.0418448E2,1.15887586E5,3.3133993E0,5.311672E2,1.9849882E3,2.0334218E2,5.2017065E2,2.3324605E2,2.7093845E2,1.1540908E5,4.78503E2,2.999124E2,2.3125475E2,1.790858E3,1.9413013E2,1.2402482E2,7.931736E1,7.884005E1,4.413306E2,8.2371025E1,1.5087502E2,2.5475311E2,1.6185331E1,1.1500881E5,4.0026654E2,4.4467267E2,3.3830303E1,2.820289E2,1.7883522E1,2.0945813E2,1.5813999E3,4.9878674E1,1.4425145E2,4.1959145E1,8.2065674E1,5.557248E1,2.3744879E1,4.32824E1,3.555765E1,4.3343964E2,7.890942E0,2.3497883E1,5.8873146E1,1.0571503E2,4.5159985E1,5.7368913E0,1.0448441E1],"tree_param":{"num_deleted":"0","num_feature":"19","num_nodes":"53","size_leaf_vector":"1"}},{"base_weights":[-1.0383654E0,-1.0731518E0,1.9794304E0,-1.0965407E0,-1.9902064E-1,9.623915E-1,3.3281815E0,-1.0967112E0,1.7275606E-1,1.2107357E0,-5.844702E-1,2.611595E0,2.6239577E-1,2.848192E0,3.7664218E0,-1.0982649E0,-6.5627414E-1,-8.39015E-1,3.6470487E0,-7.7320325E-1,1.0908449E0,3.4748147E0,1.1368749E0,6.247766E-2,2.6238225E0,1.9374194E0,3.322049E0,1.9241615E-1,2.250569E0,-5.494315E-2,4.0784106E-1,3.922564E-1,-4.1755017E-2,-5.0775696E-2,9.226402E-2,9.871998E-2,1.9126359E-1,9.257104E-3,-4.4978615E-2,1.9945341E-1,4.765655E-3,1.4448766E-1,1.867628E-1,4.3315243E-2,2.584365E-1,7.10964E-2,-9.104546E-3,2.7580687E-1,9.532533E-2,7.308669E-2,2.1376824E-1,1.808659E-1,1.228629E-1,-4.7124494E-2,1.8664841E-1],"categories":[],"categories_nodes":[],"categories_segments":[],"categories_sizes":[],"default_left":[0,0,0,0,0,0,0,0,0,0,0,0,0,0,0,0,0,0,0,0,0,0,0,0,0,0,0,0,0,0,0,0,0,0,0,0,0,0,0,0,0,0,0,0,0,0,0,0,0,0,0,0,0,0,0],"id":3,"left_children":[1,3,5,7,9,11,13,15,-1,17,19,21,23,25,27,29,31,33,35,37,39,41,43,45,47,49,51,-1,53,-1,-1,-1,-1,-1,-1,-1,-1,-1,-1,-1,-1,-1,-1,-1,-1,-1,-1,-1,-1,-1,-1,-1,-1,-1,-1],"loss_changes":[1.2052891E4,2.3199922E3,1.7917104E3,8.9609375E1,1.6083761E3,8.6212946E2,1.07512695E2,7.4921875E1,0E0,3.1769722E3,7.3567053E2,2.794082E2,2.4806253E2,1.1111572E2,2.7433594E1,6.186719E2,6.009723E2,1.6579034E2,7.9072266E1,2.5319226E2,6.797366E2,1.0526001E1,8.6799446E1,1.6177237E2,7.457837E1,1.0008569E2,3.6502563E1,0E0,8.546063E1,0E0,0E0,0E0,0E0,0E0,0E0,0E0,0E0,0E0,0E0,0E0,0E0,0E0,0E0,0E0,0E0,0E0,0E0,0E0,0E0,0E0,0E0,0E0,0E0,0E0,0E0],"parents":[2147483647,0,0,1,1,2,2,3,3,4,4,5,5,6,6,7,7,9,9,10,10,11,11,12,12,13,13,14,14,15,15,16,16,17,17,18,18,19,19,20,20,21,21,22,22,23,23,24,24,25,25,26,26,28,28],"right_children":[2,4,6,8,10,12,14,16,-1,18,20,22,24,26,28,30,32,34,36,38,40,42,44,46,48,50,52,-1,54,-1,-1,-1,-1,-1,-1,-1,-1,-1,-1,-1,-1,-1,-1,-1,-1,-1,-1,-1,-1,-1,-1,-1,-1,-1,-1],"split_conditions":[2.3511784E0,1.5427313E0,1.3456979E0,5E1,2E0,-1.2920247E0,2.3845756E-1,9.01E2,1.7275606E-1,1E0,1.3559574E0,2.3845756E-1,7.44E2,1E0,9E0,8.9E2,8.9E2,1.3456979E0,1.6227789E0,-1.2920247E0,1.4956357E0,1E0,8E0,3E0,7.94E2,7.44E2,7E0,1.9241615E-1,1.2E1,-5.494315E-2,4.0784106E-1,3.922564E-1,-4.1755017E-2,-5.0775696E-2,9.226402E-2,9.871998E-2,1.9126359E-1,9.257104E-3,-4.4978615E-2,1.9945341E-1,4.765655E-3,1.4448766E-1,1.867628E-1,4.3315243E-2,2.584365E-1,7.10964E-2,-9.104546E-3,2.7580687E-1,9.532533E-2,7.308669E-2,2.1376824E-1,1.808659E-1,1.228629E-1,-4.7124494E-2,1.8664841E-1],"split_indices":[2,2,15,6,1,15,14,4,0,1,15,14,5,3,1,7,7,15,2,15,15,1,1,1,4,7,1,0,1,0,0,0,0,0,0,0,0,0,0,0,0,0,0,0,0,0,0,0,0,0,0,0,0,0,0],"split_type":[0,0,0,0,0,0,0,0,0,0,0,0,0,0,0,0,0,0,0,0,0,0,0,0,0,0,0,0,0,0,0,0,0,0,0,0,0,0,0,0,0,0,0,0,0,0,0,0,0,0,0,0,0,0,0],"sum_hessian":[1.14792086E5,1.13484586E5,1.3075011E3,1.1052699E5,2.9575908E3,7.463911E2,5.611099E2,1.1052361E5,3.383017E0,6.345661E2,2.3230247E3,2.2158998E2,5.2480115E2,2.7137802E2,2.8973193E2,1.1013362E5,3.8999588E2,3.4497925E2,2.8958682E2,2.0883047E3,2.3472003E2,1.389185E2,8.2671486E1,4.8478568E2,4.001544E1,9.46142E1,1.7676381E2,2.7342035E2,1.6311563E1,1.1012738E5,6.2364893E0,7.1513314E0,3.8284454E2,3.2427884E2,2.0700436E1,2.9047699E1,2.6053912E2,2.4323297E2,1.8450717E3,5.9242996E1,1.7547704E2,4.651706E1,9.240144E1,7.861092E1,4.0605626E0,7.318243E1,4.1160324E2,6.6225305E0,3.339291E1,7.9968735E1,1.4645464E1,1.2939955E2,4.736426E1,5.2872157E0,1.1024347E1],"tree_param":{"num_deleted":"0","num_feature":"19","num_nodes":"55","size_leaf_vector":"1"}},{"base_weights":[-1.029658E0,-1.0652598E0,1.7871723E0,-1.0892817E0,-1.9326927E-1,8.9008576E-1,2.9148686E0,-1.089457E0,1.5451154E-1,1.1218271E0,-5.698084E-1,2.3187582E0,2.472553E-1,2.4845848E0,3.2668653E0,-1.0910692E0,-6.4059085E-1,-8.254353E-1,3.1796052E0,-7.5790566E-1,1.0077344E0,3.0317209E0,1.0427896E0,5.9086874E-2,2.2982087E0,1.6590102E0,2.8949122E0,1.6645145E-1,2.084778E0,-5.4584414E-2,2.9642335E-1,2.8804708E-1,-4.1017912E-2,-5.0264657E-2,8.287446E-2,8.7126575E-2,1.6658412E-1,-3.9212525E-2,1.969539E-1,1.7285317E-1,4.5122667E-3,1.2665124E-1,1.6271237E-1,2.0326093E-2,1.18180655E-1,6.4334296E-2,-8.711451E-3,2.298417E-1,8.54144E-2,2.0031093E-1,6.219678E-2,1.6979216E-1,1.2134405E-1,-4.7125008E-2,1.6600625E-1],"categories":[],"categories_nodes":[],"categories_segments":[],"categories_sizes":[],"default_left":[0,0,0,0,0,0,0,0,0,0,0,0,0,0,0,0,0,0,0,0,0,0,0,0,0,0,0,0,0,0,0,0,0,0,0,0,0,0,0,0,0,0,0,0,0,0,0,0,0,0,0,0,0,0,0],"id":4,"left_children":[1,3,5,7,9,11,13,15,-1,17,19,21,23,25,27,29,31,33,35,37,39,41,43,45,47,49,51,-1,53,-1,-1,-1,-1,-1,-1,-1,-1,-1,-1,-1,-1,-1,-1,-1,-1,-1,-1,-1,-1,-1,-1,-1,-1,-1,-1],"loss_changes":[1.1044219E4,2.277461E3,1.3880898E3,8.0953125E1,1.444796E3,7.0389386E2,8.406299E1,7.588281E1,0E0,2.6051697E3,6.73722E2,2.1327539E2,2.0446115E2,8.938196E1,1.7425781E1,4.6466406E2,4.4329572E2,1.5104605E2,6.325293E1,2.5389673E2,5.435939E2,8.636841E0,7.1993286E1,1.3960161E2,5.252408E1,8.723123E1,3.498694E1,0E0,7.5088844E1,0E0,0E0,0E0,0E0,0E0,0E0,0E0,0E0,0E0,0E0,0E0,0E0,0E0,0E0,0E0,0E0,0E0,0E0,0E0,0E0,0E0,0E0,0E0,0E0,0E0,0E0],"parents":[2147483647,0,0,1,1,2,2,3,3,4,4,5,5,6,6,7,7,9,9,10,10,11,11,12,12,13,13,14,14,15,15,16,16,17,17,18,18,19,19,20,20,21,21,22,22,23,23,24,24,25,25,26,26,28,28],"right_children":[2,4,6,8,10,12,14,16,-1,18,20,22,24,26,28,30,32,34,36,38,40,42,44,46,48,50,52,-1,54,-1,-1,-1,-1,-1,-1,-1,-1,-1,-1,-1,-1,-1,-1,-1,-1,-1,-1,-1,-1,-1,-1,-1,-1,-1,-1],"split_conditions":[2.3511784E0,1.5427313E0,1.3456979E0,5E1,2E0,-1.2920247E0,1.3723257E-1,9.01E2,1.5451154E-1,1E0,1.3559574E0,2.3845756E-1,7.44E2,1E0,9E0,8.9E2,8.9E2,1.3456979E0,1.6227789E0,9.01E2,1.4956357E0,1E0,3.47E2,3E0,7.89E2,3E0,-1.17034994E-1,1.6645145E-1,1.2E1,-5.4584414E-2,2.9642335E-1,2.8804708E-1,-4.1017912E-2,-5.0264657E-2,8.287446E-2,8.7126575E-2,1.6658412E-1,-3.9212525E-2,1.969539E-1,1.7285317E-1,4.5122667E-3,1.2665124E-1,1.6271237E-1,2.0326093E-2,1.18180655E-1,6.4334296E-2,-8.711451E-3,2.298417E-1,8.54144E-2,2.0031093E-1,6.219678E-2,1.6979216E-1,1.2134405E-1,-4.7125008E-2,1.6600625E-1],"split_indices":[2,2,15,6,1,15,14,4,0,1,15,14,5,3,1,7,7,15,2,4,15,1,0,1,7,1,10,0,1,0,0,0,0,0,0,0,0,0,0,0,0,0,0,0,0,0,0,0,0,0,0,0,0,0,0],"split_type":[0,0,0,0,0,0,0,0,0,0,0,0,0,0,0,0,0,0,0,0,0,0,0,0,0,0,0,0,0,0,0,0,0,0,0,0,0,0,0,0,0,0,0,0,0,0,0,0,0,0,0,0,0,0,0],"sum_hessian":[1.1010883E5,1.0873515E5,1.3736812E3,1.0581975E5,2.9153972E3,7.660639E2,6.076173E2,1.0581605E5,3.70246E0,6.484942E2,2.266903E3,2.3691652E2,5.2914734E2,2.7703082E2,3.3058652E2,1.0543594E5,3.801042E2,3.335021E2,3.149921E2,2.0258695E3,2.410336E2,1.5110744E2,8.580909E1,4.8562192E2,4.352545E1,9.3650406E1,1.833804E2,3.1234464E2,1.8241882E1,1.05427484E5,8.453524E0,9.534464E0,3.7056973E2,3.1153058E2,2.1971508E1,3.1336033E1,2.8365607E2,2.0153983E3,1.0471104E1,6.492959E1,1.7610402E2,5.044341E1,1.00664024E2,5.87944E1,2.7014685E1,7.683537E1,4.0878653E2,7.5019245E0,3.602353E1,1.2772323E1,8.087808E1,8.55554E1,9.7825005E1,5.355362E0,1.288652E1],"tree_param":{"num_deleted":"0","num_feature":"19","num_nodes":"55","size_leaf_vector":"1"}},{"base_weights":[-1.0213236E0,-1.0577058E0,1.6320426E0,-1.0823559E0,-1.8761463E-1,8.2723844E-1,2.6057432E0,-1.0840399E0,-6.220355E-1,1.0485317E0,-5.553379E-1,2.0892806E0,2.3330174E-1,2.2412915E0,2.9363744E0,-1.0846783E0,2.362793E-1,2.3100069E-1,-8.0201066E-1,-8.1210434E-1,2.8355055E0,-7.424903E-1,9.3689096E-1,2.7428496E0,1.0223787E0,1.1593474E-1,3.1603422E0,1.6211294E-1,1.9949206E0,1.4949247E-1,1.8753465E0,-5.424226E-2,1.377645E-1,-4.4176128E-2,3.5444424E-1,-4.976211E-2,7.502511E-2,7.769074E-2,1.4859998E-1,1.0735381E-2,-4.3735143E-2,1.5365359E-1,4.2731995E-3,1.14276364E-1,1.4791241E-1,1.15884975E-1,2.49438E-2,2.2004624E-3,2.0264105E-1,7.948252E-2,1.7428412E-1,-5.2541822E-2,1.0843881E-1,-4.6098564E-2,1.4655396E-1],"categories":[],"categories_nodes":[],"categories_segments":[],"categories_sizes":[],"default_left":[0,0,0,0,0,0,0,0,0,0,0,0,0,0,0,0,0,0,0,0,0,0,0,0,0,0,0,0,0,0,0,0,0,0,0,0,0,0,0,0,0,0,0,0,0,0,0,0,0,0,0,0,0,0,0],"id":5,"left_children":[1,3,5,7,9,11,13,15,17,19,21,23,25,27,29,31,-1,-1,33,35,37,39,41,43,45,47,49,-1,51,-1,53,-1,-1,-1,-1,-1,-1,-1,-1,-1,-1,-1,-1,-1,-1,-1,-1,-1,-1,-1,-1,-1,-1,-1,-1],"loss_changes":[1.0194414E4,2.2337656E3,1.1173218E3,7.783594E1,1.3055116E3,5.868624E2,7.1259766E1,3.7935156E2,3.542539E2,2.1918591E3,6.1879175E2,1.7195813E2,1.830656E2,7.03512E1,1.3427734E1,6.76875E1,0E0,0E0,2.3786952E2,1.3845892E2,5.4187256E1,2.4913574E2,4.491388E2,8.490234E0,6.448616E1,1.4548131E2,4.9584656E0,0E0,1.360224E2,0E0,5.816243E1,0E0,0E0,0E0,0E0,0E0,0E0,0E0,0E0,0E0,0E0,0E0,0E0,0E0,0E0,0E0,0E0,0E0,0E0,0E0,0E0,0E0,0E0,0E0,0E0],"parents":[2147483647,0,0,1,1,2,2,3,3,4,4,5,5,6,6,7,7,8,8,9,9,10,10,11,11,12,12,13,13,14,14,15,15,18,18,19,19,20,20,21,21,22,22,23,23,24,24,25,25,26,26,28,28,30,30],"right_children":[2,4,6,8,10,12,14,16,18,20,22,24,26,28,30,32,-1,-1,34,36,38,40,42,44,46,48,50,-1,52,-1,54,-1,-1,-1,-1,-1,-1,-1,-1,-1,-1,-1,-1,-1,-1,-1,-1,-1,-1,-1,-1,-1,-1,-1,-1],"split_conditions":[2.3511784E0,1.5427313E0,1.3456979E0,9.01E2,2E0,-1.2920247E0,2.3845756E-1,8.9E2,8.9E2,1E0,1.3559574E0,1.810172E-1,8.81E2,3E0,9E0,5E1,2.362793E-1,2.3100069E-1,1.3298243E0,1.3456979E0,1.6227789E0,-1.2920247E0,1.4956357E0,1E0,3E0,1.2E1,8.9E2,1.6211294E-1,5E0,1.4949247E-1,1.2E1,-5.424226E-2,1.377645E-1,-4.4176128E-2,3.5444424E-1,-4.976211E-2,7.502511E-2,7.769074E-2,1.4859998E-1,1.0735381E-2,-4.3735143E-2,1.5365359E-1,4.2731995E-3,1.14276364E-1,1.4791241E-1,1.15884975E-1,2.49438E-2,2.2004624E-3,2.0264105E-1,7.948252E-2,1.7428412E-1,-5.2541822E-2,1.0843881E-1,-4.6098564E-2,1.4655396E-1],"split_indices":[2,2,15,4,1,15,14,7,7,1,15,14,7,1,1,6,0,0,14,15,2,15,15,1,1,1,7,0,1,0,1,0,0,0,0,0,0,0,0,0,0,0,0,0,0,0,0,0,0,0,0,0,0,0,0],"split_type":[0,0,0,0,0,0,0,0,0,0,0,0,0,0,0,0,0,0,0,0,0,0,0,0,0,0,0,0,0,0,0,0,0,0,0,0,0,0,0,0,0,0,0,0,0,0,0,0,0,0,0,0,0,0,0],"sum_hessian":[1.0558416E5,1.0415659E5,1.427564E3,1.01286836E5,2.8697544E3,7.825791E2,6.4498486E2,1.0091627E5,3.7056488E2,6.575315E2,2.2122231E3,2.4962952E2,5.329496E2,3.1050122E2,3.3448364E2,1.00906E5,1.0273183E1,1.14814E1,3.590835E2,3.2239368E2,3.351378E2,1.9661365E3,2.4608655E2,1.5382664E2,9.580288E1,5.13403E2,1.954657E1,5.8927547E1,2.5157365E2,3.1670413E2,1.777952E1,1.0090233E5,3.6696117E0,3.5629108E2,2.7924066E0,2.9926425E2,2.3129421E1,3.3447464E1,3.016903E2,2.3853752E2,1.727599E3,6.938765E1,1.766989E2,5.2971394E1,1.0085525E2,2.6587994E1,6.921488E1,5.051847E2,8.218363E0,4.3639936E0,1.5182576E1,1.3312334E1,2.3826132E2,4.906289E0,1.287323E1],"tree_param":{"num_deleted":"0","num_feature":"19","num_nodes":"55","size_leaf_vector":"1"}},{"base_weights":[-1.0133182E0,-1.0504669E0,1.5017897E0,-1.0757353E0,-1.8225281E-1,7.717783E-1,2.3601034E0,-1.0774791E0,-6.072162E-1,9.86811E-1,-5.4134166E-1,1.9011611E0,2.2067107E-1,2.0235193E0,2.667803E0,-1.0781353E0,1.9838361E-1,1.9474457E-1,-7.872575E-1,-7.989872E-1,2.570866E0,-7.273444E-1,8.75447E-1,2.4462385E0,8.7989265E-1,1.4234692E0,-3.7467733E-2,1.366095E0,2.360835E0,1.3567428E-1,1.740741E0,-5.4347932E-2,-5.000332E-2,-4.351098E-2,2.7681014E-1,-4.926663E-2,6.8356656E-2,6.985303E-2,1.3488771E-1,1.0116973E-2,-4.3070484E-2,1.3911663E-1,4.0475414E-3,1.0157912E-1,1.3181593E-1,3.250323E-2,2.0310198E-1,-2.2082347E-3,1.4810865E-1,-6.321804E-3,1.7722976E-1,1.3007806E-1,4.328037E-2,1.3890575E-1,9.866624E-2,-4.5600664E-2,1.3336031E-1],"categories":[],"categories_nodes":[],"categories_segments":[],"categories_sizes":[],"default_left":[0,0,0,0,0,0,0,0,0,0,0,0,0,0,0,0,0,0,0,0,0,0,0,0,0,0,0,0,0,0,0,0,0,0,0,0,0,0,0,0,0,0,0,0,0,0,0,0,0,0,0,0,0,0,0,0,0],"id":6,"left_children":[1,3,5,7,9,11,13,15,17,19,21,23,25,27,29,31,-1,-1,33,35,37,39,41,43,45,47,49,51,53,-1,55,-1,-1,-1,-1,-1,-1,-1,-1,-1,-1,-1,-1,-1,-1,-1,-1,-1,-1,-1,-1,-1,-1,-1,-1,-1,-1],"loss_changes":[9.458836E3,2.1881016E3,9.215598E2,7.852344E1,1.1852599E3,4.9617148E2,6.469971E1,3.239297E2,2.962536E2,1.8789817E3,5.6975604E2,1.4342767E2,1.6688876E2,6.937598E1,1.0118408E1,6.542969E1,0E0,0E0,1.8771187E2,1.275491E2,4.863623E1,2.3817761E2,3.8015973E2,8.039246E0,6.505915E1,2.1459467E2,1.4174347E2,6.7861206E1,2.9283081E1,0E0,4.9736866E1,0E0,0E0,0E0,0E0,0E0,0E0,0E0,0E0,0E0,0E0,0E0,0E0,0E0,0E0,0E0,0E0,0E0,0E0,0E0,0E0,0E0,0E0,0E0,0E0,0E0,0E0],"parents":[2147483647,0,0,1,1,2,2,3,3,4,4,5,5,6,6,7,7,8,8,9,9,10,10,11,11,12,12,13,13,14,14,15,15,18,18,19,19,20,20,21,21,22,22,23,23,24,24,25,25,26,26,27,27,28,28,30,30],"right_children":[2,4,6,8,10,12,14,16,18,20,22,24,26,28,30,32,-1,-1,34,36,38,40,42,44,46,48,50,52,54,-1,56,-1,-1,-1,-1,-1,-1,-1,-1,-1,-1,-1,-1,-1,-1,-1,-1,-1,-1,-1,-1,-1,-1,-1,-1,-1,-1],"split_conditions":[2.3511784E0,1.5427313E0,1.3456979E0,9.01E2,2E0,-1.2920247E0,2.3845756E-1,8.9E2,8.9E2,1E0,1.3559574E0,2.3845756E-1,3E0,1E0,9E0,1.3456979E0,1.9838361E-1,1.9474457E-1,1.3298243E0,1.3456979E0,1.6227789E0,-1.2920247E0,1.4956357E0,1E0,8E0,-2.4593891E-1,1.2E1,-1.1975513E0,-1.17034994E-1,1.3567428E-1,1.2E1,-5.4347932E-2,-5.000332E-2,-4.351098E-2,2.7681014E-1,-4.926663E-2,6.8356656E-2,6.985303E-2,1.3488771E-1,1.0116973E-2,-4.3070484E-2,1.3911663E-1,4.0475414E-3,1.0157912E-1,1.3181593E-1,3.250323E-2,2.0310198E-1,-2.2082347E-3,1.4810865E-1,-6.321804E-3,1.7722976E-1,1.3007806E-1,4.328037E-2,1.3890575E-1,9.866624E-2,-4.5600664E-2,1.3336031E-1],"split_indices":[2,2,15,4,1,15,14,7,7,1,15,14,1,3,1,15,0,0,14,15,2,15,15,1,1,15,1,14,10,0,1,0,0,0,0,0,0,0,0,0,0,0,0,0,0,0,0,0,0,0,0,0,0,0,0,0,0],"split_type":[0,0,0,0,0,0,0,0,0,0,0,0,0,0,0,0,0,0,0,0,0,0,0,0,0,0,0,0,0,0,0,0,0,0,0,0,0,0,0,0,0,0,0,0,0,0,0,0,0,0,0,0,0,0,0,0,0],"sum_hessian":[1.01218766E5,9.974608E4,1.4726876E3,9.692494E4,2.821134E3,7.968507E2,6.758369E2,9.6564234E4,3.6070718E2,6.625059E2,2.1586282E3,2.6051932E2,5.363314E2,3.263871E2,3.494498E2,9.655246E4,1.17702465E1,1.3076762E1,3.476304E2,3.1165482E2,3.508511E2,1.9085513E3,2.50077E2,1.6895068E2,9.156863E1,9.396889E1,4.4236252E2,1.1239011E2,2.13997E2,3.3120227E2,1.8247524E1,8.673644E4,9.816022E3,3.439799E2,3.6505408E0,2.874697E2,2.4185106E1,3.539859E1,3.154525E2,2.4047224E2,1.668079E3,7.2813614E1,1.7726338E2,5.677816E1,1.1217253E2,8.6523796E1,5.0448294E0,4.8592285E1,4.5376602E1,4.3258307E2,9.779442E0,3.1192522E1,8.1197586E1,1.0007009E2,1.139269E2,4.727329E0,1.3520196E1],"tree_param":{"num_deleted":"0","num_feature":"19","num_nodes":"57","size_leaf_vector":"1"}},{"base_weights":[-1.0056305E0,-1.067098E0,4.821706E-1,-1.0693917E0,-5.70237E-1,2.3829646E-3,1.6889106E0,-1.0793995E0,-9.8126626E-1,-7.8524613E-1,6.563379E-1,1.3612257E0,-5.325387E-1,9.7117347E-1,2.540455E0,-1.0247381E0,-1.088729E0,-9.883163E-1,6.334826E-1,-8.303678E-1,3.570235E0,-5.1384616E-1,2.362767E0,1.1125578E0,5.793509E0,-8.1011194E-1,2.0866369E-1,-4.177633E-2,1.833435E0,2.6049247E0,1.6773472E0,-5.1494528E-2,3.4670818E-1,-5.444005E-2,9.021002E-2,-4.954836E-2,1.5613359E-1,1.5615948E-1,5.627208E-3,-8.365038E-4,-4.9445864E-2,2.0904759E-1,5.2951496E-2,1.0582562E-1,-4.309946E-2,1.6027384E-1,1.9314071E-2,9.0591125E-2,1.0269026E-2,3.5637027E-1,1.5036373E-1,-4.190945E-2,1.2536527E-1,1.9894352E-3,9.392867E-2,6.83418E-2,-1.633014E-2,5.9672285E-2,1.07668236E-1,1.5027343E-1,1.2402939E-1,-1.1604605E-2,1.1492338E-1],"categories":[],"categories_nodes":[],"categories_segments":[],"categories_sizes":[],"default_left":[0,0,0,0,0,0,0,0,0,0,0,0,0,0,0,0,0,0,0,0,0,0,0,0,0,0,0,0,0,0,0,0,0,0,0,0,0,0,0,0,0,0,0,0,0,0,0,0,0,0,0,0,0,0,0,0,0,0,0,0,0,0,0],"id":7,"left_children":[1,3,5,7,9,11,13,15,17,19,21,23,25,27,29,31,33,35,37,39,41,43,45,47,49,51,53,55,57,59,61,-1,-1,-1,-1,-1,-1,-1,-1,-1,-1,-1,-1,-1,-1,-1,-1,-1,-1,-1,-1,-1,-1,-1,-1,-1,-1,-1,-1,-1,-1,-1,-1],"loss_changes":[8.872227E3,1.055625E2,2.2288208E3,8.071875E1,1.1397702E2,2.0035852E3,6.668635E2,4.1351562E1,1.0841016E2,7.49946E1,1.3043379E2,8.516979E2,4.070868E2,5.205315E2,2.3467041E1,5.0566602E2,1.6757812E1,1.058291E2,5.3820007E1,4.688443E1,1.625145E0,3.772984E1,4.290535E1,4.68083E2,1.3140515E2,1.3615051E2,1.5211664E2,1.1076883E2,6.3340088E1,1.5637451E1,4.5100647E1,0E0,0E0,0E0,0E0,0E0,0E0,0E0,0E0,0E0,0E0,0E0,0E0,0E0,0E0,0E0,0E0,0E0,0E0,0E0,0E0,0E0,0E0,0E0,0E0,0E0,0E0,0E0,0E0,0E0,0E0,0E0,0E0],"parents":[2147483647,0,0,1,1,2,2,3,3,4,4,5,5,6,6,7,7,8,8,9,9,10,10,11,11,12,12,13,13,14,14,15,15,16,16,17,17,18,18,19,19,20,20,21,21,22,22,23,23,24,24,25,25,26,26,27,27,28,28,29,29,30,30],"right_children":[2,4,6,8,10,12,14,16,18,20,22,24,26,28,30,32,34,36,38,40,42,44,46,48,50,52,54,56,58,60,62,-1,-1,-1,-1,-1,-1,-1,-1,-1,-1,-1,-1,-1,-1,-1,-1,-1,-1,-1,-1,-1,-1,-1,-1,-1,-1,-1,-1,-1,-1,-1,-1],"split_conditions":[1.6227789E0,1.5427313E0,1.3456979E0,1.3456979E0,1.3456979E0,-1.2920247E0,1.3723257E-1,-1.2920247E0,9.01E2,9.01E2,1E1,8E0,2.3511784E0,2.3511784E0,1.1E1,9E0,5E1,8.9E2,8.64E2,-1.2920247E0,2E0,2E0,3.5333827E-1,4E0,2.3511784E0,9.01E2,7.44E2,4E0,1E0,2.3511784E0,1.2E1,-5.1494528E-2,3.4670818E-1,-5.444005E-2,9.021002E-2,-4.954836E-2,1.5613359E-1,1.5615948E-1,5.627208E-3,-8.365038E-4,-4.9445864E-2,2.0904759E-1,5.2951496E-2,1.0582562E-1,-4.309946E-2,1.6027384E-1,1.9314071E-2,9.0591125E-2,1.0269026E-2,3.5637027E-1,1.5036373E-1,-4.190945E-2,1.2536527E-1,1.9894352E-3,9.392867E-2,6.83418E-2,-1.633014E-2,5.9672285E-2,1.07668236E-1,1.5027343E-1,1.2402939E-1,-1.1604605E-2,1.1492338E-1],"split_indices":[2,2,15,15,15,15,14,15,4,4,1,1,2,2,1,1,6,7,7,15,1,1,14,1,2,4,5,1,3,2,1,0,0,0,0,0,0,0,0,0,0,0,0,0,0,0,0,0,0,0,0,0,0,0,0,0,0,0,0,0,0,0,0],"split_type":[0,0,0,0,0,0,0,0,0,0,0,0,0,0,0,0,0,0,0,0,0,0,0,0,0,0,0,0,0,0,0,0,0,0,0,0,0,0,0,0,0,0,0,0,0,0,0,0,0,0,0,0,0,0,0,0,0,0,0,0,0,0,0],"sum_hessian":[9.700888E4,9.3160305E4,3.8485781E3,9.273108E4,4.292274E2,2.754442E3,1.0941364E3,8.326412E4,9.466961E3,3.655152E2,6.371221E1,7.775963E2,1.9768455E3,5.948764E2,4.9925998E2,1.2155623E4,7.110849E4,9.426193E3,4.0767292E1,3.6256842E2,2.9467652E0,3.8209156E1,2.5503057E1,7.3747235E2,4.0124004E1,1.4381711E3,5.386744E2,2.739742E2,3.209022E2,4.6268198E2,3.6577995E1,1.2148629E4,6.9943347E0,7.110735E4,1.145536E0,9.420878E3,5.3159213E0,6.189702E0,3.457759E1,5.930987E1,3.0325854E2,1.8354673E0,1.1112978E0,3.872377E0,3.4336777E1,1.7443787E1,8.059272E0,4.158964E2,3.2157596E2,2.6080173E1,1.404383E1,1.4268424E3,1.1328757E1,4.90132E2,4.8542347E1,4.5441914E1,2.285323E2,1.08529434E2,2.1237276E2,1.0411395E2,3.5856802E2,9.131722E0,2.7446274E1],"tree_param":{"num_deleted":"0","num_feature":"19","num_nodes":"63","size_leaf_vector":"1"}},{"base_weights":[-9.9800956E-1,-1.0609077E0,4.566477E-1,-1.0632904E0,-5.5514604E-1,1.4198022E-3,1.5693891E0,-1.0736955E0,-9.720344E-1,-7.707349E-1,6.113309E-1,1.2530829E0,-5.176655E-1,9.3950135E-1,2.3908324E0,-1.0169747E0,-1.0834022E0,-9.792676E-1,5.9671396E-1,-8.166414E-1,3.1859422E0,-3.7910715E-2,3.146515E0,1.0340483E0,4.5910707E0,-7.9592377E-1,1.969414E-1,-1.5998839E-3,1.7011905E0,2.4538746E0,1.5309097E0,-5.111298E-2,2.7318847E-1,-5.4173827E-2,8.6121045E-2,-4.9098466E-2,1.4109592E-1,1.03587555E-2,1.7625771E-1,-7.958881E-4,-4.8946425E-2,1.8348986E-1,5.0449915E-2,-2.4894759E-2,5.274709E-2,2.0254831E-1,-4.029983E-2,9.18386E-2,1.7138524E-2,2.6503783E-1,1.3716416E-1,-4.1209906E-2,1.12799935E-1,6.385235E-2,-2.2303886E-3,6.363281E-2,-1.3581208E-2,1.2709817E-1,7.481688E-2,1.4446245E-1,1.16062425E-1,-9.76639E-3,1.0272807E-1],"categories":[],"categories_nodes":[],"categories_segments":[],"categories_sizes":[],"default_left":[0,0,0,0,0,0,0,0,0,0,0,0,0,0,0,0,0,0,0,0,0,0,0,0,0,0,0,0,0,0,0,0,0,0,0,0,0,0,0,0,0,0,0,0,0,0,0,0,0,0,0,0,0,0,0,0,0,0,0,0,0,0,0],"id":8,"left_children":[1,3,5,7,9,11,13,15,17,19,21,23,25,27,29,31,33,35,37,39,41,43,45,47,49,51,53,55,57,59,61,-1,-1,-1,-1,-1,-1,-1,-1,-1,-1,-1,-1,-1,-1,-1,-1,-1,-1,-1,-1,-1,-1,-1,-1,-1,-1,-1,-1,-1,-1,-1,-1],"loss_changes":[8.507281E3,1.068125E2,1.9523698E3,8.3171875E1,1.06082825E2,1.7784417E3,5.767439E2,4.2734375E1,1.0372461E2,6.7063644E1,1.0886301E2,5.819208E2,3.848899E2,4.5518317E2,2.2535889E1,4.0459277E2,1.6039062E1,9.569238E1,4.7567513E1,4.5676346E1,7.994957E-1,2.7462566E1,5.146045E1,4.179286E2,4.987195E1,1.2204407E2,1.4173924E2,9.842343E1,5.6642273E1,1.929004E1,3.2750565E1,0E0,0E0,0E0,0E0,0E0,0E0,0E0,0E0,0E0,0E0,0E0,0E0,0E0,0E0,0E0,0E0,0E0,0E0,0E0,0E0,0E0,0E0,0E0,0E0,0E0,0E0,0E0,0E0,0E0,0E0,0E0,0E0],"parents":[2147483647,0,0,1,1,2,2,3,3,4,4,5,5,6,6,7,7,8,8,9,9,10,10,11,11,12,12,13,13,14,14,15,15,16,16,17,17,18,18,19,19,20,20,21,21,22,22,23,23,24,24,25,25,26,26,27,27,28,28,29,29,30,30],"right_children":[2,4,6,8,10,12,14,16,18,20,22,24,26,28,30,32,34,36,38,40,42,44,46,48,50,52,54,56,58,60,62,-1,-1,-1,-1,-1,-1,-1,-1,-1,-1,-1,-1,-1,-1,-1,-1,-1,-1,-1,-1,-1,-1,-1,-1,-1,-1,-1,-1,-1,-1,-1,-1],"split_conditions":[1.6227789E0,1.5427313E0,1.3456979E0,1.3456979E0,1.3456979E0,-1.2920247E0,2.3845756E-1,-1.2920247E0,9.01E2,9.01E2,1.3E1,8E0,2.3511784E0,2.3511784E0,1.1E1,9E0,5E1,8.9E2,1.3298243E0,-1.2920247E0,2E0,1E1,2.7783743E-1,1.810172E-1,2.3511784E0,9.01E2,3E0,4E0,3E0,2.3511784E0,1.2E1,-5.111298E-2,2.7318847E-1,-5.4173827E-2,8.6121045E-2,-4.9098466E-2,1.4109592E-1,1.03587555E-2,1.7625771E-1,-7.958881E-4,-4.8946425E-2,1.8348986E-1,5.0449915E-2,-2.4894759E-2,5.274709E-2,2.0254831E-1,-4.029983E-2,9.18386E-2,1.7138524E-2,2.6503783E-1,1.3716416E-1,-4.1209906E-2,1.12799935E-1,6.385235E-2,-2.2303886E-3,6.363281E-2,-1.3581208E-2,1.2709817E-1,7.481688E-2,1.4446245E-1,1.16062425E-1,-9.76639E-3,1.0272807E-1],"split_indices":[2,2,15,15,15,15,14,15,4,4,1,1,2,2,1,1,6,7,14,15,1,1,14,14,2,4,1,1,1,2,1,0,0,0,0,0,0,0,0,0,0,0,0,0,0,0,0,0,0,0,0,0,0,0,0,0,0,0,0,0,0,0,0],"split_type":[0,0,0,0,0,0,0,0,0,0,0,0,0,0,0,0,0,0,0,0,0,0,0,0,0,0,0,0,0,0,0,0,0,0,0,0,0,0,0,0,0,0,0,0,0,0,0,0,0,0,0,0,0,0,0,0,0,0,0,0,0,0,0],"sum_hessian":[9.297418E4,8.912093E4,3.8532456E3,8.870197E4,4.1896136E2,2.7352449E3,1.1180006E3,7.961348E4,9.088497E3,3.538938E2,6.506757E1,8.014078E2,1.9338372E3,6.339939E2,4.8400677E2,1.1648882E4,6.796459E4,9.047157E3,4.1338997E1,3.5061942E2,3.2743807E0,5.258579E1,1.248178E1,7.532878E2,4.812001E1,1.3917822E3,5.4205493E2,2.8404337E2,3.499505E2,4.4922012E2,3.478666E1,1.1640231E4,8.650019E0,6.796341E4,1.1863291E0,9.041473E3,5.6845965E0,3.7430737E1,3.9082613E0,5.927162E1,2.9134778E2,2.117894E0,1.1564866E0,3.7391865E1,1.5193925E1,1.0137184E1,2.3445961E0,3.477812E2,4.0550656E2,3.3416805E1,1.4703207E1,1.3797297E3,1.2052471E1,9.8283936E1,4.43771E2,4.901699E1,2.3502638E2,6.6325096E1,2.836254E2,1.000382E2,3.4918192E2,8.24237E0,2.654429E1],"tree_param":{"num_deleted":"0","num_feature":"19","num_nodes":"63","size_leaf_vector":"1"}},{"base_weights":[-9.906087E-1,-1.0549439E0,4.3353742E-1,-1.0574187E0,-5.4037637E-1,7.0982636E-4,1.4664268E0,-1.068246E0,-9.62866E-1,-7.5635976E-1,5.699778E-1,1.1599555E0,-5.0306463E-1,8.7953156E-1,2.2283187E0,-1.0093662E0,-1.0783501E0,-9.703019E-1,5.6201655E-1,1.5298562E-1,-9.5565194E-1,-4.8244205E-1,1.846786E0,9.638611E-1,3.855874E0,-7.817682E-1,1.8594232E-1,-1.5846934E-3,1.5721555E0,2.2875476E0,1.4245291E0,-5.0738532E-2,2.2796889E-1,-5.392134E-2,8.238074E-2,-4.8652496E-2,1.2909864E-1,1.3594152E-1,4.274448E-3,-1.3455181E-2,1.0571223E-1,-4.8452023E-2,6.124301E-2,9.836497E-2,-4.1900646E-2,1.1971905E-1,1.6770964E-2,7.877212E-2,7.4180225E-3,2.1465395E-1,1.2659232E-1,-4.0467784E-2,1.0683779E-1,4.1838526E-3,1.2870602E-1,5.852837E-2,-1.3030559E-2,5.1353004E-2,9.285145E-2,1.3210836E-1,1.0881167E-1,-9.390903E-3,9.480281E-2],"categories":[],"categories_nodes":[],"categories_segments":[],"categories_sizes":[],"default_left":[0,0,0,0,0,0,0,0,0,0,0,0,0,0,0,0,0,0,0,0,0,0,0,0,0,0,0,0,0,0,0,0,0,0,0,0,0,0,0,0,0,0,0,0,0,0,0,0,0,0,0,0,0,0,0,0,0,0,0,0,0,0,0],"id":9,"left_children":[1,3,5,7,9,11,13,15,17,19,21,23,25,27,29,31,33,35,37,39,41,43,45,47,49,51,53,55,57,59,61,-1,-1,-1,-1,-1,-1,-1,-1,-1,-1,-1,-1,-1,-1,-1,-1,-1,-1,-1,-1,-1,-1,-1,-1,-1,-1,-1,-1,-1,-1,-1,-1],"loss_changes":[8.163414E3,1.0799219E2,1.7218604E3,8.58125E1,9.8771904E1,1.5862242E3,5.0660718E2,4.41875E1,9.949219E1,6.243669E1,9.1386246E1,4.312577E2,3.637231E2,3.9309073E2,2.0270752E1,3.4059375E2,1.5359375E1,8.7288086E1,4.3941246E1,5.2432167E1,9.4216E0,3.449595E1,2.455188E1,3.829709E2,2.123291E1,1.1028369E2,1.3315701E2,8.667841E1,5.4092285E1,1.2355957E1,2.8159363E1,0E0,0E0,0E0,0E0,0E0,0E0,0E0,0E0,0E0,0E0,0E0,0E0,0E0,0E0,0E0,0E0,0E0,0E0,0E0,0E0,0E0,0E0,0E0,0E0,0E0,0E0,0E0,0E0,0E0,0E0,0E0,0E0],"parents":[2147483647,0,0,1,1,2,2,3,3,4,4,5,5,6,6,7,7,8,8,9,9,10,10,11,11,12,12,13,13,14,14,15,15,16,16,17,17,18,18,19,19,20,20,21,21,22,22,23,23,24,24,25,25,26,26,27,27,28,28,29,29,30,30],"right_children":[2,4,6,8,10,12,14,16,18,20,22,24,26,28,30,32,34,36,38,40,42,44,46,48,50,52,54,56,58,60,62,-1,-1,-1,-1,-1,-1,-1,-1,-1,-1,-1,-1,-1,-1,-1,-1,-1,-1,-1,-1,-1,-1,-1,-1,-1,-1,-1,-1,-1,-1,-1,-1],"split_conditions":[1.6227789E0,1.5427313E0,1.3456979E0,1.3456979E0,1.3456979E0,-1.2920247E0,2.3845756E-1,-1.2920247E0,9.01E2,-1.2920247E0,1E1,8E0,2.3511784E0,2.3511784E0,1.1E1,9E0,5E1,8.9E2,8.64E2,6.56E2,9.01E2,2E0,3.5333827E-1,4E0,2.3511784E0,8.9E2,8.92E2,4E0,1E0,2.3511784E0,1.2E1,-5.0738532E-2,2.2796889E-1,-5.392134E-2,8.238074E-2,-4.8652496E-2,1.2909864E-1,1.3594152E-1,4.274448E-3,-1.3455181E-2,1.0571223E-1,-4.8452023E-2,6.124301E-2,9.836497E-2,-4.1900646E-2,1.1971905E-1,1.6770964E-2,7.877212E-2,7.4180225E-3,2.1465395E-1,1.2659232E-1,-4.0467784E-2,1.0683779E-1,4.1838526E-3,1.2870602E-1,5.852837E-2,-1.3030559E-2,5.1353004E-2,9.285145E-2,1.3210836E-1,1.0881167E-1,-9.390903E-3,9.480281E-2],"split_indices":[2,2,15,15,15,15,14,15,4,15,1,1,2,2,1,1,6,7,7,5,4,1,14,1,2,7,4,1,3,2,1,0,0,0,0,0,0,0,0,0,0,0,0,0,0,0,0,0,0,0,0,0,0,0,0,0,0,0,0,0,0,0,0],"split_type":[0,0,0,0,0,0,0,0,0,0,0,0,0,0,0,0,0,0,0,0,0,0,0,0,0,0,0,0,0,0,0,0,0,0,0,0,0,0,0,0,0,0,0,0,0,0,0,0,0,0,0,0,0,0,0,0,0,0,0,0,0,0,0],"sum_hessian":[8.9092195E4,8.5241695E4,3.8504958E3,8.483263E4,4.0906412E2,2.714146E3,1.1363499E3,7.610729E4,8.725345E3,3.427182E2,6.634591E1,8.217948E2,1.8923512E3,6.4310895E2,4.9324084E2,1.1162204E4,6.4945086E4,8.683365E3,4.197965E1,6.164987E1,2.8106833E2,3.6709747E1,2.9636166E1,7.673381E2,5.4456715E1,1.3472524E3,5.4509875E2,2.8347992E2,3.5962906E2,4.576704E2,3.557045E1,1.1152198E4,1.0005336E1,6.4943863E4,1.2226237E0,8.677378E3,5.986746E0,6.745103E0,3.5234547E1,5.1441715E1,1.0208157E1,2.7990527E2,1.1630477E0,4.0784006E0,3.2631348E1,2.1325361E1,8.310805E0,4.3796E2,3.2937808E2,3.925271E1,1.5204006E1,1.3353527E3,1.1899809E1,5.237078E2,2.1390898E1,5.066961E1,2.328103E2,1.25017586E2,2.3461148E2,1.039085E2,3.537619E2,8.18482E0,2.7385628E1],"tree_param":{"num_deleted":"0","num_feature":"19","num_nodes":"63","size_leaf_vector":"1"}},{"base_weights":[-9.8341614E-1,-1.049191E0,4.1248673E-1,-1.0517598E0,-5.261364E-1,1.8292203E-4,1.3772987E0,-1.06303E0,-9.5377725E-1,-7.42166E-1,5.345391E-1,1.0785412E0,-4.8862183E-1,7.9539424E-1,2.05631E0,-1.0018878E0,-1.0735528E0,-9.613969E-1,5.314022E-1,1.4543323E-1,-9.4542694E-1,-4.6726865E-1,1.6605028E0,9.007895E-1,3.3535688E0,-7.676255E-1,1.7581752E-1,-4.0053137E-2,1.4463588E0,2.109067E0,1.3590851E0,-5.0370056E-2,1.9706735E-1,-5.36816E-2,7.895223E-2,-4.820935E-2,1.1931616E-1,8.671739E-3,1.5254943E-1,2.0842524E-1,-2.1779928E-3,-4.796147E-2,5.815657E-2,8.980758E-2,-4.1152827E-2,1.0590988E-1,1.5853876E-2,8.056679E-2,1.3834732E-2,1.8228471E-1,1.1792984E-1,-3.9813083E-2,9.5578514E-2,-9.33605E-3,4.0676992E-2,5.306576E-2,-1.4658687E-2,8.578912E-2,4.394042E-2,6.9118075E-2,1.07440345E-1,-1.0673236E-2,9.0929106E-2],"categories":[],"categories_nodes":[],"categories_segments":[],"categories_sizes":[],"default_left":[0,0,0,0,0,0,0,0,0,0,0,0,0,0,0,0,0,0,0,0,0,0,0,0,0,0,0,0,0,0,0,0,0,0,0,0,0,0,0,0,0,0,0,0,0,0,0,0,0,0,0,0,0,0,0,0,0,0,0,0,0,0,0],"id":10,"left_children":[1,3,5,7,9,11,13,15,17,19,21,23,25,27,29,31,33,35,37,39,41,43,45,47,49,51,53,55,57,59,61,-1,-1,-1,-1,-1,-1,-1,-1,-1,-1,-1,-1,-1,-1,-1,-1,-1,-1,-1,-1,-1,-1,-1,-1,-1,-1,-1,-1,-1,-1,-1,-1],"loss_changes":[7.837789E3,1.0897656E2,1.5282815E3,8.857031E1,9.214125E1,1.4198314E3,4.5284888E2,4.571875E1,9.531787E1,6.0226334E1,7.785318E1,3.3672943E2,3.437345E2,3.3781113E2,1.6636475E1,2.9547754E2,1.471875E1,8.015674E1,3.8620113E1,4.8026352E1,9.006561E0,3.1225574E1,1.9245224E1,3.457262E2,8.991394E0,1.01685E2,1.2706647E2,7.640549E1,5.187195E1,1.121167E1,2.9370079E1,0E0,0E0,0E0,0E0,0E0,0E0,0E0,0E0,0E0,0E0,0E0,0E0,0E0,0E0,0E0,0E0,0E0,0E0,0E0,0E0,0E0,0E0,0E0,0E0,0E0,0E0,0E0,0E0,0E0,0E0,0E0,0E0],"parents":[2147483647,0,0,1,1,2,2,3,3,4,4,5,5,6,6,7,7,8,8,9,9,10,10,11,11,12,12,13,13,14,14,15,15,16,16,17,17,18,18,19,19,20,20,21,21,22,22,23,23,24,24,25,25,26,26,27,27,28,28,29,29,30,30],"right_children":[2,4,6,8,10,12,14,16,18,20,22,24,26,28,30,32,34,36,38,40,42,44,46,48,50,52,54,56,58,60,62,-1,-1,-1,-1,-1,-1,-1,-1,-1,-1,-1,-1,-1,-1,-1,-1,-1,-1,-1,-1,-1,-1,-1,-1,-1,-1,-1,-1,-1,-1,-1,-1],"split_conditions":[1.6227789E0,1.5427313E0,1.3456979E0,1.3456979E0,1.3456979E0,-1.2920247E0,1.3723257E-1,-1.2920247E0,9.01E2,-1.2920247E0,1E1,8E0,2.3511784E0,2.3511784E0,1.1E1,9E0,5E1,8.9E2,1.3298243E0,-1.1975513E0,9.01E2,2E0,3.5333827E-1,1.810172E-1,2.3511784E0,9.01E2,1.3723257E-1,4E0,7E0,2.3845756E-1,1.2E1,-5.0370056E-2,1.9706735E-1,-5.36816E-2,7.895223E-2,-4.820935E-2,1.1931616E-1,8.671739E-3,1.5254943E-1,2.0842524E-1,-2.1779928E-3,-4.796147E-2,5.815657E-2,8.980758E-2,-4.1152827E-2,1.0590988E-1,1.5853876E-2,8.056679E-2,1.3834732E-2,1.8228471E-1,1.1792984E-1,-3.9813083E-2,9.5578514E-2,-9.33605E-3,4.0676992E-2,5.306576E-2,-1.4658687E-2,8.578912E-2,4.394042E-2,6.9118075E-2,1.07440345E-1,-1.0673236E-2,9.0929106E-2],"split_indices":[2,2,15,15,15,15,14,15,4,15,1,1,2,2,1,1,6,7,14,14,4,1,14,14,2,4,14,1,1,14,1,0,0,0,0,0,0,0,0,0,0,0,0,0,0,0,0,0,0,0,0,0,0,0,0,0,0,0,0,0,0,0,0],"split_type":[0,0,0,0,0,0,0,0,0,0,0,0,0,0,0,0,0,0,0,0,0,0,0,0,0,0,0,0,0,0,0,0,0,0,0,0,0,0,0,0,0,0,0,0,0,0,0,0,0,0,0,0,0,0,0,0,0,0,0,0,0,0,0],"sum_hessian":[8.535883E4,8.1517945E4,3.840877E3,8.1118555E4,3.993912E2,2.6916323E3,1.1492449E3,7.2741766E4,8.376789E3,3.3206024E2,6.733097E1,8.391551E2,1.852477E3,6.2004504E2,5.291998E2,1.0695077E4,6.204669E4,8.334383E3,4.2406113E1,6.19261E1,2.7013412E2,3.5939445E1,3.1391527E1,7.796367E2,5.951837E1,1.304536E3,5.4794104E2,2.7195575E2,3.480893E2,4.9009106E2,3.910876E1,1.0683958E4,1.1119915E1,6.2045434E4,1.254511E0,8.328154E3,6.228978E0,3.806667E1,4.3394446E0,1.8338025E0,6.0092297E1,2.6891888E2,1.2152362E0,4.332017E0,3.1607428E1,2.2984253E1,8.407273E0,3.6382816E2,4.158086E2,4.395036E1,1.5568011E1,1.2914355E3,1.310047E1,3.4979398E2,1.9814703E2,5.022515E1,2.217306E2,2.3466678E2,1.1342251E2,2.726641E1,4.6282465E2,8.964553E0,3.0144207E1],"tree_param":{"num_deleted":"0","num_feature":"19","num_nodes":"63","size_leaf_vector":"1"}},{"base_weights":[-9.763892E-1,-1.0436232E0,3.9297608E-1,-1.0565176E0,-9.324854E-1,-2.751473E-4,1.2985095E0,-9.87667E-1,-1.0684249E0,-9.4956267E-1,4.2419413E-1,1.0064076E0,-4.743275E-1,7.487378E-1,1.9418807E0,-9.941963E-1,3.8728704E0,-1.068506E0,7.580242E-2,-9.572693E-1,4.772304E-1,-2.135644E-1,2.6722653E0,1.6203727E0,4.5394883E-1,-7.535016E-1,1.6587864E-1,-3.8235888E-2,1.3485767E0,1.9931303E0,1.2728766E0,-3.8885836E-2,-5.3177804E-2,2.1096022E-1,6.9558255E-2,-5.3453702E-2,-4.676262E-2,-4.7997728E-2,1.1031926E-1,1.2140273E-1,1.9114352E-3,-2.955564E-2,4.2222615E-2,1.812259E-1,-5.372306E-3,2.3628758E-2,1.03505746E-1,7.192976E-2,-1.0605573E-2,-3.9111834E-2,8.776172E-2,5.6387644E-2,-2.9107921E-3,2.8992191E-2,-2.2656903E-2,4.0436078E-2,8.157304E-2,6.458427E-2,1.0160893E-1,-1.0265678E-2,8.4625356E-2],"categories":[],"categories_nodes":[],"categories_segments":[],"categories_sizes":[],"default_left":[0,0,0,0,0,0,0,0,0,0,0,0,0,0,0,0,0,0,0,0,0,0,0,0,0,0,0,0,0,0,0,0,0,0,0,0,0,0,0,0,0,0,0,0,0,0,0,0,0,0,0,0,0,0,0,0,0,0,0,0,0],"id":11,"left_children":[1,3,5,7,9,11,13,15,17,19,21,23,25,27,29,31,33,35,-1,37,39,41,43,45,47,49,51,53,55,57,59,-1,-1,-1,-1,-1,-1,-1,-1,-1,-1,-1,-1,-1,-1,-1,-1,-1,-1,-1,-1,-1,-1,-1,-1,-1,-1,-1,-1,-1,-1],"loss_changes":[7.529117E3,1.1071875E2,1.363083E3,5.6195312E1,1.883418E2,1.2745569E3,4.084901E2,3.3104883E2,1.409375E1,8.8546875E1,1.4613712E2,2.8928766E2,3.246517E2,2.958352E2,1.5751587E1,1.5378125E2,6.193863E0,3.515625E0,0E0,6.981299E1,3.7338295E1,3.2462677E1,5.997795E1,2.0787634E2,2.9638495E2,9.2533875E1,1.190884E2,7.001238E1,5.298578E1,1.0897339E1,2.5607056E1,0E0,0E0,0E0,0E0,0E0,0E0,0E0,0E0,0E0,0E0,0E0,0E0,0E0,0E0,0E0,0E0,0E0,0E0,0E0,0E0,0E0,0E0,0E0,0E0,0E0,0E0,0E0,0E0,0E0,0E0],"parents":[2147483647,0,0,1,1,2,2,3,3,4,4,5,5,6,6,7,7,8,8,9,9,10,10,11,11,12,12,13,13,14,14,15,15,16,16,17,17,19,19,20,20,21,21,22,22,23,23,24,24,25,25,26,26,27,27,28,28,29,29,30,30],"right_children":[2,4,6,8,10,12,14,16,18,20,22,24,26,28,30,32,34,36,-1,38,40,42,44,46,48,50,52,54,56,58,60,-1,-1,-1,-1,-1,-1,-1,-1,-1,-1,-1,-1,-1,-1,-1,-1,-1,-1,-1,-1,-1,-1,-1,-1,-1,-1,-1,-1,-1,-1],"split_conditions":[1.6227789E0,1.3456979E0,1.3456979E0,-1.2920247E0,1.4860421E0,-1.2920247E0,1.3723257E-1,9E0,5E1,9.01E2,1.3E1,1.810172E-1,2.3511784E0,2.3511784E0,1.1E1,-2.3941912E-1,9.01E2,1.5427313E0,7.580242E-2,8.9E2,8.64E2,1.3723257E-1,1E0,1E0,2E0,9.01E2,3E0,1.8304965E0,1E0,2.3845756E-1,1.2E1,-3.8885836E-2,-5.3177804E-2,2.1096022E-1,6.9558255E-2,-5.3453702E-2,-4.676262E-2,-4.7997728E-2,1.1031926E-1,1.2140273E-1,1.9114352E-3,-2.955564E-2,4.2222615E-2,1.812259E-1,-5.372306E-3,2.3628758E-2,1.03505746E-1,7.192976E-2,-1.0605573E-2,-3.9111834E-2,8.776172E-2,5.6387644E-2,-2.9107921E-3,2.8992191E-2,-2.2656903E-2,4.0436078E-2,8.157304E-2,6.458427E-2,1.0160893E-1,-1.0265678E-2,8.4625356E-2],"split_indices":[2,15,15,15,2,15,14,1,6,4,1,14,2,2,1,2,4,2,0,7,7,14,3,1,1,4,1,2,3,14,1,0,0,0,0,0,0,0,0,0,0,0,0,0,0,0,0,0,0,0,0,0,0,0,0,0,0,0,0,0,0],"split_type":[0,0,0,0,0,0,0,0,0,0,0,0,0,0,0,0,0,0,0,0,0,0,0,0,0,0,0,0,0,0,0,0,0,0,0,0,0,0,0,0,0,0,0,0,0,0,0,0,0,0,0,0,0,0,0,0,0,0,0,0,0],"sum_hessian":[8.177233E4,7.794554E4,3.826786E3,6.98347E4,8.1108413E3,2.6687932E3,1.1579926E3,1.0309057E4,5.9525645E4,8.010311E3,1.0053011E2,8.5404565E2,1.8147476E3,6.255841E2,5.3240845E2,1.0296021E4,1.3035462E1,5.9524363E4,1.282128E0,7.9676045E3,4.2706738E1,7.90183E1,2.1511814E1,4.035901E2,4.5045557E2,1.2635677E3,5.511798E2,2.7098923E2,3.5459488E2,4.9268652E2,3.9721935E1,2.5013242E3,7.7946973E3,1.08247E1,2.2107613E0,5.926472E4,2.59642E2,7.9615435E3,6.061056E0,7.0127606E0,3.5693977E1,5.8562016E1,2.0456285E1,1.5796461E1,5.715352E0,1.1419675E2,2.8939334E2,1.8129086E2,2.691647E2,1.2499392E3,1.3628592E1,1.03386116E2,4.477937E2,1.0868446E2,1.6230478E2,1.23247856E2,2.3134702E2,2.7777828E1,4.649087E2,8.895915E0,3.0826021E1],"tree_param":{"num_deleted":"0","num_feature":"19","num_nodes":"61","size_leaf_vector":"1"}},{"base_weights":[-9.6958774E-1,-1.0382198E0,3.7551478E-1,-1.0516416E0,-9.231498E-1,-6.4737117E-4,1.2288845E0,-9.801127E-1,-1.0640554E0,-9.406844E-1,3.9792228E-1,9.4732857E-1,-4.604031E-1,7.338713E-1,1.8778123E0,-9.867659E-1,3.4252956E0,-1.064139E0,7.290182E-2,-9.485755E-1,4.5313007E-1,-4.306629E-1,1.8227565E0,7.8603894E-1,2.9035742E0,-7.3938E-1,1.5683475E-1,-3.228271E-3,1.2802473E0,1.931953E0,1.1690412E0,-3.8227666E-2,-5.2942302E-2,1.8381345E-1,6.727164E-2,-5.32368E-2,-4.6253845E-2,-4.756473E-2,1.0359218E-1,1.9719553E-1,1.1341132E-2,6.936374E-2,-3.0405907E-2,1.1973983E-1,1.6949126E-2,6.534752E-2,3.6187277E-3,1.545175E-1,1.08825795E-1,-1.9867608E-2,-4.7287792E-2,3.5193554E-4,7.67625E-2,2.888606E-2,-2.075698E-2,1.0265491E-1,5.4918863E-2,1.0797214E-1,9.275946E-2,6.98385E-2,-4.257096E-2],"categories":[],"categories_nodes":[],"categories_segments":[],"categories_sizes":[],"default_left":[0,0,0,0,0,0,0,0,0,0,0,0,0,0,0,0,0,0,0,0,0,0,0,0,0,0,0,0,0,0,0,0,0,0,0,0,0,0,0,0,0,0,0,0,0,0,0,0,0,0,0,0,0,0,0,0,0,0,0,0,0],"id":12,"left_children":[1,3,5,7,9,11,13,15,17,19,21,23,25,27,29,31,33,35,-1,37,39,41,43,45,47,49,51,53,55,57,59,-1,-1,-1,-1,-1,-1,-1,-1,-1,-1,-1,-1,-1,-1,-1,-1,-1,-1,-1,-1,-1,-1,-1,-1,-1,-1,-1,-1,-1,-1],"loss_changes":[7.2310234E3,1.14125E2,1.2208146E3,5.8210938E1,1.8088135E2,1.1512987E3,3.7237585E2,2.929961E2,1.353125E1,8.501709E1,1.2212264E2,2.6992554E2,3.0642615E2,2.6648245E2,1.7037231E1,1.5723145E2,2.94841E0,3.7382812E0,0E0,6.478027E1,3.3843185E1,2.2069057E1,3.1426643E1,2.9670828E2,2.1469116E0,8.611377E1,1.14494E2,6.788324E1,5.115741E1,4.124878E0,1.877353E1,0E0,0E0,0E0,0E0,0E0,0E0,0E0,0E0,0E0,0E0,0E0,0E0,0E0,0E0,0E0,0E0,0E0,0E0,0E0,0E0,0E0,0E0,0E0,0E0,0E0,0E0,0E0,0E0,0E0,0E0],"parents":[2147483647,0,0,1,1,2,2,3,3,4,4,5,5,6,6,7,7,8,8,9,9,10,10,11,11,12,12,13,13,14,14,15,15,16,16,17,17,19,19,20,20,21,21,22,22,23,23,24,24,25,25,26,26,27,27,28,28,29,29,30,30],"right_children":[2,4,6,8,10,12,14,16,18,20,22,24,26,28,30,32,34,36,-1,38,40,42,44,46,48,50,52,54,56,58,60,-1,-1,-1,-1,-1,-1,-1,-1,-1,-1,-1,-1,-1,-1,-1,-1,-1,-1,-1,-1,-1,-1,-1,-1,-1,-1,-1,-1,-1,-1],"split_conditions":[1.6227789E0,1.3456979E0,1.3456979E0,-1.2920247E0,1.4860421E0,-1.2920247E0,2.3845756E-1,9E0,5E1,9.01E2,1.2E1,8E0,2.3511784E0,2.3511784E0,1.1E1,-2.3941912E-1,9.01E2,1.5427313E0,7.290182E-2,8.9E2,-9.103495E-1,2E0,2.958979E-1,4E0,2.3511784E0,1.8304965E0,7.44E2,1.8304965E0,3E0,2.3511784E0,2.586513E0,-3.8227666E-2,-5.2942302E-2,1.8381345E-1,6.727164E-2,-5.32368E-2,-4.6253845E-2,-4.756473E-2,1.0359218E-1,1.9719553E-1,1.1341132E-2,6.936374E-2,-3.0405907E-2,1.1973983E-1,1.6949126E-2,6.534752E-2,3.6187277E-3,1.545175E-1,1.08825795E-1,-1.9867608E-2,-4.7287792E-2,3.5193554E-4,7.67625E-2,2.888606E-2,-2.075698E-2,1.0265491E-1,5.4918863E-2,1.0797214E-1,9.275946E-2,6.98385E-2,-4.257096E-2],"split_indices":[2,15,15,15,2,15,14,1,6,4,1,1,2,2,1,2,4,2,0,7,14,1,14,1,2,2,5,2,1,2,2,0,0,0,0,0,0,0,0,0,0,0,0,0,0,0,0,0,0,0,0,0,0,0,0,0,0,0,0,0,0],"split_type":[0,0,0,0,0,0,0,0,0,0,0,0,0,0,0,0,0,0,0,0,0,0,0,0,0,0,0,0,0,0,0,0,0,0,0,0,0,0,0,0,0,0,0,0,0,0,0,0,0,0,0,0,0,0,0,0,0,0,0,0,0],"sum_hessian":[7.832279E4,7.4520695E4,3.8020942E3,6.672928E4,7.7914155E3,2.6395776E3,1.1625166E3,9.880106E3,5.684917E4,7.689639E3,1.0177655E2,8.6172205E2,1.7778556E3,6.60674E2,5.018426E2,9.865982E3,1.4123984E1,5.6847867E4,1.3056473E0,7.6466665E3,4.2972424E1,6.4794365E1,3.698218E1,7.973809E2,6.4341095E1,1.2243022E3,5.535534E2,2.8167236E2,3.7900165E2,4.6462558E2,3.7217003E1,2.419283E3,7.4466997E3,1.1918273E1,2.2057106E0,5.6598227E4,2.496382E2,7.640473E3,6.193191E0,1.616151E0,4.1356274E1,5.1560163E0,5.9638348E1,2.624857E1,1.0733613E1,4.60457E2,3.3692395E2,4.8604496E1,1.57366E1,4.618316E2,7.624706E2,5.002004E2,5.3353004E1,1.16691315E2,1.6498105E2,7.0238144E1,3.087635E2,1.1038069E2,3.542449E2,3.3724552E1,3.4924533E0],"tree_param":{"num_deleted":"0","num_feature":"19","num_nodes":"61","size_leaf_vector":"1"}},{"base_weights":[-9.628372E-1,-1.0329655E0,3.5858762E-1,-1.0469433E0,-9.1379315E-1,-1.0372809E-1,9.875221E-1,-9.7262394E-1,-1.059889E0,-9.317665E-1,3.7501287E-1,7.721847E-1,-5.2430147E-1,5.267915E-1,1.4471825E0,-9.793908E-1,3.0845904E0,-1.059975E0,7.0224226E-2,-9.39889E-1,4.2995074E-1,-4.1646934E-1,1.6418946E0,-7.5492805E-1,1.6275128E0,-9.391742E-1,1.0614166E-1,1.322511E0,6.9353186E-2,1.1094111E0,1.7797908E0,-3.756627E-2,-5.2716356E-2,1.6367254E-1,6.515938E-2,-5.3030122E-2,-4.5745123E-2,-4.7131926E-2,9.7835094E-2,5.1497463E-3,1.3545893E-1,6.415163E-2,-2.9611686E-2,1.061458E-1,1.5988063E-2,-5.5708516E-2,1.3972792E-2,1.01918496E-1,2.3311626E-2,-3.635694E-2,-5.169375E-2,8.898907E-2,-3.442265E-2,8.57799E-2,2.9497722E-2,-1.2353512E-3,1.0417008E-1,2.7927944E-2,7.169568E-2,1.4570542E-1,8.698165E-2],"categories":[],"categories_nodes":[],"categories_segments":[],"categories_sizes":[],"default_left":[0,0,0,0,0,0,0,0,0,0,0,0,0,0,0,0,0,0,0,0,0,0,0,0,0,0,0,0,0,0,0,0,0,0,0,0,0,0,0,0,0,0,0,0,0,0,0,0,0,0,0,0,0,0,0,0,0,0,0,0,0],"id":13,"left_children":[1,3,5,7,9,11,13,15,17,19,21,23,25,27,29,31,33,35,-1,37,39,41,43,45,47,49,51,53,55,57,59,-1,-1,-1,-1,-1,-1,-1,-1,-1,-1,-1,-1,-1,-1,-1,-1,-1,-1,-1,-1,-1,-1,-1,-1,-1,-1,-1,-1,-1,-1],"loss_changes":[6.952375E3,1.1771094E2,1.0996072E3,6.0304688E1,1.7376465E2,8.0359265E2,3.3853247E2,2.6301465E2,1.2996094E1,8.207129E1,1.04644966E2,9.255871E2,3.8552808E2,2.9172018E2,8.8061035E1,1.607959E2,1.1201782E0,3.9726562E0,0E0,6.03042E1,3.2858723E1,2.0059769E1,2.4804214E1,9.497484E1,2.1562878E2,1.7096375E1,7.80202E2,8.324078E1,9.6687706E1,7.0749664E1,1.3248657E1,0E0,0E0,0E0,0E0,0E0,0E0,0E0,0E0,0E0,0E0,0E0,0E0,0E0,0E0,0E0,0E0,0E0,0E0,0E0,0E0,0E0,0E0,0E0,0E0,0E0,0E0,0E0,0E0,0E0,0E0],"parents":[2147483647,0,0,1,1,2,2,3,3,4,4,5,5,6,6,7,7,8,8,9,9,10,10,11,11,12,12,13,13,14,14,15,15,16,16,17,17,19,19,20,20,21,21,22,22,23,23,24,24,25,25,26,26,27,27,28,28,29,29,30,30],"right_children":[2,4,6,8,10,12,14,16,18,20,22,24,26,28,30,32,34,36,-1,38,40,42,44,46,48,50,52,54,56,58,60,-1,-1,-1,-1,-1,-1,-1,-1,-1,-1,-1,-1,-1,-1,-1,-1,-1,-1,-1,-1,-1,-1,-1,-1,-1,-1,-1,-1,-1,-1],"split_conditions":[1.6227789E0,1.3456979E0,2.3511784E0,-1.2920247E0,1.4860421E0,4E0,1.2021978E0,9E0,5E1,9.01E2,1.2E1,1E0,8E0,-1.2920247E0,1.3723257E-1,-2.3941912E-1,9.01E2,1.5427313E0,7.0224226E-2,8.9E2,1.3298243E0,2E0,2.958979E-1,2.1227863E0,2E0,6E0,1.1E1,2.3845756E-1,8.81E2,1E0,1.3456979E0,-3.756627E-2,-5.2716356E-2,1.6367254E-1,6.515938E-2,-5.3030122E-2,-4.5745123E-2,-4.7131926E-2,9.7835094E-2,5.1497463E-3,1.3545893E-1,6.415163E-2,-2.9611686E-2,1.061458E-1,1.5988063E-2,-5.5708516E-2,1.3972792E-2,1.01918496E-1,2.3311626E-2,-3.635694E-2,-5.169375E-2,8.898907E-2,-3.442265E-2,8.57799E-2,2.9497722E-2,-1.2353512E-3,1.0417008E-1,2.7927944E-2,7.169568E-2,1.4570542E-1,8.698165E-2],"split_indices":[2,15,2,15,2,1,15,1,6,4,1,1,1,15,14,2,4,2,0,7,14,1,14,2,1,1,1,14,7,3,15,0,0,0,0,0,0,0,0,0,0,0,0,0,0,0,0,0,0,0,0,0,0,0,0,0,0,0,0,0,0],"split_type":[0,0,0,0,0,0,0,0,0,0,0,0,0,0,0,0,0,0,0,0,0,0,0,0,0,0,0,0,0,0,0,0,0,0,0,0,0,0,0,0,0,0,0,0,0,0,0,0,0,0,0,0,0,0,0,0,0,0,0,0,0],"sum_hessian":[7.50185E4,7.12381E4,3.7804036E3,6.375275E4,7.4853486E3,2.1792905E3,1.6011129E3,9.468935E3,5.4283816E4,7.382669E3,1.0267974E2,7.066793E2,1.4726112E3,8.006974E2,8.004155E2,9.453925E3,1.5009235E1,5.4282492E4,1.3252655E0,7.339201E3,4.346787E1,6.3610474E1,3.906927E1,2.5374947E2,4.5292987E2,8.8785504E2,5.847562E2,2.9158707E2,5.0911032E2,3.992765E2,4.0113907E2,2.3408066E3,7.1131187E3,1.2813236E1,2.1959991E0,5.404244E4,2.4004843E2,7.332915E3,6.285996E0,3.8928722E1,4.539147E0,5.3716035E0,5.823887E1,2.8202793E1,1.0866477E1,1.882819E2,6.546757E1,3.3400482E2,1.1892507E2,2.7679315E2,6.110619E2,1.8785046E2,3.9690573E2,1.8888835E2,1.0269873E2,4.8733835E2,2.1771975E1,1.4902443E2,2.5025204E2,1.126878E1,3.8987027E2],"tree_param":{"num_deleted":"0","num_feature":"19","num_nodes":"61","size_leaf_vector":"1"}},{"base_weights":[-9.563834E-1,-1.0278494E0,3.4379652E-1,-1.0424069E0,-9.044505E-1,-4.952755E-3,1.1210116E0,-9.651819E-1,-1.0559105E0,-9.2285883E-1,3.541055E-1,8.521783E-1,-4.3862203E-1,6.657096E-1,1.7271369E0,-9.720528E-1,2.816358E0,-1.0559989E0,6.774648E-2,-9.303174E-1,5.681167E-1,-5.8968425E-1,1.2882279E0,1.3872771E0,3.6478078E-1,-7.167598E-1,1.3863954E-1,6.9641336E-3,1.1359603E0,1.7785966E0,1.0712087E0,-3.69015E-2,-5.2499194E-2,1.4812234E-1,6.320117E-2,-5.2829344E-2,-4.429792E-2,-4.673459E-2,3.3466462E-2,3.9735013E-1,-4.68891E-3,5.953003E-2,-4.1289356E-2,2.924318E-2,9.6556745E-2,1.684535E-2,9.0389125E-2,5.9650052E-2,-1.0965261E-2,-3.729232E-2,8.683164E-2,-9.7417375E-3,3.5039045E-2,4.7836725E-2,-1.1301054E-2,9.40774E-2,4.819399E-2,9.814254E-2,8.5696556E-2,-1.0252264E-2,7.1441E-2],"categories":[],"categories_nodes":[],"categories_segments":[],"categories_sizes":[],"default_left":[0,0,0,0,0,0,0,0,0,0,0,0,0,0,0,0,0,0,0,0,0,0,0,0,0,0,0,0,0,0,0,0,0,0,0,0,0,0,0,0,0,0,0,0,0,0,0,0,0,0,0,0,0,0,0,0,0,0,0,0,0],"id":14,"left_children":[1,3,5,7,9,11,13,15,17,19,21,23,25,27,29,31,33,35,-1,37,39,41,43,45,47,49,51,53,55,57,59,-1,-1,-1,-1,-1,-1,-1,-1,-1,-1,-1,-1,-1,-1,-1,-1,-1,-1,-1,-1,-1,-1,-1,-1,-1,-1,-1,-1,-1,-1],"loss_changes":[6.6753047E3,1.2138281E2,1.01472156E3,6.2492188E1,1.6697363E2,9.612772E2,3.188446E2,2.3855469E2,1.24921875E1,7.936865E1,9.2813095E1,2.260943E2,2.7581506E2,2.0561212E2,1.4862061E1,1.6446191E2,4.6524048E-2,4.2421875E0,0E0,4.9990234E1,1.7613097E2,2.310286E1,2.2742104E1,1.8216077E2,2.2087518E2,8.4004456E1,1.0496499E2,6.1617874E1,4.787622E1,2.106079E0,1.7933533E1,0E0,0E0,0E0,0E0,0E0,0E0,0E0,0E0,0E0,0E0,0E0,0E0,0E0,0E0,0E0,0E0,0E0,0E0,0E0,0E0,0E0,0E0,0E0,0E0,0E0,0E0,0E0,0E0,0E0,0E0],"parents":[2147483647,0,0,1,1,2,2,3,3,4,4,5,5,6,6,7,7,8,8,9,9,10,10,11,11,12,12,13,13,14,14,15,15,16,16,17,17,19,19,20,20,21,21,22,22,23,23,24,24,25,25,26,26,27,27,28,28,29,29,30,30],"right_children":[2,4,6,8,10,12,14,16,18,20,22,24,26,28,30,32,34,36,-1,38,40,42,44,46,48,50,52,54,56,58,60,-1,-1,-1,-1,-1,-1,-1,-1,-1,-1,-1,-1,-1,-1,-1,-1,-1,-1,-1,-1,-1,-1,-1,-1,-1,-1,-1,-1,-1,-1],"split_conditions":[1.6227789E0,1.3456979E0,1.3456979E0,-1.2920247E0,1.4860421E0,-1.2920247E0,2.3845756E-1,9E0,5E1,8.27E2,1E1,1.810172E-1,2.3511784E0,2.3511784E0,1.1E1,-2.3941912E-1,9.01E2,9.01E2,6.774648E-2,9.01E2,8.81E2,2E0,1.3E1,1E0,2E0,8.9E2,1.3723257E-1,4E0,3E0,2.3511784E0,1.2E1,-3.69015E-2,-5.2499194E-2,1.4812234E-1,6.320117E-2,-5.2829344E-2,-4.429792E-2,-4.673459E-2,3.3466462E-2,3.9735013E-1,-4.68891E-3,5.953003E-2,-4.1289356E-2,2.924318E-2,9.6556745E-2,1.684535E-2,9.0389125E-2,5.9650052E-2,-1.0965261E-2,-3.729232E-2,8.683164E-2,-9.7417375E-3,3.5039045E-2,4.7836725E-2,-1.1301054E-2,9.40774E-2,4.819399E-2,9.814254E-2,8.5696556E-2,-1.0252264E-2,7.1441E-2],"split_indices":[2,15,15,15,2,15,14,1,6,5,1,14,2,2,1,2,4,4,0,4,7,1,1,1,1,7,14,1,1,2,1,0,0,0,0,0,0,0,0,0,0,0,0,0,0,0,0,0,0,0,0,0,0,0,0,0,0,0,0,0,0],"split_type":[0,0,0,0,0,0,0,0,0,0,0,0,0,0,0,0,0,0,0,0,0,0,0,0,0,0,0,0,0,0,0,0,0,0,0,0,0,0,0,0,0,0,0,0,0,0,0,0,0,0,0,0,0,0,0,0,0,0,0,0,0],"sum_hessian":[7.183556E4,6.809296E4,3.7426045E3,6.0900977E4,7.1919805E3,2.584079E3,1.1585254E3,9.074976E3,5.1826E4,7.088566E3,1.0341454E2,8.6784705E2,1.7162322E3,6.6277106E2,4.957543E2,9.059259E3,1.5717287E1,5.182466E4,1.341197E0,7.053656E3,3.4909916E1,5.1624504E1,5.1790043E1,4.128001E2,4.5504697E2,1.1580269E3,5.582053E2,2.764808E2,3.8629025E2,4.5810303E2,3.7651287E1,2.265764E3,6.7934946E3,1.3535128E1,2.18216E0,5.164089E4,1.8377034E2,7.034834E3,1.8821556E1,1.9676684E0,3.294225E1,5.571446E0,4.605306E1,2.5644125E1,2.6145916E1,1.1852947E2,2.9427063E2,1.8776215E2,2.6728482E2,1.1451464E3,1.2880487E1,3.507728E2,2.0743254E2,5.3850677E1,2.2263013E2,7.057404E1,3.1571622E2,1.1138246E2,3.4672055E2,8.334281E0,2.9317005E1],"tree_param":{"num_deleted":"0","num_feature":"19","num_nodes":"61","size_leaf_vector":"1"}},{"base_weights":[-9.4990414E-1,-1.0228415E0,3.2939616E-1,-1.0380173E0,-8.949875E-1,-5.0323997E-3,1.0676597E0,-9.577688E-1,-1.052106E0,-9.1382414E-1,3.347385E-1,8.0716807E-1,-4.2512158E-1,6.054655E-1,1.626221E0,-9.6473455E-1,1.2998387E-1,-1.0521971E0,6.544806E-2,-9.215006E-1,5.4027194E-1,-5.752372E-1,1.181128E0,6.603001E-1,2.4913208E0,-7.0256644E-1,1.3101739E-1,-2.6481982E-2,1.0566564E0,1.6733872E0,1.0445162E0,-3.6233276E-2,-5.2290082E-2,-5.264466E-2,-4.4638574E-2,-4.1210305E-2,-5.0075926E-2,3.1819755E-1,-4.477767E-3,5.5403452E-2,-4.062145E-2,1.7037846E-1,4.8388455E-2,5.5130042E-2,1.9194167E-3,1.2571363E-1,2.3615938E-2,-1.77523E-2,-4.607717E-2,4.9294785E-2,-3.7641246E-3,4.379515E-2,-1.2771669E-2,2.8755654E-2,6.614029E-2,5.318541E-2,8.545068E-2,-1.1497664E-2,7.026992E-2],"categories":[],"categories_nodes":[],"categories_segments":[],"categories_sizes":[],"default_left":[0,0,0,0,0,0,0,0,0,0,0,0,0,0,0,0,0,0,0,0,0,0,0,0,0,0,0,0,0,0,0,0,0,0,0,0,0,0,0,0,0,0,0,0,0,0,0,0,0,0,0,0,0,0,0,0,0,0,0],"id":15,"left_children":[1,3,5,7,9,11,13,15,17,19,21,23,25,27,29,31,-1,33,-1,35,37,39,41,43,45,47,49,51,53,55,57,-1,-1,-1,-1,-1,-1,-1,-1,-1,-1,-1,-1,-1,-1,-1,-1,-1,-1,-1,-1,-1,-1,-1,-1,-1,-1,-1,-1],"loss_changes":[6.4193164E3,1.2534375E2,9.163176E2,6.476172E1,1.6043018E2,8.7218744E2,2.9772815E2,2.1806201E2,1.2015625E1,7.649902E1,8.156574E1,2.1390271E2,2.600562E2,1.8101212E2,1.2610352E1,1.6821631E2,0E0,4.546875E0,0E0,5.190576E1,1.3403082E2,2.1375324E1,2.2704964E1,2.2081216E2,2.034851E0,8.522424E1,9.912012E1,5.5052708E1,4.6705536E1,8.6604E0,1.9599434E1,0E0,0E0,0E0,0E0,0E0,0E0,0E0,0E0,0E0,0E0,0E0,0E0,0E0,0E0,0E0,0E0,0E0,0E0,0E0,0E0,0E0,0E0,0E0,0E0,0E0,0E0,0E0,0E0],"parents":[2147483647,0,0,1,1,2,2,3,3,4,4,5,5,6,6,7,7,8,8,9,9,10,10,11,11,12,12,13,13,14,14,15,15,17,17,19,19,20,20,21,21,22,22,23,23,24,24,25,25,26,26,27,27,28,28,29,29,30,30],"right_children":[2,4,6,8,10,12,14,16,18,20,22,24,26,28,30,32,-1,34,-1,36,38,40,42,44,46,48,50,52,54,56,58,-1,-1,-1,-1,-1,-1,-1,-1,-1,-1,-1,-1,-1,-1,-1,-1,-1,-1,-1,-1,-1,-1,-1,-1,-1,-1,-1,-1],"split_conditions":[1.6227789E0,1.3456979E0,1.3456979E0,-1.2920247E0,1.4860421E0,-1.2920247E0,1.3723257E-1,9E0,5E1,8.27E2,1E1,8E0,2.3511784E0,2.3511784E0,1.1E1,-2.3941912E-1,1.2998387E-1,1.5427313E0,6.544806E-2,-2.2018518E-1,8.81E2,2E0,3.35E2,4E0,2.24887E0,1.8304965E0,3E0,4E0,1E0,2.3845756E-1,1.2E1,-3.6233276E-2,-5.2290082E-2,-5.264466E-2,-4.4638574E-2,-4.1210305E-2,-5.0075926E-2,3.1819755E-1,-4.477767E-3,5.5403452E-2,-4.062145E-2,1.7037846E-1,4.8388455E-2,5.5130042E-2,1.9194167E-3,1.2571363E-1,2.3615938E-2,-1.77523E-2,-4.607717E-2,4.9294785E-2,-3.7641246E-3,4.379515E-2,-1.2771669E-2,2.8755654E-2,6.614029E-2,5.318541E-2,8.545068E-2,-1.1497664E-2,7.026992E-2],"split_indices":[2,15,15,15,2,15,14,1,6,5,1,1,2,2,1,2,0,2,0,2,7,1,0,1,14,2,1,1,3,14,1,0,0,0,0,0,0,0,0,0,0,0,0,0,0,0,0,0,0,0,0,0,0,0,0,0,0,0,0],"split_type":[0,0,0,0,0,0,0,0,0,0,0,0,0,0,0,0,0,0,0,0,0,0,0,0,0,0,0,0,0,0,0,0,0,0,0,0,0,0,0,0,0,0,0,0,0,0,0,0,0,0,0,0,0,0,0,0,0,0,0],"sum_hessian":[6.879183E4,6.5081508E4,3.7103223E3,5.8169848E4,6.911659E3,2.5542546E3,1.1560674E3,8.697662E3,4.9472188E4,6.807638E3,1.0402072E2,8.704347E2,1.6838201E3,6.3374475E2,5.2232263E2,8.681393E3,1.6269953E1,4.9470832E4,1.3536657E0,6.7722524E3,3.538607E1,5.02818E1,5.3738922E1,8.0189667E2,6.8538025E1,1.1232122E3,5.606079E2,2.6438412E2,3.6936063E2,4.8141168E2,4.0910976E1,2.1940256E3,6.487367E3,4.925022E4,2.206153E2,3.061293E3,3.7109595E3,2.5649602E0,3.282111E1,5.7566056E0,4.4525192E1,3.390225E0,5.0348698E1,4.6816614E2,3.3373053E2,6.75251E1,1.0129228E0,4.3518567E2,6.880265E2,1.08251144E2,4.5235675E2,5.2932236E1,2.1145189E2,1.3260306E2,2.3675757E2,2.8281647E1,4.5313004E2,9.108115E0,3.180286E1],"tree_param":{"num_deleted":"0","num_feature":"19","num_nodes":"59","size_leaf_vector":"1"}},{"base_weights":[-9.434444E-1,-1.0179312E0,3.1541726E-1,-1.0337627E0,-8.8541347E-1,-5.1394957E-3,1.0193236E0,-9.503804E-1,-1.0484632E0,-9.046867E-1,3.1789133E-1,7.612613E-1,-4.1197252E-1,5.9824854E-1,1.595367E0,-9.574197E-1,1.21176206E-1,-1.0485569E0,6.331083E-2,-9.1357404E-1,4.125945E-1,-1.9361697E-1,1.6525985E0,1.2590338E0,3.07829E-1,-6.8824637E-1,1.24059685E-1,5.68886E-3,1.0147915E0,1.6711854E0,1.1092563E0,-3.55616E-2,-5.208833E-2,-5.2464396E-2,-4.4124585E-2,-4.5832068E-2,9.700843E-2,1.06967025E-1,8.24821E-4,-2.819711E-2,3.7123207E-2,1.1389903E-1,-1.6395723E-2,1.2846901E-2,8.3561294E-2,5.2636612E-2,-1.1468208E-2,-1.3804456E-3,-4.032853E-2,3.1390134E-3,1.4752941E-1,2.604242E-2,-1.901286E-2,8.7305434E-2,4.249689E-2,5.181676E-2,8.479398E-2,9.815752E-2,3.5876088E-2],"categories":[],"categories_nodes":[],"categories_segments":[],"categories_sizes":[],"default_left":[0,0,0,0,0,0,0,0,0,0,0,0,0,0,0,0,0,0,0,0,0,0,0,0,0,0,0,0,0,0,0,0,0,0,0,0,0,0,0,0,0,0,0,0,0,0,0,0,0,0,0,0,0,0,0,0,0,0,0],"id":16,"left_children":[1,3,5,7,9,11,13,15,17,19,21,23,25,27,29,31,-1,33,-1,35,37,39,41,43,45,47,49,51,53,55,57,-1,-1,-1,-1,-1,-1,-1,-1,-1,-1,-1,-1,-1,-1,-1,-1,-1,-1,-1,-1,-1,-1,-1,-1,-1,-1,-1,-1],"loss_changes":[6.177801E3,1.2957812E2,8.3062006E2,6.710547E1,1.543916E2,7.892489E2,2.784319E2,2.0033398E2,1.15625E1,7.69458E1,7.234065E1,1.9772775E2,2.4495883E2,1.646336E2,1.6051392E1,1.7204053E2,0E0,4.8085938E0,0E0,5.864746E1,3.0413849E1,2.716642E1,3.7077156E1,1.7226807E2,1.8457799E2,8.528375E1,9.7370544E1,5.514176E1,4.573712E1,4.800049E0,2.1512024E1,0E0,0E0,0E0,0E0,0E0,0E0,0E0,0E0,0E0,0E0,0E0,0E0,0E0,0E0,0E0,0E0,0E0,0E0,0E0,0E0,0E0,0E0,0E0,0E0,0E0,0E0,0E0,0E0],"parents":[2147483647,0,0,1,1,2,2,3,3,4,4,5,5,6,6,7,7,8,8,9,9,10,10,11,11,12,12,13,13,14,14,15,15,17,17,19,19,20,20,21,21,22,22,23,23,24,24,25,25,26,26,27,27,28,28,29,29,30,30],"right_children":[2,4,6,8,10,12,14,16,18,20,22,24,26,28,30,32,-1,34,-1,36,38,40,42,44,46,48,50,52,54,56,58,-1,-1,-1,-1,-1,-1,-1,-1,-1,-1,-1,-1,-1,-1,-1,-1,-1,-1,-1,-1,-1,-1,-1,-1,-1,-1,-1,-1],"split_conditions":[1.6227789E0,1.3456979E0,1.3456979E0,-1.2920247E0,1.4860421E0,-1.2920247E0,2.3845756E-1,9E0,5E1,9.01E2,1.3E1,1.810172E-1,2.3511784E0,2.3511784E0,9E0,-2.3941912E-1,1.21176206E-1,1.5427313E0,6.331083E-2,8.9E2,8.64E2,1.3723257E-1,1E0,1E0,2E0,2E0,1.2E1,1.8304965E0,3E0,1.7144749E0,3.47E2,-3.55616E-2,-5.208833E-2,-5.2464396E-2,-4.4124585E-2,-4.5832068E-2,9.700843E-2,1.06967025E-1,8.24821E-4,-2.819711E-2,3.7123207E-2,1.1389903E-1,-1.6395723E-2,1.2846901E-2,8.3561294E-2,5.2636612E-2,-1.1468208E-2,-1.3804456E-3,-4.032853E-2,3.1390134E-3,1.4752941E-1,2.604242E-2,-1.901286E-2,8.7305434E-2,4.249689E-2,5.181676E-2,8.479398E-2,9.815752E-2,3.5876088E-2],"split_indices":[2,15,15,15,2,15,14,1,6,4,1,14,2,2,1,2,0,2,0,7,7,14,3,1,1,1,1,2,1,2,0,0,0,0,0,0,0,0,0,0,0,0,0,0,0,0,0,0,0,0,0,0,0,0,0,0,0,0,0],"split_type":[0,0,0,0,0,0,0,0,0,0,0,0,0,0,0,0,0,0,0,0,0,0,0,0,0,0,0,0,0,0,0,0,0,0,0,0,0,0,0,0,0,0,0,0,0,0,0,0,0,0,0,0,0,0,0,0,0,0,0],"sum_hessian":[6.587909E4,6.2198977E4,3.6801191E3,5.5555152E4,6.6438237E3,2.529284E3,1.1508353E3,8.336385E3,4.7218766E4,6.539332E3,1.0449176E2,8.767577E2,1.6525262E3,6.6602466E2,4.848107E2,8.319743E3,1.6642172E1,4.7217402E4,1.3629009E0,6.495813E3,4.351884E1,7.6159584E1,2.8332182E1,4.1709702E2,4.5966068E2,1.0902972E3,5.62229E2,2.7534372E2,3.906809E2,4.172886E2,6.7522095E1,2.1254656E3,6.1942773E3,4.7005152E4,2.1225024E2,6.4895166E3,6.296507E0,7.298929E0,3.6219913E1,5.4855587E1,2.1303997E1,2.1418663E1,6.9135194E0,1.22035446E2,2.9506155E2,1.9219383E2,2.6746683E2,1.6580336E2,9.2449384E2,5.51299E2,1.0930006E1,1.1778078E2,1.5756296E2,7.010261E1,3.2057828E2,1.7232456E1,4.0005615E2,1.9973305E1,4.754879E1],"tree_param":{"num_deleted":"0","num_feature":"19","num_nodes":"59","size_leaf_vector":"1"}},{"base_weights":[-9.3712175E-1,-1.0131302E0,3.0266622E-1,-1.0296276E0,-8.7594473E-1,-1.0013684E-1,8.176655E-1,-9.429879E-1,-1.0449696E0,-8.974024E-1,2.0617642E-1,6.561602E-1,-4.8787943E-1,4.4176617E-1,1.203731E0,-6.825799E-1,-1.0339432E0,-1.0450658E0,6.1318796E-2,-9.0652514E-1,3.9611638E-1,-2.910715E-1,1.561113E0,-7.6153326E-1,1.445135E0,-9.158888E-1,1.3623814E-1,1.1275088E0,4.5930628E-2,8.8468564E-1,1.5451726E0,-4.867195E-2,-3.1212752E-3,-5.2342266E-2,2.4379974E-2,-5.22875E-2,-4.2473596E-2,-4.004124E-2,-4.9728513E-2,1.7706108E-1,9.063515E-3,-3.0533427E-2,2.4078233E-2,1.10455036E-1,-2.1126276E-2,-5.5868823E-2,1.0244372E-2,9.094522E-2,2.1366682E-2,-3.497264E-2,-5.080935E-2,7.917424E-2,-3.218046E-2,6.307218E-2,-2.5607917E-2,-2.074819E-3,9.2638545E-2,5.83748E-2,1.7646415E-2,7.9644345E-2,4.0979173E-2],"categories":[],"categories_nodes":[],"categories_segments":[],"categories_sizes":[],"default_left":[0,0,0,0,0,0,0,0,0,0,0,0,0,0,0,0,0,0,0,0,0,0,0,0,0,0,0,0,0,0,0,0,0,0,0,0,0,0,0,0,0,0,0,0,0,0,0,0,0,0,0,0,0,0,0,0,0,0,0,0,0],"id":17,"left_children":[1,3,5,7,9,11,13,15,17,19,21,23,25,27,29,31,33,35,-1,37,39,41,43,45,47,49,51,53,55,57,59,-1,-1,-1,-1,-1,-1,-1,-1,-1,-1,-1,-1,-1,-1,-1,-1,-1,-1,-1,-1,-1,-1,-1,-1,-1,-1,-1,-1,-1,-1],"loss_changes":[5.945008E3,1.33625E2,7.5619183E2,6.953516E1,1.485E2,6.003433E2,2.3163025E2,1.885791E2,1.11328125E1,7.427002E1,8.467759E1,7.7725305E2,3.6160724E2,2.203963E2,8.4543335E1,3.73625E2,1.1674658E2,5.140625E0,0E0,5.708789E1,2.9467865E1,2.3083672E1,4.427318E1,8.577449E1,1.6894922E2,1.6717712E1,6.2330676E2,6.5910126E1,8.158059E1,6.125064E1,1.1836853E1,0E0,0E0,0E0,0E0,0E0,0E0,0E0,0E0,0E0,0E0,0E0,0E0,0E0,0E0,0E0,0E0,0E0,0E0,0E0,0E0,0E0,0E0,0E0,0E0,0E0,0E0,0E0,0E0,0E0,0E0],"parents":[2147483647,0,0,1,1,2,2,3,3,4,4,5,5,6,6,7,7,8,8,9,9,10,10,11,11,12,12,13,13,14,14,15,15,16,16,17,17,19,19,20,20,21,21,22,22,23,23,24,24,25,25,26,26,27,27,28,28,29,29,30,30],"right_children":[2,4,6,8,10,12,14,16,18,20,22,24,26,28,30,32,34,36,-1,38,40,42,44,46,48,50,52,54,56,58,60,-1,-1,-1,-1,-1,-1,-1,-1,-1,-1,-1,-1,-1,-1,-1,-1,-1,-1,-1,-1,-1,-1,-1,-1,-1,-1,-1,-1,-1,-1],"split_conditions":[1.6227789E0,1.3456979E0,2.3511784E0,-1.2920247E0,1.4463857E0,4E0,1.2021978E0,-2.3941912E-1,5E1,9.01E2,1.3E1,1E0,8E0,-1.2920247E0,1.3723257E-1,-1.0204487E0,1.5427313E0,9.01E2,6.1318796E-2,-2.2018518E-1,-9.103495E-1,1.3723257E-1,1E0,2.1227863E0,2E0,6E0,1.1E1,1.6170261E0,8.81E2,7E0,9E0,-4.867195E-2,-3.1212752E-3,-5.2342266E-2,2.4379974E-2,-5.22875E-2,-4.2473596E-2,-4.004124E-2,-4.9728513E-2,1.7706108E-1,9.063515E-3,-3.0533427E-2,2.4078233E-2,1.10455036E-1,-2.1126276E-2,-5.5868823E-2,1.0244372E-2,9.094522E-2,2.1366682E-2,-3.497264E-2,-5.080935E-2,7.917424E-2,-3.218046E-2,6.307218E-2,-2.5607917E-2,-2.074819E-3,9.2638545E-2,5.83748E-2,1.7646415E-2,7.9644345E-2,4.0979173E-2],"split_indices":[2,15,2,15,2,1,15,2,6,4,1,1,1,15,14,2,2,4,0,2,14,14,3,2,1,1,1,14,7,1,1,0,0,0,0,0,0,0,0,0,0,0,0,0,0,0,0,0,0,0,0,0,0,0,0,0,0,0,0,0,0],"split_type":[0,0,0,0,0,0,0,0,0,0,0,0,0,0,0,0,0,0,0,0,0,0,0,0,0,0,0,0,0,0,0,0,0,0,0,0,0,0,0,0,0,0,0,0,0,0,0,0,0,0,0,0,0,0,0,0,0,0,0,0,0],"sum_hessian":[6.308322E4,5.943932E4,3.6438994E3,5.305289E4,6.3864287E3,2.045125E3,1.5987745E3,7.99063E3,4.506226E4,6.26242E3,1.2400856E2,6.9290753E2,1.3522175E3,8.1113904E2,7.876355E2,2.070686E3,5.9199443E3,4.506089E4,1.369132E0,6.21886E3,4.3559982E1,9.129091E1,3.2717655E1,2.4775543E2,4.451521E2,8.0185284E2,5.503647E2,2.9618384E2,5.1495514E2,4.0902805E2,3.7860742E2,1.4091906E3,6.6149536E2,5.870476E3,4.9467903E1,4.4899484E4,1.6140797E2,2.8306697E3,3.3881904E3,1.795358E0,4.1764626E1,6.472668E1,2.6564232E1,2.4575882E1,8.141772E0,1.8096616E2,6.6789276E1,3.2501065E2,1.2014145E2,2.5644266E2,5.4541016E2,1.9235684E2,3.5800784E2,2.7403058E2,2.2153286E1,4.9212015E2,2.283503E1,2.6623685E2,1.4279118E2,3.5412515E2,2.448228E1],"tree_param":{"num_deleted":"0","num_feature":"19","num_nodes":"61","size_leaf_vector":"1"}},{"base_weights":[-9.309521E-1,-1.008361E0,2.9099655E-1,-1.0255682E0,-8.6626977E-1,-8.270417E-3,9.4250596E-1,-9.3539685E-1,-1.0416135E0,-8.882095E-1,1.9542977E-1,6.9597805E-1,-3.9097998E-1,5.473086E-1,1.4997259E0,-6.688981E-1,-1.0300127E0,-1.0417124E0,5.945776E-2,-8.9669263E-1,5.360004E-1,-4.6605003E-1,1.0998797E0,5.596048E-1,2.2066507E0,-6.6569114E-1,1.1142594E-1,1.5136116E-2,9.123141E-1,1.578484E0,1.0170265E0,-4.832275E-2,-2.973738E-3,-5.2173078E-2,2.273221E-2,-5.2126106E-2,-4.2982437E-2,-3.940944E-2,-4.9398318E-2,2.742291E-1,-4.571767E-3,4.476508E-2,-3.0547762E-2,7.52302E-2,-9.356922E-5,5.361357E-2,4.8847217E-3,1.11335754E-1,2.1345293E-2,-1.573216E-2,-4.4859648E-2,-1.0005943E-2,3.1011317E-2,2.4001434E-2,-1.7434279E-2,6.461809E-2,3.0145371E-2,4.7221262E-2,8.017635E-2,9.296555E-2,3.2132965E-2],"categories":[],"categories_nodes":[],"categories_segments":[],"categories_sizes":[],"default_left":[0,0,0,0,0,0,0,0,0,0,0,0,0,0,0,0,0,0,0,0,0,0,0,0,0,0,0,0,0,0,0,0,0,0,0,0,0,0,0,0,0,0,0,0,0,0,0,0,0,0,0,0,0,0,0,0,0,0,0,0,0],"id":18,"left_children":[1,3,5,7,9,11,13,15,17,19,21,23,25,27,29,31,33,35,-1,37,39,41,43,45,47,49,51,53,55,57,59,-1,-1,-1,-1,-1,-1,-1,-1,-1,-1,-1,-1,-1,-1,-1,-1,-1,-1,-1,-1,-1,-1,-1,-1,-1,-1,-1,-1,-1,-1],"loss_changes":[5.7136484E3,1.38E2,7.0175916E2,7.232031E1,1.4324854E2,6.652632E2,2.4865485E2,1.9253076E2,1.0722656E1,7.319043E1,7.540409E1,1.778078E2,2.2079268E2,1.2903954E2,1.6243774E1,3.6454254E2,1.1335254E2,5.4453125E0,0E0,5.8472656E1,1.1308467E2,1.4948129E1,2.3714157E1,1.889744E2,1.606842E0,8.3752106E1,8.987176E1,4.605654E1,4.5559174E1,4.86615E0,2.0458801E1,0E0,0E0,0E0,0E0,0E0,0E0,0E0,0E0,0E0,0E0,0E0,0E0,0E0,0E0,0E0,0E0,0E0,0E0,0E0,0E0,0E0,0E0,0E0,0E0,0E0,0E0,0E0,0E0,0E0,0E0],"parents":[2147483647,0,0,1,1,2,2,3,3,4,4,5,5,6,6,7,7,8,8,9,9,10,10,11,11,12,12,13,13,14,14,15,15,16,16,17,17,19,19,20,20,21,21,22,22,23,23,24,24,25,25,26,26,27,27,28,28,29,29,30,30],"right_children":[2,4,6,8,10,12,14,16,18,20,22,24,26,28,30,32,34,36,-1,38,40,42,44,46,48,50,52,54,56,58,60,-1,-1,-1,-1,-1,-1,-1,-1,-1,-1,-1,-1,-1,-1,-1,-1,-1,-1,-1,-1,-1,-1,-1,-1,-1,-1,-1,-1,-1,-1],"split_conditions":[1.6227789E0,1.3456979E0,1.3456979E0,-1.2920247E0,1.4463857E0,-1.2920247E0,2.3845756E-1,-2.3941912E-1,5E1,8.27E2,1.2E1,8E0,2.3511784E0,2.3511784E0,9E0,-1.0204487E0,1.5427313E0,1.5427313E0,5.945776E-2,-2.2018518E-1,8.27E2,2E0,2.958979E-1,1.810172E-1,2.24887E0,1.8304965E0,1.3723257E-1,1.8304965E0,-1.17034994E-1,1.7144749E0,3.47E2,-4.832275E-2,-2.973738E-3,-5.2173078E-2,2.273221E-2,-5.2126106E-2,-4.2982437E-2,-3.940944E-2,-4.9398318E-2,2.742291E-1,-4.571767E-3,4.476508E-2,-3.0547762E-2,7.52302E-2,-9.356922E-5,5.361357E-2,4.8847217E-3,1.11335754E-1,2.1345293E-2,-1.573216E-2,-4.4859648E-2,-1.0005943E-2,3.1011317E-2,2.4001434E-2,-1.7434279E-2,6.461809E-2,3.0145371E-2,4.7221262E-2,8.017635E-2,9.296555E-2,3.2132965E-2],"split_indices":[2,15,15,15,2,15,14,2,6,5,1,1,2,2,1,2,2,2,0,2,4,1,14,14,14,2,14,2,10,2,0,0,0,0,0,0,0,0,0,0,0,0,0,0,0,0,0,0,0,0,0,0,0,0,0,0,0,0,0,0,0],"split_type":[0,0,0,0,0,0,0,0,0,0,0,0,0,0,0,0,0,0,0,0,0,0,0,0,0,0,0,0,0,0,0,0,0,0,0,0,0,0,0,0,0,0,0,0,0,0,0,0,0,0,0,0,0,0,0,0,0,0,0,0,0],"sum_hessian":[6.0400527E4,5.6802348E4,3.5981816E3,5.066105E4,6.1412954E3,2.4662922E3,1.1318894E3,7.661882E3,4.2999168E4,6.0171167E3,1.2417897E2,8.6807434E2,1.598218E3,6.633814E2,4.6850803E2,2.009609E3,5.652273E3,4.2997797E4,1.372587E0,5.981857E3,3.5259644E1,7.200327E1,5.2175697E1,7.974559E2,7.061845E1,1.0330372E3,5.651808E2,2.7031198E2,3.930694E2,4.0083664E2,6.7671364E1,1.3499143E3,6.5969464E2,5.6018257E3,5.0447235E1,4.28027E4,1.9509747E2,2.7373728E3,3.2444844E3,3.0964777E0,3.2163162E1,6.4286885E0,6.5574585E1,3.7890945E1,1.4284752E1,3.7733582E2,4.2012006E2,6.958285E1,1.0355961E0,4.1146042E2,6.2157684E2,3.5091675E2,2.14264E2,1.18532E2,1.5178E2,1.749722E2,2.1809721E2,1.670089E1,3.8413577E2,1.960216E1,4.8069206E1],"tree_param":{"num_deleted":"0","num_feature":"19","num_nodes":"61","size_leaf_vector":"1"}},{"base_weights":[-9.245891E-1,-1.0072988E0,2.2705352E-1,-1.0238105E0,-8.709531E-1,-1.3284971E-1,7.4470913E-1,-9.3734837E-1,-1.0392343E0,-8.8079345E-1,4.2185357E-1,5.33934E-1,-4.7381002E-1,3.996552E-1,1.1069674E0,-6.5520024E-1,-1.0402075E0,-1.0393363E0,5.7715174E-2,-8.843661E-1,9.686489E-2,1.0863696E0,-5.723298E-1,-7.8999674E-1,1.2511008E0,-9.1373855E-1,1.2097791E-1,1.0249357E0,3.74544E-2,8.116292E-1,1.4776734E0,-4.2744722E-2,1.2848756E-2,-5.2143414E-2,9.230854E-2,-5.200074E-2,-4.232401E-2,-4.441559E-2,6.1151505E-2,1.15208164E-1,-3.95918E-2,-4.3882057E-2,1.0652953E-1,-5.5418998E-2,9.40832E-3,8.796584E-2,5.056183E-3,-3.545066E-2,-5.0693996E-2,1.215018E-1,-1.3996809E-2,6.818801E-2,2.1525947E-2,-4.5988676E-3,5.736642E-2,8.2445435E-2,3.1532984E-2,7.648405E-2,3.5802808E-2],"categories":[],"categories_nodes":[],"categories_segments":[],"categories_sizes":[],"default_left":[0,0,0,0,0,0,0,0,0,0,0,0,0,0,0,0,0,0,0,0,0,0,0,0,0,0,0,0,0,0,0,0,0,0,0,0,0,0,0,0,0,0,0,0,0,0,0,0,0,0,0,0,0,0,0,0,0,0,0],"id":19,"left_children":[1,3,5,7,9,11,13,15,17,19,21,23,25,27,29,31,33,35,-1,37,-1,39,41,43,45,47,49,51,53,55,57,-1,-1,-1,-1,-1,-1,-1,-1,-1,-1,-1,-1,-1,-1,-1,-1,-1,-1,-1,-1,-1,-1,-1,-1,-1,-1,-1,-1],"loss_changes":[5.510258E3,1.2061328E2,7.2239514E2,6.321875E1,7.462305E1,5.203726E2,1.9832483E2,2.1109033E2,1.0339844E1,6.0036133E1,3.0196955E1,7.3637744E2,3.9633878E2,1.8476279E2,8.3669495E1,3.5582446E2,4.298291E1,4.4648438E0,0E0,4.919922E1,0E0,6.398587E1,1.7210651E1,8.515138E1,2.936582E2,1.7128967E1,5.9750024E2,5.9684296E1,7.4478035E1,6.466971E1,1.2471436E1,0E0,0E0,0E0,0E0,0E0,0E0,0E0,0E0,0E0,0E0,0E0,0E0,0E0,0E0,0E0,0E0,0E0,0E0,0E0,0E0,0E0,0E0,0E0,0E0,0E0,0E0,0E0,0E0],"parents":[2147483647,0,0,1,1,2,2,3,3,4,4,5,5,6,6,7,7,8,8,9,9,10,10,11,11,12,12,13,13,14,14,15,15,16,16,17,17,19,19,21,21,22,22,23,23,24,24,25,25,26,26,27,27,28,28,29,29,30,30],"right_children":[2,4,6,8,10,12,14,16,18,20,22,24,26,28,30,32,34,36,-1,38,-1,40,42,44,46,48,50,52,54,56,58,-1,-1,-1,-1,-1,-1,-1,-1,-1,-1,-1,-1,-1,-1,-1,-1,-1,-1,-1,-1,-1,-1,-1,-1,-1,-1,-1,-1],"split_conditions":[1.5427313E0,1.3456979E0,2.3511784E0,-1.2920247E0,9.01E2,4E0,1.2021978E0,-2.3941912E-1,5E1,8.9E2,1.1427239E0,1E0,8E0,-1.2920247E0,2.3845756E-1,-8.807672E-1,9E0,8.9E2,5.7715174E-2,8.27E2,9.686489E-2,1.938785E0,9.551713E-3,2.1227863E0,2E0,6E0,3.42E2,2.3845756E-1,7.44E2,3E0,9E0,-4.2744722E-2,1.2848756E-2,-5.2143414E-2,9.230854E-2,-5.200074E-2,-4.232401E-2,-4.441559E-2,6.1151505E-2,1.15208164E-1,-3.95918E-2,-4.3882057E-2,1.0652953E-1,-5.5418998E-2,9.40832E-3,8.796584E-2,5.056183E-3,-3.545066E-2,-5.0693996E-2,1.215018E-1,-1.3996809E-2,6.818801E-2,2.1525947E-2,-4.5988676E-3,5.736642E-2,8.2445435E-2,3.1532984E-2,7.648405E-2,3.5802808E-2],"split_indices":[2,15,2,15,4,1,15,2,6,7,8,1,1,15,14,2,1,7,0,5,0,10,10,2,1,1,0,14,5,1,1,0,0,0,0,0,0,0,0,0,0,0,0,0,0,0,0,0,0,0,0,0,0,0,0,0,0,0,0],"split_type":[0,0,0,0,0,0,0,0,0,0,0,0,0,0,0,0,0,0,0,0,0,0,0,0,0,0,0,0,0,0,0,0,0,0,0,0,0,0,0,0,0,0,0,0,0,0,0,0,0,0,0,0,0,0,0,0,0,0,0],"sum_hessian":[5.784584E4,5.3969906E4,3.875936E3,4.8134285E4,5.8356177E3,2.286781E3,1.589155E3,7.2960713E3,4.0838215E4,5.791851E3,4.3766758E1,7.7351843E2,1.5132625E3,8.149816E2,7.741734E2,1.9511975E3,5.3448735E3,4.0836844E4,1.3734872E0,5.785203E3,6.6480827E0,2.6177134E1,1.7589624E1,2.7175034E2,5.0176813E2,8.695632E2,6.436993E2,2.9825803E2,5.167236E2,4.326636E2,3.4150983E2,1.6008097E3,3.5038785E2,5.340589E3,4.284586E0,4.0689324E4,1.4751585E2,5.774969E3,1.0234056E1,1.5742924E1,1.0434209E1,1.641118E1,1.1784443E0,2.049182E2,6.683213E1,3.4761484E2,1.5415327E2,2.882847E2,5.8127844E2,9.448029E1,5.49219E2,1.8914749E2,1.0911054E2,4.635789E2,5.314471E1,7.545403E1,3.5720956E2,3.187363E2,2.2773533E1],"tree_param":{"num_deleted":"0","num_feature":"19","num_nodes":"59","size_leaf_vector":"1"}},{"base_weights":[-9.185053E-1,-1.0028034E0,2.1862172E-1,-1.0200336E0,-8.615158E-1,-6.100755E-2,8.446538E-1,-9.300412E-1,-1.0361652E0,-8.715289E-1,4.0191516E-1,6.253448E-1,-4.2162514E-1,4.6479884E-1,1.3601648E0,-6.414511E-1,-1.0371789E0,-1.03627E0,5.60799E-2,-8.751265E-1,9.2071824E-2,1.0123842E0,-5.5630606E-1,-2.1171583E-1,8.585313E-1,-6.756138E-1,9.942703E-2,3.9576676E-2,8.1079876E-1,1.4763722E0,9.076406E-1,-4.7660213E-2,-2.2219853E-3,-5.1994592E-2,8.8236436E-2,-5.184908E-2,-4.179789E-2,-3.8480055E-2,-4.815055E-2,1.041927E-1,-3.893481E-2,-4.3206166E-2,1.0177181E-1,-4.70377E-2,2.9151743E-2,8.246061E-2,1.5408294E-2,-3.5348248E-2,8.6056106E-2,4.3369673E-2,-4.564549E-3,-7.348531E-3,6.8582855E-2,1.7275328E-2,5.446563E-2,3.7824977E-2,7.609764E-2,9.0288155E-2,2.6359567E-2],"categories":[],"categories_nodes":[],"categories_segments":[],"categories_sizes":[],"default_left":[0,0,0,0,0,0,0,0,0,0,0,0,0,0,0,0,0,0,0,0,0,0,0,0,0,0,0,0,0,0,0,0,0,0,0,0,0,0,0,0,0,0,0,0,0,0,0,0,0,0,0,0,0,0,0,0,0,0,0],"id":20,"left_children":[1,3,5,7,9,11,13,15,17,19,21,23,25,27,29,31,33,35,-1,37,-1,39,41,43,45,47,49,51,53,55,57,-1,-1,-1,-1,-1,-1,-1,-1,-1,-1,-1,-1,-1,-1,-1,-1,-1,-1,-1,-1,-1,-1,-1,-1,-1,-1,-1,-1],"loss_changes":[5.309418E3,1.2464453E2,6.693597E2,6.575391E1,7.1336914E1,6.5463586E2,2.3054456E2,2.156128E2,9.972656E0,5.5950195E1,2.6772614E1,1.7800809E2,2.2951773E2,1.0019548E2,2.4970642E1,3.5292096E2,4.0600098E1,4.6875E0,0E0,5.08291E1,0E0,5.48265E1,1.6184116E1,1.160234E2,3.0964862E2,8.881006E1,8.3424835E1,7.6409935E1,4.829181E1,1.1858643E1,3.4866295E1,0E0,0E0,0E0,0E0,0E0,0E0,0E0,0E0,0E0,0E0,0E0,0E0,0E0,0E0,0E0,0E0,0E0,0E0,0E0,0E0,0E0,0E0,0E0,0E0,0E0,0E0,0E0,0E0],"parents":[2147483647,0,0,1,1,2,2,3,3,4,4,5,5,6,6,7,7,8,8,9,9,10,10,11,11,12,12,13,13,14,14,15,15,16,16,17,17,19,19,21,21,22,22,23,23,24,24,25,25,26,26,27,27,28,28,29,29,30,30],"right_children":[2,4,6,8,10,12,14,16,18,20,22,24,26,28,30,32,34,36,-1,38,-1,40,42,44,46,48,50,52,54,56,58,-1,-1,-1,-1,-1,-1,-1,-1,-1,-1,-1,-1,-1,-1,-1,-1,-1,-1,-1,-1,-1,-1,-1,-1,-1,-1,-1,-1],"split_conditions":[1.5427313E0,1.3456979E0,1.3456979E0,-1.2920247E0,9.01E2,-1.2920247E0,1.3723257E-1,-2.3941912E-1,5E1,8.9E2,1.1427239E0,1E0,2.3511784E0,2.3511784E0,8E0,-1.0204487E0,9E0,8.9E2,5.60799E-2,-2.2018518E-1,9.2071824E-2,1.938785E0,9.551713E-3,2.3511784E0,4E0,9.01E2,3E0,1.2E1,1E0,2.3845756E-1,3.47E2,-4.7660213E-2,-2.2219853E-3,-5.1994592E-2,8.8236436E-2,-5.184908E-2,-4.179789E-2,-3.8480055E-2,-4.815055E-2,1.041927E-1,-3.893481E-2,-4.3206166E-2,1.0177181E-1,-4.70377E-2,2.9151743E-2,8.246061E-2,1.5408294E-2,-3.5348248E-2,8.6056106E-2,4.3369673E-2,-4.564549E-3,-7.348531E-3,6.8582855E-2,1.7275328E-2,5.446563E-2,3.7824977E-2,7.609764E-2,9.0288155E-2,2.6359567E-2],"split_indices":[2,15,15,15,4,15,14,2,6,7,8,1,2,2,1,2,1,7,0,2,0,10,10,2,1,4,1,1,3,14,0,0,0,0,0,0,0,0,0,0,0,0,0,0,0,0,0,0,0,0,0,0,0,0,0,0,0,0,0],"split_type":[0,0,0,0,0,0,0,0,0,0,0,0,0,0,0,0,0,0,0,0,0,0,0,0,0,0,0,0,0,0,0,0,0,0,0,0,0,0,0,0,0,0,0,0,0,0,0,0,0,0,0,0,0,0,0,0,0,0,0],"sum_hessian":[5.5385277E4,5.1562906E4,3.8223748E3,4.5952707E4,5.6101987E3,2.6428137E3,1.179561E3,6.9940337E3,3.895867E4,5.5663936E3,4.3805153E1,9.10036E2,1.7327777E3,6.802324E2,4.993286E2,1.895427E3,5.098607E3,3.89573E4,1.3720479E0,5.559698E3,6.695148E0,2.672348E1,1.708167E1,1.982996E2,7.117364E2,1.1647295E3,5.680481E2,3.056784E2,3.7455402E2,3.9550177E2,1.03826836E2,1.2448058E3,6.506213E2,5.094303E3,4.303788E0,3.8815246E4,1.4205559E2,2.5307324E3,3.028966E3,1.6618443E1,1.0105039E1,1.5864101E1,1.2175694E0,1.0332977E2,9.496983E1,2.9127722E2,4.2045917E2,1.1503866E3,1.4342891E1,1.1230007E2,4.5574805E2,2.6890942E2,3.6768967E1,1.4108853E2,2.3346547E2,2.459882E1,3.7090295E2,2.9779737E1,7.4047104E1],"tree_param":{"num_deleted":"0","num_feature":"19","num_nodes":"59","size_leaf_vector":"1"}},{"base_weights":[-9.1230476E-1,-9.983527E-1,2.1030253E-1,-1.0163347E0,-8.519752E-1,-5.8963746E-2,8.1001145E-1,-9.226932E-1,-1.0332053E0,-8.621535E-1,3.8340315E-1,5.963478E-1,-4.0867126E-1,4.4228676E-1,1.3179169E0,-6.277243E-1,-1.0342695E0,-1.0333129E0,5.4542053E-2,-7.5203156E-1,-9.5482117E-1,9.463133E-1,-5.406751E-1,4.6801502E-1,2.0050411E0,-6.6161036E-1,9.426664E-2,3.7685852E-2,7.718461E-1,1.4382501E0,8.619214E-1,-4.7307234E-2,-2.115266E-3,-5.18517E-2,8.458122E-2,-5.1702965E-2,-4.1266154E-2,-4.498598E-2,2.803806E-3,-4.8752338E-2,-2.4230813E-3,6.7602405E-3,1.5543975E-1,-4.2533435E-2,9.7436495E-2,4.312635E-2,-3.9989473E-3,1.016204E-1,2.4105085E-2,-3.4644417E-2,7.9667225E-2,1.843769E-3,1.3224548E-1,-7.0169666E-3,6.337454E-2,1.633565E-2,5.205819E-2,3.5944615E-2,7.42594E-2,8.6994536E-2,2.4869554E-2],"categories":[],"categories_nodes":[],"categories_segments":[],"categories_sizes":[],"default_left":[0,0,0,0,0,0,0,0,0,0,0,0,0,0,0,0,0,0,0,0,0,0,0,0,0,0,0,0,0,0,0,0,0,0,0,0,0,0,0,0,0,0,0,0,0,0,0,0,0,0,0,0,0,0,0,0,0,0,0,0,0],"id":21,"left_children":[1,3,5,7,9,11,13,15,17,19,21,23,25,27,29,31,33,35,-1,37,39,41,43,45,47,49,51,53,55,57,59,-1,-1,-1,-1,-1,-1,-1,-1,-1,-1,-1,-1,-1,-1,-1,-1,-1,-1,-1,-1,-1,-1,-1,-1,-1,-1,-1,-1,-1,-1],"loss_changes":[5.1236836E3,1.2880469E2,6.0993805E2,6.834766E1,6.817798E1,5.9778845E2,2.1800922E2,2.2006299E2,9.6171875E0,5.3898926E1,2.38078E1,1.6315726E2,2.1642044E2,9.0693085E1,2.5702332E1,3.4352618E2,3.841162E1,4.9179688E0,0E0,2.9250366E2,5.316382E1,4.9034195E1,1.5232094E1,1.8020248E2,2.1661377E0,8.0927246E1,8.3341705E1,6.727529E1,4.460515E1,1.19991455E1,3.2743782E1,0E0,0E0,0E0,0E0,0E0,0E0,0E0,0E0,0E0,0E0,0E0,0E0,0E0,0E0,0E0,0E0,0E0,0E0,0E0,0E0,0E0,0E0,0E0,0E0,0E0,0E0,0E0,0E0,0E0,0E0],"parents":[2147483647,0,0,1,1,2,2,3,3,4,4,5,5,6,6,7,7,8,8,9,9,10,10,11,11,12,12,13,13,14,14,15,15,16,16,17,17,19,19,20,20,21,21,22,22,23,23,24,24,25,25,26,26,27,27,28,28,29,29,30,30],"right_children":[2,4,6,8,10,12,14,16,18,20,22,24,26,28,30,32,34,36,-1,38,40,42,44,46,48,50,52,54,56,58,60,-1,-1,-1,-1,-1,-1,-1,-1,-1,-1,-1,-1,-1,-1,-1,-1,-1,-1,-1,-1,-1,-1,-1,-1,-1,-1,-1,-1,-1,-1],"split_conditions":[1.5427313E0,1.3456979E0,1.3456979E0,-1.2920247E0,9.01E2,-1.2920247E0,1.3723257E-1,-2.3941912E-1,5E1,-2.2018518E-1,1.1427239E0,8E0,2.3511784E0,2.3511784E0,8E0,-1.0204487E0,9E0,8.9E2,5.4542053E-2,-4.91366E-1,1.415007E0,-5.9965067E-2,9.551713E-3,4E0,1.4941391E0,9.01E2,1.2E1,1.2E1,1E0,2.3845756E-1,3.47E2,-4.7307234E-2,-2.115266E-3,-5.18517E-2,8.458122E-2,-5.1702965E-2,-4.1266154E-2,-4.498598E-2,2.803806E-3,-4.8752338E-2,-2.4230813E-3,6.7602405E-3,1.5543975E-1,-4.2533435E-2,9.7436495E-2,4.312635E-2,-3.9989473E-3,1.016204E-1,2.4105085E-2,-3.4644417E-2,7.9667225E-2,1.843769E-3,1.3224548E-1,-7.0169666E-3,6.337454E-2,1.633565E-2,5.205819E-2,3.5944615E-2,7.42594E-2,8.6994536E-2,2.4869554E-2],"split_indices":[2,15,15,15,4,15,14,2,6,2,8,1,2,2,1,2,1,7,0,2,2,8,10,1,10,4,1,1,3,14,0,0,0,0,0,0,0,0,0,0,0,0,0,0,0,0,0,0,0,0,0,0,0,0,0,0,0,0,0,0,0],"split_type":[0,0,0,0,0,0,0,0,0,0,0,0,0,0,0,0,0,0,0,0,0,0,0,0,0,0,0,0,0,0,0,0,0,0,0,0,0,0,0,0,0,0,0,0,0,0,0,0,0,0,0,0,0,0,0,0,0,0,0,0,0],"sum_hessian":[5.3038105E4,4.9262258E4,3.7758455E3,4.3867375E4,5.3948813E3,2.60646E3,1.1693856E3,6.7052534E3,3.7162125E4,5.351096E3,4.378539E1,9.067012E2,1.6997587E3,6.793822E2,4.9000345E2,1.8420741E3,4.8631797E3,3.7160754E4,1.3684756E0,2.4494275E3,2.9016685E3,2.7195162E1,1.6590229E1,8.322179E2,7.448331E1,1.1307585E3,5.690001E2,3.054701E2,3.739121E2,3.8599E2,1.04013466E2,1.1927168E3,6.493573E2,4.858871E3,4.308327E0,3.7023918E4,1.368375E2,2.07085E3,3.7857748E2,2.8382563E3,6.341212E1,2.0549814E1,6.6453476E0,1.5338485E1,1.2517432E0,4.8353632E2,3.4868155E2,7.283986E1,1.6434445E0,1.1159719E3,1.4786655E1,5.5747107E2,1.1529034E1,2.6761615E2,3.785393E1,1.4178326E2,2.3212885E2,2.464249E1,3.613475E2,2.9409029E1,7.460444E1],"tree_param":{"num_deleted":"0","num_feature":"19","num_nodes":"61","size_leaf_vector":"1"}},{"base_weights":[-9.0598E-1,-9.9392146E-1,2.0206025E-1,-1.0127013E0,-8.4223557E-1,-1.2634827E-1,6.5767574E-1,-9.1528136E-1,-1.0303456E0,-8.5174364E-1,5.1016283E-1,4.9601114E-1,-4.4981045E-1,3.5566068E-1,9.876943E-1,-6.139935E-1,-1.03147E0,-1.030456E0,5.309282E-2,-7.3923975E-1,-9.474171E-1,2.4289174E-1,-9.6543625E-2,-7.711072E-1,1.1602521E0,-8.961747E-1,1.2849957E-1,9.233806E-1,2.6655212E-2,6.8311024E-1,1.3581364E0,-4.8212543E-2,-3.9747613E-3,-5.1714282E-2,8.128201E-2,-5.1561948E-2,-4.0728446E-2,-4.4503752E-2,2.536802E-3,-4.844046E-2,-1.693114E-3,8.3230056E-2,-1.978292E-2,-5.5069823E-2,9.149161E-3,8.2133375E-2,4.943807E-3,-4.797879E-2,-2.6529228E-2,1.0981077E-1,-1.2673552E-2,6.305041E-2,1.7696686E-2,-2.1064994E-3,9.615067E-2,7.6272614E-2,2.5675846E-2,7.072409E-2,3.0915571E-2],"categories":[],"categories_nodes":[],"categories_segments":[],"categories_sizes":[],"default_left":[0,0,0,0,0,0,0,0,0,0,0,0,0,0,0,0,0,0,0,0,0,0,0,0,0,0,0,0,0,0,0,0,0,0,0,0,0,0,0,0,0,0,0,0,0,0,0,0,0,0,0,0,0,0,0,0,0,0,0],"id":22,"left_children":[1,3,5,7,9,11,13,15,17,19,21,23,25,27,29,31,33,35,-1,37,39,-1,41,43,45,47,49,51,53,55,57,-1,-1,-1,-1,-1,-1,-1,-1,-1,-1,-1,-1,-1,-1,-1,-1,-1,-1,-1,-1,-1,-1,-1,-1,-1,-1,-1,-1],"loss_changes":[4.9503867E3,1.3321484E2,5.5913306E2,7.103906E1,6.71853E1,4.3748273E2,1.5565228E2,2.2446631E2,9.28125E0,5.4788086E1,9.7714096E1,6.265133E2,3.6919147E2,1.5291946E2,8.339728E1,3.3542383E2,3.6390625E1,5.1484375E0,0E0,2.8289294E2,5.434375E1,0E0,1.8217615E1,8.094971E1,2.4973792E2,1.8197632E1,4.931628E2,5.730835E1,6.7836945E1,5.809442E1,1.3140625E1,0E0,0E0,0E0,0E0,0E0,0E0,0E0,0E0,0E0,0E0,0E0,0E0,0E0,0E0,0E0,0E0,0E0,0E0,0E0,0E0,0E0,0E0,0E0,0E0,0E0,0E0,0E0,0E0],"parents":[2147483647,0,0,1,1,2,2,3,3,4,4,5,5,6,6,7,7,8,8,9,9,10,10,11,11,12,12,13,13,14,14,15,15,16,16,17,17,19,19,20,20,22,22,23,23,24,24,25,25,26,26,27,27,28,28,29,29,30,30],"right_children":[2,4,6,8,10,12,14,16,18,20,22,24,26,28,30,32,34,36,-1,38,40,-1,42,44,46,48,50,52,54,56,58,-1,-1,-1,-1,-1,-1,-1,-1,-1,-1,-1,-1,-1,-1,-1,-1,-1,-1,-1,-1,-1,-1,-1,-1,-1,-1,-1,-1],"split_conditions":[1.5427313E0,1.3456979E0,2.3511784E0,-1.2920247E0,8.27E2,4E0,1.2021978E0,-2.3941912E-1,5E1,-2.2018518E-1,8.81E2,1E0,8E0,-1.2920247E0,1.3723257E-1,-1.0585726E0,9E0,8.9E2,5.309282E-2,-4.91366E-1,1.415007E0,2.4289174E-1,1.8E1,2.1227863E0,2E0,3.66E2,3.42E2,2.3845756E-1,9.01E2,3E0,9E0,-4.8212543E-2,-3.9747613E-3,-5.1714282E-2,8.128201E-2,-5.1561948E-2,-4.0728446E-2,-4.4503752E-2,2.536802E-3,-4.844046E-2,-1.693114E-3,8.3230056E-2,-1.978292E-2,-5.5069823E-2,9.149161E-3,8.2133375E-2,4.943807E-3,-4.797879E-2,-2.6529228E-2,1.0981077E-1,-1.2673552E-2,6.305041E-2,1.7696686E-2,-2.1064994E-3,9.615067E-2,7.6272614E-2,2.5675846E-2,7.072409E-2,3.0915571E-2],"split_indices":[2,15,2,15,5,1,15,2,6,2,7,1,1,15,14,2,1,7,0,2,2,0,6,2,1,0,0,14,4,1,1,0,0,0,0,0,0,0,0,0,0,0,0,0,0,0,0,0,0,0,0,0,0,0,0,0,0,0,0],"split_type":[0,0,0,0,0,0,0,0,0,0,0,0,0,0,0,0,0,0,0,0,0,0,0,0,0,0,0,0,0,0,0,0,0,0,0,0,0,0,0,0,0,0,0,0,0,0,0,0,0,0,0,0,0,0,0,0,0,0,0],"sum_hessian":[5.079994E4,4.7064676E4,3.7352659E3,4.1874617E4,5.190059E3,2.171074E3,1.5641918E3,6.4292646E3,3.544535E4,5.1541924E3,3.586654E1,7.423047E2,1.4287694E3,8.178331E2,7.4635864E2,1.791089E3,4.638176E3,3.544399E4,1.362967E0,2.3727563E3,2.781436E3,3.5341132E0,3.2332428E1,2.552411E2,4.8706357E2,8.060647E2,6.227047E2,2.9939734E2,5.184358E2,4.1114877E2,3.3520987E2,1.0815464E3,7.095426E2,4.633876E3,4.299797E0,3.5312137E4,1.3185202E2,1.9922384E3,3.805179E2,2.7177363E3,6.3699833E1,4.0313463E0,2.830108E1,1.89489E2,6.575212E1,3.3448578E2,1.5257779E2,6.85551E2,1.2051367E2,9.635546E1,5.2634924E2,1.8719447E2,1.1220285E2,5.0123273E2,1.720306E1,6.75658E1,3.4358298E2,3.106395E2,2.4570345E1],"tree_param":{"num_deleted":"0","num_feature":"19","num_nodes":"59","size_leaf_vector":"1"}},{"base_weights":[-8.998843E-1,-9.894983E-1,1.9475614E-1,-1.0091233E0,-8.3228135E-1,-5.872973E-2,7.577702E-1,-9.077925E-1,-1.0275773E0,-8.4299767E-1,3.8862854E-1,5.4861623E-1,-3.887934E-1,4.296271E-1,1.2854155E0,-6.00263E-1,-1.0287721E0,-1.0276905E0,5.1724385E-2,-7.2773296E-1,-9.4189733E-1,9.261875E-1,-5.215996E-1,-2.517232E-1,7.731223E-1,-6.401486E-1,8.465876E-2,3.4491128E-1,1.7674925E0,1.430094E0,7.596711E-1,-4.7901493E-2,-3.7898254E-3,-5.158193E-2,7.8288995E-2,-5.1425602E-2,-4.018448E-2,-4.412943E-2,2.4852036E-3,-4.8184663E-2,-2.2470846E-3,9.121422E-2,-3.767475E-2,-4.185274E-2,9.456956E-2,-4.6432927E-2,2.27903E-2,7.957479E-2,1.617272E-2,-2.3672932E-3,-3.7743058E-2,-1.0254839E-2,2.7201919E-2,2.5003439E-2,-3.8708106E-2,1.0313995E-1,-2.4212725E-3,8.7198876E-2,6.736716E-2,7.827556E-2,2.1780452E-2],"categories":[],"categories_nodes":[],"categories_segments":[],"categories_sizes":[],"default_left":[0,0,0,0,0,0,0,0,0,0,0,0,0,0,0,0,0,0,0,0,0,0,0,0,0,0,0,0,0,0,0,0,0,0,0,0,0,0,0,0,0,0,0,0,0,0,0,0,0,0,0,0,0,0,0,0,0,0,0,0,0],"id":23,"left_children":[1,3,5,7,9,11,13,15,17,19,21,23,25,27,29,31,33,35,-1,37,39,41,43,45,47,49,51,53,55,57,59,-1,-1,-1,-1,-1,-1,-1,-1,-1,-1,-1,-1,-1,-1,-1,-1,-1,-1,-1,-1,-1,-1,-1,-1,-1,-1,-1,-1,-1,-1],"loss_changes":[4.772297E3,1.3790234E2,5.255355E2,7.38125E1,6.5691895E1,5.0936594E2,1.9738287E2,2.288086E2,8.9609375E0,5.5773193E1,2.208737E1,1.6095764E2,1.9595636E2,7.944646E1,3.2217407E1,3.2705157E2,3.451953E1,5.3945312E0,0E0,2.759231E2,5.2002686E1,4.379348E1,1.4549099E1,9.465854E1,2.566999E2,7.309454E1,7.621697E1,1.15943985E2,2.252649E1,6.5391846E0,2.454961E1,0E0,0E0,0E0,0E0,0E0,0E0,0E0,0E0,0E0,0E0,0E0,0E0,0E0,0E0,0E0,0E0,0E0,0E0,0E0,0E0,0E0,0E0,0E0,0E0,0E0,0E0,0E0,0E0,0E0,0E0],"parents":[2147483647,0,0,1,1,2,2,3,3,4,4,5,5,6,6,7,7,8,8,9,9,10,10,11,11,12,12,13,13,14,14,15,15,16,16,17,17,19,19,20,20,21,21,22,22,23,23,24,24,25,25,26,26,27,27,28,28,29,29,30,30],"right_children":[2,4,6,8,10,12,14,16,18,20,22,24,26,28,30,32,34,36,-1,38,40,42,44,46,48,50,52,54,56,58,60,-1,-1,-1,-1,-1,-1,-1,-1,-1,-1,-1,-1,-1,-1,-1,-1,-1,-1,-1,-1,-1,-1,-1,-1,-1,-1,-1,-1,-1,-1],"split_conditions":[1.5427313E0,1.3456979E0,1.3456979E0,-1.2920247E0,9.01E2,-1.2920247E0,2.3845756E-1,-2.3941912E-1,5E1,-2.2018518E-1,1.1427239E0,1E0,2.3511784E0,1.3E1,8E0,-1.0585726E0,9E0,8.9E2,5.1724385E-2,-4.91366E-1,1.415007E0,1.938785E0,9.551713E-3,2.3511784E0,2E0,2E0,1.3723257E-1,1.1E1,9.8927885E-1,2.3511784E0,3.47E2,-4.7901493E-2,-3.7898254E-3,-5.158193E-2,7.8288995E-2,-5.1425602E-2,-4.018448E-2,-4.412943E-2,2.4852036E-3,-4.8184663E-2,-2.2470846E-3,9.121422E-2,-3.767475E-2,-4.185274E-2,9.456956E-2,-4.6432927E-2,2.27903E-2,7.957479E-2,1.617272E-2,-2.3672932E-3,-3.7743058E-2,-1.0254839E-2,2.7201919E-2,2.5003439E-2,-3.8708106E-2,1.0313995E-1,-2.4212725E-3,8.7198876E-2,6.736716E-2,7.827556E-2,2.1780452E-2],"split_indices":[2,15,15,15,4,15,14,2,6,2,8,1,2,1,1,2,1,7,0,2,2,10,10,2,1,1,14,1,10,2,0,0,0,0,0,0,0,0,0,0,0,0,0,0,0,0,0,0,0,0,0,0,0,0,0,0,0,0,0,0,0],"split_type":[0,0,0,0,0,0,0,0,0,0,0,0,0,0,0,0,0,0,0,0,0,0,0,0,0,0,0,0,0,0,0,0,0,0,0,0,0,0,0,0,0,0,0,0,0,0,0,0,0,0,0,0,0,0,0,0,0,0,0,0,0],"sum_hessian":[4.8646742E4,4.496567E4,3.6810725E3,3.997079E4,4.994881E3,2.5388855E3,1.142187E3,6.1655776E3,3.380521E4,4.9517275E3,4.3153305E1,8.937132E2,1.6451724E3,7.05346E2,4.36841E2,1.742391E3,4.4231865E3,3.3803855E4,1.3557093E0,2.2905352E3,2.6611926E3,2.7119589E1,1.6033714E1,1.9575323E2,6.9795996E2,1.0744148E3,5.707576E2,6.6452496E2,4.0820988E1,3.4122104E2,9.561997E1,1.0353181E3,7.070729E2,4.4189067E3,4.2796736E0,3.3676766E4,1.2708991E2,1.90996E3,3.8057513E2,2.5979873E3,6.320524E1,1.7615046E1,9.504544E0,1.4757537E1,1.276178E0,9.9879776E1,9.587347E1,2.4660738E2,4.5135257E2,1.7442862E2,8.9998615E2,3.503356E2,2.2042206E2,5.840945E2,8.04305E1,3.4994236E1,5.826752E0,6.700151E1,2.742195E2,2.6325605E1,6.9294365E1],"tree_param":{"num_deleted":"0","num_feature":"19","num_nodes":"61","size_leaf_vector":"1"}},{"base_weights":[-8.935527E-1,-9.850997E-1,1.8717693E-1,-1.0055913E0,-8.223194E-1,-5.6751158E-2,7.2527504E-1,-9.002161E-1,-1.0248922E0,-6.968156E-1,-9.316925E-1,5.24608E-1,-3.7633562E-1,4.069704E-1,1.2501402E0,-5.865419E-1,-1.0261676E0,-1.0250084E0,5.0429758E-2,-8.513046E-1,1.18597366E-1,-9.5492154E-1,-1.833274E-2,-2.437925E-1,7.371767E-1,-6.261808E-1,8.0175154E-2,3.164179E-1,1.6284288E0,1.399371E0,7.232344E-1,-4.9391445E-2,-5.8421297E-3,-5.1454224E-2,7.556105E-2,-5.129351E-2,-3.9634E-2,-4.9613032E-2,-3.3995353E-2,1.9930376E-2,-5.181557E-2,-4.956184E-2,-4.0422082E-2,-3.1930212E-2,9.8423086E-2,-5.5275094E-2,1.4592721E-2,7.7245444E-2,1.5265214E-2,-3.292061E-2,7.5693086E-2,1.299704E-3,1.2114054E-1,2.4338385E-2,-1.5700547E-2,1.1101601E-1,6.345235E-2,8.377499E-2,6.6215776E-2,7.581612E-2,2.058341E-2],"categories":[],"categories_nodes":[],"categories_segments":[],"categories_sizes":[],"default_left":[0,0,0,0,0,0,0,0,0,0,0,0,0,0,0,0,0,0,0,0,0,0,0,0,0,0,0,0,0,0,0,0,0,0,0,0,0,0,0,0,0,0,0,0,0,0,0,0,0,0,0,0,0,0,0,0,0,0,0,0,0],"id":24,"left_children":[1,3,5,7,9,11,13,15,17,19,21,23,25,27,29,31,33,35,-1,37,39,41,43,45,47,49,51,53,55,57,59,-1,-1,-1,-1,-1,-1,-1,-1,-1,-1,-1,-1,-1,-1,-1,-1,-1,-1,-1,-1,-1,-1,-1,-1,-1,-1,-1,-1,-1,-1],"loss_changes":[4.610699E3,1.4247656E2,4.778192E2,7.667578E1,6.5362305E1,4.657128E2,1.8918884E2,2.3307422E2,8.65625E0,2.8269702E2,5.4437744E1,1.454186E2,1.8452165E2,7.782643E1,3.2654663E1,3.1971906E2,3.2779785E1,5.640625E0,0E0,4.4892822E1,1.1625008E2,1.2512939E1,8.0961876E1,8.9605865E1,2.4258414E2,7.3104645E1,7.2661285E1,7.110236E1,7.5296173E0,4.6740723E0,2.3238197E1,0E0,0E0,0E0,0E0,0E0,0E0,0E0,0E0,0E0,0E0,0E0,0E0,0E0,0E0,0E0,0E0,0E0,0E0,0E0,0E0,0E0,0E0,0E0,0E0,0E0,0E0,0E0,0E0,0E0,0E0],"parents":[2147483647,0,0,1,1,2,2,3,3,4,4,5,5,6,6,7,7,8,8,9,9,10,10,11,11,12,12,13,13,14,14,15,15,16,16,17,17,19,19,20,20,21,21,22,22,23,23,24,24,25,25,26,26,27,27,28,28,29,29,30,30],"right_children":[2,4,6,8,10,12,14,16,18,20,22,24,26,28,30,32,34,36,-1,38,40,42,44,46,48,50,52,54,56,58,60,-1,-1,-1,-1,-1,-1,-1,-1,-1,-1,-1,-1,-1,-1,-1,-1,-1,-1,-1,-1,-1,-1,-1,-1,-1,-1,-1,-1,-1,-1],"split_conditions":[1.5427313E0,1.3456979E0,1.3456979E0,-1.2920247E0,-2.2018518E-1,-1.2920247E0,2.3845756E-1,-2.3941912E-1,5E1,-4.661219E-1,1.415007E0,1E0,2.3511784E0,8.45E2,8E0,-1.1118704E0,9E0,8.9E2,5.0429758E-2,-1.1253029E0,1.3E1,8.6557746E-1,1.3E1,2.1227863E0,2E0,9.01E2,1.2E1,8.5737175E-1,8.44E2,2.3511784E0,3.47E2,-4.9391445E-2,-5.8421297E-3,-5.1454224E-2,7.556105E-2,-5.129351E-2,-3.9634E-2,-4.9613032E-2,-3.3995353E-2,1.9930376E-2,-5.181557E-2,-4.956184E-2,-4.0422082E-2,-3.1930212E-2,9.8423086E-2,-5.5275094E-2,1.4592721E-2,7.7245444E-2,1.5265214E-2,-3.292061E-2,7.5693086E-2,1.299704E-3,1.2114054E-1,2.4338385E-2,-1.5700547E-2,1.1101601E-1,6.345235E-2,8.377499E-2,6.6215776E-2,7.581612E-2,2.058341E-2],"split_indices":[2,15,15,15,2,15,14,2,6,2,2,1,2,7,1,2,1,7,0,2,1,2,1,2,1,4,1,10,4,2,0,0,0,0,0,0,0,0,0,0,0,0,0,0,0,0,0,0,0,0,0,0,0,0,0,0,0,0,0,0,0],"split_type":[0,0,0,0,0,0,0,0,0,0,0,0,0,0,0,0,0,0,0,0,0,0,0,0,0,0,0,0,0,0,0,0,0,0,0,0,0,0,0,0,0,0,0,0,0,0,0,0,0,0,0,0,0,0,0,0,0,0,0,0,0],"sum_hessian":[4.6599312E4,4.29603E4,3.6390127E3,3.8152332E4,4.8079683E3,2.5045544E3,1.1344583E3,5.9136934E3,3.2238639E4,2.2423174E3,2.5656506E3,8.881928E2,1.6163616E3,7.072946E2,4.2716364E2,1.695877E3,4.2178164E3,3.2237291E4,1.3468786E0,1.8851171E3,3.572003E2,2.5019736E3,6.367699E1,1.9243294E2,6.957599E2,1.0443981E3,5.719635E2,6.5965063E2,4.7643974E1,3.3159354E2,9.557008E1,9.139457E2,7.819313E2,4.213567E3,4.2493134E0,3.2114748E4,1.225421E2,1.0317911E3,8.5332605E2,2.880233E2,6.917701E1,2.0002942E3,5.0167953E2,4.904413E1,1.463286E1,7.335728E1,1.1907565E2,2.4150157E2,4.542583E2,1.0295837E3,1.4814314E1,5.600223E2,1.1941242E1,5.1950244E2,1.4014821E2,1.6043177E1,3.1600796E1,6.6311226E1,2.6528232E2,2.5864801E1,6.970528E1],"tree_param":{"num_deleted":"0","num_feature":"19","num_nodes":"61","size_leaf_vector":"1"}},{"base_weights":[-8.871259E-1,-9.8067915E-1,1.7996223E-1,-1.0020947E0,-8.120864E-1,-1.2544234E-1,5.888726E-1,-8.925375E-1,-1.0222824E0,-6.8239737E-1,-9.2360157E-1,4.543997E-1,-4.2695513E-1,4.4896042E-1,1.230398E0,-5.7283074E-1,-1.0236489E0,-1.0224017E0,4.9202662E-2,-8.4162146E-1,1.9045281E-1,-9.4733185E-1,-1.7671542E-2,-7.487079E-1,1.0669057E0,-8.820734E-1,1.4479738E-1,3.7139973E-1,2.1427004E0,2.1260176E0,9.3940616E-1,-5.008573E-2,-6.507136E-3,-5.1330794E-2,7.3063925E-2,-5.116529E-2,-3.9076827E-2,-4.9380995E-2,-3.333344E-2,2.326601E-2,-5.1579744E-2,-4.9208928E-2,-3.988896E-2,-3.1236157E-2,8.697109E-2,-5.4561097E-2,8.263784E-3,7.635143E-2,4.8828297E-3,-3.292621E-2,-4.973825E-2,1.0188293E-1,-1.1121969E-2,1.5520941E-2,1.102991E-1,1.3328929E-1,7.801054E-2,1.3383971E-1,7.741718E-2,2.8065469E-3,6.1562955E-2],"categories":[],"categories_nodes":[],"categories_segments":[],"categories_sizes":[],"default_left":[0,0,0,0,0,0,0,0,0,0,0,0,0,0,0,0,0,0,0,0,0,0,0,0,0,0,0,0,0,0,0,0,0,0,0,0,0,0,0,0,0,0,0,0,0,0,0,0,0,0,0,0,0,0,0,0,0,0,0,0,0],"id":25,"left_children":[1,3,5,7,9,11,13,15,17,19,21,23,25,27,29,31,33,35,-1,37,39,41,43,45,47,49,51,53,55,57,59,-1,-1,-1,-1,-1,-1,-1,-1,-1,-1,-1,-1,-1,-1,-1,-1,-1,-1,-1,-1,-1,-1,-1,-1,-1,-1,-1,-1,-1,-1],"loss_changes":[4.457172E3,1.4739062E2,4.495944E2,7.962891E1,6.6354004E1,3.605845E2,1.3759747E2,2.3725879E2,8.361328E0,2.9829413E2,5.3459717E1,5.208258E2,3.5315988E2,1.6540382E2,6.967334E1,3.136137E2,3.1158691E1,5.8945312E0,0E0,4.5686768E1,1.1191992E2,1.25720215E1,6.9900375E1,7.489151E1,2.085805E2,1.8378479E1,4.1903015E2,1.347909E2,1.2656113E1,1.7060394E1,5.3899826E1,0E0,0E0,0E0,0E0,0E0,0E0,0E0,0E0,0E0,0E0,0E0,0E0,0E0,0E0,0E0,0E0,0E0,0E0,0E0,0E0,0E0,0E0,0E0,0E0,0E0,0E0,0E0,0E0,0E0,0E0],"parents":[2147483647,0,0,1,1,2,2,3,3,4,4,5,5,6,6,7,7,8,8,9,9,10,10,11,11,12,12,13,13,14,14,15,15,16,16,17,17,19,19,20,20,21,21,22,22,23,23,24,24,25,25,26,26,27,27,28,28,29,29,30,30],"right_children":[2,4,6,8,10,12,14,16,18,20,22,24,26,28,30,32,34,36,-1,38,40,42,44,46,48,50,52,54,56,58,60,-1,-1,-1,-1,-1,-1,-1,-1,-1,-1,-1,-1,-1,-1,-1,-1,-1,-1,-1,-1,-1,-1,-1,-1,-1,-1,-1,-1,-1,-1],"split_conditions":[1.5427313E0,1.3456979E0,2.3511784E0,-1.2920247E0,-2.3941912E-1,4E0,7.66E2,-2.3941912E-1,5E1,-4.661219E-1,1.415007E0,1E0,8E0,7.57E2,7.65E2,-1.1399575E0,9E0,8.9E2,4.9202662E-2,-1.1253029E0,1.3E1,8.6557746E-1,1.3E1,2.1227863E0,2E0,6E0,3.42E2,7.12E2,1.3456979E0,1.3456979E0,-2.4593891E-1,-5.008573E-2,-6.507136E-3,-5.1330794E-2,7.3063925E-2,-5.116529E-2,-3.9076827E-2,-4.9380995E-2,-3.333344E-2,2.326601E-2,-5.1579744E-2,-4.9208928E-2,-3.988896E-2,-3.1236157E-2,8.697109E-2,-5.4561097E-2,8.263784E-3,7.635143E-2,4.8828297E-3,-3.292621E-2,-4.973825E-2,1.0188293E-1,-1.1121969E-2,1.5520941E-2,1.102991E-1,1.3328929E-1,7.801054E-2,1.3383971E-1,7.741718E-2,2.8065469E-3,6.1562955E-2],"split_indices":[2,15,2,15,2,1,4,2,6,2,2,1,1,7,7,2,1,7,0,2,1,2,1,2,1,1,0,5,15,15,15,0,0,0,0,0,0,0,0,0,0,0,0,0,0,0,0,0,0,0,0,0,0,0,0,0,0,0,0,0,0],"split_type":[0,0,0,0,0,0,0,0,0,0,0,0,0,0,0,0,0,0,0,0,0,0,0,0,0,0,0,0,0,0,0,0,0,0,0,0,0,0,0,0,0,0,0,0,0,0,0,0,0,0,0,0,0,0,0,0,0,0,0,0,0],"sum_hessian":[4.4645027E4,4.1046496E4,3.59853E3,3.6415824E4,4.630671E3,2.0603794E3,1.5381506E3,5.6731636E3,3.0742662E4,2.144175E3,2.4864958E3,7.046853E2,1.355694E3,1.2641486E3,2.7400214E2,1.6514877E3,4.021676E3,3.0741324E4,1.3366407E0,1.813411E3,3.3076407E2,2.4229817E3,6.35141E1,2.3765396E2,4.6703134E2,7.5453613E2,6.0115784E2,1.2099606E3,5.4187916E1,6.564689E1,2.0835524E2,8.381808E2,8.133069E2,4.017466E3,4.209969E0,3.0623125E4,1.18199844E2,9.859709E2,8.2744006E2,2.7053384E2,6.0230217E1,1.9395386E3,4.8344324E2,4.7684288E1,1.582981E1,1.727298E2,6.4924164E1,3.1630112E2,1.5073021E2,2.5517752E2,4.993586E2,9.69413E1,5.0421655E2,1.1721674E3,3.7793266E1,2.6665405E1,2.752251E1,3.1745638E1,3.3901253E1,5.2042896E1,1.5631235E2],"tree_param":{"num_deleted":"0","num_feature":"19","num_nodes":"61","size_leaf_vector":"1"}},{"base_weights":[-8.806483E-1,-9.762481E-1,1.7283155E-1,-9.986248E-1,-8.017283E-1,-6.006436E-2,6.828896E-1,-8.847469E-1,-1.0197405E0,-6.695674E-1,-9.1668826E-1,4.8982665E-1,-3.6345768E-1,3.5819942E-1,1.1743158E0,-5.591403E-1,-1.0212085E0,-1.0198628E0,4.8037518E-2,-8.400262E-1,1.3801992E-1,-9.412349E-1,-1.7033486E-2,9.1896456E-1,1.1615926E-1,-6.047E-1,4.990747E-2,2.7605113E-1,1.6275486E0,1.3103824E0,7.156464E-1,-4.988202E-2,-6.2186783E-3,-5.1211275E-2,7.0768826E-2,-5.1040567E-2,-3.851283E-2,-4.9148947E-2,-3.3248987E-2,1.9234981E-2,-5.150479E-2,-4.8979115E-2,-3.9348047E-2,-3.0541763E-2,7.759758E-2,3.161878E-3,6.425941E-2,3.834168E-2,-1.5256341E-2,-8.084207E-4,-3.617628E-2,3.6853608E-2,-6.216864E-3,2.1431983E-2,-4.0536966E-2,9.293216E-2,-2.2125857E-2,3.0177224E-2,6.808714E-2,4.2627092E-2,-4.285794E-2],"categories":[],