{"learner":{"attributes":{"scikit_learn":"{\"_estimator_type\": \"classifier\"}"},"feature_names":["merchant","category","amt","gender","street","city","state","zip","lat","long","city_pop","job","merch_lat","merch_long","age","trans_hour","trans_day","trans_month","trans_dayofweek"],"feature_types":["int","int","float","int","int","int","int","int","float","float","float","int","float","float","float","float","float","float","float"],"gradient_booster":{"model":{"gbtree_model_param":{"num_parallel_tree":"1","num_trees":"450"},"iteration_indptr":[0,1,2,3,4,5,6,7,8,9,10,11,12,13,14,15,16,17,18,19,20,21,22,23,24,25,26,27,28,29,30,31,32,33,34,35,36,37,38,39,40,41,42,43,44,45,46,47,48,49,50,51,52,53,54,55,56,57,58,59,60,61,62,63,64,65,66,67,68,69,70,71,72,73,74,75,76,77,78,79,80,81,82,83,84,85,86,87,88,89,90,91,92,93,94,95,96,97,98,99,100,101,102,103,104,105,106,107,108,109,110,111,112,113,114,115,116,117,118,119,120,121,122,123,124,125,126,127,128,129,130,131,132,133,134,135,136,137,138,139,140,141,142,143,144,145,146,147,148,149,150,151,152,153,154,155,156,157,158,159,160,161,162,163,164,165,166,167,168,169,170,171,172,173,174,175,176,177,178,179,180,181,182,183,184,185,186,187,188,189,190,191,192,193,194,195,196,197,198,199,200,201,202,203,204,205,206,207,208,209,210,211,212,213,214,215,216,217,218,219,220,221,222,223,224,225,226,227,228,229,230,231,232,233,234,235,236,237,238,239,240,241,242,243,244,245,246,247,248,249,250,251,252,253,254,255,256,257,258,259,260,261,262,263,264,265,266,267,268,269,270,271,272,273,274,275,276,277,278,279,280,281,282,283,284,285,286,287,288,289,290,291,292,293,294,295,296,297,298,299,300,301,302,303,304,305,306,307,308,309,310,311,312,313,314,315,316,317,318,319,320,321,322,323,324,325,326,327,328,329,330,331,332,333,334,335,336,337,338,339,340,341,342,343,344,345,346,347,348,349,350,351,352,353,354,355,356,357,358,359,360,361,362,363,364,365,366,367,368,369,370,371,372,373,374,375,376,377,378,379,380,381,382,383,384,385,386,387,388,389,390,391,392,393,394,395,396,397,398,399,400,401,402,403,404,405,406,407,408,409,410,411,412,413,414,415,416,417,418,419,420,421,422,423,424,425,426,427,428,429,430,431,432,433,434,435,436,437,438,439,440,441,442,443,444,445,446,447,448,449,450],"tree_info":[0,0,0,0,0,0,0,0,0,0,0,0,0,0,0,0,0,0,0,0,0,0,0,0,0,0,0,0,0,0,0,0,0,0,0,0,0,0,0,0,0,0,0,0,0,0,0,0,0,0,0,0,0,0,0,0,0,0,0,0,0,0,0,0,0,0,0,0,0,0,0,0,0,0,0,0,0,0,0,0,0,0,0,0,0,0,0,0,0,0,0,0,0,0,0,0,0,0,0,0,0,0,0,0,0,0,0,0,0,0,0,0,0,0,0,0,0,0,0,0,0,0,0,0,0,0,0,0,0,0,0,0,0,0,0,0,0,0,0,0,0,0,0,0,0,0,0,0,0,0,0,0,0,0,0,0,0,0,0,0,0,0,0,0,0,0,0,0,0,0,0,0,0,0,0,0,0,0,0,0,0,0,0,0,0,0,0,0,0,0,0,0,0,0,0,0,0,0,0,0,0,0,0,0,0,0,0,0,0,0,0,0,0,0,0,0,0,0,0,0,0,0,0,0,0,0,0,0,0,0,0,0,0,0,0,0,0,0,0,0,0,0,0,0,0,0,0,0,0,0,0,0,0,0,0,0,0,0,0,0,0,0,0,0,0,0,0,0,0,0,0,0,0,0,0,0,0,0,0,0,0,0,0,0,0,0,0,0,0,0,0,0,0,0,0,0,0,0,0,0,0,0,0,0,0,0,0,0,0,0,0,0,0,0,0,0,0,0,0,0,0,0,0,0,0,0,0,0,0,0,0,0,0,0,0,0,0,0,0,0,0,0,0,0,0,0,0,0,0,0,0,0,0,0,0,0,0,0,0,0,0,0,0,0,0,0,0,0,0,0,0,0,0,0,0,0,0,0,0,0,0,0,0,0,0,0,0,0,0,0,0,0,0,0,0,0,0,0,0,0,0,0,0,0,0,0,0,0,0,0,0,0,0,0,0,0,0,0,0,0,0,0,0,0,0,0,0,0,0,0,0,0,0,0,0,0,0,0,0,0,0,0,0,0,0,0,0,0,0,0],"trees":[{"base_weights":[3.2034968E-3,-1.1172377E0,2.053382E0,-5.125217E-1,-1.6088315E0,1.1852177E0,2.0952926E0,-1.5951331E0,1.08623005E-1,-1.6954904E0,-1.3361095E0,4.4997787E-1,1.8642074E0,1.9417253E0,2.1927762E0,-1.7083334E0,-1.1332964E0,1.014528E0,-5.319442E-1,-1.5714555E0,-1.7812785E0,-1.7306405E0,-7.426553E-1,1.2813437E0,-8.9540255E-1,1.4441866E0,2.0442073E0,2.1585817E0,1.4716582E0,2.2072036E0,2.1518438E0,-8.9811936E-2,-6.6629544E-2,-2.0615973E-2,-7.348209E-2,-9.019423E-2,8.297934E-2,-9.0202086E-2,-1.9134593E-3,-8.7219775E-2,-5.6597274E-2,-8.983717E-2,-8.07442E-2,-9.020311E-2,-7.8570396E-2,2.909037E-2,-6.5646715E-2,-4.688822E-2,9.09246E-2,-6.681699E-2,-1.3683985E-2,1.1066096E-1,4.942119E-2,1.05698325E-1,2.0809451E-2,4.428978E-2,1.1084749E-1,4.2233816E-3,9.420362E-2,1.11206844E-1,1.0974516E-1,1.0978816E-1,1.0309775E-1],"categories":[],"categories_nodes":[],"categories_segments":[],"categories_sizes":[],"default_left":[0,0,0,0,0,0,0,0,0,0,0,0,0,0,0,0,0,0,0,0,0,0,0,0,0,0,0,0,0,0,0,0,0,0,0,0,0,0,0,0,0,0,0,0,0,0,0,0,0,0,0,0,0,0,0,0,0,0,0,0,0,0,0],"id":0,"left_children":[1,3,5,7,9,11,13,15,17,19,21,23,25,27,29,31,33,35,37,39,41,43,45,47,49,51,53,55,57,59,61,-1,-1,-1,-1,-1,-1,-1,-1,-1,-1,-1,-1,-1,-1,-1,-1,-1,-1,-1,-1,-1,-1,-1,-1,-1,-1,-1,-1,-1,-1,-1,-1],"loss_changes":[9.820414E5,8.2177E4,5.494375E3,8.335682E4,3.601375E3,3.473544E3,2.1531875E3,2.3607031E3,4.5708574E4,1.2284688E3,8.608555E3,3.739991E3,2.7057324E2,5.7022188E3,4.73125E1,1.1963672E3,2.157459E3,5.9319598E4,2.8976936E4,3.5945312E3,1.7309375E2,2.5539844E2,1.1093436E4,2.4648867E3,3.4978748E2,3.7941162E2,2.8646777E2,2.8432188E3,1.0110125E4,8.6875E0,8.6328125E1,0E0,0E0,0E0,0E0,0E0,0E0,0E0,0E0,0E0,0E0,0E0,0E0,0E0,0E0,0E0,0E0,0E0,0E0,0E0,0E0,0E0,0E0,0E0,0E0,0E0,0E0,0E0,0E0,0E0,0E0,0E0,0E0],"parents":[2147483647,0,0,1,1,2,2,3,3,4,4,5,5,6,6,7,7,8,8,9,9,10,10,11,11,12,12,13,13,14,14,15,15,16,16,17,17,18,18,19,19,20,20,21,21,22,22,23,23,24,24,25,25,26,26,27,27,28,28,29,29,30,30],"right_children":[2,4,6,8,10,12,14,16,18,20,22,24,26,28,30,32,34,36,38,40,42,44,46,48,50,52,54,56,58,60,62,-1,-1,-1,-1,-1,-1,-1,-1,-1,-1,-1,-1,-1,-1,-1,-1,-1,-1,-1,-1,-1,-1,-1,-1,-1,-1,-1,-1,-1,-1,-1,-1],"split_conditions":[1.4784065E0,-2.2078851E-1,1.6089319E0,-1.1262712E0,8.6423624E-1,1E1,2.3153994E0,-1.2476996E0,6E0,3.587924E-1,8E0,2E0,1.3E1,4E0,7E0,1.1E1,6E0,3E0,9E0,2.6366115E-1,8.101147E-1,3E0,9E0,1.5311643E0,1E0,3.44E2,2.958979E-1,1E0,8E0,3E0,2.57613E0,-8.9811936E-2,-6.6629544E-2,-2.0615973E-2,-7.348209E-2,-9.019423E-2,8.297934E-2,-9.0202086E-2,-1.9134593E-3,-8.7219775E-2,-5.6597274E-2,-8.983717E-2,-8.07442E-2,-9.020311E-2,-7.8570396E-2,2.909037E-2,-6.5646715E-2,-4.688822E-2,9.09246E-2,-6.681699E-2,-1.3683985E-2,1.1066096E-1,4.942119E-2,1.05698325E-1,2.0809451E-2,4.428978E-2,1.1084749E-1,4.2233816E-3,9.420362E-2,1.11206844E-1,1.0974516E-1,1.0978816E-1,1.0309775E-1],"split_indices":[2,2,2,2,2,1,2,2,1,2,1,1,1,1,1,1,1,1,1,2,2,1,1,2,3,0,14,1,1,1,2,0,0,0,0,0,0,0,0,0,0,0,0,0,0,0,0,0,0,0,0,0,0,0,0,0,0,0,0,0,0,0,0],"split_type":[0,0,0,0,0,0,0,0,0,0,0,0,0,0,0,0,0,0,0,0,0,0,0,0,0,0,0,0,0,0,0,0,0,0,0,0,0,0,0,0,0,0,0,0,0,0,0,0,0,0,0,0,0,0,0,0,0,0,0,0,0,0,0],"sum_hessian":[4.2751078E5,2.7643628E5,1.5107448E5,1.239571E5,1.5247917E5,6.958619E3,1.4411588E5,4.519093E4,7.876617E4,1.1570739E5,3.6771793E4,3.3417202E3,3.616899E3,5.5968652E4,8.814722E4,3.6292594E4,8.898335E3,3.2625645E4,4.6140527E4,4.7315996E4,6.839139E4,2.2086604E4,1.4685188E4,2.0654446E3,1.2762754E3,1.0877383E3,2.5291606E3,3.829733E4,1.7671324E4,6.5135758E4,2.3011459E4,2.9408635E4,6.88396E3,2.8313623E3,6.0669727E3,6.0760703E3,2.6549574E4,1.2899235E4,3.324129E4,3.395306E4,1.3362937E4,6.2566574E4,5.824818E3,1.510939E4,6.9772134E3,4.4199395E3,1.0265249E4,4.0237527E2,1.6630695E3,7.4602875E2,5.302467E2,4.0332706E2,6.844112E2,2.424955E3,1.04205666E2,1.6799572E3,3.661737E4,4.050001E3,1.3621323E4,2.7331176E4,3.7804582E4,1.5442766E4,7.568693E3],"tree_param":{"num_deleted":"0","num_feature":"19","num_nodes":"63","size_leaf_vector":"1"}},{"base_weights":[-2.4064286E-3,-1.0674112E0,1.9523827E0,-1.3033271E0,1.6454814E-1,1.7891761E0,2.0638955E0,-3.0748478E-1,-1.5577959E0,6.706074E-1,-5.823809E-1,2.00559E0,1.3720007E0,1.9973E0,2.1047847E0,9.5374995E-1,-1.5462282E0,-1.5721253E0,3.679441E-1,-9.921136E-1,1.1597298E0,-1.1113143E0,4.1219124E-1,5.179758E-1,2.070048E0,6.4579375E-2,1.7607483E0,2.0845897E0,1.9028375E0,2.0933475E0,1.0565659E-1,-7.691643E-2,7.384629E-2,-8.293911E-2,2.2933114E-2,-6.95359E-2,-8.457684E-2,5.5361927E-2,-7.23769E-2,-7.760923E-2,4.907712E-3,6.3841335E-2,-9.001629E-2,-7.832171E-2,-2.0663338E-2,-5.6477793E-2,3.789313E-2,-9.2246145E-2,8.82537E-2,1.0529695E-1,9.1643386E-2,4.861219E-2,-4.8575632E-2,9.6070014E-2,3.938627E-2,1.0534952E-1,9.940096E-2,9.6384436E-2,7.149427E-2,1.030085E-1,1.0523649E-1],"categories":[],"categories_nodes":[],"categories_segments":[],"categories_sizes":[],"default_left":[0,0,0,0,0,0,0,0,0,0,0,0,0,0,0,0,0,0,0,0,0,0,0,0,0,0,0,0,0,0,0,0,0,0,0,0,0,0,0,0,0,0,0,0,0,0,0,0,0,0,0,0,0,0,0,0,0,0,0,0,0],"id":1,"left_children":[1,3,5,7,9,11,13,15,17,19,21,23,25,27,29,31,33,35,37,39,41,43,45,47,49,51,53,55,57,59,-1,-1,-1,-1,-1,-1,-1,-1,-1,-1,-1,-1,-1,-1,-1,-1,-1,-1,-1,-1,-1,-1,-1,-1,-1,-1,-1,-1,-1,-1,-1],"loss_changes":[8.871762E5,8.017444E4,2.7315625E3,5.8669156E4,1.6759027E4,5.505625E3,2.38875E2,7.3621086E4,5.0890625E3,2.1496031E4,9.420712E3,3.8508594E3,1.059359E4,2.7626562E2,8.59375E-1,3.0444908E4,5.365332E3,3.9625938E3,1.8307051E3,3.66892E3,7.081131E3,3.7133242E3,3.3145298E3,4.9232783E3,3.23875E2,4.494407E3,2.5099062E3,3.3992188E1,1.8920703E2,4.515625E0,0E0,0E0,0E0,0E0,0E0,0E0,0E0,0E0,0E0,0E0,0E0,0E0,0E0,0E0,0E0,0E0,0E0,0E0,0E0,0E0,0E0,0E0,0E0,0E0,0E0,0E0,0E0,0E0,0E0,0E0,0E0],"parents":[2147483647,0,0,1,1,2,2,3,3,4,4,5,5,6,6,7,7,8,8,9,9,10,10,11,11,12,12,13,13,14,14,15,15,16,16,17,17,18,18,19,19,20,20,21,21,22,22,23,23,24,24,25,25,26,26,27,27,28,28,29,29],"right_children":[2,4,6,8,10,12,14,16,18,20,22,24,26,28,30,32,34,36,38,40,42,44,46,48,50,52,54,56,58,60,-1,-1,-1,-1,-1,-1,-1,-1,-1,-1,-1,-1,-1,-1,-1,-1,-1,-1,-1,-1,-1,-1,-1,-1,-1,-1,-1,-1,-1,-1,-1],"split_conditions":[1.5311643E0,1.3489168E0,2.3153994E0,-1.2920247E0,-2.2078851E-1,4E0,1.3489168E0,-2.4003759E-1,8.89E2,-1.1262712E0,8.4536463E-1,1E0,8E0,-1.2920247E0,2.3845756E-1,-1.2004436E0,8E0,-2.2078851E-1,-2.0053382E-1,1.810172E-1,1.3E1,1.810172E-1,8E0,2.1073816E0,2E0,6E0,1.9797513E0,2.3845756E-1,1.4154743E0,1E0,1.0565659E-1,-7.691643E-2,7.384629E-2,-8.293911E-2,2.2933114E-2,-6.95359E-2,-8.457684E-2,5.5361927E-2,-7.23769E-2,-7.760923E-2,4.907712E-3,6.3841335E-2,-9.001629E-2,-7.832171E-2,-2.0663338E-2,-5.6477793E-2,3.789313E-2,-9.2246145E-2,8.82537E-2,1.0529695E-1,9.1643386E-2,4.861219E-2,-4.8575632E-2,9.6070014E-2,3.938627E-2,1.0534952E-1,9.940096E-2,9.6384436E-2,7.149427E-2,1.030085E-1,1.0523649E-1],"split_indices":[2,15,2,15,2,1,15,2,7,2,2,1,1,15,14,2,1,2,2,14,1,14,1,2,1,1,2,14,17,3,0,0,0,0,0,0,0,0,0,0,0,0,0,0,0,0,0,0,0,0,0,0,0,0,0,0,0,0,0,0,0],"split_type":[0,0,0,0,0,0,0,0,0,0,0,0,0,0,0,0,0,0,0,0,0,0,0,0,0,0,0,0,0,0,0,0,0,0,0,0,0,0,0,0,0,0,0,0,0,0,0,0,0,0,0,0,0,0,0,0,0,0,0,0,0],"sum_hessian":[4.26144E5,2.7585412E5,1.5028989E5,2.3151897E5,4.4335152E4,6.1011836E4,8.9278055E4,4.7120195E4,1.8439878E5,2.6429049E4,1.7906102E4,4.0169633E4,2.0842205E4,3.3982074E4,5.5295984E4,2.334825E4,2.3771945E4,1.8303698E5,1.3617888E3,6.0071934E3,2.0421855E4,1.1689353E4,6.2167495E3,1.6686342E3,3.8500996E4,4.7771255E3,1.606508E4,1.7650643E4,1.6331431E4,2.3436094E4,3.185989E4,4.0508105E3,1.929744E4,2.2508496E4,1.2634489E3,7.266247E4,1.10374516E5,9.679952E2,3.9379367E2,3.9682686E3,2.0389246E3,1.9645277E4,7.765789E2,7.07517E3,4.6141826E3,1.1381516E3,5.078598E3,5.762755E2,1.0923588E3,3.343382E4,5.067178E3,2.5464124E3,2.2307131E3,1.3787676E4,2.277404E3,1.4310367E4,3.340275E3,1.5513214E4,8.1821686E2,6.0329653E3,1.7403127E4],"tree_param":{"num_deleted":"0","num_feature":"19","num_nodes":"61","size_leaf_vector":"1"}},{"base_weights":[3.6296326E-5,-1.023694E0,1.8306769E0,-1.2481263E0,1.4058775E-1,1.0067836E0,1.8679835E0,-2.9223642E-1,-1.4941275E0,6.284268E-1,-6.065059E-1,3.7055442E-1,1.8221666E0,1.7258306E0,1.9555831E0,9.044721E-1,-1.4881557E0,-1.5082973E0,3.861733E-1,-1.0449308E0,1.1003989E0,-9.9288654E-1,2.2391835E-1,1.4315027E0,-3.1557316E-1,1.1312665E0,1.9527626E0,1.9235938E0,1.2930276E0,1.8955637E0,1.9935936E0,-7.937529E-2,6.865404E-2,-8.055702E-2,2.7218554E-2,-7.573547E-2,1.0594083E-1,1.1283713E-1,-1.601414E-2,-7.904202E-2,1.472869E-4,6.061941E-2,-8.656776E-2,-7.357077E-2,-1.6907757E-2,-5.505641E-2,2.7099092E-2,-8.649217E-2,7.683891E-2,-4.8698716E-2,4.7269728E-2,-9.861313E-3,8.6317524E-2,8.986922E-2,9.97389E-2,3.6810614E-2,9.8851204E-2,2.4320432E-3,8.333424E-2,9.877376E-2,9.041771E-2,9.9139154E-2,1.0005104E-1],"categories":[],"categories_nodes":[],"categories_segments":[],"categories_sizes":[],"default_left":[0,0,0,0,0,0,0,0,0,0,0,0,0,0,0,0,0,0,0,0,0,0,0,0,0,0,0,0,0,0,0,0,0,0,0,0,0,0,0,0,0,0,0,0,0,0,0,0,0,0,0,0,0,0,0,0,0,0,0,0,0,0,0],"id":2,"left_children":[1,3,5,7,9,11,13,15,17,19,21,23,25,27,29,31,33,35,37,39,41,43,45,47,49,51,53,55,57,59,61,-1,-1,-1,-1,-1,-1,-1,-1,-1,-1,-1,-1,-1,-1,-1,-1,-1,-1,-1,-1,-1,-1,-1,-1,-1,-1,-1,-1,-1,-1,-1,-1],"loss_changes":[7.9514375E5,7.110403E4,4.6753438E3,5.3645938E4,1.6028502E4,3.4201528E3,1.8094375E3,6.683099E4,4.8348125E3,2.1013562E4,5.57455E3,2.6976533E3,2.5854297E2,4.749125E3,2.016875E2,2.7258783E4,5.839176E3,4.1915E3,1.7951533E3,3.2872554E3,6.583334E3,3.714291E3,2.325906E3,4.8700977E2,1.869663E3,3.654171E2,1.2271484E1,2.4157812E3,8.096918E3,2.3994531E2,4.53125E-1,0E0,0E0,0E0,0E0,0E0,0E0,0E0,0E0,0E0,0E0,0E0,0E0,0E0,0E0,0E0,0E0,0E0,0E0,0E0,0E0,0E0,0E0,0E0,0E0,0E0,0E0,0E0,0E0,0E0,0E0,0E0,0E0],"parents":[2147483647,0,0,1,1,2,2,3,3,4,4,5,5,6,6,7,7,8,8,9,9,10,10,11,11,12,12,13,13,14,14,15,15,16,16,17,17,18,18,19,19,20,20,21,21,22,22,23,23,24,24,25,25,26,26,27,27,28,28,29,29,30,30],"right_children":[2,4,6,8,10,12,14,16,18,20,22,24,26,28,30,32,34,36,38,40,42,44,46,48,50,52,54,56,58,60,62,-1,-1,-1,-1,-1,-1,-1,-1,-1,-1,-1,-1,-1,-1,-1,-1,-1,-1,-1,-1,-1,-1,-1,-1,-1,-1,-1,-1,-1,-1,-1,-1],"split_conditions":[1.4784065E0,1.3489168E0,1.6089319E0,-1.2920247E0,-2.2078851E-1,1.3489168E0,2.3153994E0,-2.4003759E-1,9E2,-1.1262712E0,8.4536463E-1,-1.2920247E0,1E1,4E0,1.3489168E0,-1.2308862E0,8E0,8.89E2,8.1E2,1.810172E-1,1.3E1,1.2357685E-1,8E0,1E0,1.1E1,-4.874421E-2,1.3E1,1E0,8E0,-1.2920247E0,1.810172E-1,-7.937529E-2,6.865404E-2,-8.055702E-2,2.7218554E-2,-7.573547E-2,1.0594083E-1,1.1283713E-1,-1.601414E-2,-7.904202E-2,1.472869E-4,6.061941E-2,-8.656776E-2,-7.357077E-2,-1.6907757E-2,-5.505641E-2,2.7099092E-2,-8.649217E-2,7.683891E-2,-4.8698716E-2,4.7269728E-2,-9.861313E-3,8.6317524E-2,8.986922E-2,9.97389E-2,3.6810614E-2,9.8851204E-2,2.4320432E-3,8.333424E-2,9.877376E-2,9.041771E-2,9.9139154E-2,1.0005104E-1],"split_indices":[2,15,2,15,2,15,2,2,4,2,2,15,1,1,15,2,1,7,7,14,1,14,1,1,1,14,1,1,1,15,14,0,0,0,0,0,0,0,0,0,0,0,0,0,0,0,0,0,0,0,0,0,0,0,0,0,0,0,0,0,0,0,0],"split_type":[0,0,0,0,0,0,0,0,0,0,0,0,0,0,0,0,0,0,0,0,0,0,0,0,0,0,0,0,0,0,0,0,0,0,0,0,0,0,0,0,0,0,0,0,0,0,0,0,0,0,0,0,0,0,0,0,0,0,0,0,0,0,0],"sum_hessian":[4.2428234E5,2.7211225E5,1.521701E5,2.2813569E5,4.397655E4,6.5931084E3,1.4557698E5,4.6694918E4,1.8144078E5,2.660446E4,1.7372088E4,3.7042224E3,2.8888857E3,5.5513234E4,9.006375E4,2.3339879E4,2.3355037E4,1.8008388E5,1.3568997E3,5.8527095E3,2.0751752E4,1.1855672E4,5.5164165E3,1.4543295E3,2.249893E3,4.607922E2,2.4280935E3,3.810036E4,1.7412875E4,3.494144E4,5.512231E4,3.6939136E3,1.9645965E4,2.202269E4,1.332348E3,1.7976667E5,3.1721106E2,3.7137384E2,9.855259E2,3.8719775E3,1.9807319E3,1.996284E4,7.889115E2,6.8487925E3,5.00688E3,1.0673586E3,4.449058E3,4.6372276E1,1.4079572E3,1.4782617E3,7.7163135E2,1.4275899E2,3.180332E2,5.2613995E2,1.9019536E3,1.6412682E3,3.645909E4,4.02144E3,1.3391435E4,1.8222357E4,1.6719084E4,2.2556953E4,3.2565354E4],"tree_param":{"num_deleted":"0","num_feature":"19","num_nodes":"63","size_leaf_vector":"1"}},{"base_weights":[6.4768614E-3,-9.780138E-1,1.7628533E0,-4.3858796E-1,-1.4218626E0,1.6142362E0,1.862369E0,-1.4577497E0,1.0396962E-1,-1.4531745E0,-2.0773038E-3,1.7314794E0,1.2112287E0,1.8510108E0,9.480229E-2,-1.5334092E0,-1.0364516E0,2.3882162E-2,1.8720922E0,-1.5240675E0,-1.2383405E0,-1.0155509E0,8.589359E-1,1.235516E0,1.7872254E0,1.2452826E0,-1.120458E0,1.8565139E0,1.7794094E0,-7.744206E-2,-3.8477596E-2,-5.460347E-2,7.5434975E-2,-1.1504053E-2,2.6030669E-2,9.498476E-2,-2.1765362E-2,-6.998956E-2,-8.064001E-2,-6.29809E-2,5.5655837E-2,-7.033455E-2,1.12891905E-2,5.9272975E-2,-2.6754344E-2,5.3054508E-2,8.7241806E-2,9.1605365E-2,8.012956E-2,5.5460513E-2,7.700831E-2,-8.265455E-2,8.881723E-2,9.321531E-2,9.086728E-2,-8.902275E-2,8.921698E-2],"categories":[],"categories_nodes":[],"categories_segments":[],"categories_sizes":[],"default_left":[0,0,0,0,0,0,0,0,0,0,0,0,0,0,0,0,0,0,0,0,0,0,0,0,0,0,0,0,0,0,0,0,0,0,0,0,0,0,0,0,0,0,0,0,0,0,0,0,0,0,0,0,0,0,0,0,0],"id":3,"left_children":[1,3,5,7,9,11,13,15,17,19,21,23,25,27,-1,29,31,33,35,37,39,41,43,45,47,49,51,53,55,-1,-1,-1,-1,-1,-1,-1,-1,-1,-1,-1,-1,-1,-1,-1,-1,-1,-1,-1,-1,-1,-1,-1,-1,-1,-1,-1,-1],"loss_changes":[7.3017925E5,6.478772E4,2.2403438E3,6.754376E4,6.5995625E3,2.8725625E3,3.125E1,1.3510781E3,1.1287966E4,2.2102812E3,2.7969888E3,1.3007344E3,1.090332E3,2.3484375E1,0E0,4.2285938E2,9.166416E2,9.620664E3,2.2083008E2,1.202E3,1.8047695E3,7.1517065E2,7.8946387E2,4.2146387E2,3.4810938E2,5.406738E2,3.0833667E2,1.5859375E1,8.874219E1,0E0,0E0,0E0,0E0,0E0,0E0,0E0,0E0,0E0,0E0,0E0,0E0,0E0,0E0,0E0,0E0,0E0,0E0,0E0,0E0,0E0,0E0,0E0,0E0,0E0,0E0,0E0,0E0],"parents":[2147483647,0,0,1,1,2,2,3,3,4,4,5,5,6,6,7,7,8,8,9,9,10,10,11,11,12,12,13,13,15,15,16,16,17,17,18,18,19,19,20,20,21,21,22,22,23,23,24,24,25,25,26,26,27,27,28,28],"right_children":[2,4,6,8,10,12,14,16,18,20,22,24,26,28,-1,30,32,34,36,38,40,42,44,46,48,50,52,54,56,-1,-1,-1,-1,-1,-1,-1,-1,-1,-1,-1,-1,-1,-1,-1,-1,-1,-1,-1,-1,-1,-1,-1,-1,-1,-1,-1,-1],"split_conditions":[1.5311643E0,-2.2078851E-1,2.3153994E0,-1.1409445E0,1.4406224E0,1.8142639E0,7.66E2,-1.2308862E0,9E2,8.4536463E-1,3.68E2,1.6089319E0,6.76E2,1.4154743E0,9.480229E-2,8.04E2,8.89E2,-4.9265003E-1,1.7721689E0,3.587924E-1,9E2,3.5333827E-1,2.3845756E-1,7.63E2,2.82E2,6.63E2,1.0066816E0,8.487536E-1,1E0,-7.744206E-2,-3.8477596E-2,-5.460347E-2,7.5434975E-2,-1.1504053E-2,2.6030669E-2,9.498476E-2,-2.1765362E-2,-6.998956E-2,-8.064001E-2,-6.29809E-2,5.5655837E-2,-7.033455E-2,1.12891905E-2,5.9272975E-2,-2.6754344E-2,5.3054508E-2,8.7241806E-2,9.1605365E-2,8.012956E-2,5.5460513E-2,7.700831E-2,-8.265455E-2,8.881723E-2,9.321531E-2,9.086728E-2,-8.902275E-2,8.921698E-2],"split_indices":[2,2,2,2,2,2,4,2,4,2,0,2,0,17,0,5,7,2,12,2,4,14,14,4,0,4,14,10,6,0,0,0,0,0,0,0,0,0,0,0,0,0,0,0,0,0,0,0,0,0,0,0,0,0,0,0,0],"split_type":[0,0,0,0,0,0,0,0,0,0,0,0,0,0,0,0,0,0,0,0,0,0,0,0,0,0,0,0,0,0,0,0,0,0,0,0,0,0,0,0,0,0,0,0,0,0,0,0,0,0,0,0,0,0,0,0,0],"sum_hessian":[4.222778E5,2.7060034E5,1.5167748E5,1.22149516E5,1.4845083E5,6.083848E4,9.0839E4,4.243543E4,7.9714086E4,1.4524753E5,3.2032988E3,4.712543E4,1.3713052E4,6.797056E4,2.286843E4,3.597259E4,6.4628374E3,7.626085E4,3.4532363E3,1.0920488E5,3.604265E4,1.4712976E3,1.7320012E3,4.7639946E3,4.2361434E4,1.3516117E4,1.969349E2,6.3096266E4,4.874299E3,3.5259234E4,7.1335565E2,6.3251875E3,1.3765018E2,5.0461824E4,2.5799025E4,3.4125889E3,4.064749E1,4.549824E4,6.3706645E4,3.57199E4,3.2275095E2,1.1186742E3,3.5262344E2,1.4034249E3,3.2857623E2,3.5509805E3,1.2130145E3,3.4070465E4,8.29097E3,9.251721E3,4.2643965E3,1.6671118E2,3.022372E1,5.2587742E4,1.0508523E4,6.2431607E0,4.8680557E3],"tree_param":{"num_deleted":"0","num_feature":"19","num_nodes":"57","size_leaf_vector":"1"}},{"base_weights":[-6.763382E-3,-9.5154804E-1,1.682125E0,-4.3576577E-1,-1.3782841E0,1.5368425E0,1.7808716E0,-1.3841394E0,9.0109855E-2,-1.4075248E0,-4.271498E-2,1.7363143E0,1.1438911E0,1.7940681E0,1.7437576E0,-1.4844378E0,-9.792488E-1,9.006765E-1,-4.8821175E-1,-1.5577575E0,-1.306614E0,-1.250138E0,1.2407935E0,4.8247698E-1,1.7938012E0,-1.448968E-1,1.5113198E0,1.7866359E0,9.099013E-2,1.7824117E0,1.6674844E0,-7.89481E-2,-5.4600984E-2,-1.5238536E-2,-6.509999E-2,-8.442741E-2,7.403442E-2,-8.381766E-2,-1.7206523E-3,-7.793809E-2,1.2631617E-1,-7.103264E-2,-4.7128312E-2,-7.710698E-2,-2.6501631E-3,1.6390648E-2,8.150338E-2,-9.207677E-2,8.04156E-2,9.126225E-2,7.848682E-2,3.470031E-2,-5.1320072E-2,8.304285E-2,3.4338847E-2,9.020427E-2,8.873858E-2,8.8438414E-2,9.1524236E-2,8.553553E-2,-1.0761968E-1],"categories":[],"categories_nodes":[],"categories_segments":[],"categories_sizes":[],"default_left":[0,0,0,0,0,0,0,0,0,0,0,0,0,0,0,0,0,0,0,0,0,0,0,0,0,0,0,0,0,0,0,0,0,0,0,0,0,0,0,0,0,0,0,0,0,0,0,0,0,0,0,0,0,0,0,0,0,0,0,0,0],"id":4,"left_children":[1,3,5,7,9,11,13,15,17,19,21,23,25,27,29,31,33,35,37,39,41,43,45,47,49,51,53,55,-1,57,59,-1,-1,-1,-1,-1,-1,-1,-1,-1,-1,-1,-1,-1,-1,-1,-1,-1,-1,-1,-1,-1,-1,-1,-1,-1,-1,-1,-1,-1,-1],"loss_changes":[6.634984E5,5.869028E4,2.13725E3,6.021204E4,5.6986562E3,4.7298594E3,4.0375E1,1.7474453E3,3.6408023E4,2.16275E3,4.84816E3,2.885211E3,9.626906E3,9.28125E0,6.580469E1,1.2785E3,1.8615068E3,4.8570164E4,2.4439469E4,2.3925E2,3.5451406E3,5.633992E2,5.384031E2,4.599242E3,2.668672E2,3.336532E3,1.9493867E3,7.328125E0,0E0,6.90625E0,1.3017852E3,0E0,0E0,0E0,0E0,0E0,0E0,0E0,0E0,0E0,0E0,0E0,0E0,0E0,0E0,0E0,0E0,0E0,0E0,0E0,0E0,0E0,0E0,0E0,0E0,0E0,0E0,0E0,0E0,0E0,0E0],"parents":[2147483647,0,0,1,1,2,2,3,3,4,4,5,5,6,6,7,7,8,8,9,9,10,10,11,11,12,12,13,13,14,14,15,15,16,16,17,17,18,18,19,19,20,20,21,21,22,22,23,23,24,24,25,25,26,26,27,27,29,29,30,30],"right_children":[2,4,6,8,10,12,14,16,18,20,22,24,26,28,30,32,34,36,38,40,42,44,46,48,50,52,54,56,-1,58,60,-1,-1,-1,-1,-1,-1,-1,-1,-1,-1,-1,-1,-1,-1,-1,-1,-1,-1,-1,-1,-1,-1,-1,-1,-1,-1,-1,-1,-1,-1],"split_conditions":[1.5311643E0,-2.2078851E-1,2.3153994E0,-1.1262712E0,1.4406224E0,4E0,7E0,-1.2476996E0,6E0,4E0,1E1,1E0,8E0,8.05E2,2.57613E0,1.1E1,6E0,3E0,9E0,5E1,8.4536463E-1,6.979804E-1,1.3E1,2.1073816E0,2E0,6E0,1.9797513E0,3E0,9.099013E-2,1.2E1,1.1E1,-7.89481E-2,-5.4600984E-2,-1.5238536E-2,-6.509999E-2,-8.442741E-2,7.403442E-2,-8.381766E-2,-1.7206523E-3,-7.793809E-2,1.2631617E-1,-7.103264E-2,-4.7128312E-2,-7.710698E-2,-2.6501631E-3,1.6390648E-2,8.150338E-2,-9.207677E-2,8.04156E-2,9.126225E-2,7.848682E-2,3.470031E-2,-5.1320072E-2,8.304285E-2,3.4338847E-2,9.020427E-2,8.873858E-2,8.8438414E-2,9.1524236E-2,8.553553E-2,-1.0761968E-1],"split_indices":[2,2,2,2,2,1,1,2,1,1,1,1,1,4,2,1,1,1,1,6,2,14,1,2,1,1,2,1,0,1,1,0,0,0,0,0,0,0,0,0,0,0,0,0,0,0,0,0,0,0,0,0,0,0,0,0,0,0,0,0,0],"split_type":[0,0,0,0,0,0,0,0,0,0,0,0,0,0,0,0,0,0,0,0,0,0,0,0,0,0,0,0,0,0,0,0,0,0,0,0,0,0,0,0,0,0,0,0,0,0,0,0,0,0,0,0,0,0,0,0,0,0,0,0,0],"sum_hessian":[4.1581862E5,2.6665116E5,1.4916747E5,1.2073031E5,1.4592086E5,6.03675E4,8.879997E4,4.3064812E4,7.76655E4,1.4279448E5,3.126374E3,4.00392E4,2.03283E4,6.547269E4,2.3327275E4,3.4512746E4,8.552067E3,3.2339041E4,4.5326457E4,5.736981E4,8.542467E4,1.6109479E3,1.5154261E3,1.7556827E3,3.8283516E4,4.509931E3,1.581837E4,5.0855617E4,1.4617076E4,1.5466637E4,7.8606396E3,2.7810764E4,6.70198E3,2.7684868E3,5.7835806E3,5.918119E3,2.6420922E4,1.25265625E4,3.2799895E4,5.7356324E4,1.348499E1,6.5045977E4,2.0378697E4,1.2948289E3,3.1611905E2,4.5354663E2,1.0618795E3,5.72748E2,1.1829347E3,3.3565938E4,4.7175776E3,2.310913E3,2.199018E3,1.3389131E4,2.4292393E3,2.0521713E4,3.0333902E4,1.2076886E4,3.3897515E3,7.773229E3,8.741055E1],"tree_param":{"num_deleted":"0","num_feature":"19","num_nodes":"61","size_leaf_vector":"1"}},{"base_weights":[-4.524972E-3,-9.1084784E-1,1.6130788E0,-1.132366E0,2.0782363E-1,1.4970019E0,1.7340665E0,-2.1871656E-1,-1.3711693E0,6.1083674E-1,-4.1486776E-1,1.7124615E0,1.1558951E0,1.6993383E0,1.760508E0,8.4863436E-1,-1.339949E0,-1.3847132E0,3.470318E-1,-8.516711E-2,1.429862E0,-8.623913E-1,3.9730188E-1,1.7450905E0,1.6549135E0,6.7703736E-1,1.5544657E0,1.6056722E0,1.7357272E0,1.7820629E0,8.772037E-2,-6.674864E-2,6.404539E-2,-6.784223E-2,1.2434881E-1,-6.951926E-2,1.00396335E-1,4.922409E-2,-6.549048E-2,-4.6405297E-2,1.875564E-2,7.492028E-2,2.9096937E-2,-6.8060026E-2,-3.6496453E-3,-6.8797134E-2,2.6846176E-2,7.56046E-2,8.751015E-2,8.549619E-2,7.4604444E-2,5.114183E-2,-4.388677E-3,7.2409E-2,8.270077E-2,8.1352964E-2,-7.241405E-4,8.496061E-2,8.737656E-2,8.8277854E-2,9.289586E-2],"categories":[],"categories_nodes":[],"categories_segments":[],"categories_sizes":[],"default_left":[0,0,0,0,0,0,0,0,0,0,0,0,0,0,0,0,0,0,0,0,0,0,0,0,0,0,0,0,0,0,0,0,0,0,0,0,0,0,0,0,0,0,0,0,0,0,0,0,0,0,0,0,0,0,0,0,0,0,0,0,0],"id":5,"left_children":[1,3,5,7,9,11,13,15,17,19,21,23,25,27,29,31,33,35,37,39,41,43,45,47,49,51,53,55,57,59,-1,-1,-1,-1,-1,-1,-1,-1,-1,-1,-1,-1,-1,-1,-1,-1,-1,-1,-1,-1,-1,-1,-1,-1,-1,-1,-1,-1,-1,-1,-1],"loss_changes":[6.018115E5,6.5194953E4,2.0675E3,4.7913125E4,1.0913254E4,5.5275312E3,6.3265625E1,5.4460066E4,4.0519688E3,1.5049491E4,6.210846E3,8.3671875E1,5.5584375E3,1.0363281E2,2.2734375E0,2.2007816E4,1.4383281E3,3.3266875E3,1.4402073E3,5.5380874E3,7.040254E2,4.3378975E3,1.5038313E3,3.2382812E1,1.470586E2,3.4999673E3,1.6580078E2,3.032129E2,6.7109375E0,7.951172E0,0E0,0E0,0E0,0E0,0E0,0E0,0E0,0E0,0E0,0E0,0E0,0E0,0E0,0E0,0E0,0E0,0E0,0E0,0E0,0E0,0E0,0E0,0E0,0E0,0E0,0E0,0E0,0E0,0E0,0E0,0E0],"parents":[2147483647,0,0,1,1,2,2,3,3,4,4,5,5,6,6,7,7,8,8,9,9,10,10,11,11,12,12,13,13,14,14,15,15,16,16,17,17,18,18,19,19,20,20,21,21,22,22,23,23,24,24,25,25,26,26,27,27,28,28,29,29],"right_children":[2,4,6,8,10,12,14,16,18,20,22,24,26,28,30,32,34,36,38,40,42,44,46,48,50,52,54,56,58,60,-1,-1,-1,-1,-1,-1,-1,-1,-1,-1,-1,-1,-1,-1,-1,-1,-1,-1,-1,-1,-1,-1,-1,-1,-1,-1,-1,-1,-1,-1,-1],"split_conditions":[1.5311643E0,1.3489168E0,1.3489168E0,-1.2920247E0,-2.0053382E-1,-1.2920247E0,2.3845756E-1,-2.0053382E-1,8.89E2,-5.4491735E-1,8.36218E-1,2.3845756E-1,2.3153994E0,2.3153994E0,2.3153994E0,-1.1846133E0,-1.430611E0,9E2,-2.0053382E-1,-1.1846133E0,-2.6072878E-1,2.3845756E-1,-1.1975513E0,1.6089319E0,1.8142639E0,1.8142639E0,2.958979E-1,1.5550225E0,1E0,1.9797513E0,8.772037E-2,-6.674864E-2,6.404539E-2,-6.784223E-2,1.2434881E-1,-6.951926E-2,1.00396335E-1,4.922409E-2,-6.549048E-2,-4.6405297E-2,1.875564E-2,7.492028E-2,2.9096937E-2,-6.8060026E-2,-3.6496453E-3,-6.8797134E-2,2.6846176E-2,7.56046E-2,8.751015E-2,8.549619E-2,7.4604444E-2,5.114183E-2,-4.388677E-3,7.2409E-2,8.270077E-2,8.1352964E-2,-7.241405E-4,8.496061E-2,8.737656E-2,8.8277854E-2,9.289586E-2],"split_indices":[2,15,15,15,2,15,14,2,7,2,2,14,2,2,2,2,15,4,2,2,2,14,14,2,2,2,14,10,3,2,0,0,0,0,0,0,0,0,0,0,0,0,0,0,0,0,0,0,0,0,0,0,0,0,0,0,0,0,0,0,0],"split_type":[0,0,0,0,0,0,0,0,0,0,0,0,0,0,0,0,0,0,0,0,0,0,0,0,0,0,0,0,0,0,0,0,0,0,0,0,0,0,0,0,0,0,0,0,0,0,0,0,0,0,0,0,0,0,0,0,0,0,0,0,0],"sum_hessian":[4.1049062E5,2.6308684E5,1.4740378E5,2.1960158E5,4.348527E4,7.523549E4,7.21683E4,4.550474E4,1.7409684E5,2.6399332E4,1.7085936E4,4.6107652E4,2.9127838E4,3.1223904E4,4.0944395E4,2.3312643E4,2.2192096E4,1.7273542E5,1.3614137E3,1.4271973E4,1.212736E4,1.1015879E4,6.070056E3,2.9405652E4,1.6702002E4,1.3232503E4,1.5895335E4,8.748964E3,2.247494E4,8.967664E3,3.1976729E4,3.8520618E3,1.9460582E4,2.2095193E4,9.6902374E1,1.7244772E5,2.877113E2,9.834491E2,3.7796454E2,5.040316E3,9.231656E3,1.1219632E4,9.077286E2,6.749957E3,4.2659224E3,4.42412E2,5.627644E3,6.3774066E2,2.8767912E4,1.2477109E4,4.2248916E3,9.112203E3,4.1203003E3,7.695098E3,8.200237E3,8.634973E3,1.13991325E2,5.5258545E3,1.6949086E4,7.384972E3,1.5826919E3],"tree_param":{"num_deleted":"0","num_feature":"19","num_nodes":"61","size_leaf_vector":"1"}},{"base_weights":[-3.5588953E-3,-8.716919E-1,1.5508939E0,-1.0871944E0,2.0258886E-1,1.4361525E0,1.6690367E0,-1.9656429E-1,-1.3225548E0,5.708975E-1,-3.5260049E-1,1.6473815E0,1.1053755E0,1.6764904E0,1.5827057E0,8.329569E-1,-1.2921731E0,-1.1402409E0,-1.4476709E0,-8.3709455E-1,9.40948E-1,-8.397268E-1,4.817135E-1,1.380339E0,1.6537038E0,6.688591E-1,1.4892576E0,1.3506327E0,1.6796983E0,-4.442286E-1,1.6901009E0,-6.621634E-2,6.165942E-2,-7.089903E-2,3.4636613E-2,-7.2110094E-2,-4.201707E-2,-7.2746724E-2,-4.896262E-2,-6.8634376E-2,6.081959E-3,5.240753E-2,-8.492159E-2,-1.6250446E-2,-7.022101E-2,-4.561547E-2,3.8623795E-2,-8.529152E-2,7.316207E-2,7.7795945E-2,8.333115E-2,6.349947E-2,6.826864E-3,8.1482016E-2,7.144433E-2,8.5524485E-2,5.3071093E-2,8.211523E-2,8.435378E-2,8.248224E-2,-1.08521126E-1,8.47362E-2,7.496347E-2],"categories":[],"categories_nodes":[],"categories_segments":[],"categories_sizes":[],"default_left":[0,0,0,0,0,0,0,0,0,0,0,0,0,0,0,0,0,0,0,0,0,0,0,0,0,0,0,0,0,0,0,0,0,0,0,0,0,0,0,0,0,0,0,0,0,0,0,0,0,0,0,0,0,0,0,0,0,0,0,0,0,0,0],"id":6,"left_children":[1,3,5,7,9,11,13,15,17,19,21,23,25,27,29,31,33,35,37,39,41,43,45,47,49,51,53,55,57,59,61,-1,-1,-1,-1,-1,-1,-1,-1,-1,-1,-1,-1,-1,-1,-1,-1,-1,-1,-1,-1,-1,-1,-1,-1,-1,-1,-1,-1,-1,-1,-1,-1],"loss_changes":[5.4614875E5,6.0119812E4,1.963625E3,4.533933E4,8.872635E3,5.13925E3,4.3328125E1,5.0998414E4,3.9008438E3,1.3592133E4,7.0335938E3,7.353125E1,4.8047227E3,6.6453125E1,1.2407686E3,2.0127592E4,5.4706406E3,6.3044844E3,3.4375E2,2.7881833E3,5.846668E3,3.1753901E3,2.5866929E3,2.6974194E2,5.28125E1,4.294542E3,1.26984375E2,6.542615E1,1.5203125E1,1.0424601E3,2.2314453E0,0E0,0E0,0E0,0E0,0E0,0E0,0E0,0E0,0E0,0E0,0E0,0E0,0E0,0E0,0E0,0E0,0E0,0E0,0E0,0E0,0E0,0E0,0E0,0E0,0E0,0E0,0E0,0E0,0E0,0E0,0E0,0E0],"parents":[2147483647,0,0,1,1,2,2,3,3,4,4,5,5,6,6,7,7,8,8,9,9,10,10,11,11,12,12,13,13,14,14,15,15,16,16,17,17,18,18,19,19,20,20,21,21,22,22,23,23,24,24,25,25,26,26,27,27,28,28,29,29,30,30],"right_children":[2,4,6,8,10,12,14,16,18,20,22,24,26,28,30,32,34,36,38,40,42,44,46,48,50,52,54,56,58,60,62,-1,-1,-1,-1,-1,-1,-1,-1,-1,-1,-1,-1,-1,-1,-1,-1,-1,-1,-1,-1,-1,-1,-1,-1,-1,-1,-1,-1,-1,-1,-1,-1],"split_conditions":[1.5311643E0,1.3489168E0,1.3489168E0,-1.2920247E0,-2.0053382E-1,-1.2920247E0,1.1E1,-2.4003759E-1,-2.2078851E-1,-1.1409445E0,8.4536463E-1,1.6089319E0,2.3153994E0,1.6089319E0,1.2E1,-1.2004436E0,8E0,-1.0585726E0,1.4406224E0,1.1E1,1.3E1,1E1,8E0,1E0,1E0,4E0,3E0,2E0,2.1073816E0,1.8142639E0,1.3889899E0,-6.621634E-2,6.165942E-2,-7.089903E-2,3.4636613E-2,-7.2110094E-2,-4.201707E-2,-7.2746724E-2,-4.896262E-2,-6.8634376E-2,6.081959E-3,5.240753E-2,-8.492159E-2,-1.6250446E-2,-7.022101E-2,-4.561547E-2,3.8623795E-2,-8.529152E-2,7.316207E-2,7.7795945E-2,8.333115E-2,6.349947E-2,6.826864E-3,8.1482016E-2,7.144433E-2,8.5524485E-2,5.3071093E-2,8.211523E-2,8.435378E-2,8.248224E-2,-1.08521126E-1,8.47362E-2,7.496347E-2],"split_indices":[2,15,15,15,2,15,1,2,2,2,2,2,2,2,1,2,1,2,2,1,1,1,1,1,1,1,1,1,2,2,10,0,0,0,0,0,0,0,0,0,0,0,0,0,0,0,0,0,0,0,0,0,0,0,0,0,0,0,0,0,0,0,0],"split_type":[0,0,0,0,0,0,0,0,0,0,0,0,0,0,0,0,0,0,0,0,0,0,0,0,0,0,0,0,0,0,0,0,0,0,0,0,0,0,0,0,0,0,0,0,0,0,0,0,0,0,0,0,0,0,0,0,0,0,0,0,0,0,0],"sum_hessian":[4.04711E5,2.596832E5,1.4502781E5,2.1629419E5,4.3389008E4,7.3579695E4,7.144811E4,4.521131E4,1.7108289E5,2.6084625E4,1.730438E4,4.4901977E4,2.8677715E4,6.5752664E4,5.6954473E3,2.3308771E4,2.1902535E4,6.963045E4,1.0145244E5,5.428532E3,2.0656092E4,1.0925414E4,6.378968E3,1.0435365E3,4.385844E4,1.34202E4,1.5257515E4,6.4509235E2,6.5107574E4,2.8642545E2,5.409022E3,3.647283E3,1.9661488E4,2.059732E4,1.3052141E3,3.469409E4,3.4936363E4,9.99012E4,1.5512324E3,3.4825737E3,1.9459583E3,1.985044E4,8.0565393E2,5.716448E3,5.208966E3,1.1005214E3,5.2784463E3,2.678664E1,1.0167498E3,5.132453E3,3.872599E4,6.3020986E3,7.1181016E3,4.5804473E3,1.0677067E4,2.852498E2,3.598426E2,1.0765197E4,5.4342375E4,1.2944861E2,1.5697684E2,5.273388E3,1.3563354E2],"tree_param":{"num_deleted":"0","num_feature":"19","num_nodes":"63","size_leaf_vector":"1"}},{"base_weights":[-1.9865418E-3,-8.557036E-1,1.4810413E0,-1.0685837E0,1.885914E-1,8.458265E-1,1.511968E0,-2.0241676E-1,-1.2984767E0,5.693237E-1,-4.262038E-1,2.4753784E-1,1.4032933E0,1.4128481E0,1.6138724E0,7.786383E-1,-1.2905796E0,-1.3128445E0,4.3240747E-1,-6.5970445E-1,9.600095E-1,-8.224571E-1,3.1780636E-1,9.532451E-1,-8.728344E-1,9.2043126E-1,1.6386752E0,1.5978236E0,1.1197696E0,1.6221745E0,1.4836853E0,-7.096682E-2,5.7084024E-2,-7.001329E-2,2.6590941E-2,-6.5988764E-2,9.9048324E-2,5.131447E-2,-4.933332E-2,-6.245291E-2,1.8363453E-2,5.31192E-2,-8.209909E-2,-6.443773E-2,-4.3122577E-3,-4.9477767E-2,3.0076994E-2,-8.438046E-2,6.1069574E-2,-5.9880503E-2,4.3384645E-2,8.022769E-2,2.7862746E-2,-7.695813E-2,8.211644E-2,8.144144E-2,7.7039376E-2,3.5879135E-2,7.173001E-2,7.969969E-2,8.212742E-2,-1.2439084E-2,8.1382185E-2],"categories":[],"categories_nodes":[],"categories_segments":[],"categories_sizes":[],"default_left":[0,0,0,0,0,0,0,0,0,0,0,0,0,0,0,0,0,0,0,0,0,0,0,0,0,0,0,0,0,0,0,0,0,0,0,0,0,0,0,0,0,0,0,0,0,0,0,0,0,0,0,0,0,0,0,0,0,0,0,0,0,0,0],"id":7,"left_children":[1,3,5,7,9,11,13,15,17,19,21,23,25,27,29,31,33,35,37,39,41,43,45,47,49,51,53,55,57,59,61,-1,-1,-1,-1,-1,-1,-1,-1,-1,-1,-1,-1,-1,-1,-1,-1,-1,-1,-1,-1,-1,-1,-1,-1,-1,-1,-1,-1,-1,-1,-1,-1],"loss_changes":[5.048433E5,5.6258906E4,2.8605938E3,4.18585E4,1.0030898E4,2.2561685E3,1.4008438E3,4.7071574E4,4.131875E3,1.2707919E4,4.8321016E3,2.5819639E3,3.965293E2,3.8162344E3,7.1609375E1,1.8504582E4,4.1795586E3,3.7636875E3,1.1542122E3,3.8643796E3,5.351004E3,3.6711196E3,2.113548E3,1.4207462E3,7.1450336E2,2.8482684E2,2.9847168E1,7.384375E1,3.4498867E3,3.434375E1,1.0272998E3,0E0,0E0,0E0,0E0,0E0,0E0,0E0,0E0,0E0,0E0,0E0,0E0,0E0,0E0,0E0,0E0,0E0,0E0,0E0,0E0,0E0,0E0,0E0,0E0,0E0,0E0,0E0,0E0,0E0,0E0,0E0,0E0],"parents":[2147483647,0,0,1,1,2,2,3,3,4,4,5,5,6,6,7,7,8,8,9,9,10,10,11,11,12,12,13,13,14,14,15,15,16,16,17,17,18,18,19,19,20,20,21,21,22,22,23,23,24,24,25,25,26,26,27,27,28,28,29,29,30,30],"right_children":[2,4,6,8,10,12,14,16,18,20,22,24,26,28,30,32,34,36,38,40,42,44,46,48,50,52,54,56,58,60,62,-1,-1,-1,-1,-1,-1,-1,-1,-1,-1,-1,-1,-1,-1,-1,-1,-1,-1,-1,-1,-1,-1,-1,-1,-1,-1,-1,-1,-1,-1,-1,-1],"split_conditions":[1.4784065E0,1.3489168E0,1.6089319E0,-1.2920247E0,-2.0053382E-1,1E1,1.3489168E0,-2.0053382E-1,9E2,-1.0720096E0,8.36218E-1,2E0,1.3489168E0,-1.2920247E0,1.1E1,-1.2308862E0,8E0,8.89E2,-3.2598743E-1,1.810172E-1,1.3E1,2.3845756E-1,8E0,1E0,1.3677286E0,2.844602E-2,-1.6027853E0,2.3845756E-1,2.3153994E0,2.3845756E-1,1.2E1,-7.096682E-2,5.7084024E-2,-7.001329E-2,2.6590941E-2,-6.5988764E-2,9.9048324E-2,5.131447E-2,-4.933332E-2,-6.245291E-2,1.8363453E-2,5.31192E-2,-8.209909E-2,-6.443773E-2,-4.3122577E-3,-4.9477767E-2,3.0076994E-2,-8.438046E-2,6.1069574E-2,-5.9880503E-2,4.3384645E-2,8.022769E-2,2.7862746E-2,-7.695813E-2,8.211644E-2,8.144144E-2,7.7039376E-2,3.5879135E-2,7.173001E-2,7.969969E-2,8.212742E-2,-1.2439084E-2,8.1382185E-2],"split_indices":[2,15,2,15,2,1,15,2,4,2,2,1,15,15,1,2,1,7,2,14,1,14,1,1,15,15,10,14,2,14,1,0,0,0,0,0,0,0,0,0,0,0,0,0,0,0,0,0,0,0,0,0,0,0,0,0,0,0,0,0,0,0,0],"split_type":[0,0,0,0,0,0,0,0,0,0,0,0,0,0,0,0,0,0,0,0,0,0,0,0,0,0,0,0,0,0,0,0,0,0,0,0,0,0,0,0,0,0,0,0,0,0,0,0,0,0,0,0,0,0,0,0,0,0,0,0,0,0,0],"sum_hessian":[3.9874122E5,2.5306356E5,1.4567767E5,2.1021177E5,4.2851797E4,6.764637E3,1.3891303E5,4.4091242E4,1.6612052E5,2.6463482E4,1.6388314E4,3.2635498E3,3.5010876E3,7.04261E4,6.848694E4,2.3186904E4,2.0904338E4,1.6475316E5,1.3673569E3,6.3830024E3,2.008048E4,1.0693138E4,5.6951772E3,2.0024088E3,1.261141E3,1.1489811E3,2.3521064E3,4.317309E4,2.725301E4,6.4370523E4,4.1164146E3,3.2864944E3,1.990041E4,1.9717797E4,1.1865413E3,1.6440781E5,3.453412E2,9.6414105E2,4.032159E2,4.0554612E3,2.327541E3,1.9320896E4,7.5958295E2,6.5461963E3,4.146941E3,1.015154E3,4.6800234E3,1.8409044E2,1.8183184E3,1.0630852E3,1.980557E2,3.9725183E2,7.5172925E2,2.2184646E0,2.3498882E3,2.7951113E4,1.5221977E4,1.1967788E4,1.5285223E4,2.7043617E4,3.7326906E4,3.1575342E2,3.8006614E3],"tree_param":{"num_deleted":"0","num_feature":"19","num_nodes":"63","size_leaf_vector":"1"}},{"base_weights":[-4.077253E-3,-8.311429E-1,1.4475199E0,-3.6877963E-1,-1.2333025E0,1.3114138E0,1.5407417E0,-1.2651876E0,7.4453995E-2,-1.2634183E0,3.844023E-2,1.5026928E0,9.4713247E-1,1.5540919E0,1.5019456E0,-1.3600947E0,-8.8277E-1,8.045184E-1,-4.5261052E-1,-1.3422505E0,-1.0174603E0,-1.1792613E0,1.1923852E0,2.4520676E-1,1.5618072E0,-2.0621887E-1,1.2958659E0,1.5712253E0,1.5419549E0,1.5419825E0,1.4223052E0,-7.132221E-2,-4.586505E-2,1.3313925E-1,-4.830628E-2,-8.015334E-2,6.6675715E-2,-7.8873485E-2,-1.5120445E-3,-6.1552215E-2,-7.089224E-2,-6.788944E-2,-2.669531E-2,-6.414976E-2,8.15822E-2,1.5704116E-2,7.689997E-2,-9.3926884E-2,6.6961914E-2,7.9698265E-2,6.6712104E-2,2.9642055E-2,-5.42367E-2,7.1701944E-2,2.737751E-2,7.884451E-2,7.63891E-2,6.48017E-2,7.777562E-2,7.6295465E-2,7.969599E-2,7.3454574E-2,-1.11806415E-1],"categories":[],"categories_nodes":[],"categories_segments":[],"categories_sizes":[],"default_left":[0,0,0,0,0,0,0,0,0,0,0,0,0,0,0,0,0,0,0,0,0,0,0,0,0,0,0,0,0,0,0,0,0,0,0,0,0,0,0,0,0,0,0,0,0,0,0,0,0,0,0,0,0,0,0,0,0,0,0,0,0,0,0],"id":8,"left_children":[1,3,5,7,9,11,13,15,17,19,21,23,25,27,29,31,33,35,37,39,41,43,45,47,49,51,53,55,57,59,61,-1,-1,-1,-1,-1,-1,-1,-1,-1,-1,-1,-1,-1,-1,-1,-1,-1,-1,-1,-1,-1,-1,-1,-1,-1,-1,-1,-1,-1,-1,-1,-1],"loss_changes":[4.6993112E5,4.636514E4,1.8005938E3,4.6087246E4,5.107625E3,4.0231797E3,4.1328125E1,1.3917109E3,2.9867162E4,2.5245312E3,4.3376597E3,2.81475E3,7.999885E3,1.0609375E1,6.672656E1,9.0196875E2,2.2586367E3,4.1448508E4,2.1416139E4,8.275781E2,5.20349E3,4.400547E2,4.80635E2,3.9559866E3,2.6257812E2,3.242717E3,1.5782539E3,3.9804688E0,1.2052344E2,9.5703125E0,1.2432227E3,0E0,0E0,0E0,0E0,0E0,0E0,0E0,0E0,0E0,0E0,0E0,0E0,0E0,0E0,0E0,0E0,0E0,0E0,0E0,0E0,0E0,0E0,0E0,0E0,0E0,0E0,0E0,0E0,0E0,0E0,0E0,0E0],"parents":[2147483647,0,0,1,1,2,2,3,3,4,4,5,5,6,6,7,7,8,8,9,9,10,10,11,11,12,12,13,13,14,14,15,15,16,16,17,17,18,18,19,19,20,20,21,21,22,22,23,23,24,24,25,25,26,26,27,27,28,28,29,29,30,30],"right_children":[2,4,6,8,10,12,14,16,18,20,22,24,26,28,30,32,34,36,38,40,42,44,46,48,50,52,54,56,58,60,62,-1,-1,-1,-1,-1,-1,-1,-1,-1,-1,-1,-1,-1,-1,-1,-1,-1,-1,-1,-1,-1,-1,-1,-1,-1,-1,-1,-1,-1,-1,-1,-1],"split_conditions":[1.5311643E0,-2.0053382E-1,2.3153994E0,-1.1409445E0,1.4406224E0,4E0,7E0,1.1E1,6E0,8.6423624E-1,1E1,1E0,8E0,3E0,2.57613E0,-1.2155157E0,2.51E2,3E0,9E0,3.587924E-1,8E0,8.64E2,1.3E1,2.1073816E0,2E0,6E0,1.9797513E0,2.57613E0,5E0,1.2E1,1.1E1,-7.132221E-2,-4.586505E-2,1.3313925E-1,-4.830628E-2,-8.015334E-2,6.6675715E-2,-7.8873485E-2,-1.5120445E-3,-6.1552215E-2,-7.089224E-2,-6.788944E-2,-2.669531E-2,-6.414976E-2,8.15822E-2,1.5704116E-2,7.689997E-2,-9.3926884E-2,6.6961914E-2,7.9698265E-2,6.6712104E-2,2.9642055E-2,-5.42367E-2,7.1701944E-2,2.737751E-2,7.884451E-2,7.63891E-2,6.48017E-2,7.777562E-2,7.6295465E-2,7.969599E-2,7.3454574E-2,-1.11806415E-1],"split_indices":[2,2,2,2,2,1,1,1,1,2,1,1,1,1,2,2,0,1,1,2,1,7,1,2,1,1,2,2,1,1,1,0,0,0,0,0,0,0,0,0,0,0,0,0,0,0,0,0,0,0,0,0,0,0,0,0,0,0,0,0,0,0,0],"split_type":[0,0,0,0,0,0,0,0,0,0,0,0,0,0,0,0,0,0,0,0,0,0,0,0,0,0,0,0,0,0,0,0,0,0,0,0,0,0,0,0,0,0,0,0,0,0,0,0,0,0,0,0,0,0,0,0,0,0,0,0,0,0,0],"sum_hessian":[3.914226E5,2.4935173E5,1.4207084E5,1.1599457E5,1.3335717E5,5.7757883E4,8.431296E4,3.8377332E4,7.7617234E4,1.3027223E5,3.0849487E3,3.7869836E4,1.9888049E4,6.2698504E4,2.1614457E4,3.0744672E4,7.6326597E3,3.2541623E4,4.5075617E4,9.864957E4,3.1622656E4,1.5009974E3,1.5839512E3,1.7005568E3,3.616928E4,4.617429E3,1.5270619E4,2.5944824E4,3.675368E4,1.4371319E4,7.2431377E3,2.673622E4,4.008452E3,1.7461023E2,7.4580493E3,5.861684E3,2.6679938E4,1.2304202E4,3.2771414E4,3.9928418E4,5.8721152E4,1.8558947E4,1.3063708E4,1.4481003E3,5.289719E1,4.47821E2,1.1361301E3,5.77939E2,1.1226178E3,3.1685643E4,4.483637E3,2.418233E3,2.1991965E3,1.2889685E4,2.3809346E3,2.2920795E4,3.0240288E3,1.9253762E3,3.4828305E4,1.0998073E4,3.3732456E3,7.1522686E3,9.0869026E1],"tree_param":{"num_deleted":"0","num_feature":"19","num_nodes":"63","size_leaf_vector":"1"}},{"base_weights":[-4.6786753E-4,-8.0016667E-1,1.3876183E0,-1.0110147E0,2.0913884E-1,7.7650124E-1,1.417438E0,-1.9000223E-1,-1.2308847E0,5.575406E-1,-3.928972E-1,2.943765E-1,1.4301865E0,1.3191597E0,1.5203769E0,7.262409E-1,-1.215414E0,-1.2460648E0,4.7802436E-1,6.7536915E-3,1.2815517E0,-1.3976884E0,-1.5955259E-1,1.1477139E0,-2.409551E-1,9.124887E-1,1.4527297E0,1.500983E0,1.0341363E0,1.4839989E0,1.5474483E0,-6.504318E-2,5.2880872E-2,-6.609017E-2,-1.6860021E-2,-5.4083355E-2,-6.7797735E-2,4.9220305E-2,-5.6791194E-2,-4.6626568E-2,1.5898434E-2,6.912476E-2,2.5076041E-2,-7.169583E-2,-3.0599535E-2,6.319903E-2,-2.4974013E-2,2.0624617E-2,7.3164575E-2,-2.4314744E-2,4.0747926E-2,6.074847E-2,-8.60048E-2,-7.315301E-2,7.283831E-2,7.660749E-2,7.21358E-2,3.0762112E-2,6.736722E-2,6.7486696E-2,7.6164275E-2,7.850123E-2,7.705942E-2],"categories":[],"categories_nodes":[],"categories_segments":[],"categories_sizes":[],"default_left":[0,0,0,0,0,0,0,0,0,0,0,0,0,0,0,0,0,0,0,0,0,0,0,0,0,0,0,0,0,0,0,0,0,0,0,0,0,0,0,0,0,0,0,0,0,0,0,0,0,0,0,0,0,0,0,0,0,0,0,0,0,0,0],"id":9,"left_children":[1,3,5,7,9,11,13,15,17,19,21,23,25,27,29,31,33,35,37,39,41,43,45,47,49,51,53,55,57,59,61,-1,-1,-1,-1,-1,-1,-1,-1,-1,-1,-1,-1,-1,-1,-1,-1,-1,-1,-1,-1,-1,-1,-1,-1,-1,-1,-1,-1,-1,-1,-1,-1],"loss_changes":[4.2715878E5,5.1958016E4,2.5621875E3,3.645689E4,8.849844E3,2.062728E3,1.3547812E3,4.0083125E4,4.1330312E3,1.0657515E4,3.626118E3,1.7219635E3,3.1101562E1,3.5544844E3,6.2203125E1,1.5136264E4,1.8805547E3,2.8510625E3,1.1479325E3,4.437588E3,9.085078E2,8.208984E1,6.074925E3,3.36537E2,6.005796E2,9.655754E1,3.3447266E1,7.3859375E1,3.5058867E3,1.4547266E2,2.890625E0,0E0,0E0,0E0,0E0,0E0,0E0,0E0,0E0,0E0,0E0,0E0,0E0,0E0,0E0,0E0,0E0,0E0,0E0,0E0,0E0,0E0,0E0,0E0,0E0,0E0,0E0,0E0,0E0,0E0,0E0,0E0,0E0],"parents":[2147483647,0,0,1,1,2,2,3,3,4,4,5,5,6,6,7,7,8,8,9,9,10,10,11,11,12,12,13,13,14,14,15,15,16,16,17,17,18,18,19,19,20,20,21,21,22,22,23,23,24,24,25,25,26,26,27,27,28,28,29,29,30,30],"right_children":[2,4,6,8,10,12,14,16,18,20,22,24,26,28,30,32,34,36,38,40,42,44,46,48,50,52,54,56,58,60,62,-1,-1,-1,-1,-1,-1,-1,-1,-1,-1,-1,-1,-1,-1,-1,-1,-1,-1,-1,-1,-1,-1,-1,-1,-1,-1,-1,-1,-1,-1,-1,-1],"split_conditions":[1.4784065E0,1.3489168E0,1.6089319E0,-1.2920247E0,-1.6350402E-1,1.3489168E0,1.3489168E0,-2.4003759E-1,9E2,-4.9265003E-1,2.6366115E-1,-1.2920247E0,-1.1975513E0,-1.2920247E0,2.3845756E-1,-1.2308862E0,3.47E2,-2.6072878E-1,-1.6350402E-1,-1.2968122E0,-2.6072878E-1,7.64E2,3.587924E-1,5.31E2,3.9E2,-1.3968202E0,-2.2875838E0,2.3845756E-1,2.3153994E0,2.3153994E0,2.3153994E0,-6.504318E-2,5.2880872E-2,-6.609017E-2,-1.6860021E-2,-5.4083355E-2,-6.7797735E-2,4.9220305E-2,-5.6791194E-2,-4.6626568E-2,1.5898434E-2,6.912476E-2,2.5076041E-2,-7.169583E-2,-3.0599535E-2,6.319903E-2,-2.4974013E-2,2.0624617E-2,7.3164575E-2,-2.4314744E-2,4.0747926E-2,6.074847E-2,-8.60048E-2,-7.315301E-2,7.283831E-2,7.660749E-2,7.21358E-2,3.0762112E-2,6.736722E-2,6.7486696E-2,7.6164275E-2,7.850123E-2,7.705942E-2],"split_indices":[2,15,2,15,2,15,15,2,4,2,2,15,14,15,14,2,0,2,2,2,2,5,2,4,11,14,8,14,2,2,2,0,0,0,0,0,0,0,0,0,0,0,0,0,0,0,0,0,0,0,0,0,0,0,0,0,0,0,0,0,0,0,0],"split_type":[0,0,0,0,0,0,0,0,0,0,0,0,0,0,0,0,0,0,0,0,0,0,0,0,0,0,0,0,0,0,0,0,0,0,0,0,0,0,0,0,0,0,0,0,0,0,0,0,0,0,0,0,0,0,0,0,0,0,0,0,0,0,0],"sum_hessian":[3.8480812E5,2.4414988E5,1.4065823E5,2.0195966E5,4.219021E4,6.5453984E3,1.3411284E5,4.2661176E4,1.5929848E5,2.6724602E4,1.5465609E4,3.7678647E3,2.7775337E3,6.861665E4,6.549619E4,2.2530045E4,2.013113E4,1.5789619E5,1.4023062E3,1.5178591E4,1.154601E4,2.9137776E3,1.2551832E4,1.4520701E3,2.3157947E3,1.17632355E2,2.6599014E3,4.188985E4,2.6726799E4,2.796849E4,3.7527703E4,3.1651548E3,1.9364889E4,1.7955451E4,2.1756782E3,6.326348E4,9.46327E4,1.0676855E3,3.3462067E2,3.7770356E3,1.1401556E4,1.0222364E4,1.3236454E3,2.784558E3,1.2921954E2,2.4189883E3,1.0132844E4,4.3678076E2,1.0152893E3,1.8796099E3,4.3618475E2,1.0599244E2,1.1639912E1,3.1773112E0,2.656724E3,2.7275215E4,1.4614639E4,1.1435536E4,1.5291263E4,6.339186E3,2.1629305E4,8.092494E3,2.9435207E4],"tree_param":{"num_deleted":"0","num_feature":"19","num_nodes":"63","size_leaf_vector":"1"}},{"base_weights":[-8.844707E-3,-7.85917E-1,1.3451144E0,-9.887237E-1,1.758876E-1,7.2720945E-1,1.3753921E0,-1.7964974E-1,-1.2071925E0,5.056124E-1,-3.8529775E-1,2.4418998E-1,1.3666265E0,1.2778759E0,1.4780557E0,6.95262E-1,-1.1901159E0,-1.0339112E0,-1.3299803E0,-7.767471E-2,1.1749387E0,9.0044655E-2,-9.7935E-1,1.109197E0,-3.285141E-1,8.824068E-1,1.4830573E0,1.4605265E0,1.0027022E0,1.4868222E0,1.3442744E0,-8.321591E-2,4.7775306E-2,-6.609005E-2,3.5504613E-2,-6.781449E-2,-3.924919E-2,-6.653052E-2,1.6180518E-1,-2.8200729E-2,3.1198164E-2,6.3961476E-2,-8.130541E-2,-7.273518E-2,2.2191307E-2,-6.146375E-2,6.86728E-2,-7.637115E-2,5.962457E-2,-4.8344146E-2,3.9356817E-2,7.46796E-2,5.928187E-3,6.791558E-2,7.609513E-2,6.7700654E-2,7.3728606E-2,3.1167477E-2,6.513496E-2,7.184791E-2,7.482052E-2,-2.7618438E-2,7.465758E-2],"categories":[],"categories_nodes":[],"categories_segments":[],"categories_sizes":[],"default_left":[0,0,0,0,0,0,0,0,0,0,0,0,0,0,0,0,0,0,0,0,0,0,0,0,0,0,0,0,0,0,0,0,0,0,0,0,0,0,0,0,0,0,0,0,0,0,0,0,0,0,0,0,0,0,0,0,0,0,0,0,0,0,0],"id":10,"left_children":[1,3,5,7,9,11,13,15,17,19,21,23,25,27,29,31,33,35,37,39,41,43,45,47,49,51,53,55,57,59,61,-1,-1,-1,-1,-1,-1,-1,-1,-1,-1,-1,-1,-1,-1,-1,-1,-1,-1,-1,-1,-1,-1,-1,-1,-1,-1,-1,-1,-1,-1,-1,-1],"loss_changes":[3.9468022E5,4.6490594E4,2.5581562E3,3.479167E4,7.68021E3,1.973769E3,1.3035625E3,3.699967E4,3.2961875E3,1.0207232E4,4.337885E3,1.8047876E3,1.5375146E2,3.3601172E3,7.2484375E1,1.3775374E4,4.8606855E3,5.157383E3,2.6525E2,4.767809E3,3.558541E3,4.6647046E3,4.016892E3,3.205193E2,1.5620709E3,2.4986835E2,8.669434E0,5.8140625E1,3.0362168E3,2.6359375E1,1.1067363E3,0E0,0E0,0E0,0E0,0E0,0E0,0E0,0E0,0E0,0E0,0E0,0E0,0E0,0E0,0E0,0E0,0E0,0E0,0E0,0E0,0E0,0E0,0E0,0E0,0E0,0E0,0E0,0E0,0E0,0E0,0E0,0E0],"parents":[2147483647,0,0,1,1,2,2,3,3,4,4,5,5,6,6,7,7,8,8,9,9,10,10,11,11,12,12,13,13,14,14,15,15,16,16,17,17,18,18,19,19,20,20,21,21,22,22,23,23,24,24,25,25,26,26,27,27,28,28,29,29,30,30],"right_children":[2,4,6,8,10,12,14,16,18,20,22,24,26,28,30,32,34,36,38,40,42,44,46,48,50,52,54,56,58,60,62,-1,-1,-1,-1,-1,-1,-1,-1,-1,-1,-1,-1,-1,-1,-1,-1,-1,-1,-1,-1,-1,-1,-1,-1,-1,-1,-1,-1,-1,-1,-1,-1],"split_conditions":[1.4784065E0,1.3489168E0,1.6089319E0,-1.2920247E0,-1.6350402E-1,1.3489168E0,1.3489168E0,-2.0053382E-1,-2.2078851E-1,-5.4491735E-1,1E1,-1.2920247E0,1E1,-1.2920247E0,1.1E1,3E0,8E0,-1.1262712E0,4.96E2,1.1E1,1.3E1,3E0,1.3341277E0,1E0,1.1E1,2E0,1.3E1,1E0,2.3153994E0,2.1073816E0,1.2E1,-8.321591E-2,4.7775306E-2,-6.609005E-2,3.5504613E-2,-6.781449E-2,-3.924919E-2,-6.653052E-2,1.6180518E-1,-2.8200729E-2,3.1198164E-2,6.3961476E-2,-8.130541E-2,-7.273518E-2,2.2191307E-2,-6.146375E-2,6.86728E-2,-7.637115E-2,5.962457E-2,-4.8344146E-2,3.9356817E-2,7.46796E-2,5.928187E-3,6.791558E-2,7.609513E-2,6.7700654E-2,7.3728606E-2,3.1167477E-2,6.513496E-2,7.184791E-2,7.482052E-2,-2.7618438E-2,7.465758E-2],"split_indices":[2,15,2,15,2,15,15,2,2,2,1,15,1,15,1,1,1,2,11,1,1,1,2,1,1,1,1,1,2,2,1,0,0,0,0,0,0,0,0,0,0,0,0,0,0,0,0,0,0,0,0,0,0,0,0,0,0,0,0,0,0,0,0],"split_type":[0,0,0,0,0,0,0,0,0,0,0,0,0,0,0,0,0,0,0,0,0,0,0,0,0,0,0,0,0,0,0,0,0,0,0,0,0,0,0,0,0,0,0,0,0,0,0,0,0,0,0,0,0,0,0,0,0,0,0,0,0,0,0],"sum_hessian":[3.7512506E5,2.3833744E5,1.3678762E5,1.9683306E5,4.1504367E4,6.3907656E3,1.3039687E5,4.184964E4,1.5498342E5,2.6143713E4,1.5360653E4,3.641407E3,2.7493586E3,6.6881875E4,6.3514992E4,2.2429436E4,1.9420207E4,6.4279645E4,9.070378E4,1.3970206E4,1.2173506E4,8.533364E3,6.8272886E3,1.4501606E3,2.1912463E3,5.346018E2,2.2147568E3,4.0196535E4,2.6685338E4,5.9599418E4,3.9155757E3,2.2275244E3,2.020191E4,1.8161887E4,1.2583201E3,2.8005766E4,3.627388E4,9.069198E4,1.1805383E1,8.251135E3,5.7190713E3,1.1737046E4,4.3645996E2,1.5895698E3,6.9437944E3,6.1721357E3,6.5515283E2,4.3878628E1,1.406282E3,1.3938352E3,7.9741113E2,2.9644638E2,2.3815546E2,5.3444354E2,1.6803134E3,4.6943774E3,3.5502156E4,1.1785452E4,1.4899886E4,9.636202E3,4.9963215E4,2.8478653E2,3.6307893E3],"tree_param":{"num_deleted":"0","num_feature":"19","num_nodes":"63","size_leaf_vector":"1"}},{"base_weights":[-4.2065773E-3,-7.463857E-1,1.3202239E0,-9.5149904E-1,1.9957097E-1,1.1800967E0,1.417504E0,-1.6907652E-1,-1.1647953E0,-1.5244058E0,3.0342576E-1,1.3838775E0,7.8858066E-1,1.352629E0,1.4570038E0,6.823593E-1,-1.1619458E0,-9.796236E-1,-1.297194E0,-1.7111155E0,-7.132588E-2,1.4082928E0,1.11599915E-1,7.6354094E-2,1.4454314E0,-4.4185176E-1,1.1587718E0,1.439646E0,1.25993E0,1.4458256E0,1.4644984E0,-6.5546036E-2,4.9767956E-2,-6.364941E-2,2.531086E-2,-2.3479821E-2,-5.8800757E-2,-6.4891286E-2,1.496282E-1,-7.1766436E-2,-9.218072E-2,4.2911943E-2,1.0121586E-1,-7.703658E-2,1.40113635E-2,-9.297269E-2,5.7956275E-2,7.397741E-2,6.0593005E-2,1.9213751E-2,-6.65256E-2,6.5229684E-2,2.0567536E-2,7.2100595E-2,-1.3332518E-2,6.444239E-2,3.1774137E-2,7.268792E-2,7.102742E-2,7.329556E-2,7.065687E-2],"categories":[],"categories_nodes":[],"categories_segments":[],"categories_sizes":[],"default_left":[0,0,0,0,0,0,0,0,0,0,0,0,0,0,0,0,0,0,0,0,0,0,0,0,0,0,0,0,0,0,0,0,0,0,0,0,0,0,0,0,0,0,0,0,0,0,0,0,0,0,0,0,0,0,0,0,0,0,0,0,0],"id":11,"left_children":[1,3,5,7,9,11,13,15,17,19,21,23,25,27,29,31,33,35,37,39,-1,41,43,45,47,49,51,53,55,57,59,-1,-1,-1,-1,-1,-1,-1,-1,-1,-1,-1,-1,-1,-1,-1,-1,-1,-1,-1,-1,-1,-1,-1,-1,-1,-1,-1,-1,-1,-1],"loss_changes":[3.61781E5,4.5766297E4,1.8001094E3,3.2349688E4,7.5259966E3,4.3205547E3,1.9795312E2,3.5104355E4,3.7330625E3,4.121045E1,8.402193E3,2.866961E3,8.44753E3,2.364414E2,1.9453125E0,1.394864E4,3.5517324E3,6.360672E3,2.4451562E2,2.718872E1,0E0,1.9855039E3,9.412732E3,3.3614438E3,2.693203E2,3.1497988E3,1.5532246E3,6.185742E1,2.5757812E2,1.8554688E0,2.34375E-2,0E0,0E0,0E0,0E0,0E0,0E0,0E0,0E0,0E0,0E0,0E0,0E0,0E0,0E0,0E0,0E0,0E0,0E0,0E0,0E0,0E0,0E0,0E0,0E0,0E0,0E0,0E0,0E0,0E0,0E0],"parents":[2147483647,0,0,1,1,2,2,3,3,4,4,5,5,6,6,7,7,8,8,9,9,10,10,11,11,12,12,13,13,14,14,15,15,16,16,17,17,18,18,19,19,21,21,22,22,23,23,24,24,25,25,26,26,27,27,28,28,29,29,30,30],"right_children":[2,4,6,8,10,12,14,16,18,20,22,24,26,28,30,32,34,36,38,40,-1,42,44,46,48,50,52,54,56,58,60,-1,-1,-1,-1,-1,-1,-1,-1,-1,-1,-1,-1,-1,-1,-1,-1,-1,-1,-1,-1,-1,-1,-1,-1,-1,-1,-1,-1,-1,-1],"split_conditions":[1.5311643E0,1.3489168E0,2.3153994E0,-1.2920247E0,3E0,4E0,1.3489168E0,-2.4003759E-1,-2.2078851E-1,-2.0053382E-1,6E0,1E0,8E0,-1.2920247E0,1.810172E-1,-1.2308862E0,8E0,6E0,5E1,-1.1409445E0,-7.132588E-2,2.3845756E-1,8E0,2.1073816E0,2E0,6E0,1.9797513E0,2.3637507E0,1.4154743E0,7E0,1E1,-6.5546036E-2,4.9767956E-2,-6.364941E-2,2.531086E-2,-2.3479821E-2,-5.8800757E-2,-6.4891286E-2,1.496282E-1,-7.1766436E-2,-9.218072E-2,4.2911943E-2,1.0121586E-1,-7.703658E-2,1.40113635E-2,-9.297269E-2,5.7956275E-2,7.397741E-2,6.0593005E-2,1.9213751E-2,-6.65256E-2,6.5229684E-2,2.0567536E-2,7.2100595E-2,-1.3332518E-2,6.444239E-2,3.1774137E-2,7.268792E-2,7.102742E-2,7.329556E-2,7.065687E-2],"split_indices":[2,15,2,15,1,1,15,2,2,2,1,1,1,15,14,2,1,1,6,2,0,14,1,2,1,1,2,14,17,1,1,0,0,0,0,0,0,0,0,0,0,0,0,0,0,0,0,0,0,0,0,0,0,0,0,0,0,0,0,0,0],"split_type":[0,0,0,0,0,0,0,0,0,0,0,0,0,0,0,0,0,0,0,0,0,0,0,0,0,0,0,0,0,0,0,0,0,0,0,0,0,0,0,0,0,0,0,0,0,0,0,0,0,0,0,0,0,0,0,0,0,0,0,0,0],"sum_hessian":[3.6804888E5,2.358722E5,1.3217669E5,1.9384127E5,4.203093E4,5.4166098E4,7.801059E4,4.152377E4,1.523175E5,2.3873604E3,3.964357E4,3.56224E4,1.8543697E4,2.9535877E4,4.8474715E4,2.235421E4,1.9169557E4,6.3506426E4,8.881108E4,8.154712E2,1.5718892E3,5.8637207E3,3.3779848E4,1.6016854E3,3.4020715E4,4.288729E3,1.4254969E4,1.5227334E4,1.4308543E4,1.953374E4,2.8940973E4,3.0333987E3,1.9320812E4,1.7973385E4,1.1961711E3,1.7656371E4,4.5850055E4,8.8798695E4,1.2376976E1,2.6848077E2,5.469905E2,3.0989937E3,2.7647268E3,3.1273823E3,3.0652467E4,5.74271E2,1.0274146E3,2.9680117E4,4.340597E3,2.2228577E3,2.0658713E3,1.1927223E4,2.327746E3,1.5206405E4,2.0929512E1,1.3674235E4,6.3430743E2,1.4824774E4,4.7089653E3,2.8139348E4,8.016258E2],"tree_param":{"num_deleted":"0","num_feature":"19","num_nodes":"61","size_leaf_vector":"1"}},{"base_weights":[1.1723025E-3,-7.3342067E-1,1.2759799E0,-2.9265234E-1,-1.1305932E0,6.788281E-1,1.3055911E0,-1.1546766E0,1.3767518E-1,-1.2185841E0,-8.817575E-1,8.425125E-2,1.2003387E0,1.3306882E0,9.0367144E-1,-1.2602029E0,-7.4153346E-1,8.16992E-1,-3.8304836E-1,-1.0792044E0,-1.3236445E0,-1.2295303E0,-4.0466267E-1,7.559167E-1,-8.612246E-1,1.3179644E0,5.1190287E-1,1.2400731E0,1.3868147E0,-1.0727954E0,1.3600253E0,-6.594984E-2,-3.9106715E-2,1.2550016E-1,-4.077239E-2,-7.648375E-2,6.4079694E-2,-4.5231428E-2,2.4838185E-2,-6.3153245E-2,-2.7676586E-2,-6.687966E-2,-5.513385E-2,-6.2331874E-2,2.6424572E-2,3.8638096E-2,-4.6023797E-2,-3.962206E-2,5.6152035E-2,-4.8741516E-2,4.3625187E-2,6.699506E-2,-1.0345258E-1,4.8316304E-2,-5.4826565E-2,6.8653025E-2,4.36185E-2,6.994245E-2,6.7241944E-2,6.96133E-2,-1.1121922E-1,-1.2117293E-1,6.829251E-2],"categories":[],"categories_nodes":[],"categories_segments":[],"categories_sizes":[],"default_left":[0,0,0,0,0,0,0,0,0,0,0,0,0,0,0,0,0,0,0,0,0,0,0,0,0,0,0,0,0,0,0,0,0,0,0,0,0,0,0,0,0,0,0,0,0,0,0,0,0,0,0,0,0,0,0,0,0,0,0,0,0,0,0],"id":12,"left_children":[1,3,5,7,9,11,13,15,17,19,21,23,25,27,29,31,33,35,37,39,41,43,45,47,49,51,53,55,57,59,61,-1,-1,-1,-1,-1,-1,-1,-1,-1,-1,-1,-1,-1,-1,-1,-1,-1,-1,-1,-1,-1,-1,-1,-1,-1,-1,-1,-1,-1,-1,-1,-1],"loss_changes":[3.3856478E5,4.015268E4,2.3361875E3,4.0329246E4,2.6405625E3,1.9367676E3,1.2690156E3,1.577332E3,2.565244E4,1.3037188E3,5.229549E3,1.8548545E3,2.6878564E2,6.010625E2,6.6796885E3,8.094219E2,1.7727695E3,3.4309695E4,1.8838615E4,3.7022656E3,1.5514844E2,5.4895703E2,8.0728926E3,9.7156976E2,2.3980103E2,2.1388574E2,3.5717178E2,2.2160234E3,3.5078125E1,3.9473223E3,1.358877E2,0E0,0E0,0E0,0E0,0E0,0E0,0E0,0E0,0E0,0E0,0E0,0E0,0E0,0E0,0E0,0E0,0E0,0E0,0E0,0E0,0E0,0E0,0E0,0E0,0E0,0E0,0E0,0E0,0E0,0E0,0E0,0E0],"parents":[2147483647,0,0,1,1,2,2,3,3,4,4,5,5,6,6,7,7,8,8,9,9,10,10,11,11,12,12,13,13,14,14,15,15,16,16,17,17,18,18,19,19,20,20,21,21,22,22,23,23,24,24,25,25,26,26,27,27,28,28,29,29,30,30],"right_children":[2,4,6,8,10,12,14,16,18,20,22,24,26,28,30,32,34,36,38,40,42,44,46,48,50,52,54,56,58,60,62,-1,-1,-1,-1,-1,-1,-1,-1,-1,-1,-1,-1,-1,-1,-1,-1,-1,-1,-1,-1,-1,-1,-1,-1,-1,-1,-1,-1,-1,-1,-1,-1],"split_conditions":[1.4784065E0,-2.4003759E-1,1.6089319E0,-1.1262712E0,8.4536463E-1,1E1,1.1E1,1.1E1,6E0,3.587924E-1,8E0,2E0,2.958979E-1,2.3153994E0,1.2E1,-1.1846133E0,2.29E2,3E0,-4.669503E-1,2.7330136E-1,8.101147E-1,8.92E2,9E0,1.5311643E0,8.69E2,1.4813975E0,-8.884932E-2,4E0,7E0,1.8142639E0,-1.56043E0,-6.594984E-2,-3.9106715E-2,1.2550016E-1,-4.077239E-2,-7.648375E-2,6.4079694E-2,-4.5231428E-2,2.4838185E-2,-6.3153245E-2,-2.7676586E-2,-6.687966E-2,-5.513385E-2,-6.2331874E-2,2.6424572E-2,3.8638096E-2,-4.6023797E-2,-3.962206E-2,5.6152035E-2,-4.8741516E-2,4.3625187E-2,6.699506E-2,-1.0345258E-1,4.8316304E-2,-5.4826565E-2,6.8653025E-2,4.36185E-2,6.994245E-2,6.7241944E-2,6.96133E-2,-1.1121922E-1,-1.2117293E-1,6.829251E-2],"split_indices":[2,2,2,2,2,1,1,1,1,2,1,1,14,2,1,2,0,1,2,2,2,4,1,2,4,16,17,1,1,2,16,0,0,0,0,0,0,0,0,0,0,0,0,0,0,0,0,0,0,0,0,0,0,0,0,0,0,0,0,0,0,0,0],"split_type":[0,0,0,0,0,0,0,0,0,0,0,0,0,0,0,0,0,0,0,0,0,0,0,0,0,0,0,0,0,0,0,0,0,0,0,0,0,0,0,0,0,0,0,0,0,0,0,0,0,0,0,0,0,0,0,0,0,0,0,0,0,0,0],"sum_hessian":[3.6153303E5,2.2936473E5,1.3216831E5,1.0871658E5,1.2064815E5,6.2453896E3,1.2592293E5,3.6199906E4,7.251667E4,8.912777E4,3.1520377E4,2.9188057E3,3.3265837E3,1.1851986E5,7.4030635E3,2.8833191E4,7.3667153E3,3.146631E4,4.1050363E4,3.8312004E4,5.0815766E4,1.8230143E4,1.3290233E4,1.7066226E3,1.2121832E3,2.840366E3,4.8621774E2,4.5340887E4,7.317898E4,1.3884294E3,6.014634E3,2.567399E4,3.159203E3,1.6300652E2,7.203709E3,5.199874E3,2.6266438E4,2.5771926E4,1.5278436E4,2.8383225E4,9.92878E3,4.7793707E4,3.0220605E3,1.8054744E4,1.7539822E2,4.0484695E3,9.241764E3,3.268716E2,1.3797509E3,1.1380482E3,7.4134995E1,2.8226887E3,1.7677322E1,3.79421E2,1.0679677E2,3.3295977E4,1.2044907E4,5.684843E4,1.633055E4,4.4202762E2,9.464018E2,8.607779E0,6.006026E3],"tree_param":{"num_deleted":"0","num_feature":"19","num_nodes":"63","size_leaf_vector":"1"}},{"base_weights":[-2.6519054E-3,-3.729163E-1,9.0247494E-1,5.9569675E-1,-8.2155687E-1,1.1356603E0,5.337008E-1,5.439255E-1,1.5755924E0,-8.657812E-1,8.629915E-1,8.3610475E-1,1.4004332E0,6.335067E-1,-1.18623385E-2,4.7483468E-1,1.304183E0,1.6134164E0,7.043832E-2,-8.856343E-1,3.0332318E-1,5.4729138E-2,1.084249E0,3.5735074E-1,1.0886893E0,1.2909952E0,1.4732522E0,7.8597873E-1,3.6692798E-1,-1.1721867E0,9.203102E-2,3.3235587E-2,9.582365E-3,4.9283665E-2,7.160043E-2,7.420521E-2,8.69619E-2,-3.6738094E-2,-5.1149614E-2,8.914777E-2,-2.038656E-2,4.086771E-2,-3.7690487E-2,6.334587E-2,8.490149E-3,4.4852708E-2,3.8843218E-3,6.4318925E-2,4.3918412E-2,7.036442E-2,3.5274234E-2,9.340643E-2,7.029238E-2,4.304349E-2,1.09652905E-2,-1.3617276E-3,3.0601466E-2,3.7516955E-2,-6.8447195E-2,-1.3330653E-2,2.0640826E-2],"categories":[],"categories_nodes":[],"categories_segments":[],"categories_sizes":[],"default_left":[0,0,0,0,0,0,0,0,0,0,0,0,0,0,0,0,0,0,0,0,0,0,0,0,0,0,0,0,0,0,0,0,0,0,0,0,0,0,0,0,0,0,0,0,0,0,0,0,0,0,0,0,0,0,0,0,0,0,0,0,0],"id":13,"left_children":[1,3,5,7,9,11,13,15,17,19,21,23,25,27,29,31,33,35,-1,37,39,41,43,45,47,49,51,53,55,57,59,-1,-1,-1,-1,-1,-1,-1,-1,-1,-1,-1,-1,-1,-1,-1,-1,-1,-1,-1,-1,-1,-1,-1,-1,-1,-1,-1,-1,-1,-1],"loss_changes":[1.1814885E5,1.0872387E5,8.800523E3,4.0170176E3,1.2739375E4,4.9717812E3,2.1589062E3,3.9508516E3,2.280371E1,3.8675703E3,7.82291E2,3.5572441E3,2.633164E2,1.3620479E3,7.3939966E2,3.7080234E3,2.5371875E2,5.001367E1,0E0,3.3945234E3,2.928653E3,5.8099603E2,5.7348315E2,1.533792E3,7.996094E2,9.0495703E2,5.290781E2,9.0465137E2,1.1783812E3,1.9169617E2,6.4778357E2,0E0,0E0,0E0,0E0,0E0,0E0,0E0,0E0,0E0,0E0,0E0,0E0,0E0,0E0,0E0,0E0,0E0,0E0,0E0,0E0,0E0,0E0,0E0,0E0,0E0,0E0,0E0,0E0,0E0,0E0],"parents":[2147483647,0,0,1,1,2,2,3,3,4,4,5,5,6,6,7,7,8,8,9,9,10,10,11,11,12,12,13,13,14,14,15,15,16,16,17,17,19,19,20,20,21,21,22,22,23,23,24,24,25,25,26,26,27,27,28,28,29,29,30,30],"right_children":[2,4,6,8,10,12,14,16,18,20,22,24,26,28,30,32,34,36,-1,38,40,42,44,46,48,50,52,54,56,58,60,-1,-1,-1,-1,-1,-1,-1,-1,-1,-1,-1,-1,-1,-1,-1,-1,-1,-1,-1,-1,-1,-1,-1,-1,-1,-1,-1,-1,-1,-1],"split_conditions":[1.3489168E0,-1.2920247E0,8E0,9E0,8.92E2,2.3845756E-1,1.1234995E0,8.77E2,1.3E1,4.53E2,9E2,1E0,3E0,1E0,-1.0252302E0,2.3845756E-1,9E2,1.1E1,7.043832E-2,7E0,8.01E2,-6.2834936E-1,1.147062E0,-1.1975513E0,-1.7074172E-1,2E0,6E0,1.0426226E0,1.3677286E0,-1.56043E0,4.6976888E-1,3.3235587E-2,9.582365E-3,4.9283665E-2,7.160043E-2,7.420521E-2,8.69619E-2,-3.6738094E-2,-5.1149614E-2,8.914777E-2,-2.038656E-2,4.086771E-2,-3.7690487E-2,6.334587E-2,8.490149E-3,4.4852708E-2,3.8843218E-3,6.4318925E-2,4.3918412E-2,7.036442E-2,3.5274234E-2,9.340643E-2,7.029238E-2,4.304349E-2,1.09652905E-2,-1.3617276E-3,3.0601466E-2,3.7516955E-2,-6.8447195E-2,-1.3330653E-2,2.0640826E-2],"split_indices":[15,15,1,1,4,14,17,4,1,11,4,3,1,3,14,14,4,1,0,1,4,17,8,14,10,1,1,14,15,16,18,0,0,0,0,0,0,0,0,0,0,0,0,0,0,0,0,0,0,0,0,0,0,0,0,0,0,0,0,0,0],"split_type":[0,0,0,0,0,0,0,0,0,0,0,0,0,0,0,0,0,0,0,0,0,0,0,0,0,0,0,0,0,0,0,0,0,0,0,0,0,0,0,0,0,0,0,0,0,0,0,0,0,0,0,0,0,0,0,0,0,0,0,0,0],"sum_hessian":[3.5253775E5,2.5019139E5,1.0234636E5,7.9199555E4,1.7099184E5,6.2698445E4,3.964791E4,7.522663E4,3.9729255E3,1.6661811E5,4.373727E3,2.9418953E4,3.3279492E4,3.3516254E4,6.131657E3,6.896119E4,6.2654434E3,3.23157E3,7.413553E2,1.6383617E5,2.781938E3,9.402402E2,3.433487E3,1.0161346E4,1.925761E4,1.3303989E4,1.9975504E4,2.1320092E4,1.219616E4,5.0305423E2,5.6286025E3,4.128097E4,2.7680217E4,1.796849E3,4.468594E3,1.5999895E3,1.6315807E3,7.808013E4,8.575604E4,9.0247375E2,1.8794641E3,4.8385272E2,4.5638745E2,2.861494E3,5.7199316E2,3.4674885E3,6.693857E3,9.924271E3,9.333337E3,1.1098265E4,2.2057236E3,2.9087063E3,1.7066797E4,1.8830895E4,2.4891968E3,4.6764927E3,7.5196675E3,4.6443043E1,4.566112E2,2.6575652E3,2.9710376E3],"tree_param":{"num_deleted":"0","num_feature":"19","num_nodes":"61","size_leaf_vector":"1"}},{"base_weights":[-1.5999522E-3,-7.0474976E-1,1.2291775E0,-2.7905896E-1,-1.1004328E0,6.505864E-1,1.2586813E0,-1.1069798E0,1.2230953E-1,-1.1993268E0,-8.293407E-1,1.5645465E-1,1.135802E0,1.283627E0,8.5989577E-1,-1.2101576E0,-7.0593923E-1,7.536477E-1,-3.472936E-1,-1.0617943E0,-1.300819E0,-1.2014992E0,-3.349647E-1,7.6611847E-1,-7.3247457E-1,7.485317E-1,1.3090674E0,1.1922344E0,1.3407506E0,-9.830146E-1,1.3152348E0,-6.4899094E-2,-3.8147308E-2,1.20272815E-1,-3.8965736E-2,-7.447031E-2,6.0082335E-2,-7.416558E-2,2.4729897E-3,-6.343025E-2,-2.8506983E-2,-6.5466635E-2,-5.818827E-2,-6.575763E-2,-4.8257787E-2,4.3715313E-2,-4.705073E-2,-7.5543135E-2,4.9611937E-2,-4.345617E-2,5.194928E-2,4.4684093E-2,-6.4569384E-2,6.9985904E-2,6.4485604E-3,6.6354506E-2,4.140756E-2,6.861232E-2,6.628809E-2,6.6870116E-2,-9.992968E-2,-1.102308E-1,6.606432E-2],"categories":[],"categories_nodes":[],"categories_segments":[],"categories_sizes":[],"default_left":[0,0,0,0,0,0,0,0,0,0,0,0,0,0,0,0,0,0,0,0,0,0,0,0,0,0,0,0,0,0,0,0,0,0,0,0,0,0,0,0,0,0,0,0,0,0,0,0,0,0,0,0,0,0,0,0,0,0,0,0,0,0,0],"id":14,"left_children":[1,3,5,7,9,11,13,15,17,19,21,23,25,27,29,31,33,35,37,39,41,43,45,47,49,51,53,55,57,59,61,-1,-1,-1,-1,-1,-1,-1,-1,-1,-1,-1,-1,-1,-1,-1,-1,-1,-1,-1,-1,-1,-1,-1,-1,-1,-1,-1,-1,-1,-1,-1,-1],"loss_changes":[3.0168644E5,3.7368523E4,2.1628438E3,3.5515145E4,3.0815312E3,1.4747324E3,1.1985781E3,1.4430664E3,2.1341172E4,1.1745312E3,5.6546367E3,1.6529373E3,2.0727612E2,5.9090625E2,5.9615283E3,1.0890586E3,1.632633E3,3.0855537E4,1.8605125E4,3.636996E3,5.503125E1,4.6975E2,9.676245E3,9.3293054E2,3.0128534E2,2.85906E2,2.290647E2,2.142664E3,3.115625E1,3.320229E3,1.24240234E2,0E0,0E0,0E0,0E0,0E0,0E0,0E0,0E0,0E0,0E0,0E0,0E0,0E0,0E0,0E0,0E0,0E0,0E0,0E0,0E0,0E0,0E0,0E0,0E0,0E0,0E0,0E0,0E0,0E0,0E0,0E0,0E0],"parents":[2147483647,0,0,1,1,2,2,3,3,4,4,5,5,6,6,7,7,8,8,9,9,10,10,11,11,12,12,13,13,14,14,15,15,16,16,17,17,18,18,19,19,20,20,21,21,22,22,23,23,24,24,25,25,26,26,27,27,28,28,29,29,30,30],"right_children":[2,4,6,8,10,12,14,16,18,20,22,24,26,28,30,32,34,36,38,40,42,44,46,48,50,52,54,56,58,60,62,-1,-1,-1,-1,-1,-1,-1,-1,-1,-1,-1,-1,-1,-1,-1,-1,-1,-1,-1,-1,-1,-1,-1,-1,-1,-1,-1,-1,-1,-1,-1,-1],"split_conditions":[1.4784065E0,-2.2078851E-1,1.6089319E0,-1.1262712E0,8.4536463E-1,1E1,1.1E1,1.1E1,6E0,3.587924E-1,8E0,2E0,1.3E1,2.3153994E0,1.2E1,-1.2155157E0,2.51E2,3E0,9E0,2.6366115E-1,8.101147E-1,3E0,9E0,1E0,8.69E2,1.1234995E0,1E0,4E0,3E0,1.8142639E0,-1.56043E0,-6.4899094E-2,-3.8147308E-2,1.20272815E-1,-3.8965736E-2,-7.447031E-2,6.0082335E-2,-7.416558E-2,2.4729897E-3,-6.343025E-2,-2.8506983E-2,-6.5466635E-2,-5.818827E-2,-6.575763E-2,-4.8257787E-2,4.3715313E-2,-4.705073E-2,-7.5543135E-2,4.9611937E-2,-4.345617E-2,5.194928E-2,4.4684093E-2,-6.4569384E-2,6.9985904E-2,6.4485604E-3,6.6354506E-2,4.140756E-2,6.861232E-2,6.628809E-2,6.6870116E-2,-9.992968E-2,-1.102308E-1,6.606432E-2],"split_indices":[2,2,2,2,2,1,1,1,1,2,1,1,1,2,1,2,0,1,1,2,2,1,1,1,4,17,3,1,1,2,16,0,0,0,0,0,0,0,0,0,0,0,0,0,0,0,0,0,0,0,0,0,0,0,0,0,0,0,0,0,0,0,0],"split_type":[0,0,0,0,0,0,0,0,0,0,0,0,0,0,0,0,0,0,0,0,0,0,0,0,0,0,0,0,0,0,0,0,0,0,0,0,0,0,0,0,0,0,0,0,0,0,0,0,0,0,0,0,0,0,0,0,0,0,0,0,0,0,0],"sum_hessian":[3.4859884E5,2.2185328E5,1.26745555E5,1.0687491E5,1.14978375E5,6.1505996E3,1.2059495E5,3.4894562E4,7.198034E4,8.424317E4,3.0735203E4,3.0479568E3,3.1026428E3,1.1349324E5,7.1017134E3,2.7752514E4,7.142049E3,3.0702734E4,4.1277605E4,3.5775355E4,4.846782E4,1.7534256E4,1.3200946E4,1.8080564E3,1.2399005E3,9.606926E2,2.1419502E3,4.3661117E4,6.9832125E4,1.4067924E3,5.6949214E3,2.3195443E4,4.5570693E3,1.6381676E2,6.978232E3,5.1109185E3,2.5591816E4,1.0683878E4,3.0593729E4,2.5181408E4,1.0593945E4,4.5625074E4,2.8427463E3,1.1837333E4,5.696924E3,4.407025E3,8.793922E3,1.6281935E2,1.645237E3,1.1515781E3,8.832232E1,8.9740015E2,6.3292465E1,1.9889781E3,1.5297202E2,3.185823E4,1.1802886E4,2.2487887E4,4.734424E4,4.281741E2,9.786182E2,9.1508045E0,5.6857705E3],"tree_param":{"num_deleted":"0","num_feature":"19","num_nodes":"63","size_leaf_vector":"1"}},{"base_weights":[3.9173938E-5,-6.8177205E-1,1.2002083E0,-8.7805253E-1,1.773915E-1,6.277572E-1,1.229411E0,-1.6570394E-1,-1.079956E0,-1.4406327E0,2.7278128E-1,2.3656346E-1,1.2130078E0,1.1334611E0,1.3323449E0,6.0868084E-1,-1.1033537E0,-8.910331E-1,-1.2217187E0,-1.5836854E0,-6.8093896E-2,1.2593547E0,1.061385E-1,1.0179675E0,-2.9949516E-1,6.916095E-1,1.3193426E0,1.3168836E0,8.655528E-1,1.3404042E0,1.214788E0,4.6230726E-2,-4.964628E-2,-6.0895443E-2,2.3951214E-2,-6.09031E-2,-2.9994024E-2,-6.1121035E-2,1.494005E-1,-6.840788E-2,-8.419411E-2,-4.1707665E-2,6.930988E-2,-7.2932385E-2,1.3032201E-2,-7.159083E-2,5.464487E-2,-4.433396E-2,3.435709E-2,5.2718442E-2,-8.475324E-2,-9.4547704E-2,6.630626E-2,6.0713213E-2,6.656893E-2,2.5233647E-2,5.8412936E-2,6.496244E-2,6.744147E-2,-2.0733299E-2,6.765788E-2],"categories":[],"categories_nodes":[],"categories_segments":[],"categories_sizes":[],"default_left":[0,0,0,0,0,0,0,0,0,0,0,0,0,0,0,0,0,0,0,0,0,0,0,0,0,0,0,0,0,0,0,0,0,0,0,0,0,0,0,0,0,0,0,0,0,0,0,0,0,0,0,0,0,0,0,0,0,0,0,0,0],"id":15,"left_children":[1,3,5,7,9,11,13,15,17,19,21,23,25,27,29,31,33,35,37,39,-1,41,43,45,47,49,51,53,55,57,59,-1,-1,-1,-1,-1,-1,-1,-1,-1,-1,-1,-1,-1,-1,-1,-1,-1,-1,-1,-1,-1,-1,-1,-1,-1,-1,-1,-1,-1,-1],"loss_changes":[2.7819088E5,3.656104E4,2.0582031E3,2.5382688E4,6.223415E3,1.368845E3,1.155875E3,2.8301117E4,3.6817031E3,2.3134277E1,6.259698E3,1.5022161E3,1.3190552E2,2.9795547E3,5.1929688E1,1.0802532E4,3.196336E3,5.6124805E3,2.3582031E2,1.4775879E1,0E0,1.4621768E3,7.875897E3,2.6940833E2,1.2330983E3,3.5494415E2,4.581006E1,5.1945312E1,2.6926328E3,1.6585938E1,8.206841E2,0E0,0E0,0E0,0E0,0E0,0E0,0E0,0E0,0E0,0E0,0E0,0E0,0E0,0E0,0E0,0E0,0E0,0E0,0E0,0E0,0E0,0E0,0E0,0E0,0E0,0E0,0E0,0E0,0E0,0E0],"parents":[2147483647,0,0,1,1,2,2,3,3,4,4,5,5,6,6,7,7,8,8,9,9,10,10,11,11,12,12,13,13,14,14,15,15,16,16,17,17,18,18,19,19,21,21,22,22,23,23,24,24,25,25,26,26,27,27,28,28,29,29,30,30],"right_children":[2,4,6,8,10,12,14,16,18,20,22,24,26,28,30,32,34,36,38,40,-1,42,44,46,48,50,52,54,56,58,60,-1,-1,-1,-1,-1,-1,-1,-1,-1,-1,-1,-1,-1,-1,-1,-1,-1,-1,-1,-1,-1,-1,-1,-1,-1,-1,-1,-1,-1,-1],"split_conditions":[1.4784065E0,1.3489168E0,1.6089319E0,-1.2920247E0,3E0,1.3489168E0,1.3489168E0,-2.4003759E-1,-2.2078851E-1,-2.0053382E-1,6E0,-1.2920247E0,9E0,-1.2920247E0,1.1E1,6E0,8E0,-1.0585726E0,5E1,-1.1409445E0,-6.8093896E-2,-1.2800937E0,8E0,1E0,1.1E1,6E0,-1.6027853E0,1E0,2.3153994E0,2.1073816E0,1.2E1,4.6230726E-2,-4.964628E-2,-6.0895443E-2,2.3951214E-2,-6.09031E-2,-2.9994024E-2,-6.1121035E-2,1.494005E-1,-6.840788E-2,-8.419411E-2,-4.1707665E-2,6.930988E-2,-7.2932385E-2,1.3032201E-2,-7.159083E-2,5.464487E-2,-4.433396E-2,3.435709E-2,5.2718442E-2,-8.475324E-2,-9.4547704E-2,6.630626E-2,6.0713213E-2,6.656893E-2,2.5233647E-2,5.8412936E-2,6.496244E-2,6.744147E-2,-2.0733299E-2,6.765788E-2],"split_indices":[2,15,2,15,1,15,15,2,2,2,1,15,1,15,1,1,1,2,6,2,0,2,1,1,1,1,10,1,2,2,1,0,0,0,0,0,0,0,0,0,0,0,0,0,0,0,0,0,0,0,0,0,0,0,0,0,0,0,0,0,0],"split_type":[0,0,0,0,0,0,0,0,0,0,0,0,0,0,0,0,0,0,0,0,0,0,0,0,0,0,0,0,0,0,0,0,0,0,0,0,0,0,0,0,0,0,0,0,0,0,0,0,0,0,0,0,0,0,0,0,0,0,0,0,0],"sum_hessian":[3.3996462E5,2.1680119E5,1.2316345E5,1.7648275E5,4.031844E4,5.9791416E3,1.1718431E5,3.8974863E4,1.3750789E5,2.2438374E3,3.80746E4,3.5845544E3,2.394587E3,6.0655875E4,5.6528434E4,2.1346008E4,1.7628855E4,5.895184E4,7.855605E4,7.899101E2,1.4539272E3,5.500933E3,3.257367E4,1.4581433E3,2.1264111E3,4.069021E2,1.9876848E3,3.600279E4,2.4653088E4,5.2891996E4,3.6364377E3,1.7829395E4,3.5166118E3,1.6438998E4,1.1898582E3,2.776379E4,3.118805E4,7.854366E4,1.2387833E1,2.5533255E2,5.345776E2,3.1393564E2,5.1869976E3,2.9265002E3,2.964717E4,4.2738194E1,1.4154052E3,1.3331222E3,7.9328894E2,3.5370016E2,5.320196E1,3.6050193E0,1.9840798E3,4.466487E3,3.15363E4,1.1247141E4,1.3405948E4,9.014374E3,4.387762E4,2.844722E2,3.3519656E3],"tree_param":{"num_deleted":"0","num_feature":"19","num_nodes":"61","size_leaf_vector":"1"}},{"base_weights":[2.8035678E-3,-3.4317362E-1,8.353438E-1,5.480528E-1,-7.621434E-1,1.0645082E0,4.8617756E-1,4.9895206E-1,1.5128258E0,-7.9780287E-1,1.032292E0,1.0010064E0,1.301578E0,1.1512846E0,3.8232413E-1,4.4930398E-1,1.3365588E0,1.5517324E0,6.664988E-2,-8.10629E-1,1.4625287E0,1.2051965E0,2.8274912E-1,1.2601926E0,9.167399E-1,1.2495416E0,1.3498387E0,5.162784E-1,1.4616256E0,3.449791E-1,1.5760399E0,2.8938746E-2,8.550272E-3,-2.5985574E-3,6.721971E-2,7.11826E-2,8.3649E-2,-3.292418E-2,-4.7533344E-2,8.950155E-2,-1.2017946E-2,6.6928685E-2,-8.820497E-3,7.9140685E-2,-4.584284E-3,6.1924707E-2,6.5118365E-2,9.653477E-3,5.0948985E-2,6.736781E-2,5.896019E-2,6.723622E-2,8.2393505E-2,4.4466365E-2,7.5670327E-3,7.375961E-2,-7.768919E-2,2.1781504E-2,-4.967646E-3,8.0480985E-2,-7.493344E-2],"categories":[],"categories_nodes":[],"categories_segments":[],"categories_sizes":[],"default_left":[0,0,0,0,0,0,0,0,0,0,0,0,0,0,0,0,0,0,0,0,0,0,0,0,0,0,0,0,0,0,0,0,0,0,0,0,0,0,0,0,0,0,0,0,0,0,0,0,0,0,0,0,0,0,0,0,0,0,0,0,0],"id":16,"left_children":[1,3,5,7,9,11,13,15,17,19,21,23,25,27,29,31,33,35,-1,37,39,41,43,45,47,49,51,53,55,57,59,-1,-1,-1,-1,-1,-1,-1,-1,-1,-1,-1,-1,-1,-1,-1,-1,-1,-1,-1,-1,-1,-1,-1,-1,-1,-1,-1,-1,-1,-1],"loss_changes":[9.5843336E4,8.777103E4,7.815758E3,3.5599922E3,1.0232211E4,8.8653906E2,2.673335E3,2.9739473E3,2.339746E1,4.5463984E3,4.0348804E2,1.0148711E3,2.9595703E1,1.0294067E3,1.4920894E3,2.4330205E3,4.361084E1,4.3992676E1,0E0,3.3208906E3,4.9397656E2,4.667478E2,2.8509644E2,8.828125E0,2.5975098E3,3.974121E1,7.614258E0,2.3370142E2,1.4591357E2,1.3078335E3,1.07254395E2,0E0,0E0,0E0,0E0,0E0,0E0,0E0,0E0,0E0,0E0,0E0,0E0,0E0,0E0,0E0,0E0,0E0,0E0,0E0,0E0,0E0,0E0,0E0,0E0,0E0,0E0,0E0,0E0,0E0,0E0],"parents":[2147483647,0,0,1,1,2,2,3,3,4,4,5,5,6,6,7,7,8,8,9,9,10,10,11,11,12,12,13,13,14,14,15,15,16,16,17,17,19,19,20,20,21,21,22,22,23,23,24,24,25,25,26,26,27,27,28,28,29,29,30,30],"right_children":[2,4,6,8,10,12,14,16,18,20,22,24,26,28,30,32,34,36,-1,38,40,42,44,46,48,50,52,54,56,58,60,-1,-1,-1,-1,-1,-1,-1,-1,-1,-1,-1,-1,-1,-1,-1,-1,-1,-1,-1,-1,-1,-1,-1,-1,-1,-1,-1,-1,-1,-1],"split_conditions":[1.3489168E0,-1.2920247E0,8E0,9E0,8.89E2,7.83E2,3.42E2,8.89E2,1.3E1,8.27E2,1.107389E0,2E0,8.89E2,9E0,8.89E2,4E0,-1.798479E0,1.1E1,6.664988E-2,7E0,8.56E2,1.938785E0,2.12E2,1E0,3E0,7.53E2,6.5E2,-3.3637455E-1,1.4154743E0,1.1234995E0,1.68799E0,2.8938746E-2,8.550272E-3,-2.5985574E-3,6.721971E-2,7.11826E-2,8.3649E-2,-3.292418E-2,-4.7533344E-2,8.950155E-2,-1.2017946E-2,6.6928685E-2,-8.820497E-3,7.9140685E-2,-4.584284E-3,6.1924707E-2,6.5118365E-2,9.653477E-3,5.0948985E-2,6.736781E-2,5.896019E-2,6.723622E-2,8.2393505E-2,4.4466365E-2,7.5670327E-3,7.375961E-2,-7.768919E-2,2.1781504E-2,-4.967646E-3,8.0480985E-2,-7.493344E-2],"split_indices":[15,15,1,1,7,7,0,7,1,5,8,1,7,1,7,1,10,1,0,1,7,10,11,1,1,5,0,17,17,17,8,0,0,0,0,0,0,0,0,0,0,0,0,0,0,0,0,0,0,0,0,0,0,0,0,0,0,0,0,0,0],"split_type":[0,0,0,0,0,0,0,0,0,0,0,0,0,0,0,0,0,0,0,0,0,0,0,0,0,0,0,0,0,0,0,0,0,0,0,0,0,0,0,0,0,0,0,0,0,0,0,0,0,0,0,0,0,0,0,0,0,0,0,0,0],"sum_hessian":[3.3274125E5,2.3505886E5,9.768238E4,7.5166164E4,1.5989269E5,5.8974344E4,3.870804E4,7.15274E4,3.6387642E3,1.5677772E5,3.1149768E3,4.651893E4,1.2455415E4,5.2264272E3,3.3481613E4,6.752639E4,4.0010044E3,2.9852617E3,6.535024E2,1.5589375E5,8.839682E2,2.530608E3,5.843687E2,1.1410031E4,3.51089E4,6.0062017E3,6.449213E3,1.7166193E3,3.5098079E3,3.2467176E4,1.01443646E3,4.608534E4,2.1441053E4,2.2419186E1,3.9785852E3,1.4579211E3,1.5273406E3,7.471964E4,8.11741E4,7.41341E2,1.426272E2,2.307845E3,2.2276306E2,1.2994904E2,4.5441965E2,7.553939E3,3.8560928E3,4.3465054E3,3.0762393E4,2.5047898E3,3.501412E3,6.345827E3,1.0338601E2,8.481655E2,8.6845374E2,3.4945962E3,1.5211571E1,2.6965742E4,5.501433E3,1.0039485E3,1.0487947E1],"tree_param":{"num_deleted":"0","num_feature":"19","num_nodes":"61","size_leaf_vector":"1"}},{"base_weights":[-1.1651553E-3,-6.610757E-1,1.1634368E0,-2.524289E-1,-1.0532178E0,1.0148938E0,1.2740493E0,-1.072802E0,1.2767746E-1,-1.1711143E0,-3.5202035E-1,1.217403E0,6.805546E-1,1.22319E0,1.3031961E0,-1.1780577E0,-6.6788477E-1,7.0164937E-1,-2.9184362E-1,-1.2220622E0,-9.942441E-1,9.1194175E-2,-9.117071E-1,-6.06632E-2,1.2885294E0,-4.4192648E-1,1.0359602E0,1.3007348E0,1.1371948E0,1.2887629E0,1.3132269E0,-6.3813746E-2,-4.0748816E-2,1.22567885E-1,-3.854856E-2,-7.261343E-2,5.6210436E-2,-4.5317363E-2,3.3909526E-2,-6.1179556E-2,6.0736883E-2,-5.9171148E-2,-3.248039E-2,-6.7293204E-2,1.897066E-2,-5.7527613E-2,5.451214E-2,-9.130092E-2,4.9786635E-2,-1.3063023E-2,6.547528E-2,1.3975568E-2,-5.9298176E-2,5.7823796E-2,1.6494472E-2,6.5164365E-2,-2.152494E-2,5.8334954E-2,3.006036E-2,6.1831187E-2,6.531608E-2,6.888768E-2,6.5531075E-2],"categories":[],"categories_nodes":[],"categories_segments":[],"categories_sizes":[],"default_left":[0,0,0,0,0,0,0,0,0,0,0,0,0,0,0,0,0,0,0,0,0,0,0,0,0,0,0,0,0,0,0,0,0,0,0,0,0,0,0,0,0,0,0,0,0,0,0,0,0,0,0,0,0,0,0,0,0,0,0,0,0,0,0],"id":17,"left_children":[1,3,5,7,9,11,13,15,17,19,21,23,25,27,29,31,33,35,37,39,41,43,45,47,49,51,53,55,57,59,61,-1,-1,-1,-1,-1,-1,-1,-1,-1,-1,-1,-1,-1,-1,-1,-1,-1,-1,-1,-1,-1,-1,-1,-1,-1,-1,-1,-1,-1,-1,-1,-1],"loss_changes":[2.5183816E5,3.3517977E4,1.9461094E3,3.1940291E4,8.823469E3,3.4245977E3,9.910156E1,1.381457E3,1.6855145E4,8.221797E2,3.8114878E3,2.8641602E3,7.6147803E3,1.6366016E2,4.5625E0,9.1685156E2,2.1541797E3,2.6904152E4,2.4106754E4,2.657578E2,1.3318574E3,3.5523713E3,3.2480674E3,3.1011375E3,9.7058984E2,2.464502E3,1.2331943E3,5.8072266E1,1.8511426E2,1.4636719E1,2.46875E0,0E0,0E0,0E0,0E0,0E0,0E0,0E0,0E0,0E0,0E0,0E0,0E0,0E0,0E0,0E0,0E0,0E0,0E0,0E0,0E0,0E0,0E0,0E0,0E0,0E0,0E0,0E0,0E0,0E0,0E0,0E0,0E0],"parents":[2147483647,0,0,1,1,2,2,3,3,4,4,5,5,6,6,7,7,8,8,9,9,10,10,11,11,12,12,13,13,14,14,15,15,16,16,17,17,18,18,19,19,20,20,21,21,22,22,23,23,24,24,25,25,26,26,27,27,28,28,29,29,30,30],"right_children":[2,4,6,8,10,12,14,16,18,20,22,24,26,28,30,32,34,36,38,40,42,44,46,48,50,52,54,56,58,60,62,-1,-1,-1,-1,-1,-1,-1,-1,-1,-1,-1,-1,-1,-1,-1,-1,-1,-1,-1,-1,-1,-1,-1,-1,-1,-1,-1,-1,-1,-1,-1,-1],"split_conditions":[1.4784065E0,-2.2078851E-1,2.3153994E0,-1.1262712E0,1.3489168E0,4E0,1.2021978E0,1.1E1,6E0,8.937231E-1,1E1,1E0,8E0,-1.2920247E0,1.810172E-1,-1.2476996E0,-4.117109E-1,3E0,1.3489168E0,4.9E1,8E0,3E0,1.2824553E0,2.1073816E0,1.5311643E0,6E0,1.9797513E0,2.3637507E0,1.4154743E0,1E0,1.3489168E0,-6.3813746E-2,-4.0748816E-2,1.22567885E-1,-3.854856E-2,-7.261343E-2,5.6210436E-2,-4.5317363E-2,3.3909526E-2,-6.1179556E-2,6.0736883E-2,-5.9171148E-2,-3.248039E-2,-6.7293204E-2,1.897066E-2,-5.7527613E-2,5.451214E-2,-9.130092E-2,4.9786635E-2,-1.3063023E-2,6.547528E-2,1.3975568E-2,-5.9298176E-2,5.7823796E-2,1.6494472E-2,6.5164365E-2,-2.152494E-2,5.8334954E-2,3.006036E-2,6.1831187E-2,6.531608E-2,6.888768E-2,6.5531075E-2],"split_indices":[2,2,2,2,15,1,15,1,1,2,1,1,1,15,14,2,15,1,15,6,1,1,2,2,2,1,2,14,17,3,15,0,0,0,0,0,0,0,0,0,0,0,0,0,0,0,0,0,0,0,0,0,0,0,0,0,0,0,0,0,0,0,0],"split_type":[0,0,0,0,0,0,0,0,0,0,0,0,0,0,0,0,0,0,0,0,0,0,0,0,0,0,0,0,0,0,0,0,0,0,0,0,0,0,0,0,0,0,0,0,0,0,0,0,0,0,0,0,0,0,0,0,0,0,0,0,0,0,0],"sum_hessian":[3.2768478E5,2.0916427E5,1.1852051E5,1.0242744E5,1.06736836E5,5.0591145E4,6.792936E4,3.2430898E4,6.999654E4,9.137306E4,1.536377E4,3.1505576E4,1.908557E4,2.4762879E4,4.3166484E4,2.5738441E4,6.6924556E3,2.955707E4,4.043947E4,7.0934336E4,2.0438727E4,8.574489E3,6.78928E3,1.66091E3,2.9844666E4,4.5896836E3,1.4495887E4,1.3013783E4,1.1749097E4,1.7752367E4,2.5414117E4,2.0256371E4,5.4820703E3,2.133714E2,6.4790845E3,4.847156E3,2.4709914E4,2.4756576E4,1.5682894E4,7.089036E4,4.3979534E1,1.3193873E4,7.2448535E3,1.4318125E3,7.1426772E3,6.065994E3,7.232858E2,6.215321E2,1.0393779E3,3.9839523E2,2.944627E4,2.3305476E3,2.259136E3,1.2381854E4,2.1140337E3,1.2994871E4,1.8911983E1,1.1134977E4,6.141197E2,4.49027E3,1.3262097E4,9.658708E2,2.4448246E4],"tree_param":{"num_deleted":"0","num_feature":"19","num_nodes":"63","size_leaf_vector":"1"}},{"base_weights":[-2.2775151E-3,-6.339956E-1,1.1496408E0,-2.4715607E-1,-1.0074193E0,1.0111431E0,1.250201E0,-1.1029868E0,9.186094E-2,-1.1197602E0,-7.229374E-1,1.2170465E0,6.5545917E-1,1.2668557E0,1.2018808E0,-1.2096456E0,-6.997594E-1,6.644011E-1,-3.2303125E-1,-9.66331E-1,-1.2321974E0,-1.1144183E0,-2.3711787E-1,-7.130651E-2,1.284643E0,-4.3254232E-1,1.0149288E0,1.2877789E0,1.2521877E0,1.25523E0,1.0987582E0,4.9163424E-3,-6.1140317E-2,1.0381675E-1,-3.768111E-2,-7.134888E-2,5.421253E-2,-7.098105E-2,3.1664227E-3,-6.0749676E-2,-2.1063862E-2,-6.232818E-2,-5.0326463E-2,-5.7071358E-2,7.863022E-2,3.9505906E-2,-3.6178485E-2,-9.025246E-2,4.7476806E-2,6.62465E-2,5.013607E-2,1.18237855E-2,-5.583292E-2,6.414367E-2,3.126235E-2,6.4742565E-2,6.1567456E-2,4.7952127E-2,6.340511E-2,6.169462E-2,6.624175E-2,5.773158E-2,-1.050201E-1],"categories":[],"categories_nodes":[],"categories_segments":[],"categories_sizes":[],"default_left":[0,0,0,0,0,0,0,0,0,0,0,0,0,0,0,0,0,0,0,0,0,0,0,0,0,0,0,0,0,0,0,0,0,0,0,0,0,0,0,0,0,0,0,0,0,0,0,0,0,0,0,0,0,0,0,0,0,0,0,0,0,0,0],"id":18,"left_children":[1,3,5,7,9,11,13,15,17,19,21,23,25,27,29,31,33,35,37,39,41,43,45,47,49,51,53,55,57,59,61,-1,-1,-1,-1,-1,-1,-1,-1,-1,-1,-1,-1,-1,-1,-1,-1,-1,-1,-1,-1,-1,-1,-1,-1,-1,-1,-1,-1,-1,-1,-1,-1],"loss_changes":[2.3192366E5,2.9733398E4,1.5708438E3,2.9333906E4,3.3463281E3,3.4770898E3,5.1117188E1,1.2328672E3,1.7202297E4,1.2940312E3,5.6393438E3,2.6193438E3,6.8109473E3,1.3296875E1,9.094141E1,3.9060547E2,8.9917334E2,2.6719219E4,1.7790312E4,4.3036484E3,1.3920312E2,1.1934746E3,6.613249E3,2.6570312E3,3.2323828E2,1.979867E3,1.3658965E3,6.3867188E0,1.3227734E2,1.4783203E1,1.0265869E3,0E0,0E0,0E0,0E0,0E0,0E0,0E0,0E0,0E0,0E0,0E0,0E0,0E0,0E0,0E0,0E0,0E0,0E0,0E0,0E0,0E0,0E0,0E0,0E0,0E0,0E0,0E0,0E0,0E0,0E0,0E0,0E0],"parents":[2147483647,0,0,1,1,2,2,3,3,4,4,5,5,6,6,7,7,8,8,9,9,10,10,11,11,12,12,13,13,14,14,15,15,16,16,17,17,18,18,19,19,20,20,21,21,22,22,23,23,24,24,25,25,26,26,27,27,28,28,29,29,30,30],"right_children":[2,4,6,8,10,12,14,16,18,20,22,24,26,28,30,32,34,36,38,40,42,44,46,48,50,52,54,56,58,60,62,-1,-1,-1,-1,-1,-1,-1,-1,-1,-1,-1,-1,-1,-1,-1,-1,-1,-1,-1,-1,-1,-1,-1,-1,-1,-1,-1,-1,-1,-1,-1,-1],"split_conditions":[1.5311643E0,-2.0053382E-1,2.3153994E0,-1.170124E0,8.4536463E-1,4E0,7E0,1.1E1,6E0,3.587924E-1,8E0,1E0,8E0,3E0,2.57613E0,8E0,2.29E2,3E0,9E0,2.6366115E-1,8.101147E-1,8.89E2,9E0,2.1073816E0,2E0,6E0,1.1E1,2.57613E0,5E0,1.2E1,8E0,4.9163424E-3,-6.1140317E-2,1.0381675E-1,-3.768111E-2,-7.134888E-2,5.421253E-2,-7.098105E-2,3.1664227E-3,-6.0749676E-2,-2.1063862E-2,-6.232818E-2,-5.0326463E-2,-5.7071358E-2,7.863022E-2,3.9505906E-2,-3.6178485E-2,-9.025246E-2,4.7476806E-2,6.62465E-2,5.013607E-2,1.18237855E-2,-5.583292E-2,6.414367E-2,3.126235E-2,6.4742565E-2,6.1567456E-2,4.7952127E-2,6.340511E-2,6.169462E-2,6.624175E-2,5.773158E-2,-1.050201E-1],"split_indices":[2,2,2,2,2,1,1,1,1,2,1,1,1,1,2,0,0,1,1,2,2,7,1,2,1,1,1,2,1,1,1,0,0,0,0,0,0,0,0,0,0,0,0,0,0,0,0,0,0,0,0,0,0,0,0,0,0,0,0,0,0,0,0],"split_type":[0,0,0,0,0,0,0,0,0,0,0,0,0,0,0,0,0,0,0,0,0,0,0,0,0,0,0,0,0,0,0,0,0,0,0,0,0,0,0,0,0,0,0,0,0,0,0,0,0,0,0,0,0,0,0,0,0,0,0,0,0,0,0],"sum_hessian":[3.187112E5,2.0583219E5,1.1287901E5,1.0110082E5,1.0473137E5,4.7487402E4,6.5391605E4,2.8684938E4,7.241588E4,7.507973E4,2.9651639E4,3.0074832E4,1.741257E4,4.8611242E4,1.678036E4,2.2682994E4,6.0019434E3,3.042693E4,4.1988953E4,3.175594E4,4.332379E4,1.6419367E4,1.3232271E4,1.4992825E3,2.8575549E4,4.324243E3,1.3088327E4,1.9998137E4,2.8613107E4,1.1051719E4,5.7286416E3,2.2589633E2,2.2457098E4,1.13520706E2,5.888423E3,5.086643E3,2.5340285E4,1.093888E4,3.1050072E4,2.180631E4,9.949628E3,4.0726598E4,2.5971904E3,1.6256538E4,1.6282874E2,4.252237E3,8.980035E3,5.553457E2,9.439367E2,2.4999402E4,3.576146E3,2.186577E3,2.1376665E3,7.754236E3,5.334092E3,1.7751375E4,2.246762E3,1.4765251E3,2.7136582E4,8.473013E3,2.5787053E3,5.6309365E3,9.770533E1],"tree_param":{"num_deleted":"0","num_feature":"19","num_nodes":"63","size_leaf_vector":"1"}},{"base_weights":[-8.500764E-4,-6.225155E-1,1.128171E0,-8.227738E-1,1.7872125E-1,9.893473E-1,1.2304918E0,-1.8572113E-1,-1.0089102E0,-1.3692518E0,2.634895E-1,1.1960757E0,6.372311E-1,1.1791309E0,1.2650758E0,5.1414216E-1,-1.0221533E0,-8.231246E-1,-1.1526067E0,-1.480265E0,-6.5327846E-2,1.1265626E0,1.2101339E-1,2.4013711E-2,1.2615088E0,-4.1408968E-1,9.846679E-1,1.260134E0,1.0979211E0,1.254106E0,6.3634105E-2,-7.694852E-2,3.740128E-2,-5.823929E-2,3.1806912E-2,-5.8271736E-2,-2.679481E-2,-5.8138788E-2,-3.0341646E-2,-6.522143E-2,-7.752977E-2,3.1221151E-2,8.5410535E-2,-7.1238615E-2,1.3352379E-2,-8.706265E-2,4.843164E-2,6.511978E-2,4.9381834E-2,1.3179059E-2,-5.618533E-2,5.6074668E-2,1.3574299E-2,6.440927E-2,5.6711722E-2,4.850661E-2,6.030931E-2,6.311979E-2,6.144203E-2],"categories":[],"categories_nodes":[],"categories_segments":[],"categories_sizes":[],"default_left":[0,0,0,0,0,0,0,0,0,0,0,0,0,0,0,0,0,0,0,0,0,0,0,0,0,0,0,0,0,0,0,0,0,0,0,0,0,0,0,0,0,0,0,0,0,0,0,0,0,0,0,0,0,0,0,0,0,0,0],"id":19,"left_children":[1,3,5,7,9,11,13,15,17,19,21,23,25,27,29,31,33,35,37,39,-1,41,43,45,47,49,51,53,55,57,-1,-1,-1,-1,-1,-1,-1,-1,-1,-1,-1,-1,-1,-1,-1,-1,-1,-1,-1,-1,-1,-1,-1,-1,-1,-1,-1,-1,-1],"loss_changes":[2.1856006E5,3.2222484E4,1.5694531E3,1.9051117E4,5.269662E3,3.4149414E3,1.1158594E2,2.1267629E4,3.3183828E3,1.2577393E1,4.681543E3,2.267332E3,6.3415547E3,1.6720312E2,1.5742188E0,9.499479E3,3.915373E3,5.331285E3,3.8839062E2,7.1904297E0,0E0,1.574459E3,7.3772983E3,2.6100986E3,3.1226562E2,2.0742727E3,1.2729844E3,4.382617E1,1.7599805E2,1.7246094E0,0E0,0E0,0E0,0E0,0E0,0E0,0E0,0E0,0E0,0E0,0E0,0E0,0E0,0E0,0E0,0E0,0E0,0E0,0E0,0E0,0E0,0E0,0E0,0E0,0E0,0E0,0E0,0E0,0E0],"parents":[2147483647,0,0,1,1,2,2,3,3,4,4,5,5,6,6,7,7,8,8,9,9,10,10,11,11,12,12,13,13,14,14,15,15,16,16,17,17,18,18,19,19,21,21,22,22,23,23,24,24,25,25,26,26,27,27,28,28,29,29],"right_children":[2,4,6,8,10,12,14,16,18,20,22,24,26,28,30,32,34,36,38,40,-1,42,44,46,48,50,52,54,56,58,-1,-1,-1,-1,-1,-1,-1,-1,-1,-1,-1,-1,-1,-1,-1,-1,-1,-1,-1,-1,-1,-1,-1,-1,-1,-1,-1,-1,-1],"split_conditions":[1.5311643E0,1.3489168E0,2.3153994E0,-1.2920247E0,3E0,4E0,1.3489168E0,-2.4003759E-1,-2.2078851E-1,-2.0053382E-1,6E0,1E0,8E0,-1.2920247E0,1.810172E-1,3E0,8E0,-1.0585726E0,1.4406224E0,-1.1846133E0,-6.5327846E-2,2.3845756E-1,8E0,2.1073816E0,2E0,6E0,1.9797513E0,2.3845756E-1,1.810172E-1,7E0,6.3634105E-2,-7.694852E-2,3.740128E-2,-5.823929E-2,3.1806912E-2,-5.8271736E-2,-2.679481E-2,-5.8138788E-2,-3.0341646E-2,-6.522143E-2,-7.752977E-2,3.1221151E-2,8.5410535E-2,-7.1238615E-2,1.3352379E-2,-8.706265E-2,4.843164E-2,6.511978E-2,4.9381834E-2,1.3179059E-2,-5.618533E-2,5.6074668E-2,1.3574299E-2,6.440927E-2,5.6711722E-2,4.850661E-2,6.030931E-2,6.311979E-2,6.144203E-2],"split_indices":[2,15,2,15,1,1,15,2,2,2,1,1,1,15,14,1,1,2,2,2,0,14,1,2,1,1,2,14,14,1,0,0,0,0,0,0,0,0,0,0,0,0,0,0,0,0,0,0,0,0,0,0,0,0,0,0,0,0,0],"split_type":[0,0,0,0,0,0,0,0,0,0,0,0,0,0,0,0,0,0,0,0,0,0,0,0,0,0,0,0,0,0,0,0,0,0,0,0,0,0,0,0,0,0,0,0,0,0,0,0,0,0,0,0,0,0,0,0,0,0,0],"sum_hessian":[3.113933E5,2.0081842E5,1.10574875E5,1.6066288E5,4.0155547E4,4.69229E4,6.365198E4,3.6328918E4,1.2433395E5,2.083999E3,3.8071547E4,2.9563613E4,1.7359283E4,2.5627553E4,3.8024426E4,1.9779396E4,1.6549521E4,5.422854E4,7.0105414E4,7.4399945E2,1.3399996E3,5.393373E3,3.2678176E4,1.563261E3,2.8000354E4,4.3118174E3,1.3047466E4,1.2822834E4,1.2804719E4,1.5637795E4,2.238663E4,2.0222018E3,1.7757195E4,1.523908E4,1.3104413E3,2.4740504E4,2.9488037E4,6.882197E4,1.2834457E3,2.18147E2,5.258525E2,2.895633E3,2.4977402E3,2.8199531E3,2.9858223E4,5.4463165E2,1.01862933E3,2.4359873E4,3.64048E3,2.2058757E3,2.1059414E3,1.0946738E4,2.100727E3,1.0478845E4,2.34399E3,5.877392E3,6.927327E3,1.1737593E4,3.9002014E3],"tree_param":{"num_deleted":"0","num_feature":"19","num_nodes":"59","size_leaf_vector":"1"}},{"base_weights":[-1.856634E-3,-3.263542E-1,7.630441E-1,4.843144E-1,-7.092338E-1,9.8008347E-1,4.6424976E-1,4.3571895E-1,1.4475819E0,-7.471328E-1,7.815883E-1,6.693631E-1,1.253042E0,1.0901804E0,3.7147638E-1,3.796564E-1,1.1699184E0,1.4887668E0,6.281229E-2,-7.633876E-1,1.1640254E0,1.7631955E0,4.8354274E-1,2.1445237E-1,9.209253E-1,1.1443808E0,1.3219101E0,4.7267666E-1,1.4072298E0,5.469847E-1,4.971821E-2,2.8101197E-2,5.980681E-3,4.0360842E-2,6.329468E-2,6.7111135E-2,8.0942266E-2,-3.1457882E-2,-4.512078E-2,7.2265774E-2,-2.5696818E-2,6.432946E-2,9.141218E-2,3.570661E-2,-1.454278E-2,3.4156296E-2,1.2629603E-5,5.6609463E-2,3.576639E-2,6.2854685E-2,3.0317608E-2,8.408986E-2,6.332727E-2,2.7213767E-2,-5.679928E-2,5.796061E-2,7.952295E-2,3.5170704E-2,3.2908276E-3,9.754914E-3,-3.0222474E-2],"categories":[],"categories_nodes":[],"categories_segments":[],"categories_sizes":[],"default_left":[0,0,0,0,0,0,0,0,0,0,0,0,0,0,0,0,0,0,0,0,0,0,0,0,0,0,0,0,0,0,0,0,0,0,0,0,0,0,0,0,0,0,0,0,0,0,0,0,0,0,0,0,0,0,0,0,0,0,0,0,0],"id":20,"left_children":[1,3,5,7,9,11,13,15,17,19,21,23,25,27,29,31,33,35,-1,37,39,41,43,45,47,49,51,53,55,57,59,-1,-1,-1,-1,-1,-1,-1,-1,-1,-1,-1,-1,-1,-1,-1,-1,-1,-1,-1,-1,-1,-1,-1,-1,-1,-1,-1,-1,-1,-1],"loss_changes":[7.523921E4,6.606233E4,5.855035E3,3.1954277E3,8.168375E3,4.4349805E3,2.2058325E3,2.6749863E3,2.3965332E1,4.380414E3,1.0477952E3,2.799041E3,2.0683203E2,9.593921E2,1.8686152E3,2.8637998E3,1.5947705E2,4.9151855E1,0E0,2.6081406E3,5.620978E2,2.3517822E1,4.914281E2,8.74526E2,6.833125E2,6.546465E2,3.3728125E2,1.9240384E2,1.453794E2,1.6115366E3,1.1109344E3,0E0,0E0,0E0,0E0,0E0,0E0,0E0,0E0,0E0,0E0,0E0,0E0,0E0,0E0,0E0,0E0,0E0,0E0,0E0,0E0,0E0,0E0,0E0,0E0,0E0,0E0,0E0,0E0,0E0,0E0],"parents":[2147483647,0,0,1,1,2,2,3,3,4,4,5,5,6,6,7,7,8,8,9,9,10,10,11,11,12,12,13,13,14,14,15,15,16,16,17,17,19,19,20,20,21,21,22,22,23,23,24,24,25,25,26,26,27,27,28,28,29,29,30,30],"right_children":[2,4,6,8,10,12,14,16,18,20,22,24,26,28,30,32,34,36,-1,38,40,42,44,46,48,50,52,54,56,58,60,-1,-1,-1,-1,-1,-1,-1,-1,-1,-1,-1,-1,-1,-1,-1,-1,-1,-1,-1,-1,-1,-1,-1,-1,-1,-1,-1,-1,-1,-1],"split_conditions":[1.3489168E0,-1.2920247E0,8E0,9E0,8.19E2,2.3845756E-1,3.42E2,8.84E2,1.3E1,8.92E2,8.69E2,1E0,3E0,9E0,1E0,2.3845756E-1,9E2,1.1E1,6.281229E-2,3.47E2,1.8664339E0,3E0,8E0,-1.1975513E0,-2.2274667E-1,2E0,5E0,1.5494244E0,1.1E1,2.3845756E-1,1.3E1,2.8101197E-2,5.980681E-3,4.0360842E-2,6.329468E-2,6.7111135E-2,8.0942266E-2,-3.1457882E-2,-4.512078E-2,7.2265774E-2,-2.5696818E-2,6.432946E-2,9.141218E-2,3.570661E-2,-1.454278E-2,3.4156296E-2,1.2629603E-5,5.6609463E-2,3.576639E-2,6.2854685E-2,3.0317608E-2,8.408986E-2,6.332727E-2,2.7213767E-2,-5.679928E-2,5.796061E-2,7.952295E-2,3.5170704E-2,3.2908276E-3,9.754914E-3,-3.0222474E-2],"split_indices":[15,15,1,1,5,14,0,4,1,4,4,3,1,1,3,14,4,1,0,0,10,1,1,14,10,1,1,10,1,14,1,0,0,0,0,0,0,0,0,0,0,0,0,0,0,0,0,0,0,0,0,0,0,0,0,0,0,0,0,0,0],"split_type":[0,0,0,0,0,0,0,0,0,0,0,0,0,0,0,0,0,0,0,0,0,0,0,0,0,0,0,0,0,0,0,0,0,0,0,0,0,0,0,0,0,0,0,0,0,0,0,0,0,0,0,0,0,0,0,0,0,0,0,0,0],"sum_hessian":[3.0312712E5,2.1283547E5,9.029166E4,6.827563E4,1.4455984E5,5.2299715E4,3.799194E4,6.4998027E4,3.2776045E3,1.409765E5,3.5833406E3,2.4459674E4,2.7840043E4,4.9027734E3,3.3089168E4,6.0388367E4,4.6096626E3,2.6914836E3,5.8612085E2,1.3978817E5,1.1883268E3,8.3345557E2,2.749885E3,8.710308E3,1.5749367E4,1.0806692E4,1.703335E4,1.6641227E3,3.2386506E3,2.141002E4,1.1679148E4,3.549478E4,2.4893586E4,9.6651184E2,3.6431506E3,1.2709604E3,1.4205232E3,7.112413E4,6.866404E4,1.0178373E3,1.7048947E2,1.0258632E2,7.3086926E2,2.1189976E3,6.3088745E2,2.7315125E3,5.978795E3,7.7654204E3,7.9839463E3,8.933794E3,1.8728983E3,2.2671138E3,1.4766236E4,1.5938452E3,7.027751E1,1.3791592E3,1.8594916E3,1.61568955E4,5.253124E3,9.556127E3,2.1230205E3],"tree_param":{"num_deleted":"0","num_feature":"19","num_nodes":"61","size_leaf_vector":"1"}},{"base_weights":[-1.03360624E-4,-6.05393E-1,1.0873816E0,-2.3486307E-1,-9.8784137E-1,5.1901925E-1,1.1176977E0,-1.019909E0,1.0140573E-1,-1.1109803E0,-6.773006E-1,2.761259E-1,8.108622E-1,9.928646E-1,1.2024992E0,-1.1222944E0,-6.0521024E-1,4.586694E-2,1.3689167E0,-9.7552043E-1,-1.2060132E0,-7.060486E-1,1.3158952E0,1.4238733E-1,1.4023174E0,1.6231655E0,7.0221627E-1,1.1400301E0,5.7791245E-1,1.209448E0,1.1103323E0,-6.0422957E-2,-4.8646703E-2,-3.33593E-2,6.829294E-2,-8.08655E-3,1.9460348E-2,6.908952E-2,-8.174276E-2,-6.1311074E-2,-2.3342123E-2,-6.137235E-2,-5.229882E-2,-2.5375267E-2,-4.718724E-2,1.178932E-1,3.9826285E-2,1.3340952E-2,-3.3509556E-2,1.1333495E-1,6.771302E-2,8.862039E-2,7.0502125E-2,3.0262304E-2,6.850402E-2,5.3990405E-2,5.9798487E-2,3.206859E-2,-5.8614146E-3,5.9643835E-2,6.1661042E-2,-1.3252017E-1,5.5795915E-2],"categories":[],"categories_nodes":[],"categories_segments":[],"categories_sizes":[],"default_left":[0,0,0,0,0,0,0,0,0,0,0,0,0,0,0,0,0,0,0,0,0,0,0,0,0,0,0,0,0,0,0,0,0,0,0,0,0,0,0,0,0,0,0,0,0,0,0,0,0,0,0,0,0,0,0,0,0,0,0,0,0,0,0],"id":21,"left_children":[1,3,5,7,9,11,13,15,17,19,21,23,25,27,29,31,33,35,37,39,41,43,45,47,49,51,53,55,57,59,61,-1,-1,-1,-1,-1,-1,-1,-1,-1,-1,-1,-1,-1,-1,-1,-1,-1,-1,-1,-1,-1,-1,-1,-1,-1,-1,-1,-1,-1,-1,-1,-1],"loss_changes":[1.9673578E5,2.720904E4,1.8408594E3,2.574545E4,3.6123125E3,3.8353198E2,1.0728594E3,1.2411152E3,4.8065444E3,8.697422E2,1.5383242E3,4.450376E2,2.1583374E2,2.5059922E3,3.734375E1,3.0067383E2,7.085967E2,4.6625786E3,1.130918E2,3.5573516E3,1.3509375E2,1.2477578E3,2.0475269E2,2.6745956E2,9.960144E0,6.701782E0,1.3972266E2,1.0078516E2,4.742295E2,2.065625E1,9.218848E1,0E0,0E0,0E0,0E0,0E0,0E0,0E0,0E0,0E0,0E0,0E0,0E0,0E0,0E0,0E0,0E0,0E0,0E0,0E0,0E0,0E0,0E0,0E0,0E0,0E0,0E0,0E0,0E0,0E0,0E0,0E0,0E0],"parents":[2147483647,0,0,1,1,2,2,3,3,4,4,5,5,6,6,7,7,8,8,9,9,10,10,11,11,12,12,13,13,14,14,15,15,16,16,17,17,18,18,19,19,20,20,21,21,22,22,23,23,24,24,25,25,26,26,27,27,28,28,29,29,30,30],"right_children":[2,4,6,8,10,12,14,16,18,20,22,24,26,28,30,32,34,36,38,40,42,44,46,48,50,52,54,56,58,60,62,-1,-1,-1,-1,-1,-1,-1,-1,-1,-1,-1,-1,-1,-1,-1,-1,-1,-1,-1,-1,-1,-1,-1,-1,-1,-1,-1,-1,-1,-1,-1,-1],"split_conditions":[1.4784065E0,-1.6350402E-1,1.6089319E0,-1.1262712E0,8.4536463E-1,5.5E2,2.3153994E0,-1.2308862E0,8.89E2,3.587924E-1,9E2,5.56E2,5.56E2,1.8142639E0,1.4154743E0,4.107786E-1,8.89E2,-4.9265003E-1,1.3937144E0,2.6366115E-1,7.7703524E-1,1.0634848E0,8.37E2,1.1403798E0,-1.3943387E0,-2.0850673E-1,8.89E2,2.3845756E-1,1.4154743E0,6.01E2,1E0,-6.0422957E-2,-4.8646703E-2,-3.33593E-2,6.829294E-2,-8.08655E-3,1.9460348E-2,6.908952E-2,-8.174276E-2,-6.1311074E-2,-2.3342123E-2,-6.137235E-2,-5.229882E-2,-2.5375267E-2,-4.718724E-2,1.178932E-1,3.9826285E-2,1.3340952E-2,-3.3509556E-2,1.1333495E-1,6.771302E-2,8.862039E-2,7.0502125E-2,3.0262304E-2,6.850402E-2,5.3990405E-2,5.9798487E-2,3.206859E-2,-5.8614146E-3,5.9643835E-2,6.1661042E-2,-1.3252017E-1,5.5795915E-2],"split_indices":[2,2,2,2,2,7,2,2,7,2,4,4,4,2,17,14,7,2,13,2,2,2,7,10,10,16,7,14,17,7,6,0,0,0,0,0,0,0,0,0,0,0,0,0,0,0,0,0,0,0,0,0,0,0,0,0,0,0,0,0,0,0,0],"split_type":[0,0,0,0,0,0,0,0,0,0,0,0,0,0,0,0,0,0,0,0,0,0,0,0,0,0,0,0,0,0,0,0,0,0,0,0,0,0,0,0,0,0,0,0,0,0,0,0,0,0,0,0,0,0,0,0,0,0,0,0,0,0,0],"sum_hessian":[2.9887797E5,1.920077E5,1.0687025E5,9.752426E4,9.4483445E4,5.4126514E3,1.014576E5,2.9245742E4,6.8278516E4,6.7653984E4,2.682946E4,2.955124E3,2.4575273E3,4.10468E4,6.04108E4,2.345356E4,5.79218E3,6.5413324E4,2.8651926E3,2.7898588E4,3.9755402E4,2.6448635E4,3.808246E2,2.6424514E3,3.126725E2,2.8827414E2,2.1692532E3,3.0299229E4,1.0747574E4,5.6164242E4,4.2465576E3,1.4868794E4,8.584768E3,5.6162515E3,1.7592848E2,4.0765375E4,2.464795E4,2.8535032E3,1.1689463E1,1.8687219E4,9.211369E3,3.5053926E4,4.7014736E3,1.4412925E4,1.2035711E4,1.2550142E2,2.5532317E2,2.2921255E3,3.5032596E2,1.403648E1,2.98636E2,1.6524379E2,1.2303034E2,1.8958871E3,2.733661E2,1.4600884E4,1.5698345E4,9.848575E3,8.9899884E2,3.3124977E4,2.3039268E4,5.59605E0,4.2409614E3],"tree_param":{"num_deleted":"0","num_feature":"19","num_nodes":"63","size_leaf_vector":"1"}},{"base_weights":[-1.6411379E-3,-5.795815E-1,1.0624907E0,-1.991798E-1,-9.758357E-1,9.102821E-1,1.182482E0,-9.8717725E-1,1.18254244E-1,-1.0736593E0,-6.7345136E-1,1.1266046E0,5.7654864E-1,1.2002683E0,1.132769E0,-1.1143245E0,-5.2714956E-1,6.634461E-1,-2.8167087E-1,-9.2316794E-1,-1.1773882E0,-1.0780531E0,-1.9462773E-1,-1.6214384E-1,1.2000768E0,-4.7790155E-1,9.3041253E-1,1.2239273E0,1.1831877E0,1.1929865E0,1.006007E0,-5.987057E-2,-3.222547E-2,-1.7322524E-2,-6.428291E-2,-6.8734124E-2,5.2340806E-2,-6.947186E-2,3.8536766E-3,-5.6990977E-2,-1.4373931E-2,-5.911993E-2,-1.5216782E-2,-5.4876495E-2,6.3987836E-2,3.852346E-2,-3.4272995E-2,-8.311367E-2,4.3304067E-2,-6.8128817E-3,6.1056923E-2,-4.1287415E-2,2.969559E-2,5.2731723E-2,1.367228E-2,6.0472168E-2,6.324962E-2,4.3146756E-2,6.0076322E-2,5.86272E-2,6.3242115E-2,5.3307325E-2,-1.0375317E-1],"categories":[],"categories_nodes":[],"categories_segments":[],"categories_sizes":[],"default_left":[0,0,0,0,0,0,0,0,0,0,0,0,0,0,0,0,0,0,0,0,0,0,0,0,0,0,0,0,0,0,0,0,0,0,0,0,0,0,0,0,0,0,0,0,0,0,0,0,0,0,0,0,0,0,0,0,0,0,0,0,0,0,0],"id":22,"left_children":[1,3,5,7,9,11,13,15,17,19,21,23,25,27,29,31,33,35,37,39,41,43,45,47,49,51,53,55,57,59,61,-1,-1,-1,-1,-1,-1,-1,-1,-1,-1,-1,-1,-1,-1,-1,-1,-1,-1,-1,-1,-1,-1,-1,-1,-1,-1,-1,-1,-1,-1,-1,-1],"loss_changes":[1.7956017E5,2.8519902E4,1.8756953E3,2.4147156E4,2.7405312E3,3.2699531E3,4.9445312E1,1.6208477E3,1.5004367E4,1.0919141E3,4.3887354E3,2.6027031E3,6.6490854E3,1.5644531E1,1.1450586E2,8.469785E2,8.225581E2,2.2754053E4,1.5775815E4,3.934963E3,1.809336E2,5.652754E2,4.9160513E3,2.2894224E3,7.3203125E2,1.6699594E3,1.0885146E3,9E0,1.4341016E2,1.3604492E1,9.079507E2,0E0,0E0,0E0,0E0,0E0,0E0,0E0,0E0,0E0,0E0,0E0,0E0,0E0,0E0,0E0,0E0,0E0,0E0,0E0,0E0,0E0,0E0,0E0,0E0,0E0,0E0,0E0,0E0,0E0,0E0,0E0,0E0],"parents":[2147483647,0,0,1,1,2,2,3,3,4,4,5,5,6,6,7,7,8,8,9,9,10,10,11,11,12,12,13,13,14,14,15,15,16,16,17,17,18,18,19,19,20,20,21,21,22,22,23,23,24,24,25,25,26,26,27,27,28,28,29,29,30,30],"right_children":[2,4,6,8,10,12,14,16,18,20,22,24,26,28,30,32,34,36,38,40,42,44,46,48,50,52,54,56,58,60,62,-1,-1,-1,-1,-1,-1,-1,-1,-1,-1,-1,-1,-1,-1,-1,-1,-1,-1,-1,-1,-1,-1,-1,-1,-1,-1,-1,-1,-1,-1,-1,-1],"split_conditions":[1.4784065E0,-2.0053382E-1,2.3153994E0,-1.1409445E0,8.937231E-1,4E0,7E0,1.1E1,6E0,3.587924E-1,8E0,1E0,8E0,3E0,2.57613E0,-1.2155157E0,1.3E1,3E0,9E0,2.8926343E-1,9E2,8.89E2,9E0,2.1073816E0,1.5311643E0,3.96E2,1.9797513E0,1E0,5E0,1.3E1,1.1E1,-5.987057E-2,-3.222547E-2,-1.7322524E-2,-6.428291E-2,-6.8734124E-2,5.2340806E-2,-6.947186E-2,3.8536766E-3,-5.6990977E-2,-1.4373931E-2,-5.911993E-2,-1.5216782E-2,-5.4876495E-2,6.3987836E-2,3.852346E-2,-3.4272995E-2,-8.311367E-2,4.3304067E-2,-6.8128817E-3,6.1056923E-2,-4.1287415E-2,2.969559E-2,5.2731723E-2,1.367228E-2,6.0472168E-2,6.324962E-2,4.3146756E-2,6.0076322E-2,5.86272E-2,6.3242115E-2,5.3307325E-2,-1.0375317E-1],"split_indices":[2,2,2,2,2,1,1,1,1,2,1,1,1,1,2,2,1,1,1,2,4,7,1,2,2,0,2,1,1,1,1,0,0,0,0,0,0,0,0,0,0,0,0,0,0,0,0,0,0,0,0,0,0,0,0,0,0,0,0,0,0,0,0],"split_type":[0,0,0,0,0,0,0,0,0,0,0,0,0,0,0,0,0,0,0,0,0,0,0,0,0,0,0,0,0,0,0,0,0,0,0,0,0,0,0,0,0,0,0,0,0,0,0,0,0,0,0,0,0,0,0,0,0,0,0,0,0,0,0],"sum_hessian":[2.919635E5,1.892049E5,1.0275858E5,9.653417E4,9.267074E4,4.530186E4,5.745672E4,2.7720002E4,6.881417E4,7.0017125E4,2.2653621E4,2.7484387E4,1.7817473E4,4.229958E4,1.5157141E4,2.1716383E4,6.0036177E3,2.9118354E4,3.9695816E4,2.857295E4,4.1444176E4,1.2277766E4,1.0375855E4,1.482323E3,2.6002064E4,4.476868E3,1.3340604E4,1.770507E4,2.4594508E4,1.0270025E4,4.887115E3,1.845165E4,3.264733E3,4.8497266E3,1.153891E3,4.609588E3,2.4508766E4,9.709866E3,2.998595E4,2.1309564E4,7.263384E3,4.1207336E4,2.3684001E2,1.2177706E4,1.0005956E2,3.4977827E3,6.8780728E3,6.025768E2,8.797463E2,4.0336734E2,2.5598697E4,3.3801143E3,1.096754E3,1.121872E4,2.1218843E3,1.3111141E4,4.5939307E3,1.3346895E3,2.3259818E4,8.008877E3,2.2611484E3,4.7941914E3,9.292394E1],"tree_param":{"num_deleted":"0","num_feature":"19","num_nodes":"63","size_leaf_vector":"1"}},{"base_weights":[-2.517367E-3,-5.708062E-1,1.0439589E0,-7.63834E-1,1.6254199E-1,8.917241E-1,1.1651173E0,-1.5926398E-1,-9.500115E-1,2.7691525E-1,-9.677017E-1,1.1068269E0,5.6459457E-1,1.1002392E0,1.2037007E0,4.8646167E-1,-9.9371856E-1,-7.5423783E-1,-1.1002342E0,-1.3241768E0,3.714887E-1,-1.456896E0,1.4965924E0,-1.0042259E-1,1.1793766E0,-3.8464016E-1,8.973167E-1,1.1975662E0,9.913206E-1,1.1868113E0,1.2153691E0,-7.360385E-2,3.5246022E-2,-5.684203E-2,2.8520716E-2,-5.5073E-2,-2.320884E-2,-5.5055626E-2,1.8255962E-1,-7.1172E-2,-6.3151024E-2,2.8296337E-2,-2.1721798E-3,-8.08807E-2,-6.857545E-2,8.5308485E-2,-8.2500145E-2,-8.0462106E-2,4.28089E-2,-1.742776E-2,6.0130265E-2,1.153416E-2,-5.1410258E-2,6.433775E-2,3.4573518E-2,6.152885E-2,5.3085335E-2,5.1417034E-2,1.4625042E-2,5.657918E-2,6.0384072E-2,6.361676E-2,6.0650975E-2],"categories":[],"categories_nodes":[],"categories_segments":[],"categories_sizes":[],"default_left":[0,0,0,0,0,0,0,0,0,0,0,0,0,0,0,0,0,0,0,0,0,0,0,0,0,0,0,0,0,0,0,0,0,0,0,0,0,0,0,0,0,0,0,0,0,0,0,0,0,0,0,0,0,0,0,0,0,0,0,0,0,0,0],"id":23,"left_children":[1,3,5,7,9,11,13,15,17,19,21,23,25,27,29,31,33,35,37,39,41,43,45,47,49,51,53,55,57,59,61,-1,-1,-1,-1,-1,-1,-1,-1,-1,-1,-1,-1,-1,-1,-1,-1,-1,-1,-1,-1,-1,-1,-1,-1,-1,-1,-1,-1,-1,-1,-1,-1],"loss_changes":[1.690198E5,2.6073012E4,1.8438359E3,1.641164E4,4.961591E3,3.1187773E3,1.3809375E2,1.849904E4,3.277711E3,5.278042E3,4.254158E3,2.3424922E3,5.5551963E3,2.1910547E2,5.4375E0,8.282209E3,3.3534668E3,4.874545E3,2.6726562E2,1.000415E1,2.655192E3,3.8174805E1,3.883955E2,2.190898E3,8.958008E2,1.8081929E3,1.0431299E3,4.7890625E1,2.535459E2,1.5125E1,1.2148438E0,0E0,0E0,0E0,0E0,0E0,0E0,0E0,0E0,0E0,0E0,0E0,0E0,0E0,0E0,0E0,0E0,0E0,0E0,0E0,0E0,0E0,0E0,0E0,0E0,0E0,0E0,0E0,0E0,0E0,0E0,0E0,0E0],"parents":[2147483647,0,0,1,1,2,2,3,3,4,4,5,5,6,6,7,7,8,8,9,9,10,10,11,11,12,12,13,13,14,14,15,15,16,16,17,17,18,18,19,19,20,20,21,21,22,22,23,23,24,24,25,25,26,26,27,27,28,28,29,29,30,30],"right_children":[2,4,6,8,10,12,14,16,18,20,22,24,26,28,30,32,34,36,38,40,42,44,46,48,50,52,54,56,58,60,62,-1,-1,-1,-1,-1,-1,-1,-1,-1,-1,-1,-1,-1,-1,-1,-1,-1,-1,-1,-1,-1,-1,-1,-1,-1,-1,-1,-1,-1,-1,-1,-1],"split_conditions":[1.4784065E0,1.3489168E0,2.3153994E0,-1.2920247E0,1.3E1,4E0,1.2021978E0,-2.0053382E-1,-2.823133E-1,3E0,1.2292427E0,1E0,8E0,-1.2920247E0,1.810172E-1,3E0,8E0,-1.0585726E0,4.96E2,-1.6350402E-1,-1.6350402E-1,-2.2078851E-1,2.3845756E-1,2.1073816E0,1.5311643E0,6E0,3.47E2,2.3845756E-1,1.4154743E0,1E0,1.3489168E0,-7.360385E-2,3.5246022E-2,-5.684203E-2,2.8520716E-2,-5.5073E-2,-2.320884E-2,-5.5055626E-2,1.8255962E-1,-7.1172E-2,-6.3151024E-2,2.8296337E-2,-2.1721798E-3,-8.08807E-2,-6.857545E-2,8.5308485E-2,-8.2500145E-2,-8.0462106E-2,4.28089E-2,-1.742776E-2,6.0130265E-2,1.153416E-2,-5.1410258E-2,6.433775E-2,3.4573518E-2,6.152885E-2,5.3085335E-2,5.1417034E-2,1.4625042E-2,5.657918E-2,6.0384072E-2,6.361676E-2,6.0650975E-2],"split_indices":[2,15,2,15,1,1,15,2,2,1,2,1,1,15,14,1,1,2,11,2,2,2,14,2,2,1,0,14,17,3,15,0,0,0,0,0,0,0,0,0,0,0,0,0,0,0,0,0,0,0,0,0,0,0,0,0,0,0,0,0,0,0,0],"split_type":[0,0,0,0,0,0,0,0,0,0,0,0,0,0,0,0,0,0,0,0,0,0,0,0,0,0,0,0,0,0,0,0,0,0,0,0,0,0,0,0,0,0,0,0,0,0,0,0,0,0,0,0,0,0,0,0,0,0,0,0,0,0,0],"sum_hessian":[2.8420778E5,1.8418603E5,1.0002175E5,1.4580739E5,3.837864E4,4.432984E4,5.5691906E4,3.4330047E4,1.1147734E5,3.4852543E4,3.5260945E3,2.6742816E4,1.7587023E4,2.0779947E4,3.491196E4,1.935387E4,1.497618E4,4.8403195E4,6.3074145E4,1.9431282E3,3.2909418E4,2.942399E3,5.836955E2,1.515984E3,2.5226832E4,4.5645376E3,1.3022486E4,1.0968642E4,9.811306E3,1.4306667E4,2.0605293E4,1.9415587E3,1.741231E4,1.3720952E4,1.2552279E3,2.2029566E4,2.637363E4,6.3063254E4,1.0889746E1,7.3228265E2,1.2108455E3,2.2408422E4,1.0500994E4,1.0146499E3,1.927749E3,5.4767566E2,3.601988E1,5.8794794E2,9.2803613E2,3.7756226E2,2.484927E4,2.3337969E3,2.230741E3,4.5012925E3,8.521194E3,8.818001E3,2.1506401E3,9.317253E3,4.940536E2,3.9387961E3,1.0367871E4,7.947993E2,1.9810494E4],"tree_param":{"num_deleted":"0","num_feature":"19","num_nodes":"63","size_leaf_vector":"1"}},{"base_weights":[-1.3283849E-3,-5.5766326E-1,1.0165845E0,-1.9219519E-1,-9.451046E-1,4.211497E-1,1.0569067E0,-8.6852956E-1,1.5344992E-1,-1.1564718E0,-8.1488156E-1,-1.2461291E-1,1.0589982E0,1.0887477E0,5.7341665E-1,-1.0345391E0,-5.234818E-1,6.4568204E-1,-1.9467987E-1,-1.1581542E0,1.7574085E-1,-9.614262E-1,-4.2892843E-1,-3.390562E-1,1.3099315E0,1.2141993E0,6.862764E-2,9.9195063E-1,1.153203E0,-1.2288905E0,1.1099892E0,-5.9291E-2,-2.5406668E-2,8.583087E-3,-4.782256E-2,-6.6726185E-2,5.0221927E-2,-6.877022E-2,6.793126E-3,-5.799082E-2,1.608347E-1,-6.647315E-3,-5.1717665E-2,-2.5403418E-3,-4.3483246E-2,-4.0265832E-2,1.7956436E-2,8.476618E-2,5.4342683E-2,6.3234225E-2,-1.1887764E-2,2.7122403E-2,-6.104048E-2,5.7093214E-2,3.1406306E-2,5.9732895E-2,5.6700855E-2,5.552273E-2,-1.0262E-1,-1.1790577E-1,5.5870753E-2],"categories":[],"categories_nodes":[],"categories_segments":[],"categories_sizes":[],"default_left":[0,0,0,0,0,0,0,0,0,0,0,0,0,0,0,0,0,0,0,0,0,0,0,0,0,0,0,0,0,0,0,0,0,0,0,0,0,0,0,0,0,0,0,0,0,0,0,0,0,0,0,0,0,0,0,0,0,0,0,0,0],"id":24,"left_children":[1,3,5,7,9,11,13,15,17,19,21,23,25,27,29,31,33,35,37,39,-1,41,43,45,47,49,51,53,55,57,59,-1,-1,-1,-1,-1,-1,-1,-1,-1,-1,-1,-1,-1,-1,-1,-1,-1,-1,-1,-1,-1,-1,-1,-1,-1,-1,-1,-1,-1,-1],"loss_changes":[1.5688952E5,2.5365117E4,2.3502031E3,2.1550047E4,2.3924531E3,2.1623567E3,1.4110234E3,1.7853555E3,1.045431E4,2.645586E2,3.0429531E3,1.0304282E3,4.401494E2,5.3560156E2,5.4825034E3,1.6756426E3,3.0489434E3,1.7955615E4,1.3946766E4,2.446914E2,0E0,2.3561484E3,2.4680686E3,9.4874713E2,3.560846E1,1.8179907E2,2.3837975E2,1.8752305E3,3.9710938E1,2.5081309E3,1.15129395E2,0E0,0E0,0E0,0E0,0E0,0E0,0E0,0E0,0E0,0E0,0E0,0E0,0E0,0E0,0E0,0E0,0E0,0E0,0E0,0E0,0E0,0E0,0E0,0E0,0E0,0E0,0E0,0E0,0E0,0E0],"parents":[2147483647,0,0,1,1,2,2,3,3,4,4,5,5,6,6,7,7,8,8,9,9,10,10,11,11,12,12,13,13,14,14,15,15,16,16,17,17,18,18,19,19,21,21,22,22,23,23,24,24,25,25,26,26,27,27,28,28,29,29,30,30],"right_children":[2,4,6,8,10,12,14,16,18,20,22,24,26,28,30,32,34,36,38,40,-1,42,44,46,48,50,52,54,56,58,60,-1,-1,-1,-1,-1,-1,-1,-1,-1,-1,-1,-1,-1,-1,-1,-1,-1,-1,-1,-1,-1,-1,-1,-1,-1,-1,-1,-1,-1,-1],"split_conditions":[1.4406224E0,-2.2078851E-1,1.6089319E0,-1.0720096E0,4E0,1.1E1,1.1E1,-1.2476996E0,6E0,5E1,8.4536463E-1,8.56E2,1E0,2.3153994E0,1.2E1,1.1E1,6E0,3E0,