{"learner":{"attributes":{"scikit_learn":"{\"_estimator_type\": \"classifier\"}"},"feature_names":["merchant","category","amt","gender","street","city","state","zip","lat","long","city_pop","job","merch_lat","merch_long","age","trans_hour","trans_day","trans_month","trans_dayofweek"],"feature_types":["int","int","float","int","int","int","int","int","float","float","float","int","float","float","float","float","float","float","float"],"gradient_booster":{"model":{"gbtree_model_param":{"num_parallel_tree":"1","num_trees":"500"},"iteration_indptr":[0,1,2,3,4,5,6,7,8,9,10,11,12,13,14,15,16,17,18,19,20,21,22,23,24,25,26,27,28,29,30,31,32,33,34,35,36,37,38,39,40,41,42,43,44,45,46,47,48,49,50,51,52,53,54,55,56,57,58,59,60,61,62,63,64,65,66,67,68,69,70,71,72,73,74,75,76,77,78,79,80,81,82,83,84,85,86,87,88,89,90,91,92,93,94,95,96,97,98,99,100,101,102,103,104,105,106,107,108,109,110,111,112,113,114,115,116,117,118,119,120,121,122,123,124,125,126,127,128,129,130,131,132,133,134,135,136,137,138,139,140,141,142,143,144,145,146,147,148,149,150,151,152,153,154,155,156,157,158,159,160,161,162,163,164,165,166,167,168,169,170,171,172,173,174,175,176,177,178,179,180,181,182,183,184,185,186,187,188,189,190,191,192,193,194,195,196,197,198,199,200,201,202,203,204,205,206,207,208,209,210,211,212,213,214,215,216,217,218,219,220,221,222,223,224,225,226,227,228,229,230,231,232,233,234,235,236,237,238,239,240,241,242,243,244,245,246,247,248,249,250,251,252,253,254,255,256,257,258,259,260,261,262,263,264,265,266,267,268,269,270,271,272,273,274,275,276,277,278,279,280,281,282,283,284,285,286,287,288,289,290,291,292,293,294,295,296,297,298,299,300,301,302,303,304,305,306,307,308,309,310,311,312,313,314,315,316,317,318,319,320,321,322,323,324,325,326,327,328,329,330,331,332,333,334,335,336,337,338,339,340,341,342,343,344,345,346,347,348,349,350,351,352,353,354,355,356,357,358,359,360,361,362,363,364,365,366,367,368,369,370,371,372,373,374,375,376,377,378,379,380,381,382,383,384,385,386,387,388,389,390,391,392,393,394,395,396,397,398,399,400,401,402,403,404,405,406,407,408,409,410,411,412,413,414,415,416,417,418,419,420,421,422,423,424,425,426,427,428,429,430,431,432,433,434,435,436,437,438,439,440,441,442,443,444,445,446,447,448,449,450,451,452,453,454,455,456,457,458,459,460,461,462,463,464,465,466,467,468,469,470,471,472,473,474,475,476,477,478,479,480,481,482,483,484,485,486,487,488,489,490,491,492,493,494,495,496,497,498,499,500],"tree_info":[0,0,0,0,0,0,0,0,0,0,0,0,0,0,0,0,0,0,0,0,0,0,0,0,0,0,0,0,0,0,0,0,0,0,0,0,0,0,0,0,0,0,0,0,0,0,0,0,0,0,0,0,0,0,0,0,0,0,0,0,0,0,0,0,0,0,0,0,0,0,0,0,0,0,0,0,0,0,0,0,0,0,0,0,0,0,0,0,0,0,0,0,0,0,0,0,0,0,0,0,0,0,0,0,0,0,0,0,0,0,0,0,0,0,0,0,0,0,0,0,0,0,0,0,0,0,0,0,0,0,0,0,0,0,0,0,0,0,0,0,0,0,0,0,0,0,0,0,0,0,0,0,0,0,0,0,0,0,0,0,0,0,0,0,0,0,0,0,0,0,0,0,0,0,0,0,0,0,0,0,0,0,0,0,0,0,0,0,0,0,0,0,0,0,0,0,0,0,0,0,0,0,0,0,0,0,0,0,0,0,0,0,0,0,0,0,0,0,0,0,0,0,0,0,0,0,0,0,0,0,0,0,0,0,0,0,0,0,0,0,0,0,0,0,0,0,0,0,0,0,0,0,0,0,0,0,0,0,0,0,0,0,0,0,0,0,0,0,0,0,0,0,0,0,0,0,0,0,0,0,0,0,0,0,0,0,0,0,0,0,0,0,0,0,0,0,0,0,0,0,0,0,0,0,0,0,0,0,0,0,0,0,0,0,0,0,0,0,0,0,0,0,0,0,0,0,0,0,0,0,0,0,0,0,0,0,0,0,0,0,0,0,0,0,0,0,0,0,0,0,0,0,0,0,0,0,0,0,0,0,0,0,0,0,0,0,0,0,0,0,0,0,0,0,0,0,0,0,0,0,0,0,0,0,0,0,0,0,0,0,0,0,0,0,0,0,0,0,0,0,0,0,0,0,0,0,0,0,0,0,0,0,0,0,0,0,0,0,0,0,0,0,0,0,0,0,0,0,0,0,0,0,0,0,0,0,0,0,0,0,0,0,0,0,0,0,0,0,0,0,0,0,0,0,0,0,0,0,0,0,0,0,0,0,0,0,0,0,0,0,0,0,0,0,0,0,0,0,0,0,0,0,0,0,0,0,0,0,0,0,0,0,0,0,0,0,0,0,0,0],"trees":[{"base_weights":[2.605444E-3,-1.1836637E0,1.8599594E0,-5.2826107E-1,-1.7454854E0,1.8920333E0,1.0025922E0,-1.7402334E0,1.0427483E-1,-1.8721768E0,-1.3855596E0,3.640763E-1,1.905855E0,-9.993388E-2,1.8701776E0,-1.8692814E0,-1.1509448E0,8.944512E-1,-4.422163E-1,-1.7253458E0,-1.9800702E0,-1.9917035E0,-5.921349E-1,1.2734827E0,-9.977778E-2,1.8128481E0,1.959025E0,-8.82353E-2,1.8757354E0,-9.937106E-2,-6.934044E-2,-6.86475E-3,-8.724635E-2,-9.9983744E-2,7.426808E-2,-6.65287E-2,2.6394311E-2,-9.640103E-2,-6.2717184E-2,-9.9837534E-2,-9.263229E-2,-9.999556E-2,-8.682511E-2,3.9755356E-2,-6.886078E-2,-9.902201E-2,7.922065E-2,9.724743E-2,-9.995405E-2,9.8401845E-2,9.645864E-2,9.540048E-2,6.584937E-2],"categories":[],"categories_nodes":[],"categories_segments":[],"categories_sizes":[],"default_left":[0,0,0,0,0,0,0,0,0,0,0,0,0,0,0,0,0,0,0,0,0,0,0,0,0,0,0,0,0,0,0,0,0,0,0,0,0,0,0,0,0,0,0,0,0,0,0,0,0,0,0,0,0],"id":0,"left_children":[1,3,5,7,9,11,13,15,17,19,21,23,25,-1,27,29,31,33,35,37,39,41,43,45,-1,47,49,-1,51,-1,-1,-1,-1,-1,-1,-1,-1,-1,-1,-1,-1,-1,-1,-1,-1,-1,-1,-1,-1,-1,-1,-1,-1],"loss_changes":[1.0564975E6,1.07745E5,5.1374375E3,1.0353934E5,7.181875E3,3.80375E3,1.755758E4,3.5200312E3,3.8322617E4,1.8426562E3,1.9728164E4,3.4707134E3,8.79375E2,0E0,1.089707E2,2.162875E3,5.011086E3,6.2053625E4,4.5212867E4,4.7101875E3,1.3909375E2,4.5242188E1,1.9352566E4,1.1840573E3,0E0,3.2711234E4,2.671875E1,0E0,9.166992E1,0E0,0E0,0E0,0E0,0E0,0E0,0E0,0E0,0E0,0E0,0E0,0E0,0E0,0E0,0E0,0E0,0E0,0E0,0E0,0E0,0E0,0E0,0E0,0E0],"parents":[2147483647,0,0,1,1,2,2,3,3,4,4,5,5,6,6,7,7,8,8,9,9,10,10,11,11,12,12,14,14,15,15,16,16,17,17,18,18,19,19,20,20,21,21,22,22,23,23,25,25,26,26,28,28],"right_children":[2,4,6,8,10,12,14,16,18,20,22,24,26,-1,28,30,32,34,36,38,40,42,44,46,-1,48,50,-1,52,-1,-1,-1,-1,-1,-1,-1,-1,-1,-1,-1,-1,-1,-1,-1,-1,-1,-1,-1,-1,-1,-1,-1,-1],"split_conditions":[1.5126271E0,-2.216944E-1,8E0,-1.1272409E0,8.5243857E-1,1.5820434E0,1.3E1,-1.2319958E0,6E0,3.6506003E-1,8E0,2E0,2.254616E0,-9.993388E-2,-1.9077656E0,1.1E1,6E0,3E0,-5.2056086E-1,2.6366115E-1,7.831028E-1,1.4657288E0,9E0,1E0,-9.977778E-2,3E0,7E0,-8.82353E-2,5.256593E-1,-9.937106E-2,-6.934044E-2,-6.86475E-3,-8.724635E-2,-9.9983744E-2,7.426808E-2,-6.65287E-2,2.6394311E-2,-9.640103E-2,-6.2717184E-2,-9.9837534E-2,-9.263229E-2,-9.999556E-2,-8.682511E-2,3.9755356E-2,-6.886078E-2,-9.902201E-2,7.922065E-2,9.724743E-2,-9.995405E-2,9.8401845E-2,9.645864E-2,9.540048E-2,6.584937E-2],"split_indices":[2,2,1,2,2,2,1,2,1,2,1,1,2,0,12,1,1,1,2,2,2,2,1,1,0,1,1,0,14,0,0,0,0,0,0,0,0,0,0,0,0,0,0,0,0,0,0,0,0,0,0,0,0],"split_type":[0,0,0,0,0,0,0,0,0,0,0,0,0,0,0,0,0,0,0,0,0,0,0,0,0,0,0,0,0,0,0,0,0,0,0,0,0,0,0,0,0,0,0,0,0,0,0,0,0,0,0,0,0],"sum_hessian":[4.7950016E5,2.926125E5,1.8688766E5,1.3505903E5,1.5755348E5,1.8014717E5,6.740475E3,4.6315094E4,8.874393E4,1.16531125E5,4.102235E4,1.6152123E3,1.7853197E5,1.51125E3,5.229225E3,3.7992875E4,8.322218E3,3.628234E4,5.2461594E4,4.936623E4,6.71649E4,2.3254986E4,1.7767365E4,1.1662123E3,4.49E2,6.4951594E4,1.13580375E5,7.5E0,5.221725E3,3.051722E4,7.475655E3,3.0753184E3,5.2468994E3,6.1515E3,3.0130838E4,2.738437E4,2.5077225E4,3.4512312E4,1.4853916E4,5.9377484E4,7.7874136E3,2.252375E4,7.312356E2,6.421148E3,1.1346218E4,1.0125E2,1.0649623E3,6.2776594E4,2.175E3,8.719319E4,2.638719E4,4.934297E3,2.8742807E2],"tree_param":{"num_deleted":"0","num_feature":"19","num_nodes":"53","size_leaf_vector":"1"}},{"base_weights":[-3.228516E-3,-1.1380799E0,1.7695014E0,-1.4104348E0,1.677872E-1,1.8003215E0,9.021072E-1,-2.8974387E-1,-1.7234282E0,6.467892E-1,-5.8181834E-1,2.006331E-1,1.8134348E0,-9.518187E-2,1.7696105E0,9.497294E-1,-1.7857387E0,-1.5216357E0,-1.8579353E0,-9.7407085E-1,1.1115446E0,-1.1362281E0,3.972261E-1,1.1175216E0,-9.5038064E-2,1.7372398E0,1.8893261E0,1.1459792E0,1.8547077E0,-8.406574E-2,6.97932E-2,-9.50259E-2,1.1279455E-2,-9.221108E-2,-5.9525162E-2,-9.336251E-2,-6.168113E-2,-8.477117E-2,1.1043408E-2,6.0726047E-2,-9.871319E-2,-8.880352E-2,-1.4144762E-2,-9.517237E-2,3.8322233E-2,-9.434275E-2,7.229749E-2,9.3221284E-2,7.441308E-2,9.128658E-2,9.499588E-2,7.121927E-2,-1.0155E-1,-8.67089E-2,9.2953585E-2],"categories":[],"categories_nodes":[],"categories_segments":[],"categories_sizes":[],"default_left":[0,0,0,0,0,0,0,0,0,0,0,0,0,0,0,0,0,0,0,0,0,0,0,0,0,0,0,0,0,0,0,0,0,0,0,0,0,0,0,0,0,0,0,0,0,0,0,0,0,0,0,0,0,0,0],"id":1,"left_children":[1,3,5,7,9,11,13,15,17,19,21,23,25,-1,27,29,31,33,35,37,39,41,43,45,-1,47,49,51,53,-1,-1,-1,-1,-1,-1,-1,-1,-1,-1,-1,-1,-1,-1,-1,-1,-1,-1,-1,-1,-1,-1,-1,-1,-1,-1],"loss_changes":[9.609449E5,1.0357684E5,4.982375E3,8.452344E4,1.804603E4,3.7763125E3,1.5578535E4,9.7549516E4,5.1098125E3,2.3100387E4,1.0636286E4,2.8247268E3,1.0293125E3,0E0,2.5729297E2,3.377403E4,5.503547E3,8.0458125E3,6.549375E2,5.890794E3,7.575168E3,6.8302803E3,6.019875E3,1.0097438E3,0E0,2.8193125E3,5.68125E1,5.243501E2,7.05625E1,0E0,0E0,0E0,0E0,0E0,0E0,0E0,0E0,0E0,0E0,0E0,0E0,0E0,0E0,0E0,0E0,0E0,0E0,0E0,0E0,0E0,0E0,0E0,0E0,0E0,0E0],"parents":[2147483647,0,0,1,1,2,2,3,3,4,4,5,5,6,6,7,7,8,8,9,9,10,10,11,11,12,12,14,14,15,15,16,16,17,17,18,18,19,19,20,20,21,21,22,22,23,23,25,25,26,26,27,27,28,28],"right_children":[2,4,6,8,10,12,14,16,18,20,22,24,26,-1,28,30,32,34,36,38,40,42,44,46,-1,48,50,52,54,-1,-1,-1,-1,-1,-1,-1,-1,-1,-1,-1,-1,-1,-1,-1,-1,-1,-1,-1,-1,-1,-1,-1,-1,-1,-1],"split_conditions":[1.5126271E0,1.3489168E0,8E0,-1.2920247E0,-2.216944E-1,1.5820434E0,1.3E1,-2.4127603E-1,-2.216944E-1,-1.0996021E0,8.4291565E-1,2E0,1.3489168E0,-9.518187E-2,1.0554788E0,-1.2004436E0,8E0,-1.0594612E0,1.4306931E0,1.810172E-1,1.3E1,1.810172E-1,8E0,1E0,-9.5038064E-2,-1.2920247E0,2.254616E0,1E0,-1.1975513E0,-8.406574E-2,6.97932E-2,-9.50259E-2,1.1279455E-2,-9.221108E-2,-5.9525162E-2,-9.336251E-2,-6.168113E-2,-8.477117E-2,1.1043408E-2,6.0726047E-2,-9.871319E-2,-8.880352E-2,-1.4144762E-2,-9.517237E-2,3.8322233E-2,-9.434275E-2,7.229749E-2,9.3221284E-2,7.441308E-2,9.128658E-2,9.499588E-2,7.121927E-2,-1.0155E-1,-8.67089E-2,9.2953585E-2],"split_indices":[2,15,1,15,2,2,1,2,2,2,2,1,15,0,15,2,1,2,2,14,1,14,1,1,0,15,2,3,14,0,0,0,0,0,0,0,0,0,0,0,0,0,0,0,0,0,0,0,0,0,0,0,0,0,0],"split_type":[0,0,0,0,0,0,0,0,0,0,0,0,0,0,0,0,0,0,0,0,0,0,0,0,0,0,0,0,0,0,0,0,0,0,0,0,0,0,0,0,0,0,0,0,0,0,0,0,0,0,0,0,0,0,0],"sum_hessian":[4.7765584E5,2.912233E5,1.8643255E5,2.4096662E5,5.0256688E4,1.8003452E5,6.39802E3,5.2606816E4,1.8835981E5,3.0663002E4,1.9593688E4,1.4639596E3,1.7857056E5,1.510725E3,4.887295E3,2.877024E4,2.3836578E4,7.534165E4,1.1301816E5,6.832654E3,2.3830348E4,1.2509623E4,7.084064E3,1.0195666E3,4.4439304E2,8.9118875E4,8.945169E4,5.885562E2,4.298739E3,4.1707573E3,2.4599482E4,2.2549797E4,1.2867803E3,3.8161004E4,3.7180645E4,1.1135472E5,1.663443E3,4.2603667E3,2.572287E3,2.3061375E4,7.689731E2,7.1484907E3,5.3611323E3,9.790783E2,6.104986E3,1.00004654E2,9.1956195E2,5.8982363E4,3.0136516E4,1.2795661E4,7.665602E4,5.4164246E2,4.6913765E1,4.7392087E0,4.2939995E3],"tree_param":{"num_deleted":"0","num_feature":"19","num_nodes":"55","size_leaf_vector":"1"}},{"base_weights":[9.901265E-4,-1.0779344E0,1.6930808E0,-1.3373144E0,1.5935028E-1,1.7227651E0,8.9083385E-1,-2.7087787E-1,-1.6355494E0,5.9968066E-1,-5.176691E-1,2.4337904E-1,1.735332E0,-9.107693E-2,1.6984962E0,9.034643E-1,-1.6712223E0,-1.4399751E0,-1.7665544E0,-1.0835797E0,1.0342932E0,-9.9017835E-1,3.5277745E-1,1.116711E0,-9.094608E-2,1.6626278E0,1.8074495E0,1.1331319E0,1.8047181E0,-8.905234E-2,6.5483E-2,-9.132969E-2,2.7123962E-2,-8.8627055E-2,-5.5159505E-2,-8.876906E-2,-5.886025E-2,-8.952957E-2,5.0439E-3,-6.723816E-3,6.5144464E-2,-8.4705316E-2,-8.660027E-3,-9.1066875E-2,3.5036374E-2,-9.030876E-2,7.122438E-2,8.9152545E-2,7.1653016E-2,8.725735E-2,9.089105E-2,7.184637E-2,-1.028703E-1,9.075727E-2,8.641687E-2],"categories":[],"categories_nodes":[],"categories_segments":[],"categories_sizes":[],"default_left":[0,0,0,0,0,0,0,0,0,0,0,0,0,0,0,0,0,0,0,0,0,0,0,0,0,0,0,0,0,0,0,0,0,0,0,0,0,0,0,0,0,0,0,0,0,0,0,0,0,0,0,0,0,0,0],"id":2,"left_children":[1,3,5,7,9,11,13,15,17,19,21,23,25,-1,27,29,31,33,35,37,39,41,43,45,-1,47,49,51,53,-1,-1,-1,-1,-1,-1,-1,-1,-1,-1,-1,-1,-1,-1,-1,-1,-1,-1,-1,-1,-1,-1,-1,-1,-1,-1],"loss_changes":[8.688467E5,9.326534E4,4.41125E3,7.640991E4,1.5014869E4,3.32175E3,1.4491965E4,8.634478E4,4.8076562E3,2.232681E4,8.164041E3,2.7149607E3,9.259375E2,0E0,3.0404102E2,3.1142402E4,8.237922E3,8.433844E3,5.8275E2,5.2450396E3,7.614662E3,7.3985166E3,5.284852E3,9.5506006E2,0E0,2.4370312E3,5.43125E1,7.869354E2,2.7929688E-1,0E0,0E0,0E0,0E0,0E0,0E0,0E0,0E0,0E0,0E0,0E0,0E0,0E0,0E0,0E0,0E0,0E0,0E0,0E0,0E0,0E0,0E0,0E0,0E0,0E0,0E0],"parents":[2147483647,0,0,1,1,2,2,3,3,4,4,5,5,6,6,7,7,8,8,9,9,10,10,11,11,12,12,14,14,15,15,16,16,17,17,18,18,19,19,20,20,21,21,22,22,23,23,25,25,26,26,27,27,28,28],"right_children":[2,4,6,8,10,12,14,16,18,20,22,24,26,-1,28,30,32,34,36,38,40,42,44,46,-1,48,50,52,54,-1,-1,-1,-1,-1,-1,-1,-1,-1,-1,-1,-1,-1,-1,-1,-1,-1,-1,-1,-1,-1,-1,-1,-1,-1,-1],"split_conditions":[1.5126271E0,1.3489168E0,8E0,-1.2920247E0,-2.216944E-1,1.5820434E0,1.3E1,-2.4127603E-1,-2.216944E-1,-1.1272409E0,8.4291565E-1,2E0,1.3489168E0,-9.107693E-2,1.3489168E0,-1.2319958E0,8E0,-1.0594612E0,1.4306931E0,1.810172E-1,9E0,1.2357685E-1,8E0,1E0,-9.094608E-2,-1.2920247E0,2.254616E0,1.2357685E-1,1E0,-8.905234E-2,6.5483E-2,-9.132969E-2,2.7123962E-2,-8.8627055E-2,-5.5159505E-2,-8.876906E-2,-5.886025E-2,-8.952957E-2,5.0439E-3,-6.723816E-3,6.5144464E-2,-8.4705316E-2,-8.660027E-3,-9.1066875E-2,3.5036374E-2,-9.030876E-2,7.122438E-2,8.9152545E-2,7.1653016E-2,8.725735E-2,9.089105E-2,7.184637E-2,-1.028703E-1,9.075727E-2,8.641687E-2],"split_indices":[2,15,1,15,2,2,1,2,2,2,2,1,15,0,15,2,1,2,2,14,1,14,1,1,0,15,2,14,3,0,0,0,0,0,0,0,0,0,0,0,0,0,0,0,0,0,0,0,0,0,0,0,0,0,0],"split_type":[0,0,0,0,0,0,0,0,0,0,0,0,0,0,0,0,0,0,0,0,0,0,0,0,0,0,0,0,0,0,0,0,0,0,0,0,0,0,0,0,0,0,0,0,0,0,0,0,0,0,0,0,0,0,0],"sum_hessian":[4.75912E5,2.9061078E5,1.8530122E5,2.4024631E5,5.0364465E4,1.7868836E5,6.612865E3,5.2503793E4,1.8774252E5,3.0516672E4,1.9847793E4,1.5052852E3,1.7718306E5,1.5170157E3,5.0958496E3,2.8556443E4,2.3947352E4,7.531643E4,1.1242608E5,6.2620757E3,2.4254596E4,1.2864401E4,6.9833916E3,1.0577946E3,4.4749063E2,8.824464E4,8.893843E4,8.078336E2,4.288016E3,3.7525793E3,2.4803863E4,2.237697E4,1.5703806E3,3.7893445E4,3.7422984E4,1.1076512E5,1.6609655E3,3.921056E3,2.3410198E3,4.5324746E3,1.9722121E4,6.9097334E3,5.9546685E3,9.628609E2,6.020531E3,1.0030943E2,9.574851E2,5.7877402E4,3.0367236E4,1.2716596E4,7.6221836E4,7.3810284E2,6.973079E1,3.752915E3,5.3510077E2],"tree_param":{"num_deleted":"0","num_feature":"19","num_nodes":"55","size_leaf_vector":"1"}},{"base_weights":[9.999044E-3,-1.0296899E0,1.6263788E0,-4.5765108E-1,-1.5341314E0,1.6304786E0,-8.769239E-2,-1.5300661E0,8.533725E-2,-1.642337E0,-1.2380706E0,1.4940499E0,1.7149436E0,-1.614396E0,-8.4614134E-1,6.792305E-1,-1.8639714E-1,-1.7323444E0,-1.4845632E0,-1.5435473E0,-8.024214E-1,1.6051662E0,9.4920564E-1,1.7048488E0,1.744928E0,-8.654212E-2,-7.317534E-2,-7.5698714E-3,-6.818878E-2,1.6588356E-2,4.949861E-2,-3.0432627E-2,2.1619074E-2,-5.2912902E-2,-8.7272026E-2,-5.788343E-2,-8.782285E-2,-6.999307E-2,-8.578284E-2,-4.920723E-2,2.6904618E-2,8.21762E-2,4.5364518E-2,-1.02965884E-1,5.304829E-2,8.423751E-2,8.609395E-2,8.674524E-2,8.780873E-2],"categories":[],"categories_nodes":[],"categories_segments":[],"categories_sizes":[],"default_left":[0,0,0,0,0,0,0,0,0,0,0,0,0,0,0,0,0,0,0,0,0,0,0,0,0,0,0,0,0,0,0,0,0,0,0,0,0,0,0,0,0,0,0,0,0,0,0,0,0],"id":3,"left_children":[1,3,5,7,9,11,-1,13,15,17,19,21,23,25,27,29,31,33,35,37,39,41,43,45,47,-1,-1,-1,-1,-1,-1,-1,-1,-1,-1,-1,-1,-1,-1,-1,-1,-1,-1,-1,-1,-1,-1,-1,-1],"loss_changes":[7.9707756E5,8.328953E4,2.5758438E3,7.876283E4,4.9116875E3,2.1342812E3,0E0,2.620836E3,1.4491402E4,1.5925312E3,5.462824E3,4.2916875E3,3.171875E1,7.0860156E2,1.7952871E3,3.043213E3,1.609734E4,6.294844E2,3.6251406E3,5.944258E2,4.123616E3,1.5752188E3,4.0420088E3,2.64375E1,1.953125E-1,0E0,0E0,0E0,0E0,0E0,0E0,0E0,0E0,0E0,0E0,0E0,0E0,0E0,0E0,0E0,0E0,0E0,0E0,0E0,0E0,0E0,0E0,0E0,0E0],"parents":[2147483647,0,0,1,1,2,2,3,3,4,4,5,5,7,7,8,8,9,9,10,10,11,11,12,12,13,13,14,14,15,15,16,16,17,17,18,18,19,19,20,20,21,21,22,22,23,23,24,24],"right_children":[2,4,6,8,10,12,-1,14,16,18,20,22,24,26,28,30,32,34,36,38,40,42,44,46,48,-1,-1,-1,-1,-1,-1,-1,-1,-1,-1,-1,-1,-1,-1,-1,-1,-1,-1,-1,-1,-1,-1,-1,-1],"split_conditions":[1.5126271E0,-2.0200527E-1,6.72E2,-1.1272409E0,8.4291565E-1,2.254616E0,-8.769239E-2,-1.1856587E0,2.13E2,1.810172E-1,3.76E2,2.82E2,7.66E2,1.810172E-1,2.26E2,-8.8218105E-1,-4.6860972E-1,-1.6434541E-1,3.5864934E-1,1.0729461E0,1.4021734E0,1.9466655E0,3.15E2,1E0,9E2,-8.654212E-2,-7.317534E-2,-7.5698714E-3,-6.818878E-2,1.6588356E-2,4.949861E-2,-3.0432627E-2,2.1619074E-2,-5.2912902E-2,-8.7272026E-2,-5.788343E-2,-8.782285E-2,-6.999307E-2,-8.578284E-2,-4.920723E-2,2.6904618E-2,8.21762E-2,4.5364518E-2,-1.02965884E-1,5.304829E-2,8.423751E-2,8.609395E-2,8.674524E-2,8.780873E-2],"split_indices":[2,2,0,2,2,2,0,2,0,14,0,0,4,14,0,2,2,2,2,2,2,2,0,3,4,0,0,0,0,0,0,0,0,0,0,0,0,0,0,0,0,0,0,0,0,0,0,0,0],"split_type":[0,0,0,0,0,0,0,0,0,0,0,0,0,0,0,0,0,0,0,0,0,0,0,0,0,0,0,0,0,0,0,0,0,0,0,0,0,0,0,0,0,0,0,0,0,0,0,0,0],"sum_hessian":[4.7429872E5,2.886399E5,1.8565881E5,1.3525831E5,1.5338161E5,1.8543442E5,2.2439493E2,4.5463996E4,8.979431E4,1.12324266E5,4.1057332E4,7.091325E4,1.14521164E5,4.047229E4,4.991708E3,2.8187402E4,6.160691E4,7.15157E4,4.0808562E4,2.4132861E4,1.6924473E4,5.8899305E4,1.201395E4,8.57197E4,2.8801455E4,2.2837402E4,1.7634887E4,2.1318003E3,2.8599077E3,1.330838E4,1.4879022E4,3.6618445E4,2.4988463E4,1.3644792E3,7.015123E4,1.8532453E4,2.2276111E4,1.315747E4,1.0975392E4,1.4904279E4,2.0201929E3,5.5829355E4,3.0699485E3,4.2968326E2,1.1584267E4,3.9363727E4,4.635598E4,1.5311074E4,1.349038E4],"tree_param":{"num_deleted":"0","num_feature":"19","num_nodes":"49","size_leaf_vector":"1"}},{"base_weights":[-1.8264654E-3,-9.919984E-1,1.5636086E0,-4.3093985E-1,-1.4738462E0,1.591317E0,7.8990793E-1,-1.4501824E0,1.00217864E-1,-1.6958843E0,-1.3306761E0,2.0903416E-1,1.6035504E0,-8.887142E-2,1.5903337E0,-1.5568774E0,-9.605273E-1,8.1510466E-1,-4.027129E-1,-1.6987101E0,-1.3452498E0,-1.4894671E0,-8.700632E-1,1.0082748E0,-8.954903E-2,1.514571E0,1.6541566E0,-8.795954E-2,1.5961238E0,-8.4364705E-2,-5.2306164E-2,-1.6625246E-3,-7.5857565E-2,-9.265614E-2,6.7398384E-2,-6.1498847E-2,2.6061976E-2,-8.571923E-2,-8.47257E-2,-8.679368E-2,7.861131E-2,-3.1997606E-2,-7.817307E-2,-8.514582E-2,-2.7586041E-2,-8.880803E-2,6.4790905E-2,8.2332805E-2,-1.052342E-1,8.221987E-2,8.413493E-2,8.0883145E-2,3.926906E-2],"categories":[],"categories_nodes":[],"categories_segments":[],"categories_sizes":[],"default_left":[0,0,0,0,0,0,0,0,0,0,0,0,0,0,0,0,0,0,0,0,0,0,0,0,0,0,0,0,0,0,0,0,0,0,0,0,0,0,0,0,0,0,0,0,0,0,0,0,0,0,0,0,0],"id":4,"left_children":[1,3,5,7,9,11,13,15,17,19,21,23,25,-1,27,29,31,33,35,37,39,41,43,45,-1,47,49,-1,51,-1,-1,-1,-1,-1,-1,-1,-1,-1,-1,-1,-1,-1,-1,-1,-1,-1,-1,-1,-1,-1,-1,-1,-1],"loss_changes":[7.2363894E5,7.730931E4,3.8764688E3,7.153004E4,4.8883125E3,2.9525938E3,1.2858416E4,2.363336E3,3.123021E4,5.746875E1,6.840172E3,2.4523892E3,7.769375E2,0E0,9.531152E1,2.4738438E3,4.1813403E3,5.1005203E4,3.897503E4,1.015625E0,5.576385E2,4.3713125E3,6.3574395E3,8.7979395E2,0E0,3.0008828E4,2.796875E1,0E0,8.1884766E1,0E0,0E0,0E0,0E0,0E0,0E0,0E0,0E0,0E0,0E0,0E0,0E0,0E0,0E0,0E0,0E0,0E0,0E0,0E0,0E0,0E0,0E0,0E0,0E0],"parents":[2147483647,0,0,1,1,2,2,3,3,4,4,5,5,6,6,7,7,8,8,9,9,10,10,11,11,12,12,14,14,15,15,16,16,17,17,18,18,19,19,20,20,21,21,22,22,23,23,25,25,26,26,28,28],"right_children":[2,4,6,8,10,12,14,16,18,20,22,24,26,-1,28,30,32,34,36,38,40,42,44,46,-1,48,50,-1,52,-1,-1,-1,-1,-1,-1,-1,-1,-1,-1,-1,-1,-1,-1,-1,-1,-1,-1,-1,-1,-1,-1,-1,-1],"split_conditions":[1.5126271E0,-2.4127603E-1,8E0,-1.1272409E0,4E0,1.5820434E0,1.3E1,-1.2319958E0,6E0,1.4657288E0,8.4291565E-1,2E0,2.254616E0,-8.887142E-2,-1.9077656E0,1.1E1,6E0,3E0,-5.2056086E-1,3.6506003E-1,1.8467875E0,5E0,8E0,1E0,-8.954903E-2,3E0,7.66E2,-8.795954E-2,1.0426226E0,-8.4364705E-2,-5.2306164E-2,-1.6625246E-3,-7.5857565E-2,-9.265614E-2,6.7398384E-2,-6.1498847E-2,2.6061976E-2,-8.571923E-2,-8.47257E-2,-8.679368E-2,7.861131E-2,-3.1997606E-2,-7.817307E-2,-8.514582E-2,-2.7586041E-2,-8.880803E-2,6.4790905E-2,8.2332805E-2,-1.052342E-1,8.221987E-2,8.413493E-2,8.0883145E-2,3.926906E-2],"split_indices":[2,2,1,2,1,2,1,2,1,2,2,1,2,0,12,1,1,1,2,2,14,1,1,1,0,1,4,0,14,0,0,0,0,0,0,0,0,0,0,0,0,0,0,0,0,0,0,0,0,0,0,0,0],"split_type":[0,0,0,0,0,0,0,0,0,0,0,0,0,0,0,0,0,0,0,0,0,0,0,0,0,0,0,0,0,0,0,0,0,0,0,0,0,0,0,0,0,0,0,0,0,0,0,0,0,0,0,0,0],"sum_hessian":[4.668468E5,2.8596688E5,1.8087994E5,1.3212444E5,1.5384244E5,1.7462506E5,6.254877E3,4.5264438E4,8.686001E4,6.030554E4,9.35369E4,1.5320583E3,1.73093E5,1.4863247E3,4.7685527E3,3.716424E4,8.1002E3,3.5870938E4,5.098907E4,5.981962E4,4.859183E2,6.9556016E4,2.3980885E4,1.0949808E3,4.3707748E2,6.276519E4,1.1032781E5,7.7064157E0,4.760846E3,2.960305E4,7.561188E3,3.0388525E3,5.0613477E3,5.970769E3,2.9900168E4,2.6901969E4,2.4087102E4,1.2546176E4,4.7273445E4,4.2889777E2,5.7020535E1,5.5738013E3,6.3982215E4,6.630278E3,1.7350605E4,1.0200781E2,9.929731E2,6.0555746E4,2.2094438E3,8.225996E4,2.806785E4,4.636668E3,1.2417792E2],"tree_param":{"num_deleted":"0","num_feature":"19","num_nodes":"53","size_leaf_vector":"1"}},{"base_weights":[-1.866735E-3,-9.4927686E-1,1.5092796E0,-1.1969382E0,2.1898276E-1,1.3763796E0,1.5938166E0,-1.9187458E-1,-1.4821316E0,6.074509E-1,-4.0487254E-1,1.5871509E0,1.0948913E0,1.5232457E0,1.6278613E0,8.611542E-1,-1.5090054E0,-1.494349E0,2.3989546E-1,-1.0786304E-1,1.3485323E0,-8.2568705E-1,3.6627054E-1,1.5999651E0,1.2246426E0,5.3494316E-1,1.5346631E0,1.6041381E0,1.4460626E0,1.6169212E0,8.175351E-2,-7.409908E-2,6.2023338E-2,-8.170328E-2,-6.23034E-2,-6.776359E-2,-7.9115026E-2,5.0804343E-2,-8.3175816E-2,-4.7326215E-2,1.7441548E-2,7.3087685E-2,3.347348E-2,-7.458959E-2,3.5264704E-3,-6.752716E-2,2.468722E-2,5.6961756E-2,8.043261E-2,7.714918E-2,-1.0448163E-1,5.341527E-2,-1.1748554E-2,7.196148E-2,8.1448995E-2,8.162444E-2,-1.2716688E-1,6.600606E-2,7.757008E-2,7.827764E-2,8.140932E-2],"categories":[],"categories_nodes":[],"categories_segments":[],"categories_sizes":[],"default_left":[0,0,0,0,0,0,0,0,0,0,0,0,0,0,0,0,0,0,0,0,0,0,0,0,0,0,0,0,0,0,0,0,0,0,0,0,0,0,0,0,0,0,0,0,0,0,0,0,0,0,0,0,0,0,0,0,0,0,0,0,0],"id":5,"left_children":[1,3,5,7,9,11,13,15,17,19,21,23,25,27,29,31,33,35,37,39,41,43,45,47,49,51,53,55,57,59,-1,-1,-1,-1,-1,-1,-1,-1,-1,-1,-1,-1,-1,-1,-1,-1,-1,-1,-1,-1,-1,-1,-1,-1,-1,-1,-1,-1,-1,-1,-1],"loss_changes":[6.589193E5,8.184889E4,1.9904062E3,6.690306E4,1.1991922E4,4.089711E3,2.579375E2,7.155908E4,3.8255625E3,1.6165058E4,6.1622227E3,1.8121094E2,7.2710273E3,2.1801562E2,3.140625E0,2.5484416E4,7.5171875E2,2.2061562E3,1.8953215E3,5.9437344E3,1.1505352E3,7.3339355E3,1.4679346E3,1.5057812E2,1.4281381E3,5.3352524E3,1.4652734E2,2.0291719E3,2.3767188E2,1.43046875E1,0E0,0E0,0E0,0E0,0E0,0E0,0E0,0E0,0E0,0E0,0E0,0E0,0E0,0E0,0E0,0E0,0E0,0E0,0E0,0E0,0E0,0E0,0E0,0E0,0E0,0E0,0E0,0E0,0E0,0E0,0E0],"parents":[2147483647,0,0,1,1,2,2,3,3,4,4,5,5,6,6,7,7,8,8,9,9,10,10,11,11,12,12,13,13,14,14,15,15,16,16,17,17,18,18,19,19,20,20,21,21,22,22,23,23,24,24,25,25,26,26,27,27,28,28,29,29],"right_children":[2,4,6,8,10,12,14,16,18,20,22,24,26,28,30,32,34,36,38,40,42,44,46,48,50,52,54,56,58,60,-1,-1,-1,-1,-1,-1,-1,-1,-1,-1,-1,-1,-1,-1,-1,-1,-1,-1,-1,-1,-1,-1,-1,-1,-1,-1,-1,-1,-1,-1,-1],"split_conditions":[1.5126271E0,1.3489168E0,2.254616E0,-1.2920247E0,-2.0200527E-1,-1.2920247E0,1.3489168E0,-2.4127603E-1,9E2,-5.2056086E-1,8.4291565E-1,1.9466655E0,1.3489168E0,-1.2920247E0,2.3845756E-1,-1.1856587E0,8.080329E-1,-2.836211E-1,-3.27371E-1,-1.1856587E0,2.958979E-1,2.3845756E-1,-1.1975513E0,1.5820434E0,2.3845756E-1,-1.1827295E-1,2.3845756E-1,2.3845756E-1,2.958979E-1,1E0,8.175351E-2,-7.409908E-2,6.2023338E-2,-8.170328E-2,-6.23034E-2,-6.776359E-2,-7.9115026E-2,5.0804343E-2,-8.3175816E-2,-4.7326215E-2,1.7441548E-2,7.3087685E-2,3.347348E-2,-7.458959E-2,3.5264704E-3,-6.752716E-2,2.468722E-2,5.6961756E-2,8.043261E-2,7.714918E-2,-1.0448163E-1,5.341527E-2,-1.1748554E-2,7.196148E-2,8.1448995E-2,8.162444E-2,-1.2716688E-1,6.600606E-2,7.757008E-2,7.827764E-2,8.140932E-2],"split_indices":[2,15,2,15,2,15,15,2,4,2,2,2,15,15,14,2,2,2,2,2,14,14,14,2,14,15,14,14,14,3,0,0,0,0,0,0,0,0,0,0,0,0,0,0,0,0,0,0,0,0,0,0,0,0,0,0,0,0,0,0,0],"split_type":[0,0,0,0,0,0,0,0,0,0,0,0,0,0,0,0,0,0,0,0,0,0,0,0,0,0,0,0,0,0,0,0,0,0,0,0,0,0,0,0,0,0,0,0,0,0,0,0,0,0,0,0,0,0,0,0,0,0,0,0,0],"sum_hessian":[4.6024156E5,2.828867E5,1.7735486E5,2.3340645E5,4.948024E4,6.896023E4,1.0839464E5,5.1591637E4,1.8181481E5,3.049275E4,1.898749E4,3.94308E4,2.9529426E4,3.5289375E4,7.3105266E4,2.8670387E4,2.292125E4,1.805341E5,1.280722E3,1.5516559E4,1.4976192E4,1.2284008E4,6.703482E3,3.808126E4,1.3495399E3,1.2990819E4,1.6538605E4,1.7220984E4,1.806839E4,2.9127246E4,4.397802E4,3.9941748E3,2.4676213E4,1.5529691E4,7.391559E3,6.99457E4,1.1058839E5,9.100709E2,3.7065118E2,5.4701826E3,1.0046376E4,1.2835029E4,2.141163E3,7.0462686E3,5.237739E3,4.6266943E2,6.2408125E3,7.0716943E2,3.7374094E4,1.2317618E3,1.1777808E2,7.6741343E3,5.3166855E3,8.228721E3,8.309885E3,1.710467E4,1.16315025E2,8.235594E3,9.832796E3,5.263953E3,2.3863293E4],"tree_param":{"num_deleted":"0","num_feature":"19","num_nodes":"61","size_leaf_vector":"1"}},{"base_weights":[-4.769023E-3,-9.102021E-1,1.4591705E0,-1.1466525E0,2.0338902E-1,1.4862732E0,7.2488004E-1,-1.7712183E-1,-1.4223057E0,-1.6927854E0,3.117566E-1,5.138575E-3,1.4985113E0,-8.592247E-2,1.487163E0,8.328177E-1,-1.4515965E0,-1.4342108E0,2.5669077E-1,-1.8083398E0,-8.1816725E-2,-9.37781E-1,4.5025393E-1,8.2786816E-1,-8.692057E-2,1.4246931E0,1.5701687E0,8.6611205E-1,1.5657156E0,5.8475174E-2,-9.072622E-2,-7.928373E-2,2.755637E-2,-6.437701E-2,-7.669788E-2,5.0537057E-2,-8.0506E-2,-8.1945084E-2,-9.427768E-2,-8.15052E-2,3.8781834E-3,4.629883E-2,-1.0287634E-2,-1.0653164E-1,5.8701623E-2,7.737685E-2,5.922554E-2,7.580722E-2,7.895625E-2,5.771351E-2,-1.00770585E-1,-9.499069E-2,7.844873E-2],"categories":[],"categories_nodes":[],"categories_segments":[],"categories_sizes":[],"default_left":[0,0,0,0,0,0,0,0,0,0,0,0,0,0,0,0,0,0,0,0,0,0,0,0,0,0,0,0,0,0,0,0,0,0,0,0,0,0,0,0,0,0,0,0,0,0,0,0,0,0,0,0,0],"id":6,"left_children":[1,3,5,7,9,11,13,15,17,19,21,23,25,-1,27,29,31,33,35,37,-1,39,41,43,-1,45,47,49,51,-1,-1,-1,-1,-1,-1,-1,-1,-1,-1,-1,-1,-1,-1,-1,-1,-1,-1,-1,-1,-1,-1,-1,-1],"loss_changes":[5.9988394E5,7.362825E4,3.4407812E3,6.1642375E4,1.0064181E4,3.02325E3,1.1472238E4,6.572498E4,3.590125E3,1.4313477E1,8.017935E3,1.9635527E3,8.7278125E2,0E0,2.2765723E2,2.5394113E4,6.062676E3,2.6069375E3,1.7827275E3,8.154297E0,0E0,3.249822E3,1.3015876E4,9.5493225E2,0E0,2.4026406E3,3.8203125E1,4.4184323E2,5.003125E1,0E0,0E0,0E0,0E0,0E0,0E0,0E0,0E0,0E0,0E0,0E0,0E0,0E0,0E0,0E0,0E0,0E0,0E0,0E0,0E0,0E0,0E0,0E0,0E0],"parents":[2147483647,0,0,1,1,2,2,3,3,4,4,5,5,6,6,7,7,8,8,9,9,10,10,11,11,12,12,14,14,15,15,16,16,17,17,18,18,19,19,21,21,22,22,23,23,25,25,26,26,27,27,28,28],"right_children":[2,4,6,8,10,12,14,16,18,20,22,24,26,-1,28,30,32,34,36,38,-1,40,42,44,-1,46,48,50,52,-1,-1,-1,-1,-1,-1,-1,-1,-1,-1,-1,-1,-1,-1,-1,-1,-1,-1,-1,-1,-1,-1,-1,-1],"split_conditions":[1.5126271E0,1.3489168E0,8E0,-1.2920247E0,3E0,1.5820434E0,1.3E1,-2.4127603E-1,9E2,-2.0200527E-1,-1.2319958E0,2E0,1.3489168E0,-8.592247E-2,1.0554788E0,6E0,8E0,-2.216944E-1,-3.27371E-1,-1.2319958E0,-8.1816725E-2,1.1E1,-2.0200527E-1,3.36E2,-8.692057E-2,-1.2920247E0,2.254616E0,1E0,-1.5931835E0,5.8475174E-2,-9.072622E-2,-7.928373E-2,2.755637E-2,-6.437701E-2,-7.669788E-2,5.0537057E-2,-8.0506E-2,-8.1945084E-2,-9.427768E-2,-8.15052E-2,3.8781834E-3,4.629883E-2,-1.0287634E-2,-1.0653164E-1,5.8701623E-2,7.737685E-2,5.922554E-2,7.580722E-2,7.895625E-2,5.771351E-2,-1.00770585E-1,-9.499069E-2,7.844873E-2],"split_indices":[2,15,1,15,1,2,1,2,4,2,2,1,15,0,15,1,1,2,2,2,0,1,2,5,0,15,2,3,10,0,0,0,0,0,0,0,0,0,0,0,0,0,0,0,0,0,0,0,0,0,0,0,0],"split_type":[0,0,0,0,0,0,0,0,0,0,0,0,0,0,0,0,0,0,0,0,0,0,0,0,0,0,0,0,0,0,0,0,0,0,0,0,0,0,0,0,0,0,0,0,0,0,0,0,0,0,0,0,0],"sum_hessian":[4.5257006E5,2.7962497E5,1.7294508E5,2.3065058E5,4.8974395E4,1.6678789E5,6.1571914E3,5.1060766E4,1.7958981E5,2.6468154E3,4.632758E4,1.3668315E3,1.6542106E5,1.4638593E3,4.693332E3,2.8486994E4,2.2573771E4,1.7832553E5,1.2642831E3,8.5847906E2,1.7883364E3,4.6219634E3,4.1705613E4,9.289926E2,4.3783896E2,8.149226E4,8.3928805E4,5.2832526E2,4.165007E3,2.5273322E4,3.2136726E3,2.115753E4,1.4162416E3,7.218964E4,1.0613588E5,9.0086163E2,3.6342136E2,2.7570203E2,5.8277704E2,2.7477659E3,1.8741975E3,2.417441E4,1.7531205E4,9.677216E1,8.3222046E2,5.3912613E4,2.757964E4,1.1959299E4,7.196951E4,4.8083975E2,4.7485508E1,3.3662302E0,4.1616406E3],"tree_param":{"num_deleted":"0","num_feature":"19","num_nodes":"53","size_leaf_vector":"1"}},{"base_weights":[1.8243092E-3,-8.863045E-1,1.4040667E0,-1.1245534E0,2.0544252E-1,6.719717E-1,1.4297326E0,-1.7592297E-1,-1.3957071E0,5.665466E-1,-3.8237265E-1,-5.961297E-1,1.5849818E0,1.4538715E0,2.4849565E-1,7.9055154E-1,-1.4216809E0,-1.4076602E0,2.4852972E-1,-6.696508E-1,9.7002536E-1,1.9045843E-1,-1.2336581E0,2.7665895E-1,-8.358394E-2,1.6373487E0,3.4471887E-1,1.3812072E0,1.5254488E0,-8.291658E-2,1.3877857E0,5.5687815E-2,-8.7287165E-2,-7.6999106E-2,2.1025172E-2,-6.293551E-2,-7.550856E-2,4.7722958E-2,-7.8169316E-2,1.8910998E-2,-8.870991E-2,5.581797E-2,-9.6028835E-2,-7.925571E-2,2.5893554E-2,-8.093043E-2,6.732059E-2,-4.3984424E-2,6.957996E-2,9.766776E-2,7.5984485E-2,-9.5885605E-2,6.532168E-2,7.51367E-2,5.7351943E-2,7.342484E-2,7.673751E-2,1.9693404E-2,7.482314E-2],"categories":[],"categories_nodes":[],"categories_segments":[],"categories_sizes":[],"default_left":[0,0,0,0,0,0,0,0,0,0,0,0,0,0,0,0,0,0,0,0,0,0,0,0,0,0,0,0,0,0,0,0,0,0,0,0,0,0,0,0,0,0,0,0,0,0,0,0,0,0,0,0,0,0,0,0,0,0,0],"id":7,"left_children":[1,3,5,7,9,11,13,15,17,19,21,23,25,27,29,31,33,35,37,39,41,43,45,47,-1,49,51,53,55,-1,57,-1,-1,-1,-1,-1,-1,-1,-1,-1,-1,-1,-1,-1,-1,-1,-1,-1,-1,-1,-1,-1,-1,-1,-1,-1,-1,-1,-1],"loss_changes":[5.571456E5,7.124283E4,3.258625E3,5.7832156E4,1.041495E4,6.8059976E3,4.7785312E3,6.017741E4,3.4369062E3,1.5160699E4,9.105524E3,2.3107563E3,2.2140039E2,8.52125E2,7.29638E3,2.3074285E4,4.759367E3,2.6486562E3,1.6167288E3,8.657945E3,9.695262E3,6.489992E3,7.4618037E3,1.753926E3,0E0,1.1894141E2,3.0650482E2,2.3179375E3,4.1578125E1,0E0,2.2649683E2,0E0,0E0,0E0,0E0,0E0,0E0,0E0,0E0,0E0,0E0,0E0,0E0,0E0,0E0,0E0,0E0,0E0,0E0,0E0,0E0,0E0,0E0,0E0,0E0,0E0,0E0,0E0,0E0],"parents":[2147483647,0,0,1,1,2,2,3,3,4,4,5,5,6,6,7,7,8,8,9,9,10,10,11,11,12,12,13,13,14,14,15,15,16,16,17,17,18,18,19,19,20,20,21,21,22,22,23,23,25,25,26,26,27,27,28,28,30,30],"right_children":[2,4,6,8,10,12,14,16,18,20,22,24,26,28,30,32,34,36,38,40,42,44,46,48,-1,50,52,54,56,-1,58,-1,-1,-1,-1,-1,-1,-1,-1,-1,-1,-1,-1,-1,-1,-1,-1,-1,-1,-1,-1,-1,-1,-1,-1,-1,-1,-1,-1],"split_conditions":[1.4657288E0,1.3489168E0,1.5820434E0,-1.2920247E0,-2.0200527E-1,1.3E1,8E0,-2.4127603E-1,9E2,9E0,1E1,2E0,2.958979E-1,1.3489168E0,1.3E1,6E0,8E0,-2.216944E-1,-3.27371E-1,5E0,1.3E1,3E0,1.300943E0,1E0,-8.358394E-2,1.5126271E0,1.9042279E0,-1.2920247E0,2.254616E0,-8.291658E-2,1.0554788E0,5.5687815E-2,-8.7287165E-2,-7.6999106E-2,2.1025172E-2,-6.293551E-2,-7.550856E-2,4.7722958E-2,-7.8169316E-2,1.8910998E-2,-8.870991E-2,5.581797E-2,-9.6028835E-2,-7.925571E-2,2.5893554E-2,-8.093043E-2,6.732059E-2,-4.3984424E-2,6.957996E-2,9.766776E-2,7.5984485E-2,-9.5885605E-2,6.532168E-2,7.51367E-2,5.7351943E-2,7.342484E-2,7.673751E-2,1.9693404E-2,7.482314E-2],"split_indices":[2,15,2,15,2,1,1,2,4,1,1,1,14,15,1,1,1,2,2,1,1,1,2,3,0,2,14,15,2,0,15,0,0,0,0,0,0,0,0,0,0,0,0,0,0,0,0,0,0,0,0,0,0,0,0,0,0,0,0],"split_type":[0,0,0,0,0,0,0,0,0,0,0,0,0,0,0,0,0,0,0,0,0,0,0,0,0,0,0,0,0,0,0,0,0,0,0,0,0,0,0,0,0,0,0,0,0,0,0,0,0,0,0,0,0,0,0,0,0,0,0],"sum_hessian":[4.4737088E5,2.7389575E5,1.7347512E5,2.2483139E5,4.9064355E4,5.876626E3,1.675985E5,4.9979582E4,1.7485181E5,3.0393305E4,1.8671049E4,2.4600923E3,3.4165337E3,1.6424194E5,3.356568E3,2.8144834E4,2.1834748E4,1.7359E5,1.2618064E3,7.478785E3,2.291452E4,1.1161344E4,7.509706E3,1.3584652E3,1.1016272E3,3.277816E3,1.3871765E2,8.151225E4,8.2729695E4,1.2552325E3,2.1013354E3,2.4964166E4,3.1806692E3,2.0517332E4,1.317416E3,7.077139E4,1.0281861E5,9.083738E2,3.5343265E2,3.8381943E3,3.640591E3,2.1810973E4,1.1035465E3,1.7371055E3,9.424238E3,6.5350405E3,9.746653E2,6.669533E2,6.9151196E2,8.850809E2,2.392735E3,4.10809E1,9.763676E1,5.3659242E4,2.7853006E4,1.1636712E4,7.109298E4,2.0757379E2,1.8937617E3],"tree_param":{"num_deleted":"0","num_feature":"19","num_nodes":"59","size_leaf_vector":"1"}},{"base_weights":[-1.6268224E-3,-8.591895E-1,1.376879E0,-3.8146406E-1,-1.2938863E0,1.4023271E0,6.639646E-1,-1.3294193E0,6.57131E-2,-1.4039387E0,-9.816439E-1,1.1961332E-1,1.4137498E0,-8.0345415E-2,1.3956736E0,-1.4153547E0,-8.7335527E-1,6.9830984E-1,-3.6516348E-1,-1.4856716E0,-1.2609661E0,-7.587012E-2,-3.2646108E-1,8.608035E-1,-8.111572E-2,1.3244157E0,1.4647504E0,-1.107448E-1,1.405556E0,-7.6328106E-2,-4.88207E-2,-5.250761E-4,-7.009852E-2,-8.5484765E-2,6.0084324E-2,-8.562291E-2,4.4365427E-3,-4.5798704E-2,-7.481496E-2,-4.8961878E-2,-7.5659916E-2,4.7280643E-2,-5.497665E-2,-8.635837E-2,5.7263732E-2,7.294879E-2,-1.0332482E-1,7.2734706E-2,7.473562E-2,7.282981E-2,4.860213E-2],"categories":[],"categories_nodes":[],"categories_segments":[],"categories_sizes":[],"default_left":[0,0,0,0,0,0,0,0,0,0,0,0,0,0,0,0,0,0,0,0,0,0,0,0,0,0,0,0,0,0,0,0,0,0,0,0,0,0,0,0,0,0,0,0,0,0,0,0,0,0,0],"id":8,"left_children":[1,3,5,7,9,11,13,15,17,19,21,23,25,-1,27,29,31,33,35,37,39,-1,41,43,-1,45,47,-1,49,-1,-1,-1,-1,-1,-1,-1,-1,-1,-1,-1,-1,-1,-1,-1,-1,-1,-1,-1,-1,-1,-1],"loss_changes":[5.1835497E5,5.613547E4,3.0499688E3,5.459335E4,4.8621094E3,2.3788438E3,9.63593E3,1.6166016E3,2.3852463E4,1.2209844E3,1.294777E4,1.8531277E3,7.313125E2,0E0,1.5958887E2,1.6939531E3,2.9864692E3,4.2978414E4,3.1832736E4,4.0171875E2,2.7038047E3,0E0,1.6321199E4,7.4316974E2,0E0,2.669425E4,2.8671875E1,0E0,9.5368164E1,0E0,0E0,0E0,0E0,0E0,0E0,0E0,0E0,0E0,0E0,0E0,0E0,0E0,0E0,0E0,0E0,0E0,0E0,0E0,0E0,0E0,0E0],"parents":[2147483647,0,0,1,1,2,2,3,3,4,4,5,5,6,6,7,7,8,8,9,9,10,10,11,11,12,12,14,14,15,15,16,16,17,17,18,18,19,19,20,20,22,22,23,23,25,25,26,26,28,28],"right_children":[2,4,6,8,10,12,14,16,18,20,22,24,26,-1,28,30,32,34,36,38,40,-1,42,44,-1,46,48,-1,50,-1,-1,-1,-1,-1,-1,-1,-1,-1,-1,-1,-1,-1,-1,-1,-1,-1,-1,-1,-1,-1,-1],"split_conditions":[1.5126271E0,-2.0200527E-1,8E0,-1.1419326E0,8.618461E-1,1.5820434E0,1.3E1,-1.2319958E0,6E0,1.810172E-1,8E0,2E0,2.254616E0,-8.0345415E-2,-1.1975513E0,1.1E1,6E0,3E0,9E0,-1.6434541E-1,3.795371E-1,-7.587012E-2,9E0,1E0,-8.111572E-2,3E0,7.66E2,-1.107448E-1,2.3845756E-1,-7.6328106E-2,-4.88207E-2,-5.250761E-4,-7.009852E-2,-8.5484765E-2,6.0084324E-2,-8.562291E-2,4.4365427E-3,-4.5798704E-2,-7.481496E-2,-4.8961878E-2,-7.5659916E-2,4.7280643E-2,-5.497665E-2,-8.635837E-2,5.7263732E-2,7.294879E-2,-1.0332482E-1,7.2734706E-2,7.473562E-2,7.282981E-2,4.860213E-2],"split_indices":[2,2,1,2,2,2,1,2,1,14,1,1,2,0,14,1,1,1,1,2,2,0,1,1,0,1,4,0,14,0,0,0,0,0,0,0,0,0,0,0,0,0,0,0,0,0,0,0,0,0,0],"split_type":[0,0,0,0,0,0,0,0,0,0,0,0,0,0,0,0,0,0,0,0,0,0,0,0,0,0,0,0,0,0,0,0,0,0,0,0,0,0,0,0,0,0,0,0,0,0,0,0,0,0,0],"sum_hessian":[4.38481E5,2.703178E5,1.681632E5,1.2878588E5,1.4153192E5,1.6236642E5,5.7967734E3,4.1278684E4,8.7507195E4,1.0464535E5,3.688658E4,1.4332279E3,1.609332E5,1.4123431E3,4.38443E3,3.4732062E4,6.5466196E3,3.545414E4,5.2053055E4,6.6576336E4,3.806901E4,2.0292008E4,1.659457E4,1.00577606E3,4.274518E2,5.8496305E4,1.0243689E5,1.1358638E1,4.373072E3,2.7709322E4,7.02274E3,2.48743E3,4.0591897E3,6.1295913E3,2.932455E4,1.3116519E4,3.893654E4,1.2207998E3,6.5355535E4,1.7985334E4,2.008368E4,6.272718E3,1.0321853E4,9.91044E1,9.066717E2,5.6264168E4,2.232137E3,7.673255E4,2.5704348E4,3.9103245E3,4.627472E2],"tree_param":{"num_deleted":"0","num_feature":"19","num_nodes":"51","size_leaf_vector":"1"}},{"base_weights":[3.593712E-3,-8.1639487E-1,1.3406498E0,-1.0542365E0,2.4044366E-1,1.2101314E0,1.4240576E0,-1.6961537E-1,-1.3067507E0,5.603E-1,-2.9785964E-1,1.3225574E0,6.8440354E-1,1.3552246E0,1.4577123E0,7.2790176E-1,-1.3181927E0,-1.3208195E0,4.1125727E-1,-5.852063E-2,1.1969621E0,-7.4644333E-1,4.4008678E-1,1.3613139E0,6.0514116E-1,-1.53132E-2,1.2944871E0,1.4327664E0,1.283024E0,1.457904E0,-6.2156122E-2,-7.482902E-2,5.2504815E-2,-7.069089E-2,-2.6652222E-2,-5.9485614E-2,-7.0300706E-2,5.072862E-2,-7.449817E-2,-4.4405654E-2,1.5131864E-2,-4.7175273E-2,6.3393645E-2,-7.465524E-2,5.5732518E-3,-8.059769E-2,2.8220046E-2,2.1378955E-2,6.9269136E-2,-2.3614962E-3,6.606736E-2,5.2319475E-2,-2.5484381E-2,6.5575E-2,-7.947452E-2,7.314345E-2,-1.351661E-1,5.727321E-2,6.95272E-2,7.234836E-2,7.327335E-2],"categories":[],"categories_nodes":[],"categories_segments":[],"categories_sizes":[],"default_left":[0,0,0,0,0,0,0,0,0,0,0,0,0,0,0,0,0,0,0,0,0,0,0,0,0,0,0,0,0,0,0,0,0,0,0,0,0,0,0,0,0,0,0,0,0,0,0,0,0,0,0,0,0,0,0,0,0,0,0,0,0],"id":9,"left_children":[1,3,5,7,9,11,13,15,17,19,21,23,25,27,29,31,33,35,37,39,41,43,45,47,49,51,53,55,57,59,-1,-1,-1,-1,-1,-1,-1,-1,-1,-1,-1,-1,-1,-1,-1,-1,-1,-1,-1,-1,-1,-1,-1,-1,-1,-1,-1,-1,-1,-1,-1],"loss_changes":[4.7295338E5,6.721244E4,1.7834688E3,4.8757188E4,8.458133E3,3.7785156E3,2.2979688E2,4.996812E4,4.1047188E3,1.2140151E4,6.0614727E3,1.4638516E3,4.809859E3,1.8217188E2,3.65625E1,1.9503324E4,1.5956016E3,1.8795938E3,1.5844104E3,4.6823013E3,2.3064766E3,7.2949287E3,1.7669355E3,1.1225703E3,1.2623824E3,2.7556746E3,2.974131E2,1.9759707E3,2.5027539E2,3.4375E0,0E0,0E0,0E0,0E0,0E0,0E0,0E0,0E0,0E0,0E0,0E0,0E0,0E0,0E0,0E0,0E0,0E0,0E0,0E0,0E0,0E0,0E0,0E0,0E0,0E0,0E0,0E0,0E0,0E0,0E0,0E0],"parents":[2147483647,0,0,1,1,2,2,3,3,4,4,5,5,6,6,7,7,8,8,9,9,10,10,11,11,12,12,13,13,14,14,15,15,16,16,17,17,18,18,19,19,20,20,21,21,22,22,23,23,24,24,25,25,26,26,27,27,28,28,29,29],"right_children":[2,4,6,8,10,12,14,16,18,20,22,24,26,28,30,32,34,36,38,40,42,44,46,48,50,52,54,56,58,60,-1,-1,-1,-1,-1,-1,-1,-1,-1,-1,-1,-1,-1,-1,-1,-1,-1,-1,-1,-1,-1,-1,-1,-1,-1,-1,-1,-1,-1,-1,-1],"split_conditions":[1.5126271E0,1.3489168E0,2.254616E0,-1.2920247E0,-1.6434541E-1,2.82E2,1.3489168E0,-2.4127603E-1,9E2,-5.2056086E-1,8.4291565E-1,1.9466655E0,1.3489168E0,-1.2920247E0,6.72E2,-1.2319958E0,3.47E2,-2.836211E-1,-3.27371E-1,-1.2319958E0,3.44E2,1.810172E-1,-1.1975513E0,1.5820434E0,1.3489168E0,-1.2920247E0,6.58E2,2.3845756E-1,2.3845756E-1,2.3845756E-1,-6.2156122E-2,-7.482902E-2,5.2504815E-2,-7.069089E-2,-2.6652222E-2,-5.9485614E-2,-7.0300706E-2,5.072862E-2,-7.449817E-2,-4.4405654E-2,1.5131864E-2,-4.7175273E-2,6.3393645E-2,-7.465524E-2,5.5732518E-3,-8.059769E-2,2.8220046E-2,2.1378955E-2,6.9269136E-2,-2.3614962E-3,6.606736E-2,5.2319475E-2,-2.5484381E-2,6.5575E-2,-7.947452E-2,7.314345E-2,-1.351661E-1,5.727321E-2,6.95272E-2,7.234836E-2,7.327335E-2],"split_indices":[2,15,2,15,2,0,15,2,4,2,2,2,15,15,0,2,0,2,2,2,0,14,14,2,15,15,0,14,14,14,0,0,0,0,0,0,0,0,0,0,0,0,0,0,0,0,0,0,0,0,0,0,0,0,0,0,0,0,0,0,0],"split_type":[0,0,0,0,0,0,0,0,0,0,0,0,0,0,0,0,0,0,0,0,0,0,0,0,0,0,0,0,0,0,0,0,0,0,0,0,0,0,0,0,0,0,0,0,0,0,0,0,0,0,0,0,0,0,0,0,0,0,0,0,0],"sum_hessian":[4.3137888E5,2.673928E5,1.6398605E5,2.1827092E5,4.9121895E4,6.3942637E4,1.0004341E5,4.846997E4,1.6980095E5,3.0812979E4,1.8308914E4,5.267636E4,1.1266275E4,3.286565E4,6.717776E4,2.7208875E4,2.1261094E4,1.6842197E5,1.3789916E3,1.562589E4,1.5187089E4,1.1386976E4,6.921939E3,4.9975664E4,2.700698E3,5.2481016E3,6.018174E3,1.5837608E4,1.702804E4,6.717345E4,4.306236E0,3.4418884E3,2.3766986E4,1.8952072E4,2.3090217E3,6.634208E4,1.0207988E5,1.0471616E3,3.3182986E2,4.7389336E3,1.0886956E4,4.8659863E2,1.470049E4,6.0878286E3,5.299147E3,3.9470004E2,6.527239E3,1.2563113E3,4.871935E4,1.4138226E3,1.2868755E3,1.6669965E3,3.581105E3,5.9834224E3,3.475153E1,1.5723816E4,1.1379222E2,7.475555E3,9.552482E3,2.754055E4,3.9632906E4],"tree_param":{"num_deleted":"0","num_feature":"19","num_nodes":"61","size_leaf_vector":"1"}},{"base_weights":[-8.902898E-3,-8.024614E-1,1.3046062E0,-1.0284605E0,2.0313326E-1,1.3297424E0,6.3749415E-1,-1.6121362E-1,-1.2771713E0,-1.557378E0,2.9932395E-1,1.5796548E-1,1.3409418E0,-7.7945E-2,1.340981E0,7.063744E-1,-1.2894875E0,-1.1265764E0,-1.3836377E0,-1.6981963E0,-7.432057E-2,-7.522027E-1,4.3859163E-1,8.542631E-1,-7.901274E-2,1.2667922E0,1.415688E0,9.4268125E-1,7.153519E-2,5.0347686E-2,-8.22415E-2,-7.1627475E-2,2.9841801E-2,-7.128784E-2,-4.479975E-2,-6.975397E-2,-3.3885796E-2,-7.6592825E-2,-8.843926E-2,-7.0577465E-2,8.699249E-3,4.373518E-2,-8.045035E-3,-8.381849E-2,5.624465E-2,6.958295E-2,5.1697712E-2,6.7741156E-2,7.128918E-2,-1.1137048E-1,5.2366115E-2],"categories":[],"categories_nodes":[],"categories_segments":[],"categories_sizes":[],"default_left":[0,0,0,0,0,0,0,0,0,0,0,0,0,0,0,0,0,0,0,0,0,0,0,0,0,0,0,0,0,0,0,0,0,0,0,0,0,0,0,0,0,0,0,0,0,0,0,0,0,0,0],"id":10,"left_children":[1,3,5,7,9,11,13,15,17,19,21,23,25,-1,27,29,31,33,35,37,-1,39,41,43,-1,45,47,49,-1,-1,-1,-1,-1,-1,-1,-1,-1,-1,-1,-1,-1,-1,-1,-1,-1,-1,-1,-1,-1,-1,-1],"loss_changes":[4.367379E5,5.9360094E4,2.6452812E3,4.5999656E4,8.117215E3,1.9954062E3,8.858539E3,4.6527883E4,2.6556875E3,2.2291992E1,6.6559053E3,1.7451763E3,8.330625E2,0E0,1.5381494E2,1.8991467E4,5.5766562E3,4.7343984E3,7.832344E2,6.97876E0,0E0,3.2464163E3,1.049283E4,7.068613E2,0E0,2.1973125E3,4.4140625E1,2.6810254E2,0E0,0E0,0E0,0E0,0E0,0E0,0E0,0E0,0E0,0E0,0E0,0E0,0E0,0E0,0E0,0E0,0E0,0E0,0E0,0E0,0E0,0E0,0E0],"parents":[2147483647,0,0,1,1,2,2,3,3,4,4,5,5,6,6,7,7,8,8,9,9,10,10,11,11,12,12,14,14,15,15,16,16,17,17,18,18,19,19,21,21,22,22,23,23,25,25,26,26,27,27],"right_children":[2,4,6,8,10,12,14,16,18,20,22,24,26,-1,28,30,32,34,36,38,-1,40,42,44,-1,46,48,50,-1,-1,-1,-1,-1,-1,-1,-1,-1,-1,-1,-1,-1,-1,-1,-1,-1,-1,-1,-1,-1,-1,-1],"split_conditions":[1.5126271E0,1.3489168E0,8E0,-1.2920247E0,3E0,1.5820434E0,1.3E1,-2.4127603E-1,-2.216944E-1,-2.0200527E-1,-1.1419326E0,2E0,1.3489168E0,-7.7945E-2,1.3489168E0,6E0,8E0,-1.1272409E0,1.4306931E0,-1.2319958E0,-7.432057E-2,1.1E1,-2.0200527E-1,1E0,-7.901274E-2,2E0,2.254616E0,-6.0115165E-1,7.153519E-2,5.0347686E-2,-8.22415E-2,-7.1627475E-2,2.9841801E-2,-7.128784E-2,-4.479975E-2,-6.975397E-2,-3.3885796E-2,-7.6592825E-2,-8.843926E-2,-7.0577465E-2,8.699249E-3,4.373518E-2,-8.045035E-3,-8.381849E-2,5.624465E-2,6.958295E-2,5.1697712E-2,6.7741156E-2,7.128918E-2,-1.1137048E-1,5.2366115E-2],"split_indices":[2,15,1,15,1,2,1,2,2,2,2,1,15,0,15,1,1,2,2,2,0,1,2,1,0,1,2,9,0,0,0,0,0,0,0,0,0,0,0,0,0,0,0,0,0,0,0,0,0,0,0],"split_type":[0,0,0,0,0,0,0,0,0,0,0,0,0,0,0,0,0,0,0,0,0,0,0,0,0,0,0,0,0,0,0,0,0,0,0,0,0,0,0,0,0,0,0,0,0,0,0,0,0,0,0],"sum_hessian":[4.1899303E5,2.6119317E5,1.5779986E5,2.1326386E5,4.7929312E4,1.5206903E5,5.73083E3,4.752997E4,1.6573389E5,2.4823005E3,4.544701E4,1.4397994E3,1.5062923E5,1.3899564E3,4.3408735E3,2.6869217E4,2.0660754E4,6.86464E4,9.708749E4,8.2410614E2,1.6581943E3,5.3146772E3,4.0132332E4,1.0283649E3,4.1143466E2,7.5625445E4,7.500379E4,8.0018304E2,3.5406904E3,2.3824102E4,3.0451147E3,1.9204494E4,1.4562599E3,2.9876438E4,3.876996E4,9.553803E4,1.5494636E3,2.5229193E2,5.718142E2,3.1042554E3,2.210422E3,2.3231607E4,1.6900727E4,9.884845E1,9.2951636E2,4.9223043E4,2.6402398E4,1.0689985E4,6.431381E4,2.4920881E1,7.7526215E2],"tree_param":{"num_deleted":"0","num_feature":"19","num_nodes":"51","size_leaf_vector":"1"}},{"base_weights":[2.6610075E-3,-7.664221E-1,1.2741579E0,-9.887064E-1,2.0922045E-1,1.2990717E0,5.763286E-1,-1.4680266E-1,-1.2320172E0,-1.5167811E0,3.0149668E-1,7.356203E-3,1.3102254E0,-7.5842015E-2,1.2911038E0,6.981455E-1,-1.291455E0,-1.0665143E0,-1.3511517E0,-1.6424206E0,-1.4512216E0,-8.6452955E-1,4.0821525E-1,7.2091484E-1,-7.682271E-2,1.2346971E0,1.3859994E0,7.122415E-1,1.3748589E0,4.912663E-2,-7.9796E-2,-7.0585266E-2,2.0165928E-2,-6.9914065E-2,-4.0934455E-2,-6.7790926E-2,-3.861643E-2,-7.4639E-2,-8.5178964E-2,-7.1170084E-2,-7.744674E-2,-6.838408E-2,2.5139991E-2,3.830738E-2,-4.5886277E-3,-8.092094E-2,4.99671E-2,6.81385E-2,4.9521603E-2,6.640142E-2,6.979634E-2,5.1909037E-2,-1.0258416E-1,-9.28139E-2,6.890167E-2],"categories":[],"categories_nodes":[],"categories_segments":[],"categories_sizes":[],"default_left":[0,0,0,0,0,0,0,0,0,0,0,0,0,0,0,0,0,0,0,0,0,0,0,0,0,0,0,0,0,0,0,0,0,0,0,0,0,0,0,0,0,0,0,0,0,0,0,0,0,0,0,0,0,0,0],"id":11,"left_children":[1,3,5,7,9,11,13,15,17,19,21,23,25,-1,27,29,31,33,35,37,39,41,43,45,-1,47,49,51,53,-1,-1,-1,-1,-1,-1,-1,-1,-1,-1,-1,-1,-1,-1,-1,-1,-1,-1,-1,-1,-1,-1,-1,-1,-1,-1],"loss_changes":[4.0361E5,5.5774562E4,2.7036719E3,4.2905984E4,7.601134E3,2.1639375E3,8.0273613E3,4.542181E4,3.2024844E3,1.7566406E1,5.637487E3,1.4186632E3,8.505469E2,0E0,1.9290967E2,1.7628873E4,4.065207E3,5.59125E3,2.541875E2,4.988037E0,2.1447754E0,2.6141584E3,7.4276E3,5.752677E2,0E0,2.3319453E3,4.090625E1,4.593838E2,3.83833E1,0E0,0E0,0E0,0E0,0E0,0E0,0E0,0E0,0E0,0E0,0E0,0E0,0E0,0E0,0E0,0E0,0E0,0E0,0E0,0E0,0E0,0E0,0E0,0E0,0E0,0E0],"parents":[2147483647,0,0,1,1,2,2,3,3,4,4,5,5,6,6,7,7,8,8,9,9,10,10,11,11,12,12,14,14,15,15,16,16,17,17,18,18,19,19,20,20,21,21,22,22,23,23,25,25,26,26,27,27,28,28],"right_children":[2,4,6,8,10,12,14,16,18,20,22,24,26,-1,28,30,32,34,36,38,40,42,44,46,-1,48,50,52,54,-1,-1,-1,-1,-1,-1,-1,-1,-1,-1,-1,-1,-1,-1,-1,-1,-1,-1,-1,-1,-1,-1,-1,-1,-1,-1],"split_conditions":[1.5126271E0,1.3489168E0,8E0,-1.2920247E0,3E0,1.5820434E0,1.3E1,-2.4127603E-1,-2.216944E-1,-2.0200527E-1,-1.2980202E0,2E0,1.3489168E0,-7.5842015E-2,1.0554788E0,6E0,8E0,-1.1272409E0,1.4657288E0,-1.2319958E0,1.810172E-1,6.979804E-1,-2.0200527E-1,1E0,-7.682271E-2,-1.2920247E0,2.254616E0,1.2357685E-1,-1.5931835E0,4.912663E-2,-7.9796E-2,-7.0585266E-2,2.0165928E-2,-6.9914065E-2,-4.0934455E-2,-6.7790926E-2,-3.861643E-2,-7.4639E-2,-8.5178964E-2,-7.1170084E-2,-7.744674E-2,-6.838408E-2,2.5139991E-2,3.830738E-2,-4.5886277E-3,-8.092094E-2,4.99671E-2,6.81385E-2,4.9521603E-2,6.640142E-2,6.979634E-2,5.1909037E-2,-1.0258416E-1,-9.28139E-2,6.890167E-2],"split_indices":[2,15,1,15,1,2,1,2,2,2,2,1,15,0,15,1,1,2,2,2,14,14,2,1,0,15,2,14,10,0,0,0,0,0,0,0,0,0,0,0,0,0,0,0,0,0,0,0,0,0,0,0,0,0,0],"split_type":[0,0,0,0,0,0,0,0,0,0,0,0,0,0,0,0,0,0,0,0,0,0,0,0,0,0,0,0,0,0,0,0,0,0,0,0,0,0,0,0,0,0,0,0,0,0,0,0,0,0,0,0,0,0,0],"sum_hessian":[4.1273497E5,2.5717773E5,1.5555723E5,2.0945647E5,4.7721273E4,1.5019419E5,5.363053E3,4.6961598E4,1.6249486E5,2.4210356E3,4.530024E4,1.2858159E3,1.4890836E5,1.3649045E3,3.9981487E3,2.7018062E4,1.9943535E4,6.8016125E4,9.447874E4,8.218927E2,1.599143E3,3.7977905E3,4.1502445E4,8.797316E2,4.0608432E2,7.458377E4,7.4324586E4,5.065683E2,3.4915806E3,2.4038648E4,2.979413E3,1.8622379E4,1.3211564E3,2.9080719E4,3.8935402E4,9.372177E4,7.569657E2,2.4582538E2,5.760673E2,1.2568683E3,3.4227466E2,2.7762E3,1.02159076E3,2.4186928E4,1.731552E4,9.305706E1,7.8667456E2,4.892622E4,2.5657555E4,1.0886538E4,6.343805E4,4.5369064E2,5.287764E1,2.8541777E0,3.4887263E3],"tree_param":{"num_deleted":"0","num_feature":"19","num_nodes":"55","size_leaf_vector":"1"}},{"base_weights":[4.4722278E-3,-7.475446E-1,1.2368759E0,-2.965237E-1,-1.170221E0,6.2259185E-1,1.2592254E0,-1.1922879E0,1.2815581E-1,-1.3778689E0,-1.041362E0,-5.588431E-1,1.4755671E0,1.2812912E0,2.4518962E-1,-1.2962891E0,-7.883453E-1,7.411662E-1,-3.202956E-1,-3.4088853E-1,-6.923831E-2,-1.1904604E0,-6.15512E-1,2.2486271E-1,-7.5158164E-2,1.5318911E0,1.8335822E-1,1.1874864E0,1.3358694E0,-7.394974E-2,1.2356144E0,-6.897166E-2,-3.323593E-2,-7.3112994E-2,-1.4618844E-2,-8.128953E-2,5.899177E-2,-5.1944476E-2,2.3568584E-2,-7.31791E-2,1.1277894E-1,-2.1810599E-2,-6.275824E-2,-7.020228E-2,-1.6923329E-2,-3.0021638E-2,7.014368E-2,9.727057E-2,6.72478E-2,-9.089606E-2,5.6740165E-2,6.65547E-2,-1.053217E-1,6.733837E-2,6.4891644E-2,6.506302E-2,2.3508826E-2],"categories":[],"categories_nodes":[],"categories_segments":[],"categories_sizes":[],"default_left":[0,0,0,0,0,0,0,0,0,0,0,0,0,0,0,0,0,0,0,0,0,0,0,0,0,0,0,0,0,0,0,0,0,0,0,0,0,0,0,0,0,0,0,0,0,0,0,0,0,0,0,0,0,0,0,0,0],"id":12,"left_children":[1,3,5,7,9,11,13,15,17,19,21,23,25,27,29,31,33,35,37,39,-1,41,43,45,-1,47,49,51,53,-1,55,-1,-1,-1,-1,-1,-1,-1,-1,-1,-1,-1,-1,-1,-1,-1,-1,-1,-1,-1,-1,-1,-1,-1,-1,-1,-1],"loss_changes":[3.745535E5,4.784692E4,2.1018594E3,4.6191375E4,3.465375E3,5.420998E3,3.3062656E3,1.6395859E3,2.264492E4,3.543672E2,5.0758516E3,1.669801E3,2.2707324E2,7.38875E2,5.378314E3,1.6298164E3,2.6729937E3,3.6136695E4,2.7063686E4,9.6273346E2,0E0,2.889539E3,4.529563E3,1.200172E3,0E0,2.287583E2,2.5265358E2,2.5171031E4,3.615625E1,0E0,9.989697E1,0E0,0E0,0E0,0E0,0E0,0E0,0E0,0E0,0E0,0E0,0E0,0E0,0E0,0E0,0E0,0E0,0E0,0E0,0E0,0E0,0E0,0E0,0E0,0E0,0E0,0E0],"parents":[2147483647,0,0,1,1,2,2,3,3,4,4,5,5,6,6,7,7,8,8,9,9,10,10,11,11,12,12,13,13,14,14,15,15,16,16,17,17,18,18,19,19,21,21,22,22,23,23,25,25,26,26,27,27,28,28,30,30],"right_children":[2,4,6,8,10,12,14,16,18,20,22,24,26,28,30,32,34,36,38,40,-1,42,44,46,-1,48,50,52,54,-1,56,-1,-1,-1,-1,-1,-1,-1,-1,-1,-1,-1,-1,-1,-1,-1,-1,-1,-1,-1,-1,-1,-1,-1,-1,-1,-1],"split_conditions":[1.4657288E0,-2.4127603E-1,1.5820434E0,-1.1272409E0,4E0,1.3E1,8E0,1.1E1,6E0,-2.0200527E-1,8.4291565E-1,2E0,2.958979E-1,2.254616E0,1.3E1,-1.1856587E0,1.810172E-1,3E0,-5.2056086E-1,3E0,-6.923831E-2,5E0,8E0,5.256593E-1,-7.5158164E-2,1.5126271E0,1.9042279E0,3E0,7E0,-7.394974E-2,1E0,-6.897166E-2,-3.323593E-2,-7.3112994E-2,-1.4618844E-2,-8.128953E-2,5.899177E-2,-5.1944476E-2,2.3568584E-2,-7.31791E-2,1.1277894E-1,-2.1810599E-2,-6.275824E-2,-7.020228E-2,-1.6923329E-2,-3.0021638E-2,7.014368E-2,9.727057E-2,6.72478E-2,-9.089606E-2,5.6740165E-2,6.65547E-2,-1.053217E-1,6.733837E-2,6.4891644E-2,6.506302E-2,2.3508826E-2],"split_indices":[2,2,2,2,1,1,1,1,1,2,2,1,14,2,1,2,14,1,2,1,0,1,1,14,0,2,14,1,1,0,3,0,0,0,0,0,0,0,0,0,0,0,0,0,0,0,0,0,0,0,0,0,0,0,0,0,0],"split_type":[0,0,0,0,0,0,0,0,0,0,0,0,0,0,0,0,0,0,0,0,0,0,0,0,0,0,0,0,0,0,0,0,0,0,0,0,0,0,0,0,0,0,0,0,0,0,0,0,0,0,0,0,0,0,0,0,0],"sum_hessian":[4.041394E5,2.5098681E5,1.5315261E5,1.2142297E5,1.2956384E5,5.377571E3,1.4777503E5,3.905133E4,8.237164E4,4.9610324E4,7.995352E4,2.25482E3,3.1227507E3,1.4462761E5,3.1474246E3,3.105383E4,7.9974985E3,3.480049E4,4.7571152E4,3.2813208E2,4.928219E4,5.9218254E4,2.073527E4,1.2326155E3,1.0222046E3,2.9921453E3,1.3060529E2,5.3205184E4,9.142242E4,1.1481575E3,1.9992671E3,2.744023E4,3.613599E3,3.3896897E3,4.6078086E3,5.4407534E3,2.9359734E4,2.4936268E4,2.2634887E4,2.2938431E2,9.874779E1,4.6793555E3,5.45389E4,5.3900127E3,1.5345257E4,7.2510724E2,5.0750818E2,9.2859265E2,2.0635527E3,4.1790985E1,8.88143E1,5.0983035E4,2.2221519E3,7.1035625E4,2.0386799E4,1.8407039E3,1.5856326E2],"tree_param":{"num_deleted":"0","num_feature":"19","num_nodes":"57","size_leaf_vector":"1"}},{"base_weights":[-1.7929238E-3,-3.9389938E-1,8.9040357E-1,5.958011E-1,-8.9285856E-1,1.1199658E0,4.5492592E-1,7.376716E-1,1.9084144E-1,-9.3691695E-1,7.869859E-1,8.381537E-1,1.3454424E0,7.064999E-1,-1.4334098E-1,6.631778E-1,1.2485032E0,6.8759835E-1,-7.736523E-1,-7.837042E-1,-1.1480798E0,6.2767915E-2,1.0308614E0,2.1913616E-1,1.0895618E0,1.2697649E0,1.3968012E0,8.6340714E-1,4.834773E-2,2.4865845E-2,-9.593905E-1,1.1673342E-2,3.6408175E-2,5.337736E-2,6.871247E-2,5.019424E-2,-3.1635936E-2,4.8824293E-3,-7.925473E-2,-4.722726E-2,-2.6459543E-2,-5.1157005E-2,-6.5626405E-2,4.2824235E-2,-4.4996474E-2,6.0285717E-2,1.0677889E-2,4.8711807E-2,-2.3344066E-2,6.265899E-2,4.527586E-2,6.785544E-2,3.4493346E-2,9.9773794E-2,6.75992E-2,-1.2532438E-2,4.5248624E-2,2.0377487E-2,-3.2955136E-2,-1.8670242E-2,1.8889865E-2,-5.7950575E-2,3.9608937E-4],"categories":[],"categories_nodes":[],"categories_segments":[],"categories_sizes":[],"default_left":[0,0,0,0,0,0,0,0,0,0,0,0,0,0,0,0,0,0,0,0,0,0,0,0,0,0,0,0,0,0,0,0,0,0,0,0,0,0,0,0,0,0,0,0,0,0,0,0,0,0,0,0,0,0,0,0,0,0,0,0,0,0,0],"id":13,"left_children":[1,3,5,7,9,11,13,15,17,19,21,23,25,27,29,31,33,35,37,39,41,43,45,47,49,51,53,55,57,59,61,-1,-1,-1,-1,-1,-1,-1,-1,-1,-1,-1,-1,-1,-1,-1,-1,-1,-1,-1,-1,-1,-1,-1,-1,-1,-1,-1,-1,-1,-1,-1,-1],"loss_changes":[1.3756445E5,1.3489794E5,1.2001242E4,5.260168E3,1.3442031E4,4.994078E3,6.237583E3,2.5794219E3,1.1382436E4,5.7246094E3,8.198103E2,5.437949E3,1.6796875E2,3.0128105E3,1.6841177E3,1.6523809E3,1.9486914E2,6.5488013E3,5.7102305E3,4.1979688E3,1.5275078E3,8.951296E2,4.9600415E2,5.2293877E3,7.471953E2,8.938535E2,6.9503125E2,1.0911211E3,1.4277778E3,1.4301041E3,4.048827E2,0E0,0E0,0E0,0E0,0E0,0E0,0E0,0E0,0E0,0E0,0E0,0E0,0E0,0E0,0E0,0E0,0E0,0E0,0E0,0E0,0E0,0E0,0E0,0E0,0E0,0E0,0E0,0E0,0E0,0E0,0E0,0E0],"parents":[2147483647,0,0,1,1,2,2,3,3,4,4,5,5,6,6,7,7,8,8,9,9,10,10,11,11,12,12,13,13,14,14,15,15,16,16,17,17,18,18,19,19,20,20,21,21,22,22,23,23,24,24,25,25,26,26,27,27,28,28,29,29,30,30],"right_children":[2,4,6,8,10,12,14,16,18,20,22,24,26,28,30,32,34,36,38,40,42,44,46,48,50,52,54,56,58,60,62,-1,-1,-1,-1,-1,-1,-1,-1,-1,-1,-1,-1,-1,-1,-1,-1,-1,-1,-1,-1,-1,-1,-1,-1,-1,-1,-1,-1,-1,-1,-1,-1],"split_conditions":[1.3489168E0,-1.2920247E0,8E0,4E0,8.91E2,2.3845756E-1,1E0,8.56E2,2.3845756E-1,8E0,9E2,1E0,3E0,2.958979E-1,1.3E1,1E0,9E2,1E0,6E0,1.810172E-1,1E0,-6.2834936E-1,1.0880849E0,-1.1975513E0,-1.7190593E-1,2E0,5E0,-1.3124319E0,1.2E1,1.810172E-1,4E1,1.1673342E-2,3.6408175E-2,5.337736E-2,6.871247E-2,5.019424E-2,-3.1635936E-2,4.8824293E-3,-7.925473E-2,-4.722726E-2,-2.6459543E-2,-5.1157005E-2,-6.5626405E-2,4.2824235E-2,-4.4996474E-2,6.0285717E-2,1.0677889E-2,4.8711807E-2,-2.3344066E-2,6.265899E-2,4.527586E-2,6.785544E-2,3.4493346E-2,9.9773794E-2,6.75992E-2,-1.2532438E-2,4.5248624E-2,2.0377487E-2,-3.2955136E-2,-1.8670242E-2,1.8889865E-2,-5.7950575E-2,3.9608937E-4],"split_indices":[15,15,1,1,4,14,3,4,14,1,4,3,1,14,1,1,4,3,1,14,3,17,8,14,10,1,1,14,1,14,6,0,0,0,0,0,0,0,0,0,0,0,0,0,0,0,0,0,0,0,0,0,0,0,0,0,0,0,0,0,0,0,0],"split_type":[0,0,0,0,0,0,0,0,0,0,0,0,0,0,0,0,0,0,0,0,0,0,0,0,0,0,0,0,0,0,0,0,0,0,0,0,0,0,0,0,0,0,0,0,0,0,0,0,0,0,0,0,0,0,0,0,0,0,0,0,0,0,0],"sum_hessian":[3.9322356E5,2.7317012E5,1.2005345E5,9.1559305E4,1.8161081E5,7.8611695E4,4.1441758E4,6.78044E4,2.3754904E4,1.7696975E5,4.641054E3,3.4942953E4,4.3668746E4,2.9173842E4,1.2267915E4,5.9177E4,8.6274E3,1.5679537E4,8.0753677E3,1.0256021E5,7.440955E4,1.1694596E3,3.4715947E3,1.0093236E4,2.4849717E4,1.7664998E4,2.6003746E4,2.3557328E4,5.616513E3,1.0172165E4,2.0957505E3,7.7743794E3,5.140262E4,3.5410771E3,5.0863228E3,1.2649538E4,3.0299998E3,3.8944792E3,4.180888E3,6.2843348E4,3.971686E4,4.228825E4,3.2121297E4,6.410458E2,5.284138E2,2.859386E3,6.122087E2,4.8044995E3,5.2887363E3,1.3151799E4,1.1697918E4,1.5351436E4,2.3135637E3,1.8080522E3,2.4195693E4,8.471285E2,2.27102E4,3.7253977E3,1.8911154E3,4.779082E3,5.393083E3,1.7370776E3,3.5867288E2],"tree_param":{"num_deleted":"0","num_feature":"19","num_nodes":"63","size_leaf_vector":"1"}},{"base_weights":[1.6895813E-3,-7.176285E-1,1.1965472E0,-2.9019704E-1,-1.1270038E0,1.0541347E0,1.2920135E0,-1.1390865E0,1.0469014E-1,-1.3499068E0,-9.8816985E-1,1.2544949E0,-6.280567E-2,1.2954895E0,-7.3919564E-2,-1.2367424E0,-7.216313E-1,6.623309E-1,-2.7951887E-1,-2.57926E-1,-6.767898E-2,-1.1563389E0,-5.3229177E-1,-1.6114881E0,1.3084503E0,-1.7226646E0,1.3196678E0,1.306224E0,1.2579621E0,-6.832704E-2,-3.7524544E-2,2.6978562E-3,-6.1677247E-2,-7.866324E-2,5.482742E-2,-7.796535E-2,6.6988408E-3,-6.991632E-2,1.12761274E-1,-1.6164254E-2,-6.1633147E-2,-1.2688924E-3,-5.8912963E-2,-1.4135198E-1,1.5858801E-2,-4.549111E-2,6.625369E-2,-9.5736824E-2,-7.282315E-2,6.921742E-2,3.027893E-2,6.494705E-2,6.660089E-2,6.437819E-2,6.007796E-2],"categories":[],"categories_nodes":[],"categories_segments":[],"categories_sizes":[],"default_left":[0,0,0,0,0,0,0,0,0,0,0,0,0,0,0,0,0,0,0,0,0,0,0,0,0,0,0,0,0,0,0,0,0,0,0,0,0,0,0,0,0,0,0,0,0,0,0,0,0,0,0,0,0,0,0],"id":14,"left_children":[1,3,5,7,9,11,13,15,17,19,21,23,25,27,-1,29,31,33,35,37,-1,39,41,43,45,47,49,51,53,-1,-1,-1,-1,-1,-1,-1,-1,-1,-1,-1,-1,-1,-1,-1,-1,-1,-1,-1,-1,-1,-1,-1,-1,-1,-1],"loss_changes":[3.3401284E5,4.244682E4,1.9840938E3,3.9782062E4,3.8331875E3,1.3117305E4,8.438281E2,1.5351445E3,1.7354104E4,1.90375E2,5.853211E3,7.6872812E3,2.0462068E4,3.353125E1,0E0,1.9261133E3,2.8371038E3,3.207665E4,2.5378582E4,4.6355746E2,0E0,3.5461328E3,6.73838E3,2.1549111E3,1.8000312E3,2.0438965E2,2.2386621E2,1.1015625E1,3.0925781E1,0E0,0E0,0E0,0E0,0E0,0E0,0E0,0E0,0E0,0E0,0E0,0E0,0E0,0E0,0E0,0E0,0E0,0E0,0E0,0E0,0E0,0E0,0E0,0E0,0E0,0E0],"parents":[2147483647,0,0,1,1,2,2,3,3,4,4,5,5,6,6,7,7,8,8,9,9,10,10,11,11,12,12,13,13,15,15,16,16,17,17,18,18,19,19,21,21,22,22,23,23,24,24,25,25,26,26,27,27,28,28],"right_children":[2,4,6,8,10,12,14,16,18,20,22,24,26,28,-1,30,32,34,36,38,-1,40,42,44,46,48,50,52,54,-1,-1,-1,-1,-1,-1,-1,-1,-1,-1,-1,-1,-1,-1,-1,-1,-1,-1,-1,-1,-1,-1,-1,-1,-1,-1],"split_conditions":[1.4657288E0,-2.216944E-1,2.254616E0,-1.1272409E0,4E0,3E0,8E0,-1.2319958E0,6E0,-2.0200527E-1,8.4291565E-1,1E0,1.3E1,7E0,-7.3919564E-2,1.1E1,6E0,3E0,9E0,1.4381216E0,-6.767898E-2,5E0,9E0,2.080992E0,1.5126271E0,3.47E2,1E0,7.94E2,2.5548441E0,-6.832704E-2,-3.7524544E-2,2.6978562E-3,-6.1677247E-2,-7.866324E-2,5.482742E-2,-7.796535E-2,6.6988408E-3,-6.991632E-2,1.12761274E-1,-1.6164254E-2,-6.1633147E-2,-1.2688924E-3,-5.8912963E-2,-1.4135198E-1,1.5858801E-2,-4.549111E-2,6.625369E-2,-9.5736824E-2,-7.282315E-2,6.921742E-2,3.027893E-2,6.494705E-2,6.660089E-2,6.437819E-2,6.007796E-2],"split_indices":[2,2,2,2,1,1,1,2,1,2,2,1,1,1,0,1,1,1,1,8,0,1,1,2,2,0,3,7,2,0,0,0,0,0,0,0,0,0,0,0,0,0,0,0,0,0,0,0,0,0,0,0,0,0,0],"split_type":[0,0,0,0,0,0,0,0,0,0,0,0,0,0,0,0,0,0,0,0,0,0,0,0,0,0,0,0,0,0,0,0,0,0,0,0,0,0,0,0,0,0,0,0,0,0,0,0,0,0,0,0,0,0,0],"sum_hessian":[3.886188E5,2.4258202E5,1.4603678E5,1.186747E5,1.2390732E5,5.8612844E4,8.7423945E4,3.7677484E4,8.099722E4,4.7552055E4,7.6355266E4,4.9697777E4,8.915065E3,8.731492E4,1.09021255E2,3.0532912E4,7.144571E3,3.3040918E4,4.7956297E4,1.5964343E2,4.739241E4,5.577783E4,2.0577441E4,9.17795E2,4.8779984E4,4.0510044E3,4.8640615E3,6.78679E4,1.9447021E4,2.4098367E4,6.4345464E3,2.841053E3,4.303518E3,5.373335E3,2.7667582E4,1.1710132E4,3.6246168E4,1.1011831E2,4.9525124E1,4.6818647E3,5.109596E4,1.1530266E4,9.047175E3,5.6269037E2,3.551046E2,3.6243387E2,4.841755E4,2.349547E3,1.7014573E3,4.4592173E3,4.0484427E2,5.2964246E4,1.4903654E4,1.2739313E4,6.7077075E3],"tree_param":{"num_deleted":"0","num_feature":"19","num_nodes":"55","size_leaf_vector":"1"}},{"base_weights":[4.3361895E-3,-6.8394125E-1,1.1838125E0,-9.039673E-1,2.224612E-1,1.2066864E0,5.552858E-1,-1.4301533E-1,-1.1295967E0,-1.4281553E0,3.0679297E-1,7.6219745E-2,1.2175362E0,-6.968514E-2,1.1978674E0,6.276258E-1,-1.2039262E0,-9.654606E-1,-1.2521204E0,-1.5232701E0,-6.8836205E-2,-7.297235E-1,4.1273728E-1,6.9375354E-1,-7.1160644E-2,1.1470945E0,1.2910315E0,6.365171E-1,1.282927E0,-9.109413E-2,4.387931E-2,-6.730741E-2,2.7420191E-2,-6.3008256E-2,-3.5295278E-2,-6.312921E-2,-3.1208789E-2,-7.040846E-2,-7.8482024E-2,-6.947148E-2,6.5013333E-3,3.6633033E-2,-1.1703557E-3,-7.401867E-2,4.6722423E-2,6.3679434E-2,4.5601483E-2,6.1547436E-2,6.507731E-2,4.6292536E-2,-9.828601E-2,-9.66676E-2,6.436864E-2],"categories":[],"categories_nodes":[],"categories_segments":[],"categories_sizes":[],"default_left":[0,0,0,0,0,0,0,0,0,0,0,0,0,0,0,0,0,0,0,0,0,0,0,0,0,0,0,0,0,0,0,0,0,0,0,0,0,0,0,0,0,0,0,0,0,0,0,0,0,0,0,0,0],"id":15,"left_children":[1,3,5,7,9,11,13,15,17,19,21,23,25,-1,27,29,31,33,35,37,-1,39,41,43,-1,45,47,49,51,-1,-1,-1,-1,-1,-1,-1,-1,-1,-1,-1,-1,-1,-1,-1,-1,-1,-1,-1,-1,-1,-1,-1,-1],"loss_changes":[3.077543E5,4.774392E4,2.0077812E3,3.3074234E4,6.5097725E3,1.6531719E3,6.1476265E3,3.602078E4,2.9868281E3,9.022949E0,4.8859307E3,1.188483E3,6.897344E2,0E0,1.754292E2,1.5627097E4,4.6206797E3,4.8571562E3,5.581875E2,1.9978027E0,0E0,2.340439E3,5.6323037E3,4.770804E2,0E0,2.0261562E3,3.9671875E1,3.6901273E2,4.8309082E1,0E0,0E0,0E0,0E0,0E0,0E0,0E0,0E0,0E0,0E0,0E0,0E0,0E0,0E0,0E0,0E0,0E0,0E0,0E0,0E0,0E0,0E0,0E0,0E0],"parents":[2147483647,0,0,1,1,2,2,3,3,4,4,5,5,6,6,7,7,8,8,9,9,10,10,11,11,12,12,14,14,15,15,16,16,17,17,18,18,19,19,21,21,22,22,23,23,25,25,26,26,27,27,28,28],"right_children":[2,4,6,8,10,12,14,16,18,20,22,24,26,-1,28,30,32,34,36,38,-1,40,42,44,-1,46,48,50,52,-1,-1,-1,-1,-1,-1,-1,-1,-1,-1,-1,-1,-1,-1,-1,-1,-1,-1,-1,-1,-1,-1,-1,-1],"split_conditions":[1.5126271E0,1.3489168E0,8E0,-1.2920247E0,3E0,1.5820434E0,1.3E1,-2.0200527E-1,-2.216944E-1,-2.0200527E-1,-1.2319958E0,2E0,1.3489168E0,-6.968514E-2,1.0554788E0,3E0,8E0,-1.0594612E0,1.4306931E0,-1.2319958E0,-6.8836205E-2,1.1E1,-2.0200527E-1,1E0,-7.1160644E-2,2E0,2.254616E0,1E0,-1.5931835E0,-9.109413E-2,4.387931E-2,-6.730741E-2,2.7420191E-2,-6.3008256E-2,-3.5295278E-2,-6.312921E-2,-3.1208789E-2,-7.040846E-2,-7.8482024E-2,-6.947148E-2,6.5013333E-3,3.6633033E-2,-1.1703557E-3,-7.401867E-2,4.6722423E-2,6.3679434E-2,4.5601483E-2,6.1547436E-2,6.507731E-2,4.6292536E-2,-9.828601E-2,-9.66676E-2,6.436864E-2],"split_indices":[2,15,1,15,1,2,1,2,2,2,2,1,15,0,15,1,1,2,2,2,0,1,2,1,0,1,2,3,10,0,0,0,0,0,0,0,0,0,0,0,0,0,0,0,0,0,0,0,0,0,0,0,0],"split_type":[0,0,0,0,0,0,0,0,0,0,0,0,0,0,0,0,0,0,0,0,0,0,0,0,0,0,0,0,0,0,0,0,0,0,0,0,0,0,0,0,0,0,0,0,0,0,0,0,0,0,0,0,0],"sum_hessian":[3.790959E5,2.3939727E5,1.3969864E5,1.9263562E5,4.676164E4,1.3479223E5,4.9064053E3,4.4055793E4,1.4857983E5,2.2721997E3,4.448944E4,1.2814617E3,1.3351078E5,1.2162567E3,3.6901487E3,2.551918E4,1.8536613E4,6.3509535E4,8.50703E4,7.873978E2,1.4848019E3,4.1251123E3,4.036433E4,9.0803094E2,3.7343066E2,6.8180086E4,6.5330695E4,4.86695E2,3.2034536E3,2.3623955E3,2.3156785E4,1.7145305E4,1.3913096E3,2.9739174E4,3.3770363E4,8.367495E4,1.3953439E3,2.3512813E2,5.5226965E2,2.3337537E3,1.7913589E3,2.3284129E4,1.70802E4,8.99937E1,8.180373E2,4.432389E4,2.3856195E4,9.747869E3,5.5582824E4,4.3857556E2,4.8119465E1,3.8230767E0,3.1996306E3],"tree_param":{"num_deleted":"0","num_feature":"19","num_nodes":"53","size_leaf_vector":"1"}},{"base_weights":[5.866665E-3,-3.589895E-1,8.3084327E-1,5.534751E-1,-8.204135E-1,1.0554796E0,4.2339015E-1,6.918242E-1,1.6553935E-1,-8.542776E-1,9.583665E-1,1.248051E0,9.8528796E-1,3.89933E-1,1.5598435E0,2.195884E-1,7.5675714E-1,-1.6163388E-1,2.5978303E-1,-6.7073554E-1,-1.0466094E0,1.1284914E0,1.9904752E-1,1.2337275E0,1.2811857E0,2.892301E-1,1.059723E0,5.773982E-1,2.0115225E-1,1.5939262E0,-8.029439E-2,-3.5134252E-2,2.4480933E-2,3.506648E-2,6.1927047E-2,-1.6007529E-3,-4.0828794E-2,2.2453172E-2,6.597677E-3,-3.0095235E-2,-5.7303227E-2,-5.423521E-2,-4.4313736E-2,6.254558E-2,1.7582579E-3,-7.512935E-2,3.997606E-2,6.094223E-2,6.383822E-2,6.414066E-2,5.011269E-2,1.708009E-2,-7.0839904E-2,4.9684938E-2,6.265967E-2,3.3088103E-2,1.0504761E-2,1.214362E-2,-8.7076776E-2,-8.039616E-2,8.0682784E-2],"categories":[],"categories_nodes":[],"categories_segments":[],"categories_sizes":[],"default_left":[0,0,0,0,0,0,0,0,0,0,0,0,0,0,0,0,0,0,0,0,0,0,0,0,0,0,0,0,0,0,0,0,0,0,0,0,0,0,0,0,0,0,0,0,0,0,0,0,0,0,0,0,0,0,0,0,0,0,0,0,0],"id":16,"left_children":[1,3,5,7,9,11,13,15,17,19,21,23,25,27,29,31,33,35,37,39,41,43,45,47,49,51,53,55,57,59,-1,-1,-1,-1,-1,-1,-1,-1,-1,-1,-1,-1,-1,-1,-1,-1,-1,-1,-1,-1,-1,-1,-1,-1,-1,-1,-1,-1,-1,-1,-1],"loss_changes":[1.1152051E5,1.0815961E5,1.0398383E4,4.630459E3,1.0278031E4,9.886953E2,1.5346714E3,1.9499473E3,6.994159E2,5.9095938E3,4.1158472E2,7.701172E0,2.7807578E3,1.388041E3,1.2711548E2,1.9152241E3,1.4921289E3,4.306427E2,4.2602112E2,2.8023164E3,4.9839062E2,3.4851147E2,5.986653E2,7.2109375E0,1.3818359E0,4.639256E2,6.1816406E2,6.096997E2,1.5845576E3,7.477417E1,0E0,0E0,0E0,0E0,0E0,0E0,0E0,0E0,0E0,0E0,0E0,0E0,0E0,0E0,0E0,0E0,0E0,0E0,0E0,0E0,0E0,0E0,0E0,0E0,0E0,0E0,0E0,0E0,0E0,0E0,0E0],"parents":[2147483647,0,0,1,1,2,2,3,3,4,4,5,5,6,6,7,7,8,8,9,9,10,10,11,11,12,12,13,13,14,14,15,15,16,16,17,17,18,18,19,19,20,20,21,21,22,22,23,23,24,24,25,25,26,26,27,27,28,28,29,29],"right_children":[2,4,6,8,10,12,14,16,18,20,22,24,26,28,30,32,34,36,38,40,42,44,46,48,50,52,54,56,58,60,-1,-1,-1,-1,-1,-1,-1,-1,-1,-1,-1,-1,-1,-1,-1,-1,-1,-1,-1,-1,-1,-1,-1,-1,-1,-1,-1,-1,-1,-1,-1],"split_conditions":[1.3489168E0,-1.2920247E0,8E0,4E0,8.89E2,2E0,8.89E2,1E0,5E0,3.38E2,1.0880849E0,1E0,3E0,-4.4399735E-2,1.4227809E0,-3.8919163E-1,8.63E2,6.965509E-1,-3.3637455E-1,1.4154743E0,3.36E2,1.9643345E0,4.6745494E-1,7.83E2,2.2159023E0,4.2E1,7.44E2,1.3E1,1.9643345E0,-1.7830788E0,-8.029439E-2,-3.5134252E-2,2.4480933E-2,3.506648E-2,6.1927047E-2,-1.6007529E-3,-4.0828794E-2,2.2453172E-2,6.597677E-3,-3.0095235E-2,-5.7303227E-2,-5.423521E-2,-4.4313736E-2,6.254558E-2,1.7582579E-3,-7.512935E-2,3.997606E-2,6.094223E-2,6.383822E-2,6.414066E-2,5.011269E-2,1.708009E-2,-7.0839904E-2,4.9684938E-2,6.265967E-2,3.3088103E-2,1.0504761E-2,1.214362E-2,-8.7076776E-2,-8.039616E-2,8.0682784E-2],"split_indices":[15,15,1,1,7,1,7,1,1,0,8,1,1,17,8,10,7,12,17,17,11,10,16,7,10,6,7,1,10,10,0,0,0,0,0,0,0,0,0,0,0,0,0,0,0,0,0,0,0,0,0,0,0,0,0,0,0,0,0,0,0],"split_type":[0,0,0,0,0,0,0,0,0,0,0,0,0,0,0,0,0,0,0,0,0,0,0,0,0,0,0,0,0,0,0,0,0,0,0,0,0,0,0,0,0,0,0,0,0,0,0,0,0,0,0,0,0,0,0,0,0,0,0,0,0],"sum_hessian":[3.7050072E5,2.5688895E5,1.1361177E5,8.627675E4,1.7061222E5,7.323461E4,4.0377164E4,6.3595844E4,2.2680904E4,1.6742531E5,3.1868945E3,1.9558602E4,5.3676008E4,3.9223758E4,1.1534032E3,7.6879937E3,5.5907848E4,5.07209E3,1.7608814E4,8.567258E4,8.175274E4,2.6031697E3,5.837247E2,1.3682218E4,5.8763843E3,5.185953E3,4.8490055E4,1.967942E4,1.954434E4,1.141609E3,1.1794178E1,1.7407966E3,5.9471973E3,5.014168E4,5.7661704E3,4.2349956E3,8.3709424E2,7.097239E3,1.0511576E4,7.483782E4,1.0834759E4,6.605308E4,1.5699661E4,2.3409128E3,2.6225705E2,1.518648E2,4.318599E2,1.0188255E4,3.4939622E3,5.8387183E3,3.7665813E1,5.032272E3,1.5368102E2,3.615712E4,1.2332934E4,1.6002978E4,3.6764421E3,1.9134295E4,4.100432E2,6.4984145E0,1.1351106E3],"tree_param":{"num_deleted":"0","num_feature":"19","num_nodes":"61","size_leaf_vector":"1"}},{"base_weights":[4.854811E-4,-6.7485255E-1,1.1433654E0,-8.799552E-1,1.512648E-1,1.0010351E0,1.2385944E0,-1.6117816E-1,-1.1002138E0,2.6906243E-1,-1.0508603E0,1.1975425E0,-4.677714E-2,1.241939E0,-6.990824E-2,5.9456587E-1,-1.16699E0,-9.361665E-1,-1.2255087E0,-4.8130724E-1,4.8314708E-1,-1.6527182E0,1.5407369E0,-1.5900301E0,1.2543855E0,-1.6661979E0,1.2851034E0,1.1958668E0,1.2659907E0,-7.222345E-2,4.3831818E-2,-6.608695E-2,2.971232E-2,-5.3083457E-2,-1.4746635E-2,-6.289015E-2,-5.5475652E-2,-5.1160283E-2,5.6206044E-2,4.0127743E-2,-6.2540965E-3,-9.618973E-2,-7.596737E-2,8.644741E-2,-9.00943E-2,-1.3258341E-1,8.496872E-3,-4.1533906E-2,6.3515306E-2,-9.0058595E-2,-6.846053E-2,8.644285E-2,5.9708495E-2,6.290533E-2,5.7232242E-2,6.275629E-2,6.365425E-2],"categories":[],"categories_nodes":[],"categories_segments":[],"categories_sizes":[],"default_left":[0,0,0,0,0,0,0,0,0,0,0,0,0,0,0,0,0,0,0,0,0,0,0,0,0,0,0,0,0,0,0,0,0,0,0,0,0,0,0,0,0,0,0,0,0,0,0,0,0,0,0,0,0,0,0,0,0],"id":17,"left_children":[1,3,5,7,9,11,13,15,17,19,21,23,25,27,-1,29,31,33,35,37,39,41,43,45,47,49,51,53,55,-1,-1,-1,-1,-1,-1,-1,-1,-1,-1,-1,-1,-1,-1,-1,-1,-1,-1,-1,-1,-1,-1,-1,-1,-1,-1,-1,-1],"loss_changes":[2.812108E5,3.8804242E4,1.8329688E3,2.9045562E4,6.4505713E3,1.1170926E4,7.1671094E2,3.271288E4,2.8853438E3,6.664665E3,6.34364E3,7.241004E3,1.8483992E4,8.822656E1,0E0,1.4134203E4,5.0328926E3,4.893965E3,2.9685156E2,8.013106E3,6.270791E3,1.1637305E2,4.854651E2,1.707124E3,1.4873047E3,1.525625E2,1.8768604E2,8.715625E1,2.4921875E0,0E0,0E0,0E0,0E0,0E0,0E0,0E0,0E0,0E0,0E0,0E0,0E0,0E0,0E0,0E0,0E0,0E0,0E0,0E0,0E0,0E0,0E0,0E0,0E0,0E0,0E0,0E0,0E0],"parents":[2147483647,0,0,1,1,2,2,3,3,4,4,5,5,6,6,7,7,8,8,9,9,10,10,11,11,12,12,13,13,15,15,16,16,17,17,18,18,19,19,20,20,21,21,22,22,23,23,24,24,25,25,26,26,27,27,28,28],"right_children":[2,4,6,8,10,12,14,16,18,20,22,24,26,28,-1,30,32,34,36,38,40,42,44,46,48,50,52,54,56,-1,-1,-1,-1,-1,-1,-1,-1,-1,-1,-1,-1,-1,-1,-1,-1,-1,-1,-1,-1,-1,-1,-1,-1,-1,-1,-1,-1],"split_conditions":[1.4657288E0,1.3489168E0,2.254616E0,-1.2920247E0,1.3E1,3E0,8E0,-2.836211E-1,-2.216944E-1,8E0,1.2217509E0,1E0,1.3E1,1.3489168E0,-6.990824E-2,-1.2488335E0,8E0,-4.4448608E-1,8.9099E-1,2.3845756E-1,-2.216944E-1,-2.0200527E-1,1.2357685E-1,2.080992E0,1.5126271E0,8E0,1.5126271E0,-1.2920247E0,1.810172E-1,-7.222345E-2,4.3831818E-2,-6.608695E-2,2.971232E-2,-5.3083457E-2,-1.4746635E-2,-6.289015E-2,-5.5475652E-2,-5.1160283E-2,5.6206044E-2,4.0127743E-2,-6.2540965E-3,-9.618973E-2,-7.596737E-2,8.644741E-2,-9.00943E-2,-1.3258341E-1,8.496872E-3,-4.1533906E-2,6.3515306E-2,-9.0058595E-2,-6.846053E-2,8.644285E-2,5.9708495E-2,6.290533E-2,5.7232242E-2,6.275629E-2,6.365425E-2],"split_indices":[2,15,2,15,1,1,1,2,2,1,2,1,1,15,0,2,1,2,2,14,2,2,14,2,2,1,2,15,14,0,0,0,0,0,0,0,0,0,0,0,0,0,0,0,0,0,0,0,0,0,0,0,0,0,0,0,0],"split_type":[0,0,0,0,0,0,0,0,0,0,0,0,0,0,0,0,0,0,0,0,0,0,0,0,0,0,0,0,0,0,0,0,0,0,0,0,0,0,0,0,0,0,0,0,0,0,0,0,0,0,0,0,0,0,0,0,0],"sum_hessian":[3.643408E5,2.2901448E5,1.3532631E5,1.8346502E5,4.5549473E4,5.425209E4,8.107423E4,4.3033637E4,1.4043138E5,4.148508E4,4.064395E3,4.568428E4,8.567809E3,8.097205E4,1.0217777E2,2.4571547E4,1.846209E4,6.081523E4,7.961614E4,9.208369E3,3.227671E4,3.2986885E3,7.657065E2,9.124175E2,4.4771863E4,3.8664177E3,4.701391E3,2.7789947E4,5.3182098E4,2.9855366E3,2.158601E4,1.6971186E4,1.4909033E3,5.0860195E4,9.955037E3,6.2269844E4,1.7346299E4,6.88482E3,2.3235488E3,2.1162848E4,1.1113861E4,1.0833511E3,2.2153374E3,7.253475E2,4.035898E1,5.688015E2,3.43616E2,3.3888016E2,4.4432984E4,2.6548047E3,1.2116129E3,7.9649567E2,3.9048955E3,1.2535064E4,1.5254884E4,2.107858E4,3.210352E4],"tree_param":{"num_deleted":"0","num_feature":"19","num_nodes":"57","size_leaf_vector":"1"}},{"base_weights":[2.0534226E-3,-6.4355195E-1,1.1305954E0,-2.5386253E-1,-1.0253255E0,1.152543E0,5.026436E-1,-1.1361151E0,8.8286676E-2,-1.284326E0,-8.6867595E-1,-9.983333E-3,1.1634843E0,-6.657971E-2,1.1440489E0,-1.2523218E0,-7.025871E-1,6.29471E-1,-2.8221747E-1,-6.439961E-2,-8.8699085E-1,-1.0389296E0,-4.3631727E-1,5.831183E-1,-6.851045E-2,1.0618478E0,1.2219015E0,-1.2333932E-1,1.1520578E0,1.0693339E-2,-6.351789E-2,-1.3314999E-2,-6.92099E-2,-7.532456E-2,5.22678E-2,-4.682418E-2,2.46016E-2,5.0171822E-2,-6.7421146E-2,-7.233561E-3,-5.631013E-2,-6.613928E-2,-7.232388E-3,-1.2630276E-2,5.945177E-2,6.0640026E-2,-9.441229E-2,6.1710823E-2,5.8933374E-2,6.0525235E-2,3.4043808E-2],"categories":[],"categories_nodes":[],"categories_segments":[],"categories_sizes":[],"default_left":[0,0,0,0,0,0,0,0,0,0,0,0,0,0,0,0,0,0,0,0,0,0,0,0,0,0,0,0,0,0,0,0,0,0,0,0,0,0,0,0,0,0,0,0,0,0,0,0,0,0,0],"id":18,"left_children":[1,3,5,7,9,11,13,15,17,19,21,23,25,-1,27,29,31,33,35,-1,37,39,41,43,-1,45,47,-1,49,-1,-1,-1,-1,-1,-1,-1,-1,-1,-1,-1,-1,-1,-1,-1,-1,-1,-1,-1,-1,-1,-1],"loss_changes":[2.5842655E5,3.3566133E4,1.7782656E3,3.3704348E4,4.6228203E3,1.5863125E3,5.1316978E3,1.5709922E3,1.6132186E4,6.1421875E1,5.227301E3,9.397032E2,7.3225E2,0E0,9.6288574E1,6.5091016E2,1.9616643E3,2.904632E4,2.4193506E4,0E0,3.4668347E2,3.9764805E3,5.188099E3,4.110421E2,0E0,2.0086898E4,4.03125E1,0E0,8.798584E1,0E0,0E0,0E0,0E0,0E0,0E0,0E0,0E0,0E0,0E0,0E0,0E0,0E0,0E0,0E0,0E0,0E0,0E0,0E0,0E0,0E0,0E0],"parents":[2147483647,0,0,1,1,2,2,3,3,4,4,5,5,6,6,7,7,8,8,9,9,10,10,11,11,12,12,14,14,15,15,16,16,17,17,18,18,20,20,21,21,22,22,23,23,25,25,26,26,28,28],"right_children":[2,4,6,8,10,12,14,16,18,20,22,24,26,-1,28,30,32,34,36,-1,38,40,42,44,-1,46,48,-1,50,-1,-1,-1,-1,-1,-1,-1,-1,-1,-1,-1,-1,-1,-1,-1,-1,-1,-1,-1,-1,-1,-1],"split_conditions":[1.5126271E0,-2.216944E-1,8E0,-1.1711501E0,4E0,1.5820434E0,1.3E1,1.1E1,6E0,1.4657288E0,8.4291565E-1,2E0,2.254616E0,-6.657971E-2,-1.56043E0,8E0,-2.489941E-1,3E0,-4.9436533E-1,-6.439961E-2,-1.646606E0,5E0,8E0,1E0,-6.851045E-2,3E0,7E0,-1.2333932E-1,1E0,1.0693339E-2,-6.351789E-2,-1.3314999E-2,-6.92099E-2,-7.532456E-2,5.22678E-2,-4.682418E-2,2.46016E-2,5.0171822E-2,-6.7421146E-2,-7.233561E-3,-5.631013E-2,-6.613928E-2,-7.232388E-3,-1.2630276E-2,5.945177E-2,6.0640026E-2,-9.441229E-2,6.1710823E-2,5.8933374E-2,6.0525235E-2,3.4043808E-2],"split_indices":[2,2,1,2,1,2,1,1,1,2,2,1,2,0,16,0,10,1,2,0,8,1,1,3,0,1,1,0,3,0,0,0,0,0,0,0,0,0,0,0,0,0,0,0,0,0,0,0,0,0,0],"split_type":[0,0,0,0,0,0,0,0,0,0,0,0,0,0,0,0,0,0,0,0,0,0,0,0,0,0,0,0,0,0,0,0,0,0,0,0,0,0,0,0,0,0,0,0,0,0,0,0,0,0,0],"sum_hessian":[3.546907E5,2.2562039E5,1.2907029E5,1.11653484E5,1.1396691E5,1.2471072E5,4.3595767E3,3.120002E4,8.045346E4,4.294896E4,7.1017945E4,1.1628076E3,1.2354791E5,1.1292281E3,3.2303486E3,2.460325E4,6.59677E3,3.2695469E4,4.7757996E4,4.255408E4,3.948832E2,5.095252E4,2.0065426E4,8.1013446E2,3.5267313E2,4.510008E4,7.844783E4,6.469676E0,3.223879E3,2.9884195E2,2.4304408E4,4.0230664E3,2.5737034E3,5.328087E3,2.736738E4,2.588452E4,2.1873477E4,7.724516E1,3.1763806E2,4.530687E3,4.6421832E4,4.966687E3,1.509874E4,3.40742E2,4.6939246E2,4.2905258E4,2.1948196E3,6.103482E4,1.741301E4,2.8667139E3,3.5716516E2],"tree_param":{"num_deleted":"0","num_feature":"19","num_nodes":"51","size_leaf_vector":"1"}},{"base_weights":[2.6372285E-3,-6.3134193E-1,1.113916E0,-8.476641E-1,1.9700745E-1,1.1349454E0,5.718575E-1,-1.8915357E-1,-1.0447248E0,-1.3728377E0,2.7369496E-1,8.9511395E-2,1.1456319E0,-6.547881E-2,1.1376907E0,5.155811E-1,-1.1373318E0,-8.791178E-1,-1.1735927E0,-1.4518589E0,-1.3268393E0,3.8024944E-1,-6.360124E-1,6.349037E-1,-6.7209505E-2,1.0466112E0,1.2034998E0,3.31135E-1,1.2251371E0,-8.6033605E-2,3.810749E-2,-6.464651E-2,2.8134117E-2,-6.0069915E-2,-3.0611163E-2,-5.9252795E-2,-2.5790611E-2,-6.7980304E-2,-7.429974E-2,-6.497782E-2,-7.1426965E-2,-3.7151657E-2,2.4192704E-2,-7.680984E-2,8.3430514E-2,-4.965071E-2,4.5155123E-2,5.9647735E-2,-8.639319E-2,5.7496734E-2,6.16525E-2,-1.16847456E-1,4.486686E-2,-9.241047E-2,6.1431408E-2],"categories":[],"categories_nodes":[],"categories_segments":[],"categories_sizes":[],"default_left":[0,0,0,0,0,0,0,0,0,0,0,0,0,0,0,0,0,0,0,0,0,0,0,0,0,0,0,0,0,0,0,0,0,0,0,0,0,0,0,0,0,0,0,0,0,0,0,0,0,0,0,0,0,0,0],"id":19,"left_children":[1,3,5,7,9,11,13,15,17,19,21,23,25,-1,27,29,31,33,35,37,39,41,43,45,-1,47,49,51,53,-1,-1,-1,-1,-1,-1,-1,-1,-1,-1,-1,-1,-1,-1,-1,-1,-1,-1,-1,-1,-1,-1,-1,-1,-1,-1],"loss_changes":[2.4368034E5,3.9464125E4,1.4315625E3,2.2661023E4,5.49068E3,1.3511562E3,4.9989683E3,2.6878342E4,2.8674219E3,5.7946777E0,4.2151025E3,9.586617E2,6.8478125E2,0E0,2.5417334E2,1.2724299E4,4.537205E3,5.0589727E3,5.693203E2,4.074707E-1,1.901123E0,4.530178E3,9.461508E3,3.8862265E2,0E0,1.7935469E4,1.1817969E2,5.375277E2,3.7205566E1,0E0,0E0,0E0,0E0,0E0,0E0,0E0,0E0,0E0,0E0,0E0,0E0,0E0,0E0,0E0,0E0,0E0,0E0,0E0,0E0,0E0,0E0,0E0,0E0,0E0,0E0],"parents":[2147483647,0,0,1,1,2,2,3,3,4,4,5,5,6,6,7,7,8,8,9,9,10,10,11,11,12,12,14,14,15,15,16,16,17,17,18,18,19,19,20,20,21,21,22,22,23,23,25,25,26,26,27,27,28,28],"right_children":[2,4,6,8,10,12,14,16,18,20,22,24,26,-1,28,30,32,34,36,38,40,42,44,46,-1,48,50,52,54,-1,-1,-1,-1,-1,-1,-1,-1,-1,-1,-1,-1,-1,-1,-1,-1,-1,-1,-1,-1,-1,-1,-1,-1,-1,-1],"split_conditions":[1.5126271E0,1.3489168E0,8E0,-1.2920247E0,3E0,1.5820434E0,1.3E1,-2.0200527E-1,-2.216944E-1,-1.6434541E-1,1.3E1,2E0,2.254616E0,-6.547881E-2,1.0554788E0,3E0,8E0,-1.0594612E0,1.4306931E0,-1.2319958E0,2.3845756E-1,-1.2980202E0,1.3260252E0,3.36E2,-6.7209505E-2,3E0,1.3489168E0,2.2E1,-1.5931835E0,-8.6033605E-2,3.810749E-2,-6.464651E-2,2.8134117E-2,-6.0069915E-2,-3.0611163E-2,-5.9252795E-2,-2.5790611E-2,-6.7980304E-2,-7.429974E-2,-6.497782E-2,-7.1426965E-2,-3.7151657E-2,2.4192704E-2,-7.680984E-2,8.3430514E-2,-4.965071E-2,4.5155123E-2,5.9647735E-2,-8.639319E-2,5.7496734E-2,6.16525E-2,-1.16847456E-1,4.486686E-2,-9.241047E-2,6.1431408E-2],"split_indices":[2,15,1,15,1,2,1,2,2,2,1,1,2,0,15,1,1,2,2,2,14,2,2,5,0,1,15,6,10,0,0,0,0,0,0,0,0,0,0,0,0,0,0,0,0,0,0,0,0,0,0,0,0,0,0],"split_type":[0,0,0,0,0,0,0,0,0,0,0,0,0,0,0,0,0,0,0,0,0,0,0,0,0,0,0,0,0,0,0,0,0,0,0,0,0,0,0,0,0,0,0,0,0,0,0,0,0,0,0,0,0,0,0],"sum_hessian":[3.4587566E5,2.202338E5,1.25641875E5,1.7462953E5,4.560426E4,1.2094855E5,4.69333E3,4.0222266E4,1.3440727E5,2.1232383E3,4.3481023E4,1.2239288E3,1.1972462E5,1.0848419E3,3.608488E3,2.3073395E4,1.7148871E4,5.8822605E4,7.5584664E4,7.699565E2,1.3532819E3,3.8922582E4,4.5584395E3,8.870461E2,3.3688278E2,4.4167105E4,7.555751E4,3.5343134E2,3.255057E3,2.2908213E3,2.0782572E4,1.5711109E4,1.4377627E3,2.6644879E4,3.2177727E4,7.428923E4,1.2954401E3,2.1898215E2,5.509743E2,1.077893E3,2.7538892E2,3.2863E3,3.563628E4,3.278279E3,1.2801605E3,1.2508714E2,7.619589E2,4.195472E4,2.2123892E3,2.6877371E4,4.868014E4,6.1325077E1,2.9210626E2,3.0936987E0,3.2519631E3],"tree_param":{"num_deleted":"0","num_feature":"19","num_nodes":"55","size_leaf_vector":"1"}},{"base_weights":[3.037923E-3,-3.3914337E-1,7.639277E-1,4.9262112E-1,-7.59575E-1,9.7935563E-1,4.1501558E-1,6.3311297E-1,1.16020024E-1,-7.9664767E-1,6.8736863E-1,6.692539E-1,1.2219044E0,6.273518E-1,-7.016285E-2,1.5052658E-1,6.996012E-1,6.410812E-1,-9.197981E-1,-6.37442E-1,-9.7085917E-1,8.810813E-1,-1.8458876E-1,4.3065898E-2,9.350325E-1,1.1377907E0,1.2761836E0,7.798467E-1,3.4251716E-2,9.165107E-2,-9.930938E-1,2.8281925E-2,-8.0884054E-2,3.2036345E-2,5.6379266E-2,4.593112E-2,-2.58667E-2,-8.136676E-3,-7.6984406E-2,-3.9827213E-2,-1.7795222E-2,-4.4790067E-2,-5.4707497E-2,4.5845173E-2,-7.0217684E-2,-4.970354E-2,5.5049825E-2,3.8447883E-2,-2.5280235E-2,5.5889916E-2,3.7573654E-2,6.1484672E-2,2.7097667E-2,8.744656E-2,6.136474E-2,-1.5756167E-2,4.1395724E-2,1.8696476E-2,-3.2191526E-2,-1.3789634E-2,2.0677542E-2,-7.038488E-2,-3.4478184E-2],"categories":[],"categories_nodes":[],"categories_segments":[],"categories_sizes":[],"default_left":[0,0,0,0,0,0,0,0,0,0,0,0,0,0,0,0,0,0,0,0,0,0,0,0,0,0,0,0,0,0,0,0,0,0,0,0,0,0,0,0,0,0,0,0,0,0,0,0,0,0,0,0,0,0,0,0,0,0,0,0,0,0,0],"id":20,"left_children":[1,3,5,7,9,11,13,15,17,19,21,23,25,27,29,31,33,35,37,39,41,43,45,47,49,51,53,55,57,59,61,-1,-1,-1,-1,-1,-1,-1,-1,-1,-1,-1,-1,-1,-1,-1,-1,-1,-1,-1,-1,-1,-1,-1,-1,-1,-1,-1,-1,-1,-1,-1,-1],"loss_changes":[8.773676E4,8.128672E4,7.85691E3,4.1292695E3,8.282953E3,4.8602305E3,4.1111797E3,1.8237031E3,1.1533775E4,4.1748047E3,6.5176074E2,4.720955E3,1.6411328E2,2.5105273E3,1.8144545E3,5.053942E3,1.2580684E3,4.525072E3,3.3476226E3,3.523289E3,6.6421875E2,2.5971802E2,7.316979E2,3.3671921E3,6.6725195E2,7.78666E2,5.070547E2,1.1624229E3,1.3081208E3,1.222845E3,2.271073E2,0E0,0E0,0E0,0E0,0E0,0E0,0E0,0E0,0E0,0E0,0E0,0E0,0E0,0E0,0E0,0E0,0E0,0E0,0E0,0E0,0E0,0E0,0E0,0E0,0E0,0E0,0E0,0E0,0E0,0E0,0E0,0E0],"parents":[2147483647,0,0,1,1,2,2,3,3,4,4,5,5,6,6,7,7,8,8,9,9,10,10,11,11,12,12,13,13,14,14,15,15,16,16,17,17,18,18,19,19,20,20,21,21,22,22,23,23,24,24,25,25,26,26,27,27,28,28,29,29,30,30],"right_children":[2,4,6,8,10,12,14,16,18,20,22,24,26,28,30,32,34,36,38,40,42,44,46,48,50,52,54,56,58,60,62,-1,-1,-1,-1,-1,-1,-1,-1,-1,-1,-1,-1,-1,-1,-1,-1,-1,-1,-1,-1,-1,-1,-1,-1,-1,-1,-1,-1,-1,-1,-1,-1],"split_conditions":[1.3489168E0,-1.2920247E0,8E0,4E0,8.91E2,2.3845756E-1,1E0,1E0,2.3845756E-1,3.47E2,8E0,1E0,3E0,2.3845756E-1,1.3E1,1.810172E-1,8.56E2,1E0,6E0,2.958979E-1,1.810172E-1,5.39E2,7.5542074E-1,-1.1975513E0,-2.2873296E-1,2E0,5E0,-1.2549917E0,1.2E1,1.810172E-1,1.9E1,2.8281925E-2,-8.0884054E-2,3.2036345E-2,5.6379266E-2,4.593112E-2,-2.58667E-2,-8.136676E-3,-7.6984406E-2,-3.9827213E-2,-1.7795222E-2,-4.4790067E-2,-5.4707497E-2,4.5845173E-2,-7.0217684E-2,-4.970354E-2,5.5049825E-2,3.8447883E-2,-2.5280235E-2,5.5889916E-2,3.7573654E-2,6.1484672E-2,2.7097667E-2,8.744656E-2,6.136474E-2,-1.5756167E-2,4.1395724E-2,1.8696476E-2,-3.2191526E-2,-1.3789634E-2,2.0677542E-2,-7.038488E-2,-3.4478184E-2],"split_indices":[15,15,1,1,4,14,3,1,14,0,1,3,1,14,1,14,4,3,1,14,14,0,14,14,10,1,1,14,1,14,6,0,0,0,0,0,0,0,0,0,0,0,0,0,0,0,0,0,0,0,0,0,0,0,0,0,0,0,0,0,0,0,0],"split_type":[0,0,0,0,0,0,0,0,0,0,0,0,0,0,0,0,0,0,0,0,0,0,0,0,0,0,0,0,0,0,0,0,0,0,0,0,0,0,0,0,0,0,0,0,0,0,0,0,0,0,0,0,0,0,0,0,0,0,0,0,0,0,0],"sum_hessian":[3.3697756E5,2.3244488E5,1.045327E5,7.804456E4,1.5440031E5,6.4627875E4,3.9904824E4,5.6839707E4,2.1204857E4,1.5054362E5,3.856684E3,2.8365705E4,3.6262168E4,2.7756863E4,1.2147963E4,6.883195E3,4.995651E4,1.407205E4,7.1328086E3,7.8661945E4,7.188168E4,3.155625E3,7.0105896E2,8.452454E3,1.991325E4,1.4231039E4,2.2031129E4,2.207956E4,5.6773013E3,1.033659E4,1.8113737E3,5.5750522E3,1.3081427E3,4.3917625E4,6.038888E3,1.1352376E4,2.7196738E3,3.2116814E3,3.9211272E3,5.0258227E4,2.8403717E4,4.4685797E4,2.719588E4,3.1075164E3,4.8108776E1,4.3032632E2,2.7073267E2,3.63842E3,4.8140347E3,9.975645E3,9.937605E3,1.2328424E4,1.9026157E3,2.0615388E3,1.9969592E4,9.2827026E2,2.1151291E4,3.7827986E3,1.8945027E3,4.8269E3,5.50969E3,7.640667E2,1.0473069E3],"tree_param":{"num_deleted":"0","num_feature":"19","num_nodes":"63","size_leaf_vector":"1"}},{"base_weights":[4.392874E-3,-6.096148E-1,1.079804E0,-2.3902154E-1,-1.0023711E0,9.395741E-1,1.175145E0,-1.0463401E0,9.508769E-2,-1.1361588E0,-6.728013E-1,9.9912304E-1,4.629768E-1,1.1612319E0,1.206012E0,-1.1469944E0,-6.4072907E-1,4.1905474E-2,1.3487122E0,-1.2357185E0,-9.296977E-1,-4.532747E-1,-9.48669E-1,5.309394E-1,1.053754E0,-1.0083655E-1,4.8962477E-1,1.1319097E0,1.1869196E0,1.1877131E0,6.0752537E-2,-6.251936E-2,-4.4973224E-2,-8.9630885E-3,-4.868236E-2,-6.7915334E-3,1.7260041E-2,6.800525E-2,-7.938626E-2,-6.2481113E-2,-5.154965E-2,-2.7365703E-2,-6.295204E-2,-1.1442571E-2,-4.2318355E-2,-5.2708186E-2,5.9869816E-3,4.4589996E-2,1.4386216E-2,5.47324E-2,4.3232784E-2,3.401916E-2,1.0268383E-2,5.6643303E-2,-1.60463E-1,6.073735E-2,5.824841E-2,5.973482E-2,5.4618027E-2],"categories":[],"categories_nodes":[],"categories_segments":[],"categories_sizes":[],"default_left":[0,0,0,0,0,0,0,0,0,0,0,0,0,0,0,0,0,0,0,0,0,0,0,0,0,0,0,0,0,0,0,0,0,0,0,0,0,0,0,0,0,0,0,0,0,0,0,0,0,0,0,0,0,0,0,0,0,0,0],"id":21,"left_children":[1,3,5,7,9,11,13,15,17,19,21,23,25,27,29,31,33,35,37,39,41,43,45,47,49,-1,51,53,55,57,-1,-1,-1,-1,-1,-1,-1,-1,-1,-1,-1,-1,-1,-1,-1,-1,-1,-1,-1,-1,-1,-1,-1,-1,-1,-1,-1,-1,-1],"loss_changes":[2.1874786E5,3.069375E4,1.6086406E3,2.9266625E4,4.513328E3,1.3826562E3,2.9382812E1,1.2959102E3,5.1164478E3,1.4955938E3,1.7898838E3,1.1074688E3,3.5878662E2,3.5882812E1,2.2324219E0,6.500625E2,9.702615E2,3.9686995E3,1.06640625E2,1.3853906E2,2.9831973E3,1.4522676E3,1.4765654E3,3.9721716E2,2.9903516E2,0E0,2.9039172E2,9.9546875E1,1.4667969E1,3.6210938E0,0E0,0E0,0E0,0E0,0E0,0E0,0E0,0E0,0E0,0E0,0E0,0E0,0E0,0E0,0E0,0E0,0E0,0E0,0E0,0E0,0E0,0E0,0E0,0E0,0E0,0E0,0E0,0E0,0E0],"parents":[2147483647,0,0,1,1,2,2,3,3,4,4,5,5,6,6,7,7,8,8,9,9,10,10,11,11,12,12,13,13,14,14,15,15,16,16,17,17,18,18,19,19,20,20,21,21,22,22,23,23,24,24,26,26,27,27,28,28,29,29],"right_children":[2,4,6,8,10,12,14,16,18,20,22,24,26,28,30,32,34,36,38,40,42,44,46,48,50,-1,52,54,56,58,-1,-1,-1,-1,-1,-1,-1,-1,-1,-1,-1,-1,-1,-1,-1,-1,-1,-1,-1,-1,-1,-1,-1,-1,-1,-1,-1,-1,-1],"split_conditions":[1.4657288E0,-1.6434541E-1,2.254616E0,-1.1272409E0,8.4291565E-1,1.9466655E0,6.99E2,-1.2319958E0,9E2,3.5333827E-1,1.0595517E0,1.5820434E0,-1.7617402E0,1E0,7.94E2,6.979804E-1,-3.3637455E-1,-4.6860972E-1,1.3937144E0,7.831028E-1,3.5864934E-1,2.3845756E-1,1.4306931E0,-3.407985E-1,1.7834634E0,-1.0083655E-1,1E0,6.96E2,-2.5951487E-1,1.4154743E0,6.0752537E-2,-6.251936E-2,-4.4973224E-2,-8.9630885E-3,-4.868236E-2,-6.7915334E-3,1.7260041E-2,6.800525E-2,-7.938626E-2,-6.2481113E-2,-5.154965E-2,-2.7365703E-2,-6.295204E-2,-1.1442571E-2,-4.2318355E-2,-5.2708186E-2,5.9869816E-3,4.4589996E-2,1.4386216E-2,5.47324E-2,4.3232784E-2,3.401916E-2,1.0268383E-2,5.6643303E-2,-1.60463E-1,6.073735E-2,5.824841E-2,5.973482E-2,5.4618027E-2],"split_indices":[2,2,2,2,2,2,4,2,4,14,2,2,8,3,7,14,17,2,13,2,2,14,2,10,2,0,3,4,10,17,0,0,0,0,0,0,0,0,0,0,0,0,0,0,0,0,0,0,0,0,0,0,0,0,0,0,0,0,0],"split_type":[0,0,0,0,0,0,0,0,0,0,0,0,0,0,0,0,0,0,0,0,0,0,0,0,0,0,0,0,0,0,0,0,0,0,0,0,0,0,0,0,0,0,0,0,0,0,0,0,0,0,0,0,0,0,0,0,0,0,0],"sum_hessian":[3.3127825E5,2.1087772E5,1.2040054E5,1.08501E5,1.0237672E5,4.8733316E4,7.166722E4,3.1758883E4,7.674212E4,7.2815195E4,2.9561523E4,4.331961E4,5.413707E3,4.9426887E4,2.2240334E4,2.5443209E4,6.315674E3,7.3619984E4,3.12213E3,4.91224E4,2.3692799E4,1.6463248E4,1.3098277E4,4.5277524E3,3.8791855E4,5.6765366E1,5.356942E3,2.3101688E4,2.6325197E4,7.397176E3,1.4843158E4,1.7943988E4,7.4992217E3,2.6474739E3,3.6682002E3,4.641851E4,2.7201475E4,3.1105981E3,1.1531581E1,4.5993688E4,3.1287104E3,1.0964794E4,1.2728006E4,1.0481027E4,5.9822197E3,1.1921191E4,1.177085E3,1.821906E3,2.7058464E3,3.1890488E4,6.901369E3,3.2048481E3,2.1520938E3,2.3097338E4,4.3490024E0,1.1584903E4,1.4740294E4,6.8816606E3,5.155148E2],"tree_param":{"num_deleted":"0","num_feature":"19","num_nodes":"59","size_leaf_vector":"1"}},{"base_weights":[6.8659586E-4,-5.841656E-1,1.0581737E0,-2.0614322E-1,-9.877124E-1,9.1489154E-1,1.1574345E0,-9.795224E-1,1.1340849E-1,-6.1960496E-2,-8.3545E-1,1.1151567E0,-9.8610885E-2,1.1609133E0,-6.651982E-2,-1.0993084E0,-5.3985053E-1,6.1970586E-1,-2.2799732E-1,-5.9514254E-1,-1.1365305E0,-1.8074878E0,1.1792753E0,-1.5223446E0,1.2045052E0,1.1735178E0,1.1199957E0,-6.1895397E-2,-2.5528088E-2,-4.1274778E-3,-6.602802E-2,-7.136274E-2,5.0147522E-2,-7.326292E-2,7.621251E-3,-6.1996855E-2,-1.9491827E-2,-6.209585E-2,2.7913583E-2,-1.3393882E-1,-2.6334636E-3,6.0137953E-3,6.0531408E-2,-7.8989215E-2,-3.4091257E-2,6.396266E-2,3.2179922E-2,5.7919163E-2,5.956465E-2,-1.3792688E-1,5.6035746E-2],"categories":[],"categories_nodes":[],"categories_segments":[],"categories_sizes":[],"default_left":[0,0,0,0,0,0,0,0,0,0,0,0,0,0,0,0,0,0,0,0,0,0,0,0,0,0,0,0,0,0,0,0,0,0,0,0,0,0,0,0,0,0,0,0,0,0,0,0,0,0,0],"id":22,"left_children":[1,3,5,7,9,11,13,15,17,-1,19,21,23,25,-1,27,29,31,33,35,37,39,41,43,45,47,49,-1,-1,-1,-1,-1,-1,-1,-1,-1,-1,-1,-1,-1,-1,-1,-1,-1,-1,-1,-1,-1,-1,-1,-1],"loss_changes":[1.9980494E5,3.1732617E4,1.6351562E3,2.6543877E4,3.8517266E3,9.55732E3,5.8971875E2,1.6533223E3,1.3137569E4,0E0,4.5338086E3,7.370176E3,1.4417484E4,3.36875E1,0E0,2.0131562E3,2.4011348E3,2.401464E4,2.136656E4,4.6137666E3,4.969176E3,1.2909961E3,1.2773086E3,1.7821191E2,1.6929102E2,1.25625E1,4.7726562E1,0E0,0E0,0E0,0E0,0E0,0E0,0E0,0E0,0E0,0E0,0E0,0E0,0E0,0E0,0E0,0E0,0E0,0E0,0E0,0E0,0E0,0E0,0E0,0E0],"parents":[2147483647,0,0,1,1,2,2,3,3,4,4,5,5,6,6,7,7,8,8,10,10,11,11,12,12,13,13,15,15,16,16,17,17,18,18,19,19,20,20,21,21,22,22,23,23,24,24,25,25,26,26],"right_children":[2,4,6,8,10,12,14,16,18,-1,20,22,24,26,-1,28,30,32,34,36,38,40,42,44,46,48,50,-1,-1,-1,-1,-1,-1,-1,-1,-1,-1,-1,-1,-1,-1,-1,-1,-1,-1,-1,-1,-1,-1,-1,-1],"split_conditions":[1.4657288E0,-2.0200527E-1,2.254616E0,-1.1272409E0,4E0,3E0,8E0,1.1E1,6E0,-6.1960496E-2,1E1,1E0,1.3E1,7E0,-6.651982E-2,-1.2166035E0,-2.489941E-1,3E0,9E0,2.6366115E-1,1.300943E0,2.080992E0,1.5820434E0,6.56E2,1E0,5.74E2,-2.4431868E0,-6.1895397E-2,-2.5528088E-2,-4.1274778E-3,-6.602802E-2,-7.136274E-2,5.0147522E-2,-7.326292E-2,7.621251E-3,-6.1996855E-2,-1.9491827E-2,-6.209585E-2,2.7913583E-2,-1.3393882E-1,-2.6334636E-3,6.0137953E-3,6.0531408E-2,-7.8989215E-2,-3.4091257E-2,6.396266E-2,3.2179922E-2,5.7919163E-2,5.956465E-2,-1.3792688E-1,5.6035746E-2],"split_indices":[2,2,2,2,1,1,1,1,1,0,1,1,1,1,0,2,10,1,1,2,2,2,2,0,3,4,12,0,0,0,0,0,0,0,0,0,0,0,0,0,0,0,0,0,0,0,0,0,0,0,0],"split_type":[0,0,0,0,0,0,0,0,0,0,0,0,0,0,0,0,0,0,0,0,0,0,0,0,0,0,0,0,0,0,0,0,0,0,0,0,0,0,0,0,0,0,0,0,0,0,0,0,0,0,0],"sum_hessian":[3.230594E5,2.0801525E5,1.1504414E5,1.0740509E5,1.00610164E5,4.708603E4,6.795811E4,3.1402555E4,7.600254E4,3.793853E4,6.2671633E4,3.9317008E4,7.7690244E3,6.786374E4,9.4364204E1,2.4677746E4,6.724808E3,3.06091E4,4.539344E4,3.4855047E4,2.7816586E4,8.4345844E2,3.8473547E4,3.712607E3,4.0564175E3,5.186059E4,1.6003153E4,1.9974383E4,4.7033623E3,4.241471E3,2.483337E3,4.82664E3,2.5782459E4,1.0674272E4,3.4719168E4,8.416553E3,2.6438492E4,2.61884E4,1.6281853E3,5.632644E2,2.80194E2,1.1064388E3,3.736711E4,3.4742998E3,2.3830716E2,3.5782842E3,4.7813327E2,2.8046572E4,2.381402E4,2.2555752E0,1.6000897E4],"tree_param":{"num_deleted":"0","num_feature":"19","num_nodes":"51","size_leaf_vector":"1"}},{"base_weights":[-5.131853E-3,-5.7546175E-1,1.0526458E0,-7.8968656E-1,1.9725779E-1,1.0742229E0,4.9079853E-1,-1.5915619E-1,-9.8725426E-1,-1.3238399E0,2.6870927E-1,1.21345356E-1,1.0851482E0,-6.343498E-2,1.0585128E0,5.0532854E-1,-1.0876534E0,-8.169837E-1,-1.1125259E0,-1.3957304E0,-1.280824E0,3.6893487E-1,-6.2057453E-1,6.3334656E-1,-6.525416E-2,1.0101207E0,1.1679436E0,7.852227E-2,1.1674954E0,-8.041782E-2,3.6857426E-2,-6.263017E-2,2.8431728E-2,-5.6969535E-2,-2.7043257E-2,-5.6213837E-2,-2.3324773E-2,-6.519531E-2,-7.145065E-2,-6.279446E-2,-6.8405755E-2,2.5451062E-2,-9.887708E-3,-7.584793E-2,7.1780436E-2,-2.5020337E-2,5.0886787E-2,5.736197E-2,3.8737766E-2,5.389304E-2,5.90101E-2,2.9639473E-2,-1.1835736E-1,-9.1138326E-2,5.8589216E-2],"categories":[],"categories_nodes":[],"categories_segments":[],"categories_sizes":[],"default_left":[0,0,0,0,0,0,0,0,0,0,0,0,0,0,0,0,0,0,0,0,0,0,0,0,0,0,0,0,0,0,0,0,0,0,0,0,0,0,0,0,0,0,0,0,0,0,0,0,0,0,0,0,0,0,0],"id":23,"left_children":[1,3,5,7,9,11,13,15,17,19,21,23,25,-1,27,29,31,33,35,37,39,41,43,45,-1,47,49,51,53,-1,-1,-1,-1,-1,-1,-1,-1,-1,-1,-1,-1,-1,-1,-1,-1,-1,-1,-1,-1,-1,-1,-1,-1,-1,-1],"loss_changes":[1.8908928E5,3.3709414E4,1.3305391E3,1.986121E4,4.8044424E3,1.1006172E3,4.059358E3,2.346988E4,2.5885156E3,4.345703E0,3.7632295E3,8.770044E2,6.481875E2,0E0,3.2800684E2,1.0865679E4,4.335883E3,4.580551E3,5.3041406E2,3.717041E-1,1.0090332E0,3.0122993E3,7.884747E3,3.8553702E2,0E0,1.7692383E3,5.3601562E1,3.8943158E2,3.7591064E1,0E0,0E0,0E0,0E0,0E0,0E0,0E0,0E0,0E0,0E0,0E0,0E0,0E0,0E0,0E0,0E0,0E0,0E0,0E0,0E0,0E0,0E0,0E0,0E0,0E0,0E0],"parents":[2147483647,0,0,1,1,2,2,3,3,4,4,5,5,6,6,7,7,8,8,9,9,10,10,11,11,12,12,14,14,15,15,16,16,17,17,18,18,19,19,20,20,21,21,22,22,23,23,25,25,26,26,27,27,28,28],"right_children":[2,4,6,8,10,12,14,16,18,20,22,24,26,-1,28,30,32,34,36,38,40,42,44,46,-1,48,50,52,54,-1,-1,-1,-1,-1,-1,-1,-1,-1,-1,-1,-1,-1,-1,-1,-1,-1,-1,-1,-1,-1,-1,-1,-1,-1,-1],"split_conditions":[1.5126271E0,1.3489168E0,8E0,-1.2920247E0,3E0,1.5820434E0,1.3E1,-2.0200527E-1,-3.0518785E-1,-1.6434541E-1,1.3E1,2E0,1.3489168E0,-6.343498E-2,1.0554788E0,3E0,8E0,-1.0594612E0,1.4306931E0,-1.2319958E0,2.3845756E-1,3.6506003E-1,1.2217509E0,5.39E2,-6.525416E-2,2E0,2.080992E0,1.294741E-1,-1.5931835E0,-8.041782E-2,3.6857426E-2,-6.263017E-2,2.8431728E-2,-5.6969535E-2,-2.7043257E-2,-5.6213837E-2,-2.3324773E-2,-6.519531E-2,-7.145065E-2,-6.279446E-2,-6.8405755E-2,2.5451062E-2,-9.887708E-3,-7.584793E-2,7.1780436E-2,-2.5020337E-2,5.0886787E-2,5.736197E-2,3.8737766E-2,5.389304E-2,5.90101E-2,2.9639473E-2,-1.1835736E-1,-9.1138326E-2,5.8589216E-2],"split_indices":[2,15,1,15,1,2,1,2,2,2,1,1,15,0,15,1,1,2,2,2,14,2,2,4,0,1,2,16,10,0,0,0,0,0,0,0,0,0,0,0,0,0,0,0,0,0,0,0,0,0,0,0,0,0,0],"split_type":[0,0,0,0,0,0,0,0,0,0,0,0,0,0,0,0,0,0,0,0,0,0,0,0,0,0,0,0,0,0,0,0,0,0,0,0,0,0,0,0,0,0,0,0,0,0,0,0,0,0,0,0,0,0,0],"sum_hessian":[3.1343216E5,2.0363642E5,1.0979573E5,1.5943536E5,4.420106E4,1.0573421E5,4.0615159E3,3.803853E4,1.21396836E5,1.9823431E3,4.221872E4,1.1986962E3,1.04535516E5,9.9048944E2,3.0710264E3,2.2171686E4,1.5866846E4,5.1459742E4,6.993709E4,7.303297E2,1.2520134E3,3.794299E4,4.2757305E3,8.8249133E2,3.1620477E2,5.48473E4,4.9688215E4,3.075154E2,2.763511E3,2.1907708E3,1.9980914E4,1.4430003E4,1.436843E3,2.373855E4,2.7721191E4,6.8686984E4,1.2501049E3,2.049803E2,5.253494E2,9.858049E2,2.662086E2,3.0422582E4,7.5204043E3,2.9778237E3,1.2979067E3,2.2336778E2,6.5912354E2,3.465449E4,2.0192809E4,5.9622607E3,4.3725953E4,2.5471286E2,5.280255E1,3.3507366E0,2.7601602E3],"tree_param":{"num_deleted":"0","num_feature":"19","num_nodes":"55","size_leaf_vector":"1"}},{"base_weights":[3.885699E-3,-5.529497E-1,1.0275618E0,-1.9173735E-1,-9.397892E-1,8.8198996E-1,1.1292692E0,-8.599739E-1,1.5686661E-1,-6.061509E-2,-7.809658E-1,1.085454E0,-1.5619625E-1,1.1326401E0,-6.443866E-2,-1.0418227E0,-4.8741236E-1,2.6037493E-1,-1.5242965E0,-5.2474445E-1,-1.1128939E0,-1.8955986E0,1.1514485E0,-1.4955806E0,1.1242137E0,1.108225E0,1.1534728E0,-6.0891252E-2,-2.2660013E-2,1.6368581E-2,-5.755746E-2,-6.908876E-2,1.8639365E-2,-7.1046695E-2,-8.155964E-2,-4.782485E-2,-8.8909445E-3,-5.982998E-2,4.3988377E-2,-1.285529E-1,-1.6694168E-2,-3.703453E-2,5.840496E-2,-7.768663E-2,-3.2847714E-2,5.9840113E-2,1.1666836E-2,5.2874982E-2,5.767786E-2,5.8935393E-2,5.6771155E-2],"categories":[],"categories_nodes":[],"categories_segments":[],"categories_sizes":[],"default_left":[0,0,0,0,0,0,0,0,0,0,0,0,0,0,0,0,0,0,0,0,0,0,0,0,0,0,0,0,0,0,0,0,0,0,0,0,0,0,0,0,0,0,0,0,0,0,0,0,0,0,0],"id":24,"left_children":[1,3,5,7,9,11,13,15,17,-1,19,21,23,25,-1,27,29,31,33,35,37,39,41,43,45,47,49,-1,-1,-1,-1,-1,-1,-1,-1,-1,-1,-1,-1,-1,-1,-1,-1,-1,-1,-1,-1,-1,-1,-1,-1],"loss_changes":[1.7485622E5,2.776177E4,1.599125E3,2.393459E4,4.151328E3,9.390777E3,5.200078E2,2.3859297E3,1.1750154E4,0E0,5.1545117E3,7.3150117E3,1.249637E4,3.1039062E1,0E0,2.4516094E3,6.249662E3,1.1742138E4,4.0953125E1,5.1240635E3,4.405373E3,8.4879395E2,1.1466172E3,1.726543E2,2.4063477E2,6.609766E1,1.4265625E1,0E0,0E0,0E0,0E0,0E0,0E0,0E0,0E0,0E0,0E0,0E0,0E0,0E0,0E0,0E0,0E0,0E0,0E0,0E0,0E0,0E0,0E0,0E0,0E0],"parents":[2147483647,0,0,1,1,2,2,3,3,4,4,5,5,6,6,7,7,8,8,10,10,11,11,12,12,13,13,15,15,16,16,17,17,18,18,19,19,20,20,21,21,22,22,23,23,24,24,25,25,26,26],"right_children":[2,4,6,8,10,12,14,16,18,-1,20,22,24,26,-1,28,30,32,34,36,38,40,42,44,46,48,50,-1,-1,-1,-1,-1,-1,-1,-1,-1,-1,-1,-1,-1,-1,-1,-1,-1,-1,-1,-1,-1,-1,-1,-1],"split_conditions":[1.4657288E0,-2.216944E-1,2.254616E0,-1.0594612E0,4E0,3E0,8E0,-1.2319958E0,1.3E1,-6.061509E-2,1E1,1E0,1.3E1,1E0,-6.443866E-2,1.1E1,6E0,3E0,-5.2056086E-1,8E0,1.3753115E0,2.080992E0,1.5126271E0,6.56E2,2.958979E-1,2.3845756E-1,-2.5951487E-1,-6.0891252E-2,-2.2660013E-2,1.6368581E-2,-5.755746E-2,-6.908876E-2,1.8639365E-2,-7.1046695E-2,-8.155964E-2,-4.782485E-2,-8.8909445E-3,-5.982998E-2,4.3988377E-2,-1.285529E-1,-1.6694168E-2,-3.703453E-2,5.840496E-2,-7.768663E-2,-3.2847714E-2,5.9840113E-2,1.1666836E-2,5.2874982E-2,5.767786E-2,5.8935393E-2,5.6771155E-2],"split_indices":[2,2,2,2,1,1,1,2,1,0,1,1,1,3,0,1,1,1,2,1,2,2,2,0,14,14,10,0,0,0,0,0,0,0,0,0,0,0,0,0,0,0,0,0,0,0,0,0,0,0,0],"split_type":[0,0,0,0,0,0,0,0,0,0,0,0,0,0,0,0,0,0,0,0,0,0,0,0,0,0,0,0,0,0,0,0,0,0,0,0,0,0,0,0,0,0,0,0,0,0,0,0,0,0,0],"sum_hessian":[3.06753E5,1.986801E5,1.0807291E5,1.0274406E5,9.593604E4,4.445503E4,6.3617875E4,3.5223297E4,6.7520766E4,3.5322426E4,6.0613617E4,3.7170332E4,7.284698E3,6.3529844E4,8.803292E1,2.366871E4,1.1554586E4,6.3605453E4,3.9153086E3,3.420937E4,2.6404248E4,8.044536E2,3.636588E4,3.560274E3,3.7244246E3,2.9274818E4,3.4255023E4,1.8219791E4,5.4489185E3,5.187306E3,6.3672793E3,4.0743896E3,5.9531066E4,1.9978209E3,1.9174877E3,1.5240567E4,1.8968803E4,2.5340184E4,1.0640643E3,5.6111774E2,2.4333589E2,3.168467E2,3.6049035E4,3.328609E3,2.3166512E2,3.4435046E3,2.8091974E2,1.3827076E4,1.5447742E4,1.4257456E4,1.9997566E4],"tree_param":{"num_deleted":"0","num_feature":"19","num_nodes":"51","size_leaf_vector":"1"}},{"base_weights":[3.570946E-3,-5.2379817E-1,1.0214335E0,-7.5250345E-1,2.4823315E-1,8.8385594E-1,1.1143185E0,-1.5254728E-1,-9.3939E-1,-1.2859242E0,3.1393808E-1,1.0862099E0,-2.5334692E-1,1.117816E0,-6.349119E-2,4.7495157E-1,-1.0519255E0,-9.558196E-1,5.784123E-1,-6.742324E-2,-1.2481514E0,3.9669994E-1,-4.1018856E-1,-1.591834E0,1.1523485E0,-1.4727865E0,1.0452123E0,1.0454919E0,1.1589895E0,3.670646E-2,-7.142813E-2,-6.120291E-2,2.7793396E-2,-4.016739E-2,-5.4171097E-2,5.18579E-2,-6.27481E-2,-6.1299246E-2,-6.616443E-2,2.164376E-2,-8.5744046E-2,-7.271665E-2,7.181421E-2,-1.2531559E-1,-1.8393955E-3,1.6132247E-2,5.8416303E-2,-4.377056E-2,-7.575109E-2,2.9920507E-2,5.8392968E-2,5.695479E-2,4.8335824E-2,5.721575E-2,5.843533E-2],"categories":[],"categories_nodes":[],"categories_segments":[],"categories_sizes":[],"default_left":[0,0,0,0,0,0,0,0,0,0,0,0,0,0,0,0,0,0,0,0,0,0,0,0,0,0,0,0,0,0,0,0,0,0,0,0,0,0,0,0,0,0,0,0,0,0,0,0,0,0,0,0,0,0,0],"id":25,"left_children":[1,3,5,7,9,11,13,15,17,19,21,23,25,27,-1,29,31,33,35,-1,37,39,41,43,45,47,49,51,53,-1,-1,-1,-1,-1,-1,-1,-1,-1,-1,-1,-1,-1,-1,-1,-1,-1,-1,-1,-1,-1,-1,-1,-1,-1,-1],"loss_changes":[1.6012753E5,3.4695348E4,1.3000234E3,1.699682E4,4.5271836E3,9.443705E3,5.0816406E2,2.0320957E4,2.8828984E3,2.6745605E0,2.5810059E3,6.172492E3,9.819231E3,1.7949219E2,0E0,1.0464722E4,4.0960166E3,2.2238828E3,1.0428563E3,0E0,3.1518555E-1,2.9529238E3,8.519063E3,1.1945408E3,4.5033594E2,7.935498E1,1.638706E2,1.6129883E2,4.171875E0,0E0,0E0,0E0,0E0,0E0,0E0,0E0,0E0,0E0,0E0,0E0,0E0,0E0,0E0,0E0,0E0,0E0,0E0,0E0,0E0,0E0,0E0,0E0,0E0,0E0,0E0],"parents":[2147483647,0,0,1,1,2,2,3,3,4,4,5,5,6,6,7,7,8,8,9,9,10,10,11,11,12,12,13,13,15,15,16,16,17,17,18,18,20,20,21,21,22,22,23,23,24,24,25,25,26,26,27,27,28,28],"right_children":[2,4,6,8,10,12,14,16,18,20,22,24,26,28,-1,30,32,34,36,-1,38,40,42,44,46,48,50,52,54,-1,-1,-1,-1,-1,-1,-1,-1,-1,-1,-1,-1,-1,-1,-1,-1,-1,-1,-1,-1,-1,-1,-1,-1,-1,-1],"split_conditions":[1.5126271E0,1.3489168E0,2.254616E0,-1.2920247E0,3E0,3E0,8E0,-2.0200527E-1,8.89E2,-1.6434541E-1,1.3E1,1E0,1.3E1,1.3489168E0,-6.349119E-2,6E0,8E0,-2.216944E-1,-3.27371E-1,-6.742324E-2,2.3845756E-1,1.1528139E0,1.2217509E0,2.080992E0,1.5820434E0,-1.5854627E0,1.3489168E0,-1.2920247E0,1.810172E-1,3.670646E-2,-7.142813E-2,-6.120291E-2,2.7793396E-2,-4.016739E-2,-5.4171097E-2,5.18579E-2,-6.27481E-2,-6.1299246E-2,-6.616443E-2,2.164376E-2,-8.5744046E-2,-7.271665E-2,7.181421E-2,-1.2531559E-1,-1.8393955E-3,1.6132247E-2,5.8416303E-2,-4.377056E-2,-7.575109E-2,2.9920507E-2,5.8392968E-2,5.695479E-2,4.8335824E-2,5.721575E-2,5.843533E-2],"split_indices":[2,15,2,15,1,1,1,2,7,2,1,1,1,15,0,1,1,2,2,0,14,2,2,2,2,15,15,15,14,0,0,0,0,0,0,0,0,0,0,0,0,0,0,0,0,0,0,0,0,0,0,0,0,0,0],"split_type":[0,0,0,0,0,0,0,0,0,0,0,0,0,0,0,0,0,0,0,0,0,0,0,0,0,0,0,0,0,0,0,0,0,0,0,0,0,0,0,0,0,0,0,0,0,0,0,0,0,0,0,0,0,0,0],"sum_hessian":[2.983042E5,1.9649684E5,1.01807336E5,1.5159008E5,4.490677E4,4.1036406E4,6.0770926E4,3.6005273E4,1.155848E5,1.8435187E3,4.3063254E4,3.483747E4,6.198938E3,6.0682438E4,8.8489204E1,2.1208508E4,1.4796767E4,1.1434741E5,1.2373944E3,6.811074E2,1.1624111E3,3.86467E4,4.416554E3,8.390751E2,3.3998395E4,3.19679E3,3.0021477E3,2.202337E4,3.8659066E4,1.8667414E4,2.541093E3,1.33660205E4,1.4307463E3,5.210022E4,6.2247184E4,9.900892E2,2.4730519E2,9.1097656E2,2.5143463E2,3.7996543E4,6.501557E2,2.8213486E3,1.5952056E3,5.2797595E2,3.1109912E2,6.4273486E2,3.335566E4,2.1252788E2,2.9842622E3,6.478638E2,2.354284E3,1.005829E4,1.196508E4,1.5448227E4,2.3210842E4],"tree_param":{"num_deleted":"0","num_feature":"19","num_nodes":"55","size_leaf_vector":"1"}},{"base_weights":[-6.7992467E-3,-5.4342085E-1,1.0014516E0,-2.0780873E-1,-9.166854E-1,8.6223567E-1,1.1011926E0,-9.4412845E-1,8.4036015E-2,-5.9433986E-2,-7.6073855E-1,1.0556144E0,-7.792803E-2,1.104456E0,-6.257131E-2,-1.0602593E0,-5.650033E-1,1.7636032E-1,-1.4558206E0,-4.9746358E-1,-1.1125299E0,-1.4825816E0,1.122344E0,-1.4246641E0,1.1288699E0,1.0798905E0,1.1340157E0,-6.04566E-2,-2.7595097E-2,8.711337E-3,-5.6338638E-2,-6.786322E-2,1.41889695E-2,-6.863827E-2,-7.705918E-2,-5.7725824E-2,-1.4791441E-2,-5.9421748E-2,3.7018146E-2,-1.1345606E-1,2.4748276E-4,9.802765E-4,5.7767954E-2,-7.416772E-2,-2.9359361E-2,6.0296606E-2,2.7098252E-2,5.2180525E-2,5.5654433E-2,5.5748444E-2,5.7821073E-2],"categories":[],"categories_nodes":[],"categories_segments":[],"categories_sizes":[],"default_left":[0,0,0,0,0,0,0,0,0,0,0,0,0,0,0,0,0,0,0,0,0,0,0,0,0,0,0,0,0,0,0,0,0,0,0,0,0,0,0,0,0,0,0,0,0,0,0,0,0,0,0],"id":26,"left_children":[1,3,5,7,9,11,13,15,17,-1,19,21,23,25,-1,27,29,31,33,35,37,39,41,43,45,47,49,-1,-1,-1,-1,-1,-1,-1,-1,-1,-1,-1,-1,-1,-1,-1,-1,-1,-1,-1,-1,-1,-1,-1,-1],"loss_changes":[1.5635038E5,2.362593E4,1.3928438E3,2.1340754E4,3.7864844E3,7.6182676E3,4.5034375E2,1.2405137E3,1.0111291E4,0E0,5.2559336E3,5.8880664E3,1.162101E4,4.11875E1,0E0,1.6323613E3,2.7460464E3,1.1054334E4,2.640625E1,4.3005034E3,3.4174844E3,1.0421514E3,1.2328789E3,1.6522363E2,1.699082E2,3.7273438E1,1.00078125E1,0E0,0E0,0E0,0E0,0E0,0E0,0E0,0E0,0E0,0E0,0E0,0E0,0E0,0E0,0E0,0E0,0E0,0E0,0E0,0E0,0E0,0E0,0E0,0E0],"parents":[2147483647,0,0,1,1,2,2,3,3,4,4,5,5,6,6,7,7,8,8,10,10,11,11,12,12,13,13,15,15,16,16,17,17,18,18,19,19,20,20,21,21,22,22,23,23,24,24,25,25,26,26],"right_children":[2,4,6,8,10,12,14,16,18,-1,20,22,24,26,-1,28,30,32,34,36,38,40,42,44,46,48,50,-1,-1,-1,-1,-1,-1,-1,-1,-1,-1,-1,-1,-1,-1,-1,-1,-1,-1,-1,-1,-1,-1,-1,-1],"split_conditions":[1.4657288E0,-2.0200527E-1,2.254616E0,-1.1272409E0,4E0,3E0,8E0,-1.2488335E0,1.3E1,-5.9433986E-2,1E1,1E0,1.3E1,5.74E2,-6.257131E-2,1.1E1,6E0,3E0,-5.2056086E-1,2.6366115E-1,1.3753115E0,2.080992E0,1.5820434E0,6.56E2,1E0,1E0,7.94E2,-6.04566E-2,-2.7595097E-2,8.711337E-3,-5.6338638E-2,-6.786322E-2,1.41889695E-2,-6.863827E-2,-7.705918E-2,-5.7725824E-2,-1.4791441E-2,-5.9421748E-2,3.7018146E-2,-1.1345606E-1,2.4748276E-4,9.802765E-4,5.7767954E-2,-7.416772E-2,-2.9359361E-2,6.0296606E-2,2.7098252E-2,5.2180525E-2,5.5654433E-2,5.5748444E-2,5.7821073E-2],"split_indices":[2,2,2,2,1,1,1,2,1,0,1,1,1,4,0,1,1,1,2,2,2,2,2,0,3,3,7,0,0,0,0,0,0,0,0,0,0,0,0,0,0,0,0,0,0,0,0,0,0,0,0],"split_type":[0,0,0,0,0,0,0,0,0,0,0,0,0,0,0,0,0,0,0,0,0,0,0,0,0,0,0,0,0,0,0,0,0,0,0,0,0,0,0,0,0,0,0,0,0,0,0,0,0,0,0],"sum_hessian":[2.8897425E5,1.8859744E5,1.00376805E5,9.930828E4,8.9289164E4,4.1901438E4,5.8475363E4,2.8188047E4,7.1120234E4,3.253563E4,5.6753535E4,3.4753086E4,7.148352E3,5.839489E4,8.0471535E1,2.1576951E4,6.6110957E3,6.709815E4,4.0220803E3,3.2461953E4,2.4291582E4,8.897167E2,3.386337E4,3.3782195E3,3.7701323E3,3.1911996E4,2.6482895E4,1.6688379E4,4.888572E3,2.8549583E3,3.7561372E3,4.3913335E3,6.2706816E4,2.0472582E3,1.974822E3,7.621521E3,2.4840434E4,2.3335967E4,9.5561615E2,5.816441E2,3.080726E2,9.84416E2,3.2878953E4,3.1562578E3,2.219616E2,3.331626E3,4.3850647E2,1.5263736E4,1.664826E4,1.434189E4,1.2141006E4],"tree_param":{"num_deleted":"0","num_feature":"19","num_nodes":"51","size_leaf_vector":"1"}},{"base_weights":[-3.2209612E-3,-5.1613337E-1,9.981712E-1,-7.342891E-1,2.1567458E-1,8.943379E-1,1.1149572E0,-1.1541933E-1,-9.329611E-1,