{"learner":{"attributes":{"scikit_learn":"{\"_estimator_type\": \"classifier\"}"},"feature_names":["merchant","category","amt","gender","street","city","state","zip","lat","long","city_pop","job","merch_lat","merch_long","age","trans_hour","trans_day","trans_month","trans_dayofweek"],"feature_types":["int","int","float","int","int","int","int","int","float","float","float","int","float","float","float","float","float","float","float"],"gradient_booster":{"model":{"gbtree_model_param":{"num_parallel_tree":"1","num_trees":"500"},"iteration_indptr":[0,1,2,3,4,5,6,7,8,9,10,11,12,13,14,15,16,17,18,19,20,21,22,23,24,25,26,27,28,29,30,31,32,33,34,35,36,37,38,39,40,41,42,43,44,45,46,47,48,49,50,51,52,53,54,55,56,57,58,59,60,61,62,63,64,65,66,67,68,69,70,71,72,73,74,75,76,77,78,79,80,81,82,83,84,85,86,87,88,89,90,91,92,93,94,95,96,97,98,99,100,101,102,103,104,105,106,107,108,109,110,111,112,113,114,115,116,117,118,119,120,121,122,123,124,125,126,127,128,129,130,131,132,133,134,135,136,137,138,139,140,141,142,143,144,145,146,147,148,149,150,151,152,153,154,155,156,157,158,159,160,161,162,163,164,165,166,167,168,169,170,171,172,173,174,175,176,177,178,179,180,181,182,183,184,185,186,187,188,189,190,191,192,193,194,195,196,197,198,199,200,201,202,203,204,205,206,207,208,209,210,211,212,213,214,215,216,217,218,219,220,221,222,223,224,225,226,227,228,229,230,231,232,233,234,235,236,237,238,239,240,241,242,243,244,245,246,247,248,249,250,251,252,253,254,255,256,257,258,259,260,261,262,263,264,265,266,267,268,269,270,271,272,273,274,275,276,277,278,279,280,281,282,283,284,285,286,287,288,289,290,291,292,293,294,295,296,297,298,299,300,301,302,303,304,305,306,307,308,309,310,311,312,313,314,315,316,317,318,319,320,321,322,323,324,325,326,327,328,329,330,331,332,333,334,335,336,337,338,339,340,341,342,343,344,345,346,347,348,349,350,351,352,353,354,355,356,357,358,359,360,361,362,363,364,365,366,367,368,369,370,371,372,373,374,375,376,377,378,379,380,381,382,383,384,385,386,387,388,389,390,391,392,393,394,395,396,397,398,399,400,401,402,403,404,405,406,407,408,409,410,411,412,413,414,415,416,417,418,419,420,421,422,423,424,425,426,427,428,429,430,431,432,433,434,435,436,437,438,439,440,441,442,443,444,445,446,447,448,449,450,451,452,453,454,455,456,457,458,459,460,461,462,463,464,465,466,467,468,469,470,471,472,473,474,475,476,477,478,479,480,481,482,483,484,485,486,487,488,489,490,491,492,493,494,495,496,497,498,499,500],"tree_info":[0,0,0,0,0,0,0,0,0,0,0,0,0,0,0,0,0,0,0,0,0,0,0,0,0,0,0,0,0,0,0,0,0,0,0,0,0,0,0,0,0,0,0,0,0,0,0,0,0,0,0,0,0,0,0,0,0,0,0,0,0,0,0,0,0,0,0,0,0,0,0,0,0,0,0,0,0,0,0,0,0,0,0,0,0,0,0,0,0,0,0,0,0,0,0,0,0,0,0,0,0,0,0,0,0,0,0,0,0,0,0,0,0,0,0,0,0,0,0,0,0,0,0,0,0,0,0,0,0,0,0,0,0,0,0,0,0,0,0,0,0,0,0,0,0,0,0,0,0,0,0,0,0,0,0,0,0,0,0,0,0,0,0,0,0,0,0,0,0,0,0,0,0,0,0,0,0,0,0,0,0,0,0,0,0,0,0,0,0,0,0,0,0,0,0,0,0,0,0,0,0,0,0,0,0,0,0,0,0,0,0,0,0,0,0,0,0,0,0,0,0,0,0,0,0,0,0,0,0,0,0,0,0,0,0,0,0,0,0,0,0,0,0,0,0,0,0,0,0,0,0,0,0,0,0,0,0,0,0,0,0,0,0,0,0,0,0,0,0,0,0,0,0,0,0,0,0,0,0,0,0,0,0,0,0,0,0,0,0,0,0,0,0,0,0,0,0,0,0,0,0,0,0,0,0,0,0,0,0,0,0,0,0,0,0,0,0,0,0,0,0,0,0,0,0,0,0,0,0,0,0,0,0,0,0,0,0,0,0,0,0,0,0,0,0,0,0,0,0,0,0,0,0,0,0,0,0,0,0,0,0,0,0,0,0,0,0,0,0,0,0,0,0,0,0,0,0,0,0,0,0,0,0,0,0,0,0,0,0,0,0,0,0,0,0,0,0,0,0,0,0,0,0,0,0,0,0,0,0,0,0,0,0,0,0,0,0,0,0,0,0,0,0,0,0,0,0,0,0,0,0,0,0,0,0,0,0,0,0,0,0,0,0,0,0,0,0,0,0,0,0,0,0,0,0,0,0,0,0,0,0,0,0,0,0,0,0,0,0,0,0,0,0,0,0,0,0,0,0,0,0,0,0,0,0,0,0,0,0,0,0,0,0,0,0,0,0,0,0,0],"trees":[{"base_weights":[2.998229E-3,-1.1796181E0,1.8552294E0,-5.1587975E-1,-1.7552893E0,7.297859E-1,1.8730824E0,-1.7374831E0,1.2022463E-1,-1.8712279E0,-1.4021357E0,-6.171327E-1,1.5162289E0,1.7640593E0,1.9626657E0,-1.8820238E0,-1.181758E0,1.01663E0,-6.306397E-1,-1.7304373E0,-1.9694033E0,-1.8157535E0,-7.928436E-1,-1.2452766E0,5.7899356E-1,1.6813539E0,4.8955783E-1,1.9256449E0,1.6359034E0,1.974299E0,1.9298451E0,-9.80723E-2,-5.9648573E-2,7.6792955E-2,-7.011207E-2,-9.998374E-2,7.7627495E-2,-9.999232E-2,-6.525478E-3,-9.6922524E-2,-6.071779E-2,-9.94963E-2,-8.766818E-2,-9.9993475E-2,-7.258404E-2,4.4464182E-2,-5.263243E-2,-7.514242E-2,7.194441E-2,5.427727E-2,-9.83871E-2,4.9155332E-2,8.94514E-2,-9.8507464E-2,6.751859E-2,7.603785E-2,9.98653E-2,5.667284E-2,9.1732875E-2,9.941029E-2,9.810155E-2,9.838971E-2,9.331739E-2],"categories":[],"categories_nodes":[],"categories_segments":[],"categories_sizes":[],"default_left":[0,0,0,0,0,0,0,0,0,0,0,0,0,0,0,0,0,0,0,0,0,0,0,0,0,0,0,0,0,0,0,0,0,0,0,0,0,0,0,0,0,0,0,0,0,0,0,0,0,0,0,0,0,0,0,0,0,0,0,0,0,0,0],"id":0,"left_children":[1,3,5,7,9,11,13,15,17,19,21,23,25,27,29,31,33,35,37,39,41,43,45,47,49,51,53,55,57,59,61,-1,-1,-1,-1,-1,-1,-1,-1,-1,-1,-1,-1,-1,-1,-1,-1,-1,-1,-1,-1,-1,-1,-1,-1,-1,-1,-1,-1,-1,-1,-1,-1],"loss_changes":[1.050546E6,1.1184131E5,3.7536875E3,1.0564717E5,6.4154688E3,3.093997E3,1.7933125E3,3.7371719E3,6.0176426E4,1.62775E3,9.763156E3,8.100134E2,3.117627E2,1.7154688E3,3.475E1,2.0193828E3,5.7613594E3,6.5879766E4,3.3315766E4,5.2030938E3,3.0471875E2,1.5440703E3,6.848671E3,4.9065698E2,4.814782E2,1.17629395E2,5.465621E2,1.0618594E3,4.620578E3,8.78125E0,6.0117188E1,0E0,0E0,0E0,0E0,0E0,0E0,0E0,0E0,0E0,0E0,0E0,0E0,0E0,0E0,0E0,0E0,0E0,0E0,0E0,0E0,0E0,0E0,0E0,0E0,0E0,0E0,0E0,0E0,0E0,0E0,0E0,0E0],"parents":[2147483647,0,0,1,1,2,2,3,3,4,4,5,5,6,6,7,7,8,8,9,9,10,10,11,11,12,12,13,13,14,14,15,15,16,16,17,17,18,18,19,19,20,20,21,21,22,22,23,23,24,24,25,25,26,26,27,27,28,28,29,29,30,30],"right_children":[2,4,6,8,10,12,14,16,18,20,22,24,26,28,30,32,34,36,38,40,42,44,46,48,50,52,54,56,58,60,62,-1,-1,-1,-1,-1,-1,-1,-1,-1,-1,-1,-1,-1,-1,-1,-1,-1,-1,-1,-1,-1,-1,-1,-1,-1,-1,-1,-1,-1,-1,-1,-1],"split_conditions":[1.4996458E0,-2.1867889E-1,1.5628484E0,-1.1243356E0,8.678819E-1,9E0,2.3922172E0,1.1E1,6E0,3.6036405E-1,8E0,5.8309966E-1,2.3845756E-1,2E0,7E0,-1.1835693E0,3.47E2,3E0,9E0,2.662436E-1,8.12988E-1,3E0,3.42E2,4.5E1,6E0,1.2E1,2.4772E-2,1E0,8E0,3E0,2.597751E0,-9.80723E-2,-5.9648573E-2,7.6792955E-2,-7.011207E-2,-9.998374E-2,7.7627495E-2,-9.999232E-2,-6.525478E-3,-9.6922524E-2,-6.071779E-2,-9.94963E-2,-8.766818E-2,-9.9993475E-2,-7.258404E-2,4.4464182E-2,-5.263243E-2,-7.514242E-2,7.194441E-2,5.427727E-2,-9.83871E-2,4.9155332E-2,8.94514E-2,-9.8507464E-2,6.751859E-2,7.603785E-2,9.98653E-2,5.667284E-2,9.1732875E-2,9.941029E-2,9.810155E-2,9.838971E-2,9.331739E-2],"split_indices":[2,2,2,2,2,1,2,1,1,2,1,14,14,1,1,2,0,1,1,2,2,1,0,6,1,1,10,1,1,1,2,0,0,0,0,0,0,0,0,0,0,0,0,0,0,0,0,0,0,0,0,0,0,0,0,0,0,0,0,0,0,0,0],"split_type":[0,0,0,0,0,0,0,0,0,0,0,0,0,0,0,0,0,0,0,0,0,0,0,0,0,0,0,0,0,0,0,0,0,0,0,0,0,0,0,0,0,0,0,0,0,0,0,0,0,0,0,0,0,0,0,0,0,0,0,0,0,0,0],"sum_hessian":[4.7959447E5,2.9270678E5,1.8688767E5,1.3595502E5,1.5675177E5,2.9189802E3,1.839687E5,4.6552254E4,8.9402766E4,1.18006516E5,3.874525E4,1.0761329E3,1.8428473E3,8.299018E4,1.0097852E5,3.6941586E4,9.610667E3,4.0751723E4,4.8651047E4,4.8488758E4,6.951776E4,2.3077273E4,1.5667977E4,7.0556537E2,3.7056763E2,1.5869689E3,2.5587842E2,3.6701273E4,4.6288902E4,7.450952E4,2.6468996E4,3.3122008E4,3.819579E3,7.207637E2,8.889903E3,6.14775E3,3.4603973E4,1.30155E4,3.5635547E4,3.455726E4,1.3931496E4,6.347938E4,6.038383E3,1.53235E4,7.753773E3,2.095845E3,1.3572132E4,6.441892E2,6.137614E1,3.0956763E2,6.1E1,2.1337842E2,1.3735905E3,6.6E1,1.8987842E2,5.522292E3,3.1178982E4,1.3122408E4,3.3166496E4,3.4846746E4,3.966278E4,1.6548727E4,9.920269E3],"tree_param":{"num_deleted":"0","num_feature":"19","num_nodes":"63","size_leaf_vector":"1"}},{"base_weights":[-1.2069118E-3,-1.1322768E0,1.7648734E0,-4.9847916E-1,-1.680872E0,6.4148283E-1,1.7818531E0,-1.6621448E0,1.0648947E-1,-1.8140167E0,-6.989249E-1,-5.223739E-1,1.4837444E0,1.6887254E0,1.8811393E0,-1.8000437E0,-1.126673E0,9.680101E-1,-6.201844E-1,-1.8177493E0,1.262702E0,-1.2295427E0,2.8210863E-1,-1.107184E0,5.520593E-1,7.281998E-1,1.8173324E0,1.8618959E0,1.4316254E0,1.833385E0,1.8969266E0,-9.310221E-2,-5.0673127E-2,1.76263E-2,-7.267223E-2,-9.522706E-2,7.3858544E-2,-7.0389144E-2,4.413357E-2,-9.290115E-2,-8.326386E-2,1.03176035E-1,-9.295385E-2,-8.390679E-2,-2.7306963E-2,-9.507566E-2,2.2563336E-2,-8.003599E-2,6.065624E-2,5.603967E-2,-9.4436206E-2,5.714481E-3,8.075496E-2,9.13875E-2,-7.734049E-2,8.8289134E-2,9.366962E-2,5.49765E-2,8.778602E-2,-9.6094385E-2,9.1777384E-2,9.412151E-2,9.536071E-2],"categories":[],"categories_nodes":[],"categories_segments":[],"categories_sizes":[],"default_left":[0,0,0,0,0,0,0,0,0,0,0,0,0,0,0,0,0,0,0,0,0,0,0,0,0,0,0,0,0,0,0,0,0,0,0,0,0,0,0,0,0,0,0,0,0,0,0,0,0,0,0,0,0,0,0,0,0,0,0,0,0,0,0],"id":1,"left_children":[1,3,5,7,9,11,13,15,17,19,21,23,25,27,29,31,33,35,37,39,41,43,45,47,49,51,53,55,57,59,61,-1,-1,-1,-1,-1,-1,-1,-1,-1,-1,-1,-1,-1,-1,-1,-1,-1,-1,-1,-1,-1,-1,-1,-1,-1,-1,-1,-1,-1,-1,-1,-1],"loss_changes":[9.551118E5,1.0134272E5,3.5595E3,9.520295E4,2.0425219E4,2.7269004E3,1.697125E3,3.4136875E3,5.570488E4,1.5822188E3,9.712115E3,7.347177E2,4.0538477E2,4.222375E3,6.3625E1,1.7919609E3,4.580711E3,5.9547906E4,5.71324E4,8.4071875E2,4.2206436E2,3.7110293E3,2.4201426E3,8.686834E2,5.74664E2,2.6982877E2,4.203589E1,5.934375E1,4.1092812E3,1.8335156E2,6.390625E0,0E0,0E0,0E0,0E0,0E0,0E0,0E0,0E0,0E0,0E0,0E0,0E0,0E0,0E0,0E0,0E0,0E0,0E0,0E0,0E0,0E0,0E0,0E0,0E0,0E0,0E0,0E0,0E0,0E0,0E0,0E0,0E0],"parents":[2147483647,0,0,1,1,2,2,3,3,4,4,5,5,6,6,7,7,8,8,9,9,10,10,11,11,12,12,13,13,14,14,15,15,16,16,17,17,18,18,19,19,20,20,21,21,22,22,23,23,24,24,25,25,26,26,27,27,28,28,29,29,30,30],"right_children":[2,4,6,8,10,12,14,16,18,20,22,24,26,28,30,32,34,36,38,40,42,44,46,48,50,52,54,56,58,60,62,-1,-1,-1,-1,-1,-1,-1,-1,-1,-1,-1,-1,-1,-1,-1,-1,-1,-1,-1,-1,-1,-1,-1,-1,-1,-1,-1,-1,-1,-1,-1,-1],"split_conditions":[1.4996458E0,-2.1867889E-1,1.5628484E0,-1.1243356E0,1.3489168E0,1E1,1.3489168E0,-1.2465672E0,6E0,4.9E1,8.396895E-1,5.8309966E-1,1.3489168E0,-1.2920247E0,2.148941E0,1.3587095E0,-1.2920247E0,3E0,1.3489168E0,9.083035E-1,4.52E2,1.810172E-1,3E0,7.79E2,5E0,4E1,1.1358929E0,1E0,2.3922172E0,1E0,1.810172E-1,-9.310221E-2,-5.0673127E-2,1.76263E-2,-7.267223E-2,-9.522706E-2,7.3858544E-2,-7.0389144E-2,4.413357E-2,-9.290115E-2,-8.326386E-2,1.03176035E-1,-9.295385E-2,-8.390679E-2,-2.7306963E-2,-9.507566E-2,2.2563336E-2,-8.003599E-2,6.065624E-2,5.603967E-2,-9.4436206E-2,5.714481E-3,8.075496E-2,9.13875E-2,-7.734049E-2,8.8289134E-2,9.366962E-2,5.49765E-2,8.778602E-2,-9.6094385E-2,9.1777384E-2,9.412151E-2,9.536071E-2],"split_indices":[2,2,2,2,15,1,15,2,1,6,2,14,15,15,2,15,15,1,15,2,5,14,1,7,1,6,9,1,2,1,14,0,0,0,0,0,0,0,0,0,0,0,0,0,0,0,0,0,0,0,0,0,0,0,0,0,0,0,0,0,0,0,0],"split_type":[0,0,0,0,0,0,0,0,0,0,0,0,0,0,0,0,0,0,0,0,0,0,0,0,0,0,0,0,0,0,0,0,0,0,0,0,0,0,0,0,0,0,0,0,0,0,0,0,0,0,0,0,0,0,0,0,0,0,0,0,0,0,0],"sum_hessian":[4.7813712E5,2.914689E5,1.8666822E5,1.3523381E5,1.562351E5,2.7799895E3,1.8388823E5,4.6256688E4,8.897713E4,1.375795E5,1.8655605E4,1.167328E3,1.6126616E3,9.4896195E4,8.899204E4,3.6781945E4,9.474742E3,4.071108E4,4.826605E4,1.374132E5,1.662927E2,1.2106976E4,6.5486304E3,7.5587665E2,4.114514E2,4.9491348E2,1.1177482E3,5.669969E4,3.81965E4,2.2139783E4,6.685225E4,3.4093254E4,2.6886907E3,1.7143422E3,7.7603994E3,6.1291694E3,3.458191E4,3.1669268E4,1.6596785E4,1.0869224E5,2.8720957E4,1.3261298E2,3.367973E1,7.3082856E3,4.7986895E3,4.700913E2,6.078539E3,6.2355493E2,1.3232167E2,3.3413452E2,7.731685E1,2.931349E2,2.0177858E2,1.1147528E3,2.9953756E0,6.074065E3,5.062563E4,1.8867574E4,1.9328926E4,1.223231E1,2.212755E4,2.7825865E4,3.9026387E4],"tree_param":{"num_deleted":"0","num_feature":"19","num_nodes":"63","size_leaf_vector":"1"}},{"base_weights":[1.9373384E-3,-1.0775892E0,1.6885091E0,-4.6860906E-1,-1.5973556E0,6.282956E-1,1.7049004E0,-1.5951174E0,1.22332156E-1,-1.7286273E0,-6.445612E-1,-5.636437E-1,1.4385335E0,1.6034399E0,1.7885915E0,-1.7323858E0,-1.0703973E0,9.312557E-1,-5.5414194E-1,-1.7365178E0,-1.8745147E-1,-1.0868546E0,2.2568035E-1,-1.0251793E0,1.5877724E0,7.412752E-1,1.750406E0,1.6853548E0,1.385171E0,1.7492241E0,9.084051E-2,-9.0612166E-2,-6.344073E-2,7.92678E-2,-6.610491E-2,-9.1117844E-2,7.083294E-2,-6.515704E-2,4.2737816E-2,-8.697521E-2,1.0545242E-1,1.0640832E-1,-7.9493776E-2,-2.9063975E-2,-8.6528145E-2,-4.5485016E-2,2.553465E-2,-7.770366E-2,-1.7227487E-3,8.68062E-2,-8.5852206E-2,9.388093E-2,1.2027501E-2,8.805815E-2,-8.04936E-2,-1.0706063E-1,8.533986E-2,4.4734504E-2,8.1701085E-2,9.0383045E-2,8.415868E-2],"categories":[],"categories_nodes":[],"categories_segments":[],"categories_sizes":[],"default_left":[0,0,0,0,0,0,0,0,0,0,0,0,0,0,0,0,0,0,0,0,0,0,0,0,0,0,0,0,0,0,0,0,0,0,0,0,0,0,0,0,0,0,0,0,0,0,0,0,0,0,0,0,0,0,0,0,0,0,0,0,0],"id":2,"left_children":[1,3,5,7,9,11,13,15,17,19,21,23,25,27,29,31,33,35,37,39,41,43,45,47,49,51,53,55,57,59,-1,-1,-1,-1,-1,-1,-1,-1,-1,-1,-1,-1,-1,-1,-1,-1,-1,-1,-1,-1,-1,-1,-1,-1,-1,-1,-1,-1,-1,-1,-1],"loss_changes":[8.669262E5,9.189444E4,3.22825E3,8.899741E4,1.9589938E4,2.7346694E3,1.5510625E3,3.311414E3,4.7986164E4,1.67375E3,7.301351E3,1.139835E3,3.6522827E2,1.4767656E3,1.0825E2,1.3474297E3,6.3798887E3,5.3381598E4,5.039571E4,1.5765938E3,2.2842625E3,4.0920527E3,2.0691763E3,4.9481024E2,1.0244049E2,2.9693106E2,4.4904785E1,4.938797E3,2.754629E3,1.5864844E2,0E0,0E0,0E0,0E0,0E0,0E0,0E0,0E0,0E0,0E0,0E0,0E0,0E0,0E0,0E0,0E0,0E0,0E0,0E0,0E0,0E0,0E0,0E0,0E0,0E0,0E0,0E0,0E0,0E0,0E0,0E0],"parents":[2147483647,0,0,1,1,2,2,3,3,4,4,5,5,6,6,7,7,8,8,9,9,10,10,11,11,12,12,13,13,14,14,15,15,16,16,17,17,18,18,19,19,20,20,21,21,22,22,23,23,24,24,25,25,26,26,27,27,28,28,29,29],"right_children":[2,4,6,8,10,12,14,16,18,20,22,24,26,28,30,32,34,36,38,40,42,44,46,48,50,52,54,56,58,60,-1,-1,-1,-1,-1,-1,-1,-1,-1,-1,-1,-1,-1,-1,-1,-1,-1,-1,-1,-1,-1,-1,-1,-1,-1,-1,-1,-1,-1,-1,-1],"split_conditions":[1.4996458E0,-2.3849232E-1,1.5628484E0,-1.1243356E0,1.3489168E0,1E1,2.3922172E0,1.1E1,6E0,9.01E2,8.396895E-1,4.36E2,1.3489168E0,1.8620601E0,1.3489168E0,-1.2144294E0,3.47E2,3E0,1.3489168E0,8.9E2,8.38E2,3.6036405E-1,8E0,5.48E2,5E0,-5.584299E-1,6.08E2,1E0,2.148941E0,-1.2920247E0,9.084051E-2,-9.0612166E-2,-6.344073E-2,7.92678E-2,-6.610491E-2,-9.1117844E-2,7.083294E-2,-6.515704E-2,4.2737816E-2,-8.697521E-2,1.0545242E-1,1.0640832E-1,-7.9493776E-2,-2.9063975E-2,-8.6528145E-2,-4.5485016E-2,2.553465E-2,-7.770366E-2,-1.7227487E-3,8.68062E-2,-8.5852206E-2,9.388093E-2,1.2027501E-2,8.805815E-2,-8.04936E-2,-1.0706063E-1,8.533986E-2,4.4734504E-2,8.1701085E-2,9.0383045E-2,8.415868E-2],"split_indices":[2,2,2,2,15,1,2,1,1,4,2,11,15,2,15,2,0,1,15,7,7,2,1,5,1,15,0,1,2,15,0,0,0,0,0,0,0,0,0,0,0,0,0,0,0,0,0,0,0,0,0,0,0,0,0,0,0,0,0,0,0],"split_type":[0,0,0,0,0,0,0,0,0,0,0,0,0,0,0,0,0,0,0,0,0,0,0,0,0,0,0,0,0,0,0,0,0,0,0,0,0,0,0,0,0,0,0,0,0,0,0,0,0,0,0,0,0,0,0,0,0,0,0,0,0],"sum_hessian":[4.7614825E5,2.9032188E5,1.8582639E5,1.3368862E5,1.5663325E5,2.829801E3,1.829966E5,4.5999086E4,8.768954E4,1.376655E5,1.8967738E4,1.1452826E3,1.6845184E3,8.272618E4,1.0027041E5,3.6459004E4,9.540082E3,3.9935062E4,4.7754477E4,1.3696416E5,7.0135394E2,1.2575892E4,6.391846E3,9.43418E2,2.0186462E2,5.2164496E2,1.1628734E3,6.0146766E4,2.2579416E4,4.1891453E4,5.837895E4,3.1098832E4,5.3601733E3,8.25435E2,8.714646E3,5.984307E3,3.3950754E4,3.1179107E4,1.657537E4,1.3685842E5,1.05731255E2,2.6435147E2,4.3700244E2,7.0447646E3,5.531127E3,1.2821326E3,5.109714E3,6.146964E2,3.2872162E2,1.9364658E2,8.218034E0,1.5871289E2,3.6293207E2,1.1596371E3,3.236369E0,3.3460526E2,5.981216E4,7.6015215E3,1.4977894E4,2.2212783E4,1.967867E4],"tree_param":{"num_deleted":"0","num_feature":"19","num_nodes":"61","size_leaf_vector":"1"}},{"base_weights":[6.928026E-3,-1.0275936E0,1.620637E0,-4.4829056E-1,-1.533411E0,6.330829E-1,1.6361597E0,-1.5243334E0,1.0504595E-1,-1.6403545E0,-1.2402191E0,8.808729E-1,-1.0786073E0,1.5365752E0,1.7177895E0,-1.6193215E0,-9.088958E-1,1.7961059E-2,1.7461472E0,-1.5033888E0,-1.740432E0,-1.2708313E0,1.288046E0,2.7877802E-1,1.2329248E0,7.886756E-1,-1.5511692E0,1.6140187E0,1.3356457E0,1.7320863E0,1.6943521E0,-8.188321E-2,-3.7331637E-2,-4.9917918E-2,8.396918E-2,-1.1606677E-2,2.3996549E-2,8.832034E-2,-8.970084E-2,-8.550709E-2,-4.9813915E-2,-8.754557E-2,-7.87551E-2,-7.6454155E-2,-5.057728E-2,9.957456E-2,1.2837465E-2,-4.3127127E-2,5.819692E-2,7.060228E-2,2.1829268E-2,-8.76103E-2,7.4254714E-2,-9.3782306E-2,3.2620267E-3,7.29902E-2,8.245926E-2,4.050533E-2,7.886457E-2,8.671881E-2,8.464146E-2,8.506981E-2,7.804418E-2],"categories":[],"categories_nodes":[],"categories_segments":[],"categories_sizes":[],"default_left":[0,0,0,0,0,0,0,0,0,0,0,0,0,0,0,0,0,0,0,0,0,0,0,0,0,0,0,0,0,0,0,0,0,0,0,0,0,0,0,0,0,0,0,0,0,0,0,0,0,0,0,0,0,0,0,0,0,0,0,0,0,0,0],"id":3,"left_children":[1,3,5,7,9,11,13,15,17,19,21,23,25,27,29,31,33,35,37,39,41,43,45,47,49,51,53,55,57,59,61,-1,-1,-1,-1,-1,-1,-1,-1,-1,-1,-1,-1,-1,-1,-1,-1,-1,-1,-1,-1,-1,-1,-1,-1,-1,-1,-1,-1,-1,-1,-1,-1],"loss_changes":[7.903869E5,8.453572E4,2.8341562E3,8.00727E4,4.8271875E3,1.2155884E3,1.4775938E3,2.6683672E3,1.2692695E4,1.5442812E3,3.187871E3,5.3003906E2,3.2117804E2,1.2743438E3,3.05625E1,6.320703E2,1.4161602E3,9.744279E3,3.241494E2,4.9944375E3,1.10203125E2,2.7221719E3,3.5713824E2,9.350029E2,2.2456445E2,1.333577E2,1.5206647E2,3.1867188E2,2.8976836E3,2.65625E0,3.3023438E1,0E0,0E0,0E0,0E0,0E0,0E0,0E0,0E0,0E0,0E0,0E0,0E0,0E0,0E0,0E0,0E0,0E0,0E0,0E0,0E0,0E0,0E0,0E0,0E0,0E0,0E0,0E0,0E0,0E0,0E0,0E0,0E0],"parents":[2147483647,0,0,1,1,2,2,3,3,4,4,5,5,6,6,7,7,8,8,9,9,10,10,11,11,12,12,13,13,14,14,15,15,16,16,17,17,18,18,19,19,20,20,21,21,22,22,23,23,24,24,25,25,26,26,27,27,28,28,29,29,30,30],"right_children":[2,4,6,8,10,12,14,16,18,20,22,24,26,28,30,32,34,36,38,40,42,44,46,48,50,52,54,56,58,60,62,-1,-1,-1,-1,-1,-1,-1,-1,-1,-1,-1,-1,-1,-1,-1,-1,-1,-1,-1,-1,-1,-1,-1,-1,-1,-1,-1,-1,-1,-1,-1,-1],"split_conditions":[1.4996458E0,-2.1867889E-1,1.5628484E0,-1.1243356E0,8.396895E-1,8.315247E-1,2.3922172E0,-1.1983142E0,9.01E2,3.6036405E-1,9.01E2,3.62E2,-1.3124319E0,1.8620601E0,2.597751E0,8.04E2,8.27E2,-4.8965728E-1,1.7712481E0,2.662436E-1,8.046582E-1,2.85E2,8.38E2,1E0,1.810172E-1,7.2868866E-1,1.2130479E0,1.6475271E0,2.148941E0,1.4154743E0,1.4154743E0,-8.188321E-2,-3.7331637E-2,-4.9917918E-2,8.396918E-2,-1.1606677E-2,2.3996549E-2,8.832034E-2,-8.970084E-2,-8.550709E-2,-4.9813915E-2,-8.754557E-2,-7.87551E-2,-7.6454155E-2,-5.057728E-2,9.957456E-2,1.2837465E-2,-4.3127127E-2,5.819692E-2,7.060228E-2,2.1829268E-2,-8.76103E-2,7.4254714E-2,-9.3782306E-2,3.2620267E-3,7.29902E-2,8.245926E-2,4.050533E-2,7.886457E-2,8.671881E-2,8.464146E-2,8.506981E-2,7.804418E-2],"split_indices":[2,2,2,2,2,17,2,2,4,2,4,0,14,2,2,5,5,2,12,2,2,0,7,3,14,9,12,2,2,17,17,0,0,0,0,0,0,0,0,0,0,0,0,0,0,0,0,0,0,0,0,0,0,0,0,0,0,0,0,0,0,0,0],"split_type":[0,0,0,0,0,0,0,0,0,0,0,0,0,0,0,0,0,0,0,0,0,0,0,0,0,0,0,0,0,0,0,0,0,0,0,0,0,0,0,0,0,0,0,0,0,0,0,0,0,0,0,0,0,0,0,0,0,0,0,0,0,0,0],"sum_hessian":[4.734489E5,2.8849803E5,1.8495086E5,1.3448119E5,1.5401684E5,2.8627698E3,1.820881E5,4.566916E4,8.881203E4,1.1284968E5,4.116716E4,2.5011765E3,3.6159326E2,8.203236E4,1.0005573E5,3.956151E4,6.10765E3,8.433767E4,4.4743604E3,4.765088E4,6.51988E4,4.0675164E4,4.919966E2,9.2352106E2,1.5776554E3,7.2893326E1,2.8869995E2,5.9205836E4,2.2826527E4,6.2101336E4,3.795439E4,3.8746246E4,8.152649E2,5.904189E3,2.0346101E2,5.4716527E4,2.9621146E4,4.4493984E3,2.4961702E1,3.384829E4,1.380259E4,6.1303465E4,3.8953381E3,2.0375762E4,2.0299404E4,2.919364E2,2.000602E2,4.0340222E2,5.2011884E2,1.2873241E3,2.9033136E2,1.53549185E1,5.7538406E1,2.4030159E2,4.8398357E1,1.1001944E4,4.820389E4,7.191207E3,1.563532E4,5.8637754E4,3.4635842E3,3.6040523E4,1.9138674E3],"tree_param":{"num_deleted":"0","num_feature":"19","num_nodes":"63","size_leaf_vector":"1"}},{"base_weights":[-6.2209656E-3,-9.9437153E-1,1.5578845E0,-4.356958E-1,-1.474991E0,5.8316964E-1,1.5730286E0,-1.4581856E0,9.877387E-2,-1.5655555E0,-1.196116E0,-5.1444656E-1,1.344644E0,1.4745554E0,1.654931E0,-1.5987604E0,-9.280502E-1,8.847471E-1,-5.632269E-1,-1.4307394E0,-1.662344E0,-1.5477598E0,-6.761904E-1,-1.3173596E0,3.8971335E-1,1.4406699E0,2.536537E-1,1.6139102E0,1.340491E0,1.6662747E0,1.6229525E0,-8.3705984E-2,-5.832243E-2,7.224713E-2,-5.5348415E-2,-8.7461226E-2,6.728917E-2,-9.04218E-2,-5.1298323E-3,-8.072848E-2,-4.606832E-2,-8.420619E-2,-7.187844E-2,-7.8640305E-2,2.7109852E-2,4.4267472E-2,-4.6948563E-2,-8.063587E-2,8.7067686E-2,-9.1490425E-2,3.6222015E-2,7.255136E-2,-8.184425E-2,4.6951782E-2,-9.629505E-2,6.053948E-2,8.365169E-2,2.7317837E-2,7.745028E-2,8.397399E-2,8.2748085E-2,8.29178E-2,7.828164E-2],"categories":[],"categories_nodes":[],"categories_segments":[],"categories_sizes":[],"default_left":[0,0,0,0,0,0,0,0,0,0,0,0,0,0,0,0,0,0,0,0,0,0,0,0,0,0,0,0,0,0,0,0,0,0,0,0,0,0,0,0,0,0,0,0,0,0,0,0,0,0,0,0,0,0,0,0,0,0,0,0,0,0,0],"id":4,"left_children":[1,3,5,7,9,11,13,15,17,19,21,23,25,27,29,31,33,35,37,39,41,43,45,47,49,51,53,55,57,59,61,-1,-1,-1,-1,-1,-1,-1,-1,-1,-1,-1,-1,-1,-1,-1,-1,-1,-1,-1,-1,-1,-1,-1,-1,-1,-1,-1,-1,-1,-1,-1,-1],"loss_changes":[7.198564E5,7.664006E4,2.660875E3,7.21354E4,3.8732812E3,2.3078682E3,1.4296562E3,3.3753281E3,4.5104816E4,1.5088438E3,6.8763867E3,8.2185004E2,1.7040332E2,1.5043125E3,3.24375E1,1.1647969E3,4.0347466E3,4.8130617E4,2.698959E4,4.5313203E3,3.2760938E2,1.1754414E3,6.2292876E3,5.4437646E2,3.9724182E2,5.0122803E1,2.0060567E2,9.401953E2,6.8054766E3,7.921875E0,4.8984375E1,0E0,0E0,0E0,0E0,0E0,0E0,0E0,0E0,0E0,0E0,0E0,0E0,0E0,0E0,0E0,0E0,0E0,0E0,0E0,0E0,0E0,0E0,0E0,0E0,0E0,0E0,0E0,0E0,0E0,0E0,0E0,0E0],"parents":[2147483647,0,0,1,1,2,2,3,3,4,4,5,5,6,6,7,7,8,8,9,9,10,10,11,11,12,12,13,13,14,14,15,15,16,16,17,17,18,18,19,19,20,20,21,21,22,22,23,23,24,24,25,25,26,26,27,27,28,28,29,29,30,30],"right_children":[2,4,6,8,10,12,14,16,18,20,22,24,26,28,30,32,34,36,38,40,42,44,46,48,50,52,54,56,58,60,62,-1,-1,-1,-1,-1,-1,-1,-1,-1,-1,-1,-1,-1,-1,-1,-1,-1,-1,-1,-1,-1,-1,-1,-1,-1,-1,-1,-1,-1,-1,-1,-1],"split_conditions":[1.4996458E0,-2.3849232E-1,1.5628484E0,-1.1243356E0,8.678819E-1,1E1,2.3922172E0,1.1E1,6E0,3.6036405E-1,8E0,5.68E2,8.315247E-1,4E0,7E0,-1.2144294E0,3.47E2,3E0,9E0,2.739398E-1,8.12988E-1,8.92E2,3.44E2,3.76E2,1.2E1,2.3063102E0,4.74E2,1E0,8E0,3E0,2.597751E0,-8.3705984E-2,-5.832243E-2,7.224713E-2,-5.5348415E-2,-8.7461226E-2,6.728917E-2,-9.04218E-2,-5.1298323E-3,-8.072848E-2,-4.606832E-2,-8.420619E-2,-7.187844E-2,-7.8640305E-2,2.7109852E-2,4.4267472E-2,-4.6948563E-2,-8.063587E-2,8.7067686E-2,-9.1490425E-2,3.6222015E-2,7.255136E-2,-8.184425E-2,4.6951782E-2,-9.629505E-2,6.053948E-2,8.365169E-2,2.7317837E-2,7.745028E-2,8.397399E-2,8.2748085E-2,8.29178E-2,7.828164E-2],"split_indices":[2,2,2,2,2,1,2,1,1,2,1,4,17,1,1,2,0,1,1,2,2,4,0,11,6,14,0,1,1,1,2,0,0,0,0,0,0,0,0,0,0,0,0,0,0,0,0,0,0,0,0,0,0,0,0,0,0,0,0,0,0,0,0],"split_type":[0,0,0,0,0,0,0,0,0,0,0,0,0,0,0,0,0,0,0,0,0,0,0,0,0,0,0,0,0,0,0,0,0,0,0,0,0,0,0,0,0,0,0,0,0,0,0,0,0,0,0,0,0,0,0,0,0,0,0,0,0,0,0],"sum_hessian":[4.6575206E5,2.8542822E5,1.8032384E5,1.3199644E5,1.534318E5,2.7594192E3,1.7756442E5,4.531086E4,8.6685586E4,1.1581599E5,3.7615797E4,1.1303773E3,1.6290417E3,8.0634625E4,9.69298E4,3.581252E4,9.49834E3,3.963172E4,4.7053863E4,4.8406598E4,6.74094E4,2.2438129E4,1.5177667E4,5.984681E2,5.3190924E2,1.4969626E3,1.3207909E2,3.9531785E4,4.110284E4,7.1511625E4,2.5418174E4,3.049402E4,5.3185015E3,6.65446E2,8.832894E3,5.903177E3,3.3728543E4,1.2705231E4,3.4348633E4,3.5568086E4,1.283851E4,6.144874E4,5.9606587E3,2.2172656E4,2.6547238E2,2.1858972E3,1.299177E4,5.461984E2,5.226966E1,6.911984E1,4.627894E2,1.4924684E3,4.494321E0,1.00914665E2,3.1164423E1,5.0590864E3,3.44727E4,8.548652E3,3.255419E4,3.2928375E4,3.8583246E4,1.569573E4,9.722443E3],"tree_param":{"num_deleted":"0","num_feature":"19","num_nodes":"63","size_leaf_vector":"1"}},{"base_weights":[-3.1447986E-3,-9.477413E-1,1.5025412E0,-1.1865326E0,1.9666532E-1,5.495135E-1,1.5173721E0,-2.2899675E-1,-1.4433433E0,6.2164664E-1,-5.210999E-1,-1.8648453E-1,1.4551963E0,1.4258212E0,1.6155002E0,8.322339E-1,-1.4200562E0,-1.4639977E0,7.2313637E-1,-9.576148E-1,9.5867395E-1,-9.143366E-1,2.4817643E-1,-6.5782547E-1,1.3109932E0,1.4818693E0,-8.692324E-2,1.5985303E0,1.1708541E0,1.5860854E0,1.6395571E0,-7.645589E-2,6.0758777E-2,-7.8233115E-2,-4.8736673E-2,-7.383203E-2,9.640841E-2,9.148524E-2,-1.4301513E-2,-7.363072E-2,8.75896E-3,2.8201431E-2,6.965327E-2,-6.867551E-2,-8.900439E-3,-7.7759825E-2,1.9540826E-2,4.066914E-2,-5.8312554E-2,7.0199236E-2,-8.600265E-2,7.704482E-2,3.0692512E-2,8.132993E-2,7.767476E-2,4.2147193E-2,7.433868E-2,7.638914E-2,8.0976464E-2,8.256213E-2,8.1721686E-2],"categories":[],"categories_nodes":[],"categories_segments":[],"categories_sizes":[],"default_left":[0,0,0,0,0,0,0,0,0,0,0,0,0,0,0,0,0,0,0,0,0,0,0,0,0,0,0,0,0,0,0,0,0,0,0,0,0,0,0,0,0,0,0,0,0,0,0,0,0,0,0,0,0,0,0,0,0,0,0,0,0],"id":5,"left_children":[1,3,5,7,9,11,13,15,17,19,21,23,25,27,29,31,33,35,37,39,41,43,45,47,49,51,-1,53,55,57,59,-1,-1,-1,-1,-1,-1,-1,-1,-1,-1,-1,-1,-1,-1,-1,-1,-1,-1,-1,-1,-1,-1,-1,-1,-1,-1,-1,-1,-1,-1],"loss_changes":[6.5415544E5,7.72358E4,2.5053438E3,5.7501625E4,1.488408E4,1.8124045E3,1.5661875E3,6.250963E4,8.251906E3,1.6313338E4,5.4896875E3,1.0600598E3,1.0640723E2,3.9758906E3,5.7015625E1,2.3650611E4,1.4990195E3,7.83575E3,1.9457697E3,3.14512E3,4.3292285E3,4.0598262E3,1.5797896E3,8.552102E2,1.0377106E2,6.1016113E1,0E0,6.5546875E1,3.7780625E3,7.149219E1,7.03125E-2,0E0,0E0,0E0,0E0,0E0,0E0,0E0,0E0,0E0,0E0,0E0,0E0,0E0,0E0,0E0,0E0,0E0,0E0,0E0,0E0,0E0,0E0,0E0,0E0,0E0,0E0,0E0,0E0,0E0,0E0],"parents":[2147483647,0,0,1,1,2,2,3,3,4,4,5,5,6,6,7,7,8,8,9,9,10,10,11,11,12,12,13,13,14,14,15,15,16,16,17,17,18,18,19,19,20,20,21,21,22,22,23,23,24,24,25,25,27,27,28,28,29,29,30,30],"right_children":[2,4,6,8,10,12,14,16,18,20,22,24,26,28,30,32,34,36,38,40,42,44,46,48,50,52,-1,54,56,58,60,-1,-1,-1,-1,-1,-1,-1,-1,-1,-1,-1,-1,-1,-1,-1,-1,-1,-1,-1,-1,-1,-1,-1,-1,-1,-1,-1,-1,-1,-1],"split_conditions":[1.4996458E0,1.3489168E0,1.5628484E0,-1.2920247E0,-2.1867889E-1,1.3489168E0,1.3489168E0,-1.9877177E-1,9.01E2,-1.1835693E0,8.396895E-1,4.04E2,1.4813975E0,-1.2920247E0,2.3845756E-1,-1.2297782E0,9.083035E-1,8.9E2,8.11E2,2.3845756E-1,-4.6405485E-1,2.3845756E-1,-1.1975513E0,-1.4387437E0,1.7574859E0,8.315247E-1,-8.692324E-2,2.3845756E-1,2.3922172E0,2.3922172E0,2.3922172E0,-7.645589E-2,6.0758777E-2,-7.8233115E-2,-4.8736673E-2,-7.383203E-2,9.640841E-2,9.148524E-2,-1.4301513E-2,-7.363072E-2,8.75896E-3,2.8201431E-2,6.965327E-2,-6.867551E-2,-8.900439E-3,-7.7759825E-2,1.9540826E-2,4.066914E-2,-5.8312554E-2,7.0199236E-2,-8.600265E-2,7.704482E-2,3.0692512E-2,8.132993E-2,7.767476E-2,4.2147193E-2,7.433868E-2,7.638914E-2,8.0976464E-2,8.256213E-2,8.1721686E-2],"split_indices":[2,15,2,15,2,15,15,2,4,2,2,11,16,15,14,2,2,7,7,14,2,14,14,15,10,17,0,14,2,2,2,0,0,0,0,0,0,0,0,0,0,0,0,0,0,0,0,0,0,0,0,0,0,0,0,0,0,0,0,0,0],"split_type":[0,0,0,0,0,0,0,0,0,0,0,0,0,0,0,0,0,0,0,0,0,0,0,0,0,0,0,0,0,0,0,0,0,0,0,0,0,0,0,0,0,0,0,0,0,0,0,0,0,0,0,0,0,0,0,0,0,0,0,0,0],"sum_hessian":[4.59937E5,2.8262912E5,1.7730786E5,2.3383683E5,4.8792312E4,2.71755E3,1.745903E5,4.9452324E4,1.843845E5,3.0646797E4,1.8145514E4,1.4996566E3,1.2178936E3,9.033019E4,8.426012E4,2.6151611E4,2.330071E4,1.8264356E5,1.7409414E3,5.389682E3,2.5257115E4,1.2007409E4,6.138105E3,1.1410609E3,3.5859567E2,1.2083376E3,9.555884E0,5.3848895E4,3.648129E4,3.7938887E4,4.6321234E4,3.6488057E3,2.2502805E4,1.7587234E4,5.7134785E3,1.8196594E5,6.776304E2,8.300092E2,9.1093225E2,3.7049905E3,1.6846917E3,1.3235209E4,1.2021906E4,7.395016E3,4.612393E3,4.491888E2,5.6889165E3,2.929025E2,8.4815845E2,3.4844238E2,1.0153289E1,1.1306744E3,7.766329E1,3.3151832E4,2.0697062E4,1.790273E4,1.8578559E4,1.3846646E4,2.4092242E4,1.4020962E4,3.230027E4],"tree_param":{"num_deleted":"0","num_feature":"19","num_nodes":"61","size_leaf_vector":"1"}},{"base_weights":[-3.1731397E-4,-9.125189E-1,1.4539133E0,-1.1433297E0,1.862408E-1,5.637347E-1,1.4684058E0,-1.9788754E-1,-1.4005286E0,5.8483183E-1,-4.728233E-1,-5.702397E-1,1.2217443E0,1.3773842E0,1.5647767E0,8.179923E-1,-1.3337197E0,-1.4195013E0,6.6897374E-1,-7.9657716E-1,9.366914E-1,-9.071808E-1,3.2017478E-1,-1.0332131E0,1.0796723E0,5.916573E-1,1.5416988E0,1.5476232E0,1.1291168E0,1.5252811E0,1.5778066E0,-6.3754104E-2,5.990112E-2,-7.344562E-2,3.950628E-2,-7.154014E-2,9.195678E-2,8.8721566E-2,-9.494054E-3,-7.047737E-2,9.8035075E-3,5.2053828E-2,-1.0612096E-1,-2.1468641E-2,-7.500334E-2,-4.376707E-2,2.9821876E-2,-6.1252326E-2,8.381984E-2,6.819578E-2,-8.967114E-2,8.4084764E-2,6.147268E-3,6.7904554E-2,7.905851E-2,7.237675E-2,7.798186E-2,4.105049E-2,7.185863E-2,-9.846082E-2,7.636922E-2,7.901197E-2,7.6948695E-2],"categories":[],"categories_nodes":[],"categories_segments":[],"categories_sizes":[],"default_left":[0,0,0,0,0,0,0,0,0,0,0,0,0,0,0,0,0,0,0,0,0,0,0,0,0,0,0,0,0,0,0,0,0,0,0,0,0,0,0,0,0,0,0,0,0,0,0,0,0,0,0,0,0,0,0,0,0,0,0,0,0,0,0],"id":6,"left_children":[1,3,5,7,9,11,13,15,17,19,21,23,25,27,29,31,33,35,37,39,41,43,45,47,49,51,53,55,57,59,61,-1,-1,-1,-1,-1,-1,-1,-1,-1,-1,-1,-1,-1,-1,-1,-1,-1,-1,-1,-1,-1,-1,-1,-1,-1,-1,-1,-1,-1,-1,-1,-1],"loss_changes":[6.0274144E5,7.081194E4,2.25875E3,5.6109906E4,1.2733953E4,2.0955007E3,1.5095938E3,5.694371E4,7.1234375E3,1.468258E4,6.292666E3,7.890862E2,3.5730298E2,3.7445469E3,4.0671875E1,2.072315E4,6.69109E3,6.6223438E3,1.5655718E3,3.7316165E3,7.689746E3,3.343085E3,2.1360215E3,4.2102484E2,1.8743768E2,3.063595E2,6.388672E0,6.0960938E1,3.421414E3,1.5584766E2,3.5E0,0E0,0E0,0E0,0E0,0E0,0E0,0E0,0E0,0E0,0E0,0E0,0E0,0E0,0E0,0E0,0E0,0E0,0E0,0E0,0E0,0E0,0E0,0E0,0E0,0E0,0E0,0E0,0E0,0E0,0E0,0E0,0E0],"parents":[2147483647,0,0,1,1,2,2,3,3,4,4,5,5,6,6,7,7,8,8,9,9,10,10,11,11,12,12,13,13,14,14,15,15,16,16,17,17,18,18,19,19,20,20,21,21,22,22,23,23,24,24,25,25,26,26,27,27,28,28,29,29,30,30],"right_children":[2,4,6,8,10,12,14,16,18,20,22,24,26,28,30,32,34,36,38,40,42,44,46,48,50,52,54,56,58,60,62,-1,-1,-1,-1,-1,-1,-1,-1,-1,-1,-1,-1,-1,-1,-1,-1,-1,-1,-1,-1,-1,-1,-1,-1,-1,-1,-1,-1,-1,-1,-1,-1],"split_conditions":[1.4996458E0,1.3489168E0,1.5628484E0,-1.2920247E0,-2.1867889E-1,9E0,1.3489168E0,-2.3849232E-1,9.01E2,-1.1243356E0,8.396895E-1,7.69E2,1.3489168E0,-1.2920247E0,2.148941E0,-1.1983142E0,8E0,8.9E2,8.11E2,1.1E1,1.3E1,3.6036405E-1,8E0,7.8E2,6E0,-5.584299E-1,-5.7614684E-1,1E0,2.3922172E0,1E0,1E1,-6.3754104E-2,5.990112E-2,-7.344562E-2,3.950628E-2,-7.154014E-2,9.195678E-2,8.8721566E-2,-9.494054E-3,-7.047737E-2,9.8035075E-3,5.2053828E-2,-1.0612096E-1,-2.1468641E-2,-7.500334E-2,-4.376707E-2,2.9821876E-2,-6.1252326E-2,8.381984E-2,6.819578E-2,-8.967114E-2,8.4084764E-2,6.147268E-3,6.7904554E-2,7.905851E-2,7.237675E-2,7.798186E-2,4.105049E-2,7.185863E-2,-9.846082E-2,7.636922E-2,7.901197E-2,7.6948695E-2],"split_indices":[2,15,2,15,2,1,15,2,4,2,2,7,15,15,2,2,1,7,7,1,1,2,1,4,1,15,8,1,2,1,1,0,0,0,0,0,0,0,0,0,0,0,0,0,0,0,0,0,0,0,0,0,0,0,0,0,0,0,0,0,0,0,0],"split_type":[0,0,0,0,0,0,0,0,0,0,0,0,0,0,0,0,0,0,0,0,0,0,0,0,0,0,0,0,0,0,0,0,0,0,0,0,0,0,0,0,0,0,0,0,0,0,0,0,0,0,0,0,0,0,0,0,0,0,0,0,0,0,0],"sum_hessian":[4.543652E5,2.7921878E5,1.751464E5,2.307469E5,4.8471863E4,2.8064236E3,1.7233998E5,4.934829E4,1.8139862E5,3.0204684E4,1.8267178E4,1.0305569E3,1.7758668E3,8.8637555E4,8.370243E4,2.604981E4,2.3298477E4,1.7975102E5,1.647609E3,6.1314004E3,2.4073283E4,1.1802385E4,6.4647925E3,8.050341E2,2.2552275E2,5.990352E2,1.1768315E3,5.2578684E4,3.605887E4,2.0793275E4,6.2909152E4,4.0025867E3,2.2047225E4,2.1904465E4,1.3940118E3,1.7913033E5,6.206834E2,7.199168E2,9.2769226E2,3.7903804E3,2.3410198E3,2.3279582E4,7.937025E2,6.5364067E3,5.265978E3,1.2130776E3,5.251715E3,7.523197E2,5.2714386E1,2.0569778E2,1.9824968E1,1.7935013E2,4.196851E2,2.1449202E2,9.6233954E2,5.647898E3,4.6930785E4,1.802977E4,1.8029102E4,1.1945461E1,2.078133E4,5.916295E4,3.746205E3],"tree_param":{"num_deleted":"0","num_feature":"19","num_nodes":"63","size_leaf_vector":"1"}},{"base_weights":[-8.026323E-4,-8.8618994E-1,1.4088975E0,-1.1130033E0,1.7991303E-1,5.5546254E-1,1.4229555E0,-2.1252145E-1,-1.3565716E0,5.556609E-1,-4.496428E-1,-5.195865E-1,1.2408707E0,1.3322419E0,1.519266E0,7.5683075E-1,-1.316305E0,-1.3754698E0,6.478868E-1,-8.7930954E-1,8.5682184E-1,-9.157278E-1,3.540204E-1,-1.2420102E0,4.079835E-1,7.108794E-1,1.5001645E0,1.5019523E0,1.0882851E0,1.4876579E0,1.5435866E0,-6.912183E-2,5.6373592E-2,-7.365783E-2,4.452637E-2,-6.930991E-2,9.0659924E-2,8.539932E-2,-1.2120767E-2,-7.176149E-2,8.686017E-3,4.7871422E-2,-9.950721E-2,-6.892063E-2,-1.1837407E-2,-8.234047E-2,2.4799766E-2,-7.5662024E-2,5.5902567E-2,6.2883206E-2,-6.8349303E-3,7.3080095E-3,7.1161136E-2,7.545339E-2,-8.312365E-2,7.652116E-2,7.26742E-2,3.9107077E-2,6.9617115E-2,7.093885E-2,7.628004E-2,7.7297635E-2,7.582406E-2],"categories":[],"categories_nodes":[],"categories_segments":[],"categories_sizes":[],"default_left":[0,0,0,0,0,0,0,0,0,0,0,0,0,0,0,0,0,0,0,0,0,0,0,0,0,0,0,0,0,0,0,0,0,0,0,0,0,0,0,0,0,0,0,0,0,0,0,0,0,0,0,0,0,0,0,0,0,0,0,0,0,0,0],"id":7,"left_children":[1,3,5,7,9,11,13,15,17,19,21,23,25,27,29,31,33,35,37,39,41,43,45,47,49,51,53,55,57,59,61,-1,-1,-1,-1,-1,-1,-1,-1,-1,-1,-1,-1,-1,-1,-1,-1,-1,-1,-1,-1,-1,-1,-1,-1,-1,-1,-1,-1,-1,-1,-1,-1],"loss_changes":[5.5816794E5,6.642039E4,2.0690312E3,4.9676906E4,1.1399311E4,2.0618823E3,1.4807812E3,5.1596652E4,6.7540938E3,1.3042128E4,6.747004E3,7.307943E2,2.3372876E2,3.6172969E3,6.0984375E1,2.0359469E4,7.806199E3,6.044125E3,1.572595E3,3.064977E3,7.146199E3,3.5811318E3,1.8791279E3,3.9402625E2,2.2135318E2,2.2634851E2,3.4788086E1,6.889844E1,3.3373164E3,9.146094E1,6.40625E-1,0E0,0E0,0E0,0E0,0E0,0E0,0E0,0E0,0E0,0E0,0E0,0E0,0E0,0E0,0E0,0E0,0E0,0E0,0E0,0E0,0E0,0E0,0E0,0E0,0E0,0E0,0E0,0E0,0E0,0E0,0E0,0E0],"parents":[2147483647,0,0,1,1,2,2,3,3,4,4,5,5,6,6,7,7,8,8,9,9,10,10,11,11,12,12,13,13,14,14,15,15,16,16,17,17,18,18,19,19,20,20,21,21,22,22,23,23,24,24,25,25,26,26,27,27,28,28,29,29,30,30],"right_children":[2,4,6,8,10,12,14,16,18,20,22,24,26,28,30,32,34,36,38,40,42,44,46,48,50,52,54,56,58,60,62,-1,-1,-1,-1,-1,-1,-1,-1,-1,-1,-1,-1,-1,-1,-1,-1,-1,-1,-1,-1,-1,-1,-1,-1,-1,-1,-1,-1,-1,-1,-1,-1],"split_conditions":[1.4996458E0,1.3489168E0,1.5628484E0,-1.2920247E0,-1.9877177E-1,1E1,1.3489168E0,-1.9877177E-1,9.01E2,-1.1835693E0,8.396895E-1,1E0,1.3489168E0,-1.2920247E0,1.810172E-1,-1.1983142E0,8E0,8.9E2,8.11E2,1.810172E-1,1.3E1,1.810172E-1,3E0,4.36E2,-1.4103066E0,4E1,1.1358929E0,2.3845756E-1,2.3922172E0,2.3922172E0,1.1E1,-6.912183E-2,5.6373592E-2,-7.365783E-2,4.452637E-2,-6.930991E-2,9.0659924E-2,8.539932E-2,-1.2120767E-2,-7.176149E-2,8.686017E-3,4.7871422E-2,-9.950721E-2,-6.892063E-2,-1.1837407E-2,-8.234047E-2,2.4799766E-2,-7.5662024E-2,5.5902567E-2,6.2883206E-2,-6.8349303E-3,7.3080095E-3,7.1161136E-2,7.545339E-2,-8.312365E-2,7.652116E-2,7.26742E-2,3.9107077E-2,6.9617115E-2,7.093885E-2,7.628004E-2,7.7297635E-2,7.582406E-2],"split_indices":[2,15,2,15,2,1,15,2,4,2,2,3,15,15,14,2,1,7,7,14,1,14,1,11,15,6,9,14,2,2,1,0,0,0,0,0,0,0,0,0,0,0,0,0,0,0,0,0,0,0,0,0,0,0,0,0,0,0,0,0,0,0,0],"split_type":[0,0,0,0,0,0,0,0,0,0,0,0,0,0,0,0,0,0,0,0,0,0,0,0,0,0,0,0,0,0,0,0,0,0,0,0,0,0,0,0,0,0,0,0,0,0,0,0,0,0,0,0,0,0,0,0,0,0,0,0,0,0,0],"sum_hessian":[4.4720112E5,2.7468234E5,1.7251877E5,2.2649542E5,4.8186934E4,2.7963735E3,1.697224E5,4.8221266E4,1.7827416E5,3.0176393E4,1.8010541E4,1.0888213E3,1.7075524E3,8.7408336E4,8.231406E4,2.567424E4,2.2547025E4,1.7660938E5,1.6647831E3,5.2342656E3,2.4942127E4,1.1399345E4,6.611197E3,6.119075E2,4.7691376E2,5.6218964E2,1.1453628E3,5.1545285E4,3.5863047E4,3.5821277E4,4.6492785E4,3.790942E3,2.1883299E4,2.1051139E4,1.495886E3,1.7601773E5,5.9164703E2,7.595062E2,9.0527686E2,3.4254983E3,1.8087673E3,2.4091443E4,8.506835E2,6.7788955E3,4.620449E3,4.3733307E2,6.173864E3,5.4915466E2,6.2752834E1,1.8578624E2,2.9112753E2,3.1426068E2,2.4792897E2,1.1426688E3,2.6939583E0,3.2452062E4,1.9093225E4,1.7871996E4,1.7991053E4,1.2737078E4,2.30842E4,4.2708633E4,3.784152E3],"tree_param":{"num_deleted":"0","num_feature":"19","num_nodes":"63","size_leaf_vector":"1"}},{"base_weights":[1.0099458E-3,-8.491911E-1,1.3686321E0,-3.5567582E-1,-1.2908103E0,5.6029934E-1,1.3824497E0,-1.3335594E0,7.20381E-2,-1.3958663E0,-1.0012962E0,-4.091957E-1,1.2057817E0,1.2835749E0,1.4642829E0,-1.4624184E0,-8.4750885E-1,7.863894E-1,-5.1093954E-1,-1.2635211E0,-1.4925277E0,-7.66755E-2,-6.6578126E-1,-1.2038379E0,4.9532467E-1,1.2789977E0,4.5338175E-1,1.4426193E0,1.1614649E0,1.491946E0,1.4496518E0,-7.472599E-2,-5.4935794E-2,6.8621196E-2,-4.9582954E-2,-8.128332E-2,6.1187446E-2,-8.306657E-2,-3.8250715E-3,-7.225717E-2,-3.3029493E-2,-7.553067E-2,-6.67612E-2,-3.8751755E-2,2.8661473E-2,-7.24797E-2,2.607119E-2,3.893811E-2,-8.343718E-2,4.164093E-2,6.700685E-2,-9.412911E-2,5.17886E-2,5.0589204E-2,7.5890005E-2,3.345129E-2,6.8179585E-2,7.4828476E-2,7.2372794E-2,6.287908E-2,7.278336E-2],"categories":[],"categories_nodes":[],"categories_segments":[],"categories_sizes":[],"default_left":[0,0,0,0,0,0,0,0,0,0,0,0,0,0,0,0,0,0,0,0,0,0,0,0,0,0,0,0,0,0,0,0,0,0,0,0,0,0,0,0,0,0,0,0,0,0,0,0,0,0,0,0,0,0,0,0,0,0,0,0,0],"id":8,"left_children":[1,3,5,7,9,11,13,15,17,19,21,23,25,27,29,31,33,35,37,39,41,-1,43,45,47,49,51,53,55,57,59,-1,-1,-1,-1,-1,-1,-1,-1,-1,-1,-1,-1,-1,-1,-1,-1,-1,-1,-1,-1,-1,-1,-1,-1,-1,-1,-1,-1,-1,-1],"loss_changes":[5.1105462E5,5.9069594E4,1.8811562E3,5.3535094E4,4.3490625E3,1.7736445E3,1.3385312E3,2.4381875E3,3.708485E4,1.3406875E3,6.800074E3,8.151316E2,9.313623E1,1.4553906E3,3.453125E1,3.5778906E2,2.613977E3,4.2216344E4,2.4505672E4,4.8506406E3,1.7051562E2,0E0,3.1629229E3,2.566573E2,3.2681018E2,4.116089E1,2.0929997E2,1.0537734E3,4.2239453E3,4.2734375E0,6.669531E1,0E0,0E0,0E0,0E0,0E0,0E0,0E0,0E0,0E0,0E0,0E0,0E0,0E0,0E0,0E0,0E0,0E0,0E0,0E0,0E0,0E0,0E0,0E0,0E0,0E0,0E0,0E0,0E0,0E0,0E0],"parents":[2147483647,0,0,1,1,2,2,3,3,4,4,5,5,6,6,7,7,8,8,9,9,10,10,11,11,12,12,13,13,14,14,15,15,16,16,17,17,18,18,19,19,20,20,22,22,23,23,24,24,25,25,26,26,27,27,28,28,29,29,30,30],"right_children":[2,4,6,8,10,12,14,16,18,20,22,24,26,28,30,32,34,36,38,40,42,-1,44,46,48,50,52,54,56,58,60,-1,-1,-1,-1,-1,-1,-1,-1,-1,-1,-1,-1,-1,-1,-1,-1,-1,-1,-1,-1,-1,-1,-1,-1,-1,-1,-1,-1,-1,-1],"split_conditions":[1.4996458E0,-2.1867889E-1,1.5628484E0,-1.168076E0,8.489477E-1,1E1,2.3922172E0,1.1E1,6E0,3.6036405E-1,3E0,1E0,8.315247E-1,2E0,3E0,-1.2144294E0,3.35E2,3E0,9E0,2.9066998E-1,7.880546E-1,-7.66755E-2,1.4235067E0,7.79E2,6.460577E-1,1.2E1,3.9355403E-1,1E0,8E0,2.597751E0,5E0,-7.472599E-2,-5.4935794E-2,6.8621196E-2,-4.9582954E-2,-8.128332E-2,6.1187446E-2,-8.306657E-2,-3.8250715E-3,-7.225717E-2,-3.3029493E-2,-7.553067E-2,-6.67612E-2,-3.8751755E-2,2.8661473E-2,-7.24797E-2,2.607119E-2,3.893811E-2,-8.343718E-2,4.164093E-2,6.700685E-2,-9.412911E-2,5.17886E-2,5.0589204E-2,7.5890005E-2,3.345129E-2,6.8179585E-2,7.4828476E-2,7.2372794E-2,6.287908E-2,7.278336E-2],"split_indices":[2,2,2,2,2,1,2,1,1,2,1,3,17,1,1,2,0,1,1,2,2,0,2,7,17,1,16,1,1,2,1,0,0,0,0,0,0,0,0,0,0,0,0,0,0,0,0,0,0,0,0,0,0,0,0,0,0,0,0,0,0],"split_type":[0,0,0,0,0,0,0,0,0,0,0,0,0,0,0,0,0,0,0,0,0,0,0,0,0,0,0,0,0,0,0,0,0,0,0,0,0,0,0,0,0,0,0,0,0,0,0,0,0,0,0,0,0,0,0,0,0,0,0,0,0],"sum_hessian":[4.3951894E5,2.7102988E5,1.6848908E5,1.2799527E5,1.4303461E5,2.8324517E3,1.6565662E5,3.894746E4,8.904781E4,1.0494824E5,3.8086367E4,1.132235E3,1.7002166E3,7.5024734E4,9.063188E4,3.0784129E4,8.163331E3,4.0015047E4,4.9032766E4,4.4303543E4,6.0644695E4,1.4725045E4,2.3361322E4,6.025499E2,5.2968506E2,1.5488029E3,1.5141368E2,3.2579795E4,4.244494E4,3.1317736E4,5.9314145E4,2.8284553E4,2.4995764E3,4.972403E2,7.666091E3,6.141532E3,3.3873516E4,1.3440229E4,3.5592535E4,3.404631E4,1.0257237E4,5.4383508E4,6.2611855E3,2.146863E4,1.8926914E3,5.275609E2,7.498899E1,4.6891E2,6.0775063E1,1.8841586E2,1.3603871E3,2.9770773E1,1.21642914E2,4.8426543E3,2.773714E4,1.2353229E4,3.0091715E4,2.8339932E4,2.9778047E3,1.8076014E3,5.7506543E4],"tree_param":{"num_deleted":"0","num_feature":"19","num_nodes":"61","size_leaf_vector":"1"}},{"base_weights":[2.4644372E-3,-8.1575227E-1,1.3308246E0,-1.0413748E0,2.1490255E-1,1.2290722E0,1.441673E0,-1.7938468E-1,-1.2761241E0,5.588337E-1,-3.7769213E-1,1.4185407E0,9.688773E-1,1.4098895E0,1.4686038E0,7.001053E-1,-1.1793332E0,-1.2964773E0,7.070784E-1,-6.755734E-1,8.5870373E-1,-7.5519687E-1,2.982486E-1,7.425938E-1,1.4243087E0,6.30856E-1,1.3190439E0,1.3300529E0,1.442881E0,1.332159E0,1.4695094E0,-5.990497E-2,5.178647E-2,-6.6915154E-2,4.3174275E-4,-6.5388806E-2,8.374289E-2,5.5839192E-2,-5.414244E-2,-6.0247965E-2,2.0084757E-2,2.4331963E-2,6.078772E-2,-1.2042705E-2,-7.112794E-2,-7.314589E-2,2.1405531E-2,-2.0108102E-2,6.632101E-2,7.270206E-2,6.875847E-2,3.618845E-2,-3.9402768E-2,6.704187E-2,3.3080637E-2,6.925791E-2,5.0431576E-2,6.9715284E-2,7.245838E-2,7.059368E-2,-9.211231E-2,7.404169E-2,7.321083E-2],"categories":[],"categories_nodes":[],"categories_segments":[],"categories_sizes":[],"default_left":[0,0,0,0,0,0,0,0,0,0,0,0,0,0,0,0,0,0,0,0,0,0,0,0,0,0,0,0,0,0,0,0,0,0,0,0,0,0,0,0,0,0,0,0,0,0,0,0,0,0,0,0,0,0,0,0,0,0,0,0,0,0,0],"id":9,"left_children":[1,3,5,7,9,11,13,15,17,19,21,23,25,27,29,31,33,35,37,39,41,43,45,47,49,51,53,55,57,59,61,-1,-1,-1,-1,-1,-1,-1,-1,-1,-1,-1,-1,-1,-1,-1,-1,-1,-1,-1,-1,-1,-1,-1,-1,-1,-1,-1,-1,-1,-1,-1,-1],"loss_changes":[4.6944525E5,6.215375E4,1.8551875E3,4.437136E4,9.783928E3,4.230742E3,6.5375E1,4.1278805E4,6.9575312E3,1.1244294E4,4.49877E3,1.9260156E2,4.2809805E3,9.3328125E1,3.3125E0,1.5911102E4,4.1480156E3,5.7294062E3,1.2856003E3,3.3864668E3,3.2460078E3,3.8826147E3,1.4456772E3,2.8281503E2,6.996875E1,2.4274785E3,2.5367578E2,1.86125E2,5.7851562E0,7.641565E1,3.671875E-1,0E0,0E0,0E0,0E0,0E0,0E0,0E0,0E0,0E0,0E0,0E0,0E0,0E0,0E0,0E0,0E0,0E0,0E0,0E0,0E0,0E0,0E0,0E0,0E0,0E0,0E0,0E0,0E0,0E0,0E0,0E0,0E0],"parents":[2147483647,0,0,1,1,2,2,3,3,4,4,5,5,6,6,7,7,8,8,9,9,10,10,11,11,12,12,13,13,14,14,15,15,16,16,17,17,18,18,19,19,20,20,21,21,22,22,23,23,24,24,25,25,26,26,27,27,28,28,29,29,30,30],"right_children":[2,4,6,8,10,12,14,16,18,20,22,24,26,28,30,32,34,36,38,40,42,44,46,48,50,52,54,56,58,60,62,-1,-1,-1,-1,-1,-1,-1,-1,-1,-1,-1,-1,-1,-1,-1,-1,-1,-1,-1,-1,-1,-1,-1,-1,-1,-1,-1,-1,-1,-1,-1,-1],"split_conditions":[1.4996458E0,1.3489168E0,1.3489168E0,-1.2920247E0,-1.9877177E-1,-1.2920247E0,2.3845756E-1,-1.7964861E-1,9.01E2,-1.1243356E0,8.396895E-1,1.5628484E0,2.3922172E0,2.148941E0,1.5628484E0,-1.1983142E0,3.47E2,8.9E2,1.156014E0,2.958979E-1,-4.8965728E-1,3.6036405E-1,-1.1975513E0,5.45E2,2.3845756E-1,1.4154743E0,1.4154743E0,1.8620601E0,2.3922172E0,5.232931E-1,2.3922172E0,-5.990497E-2,5.178647E-2,-6.6915154E-2,4.3174275E-4,-6.5388806E-2,8.374289E-2,5.5839192E-2,-5.414244E-2,-6.0247965E-2,2.0084757E-2,2.4331963E-2,6.078772E-2,-1.2042705E-2,-7.112794E-2,-7.314589E-2,2.1405531E-2,-2.0108102E-2,6.632101E-2,7.270206E-2,6.875847E-2,3.618845E-2,-3.9402768E-2,6.704187E-2,3.3080637E-2,6.925791E-2,5.0431576E-2,6.9715284E-2,7.245838E-2,7.059368E-2,-9.211231E-2,7.404169E-2,7.321083E-2],"split_indices":[2,15,15,15,2,15,14,2,4,2,2,2,2,2,2,2,0,7,8,14,2,2,14,5,14,17,17,2,2,17,2,0,0,0,0,0,0,0,0,0,0,0,0,0,0,0,0,0,0,0,0,0,0,0,0,0,0,0,0,0,0,0,0],"split_type":[0,0,0,0,0,0,0,0,0,0,0,0,0,0,0,0,0,0,0,0,0,0,0,0,0,0,0,0,0,0,0,0,0,0,0,0,0,0,0,0,0,0,0,0,0,0,0,0,0,0,0,0,0,0,0,0,0,0,0,0,0,0,0],"sum_hessian":[4.3191547E5,2.6728128E5,1.6463419E5,2.192786E5,4.8002684E4,8.584525E4,7.878893E4,4.6935406E4,1.7234319E5,3.037414E4,1.7628541E4,4.9671227E4,3.6174027E4,3.6162914E4,4.262601E4,2.4971975E4,2.1963432E4,1.7059277E5,1.7504196E3,5.936292E3,2.4437848E4,1.1311235E4,6.317306E3,4.2136307E2,4.9249863E4,1.8407639E4,1.7766389E4,1.058631E4,2.5576605E4,2.9070425E2,4.233531E4,3.751556E3,2.122042E4,1.9371127E4,2.5923054E3,1.699471E5,6.456792E2,1.4246909E3,3.257286E2,3.9802292E3,1.9560627E3,1.1968473E4,1.2469376E4,6.3887344E3,4.9225015E3,4.3312152E2,5.8841846E3,1.4241992E2,2.7894315E2,3.0666217E4,1.8583646E4,1.727681E4,1.1308281E3,1.7195336E4,5.710533E2,9.034162E3,1.5521469E3,2.9562961E3,2.262031E4,2.8412466E2,6.579602E0,1.3395356E4,2.8939951E4],"tree_param":{"num_deleted":"0","num_feature":"19","num_nodes":"63","size_leaf_vector":"1"}},{"base_weights":[-3.7496265E-3,-7.9997975E-1,1.2958053E0,-1.0133841E0,1.7707793E-1,1.1934304E0,1.407133E0,-1.8164138E-1,-1.2399199E0,5.109092E-1,-3.9281508E-1,1.3853207E0,9.303856E-1,1.3612696E0,1.4237962E0,6.901954E-1,-1.2062714E0,-1.032968E0,-1.3889675E0,-7.2745526E-1,8.0001014E-1,-1.3070396E0,-1.5806398E-1,8.432142E-1,1.3906044E0,6.257811E-1,1.2742083E0,-1.0279719E-1,1.3640031E0,1.4264513E0,1.385186E0,-6.1986256E-2,4.9306907E-2,-6.714797E-2,3.9181072E-2,-2.5296662E-2,-6.244429E-2,-6.955012E-2,5.6055006E-2,-6.4364985E-2,8.604912E-3,4.4919398E-2,-9.668526E-2,-3.9988235E-3,-7.222465E-2,5.85995E-2,-2.1728273E-2,-8.048918E-2,5.2133348E-2,6.362656E-2,7.021128E-2,3.6128547E-2,-5.202946E-2,6.478664E-2,3.660376E-2,6.880623E-2,5.0372448E-2,7.188721E-2,7.103198E-2,-1.5787674E-1,7.2032146E-2],"categories":[],"categories_nodes":[],"categories_segments":[],"categories_sizes":[],"default_left":[0,0,0,0,0,0,0,0,0,0,0,0,0,0,0,0,0,0,0,0,0,0,0,0,0,0,0,0,0,0,0,0,0,0,0,0,0,0,0,0,0,0,0,0,0,0,0,0,0,0,0,0,0,0,0,0,0,0,0,0,0],"id":10,"left_children":[1,3,5,7,9,11,13,15,17,19,21,23,25,27,29,31,33,35,37,39,41,43,45,47,49,51,53,-1,55,57,59,-1,-1,-1,-1,-1,-1,-1,-1,-1,-1,-1,-1,-1,-1,-1,-1,-1,-1,-1,-1,-1,-1,-1,-1,-1,-1,-1,-1,-1,-1],"loss_changes":[4.3624816E5,5.450964E4,1.8238438E3,4.042747E4,8.916083E3,4.2108438E3,5.6703125E1,4.1031004E4,5.2001562E3,1.0581072E4,3.715229E3,1.3703125E2,3.6858535E3,1.9401953E2,3.7890625E0,1.41748545E4,5.7443184E3,8.0340547E3,5.0223438E2,2.8174421E3,6.4455664E3,5.9643994E2,5.0668438E3,2.3077591E2,7.50625E1,3.011543E3,1.920039E2,0E0,8.701172E1,1.4140625E0,9.2516943E2,0E0,0E0,0E0,0E0,0E0,0E0,0E0,0E0,0E0,0E0,0E0,0E0,0E0,0E0,0E0,0E0,0E0,0E0,0E0,0E0,0E0,0E0,0E0,0E0,0E0,0E0,0E0,0E0,0E0,0E0],"parents":[2147483647,0,0,1,1,2,2,3,3,4,4,5,5,6,6,7,7,8,8,9,9,10,10,11,11,12,12,13,13,14,14,15,15,16,16,17,17,18,18,19,19,20,20,21,21,22,22,23,23,24,24,25,25,26,26,28,28,29,29,30,30],"right_children":[2,4,6,8,10,12,14,16,18,20,22,24,26,28,30,32,34,36,38,40,42,44,46,48,50,52,54,-1,56,58,60,-1,-1,-1,-1,-1,-1,-1,-1,-1,-1,-1,-1,-1,-1,-1,-1,-1,-1,-1,-1,-1,-1,-1,-1,-1,-1,-1,-1,-1,-1],"split_conditions":[1.4996458E0,1.3489168E0,1.3489168E0,-1.2920247E0,-1.9877177E-1,-1.2920247E0,2.148941E0,-1.7964861E-1,-2.1867889E-1,-1.1389719E0,2.662436E-1,1.5628484E0,2.3922172E0,1E0,1E1,-1.2465672E0,8E0,6E0,4.9E1,1.1E1,1.3E1,-1.6126475E-1,3.387999E-1,1.2E1,1E0,1.4154743E0,1.4154743E0,-1.0279719E-1,1.4154743E0,3E0,1.2E1,-6.1986256E-2,4.9306907E-2,-6.714797E-2,3.9181072E-2,-2.5296662E-2,-6.244429E-2,-6.955012E-2,5.6055006E-2,-6.4364985E-2,8.604912E-3,4.4919398E-2,-9.668526E-2,-3.9988235E-3,-7.222465E-2,5.85995E-2,-2.1728273E-2,-8.048918E-2,5.2133348E-2,6.362656E-2,7.021128E-2,3.6128547E-2,-5.202946E-2,6.478664E-2,3.660376E-2,6.880623E-2,5.0372448E-2,7.188721E-2,7.103198E-2,-1.5787674E-1,7.2032146E-2],"split_indices":[2,15,15,15,2,15,2,2,2,2,2,2,2,1,1,2,1,1,6,1,1,2,2,6,1,17,17,0,17,1,1,0,0,0,0,0,0,0,0,0,0,0,0,0,0,0,0,0,0,0,0,0,0,0,0,0,0,0,0,0,0],"split_type":[0,0,0,0,0,0,0,0,0,0,0,0,0,0,0,0,0,0,0,0,0,0,0,0,0,0,0,0,0,0,0,0,0,0,0,0,0,0,0,0,0,0,0,0,0,0,0,0,0,0,0,0,0,0,0,0,0,0,0,0,0],"sum_hessian":[4.2159775E5,2.6142469E5,1.6017306E5,2.1456119E5,4.6863496E4,8.3447695E4,7.672537E4,4.592949E4,1.686317E5,2.955242E4,1.7311078E4,4.8247234E4,3.5200465E4,2.0469201E4,5.6256164E4,2.4815129E4,2.111436E4,7.060495E4,9.802675E4,5.5930527E3,2.3959367E4,3.5359517E3,1.3775126E4,4.6725595E2,4.777998E4,1.8666225E4,1.6534238E4,1.5760285E1,2.045344E4,5.260282E4,3.6533442E3,3.298906E3,2.1516223E4,1.9757518E4,1.3568419E3,2.0520262E4,5.0084688E4,9.794779E4,7.8956055E1,3.447218E3,2.1458347E3,2.3127744E4,8.316234E2,3.5635004E2,3.1796016E3,2.3702559E3,1.140487E4,3.4603893E1,4.3265207E2,4.951657E3,4.282832E4,1.7642066E4,1.0241587E3,1.5901502E4,6.3273676E2,1.9778197E4,6.752434E2,1.7789941E4,3.481288E4,4.338693E1,3.6099573E3],"tree_param":{"num_deleted":"0","num_feature":"19","num_nodes":"61","size_leaf_vector":"1"}},{"base_weights":[-2.0207055E-3,-7.671192E-1,1.2621356E0,-9.75886E-1,1.7970063E-1,3.432857E-1,1.2768313E0,-1.711898E-1,-1.1955352E0,-1.5652733E0,2.782695E-1,-5.528678E-1,1.023758E0,1.1841726E0,1.3783846E0,6.770689E-1,-1.1528484E0,-9.6456915E-1,-1.355897E0,-1.6836193E0,-7.528618E-2,1.3517231E0,2.0958185E-2,-1.1530967E0,4.6827284E-1,4.530776E-1,1.3393711E0,1.3582255E0,9.3775547E-1,1.3439845E0,1.4044671E0,-8.237346E-2,4.558998E-2,-6.514778E-2,4.08247E-2,-6.732339E-2,-2.986732E-2,-7.037222E-2,-6.562119E-2,-7.34695E-2,-8.950882E-2,-5.4849874E-2,7.2201625E-2,-8.278962E-2,9.45975E-3,-7.536315E-2,4.2053577E-2,4.6996836E-2,-8.205268E-2,-2.510927E-2,6.655308E-2,-1.0306636E-1,6.7505434E-2,6.1829656E-2,6.861507E-2,3.253114E-2,6.2111646E-2,6.360365E-2,6.925311E-2,7.034199E-2,6.8889275E-2],"categories":[],"categories_nodes":[],"categories_segments":[],"categories_sizes":[],"default_left":[0,0,0,0,0,0,0,0,0,0,0,0,0,0,0,0,0,0,0,0,0,0,0,0,0,0,0,0,0,0,0,0,0,0,0,0,0,0,0,0,0,0,0,0,0,0,0,0,0,0,0,0,0,0,0,0,0,0,0,0,0],"id":11,"left_children":[1,3,5,7,9,11,13,15,17,19,21,23,25,27,29,31,33,35,37,39,-1,41,43,45,47,49,51,53,55,57,59,-1,-1,-1,-1,-1,-1,-1,-1,-1,-1,-1,-1,-1,-1,-1,-1,-1,-1,-1,-1,-1,-1,-1,-1,-1,-1,-1,-1,-1,-1],"loss_changes":[3.9940962E5,5.0850453E4,2.1019688E3,3.7255375E4,7.9943584E3,1.4960057E3,1.440375E3,3.7637605E4,6.131547E3,1.4979004E1,1.2151125E4,6.4966235E2,2.5051648E2,3.4358672E3,6.3703125E1,1.3231841E4,6.194789E3,9.515637E3,2.1715625E2,1.6165771E1,0E0,1.9243096E3,1.0010893E4,4.7255438E2,3.9231363E2,4.183507E2,3.5545654E1,7.871094E1,2.8996855E3,9.14375E1,6.953125E-1,0E0,0E0,0E0,0E0,0E0,0E0,0E0,0E0,0E0,0E0,0E0,0E0,0E0,0E0,0E0,0E0,0E0,0E0,0E0,0E0,0E0,0E0,0E0,0E0,0E0,0E0,0E0,0E0,0E0,0E0],"parents":[2147483647,0,0,1,1,2,2,3,3,4,4,5,5,6,6,7,7,8,8,9,9,10,10,11,11,12,12,13,13,14,14,15,15,16,16,17,17,18,18,19,19,21,21,22,22,23,23,24,24,25,25,26,26,27,27,28,28,29,29,30,30],"right_children":[2,4,6,8,10,12,14,16,18,20,22,24,26,28,30,32,34,36,38,40,-1,42,44,46,48,50,52,54,56,58,60,-1,-1,-1,-1,-1,-1,-1,-1,-1,-1,-1,-1,-1,-1,-1,-1,-1,-1,-1,-1,-1,-1,-1,-1,-1,-1,-1,-1,-1,-1],"split_conditions":[1.4996458E0,1.3489168E0,1.5628484E0,-1.2920247E0,3E0,1E1,1.3489168E0,-2.3849232E-1,-2.803557E-1,-1.9877177E-1,6E0,5.8309966E-1,1.3489168E0,-1.2920247E0,1.810172E-1,3E0,8E0,-1.0576851E0,-2.4339879E-1,-1.1389719E0,-7.528618E-2,-1.2789131E0,8E0,4.3E1,5E0,4E1,-1.6489345E0,1E0,2.3922172E0,2.3922172E0,1.1E1,-8.237346E-2,4.558998E-2,-6.514778E-2,4.08247E-2,-6.732339E-2,-2.986732E-2,-7.037222E-2,-6.562119E-2,-7.34695E-2,-8.950882E-2,-5.4849874E-2,7.2201625E-2,-8.278962E-2,9.45975E-3,-7.536315E-2,4.2053577E-2,4.6996836E-2,-8.205268E-2,-2.510927E-2,6.655308E-2,-1.0306636E-1,6.7505434E-2,6.1829656E-2,6.861507E-2,3.253114E-2,6.2111646E-2,6.360365E-2,6.925311E-2,7.034199E-2,6.8889275E-2],"split_indices":[2,15,2,15,1,1,15,2,2,2,1,14,15,15,14,1,1,2,14,2,0,2,1,6,1,6,12,1,2,2,1,0,0,0,0,0,0,0,0,0,0,0,0,0,0,0,0,0,0,0,0,0,0,0,0,0,0,0,0,0,0],"split_type":[0,0,0,0,0,0,0,0,0,0,0,0,0,0,0,0,0,0,0,0,0,0,0,0,0,0,0,0,0,0,0,0,0,0,0,0,0,0,0,0,0,0,0,0,0,0,0,0,0,0,0,0,0,0,0,0,0,0,0,0,0],"sum_hessian":[4.1295075E5,2.5725444E5,1.5569631E5,2.1077916E5,4.647527E4,2.451314E3,1.53245E5,4.5197523E4,1.6558164E5,2.4841018E3,4.3991168E4,1.058069E3,1.393245E3,8.013833E4,7.310668E4,2.4246365E4,2.095116E4,6.785637E4,9.7725266E4,8.2241125E2,1.6616906E3,8.505132E3,3.5486035E4,6.662919E2,3.9177707E2,4.970081E2,8.962369E2,4.6962562E4,3.3175766E4,3.1549242E4,4.1557434E4,2.2232727E3,2.2023092E4,1.9467635E4,1.4835239E3,3.3262203E4,3.4594168E4,4.469639E4,5.302888E4,2.7809665E2,5.4431464E2,3.0857535E2,8.196557E3,3.2350193E3,3.2251018E4,5.660117E2,1.0028015E2,3.2063474E2,7.114234E1,2.3823355E2,2.5877454E2,2.219802E0,8.94017E2,4.8802827E3,4.2082277E4,1.7075818E4,1.6099946E4,1.1481456E4,2.0067785E4,3.8116324E4,3.44111E3],"tree_param":{"num_deleted":"0","num_feature":"19","num_nodes":"61","size_leaf_vector":"1"}},{"base_weights":[4.3831505E-3,-7.379243E-1,1.2348045E0,-2.8230062E-1,-1.1563731E0,1.1200901E0,1.3353077E0,-1.173252E0,1.4169706E-1,-1.2641009E0,-8.712927E-1,1.2964195E0,9.928414E-1,1.3492354E0,1.295494E0,-1.3181543E0,-6.526422E-1,7.912273E-1,-4.1805553E-1,-1.1176293E0,-1.3780093E0,-7.029621E-2,-5.467542E-1,7.958556E-1,1.3854016E0,4.702954E-1,1.2133447E0,1.3662766E0,1.3343707E0,1.3401059E0,1.2202364E0,-6.658395E-2,1.458505E-2,9.6833974E-2,-4.0614314E-2,-7.6757155E-2,5.863964E-2,-7.843854E-2,-8.419083E-4,-6.5591455E-2,-3.0220395E-2,-6.906387E-2,-3.2074954E-2,-3.3000693E-2,3.414246E-2,-1.2735131E-1,6.5740764E-2,1.0349142E-2,6.995753E-2,4.6998233E-2,-3.7074175E-2,6.208334E-2,-2.5162095E-2,6.8574995E-2,6.5872386E-2,5.4657515E-2,6.7304105E-2,6.572134E-2,6.912909E-2,6.321525E-2,-1.668406E-1],"categories":[],"categories_nodes":[],"categories_segments":[],"categories_sizes":[],"default_left":[0,0,0,0,0,0,0,0,0,0,0,0,0,0,0,0,0,0,0,0,0,0,0,0,0,0,0,0,0,0,0,0,0,0,0,0,0,0,0,0,0,0,0,0,0,0,0,0,0,0,0,0,0,0,0,0,0,0,0,0,0],"id":12,"left_children":[1,3,5,7,9,11,13,15,17,19,21,23,25,27,29,31,33,35,37,39,41,-1,43,45,47,49,51,53,55,57,59,-1,-1,-1,-1,-1,-1,-1,-1,-1,-1,-1,-1,-1,-1,-1,-1,-1,-1,-1,-1,-1,-1,-1,-1,-1,-1,-1,-1,-1,-1],"loss_changes":[3.7105388E5,4.8309375E4,1.7609219E3,4.5825215E4,4.0552969E3,1.6006172E3,4.34375E1,2.9498633E3,2.9883777E4,1.59775E3,6.284881E3,1.3316602E3,4.777961E3,1.3453125E1,6.933984E1,6.665742E2,3.5228533E3,3.377369E4,2.0382625E4,4.179215E3,1.2889062E2,0E0,3.1400688E3,7.8422725E3,4.113164E2,7.005976E3,1.4185117E3,5.3515625E0,8.969141E1,1.26484375E1,1.586501E3,0E0,0E0,0E0,0E0,0E0,0E0,0E0,0E0,0E0,0E0,0E0,0E0,0E0,0E0,0E0,0E0,0E0,0E0,0E0,0E0,0E0,0E0,0E0,0E0,0E0,0E0,0E0,0E0,0E0,0E0],"parents":[2147483647,0,0,1,1,2,2,3,3,4,4,5,5,6,6,7,7,8,8,9,9,10,10,11,11,12,12,13,13,14,14,15,15,16,16,17,17,18,18,19,19,20,20,22,22,23,23,24,24,25,25,26,26,27,27,28,28,29,29,30,30],"right_children":[2,4,6,8,10,12,14,16,18,20,22,24,26,28,30,32,34,36,38,40,42,-1,44,46,48,50,52,54,56,58,60,-1,-1,-1,-1,-1,-1,-1,-1,-1,-1,-1,-1,-1,-1,-1,-1,-1,-1,-1,-1,-1,-1,-1,-1,-1,-1,-1,-1,-1,-1],"split_conditions":[1.4996458E0,-2.3849232E-1,2.3922172E0,-1.1243356E0,8.396895E-1,2E0,7E0,1.1E1,6E0,3.6036405E-1,3E0,1E0,8E0,3E0,2.597751E0,9.01E2,2.51E2,3E0,9E0,2.739398E-1,9.01E2,-7.029621E-2,1.4235067E0,2.148941E0,1.5628484E0,6E0,1.4154743E0,2.597751E0,5E0,1.2E1,1.1E1,-6.658395E-2,1.458505E-2,9.6833974E-2,-4.0614314E-2,-7.6757155E-2,5.863964E-2,-7.843854E-2,-8.419083E-4,-6.5591455E-2,-3.0220395E-2,-6.906387E-2,-3.2074954E-2,-3.3000693E-2,3.414246E-2,-1.2735131E-1,6.5740764E-2,1.0349142E-2,6.995753E-2,4.6998233E-2,-3.7074175E-2,6.208334E-2,-2.5162095E-2,6.8574995E-2,6.5872386E-2,5.4657515E-2,6.7304105E-2,6.572134E-2,6.912909E-2,6.321525E-2,-1.668406E-1],"split_indices":[2,2,2,2,2,1,1,1,1,2,1,1,1,1,2,4,0,1,1,2,4,0,2,2,2,1,17,2,1,1,1,0,0,0,0,0,0,0,0,0,0,0,0,0,0,0,0,0,0,0,0,0,0,0,0,0,0,0,0,0,0],"split_type":[0,0,0,0,0,0,0,0,0,0,0,0,0,0,0,0,0,0,0,0,0,0,0,0,0,0,0,0,0,0,0,0,0,0,0,0,0,0,0,0,0,0,0,0,0,0,0,0,0,0,0,0,0,0,0,0,0,0,0,0,0],"sum_hessian":[4.0625353E5,2.5338684E5,1.5286669E5,1.21305875E5,1.3208097E5,7.139202E4,8.147467E4,3.9113805E4,8.219207E4,9.58552E4,3.622576E4,2.9921027E4,4.1470992E4,6.033527E4,2.1139406E4,3.0596336E4,8.517471E3,3.804486E4,4.4147215E4,4.1938492E4,5.3916715E4,1.3682478E4,2.2543283E4,4.5175776E3,2.540345E4,1.2307637E4,2.9163355E4,2.8067322E4,3.2267947E4,1.3261394E4,7.8780127E3,3.0341605E4,2.5473048E2,4.9399924E2,8.0234717E3,5.360339E3,3.2684521E4,1.141252E4,3.2734693E4,3.0424496E4,1.1513994E4,5.367766E4,2.3905466E2,2.0642363E4,1.9009204E3,6.0655334E2,3.9110242E3,2.9315692E2,2.5110293E4,8.869978E3,3.4376597E3,2.8690271E4,4.730846E2,2.5330566E4,2.7367559E3,1.4984552E3,3.0769492E4,8.284736E3,4.976657E3,7.8032744E3,7.473827E1],"tree_param":{"num_deleted":"0","num_feature":"19","num_nodes":"61","size_leaf_vector":"1"}},{"base_weights":[5.920967E-4,-3.6492604E-1,8.769568E-1,5.8691126E-1,-8.072924E-1,1.0899786E0,5.814747E-1,4.9120325E-1,1.5095489E0,-8.5166794E-1,1.1308658E0,8.0835444E-1,1.3517385E0,1.4105174E-1,8.096503E-1,4.2116842E-1,1.2415944E0,1.4043579E0,1.5743898E0,-8.788204E-1,3.9557356E-1,1.285773E0,2.6304474E-1,4.3504035E-1,1.0333254E0,1.2429861E0,1.4224789E0,3.863882E-1,-3.2244232E-1,1.5039575E0,3.5765642E-1,2.4486987E-2,-1.258114E-2,4.540099E-2,6.844324E-2,8.303671E-2,6.979844E-2,8.9807875E-2,7.084689E-2,-3.971956E-2,-6.0567435E-2,7.996216E-2,-2.2031633E-2,6.954502E-2,-4.6788375E-3,-1.409469E-2,7.322304E-2,2.8077004E-2,-2.5933353E-2,6.1455954E-2,4.0983763E-2,6.7759745E-2,4.020306E-2,8.294656E-2,6.773114E-2,2.5766531E-2,-3.9146926E-2,-2.0575972E-2,6.797028E-2,7.030145E-2,7.939015E-2,2.2923997E-2,-8.587524E-3],"categories":[],"categories_nodes":[],"categories_segments":[],"categories_sizes":[],"default_left":[0,0,0,0,0,0,0,0,0,0,0,0,0,0,0,0,0,0,0,0,0,0,0,0,0,0,0,0,0,0,0,0,0,0,0,0,0,0,0,0,0,0,0,0,0,0,0,0,0,0,0,0,0,0,0,0,0,0,0,0,0,0,0],"id":13,"left_children":[1,3,5,7,9,11,13,15,17,19,21,23,25,27,29,31,33,35,37,39,41,43,45,47,49,51,53,55,57,59,61,-1,-1,-1,-1,-1,-1,-1,-1,-1,-1,-1,-1,-1,-1,-1,-1,-1,-1,-1,-1,-1,-1,-1,-1,-1,-1,-1,-1,-1,-1,-1,-1],"loss_changes":[1.2697331E5,1.1777942E5,7.3428594E3,7.836457E3,1.6425508E4,4.996367E3,4.911619E3,4.225459E3,5.468164E1,6.3228594E3,5.743452E2,2.7424297E3,2.6851562E2,1.8969928E3,1.01031875E4,3.393293E3,2.9015527E2,4.5424805E0,1.7734473E2,5.1288125E3,4.0050542E3,5.2609375E2,4.251512E2,1.4820925E3,8.514238E2,6.812617E2,3.391836E2,1.6450876E3,8.65616E2,1.0200195E2,1.0410312E3,0E0,0E0,0E0,0E0,0E0,0E0,0E0,0E0,0E0,0E0,0E0,0E0,0E0,0E0,0E0,0E0,0E0,0E0,0E0,0E0,0E0,0E0,0E0,0E0,0E0,0E0,0E0,0E0,0E0,0E0,0E0,0E0],"parents":[2147483647,0,0,1,1,2,2,3,3,4,4,5,5,6,6,7,7,8,8,9,9,10,10,11,11,12,12,13,13,14,14,15,15,16,16,17,17,18,18,19,19,20,20,21,21,22,22,23,23,24,24,25,25,26,26,27,27,28,28,29,29,30,30],"right_children":[2,4,6,8,10,12,14,16,18,20,22,24,26,28,30,32,34,36,38,40,42,44,46,48,50,52,54,56,58,60,62,-1,-1,-1,-1,-1,-1,-1,-1,-1,-1,-1,-1,-1,-1,-1,-1,-1,-1,-1,-1,-1,-1,-1,-1,-1,-1,-1,-1,-1,-1,-1,-1],"split_conditions":[1.3489168E0,-1.2920247E0,8E0,9E0,9.01E2,2.3845756E-1,1.3587095E0,8.77E2,1.1E1,4.53E2,1.156014E0,1E0,3E0,1E0,1.4956357E0,1.4154743E0,9.01E2,-2.4723477E0,1.2E1,1.1234995E0,8.01E2,1.938785E0,9.551713E-3,1.1234995E0,-1.7074172E-1,2E0,6E0,1.0426226E0,9.01E2,1.1E1,1.1234995E0,2.4486987E-2,-1.258114E-2,4.540099E-2,6.844324E-2,8.303671E-2,6.979844E-2,8.9807875E-2,7.084689E-2,-3.971956E-2,-6.0567435E-2,7.996216E-2,-2.2031633E-2,6.954502E-2,-4.6788375E-3,-1.409469E-2,7.322304E-2,2.8077004E-2,-2.5933353E-2,6.1455954E-2,4.0983763E-2,6.7759745E-2,4.020306E-2,8.294656E-2,6.773114E-2,2.5766531E-2,-3.9146926E-2,-2.0575972E-2,6.797028E-2,7.030145E-2,7.939015E-2,2.2923997E-2,-8.587524E-3],"split_indices":[15,15,1,1,4,14,15,4,1,11,8,3,1,3,15,17,4,9,1,17,4,10,10,17,10,1,1,14,4,1,17,0,0,0,0,0,0,0,0,0,0,0,0,0,0,0,0,0,0,0,0,0,0,0,0,0,0,0,0,0,0,0,0],"split_type":[0,0,0,0,0,0,0,0,0,0,0,0,0,0,0,0,0,0,0,0,0,0,0,0,0,0,0,0,0,0,0,0,0,0,0,0,0,0,0,0,0,0,0,0,0,0,0,0,0,0,0,0,0,0,0,0,0,0,0,0,0,0,0],"sum_hessian":[3.963843E5,2.797186E5,1.1666571E5,8.875171E4,1.9096689E5,6.77907E4,4.8875E4,8.0411875E4,8.339834E3,1.8669298E5,4.273908E3,3.2658227E4,3.513248E4,1.668034E4,3.2194662E4,7.354902E4,6.86285E3,3.1890002E3,5.150834E3,1.8271555E5,3.977427E3,3.6261536E3,6.477548E2,1.2281462E4,2.0376766E4,1.3853494E4,2.1278986E4,1.0907142E4,5.7731973E3,1.26936455E4,1.9501018E4,6.674645E4,6.8025674E3,1.8975413E3,4.965309E3,9.480337E1,3.094197E3,2.1343052E3,3.0165288E3,1.4572038E5,3.699517E4,1.6300925E3,2.3473345E3,3.3693499E3,2.5680365E2,4.4615372E2,2.0160114E2,1.0843581E4,1.4378807E3,1.0630237E4,9.746527E3,1.103131E4,2.8221843E3,4.7396562E3,1.653933E4,9.824362E3,1.0827797E3,5.483524E3,2.8967316E2,5.8632974E3,6.8303477E3,1.638138E4,3.119637E3],"tree_param":{"num_deleted":"0","num_feature":"19","num_nodes":"63","size_leaf_vector":"1"}},{"base_weights":[6.876788E-4,-7.115095E-1,1.194795E0,-2.8095692E-1,-1.1224041E0,1.0812993E0,1.2976593E0,-1.1807561E0,8.295367E-2,-1.1391215E0,7.827171E-1,1.2579869E0,9.575602E-1,1.3121169E0,1.2557224E0,-1.310542E0,-7.091206E-1,7.00121E-1,-4.0954363E-1,-1.2412541E0,-8.750477E-1,2.0470016E0,-3.6712664E-1,7.8039455E-1,1.3482834E0,4.274194E-1,1.1775358E0,1.330892E0,1.2955062E0,1.3003699E0,1.1824573E0,-6.6180095E-2,-1.4039466E-2,6.1718415E-2,-4.1511945E-2,-7.457202E-2,5.4556068E-2,-7.5874045E-2,-9.802105E-4,-5.5122476E-2,-6.7413606E-2,-6.1071455E-2,-2.029008E-2,1.17832676E-1,9.385136E-2,1.05698965E-1,-3.8391925E-2,-1.1736554E-1,6.360865E-2,9.670604E-3,6.81228E-2,4.4283815E-2,-3.7397914E-2,6.024012E-2,-3.6662124E-2,6.681319E-2,6.378203E-2,5.4594953E-2,6.533231E-2,6.37865E-2,6.719334E-2,6.134603E-2,-1.4544578E-1],"categories":[],"categories_nodes":[],"categories_segments":[],"categories_sizes":[],"default_left":[0,0,0,0,0,0,0,0,0,0,0,0,0,0,0,0,0,0,0,0,0,0,0,0,0,0,0,0,0,0,0,0,0,0,0,0,0,0,0,0,0,0,0,0,0,0,0,0,0,0,0,0,0,0,0,0,0,0,0,0,0,0,0],"id":14,"left_children":[1,3,5,7,9,11,13,15,17,19,21,23,25,27,29,31,33,35,37,39,41,43,45,47,49,51,53,55,57,59,61,-1,-1,-1,-1,-1,-1,-1,-1,-1,-1,-1,-1,-1,-1,-1,-1,-1,-1,-1,-1,-1,-1,-1,-1,-1,-1,-1,-1,-1,-1,-1,-1],"loss_changes":[3.3294806E5,4.3384766E4,1.7061875E3,3.921333E4,3.9973594E3,1.5192656E3,4.4875E1,2.110004E3,2.5918326E4,3.3537969E3,1.5884021E3,1.234082E3,4.7697734E3,1.60625E1,6.2876953E1,3.633125E2,1.7533228E3,3.2431293E4,2.048915E4,1.3309219E3,5.6388066E3,2.296289E1,5.711008E2,7.011331E3,3.9395703E2,6.462662E3,1.5070508E3,6.2304688E0,6.729297E1,1.1386719E1,1.3620029E3,0E0,0E0,0E0,0E0,0E0,0E0,0E0,0E0,0E0,0E0,0E0,0E0,0E0,0E0,0E0,0E0,0E0,0E0,0E0,0E0,0E0,0E0,0E0,0E0,0E0,0E0,0E0,0E0,0E0,0E0,0E0,0E0],"parents":[2147483647,0,0,1,1,2,2,3,3,4,4,5,5,6,6,7,7,8,8,9,9,10,10,11,11,12,12,13,13,14,14,15,15,16,16,17,17,18,18,19,19,20,20,21,21,22,22,23,23,24,24,25,25,26,26,27,27,28,28,29,29,30,30],"right_children":[2,4,6,8,10,12,14,16,18,20,22,24,26,28,30,32,34,36,38,40,42,44,46,48,50,52,54,56,58,60,62,-1,-1,-1,-1,-1,-1,-1,-1,-1,-1,-1,-1,-1,-1,-1,-1,-1,-1,-1,-1,-1,-1,-1,-1,-1,-1,-1,-1,-1,-1,-1,-1],"split_conditions":[1.4996458E0,-1.9877177E-1,2.3922172E0,-1.168076E0,9.01E2,2E0,7E0,1.1E1,6E0,8.396895E-1,8.38E2,1E0,8E0,3E0,2.597751E0,8.19E2,3.35E2,3E0,9E0,3.6760956E-1,8E0,5.3965026E-1,1.33E2,2.148941E0,1.5628484E0,6E0,1.4154743E0,2.597751E0,5E0,1.2E1,8E0,-6.6180095E-2,-1.4039466E-2,6.1718415E-2,-4.1511945E-2,-7.457202E-2,5.4556068E-2,-7.5874045E-2,-9.802105E-4,-5.5122476E-2,-6.7413606E-2,-6.1071455E-2,-2.029008E-2,1.17832676E-1,9.385136E-2,1.05698965E-1,-3.8391925E-2,-1.1736554E-1,6.360865E-2,9.670604E-3,6.81228E-2,4.4283815E-2,-3.7397914E-2,6.024012E-2,-3.6662124E-2,6.681319E-2,6.378203E-2,5.4594953E-2,6.533231E-2,6.37865E-2,6.719334E-2,6.134603E-2,-1.4544578E-1],"split_indices":[2,2,2,2,4,1,1,1,1,2,7,1,1,1,2,5,0,1,1,2,1,2,5,2,2,1,17,2,1,1,1,0,0,0,0,0,0,0,0,0,0,0,0,0,0,0,0,0,0,0,0,0,0,0,0,0,0,0,0,0,0,0,0],"split_type":[0,0,0,0,0,0,0,0,0,0,0,0,0,0,0,0,0,0,0,0,0,0,0,0,0,0,0,0,0,0,0,0,0,0,0,0,0,0,0,0,0,0,0,0,0,0,0,0,0,0,0,0,0,0,0,0,0,0,0,0,0,0,0],"sum_hessian":[3.9149897E5,2.4523484E5,1.4626414E5,1.1975363E5,1.2548121E5,6.954401E4,7.672013E4,3.4484812E4,8.526882E4,1.24390086E5,1.0911224E3,2.8639873E4,4.0904137E4,5.7029184E4,1.969095E4,2.7041646E4,7.4431665E3,3.7844277E4,4.7424543E4,8.969583E4,3.469426E4,5.193275E2,5.71795E2,4.555383E3,2.408449E4,1.199622E4,2.8907918E4,2.6733236E4,3.0295945E4,1.2224587E4,7.4663623E3,2.6702703E4,3.3894427E2,4.3610742E2,7.007059E3,5.7292046E3,3.211507E4,1.2345189E4,3.507935E4,3.9053684E4,5.0642145E4,1.9959348E4,1.4734912E4,1.7948483E2,3.3984268E2,7.89126E1,4.9288235E2,6.1842615E2,3.9369568E3,2.9216003E2,2.379233E4,8.631293E3,3.3649265E3,2.8501574E4,4.0634442E2,2.4343303E4,2.389934E3,1.5767285E3,2.8719217E4,7.8232373E3,4.40135E3,7.3867856E3,7.957641E1],"tree_param":{"num_deleted":"0","num_feature":"19","num_nodes":"63","size_leaf_vector":"1"}},{"base_weights":[2.5197535E-3,-6.8533117E-1,1.169158E0,-8.907798E-1,1.913447E-1,1.0525798E0,1.2739129E0,-1.4100902E-1,-1.1039706E0,-1.4732745E0,2.820938E-1,1.2347924E0,9.230502E-1,1.2317094E0,1.3003294E0,6.0476637E-1,-1.039312E0,-9.002784E-1,-1.2578076E0,-1.533975E0,-7.03193E-2,1.2375759E0,5.5482913E-2,7.544933E-1,1.3249221E0,4.1387218E-1,1.1438786E0,1.300624E0,1.1378604E0,6.528002E-2,1.2855746E0,-5.97209E-2,4.3720122E-2,-6.0284283E-2,4.5068145E-2,-1.9388972E-2,-5.5873115E-2,-6.300383E-2,7.222765E-2,-6.923958E-2,-7.8515306E-2,-3.650422E-2,6.586261E-2,-7.735391E-2,1.0504822E-2,-1.0989735E-1,6.2132258E-2,1.39087355E-2,6.6959314E-2,4.3233644E-2,-3.555365E-2,5.8502723E-2,-1.3449549E-2,6.5140836E-2,6.271568E-2,5.8253285E-2,2.179377E-2,6.433692E-2,3.147848E-2],"categories":[],"categories_nodes":[],"categories_segments":[],"categories_sizes":[],"default_left":[0,0,0,0,0,0,0,0,0,0,0,0,0,0,0,0,0,0,0,0,0,0,0,0,0,0,0,0,0,0,0,0,0,0,0,0,0,0,0,0,0,0,0,0,0,0,0,0,0,0,0,0,0,0,0,0,0,0,0],"id":15,"left_children":[1,3,5,7,9,11,13,15,17,19,21,23,25,27,29,31,33,35,37,39,-1,41,43,45,47,49,51,53,55,-1,57,-1,-1,-1,-1,-1,-1,-1,-1,-1,-1,-1,-1,-1,-1,-1,-1,-1,-1,-1,-1,-1,-1,-1,-1,-1,-1,-1,-1],"loss_changes":[3.0650553E5,4.3277664E4,1.72875E3,3.1115516E4,6.8918687E3,1.5815312E3,8.1578125E1,2.8873098E4,4.7482188E3,7.418457E0,9.36718E3,1.2050039E3,4.407039E3,1.8442188E2,1.8828125E0,1.1425058E4,6.313338E3,7.2588555E3,5.313281E2,4.4675293E0,0E0,1.3011748E3,8.66505E3,6.3502266E3,3.4984766E2,6.0147217E3,1.0114453E3,4.8828125E-2,2.3206152E2,0E0,8.457031E0,0E0,0E0,0E0,0E0,0E0,0E0,0E0,0E0,0E0,0E0,0E0,0E0,0E0,0E0,0E0,0E0,0E0,0E0,0E0,0E0,0E0,0E0,0E0,0E0,0E0,0E0,0E0,0E0],"parents":[2147483647,0,0,1,1,2,2,3,3,4,4,5,5,6,6,7,7,8,8,9,9,10,10,11,11,12,12,13,13,14,14,15,15,16,16,17,17,18,18,19,19,21,21,22,22,23,23,24,24,25,25,26,26,27,27,28,28,30,30],"right_children":[2,4,6,8,10,12,14,16,18,20,22,24,26,28,30,32,34,36,38,40,-1,42,44,46,48,50,52,54,56,-1,58,-1,-1,-1,-1,-1,-1,-1,-1,-1,-1,-1,-1,-1,-1,-1,-1,-1,-1,-1,-1,-1,-1,-1,-1,-1,-1,-1,-1],"split_conditions":[1.4996458E0,1.3489168E0,2.3922172E0,-1.2920247E0,3E0,2E0,1.2021978E0,-1.7964861E-1,-2.1867889E-1,3.6036405E-1,6E0,1E0,8E0,-1.2920247E0,7E0,-1.2465672E0,8E0,6E0,4.9E1,-1.1835693E0,-7.03193E-2,-1.2789131E0,8E0,2.148941E0,1.5628484E0,6E0,1.4154743E0,1.4154743E0,1.4154743E0,6.528002E-2,2.3378112E0,-5.97209E-2,4.3720122E-2,-6.0284283E-2,4.5068145E-2,-1.9388972E-2,-5.5873115E-2,-6.300383E-2,7.222765E-2,-6.923958E-2,-7.8515306E-2,-3.650422E-2,6.586261E-2,-7.735391E-2,1.0504822E-2,-1.0989735E-1,6.2132258E-2,1.39087355E-2,6.6959314E-2,4.3233644E-2,-3.555365E-2,5.8502723E-2,-1.3449549E-2,6.5140836E-2,6.271568E-2,5.8253285E-2,2.179377E-2,6.433692E-2,3.147848E-2],"split_indices":[2,15,2,15,1,1,15,2,2,2,1,1,1,15,1,2,1,1,6,2,0,2,1,2,2,1,17,17,17,0,10,0,0,0,0,0,0,0,0,0,0,0,0,0,0,0,0,0,0,0,0,0,0,0,0,0,0,0,0],"split_type":[0,0,0,0,0,0,0,0,0,0,0,0,0,0,0,0,0,0,0,0,0,0,0,0,0,0,0,0,0,0,0,0,0,0,0,0,0,0,0,0,0,0,0,0,0,0,0,0,0,0,0,0,0,0,0,0,0,0,0],"sum_hessian":[3.8194912E5,2.4028017E5,1.4166897E5,1.9466134E5,4.561883E4,6.705581E4,7.4613164E4,4.30966E4,1.5156473E5,2.3576162E3,4.326121E4,2.7858299E4,3.919751E4,2.8742072E4,4.5871094E4,2.3547598E4,1.9549002E4,6.5217902E4,8.6346836E4,1.2244799E3,1.1331365E3,8.292452E3,3.4968758E4,4.4031924E3,2.3455107E4,1.1858194E4,2.7339318E4,1.6565168E4,1.2176903E4,3.3733082E4,1.2138013E4,3.068588E3,2.047901E4,1.800575E4,1.5432509E3,1.9412379E4,4.5805523E4,8.627492E4,7.1909706E1,2.4746172E2,9.770181E2,3.2239996E2,7.9700522E3,3.0761038E3,3.1892656E4,6.242288E2,3.7789634E3,3.1560385E2,2.3139504E4,8.465882E3,3.3923125E3,2.6842191E4,4.971257E2,1.579039E4,7.747779E2,1.1721963E4,4.5493997E2,1.2115558E4,2.2455261E1],"tree_param":{"num_deleted":"0","num_feature":"19","num_nodes":"59","size_leaf_vector":"1"}},{"base_weights":[4.2967815E-3,-3.3438903E-1,8.161673E-1,5.439361E-1,-7.4387336E-1,1.0281767E0,5.286826E-1,4.5190144E-1,1.4459424E0,-7.865957E-1,1.1127722E0,9.6602315E-1,1.2636268E0,1.2237773E0,3.515934E-1,3.99795E-1,1.2931378E0,1.3342106E0,1.518051E0,-8.104627E-1,1.3526776E0,1.1947641E0,-4.9890246E-2,1.2205164E0,8.8577247E-1,1.3369702E0,1.2271781E0,6.357056E-1,1.414052E0,4.5706427E-1,-2.386435E-1,2.304381E-2,-9.381864E-3,-6.9753855E-2,6.504506E-2,7.932698E-2,6.629909E-2,8.59768E-2,6.838492E-2,-4.17456E-2,1.8010419E-2,8.017193E-2,-3.038252E-2,7.592287E-2,4.095201E-2,-4.2032845E-2,6.5439254E-2,6.13587E-2,5.44611E-2,1.5329124E-2,4.8870068E-2,1.01748876E-1,6.661264E-2,3.1692743E-2,6.1776128E-2,4.14415E-2,6.4338297E-3,7.107021E-2,-9.025305E-2,7.0486288E-3,3.242002E-2,-8.109117E-3,-7.670917E-2],"categories":[],"categories_nodes":[],"categories_segments":[],"categories_sizes":[],"default_left":[0,0,0,0,0,0,0,0,0,0,0,0,0,0,0,0,0,0,0,0,0,0,0,0,0,0,0,0,0,0,0,0,0,0,0,0,0,0,0,0,0,0,0,0,0,0,0,0,0,0,0,0,0,0,0,0,0,0,0,0,0,0,0],"id":16,"left_children":[1,3,5,7,9,11,13,15,17,19,21,23,25,27,29,31,33,35,37,39,41,43,45,47,49,51,53,55,57,59,61,-1,-1,-1,-1,-1,-1,-1,-1,-1,-1,-1,-1,-1,-1,-1,-1,-1,-1,-1,-1,-1,-1,-1,-1,-1,-1,-1,-1,-1,-1,-1,-1],"loss_changes":[1.0275312E5,9.483847E4,6.7040156E3,6.959834E3,1.4266109E4,9.2527344E2,5.747085E3,3.3345293E3,6.0515625E1,8.977047E3,3.8572412E2,1.02198047E3,3.369922E1,1.0598721E3,2.3167324E3,2.570874E3,9.442139E1,4.2353516E0,1.4034766E2,4.9765234E3,9.546521E2,4.58375E2,2.8846457E2,9.158203E0,2.0210098E3,1.1702148E1,4.299707E1,2.269992E2,1.720625E2,1.9093691E3,5.5866455E2,0E0,0E0,0E0,0E0,0E0,0E0,0E0,0E0,0E0,0E0,0E0,0E0,0E0,0E0,0E0,0E0,0E0,0E0,0E0,0E0,0E0,0E0,0E0,0E0,0E0,0E0,0E0,0E0,0E0,0E0,0E0,0E0],"parents":[2147483647,0,0,1,1,2,2,3,3,4,4,5,5,6,6,7,7,8,8,9,9,10,10,11,11,12,12,13,13,14,14,15,15,16,16,17,17,18,18,19,19,20,20,21,21,22,22,23,23,24,24,25,25,26,26,27,27,28,28,29,29,30,30],"right_children":[2,4,6,8,10,12,14,16,18,20,22,24,26,28,30,32,34,36,38,40,42,44,46,48,50,52,54,56,58,60,62,-1,-1,-1,-1,-1,-1,-1,-1,-1,-1,-1,-1,-1,-1,-1,-1,-1,-1,-1,-1,-1,-1,-1,-1,-1,-1,-1,-1,-1,-1,-1,-1],"split_conditions":[1.3489168E0,-1.2920247E0,8E0,9E0,8.9E2,7.83E2,3.42E2,8.9E2,1.1E1,8.27E2,1.938785E0,2E0,6.86E2,9E0,1.1234995E0,1.4154743E0,-1.798479E0,-2.4723477E0,1.2E1,4.53E2,8.81E2,8.27E2,4.19E2,1.4154743E0,3E0,4E0,-1.8846434E0,1.4956357E0,1.4154743E0,1.3587095E0,1.6335454E0,2.304381E-2,-9.381864E-3,-6.9753855E-2,6.504506E-2,7.932698E-2,6.629909E-2,8.59768E-2,6.838492E-2,-4.17456E-2,1.8010419E-2,8.017193E-2,-3.038252E-2,7.592287E-2,4.095201E-2,-4.2032845E-2,6.5439254E-2,6.13587E-2,5.44611E-2,1.5329124E-2,4.8870068E-2,1.01748876E-1,6.661264E-2,3.1692743E-2,6.1776128E-2,4.14415E-2,6.4338297E-3,7.107021E-2,-9.025305E-2,7.0486288E-3,3.242002E-2,-8.109117E-3,-7.670917E-2],"split_indices":[15,15,1,1,7,7,0,7,1,5,10,1,5,1,17,17,10,9,1,11,7,5,5,17,1,5,8,15,17,15,10,0,0,0,0,0,0,0,0,0,0,0,0,0,0,0,0,0,0,0,0,0,0,0,0,0,0,0,0,0,0,0,0],"split_type":[0,0,0,0,0,0,0,0,0,0,0,0,0,0,0,0,0,0,0,0,0,0,0,0,0,0,0,0,0,0,0,0,0,0,0,0,0,0,0,0,0,0,0,0,0,0,0,0,0,0,0,0,0,0,0,0,0,0,0,0,0,0,0],"sum_hessian":[3.7368778E5,2.6368684E5,1.1000094E5,8.3844305E4,1.7984253E5,6.3309754E4,4.669118E4,7.608283E4,7.7614785E3,1.757979E5,4.0446235E3,5.009177E4,1.3217984E4,9.47903E3,3.7212152E4,7.164649E4,4.4363315E3,3.0519734E3,4.709505E3,1.7385886E5,1.9390503E3,3.7781572E3,2.6646616E2,1.2005472E4,3.8086297E4,4.3762627E3,8.841722E3,2.3183074E3,7.1607227E3,3.1570896E4,5.641255E3,6.4898562E4,6.747933E3,1.22604065E1,4.424071E3,9.032842E1,2.9616448E3,2.0080786E3,2.7014265E3,1.703024E5,3.556456E3,1.7193029E3,2.1974751E2,2.027976E3,1.7501814E3,1.6867587E2,9.779028E1,1.1418149E4,5.873226E2,5.2029004E3,3.28834E4,2.6488619E1,4.349774E3,1.236916E2,8.718029E3,1.6783854E3,6.3992194E2,7.144963E3,1.5759897E1,1.190511E4,1.9665785E4,5.327932E3,3.133228E2],"tree_param":{"num_deleted":"0","num_feature":"19","num_nodes":"63","size_leaf_vector":"1"}},{"base_weights":[2.4746363E-3,-6.6188765E-1,1.1374846E0,-2.4754313E-1,-1.0619993E0,1.0217041E0,1.2432623E0,-1.0787274E0,1.2905955E-1,-1.1833174E0,-3.403105E-1,1.2038814E0,8.978166E-1,1.2065644E0,1.2665744E0,-1.2251521E0,-5.7037294E-1,6.9179237E-1,-3.2535535E-1,-1.1941348E0,3.307789E-1,-6.6133654E-1,2.832303E-1,6.8649435E-1,1.2974031E0,3.7832516E-1,1.1172032E0,1.2693996E0,1.1258491E0,1.2551659E0,1.2749801E0,-6.574804E-2,-4.424821E-2,9.9644855E-2,-3.7482645E-2,-7.235175E-2,5.2471276E-2,-4.3223303E-2,2.9157583E-2,-5.995929E-2,9.930425E-2,1.0202285E-1,-4.8834912E-2,-5.74899E-2,-6.12962E-4,-7.977251E-2,2.0552764E-2,-1.02847636E-1,5.9706576E-2,8.815656E-3,6.55968E-2,4.0236276E-2,-2.9202003E-2,5.7131596E-2,-8.120116E-3,6.3556E-2,3.160947E-2,5.7540394E-2,2.855826E-2,6.428904E-2,6.218365E-2,6.635495E-2,6.360106E-2],"categories":[],"categories_nodes":[],"categories_segments":[],"categories_sizes":[],"default_left":[0,0,0,0,0,0,0,0,0,0,0,0,0,0,0,0,0,0,0,0,0,0,0,0,0,0,0,0,0,0,0,0,0,0,0,0,0,0,0,0,0,0,0,0,0,0,0,0,0,0,0,0,0,0,0,0,0,0,0,0,0,0,0],"id":17,"left_children":[1,3,5,7,9,11,13,15,17,19,21,23,25,27,29,31,33,35,37,39,41,43,45,47,49,51,53,55,57,59,61,-1,-1,-1,-1,-1,-1,-1,-1,-1,-1,-1,-1,-1,-1,-1,-1,-1,-1,-1,-1,-1,-1,-1,-1,-1,-1,-1,-1,-1,-1,-1,-1],"loss_changes":[2.7771156E5,3.851303E4,1.6640469E3,3.5724723E4,1.0347125E4,1.4642656E3,5.9257812E1,2.6481758E3,2.0084361E4,1.6575156E3,3.4050234E3,1.2705977E3,4.404426E3,1.3867188E2,2.5703125E0,8.4290234E2,3.659365E3,2.6841635E4,2.1283342E4,1.6160469E3,1.6081161E3,3.560081E3,1.3890728E3,5.607755E3,3.6233984E2,4.710186E3,8.843672E2,1.6214844E1,1.6686133E2,4.90625E0,2.1601562E0,0E0,0E0,0E0,0E0,0E0,0E0,0E0,0E0,0E0,0E0,0E0,0E0,0E0,0E0,0E0,0E0,0E0,0E0,0E0,0E0,0E0,0E0,0E0,0E0,0E0,0E0,0E0,0E0,0E0,0E0,0E0,0E0],"parents":[2147483647,0,0,1,1,2,2,3,3,4,4,5,5,6,6,7,7,8,8,9,9,10,10,11,11,12,12,13,13,14,14,15,15,16,16,17,17,18,18,19,19,20,20,21,21,22,22,23,23,24,24,25,25,26,26,27,27,28,28,29,29,30,30],"right_children":[2,4,6,8,10,12,14,16,18,20,22,24,26,28,30,32,34,36,38,40,42,44,46,48,50,52,54,56,58,60,62,-1,-1,-1,-1,-1,-1,-1,-1,-1,-1,-1,-1,-1,-1,-1,-1,-1,-1,-1,-1,-1,-1,-1,-1,-1,-1,-1,-1,-1,-1,-1,-1],"split_conditions":[1.4996458E0,-2.1867889E-1,2.3922172E0,-1.1243356E0,1.3489168E0,2E0,1.2021978E0,1.1E1,6E0,9.01E2,8.678819E-1,1E0,8E0,-1.2920247E0,1.810172E-1,-1.2465672E0,-4.117109E-1,3E0,1.3489168E0,8.9E2,8.38E2,1.810172E-1,-1.1975513E0,2.148941E0,1.5628484E0,6E0,1.4154743E0,2.3637507E0,1.4154743E0,3E0,1.3489168E0,-6.574804E-2,-4.424821E-2,9.9644855E-2,-3.7482645E-2,-7.235175E-2,5.2471276E-2,-4.3223303E-2,2.9157583E-2,-5.995929E-2,9.930425E-2,1.0202285E-1,-4.8834912E-2,-5.74899E-2,-6.12962E-4,-7.977251E-2,2.0552764E-2,-1.02847636E-1,5.9706576E-2,8.815656E-3,6.55968E-2,4.0236276E-2,-2.9202003E-2,5.7131596E-2,-8.120116E-3,6.3556E-2,3.160947E-2,5.7540394E-2,2.855826E-2,6.428904E-2,6.218365E-2,6.635495E-2,6.360106E-2],"split_indices":[2,2,2,2,15,1,15,1,1,4,2,1,1,15,14,2,15,1,15,7,7,14,14,2,2,1,17,14,17,1,15,0,0,0,0,0,0,0,0,0,0,0,0,0,0,0,0,0,0,0,0,0,0,0,0,0,0,0,0,0,0,0,0],"split_type":[0,0,0,0,0,0,0,0,0,0,0,0,0,0,0,0,0,0,0,0,0,0,0,0,0,0,0,0,0,0,0,0,0,0,0,0,0,0,0,0,0,0,0,0,0,0,0,0,0,0,0,0,0,0,0,0,0,0,0,0,0,0,0],"sum_hessian":[3.682875E5,2.3230905E5,1.3597845E5,1.1412548E5,1.1818356E5,6.492484E4,7.105362E4,3.5585133E4,7.854034E4,1.0117508E5,1.7008484E4,2.6276447E4,3.8648395E4,2.7622662E4,4.3430957E4,2.762633E4,7.958803E3,3.508799E4,4.345236E4,1.0045757E5,7.17506E2,1.1227842E4,5.780643E3,4.023841E3,2.2252605E4,1.1476235E4,2.7172158E4,1.5523322E4,1.209934E4,1.8488307E4,2.4942648E4,2.1854053E4,5.7722764E3,5.196042E2,7.439199E3,5.0261313E3,3.0061857E4,2.7270195E4,1.6182163E4,1.002989E5,1.5867435E2,3.1068658E2,4.068194E2,6.4061436E3,4.821698E3,3.67526E2,5.413117E3,6.2782196E2,3.396019E3,2.8493893E2,2.1967666E4,7.9527373E3,3.5234983E3,2.6642812E4,5.293451E2,1.5480533E4,4.2788822E1,1.157733E4,5.2201013E2,5.015972E3,1.3472335E4,1.3159161E3,2.3626732E4],"tree_param":{"num_deleted":"0","num_feature":"19","num_nodes":"63","size_leaf_vector":"1"}},{"base_weights":[-1.8975078E-3,-6.395578E-1,1.1282552E0,-2.50451E-1,-1.0147066E0,1.0189745E0,1.2234715E0,-1.1102709E0,8.4243566E-2,-1.058185E0,4.6304647E-2,1.2054803E0,8.824284E-1,1.2403086E0,1.17478E0,-1.2465448E0,-6.347127E-1,6.3862354E-1,-3.4982985E-1,-1.0737371E0,6.850514E-1,-8.282818E-1,9.493412E-1,7.4723405E-1,1.2919854E0,3.769983E-1,1.1039262E0,1.2614032E0,1.2216837E0,1.2255174E0,1.0951246E0,-2.7446214E-3,-6.2892966E-2,6.2706254E-2,-3.8998675E-2,-7.101046E-2,4.9872868E-2,-7.275947E-2,1.0839154E-3,-5.3989884E-2,1.0594211E-1,9.5203035E-2,-9.784131E-3,-5.040553E-2,7.268625E-2,5.0759334E-2,-3.9764497E-2,-1.0157472E-1,5.9137028E-2,6.344793E-2,6.480115E-2,4.040366E-2,-2.8886074E-2,6.306754E-2,3.9855253E-2,6.336937E-2,5.9724767E-2,4.781888E-2,6.173739E-2,5.9919436E-2,6.365667E-2,5.7275176E-2,-1.3937986E-1],"categories":[],"categories_nodes":[],"categories_segments":[],"categories_sizes":[],"default_left":[0,0,0,0,0,0,0,0,0,0,0,0,0,0,0,0,0,0,0,0,0,0,0,0,0,0,0,0,0,0,0,0,0,0,0,0,0,0,0,0,0,0,0,0,0,0,0,0,0,0,0,0,0,0,0,0,0,0,0,0,0,0,0],"id":18,"left_children":[1,3,5,7,9,11,13,15,17,19,21,23,25,27,29,31,33,35,37,39,41,43,45,47,49,51,53,55,57,59,61,-1,-1,-1,-1,-1,-1,-1,-1,-1,-1,-1,-1,-1,-1,-1,-1,-1,-1,-1,-1,-1,-1,-1,-1,-1,-1,-1,-1,-1,-1,-1,-1],"loss_changes":[2.579356E5,3.3400633E4,1.3420938E3,3.2323096E4,5.3741875E3,1.5299453E3,5.5101562E1,2.0387383E3,1.9455947E4,3.03475E3,3.62343E3,1.00621094E3,3.8855781E3,1.859375E1,7.037305E1,3.2973438E2,1.9247954E3,2.6231668E4,1.8621162E4,2.1484766E3,1.0634591E3,9.579076E2,2.6010583E2,4.887853E3,3.4375E-1,4.3539927E3,1.1647031E3,8.09375E0,9.325E1,1.2467773E1,1.355624E3,0E0,0E0,0E0,0E0,0E0,0E0,0E0,0E0,0E0,0E0,0E0,0E0,0E0,0E0,0E0,0E0,0E0,0E0,0E0,0E0,0E0,0E0,0E0,0E0,0E0,0E0,0E0,0E0,0E0,0E0,0E0,0E0],"parents":[2147483647,0,0,1,1,2,2,3,3,4,4,5,5,6,6,7,7,8,8,9,9,10,10,11,11,12,12,13,13,14,14,15,15,16,16,17,17,18,18,19,19,20,20,21,21,22,22,23,23,24,24,25,25,26,26,27,27,28,28,29,29,30,30],"right_children":[2,4,6,8,10,12,14,16,18,20,22,24,26,28,30,32,34,36,38,40,42,44,46,48,50,52,54,56,58,60,62,-1,-1,-1,-1,-1,-1,-1,-1,-1,-1,-1,-1,-1,-1,-1,-1,-1,-1,-1,-1,-1,-1,-1,-1,-1,-1,-1,-1,-1,-1,-1,-1],"split_conditions":[1.5628484E0,-1.9877177E-1,2.3922172E0,-1.168076E0,1.4235067E0,2E0,7E0,1.1E1,6E0,9.01E2,1E1,1E0,8E0,3E0,2.597751E0,8E0,3.35E2,3E0,9E0,8.9E2,8.17E2,8.64E2,6.1E2,2.148941E0,1.6475271E0,6E0,1.1E1,2.597751E0,5E0,1.2E1,8E0,-2.7446214E-3,-6.2892966E-2,6.2706254E-2,-3.8998675E-2,-7.101046E-2,4.9872868E-2,-7.275947E-2,1.0839154E-3,-5.3989884E-2,1.0594211E-1,9.5203035E-2,-9.784131E-3,-5.040553E-2,7.268625E-2,5.0759334E-2,-3.9764497E-2,-1.0157472E-1,5.9137028E-2,6.344793E-2,6.480115E-2,4.040366E-2,-2.8886074E-2,6.306754E-2,3.9855253E-2,6.336937E-2,5.9724767E-2,4.781888E-2,6.173739E-2,5.9919436E-2,6.365667E-2,5.7275176E-2,-1.3937986E-1],"split_indices":[2,2,2,2,2,1,1,1,1,4,1,1,1,1,2,0,0,1,1,7,7,7,0,2,2,1,1,2,1,1,1,0,0,0,0,0,0,0,0,0,0,0,0,0,0,0,0,0,0,0,0,0,0,0,0,0,0,0,0,0,0,0,0],"split_type":[0,0,0,0,0,0,0,0,0,0,0,0,0,0,0,0,0,0,0,0,0,0,0,0,0,0,0,0,0,0,0,0,0,0,0,0,0,0,0,0,0,0,0,0,0,0,0,0,0,0,0,0,0,0,0,0,0,0,0,0,0,0,0],"sum_hessian":[3.57917E5,2.2881456E5,1.2910243E5,1.1231861E5,1.16495945E5,6.01171E4,6.8985336E4,3.1470238E4,8.0848375E4,1.1191006E5,4.5858813E3,2.5406717E4,3.4710383E4,5.1241785E4,1.7743547E4,2.4459578E4,7.01066E3,3.5503875E4,4.53445E4,1.10920875E5,9.8918616E2,2.3296804E3,2.2562012E3,4.0360469E3,2.137067E4,1.0577215E4,2.413317E4,2.39966E4,2.7245186E4,1.0830527E4,6.91302E3,2.3010999E2,2.4229469E4,5.0010605E2,6.510554E3,5.269101E3,3.0234773E4,1.140574E4,3.3938758E4,1.10711375E5,2.0950261E2,4.144252E2,5.747609E2,2.1600225E3,1.6965775E2,2.174548E3,8.16532E1,5.4635986E2,3.489687E3,3.2351885E3,1.813548E4,7.287099E3,3.2901162E3,1.5947617E4,8.1855522E3,2.201012E4,1.9864794E3,1.2821134E3,2.5963072E4,6.9162456E3,3.914281E3,6.8251675E3,8.785252E1],"tree_param":{"num_deleted":"0","num_feature":"19","num_nodes":"63","size_leaf_vector":"1"}},{"base_weights":[1.5246822E-3,-6.3886493E-1,1.0858636E0,-8.3492213E-1,1.557839E-1,2.4043478E-1,1.1100234E0,-1.7346582E-1,-1.0248516E0,2.865399E-1,-1.2393378E0,-6.707037E-1,1.1582935E0,1.00192E0,1.2060486E0,5.188851E-1,-9.9914545E-1,-8.2104194E-1,-1.1868496E0,-1.4056056E0,3.856438E-1,-1.5903331E0,1.5416076E0,-9.826971E-1,7.325464E-1,1.3301934E0,3.5563368E-1,1.1673502E0,8.513938E-1,1.1659709E0,1.2322698E0,-7.435592E-2,3.6558952E-2,-5.7728052E-2,4.1882902E-2,-1.5369062E-2,-5.2429046E-2,-5.9469324E-2,7.387801E-2,-7.2425E-2,-6.783784E-2,5.7195045E-2,9.425903E-3,-8.101679E-2,-2.0689776E-4,8.6898774E-2,-9.247617E-2,-5.8756318E-2,6.645496E-2,-6.799227E-2,5.0659265E-2,8.862181E-2,5.3677212E-2,-5.8118578E-2,5.660979E-2,3.748701E-2,6.1812054E-2,6.3375533E-3,5.401764E-2,6.1722714E-2,5.38732E-2,6.0988553E-2,6.209274E-2],"categories":[],"categories_nodes":[],"categories_segments":[],"categories_sizes":[],"default_left":[0,0,0,0,0,0,0,0,0,0,0,0,0,0,0,0,0,0,0,0,0,0,0,0,0,0,0,0,0,0,0,0,0,0,0,0,0,0,0,0,0,0,0,0,0,0,0,0,0,0,0,0,0,0,0,0,0,0,0,0,0,0,0],"id":19,"left_children":[1,3,5,7,9,11,13,15,17,19,21,23,25,27,29,31,33,35,37,39,41,43,45,47,49,51,53,55,57,59,61,-1,-1,-1,-1,-1,-1,-1,-1,-1,-1,-1,-1,-1,-1,-1,-1,-1,-1,-1,-1,-1,-1,-1,-1,-1,-1,-1,-1,-1,-1,-1,-1],"loss_changes":[2.4301581E5,3.42791E4,2.6538438E3,2.2171242E4,7.9434473E3,3.0210173E3,1.3102031E3,2.2507502E4,4.5260312E3,6.6769917E3,3.6447324E3,7.9445624E2,2.4781079E2,1.4790039E3,6.886719E1,9.121053E3,5.127115E3,7.096867E3,5.1809375E2,2.650879E0,5.621484E3,1.5769629E2,2.820251E2,6.615725E2,1.9535922E2,1.6627075E2,3.770855E2,8.136094E2,5.16351E3,1.5915234E2,3.3320312E0,0E0,0E0,0E0,0E0,0E0,0E0,0E0,0E0,0E0,0E0,0E0,0E0,0E0,0E0,0E0,0E0,0E0,0E0,0E0,0E0,0E0,0E0,0E0,0E0,0E0,0E0,0E0,0E0,0E0,0E0,0E0,0E0],"parents":[2147483647,0,0,1,1,2,2,3,3,4,4,5,5,6,6,7,7,8,8,9,9,10,10,11,11,12,12,13,13,14,14,15,15,16,16,17,17,18,18,19,19,20,20,21,21,22,22,23,23,24,24,25,25,26,26,27,27,28,28,29,29,30,30],"right_children":[2,4,6,8,10,12,14,16,18,20,22,24,26,28,30,32,34,36,38,40,42,44,46,48,50,52,54,56,58,60,62,-1,-1,-1,-1,-1,-1,-1,-1,-1,-1,-1,-1,-1,-1,-1,-1,-1,-1,-1,-1,-1,-1,-1,-1,-1,-1,-1,-1,-1,-1,-1,-1],"split_conditions":[1.4564654E0,1.3489168E0,1.5628484E0,-1.2920247E0,1.3E1,1.1E1,2.3922172E0,-1.9877177E-1,-2.1867889E-1,3E0,1.3199546E0,4.09E2,2.958979E-1,4E0,1.2021978E0,3E0,8E0,6E0,4.9E1,3.6036405E-1,6E0,1.9369414E0,1.2357685E-1,8.64E2,1.4996458E0,1.4996458E0,1.3489168E0,1E0,8E0,-1.2920247E0,1.810172E-1,-7.435592E-2,3.6558952E-2,-5.7728052E-2,4.1882902E-2,-1.5369062E-2,-5.2429046E-2,-5.9469324E-2,7.387801E-2,-7.2425E-2,-6.783784E-2,5.7195045E-2,9.425903E-3,-8.101679E-2,-2.0689776E-4,8.6898774E-2,-9.247617E-2,-5.8756318E-2,6.645496E-2,-6.799227E-2,5.0659265E-2,8.862181E-2,5.3677212E-2,-5.8118578E-2,5.660979E-2,3.748701E-2,6.1812054E-2,6.3375533E-3,5.401764E-2,6.1722714E-2,5.38732E-2,6.0988553E-2,6.209274E-2],"split_indices":[2,15,2,15,1,1,2,2,2,1,2,11,14,1,15,1,1,1,6,2,1,12,14,7,2,2,15,1,1,15,14,0,0,0,0,0,0,0,0,0,0,0,0,0,0,0,0,0,0,0,0,0,0,0,0,0,0,0,0,0,0,0,0],"split_type":[0,0,0,0,0,0,0,0,0,0,0,0,0,0,0,0,0,0,0,0,0,0,0,0,0,0,0,0,0,0,0,0,0,0,0,0,0,0,0,0,0,0,0,0,0,0,0,0,0,0,0,0,0,0,0,0,0,0,0,0,0,0,0],"sum_hessian":[3.4996347E5,2.2002272E5,1.2994075E5,1.7648095E5,4.3541758E4,3.6104478E3,1.26330305E5,3.9370277E4,1.3711069E5,3.981129E4,3.7304673E3,1.8119918E3,1.7984559E3,5.943309E4,6.689721E4,2.1414287E4,1.7955988E4,6.0722188E4,7.638849E4,2.2018975E3,3.760939E4,3.3127756E3,4.1769174E2,1.4826456E3,3.2934622E2,1.48069E3,3.1776605E2,2.8311568E4,3.1121523E4,2.6475697E4,4.042151E4,2.0488005E3,1.9365486E4,1.655556E4,1.4004282E3,1.8641664E4,4.2080523E4,7.631638E4,7.210954E1,1.1571465E3,1.0447509E3,7.759018E3,2.9850373E4,3.251257E3,6.151854E1,3.952895E2,2.2402256E1,1.3691703E3,1.13475266E2,3.8494297E1,2.9085193E2,5.4157434E2,9.3911554E2,1.07375046E2,2.1039099E2,4.0107388E3,2.430083E4,7.4726226E3,2.36489E4,1.4918987E4,1.155671E4,1.7599875E4,2.2821637E4],"tree_param":{"num_deleted":"0","num_feature":"19","num_nodes":"63","size_leaf_vector":"1"}},{"base_weights":[3.672824E-5,-3.1664473E-1,7.527819E-1,4.90257E-1,-6.9059765E-1,9.5217186E-1,5.010211E-1,4.0325394E-1,1.390184E0,-7.302417E-1,1.0125372E0,6.467293E-1,1.2319342E0,1.1645399E0,3.4655675E-1,3.471056E-1,1.1868223E0,1.4293061E0,6.1322697E-2,-7.509555E-1,1.2373693E0,1.1769583E0,-7.3968256E-3,2.626758E-1,8.823033E-1,1.116125E0,1.3053002E0,5.62613E-1,1.3569463E0,7.350598E-2,5.27112E-1,2.5421215E-2,3.8102863E-3,4.004584E-2,6.172062E-2,6.444415E-2,7.780298E-2,-3.935758E-2,-5.8374903E-3,7.465875E-2,-3.2690685E-2,6.4104706E-2,-1.4723656E-2,6.286518E-2,-2.0141896E-2,2.5070375E-2,-7.815741E-3,5.4337896E-2,3.4055617E-2,6.136752E-2,3.4613457E-2,7.669564E-2,6.1653834E-2,3.1846926E-2,-5.4487765E-2,5.8782347E-2,7.391023E-2,1.6466387E-2,-2.1541161E-2,7.1583815E-2,9.711465E-3],"categories":[],"categories_nodes":[],"categories_segments":[],"categories_sizes":[],"default_left":[0,0,0,0,0,0,0,0,0,0,0,0,0,0,0,0,0,0,0,0,0,0,0,0,0,0,0,0,0,0,0,0,0,0,0,0,0,0,0,0,0,0,0,0,0,0,0,0,0,0,0,0,0,0,0,0,0,0,0,0,0],"id":20,"left_children":[1,3,5,7,9,11,13,15,17,19,21,23,25,27,29,31,33,35,-1,37,39,41,43,45,47,49,51,53,55,57,59,-1,-1,-1,-1,-1,-1,-1,-1,-1,-1,-1,-1,-1,-1,-1,-1,-1,-1,-1,-1,-1,-1,-1,-1,-1,-1,-1,-1,-1,-1],"loss_changes":[8.1274016E4,7.241319E4,5.0676133E3,5.9498047E3,1.1072844E4,4.813461E3,4.572964E3,3.048505E3,4.115918E1,6.5324062E3,6.2563794E2,2.436709E3,2.483789E2,9.750801E2,1.7845342E3,2.826004E3,8.410498E1,9.412988E1,0E0,3.6403672E3,8.088198E2,4.9739258E2,2.6002295E2,1.024544E3,6.8598145E2,5.370869E2,2.9523047E2,2.5155988E2,1.3861328E2,1.8592246E3,6.560764E3,0E0,0E0,0E0,0E0,0E0,0E0,0E0,0E0,0E0,0E0,0E0,0E0,0E0,0E0,0E0,0E0,0E0,0E0,0E0,0E0,0E0,0E0,0E0,0E0,0E0,0E0,0E0,0E0,0E0,0E0],"parents":[2147483647,0,0,1,1,2,2,3,3,4,4,5,5,6,6,7,7,8,8,9,9,10,10,11,11,12,12,13,13,14,14,15,15,16,16,17,17,19,19,20,20,21,21,22,22,23,23,24,24,25,25,26,26,27,27,28,28,29,29,30,30],"right_children":[2,4,6,8,10,12,14,16,18,20,22,24,26,28,30,32,34,36,-1,38,40,42,44,46,48,50,52,54,56,58,60,-1,-1,-1,-1,-1,-1,-1,-1,-1,-1,-1,-1,-1,-1,-1,-1,-1,-1,-1,-1,-1,-1,-1,-1,-1,-1,-1,-1,-1,-1],"split_conditions":[1.3489168E0,-1.2920247E0,8E0,9E0,9.01E2,2.3845756E-1,3.42E2,8.92E2,1.3E1,8.27E2,1.156014E0,1E0,3E0,9E0,1.3587095E0,3.5333827E-1,9.01E2,1.1E1,6.1322697E-2,4.24E2,8.38E2,1.8664339E0,-1.9991115E0,1.4956357E0,-1.7074172E-1,2E0,6E0,1.4574904E0,1.1E1,1E0,1.4956357E0,2.5421215E-2,3.8102863E-3,4.004584E-2,6.172062E-2,6.444415E-2,7.780298E-2,-3.935758E-2,-5.8374903E-3,7.465875E-2,-3.2690685E-2,6.4104706E-2,-1.4723656E-2,6.286518E-2,-2.0141896E-2,2.5070375E-2,-7.815741E-3,5.4337896E-2,3.4055617E-2,6.136752E-2,3.4613457E-2,7.669564E-2,6.1653834E-2,3.1846926E-2,-5.4487765E-2,5.8782347E-2,7.391023E-2,1.6466387E-2,-2.1541161E-2,7.1583815E-2,9.711465E-3],"split_indices":[15,15,1,1,4,14,0,4,1,5,8,3,1,1,15,14,4,1,0,11,4,10,9,15,10,1,1,10,1,3,15,0,0,0,0,0,0,0,0,0,0,0,0,0,0,0,0,0,0,0,0,0,0,0,0,0,0,0,0,0,0],"split_type":[0,0,0,0,0,0,0,0,0,0,0,0,0,0,0,0,0,0,0,0,0,0,0,0,0,0,0,0,0,0,0,0,0,0,0,0,0,0,0,0,0,0,0,0,0,0,0,0,0,0,0,0,0,0,0,0,0,0,0,0,0],"sum_hessian":[3.4094044E5,2.3998066E5,1.0095979E5,7.599695E4,1.639837E5,5.6338195E4,4.462159E4,6.929875E4,6.6982075E3,1.6025403E5,3.7296758E3,2.6934553E4,2.9403643E4,8.424909E3,3.6196684E4,6.4666375E4,4.632371E3,5.400153E3,1.2980546E3,1.5858516E5,1.6688729E3,3.2117617E3,5.179141E2,1.0240957E4,1.6693596E4,1.1409627E4,1.7994014E4,2.0416635E3,6.3832456E3,1.4408439E4,2.1788242E4,4.0530133E4,2.4136242E4,5.105089E2,4.121862E3,2.5672278E3,2.832925E3,1.5002267E5,8.56248E3,1.4702183E3,1.9865465E2,2.9977002E3,2.1406131E2,1.2284655E2,3.9506757E2,6.5236987E3,3.717258E3,8.277462E3,8.416135E3,9.036448E3,2.3731792E3,4.3150723E3,1.3678942E4,1.9543682E3,8.7295265E1,2.562546E3,3.8206997E3,9.559644E3,4.8487964E3,5.8603154E3,1.5927927E4],"tree_param":{"num_deleted":"0","num_feature":"19","num_nodes":"61","size_leaf_vector":"1"}},{"base_weights":[1.383788E-3,-6.1294025E-1,1.0595052E0,-2.2762193E-1,-1.0064732E0,3.0242443E-1,1.0827509E0,-1.0250158E0,1.18063055E-1,-1.1270514E0,-6.9995195E-1,1.1263846E-1,9.743582E-1,9.7064745E-1,1.1830773E0,-1.1393479E0,-5.7045287E-1,2.1010792E-1,-7.6579815E-1,-9.7600985E-1,-1.237128E0,-7.339603E-1,1.2121134E0,-2.3448198E-1,5.0446266E-1,-7.549616E-2,1.0481415E0,1.0638951E0,7.4527586E-1,1.2056179E0,1.1470538E0,-5.7948627E-2,-2.5406634E-2,-3.2238644E-2,7.717283E-2,7.196569E-3,6.489868E-2,-5.18062E-2,-1.4195572E-2,-6.1065294E-2,-2.06651E-2,-6.28526E-2,-5.323372E-2,-2.7638787E-2,-5.1834937E-2,-7.2106175E-2,6.754181E-2,-2.3378646E-2,1.9476164E-2,3.4251094E-2,-2.0147158E-2,-8.226794E-2,5.5250015E-2,4.283262E-2,5.5589374E-2,7.051059E-3,5.2929517E-2,6.043746E-2,5.760175E-2,5.7900395E-2,4.697403E-2],"categories":[],"categories_nodes":[],"categories_segments":[],"categories_sizes":[],"default_left":[0,0,0,0,0,0,0,0,0,0,0,0,0,0,0,0,0,0,0,0,0,0,0,0,0,0,0,0,0,0,0,0,0,0,0,0,0,0,0,0,0,0,0,0,0,0,0,0,0,0,0,0,0,0,0,0,0,0,0,0,0],"id":21,"left_children":[1,3,5,7,9,11,13,15,17,19,21,23,25,27,29,31,33,35,37,39,41,43,45,47,49,-1,51,53,55,57,59,-1,-1,-1,-1,-1,-1,-1,-1,-1,-1,-1,-1,-1,-1,-1,-1,-1,-1,-1,-1,-1,-1,-1,-1,-1,-1,-1,-1,-1,-1],"loss_changes":[2.1852261E5,3.2251094E4,2.1728438E3,2.9623324E4,3.8882344E3,4.6916763E2,1.3462656E3,1.6884141E3,6.0992383E3,1.2543203E3,1.9327549E3,3.9054724E2,1.5011658E2,1.1884023E3,4.9960938E1,3.2107422E2,1.0274619E3,4.887923E3,9.208291E2,4.3941895E3,1.4873438E2,1.6005732E3,1.932492E2,2.2167429E2,2.2126071E2,0E0,1.2243182E2,3.9629688E2,3.1358037E3,5.1289062E0,5.4279297E1,0E0,0E0,0E0,0E0,0E0,0E0,0E0,0E0,0E0,0E0,0E0,0E0,0E0,0E0,0E0,0E0,0E0,0E0,0E0,0E0,0E0,0E0,0E0,0E0,0E0,0E0,0E0,0E0,0E0,0E0],"parents":[2147483647,0,0,1,1,2,2,3,3,4,4,5,5,6,6,7,7,8,8,9,9,10,10,11,11,12,12,13,13,14,14,15,15,16,16,17,17,18,18,19,19,20,20,21,21,22,22,23,23,24,24,26,26,27,27,28,28,29,29,30,30],"right_children":[2,4,6,8,10,12,14,16,18,20,22,24,26,28,30,32,34,36,38,40,42,44,46,48,50,-1,52,54,56,58,60,-1,-1,-1,-1,-1,-1,-1,-1,-1,-1,-1,-1,-1,-1,-1,-1,-1,-1,-1,-1,-1,-1,-1,-1,-1,-1,-1,-1,-1,-1],"split_conditions":[1.4564654E0,-1.9877177E-1,1.5628484E0,-1.1243356E0,8.396895E-1,4E1,2.3922172E0,-1.2297782E0,1.4154743E0,3.5290617E-1,9.01E2,2.52E2,-1.1975513E0,1.8620601E0,2.597751E0,8.64E2,8.9E2,8.81E2,-5.1525056E-1,2.662436E-1,7.7995026E-1,1.0973502E0,-9.053863E-1,5.68E2,8.315247E-1,-7.549616E-2,-7.5601906E-1,1.6475271E0,2.148941E0,1.4154743E0,1.4154743E0,-5.7948627E-2,-2.5406634E-2,-3.2238644E-2,7.717283E-2,7.196569E-3,6.489868E-2,-5.18062E-2,-1.4195572E-2,-6.1065294E-2,-2.06651E-2,-6.28526E-2,-5.323372E-2,-2.7638787E-2,-5.1834937E-2,-7.2106175E-2,6.754181E-2,-2.3378646E-2,1.9476164E-2,3.4251094E-2,-2.0147158E-2,-8.226794E-2,5.5250015E-2,4.283262E-2,5.5589374E-2,7.051059E-3,5.2929517E-2,6.043746E-2,5.760175E-2,5.7900395E-2,4.697403E-2],"split_indices":[2,2,2,2,2,6,2,2,17,2,4,11,14,2,2,4,7,7,2,2,2,2,10,4,17,0,9,2,2,17,17,0,0,0,0,0,0,0,0,0,0,0,0,0,0,0,0,0,0,0,0,0,0,0,0,0,0,0,0,0,0],"split_type":[0,0,0,0,0,0,0,0,0,0,0,0,0,0,0,0,0,0,0,0,0,0,0,0,0,0,0,0,0,0,0,0,0,0,0,0,0,0,0,0,0,0,0,0,0,0,0,0,0,0,0,0,0,0,0,0,0,0,0,0,0],"sum_hessian":[3.3617138E5,2.126889E5,1.23482484E5,1.0746686E5,1.0522204E5,3.6789255E3,1.1980356E5,3.249907E4,7.496779E4,7.551395E4,2.9708086E4,2.869586E3,8.093396E2,5.6585875E4,6.3217688E4,2.5966457E4,6.532613E3,6.789772E4,7.0700728E3,3.1837719E4,4.3676234E4,2.9189533E4,5.1855347E2,1.5218063E3,1.3477797E3,2.2782675E1,7.865569E2,4.002273E4,1.6563143E4,3.8865957E4,2.4351729E4,2.5182688E4,7.8377075E2,6.3114136E3,2.2119899E2,6.400531E4,3.8924102E3,4.5285337E3,2.541539E3,2.2171521E4,9.666197E3,3.914718E4,4.529053E3,1.8262514E4,1.092702E4,2.5289207E1,4.9326422E2,1.1081271E3,4.1367917E2,1.1243059E3,2.2347379E2,1.5683115E1,7.708738E2,7.516373E3,3.2506357E4,5.6561694E3,1.0906974E4,3.669975E4,2.166207E3,2.3126717E4,1.2250126E3],"tree_param":{"num_deleted":"0","num_feature":"19","num_nodes":"61","size_leaf_vector":"1"}},{"base_weights":[1.3666494E-3,-5.715381E-1,1.0612509E0,-2.0442797E-1,-9.43818E-1,9.4669336E-1,1.1663619E0,-1.0551165E0,9.309237E-2,-9.9531436E-1,1.8753849E-1,1.1231208E0,7.906089E-1,1.1844525E0,1.1157598E0,-1.201712E0,-5.544231E-1,6.1321557E-1,-3.131816E-1,-1.0116714E0,6.63969E-1,-6.9150877E-1,1.0169612E0,6.5121526E-1,1.2011939E0,3.0260086E-2,1.0350955E0,1.2074829E0,1.1640191E0,1.1717913E0,1.0245817E0,-6.1265226E-2,-4.1404177E-2,4.84594E-2,-3.23348E-2,-6.863596E-2,4.7698624E-2,-7.096979E-2,2.4342847E-3,-5.1011033E-2,9.7176306E-2,8.831196E-2,-8.815663E-3,-4.3573327E-2,6.561655E-2,2.8641555E-2,6.5588266E-2,-9.9259E-2,5.5796605E-2,6.2076967E-2,4.9343962E-2,-2.3899851E-2,3.7788384E-2,6.000799E-2,3.7103657E-2,6.0756084E-2,5.6167156E-2,4.5560222E-2,5.8921456E-2,5.7258993E-2,6.1090317E-2,5.387912E-2,-1.3426282E-1],"categories":[],"categories_nodes":[],"categories_segments":[],"categories_sizes":[],"default_left":[0,0,0,0,0,0,0,0,0,0,0,0,0,0,0,0,0,0,0,0,0,0,0,0,0,0,0,0,0,0,0,0,0,0,0,0,0,0,0,0,0,0,0,0,0,0,0,0,0,0,0,0,0,0,0,0,0,0,0,0,0,0,0],"id":22,"left_children":[1,3,5,7,9,11,13,15,17,19,21,23,25,27,29,31,33,35,37,39,41,43,45,47,49,51,53,55,57,59,61,-1,-1,-1,-1,-1,-1,-1,-1,-1,-1,-1,-1,-1,-1,-1,-1,-1,-1,-1,-1,-1,-1,-1,-1,-1,-1,-1,-1,-1,-1,-1,-1],"loss_changes":[1.9953514E5,2.9152102E4,1.38725E3,2.718297E4,6.170461E3,1.5185352E3,5.371875E1,2.042002E3,1.6814852E4,2.7499766E3,3.363045E3,9.533828E2,5.4428613E3,1.9429688E1,7.978125E1,1.8873047E2,8.869745E2,2.3616879E4,1.788416E4,2.5362812E3,9.1674255E2,8.0869727E2,3.0997388E2,4.509119E3,1.909043E2,2.6276638E3,1.070709E3,1.2E1,8.449219E1,1.1658203E1,1.1907837E3,0E0,0E0,0E0,0E0,0E0,0E0,0E0,0E0,0E0,0E0,0E0,0E0,0E0,0E0,0E0,0E0,0E0,0E0,0E0,0E0,0E0,0E0,0E0,0E0,0E0,0E0,0E0,0E0,0E0,0E0,0E0,0E0],"parents":[2147483647,0,0,1,1,2,2,3,3,4,4,5,5,6,6,7,7,8,8,9,9,10,10,11,11,12,12,13,13,14,14,15,15,16,16,17,17,18,18,19,19,20,20,21,21,22,22,23,23,24,24,25,25,26,26,27,27,28,28,29,29,30,30],"right_children":[2,4,6,8,10,12,14,16,18,20,22,24,26,28,30,32,34,36,38,40,42,44,46,48,50,52,54,56,58,60,62,-1,-1,-1,-1,-1,-1,-1,-1,-1,-1,-1,-1,-1,-1,-1,-1,-1,-1,-1,-1,-1,-1,-1,-1,-1,-1,-1,-1,-1,-1,-1,-1],"split_conditions":[1.5628484E0,-1.9877177E-1,2.3922172E0,-1.1835693E0,1.4235067E0,4E0,7E0,1.1E1,6E0,9.01E2,1E1,1E0,8E0,3E0,2.597751E0,-1.2144294E0,3.35E2,3E0,9E0,8.9E2,8.38E2,8.64E2,1.3E1,2.148941E0,2E0,2.148941E0,1.1E1,2.597751E0,5E0,1.2E1,1.1E1,-6.1265226E-2,-4.1404177E-2,4.84594E-2,-3.23348E-2,-6.863596E-2,4.7698624E-2,-7.096979E-2,2.4342847E-3,-5.1011033E-2,9.7176306E-2,8.831196E-2,-8.815663E-3,-4.3573327E-2,6.561655E-2,2.8641555E-2,6.5588266E-2,-9.9259E-2,5.5796605E-2,6.2076967E-2,4.9343962E-2,-2.3899851E-2,3.7788384E-2,6.000799E-2,3.7103657E-2,6.0756084E-2,5.6167156E-2,4.5560222E-2,5.8921456E-2,5.7258993E-2,6.1090317E-2,5.387912E-2,-1.3426282E-1],"split_indices":[2,2,2,2,2,1,1,1,1,4,1,1,1,1,2,2,0,1,1,7,7,7,1,2,1,2,1,2,1,1,1,0,0,0,0,0,0,0,0,0,0,0,0,0,0,0,0,0,0,0,0,0,0,0,0,0,0,0,0,0,0,0,0],"split_type":[0,0,0,0,0,0,0,0,0,0,0,0,0,0,0,0,0,0,0,0,0,0,0,0,0,0,0,0,0,0,0,0,0,0,0,0,0,0,0,0,0,0,0,0,0,0,0,0,0,0,0,0,0,0,0,0,0,0,0,0,0,0,0],"sum_hessian":[3.286063E5,2.1330689E5,1.15299414E5,1.0739995E5,1.05906945E5,5.517533E4,6.0124086E4,2.7828484E4,7.957147E4,1.0129633E5,4.610622E3,2.5896955E4,2.9278375E4,4.427356E4,1.5850528E4,2.1524914E4,6.3035703E3,3.489606E4,4.467541E4,1.0030789E5,9.884332E2,2.2384312E3,2.372191E3,3.6775725E3,2.2219383E4,7.1239976E3,2.2154377E4,2.0786709E4,2.348685E4,9.810099E3,6.0404297E3,2.024432E4,1.2805935E3,3.5941455E2,5.944156E3,5.110278E3,2.9785781E4,1.1011317E4,3.366409E4,1.00019195E5,2.8869843E2,4.2708594E2,5.613472E2,2.0544897E3,1.8394136E2,9.4757983E2,1.424611E3,5.50612E2,3.1269604E3,1.8695168E4,3.5242136E3,4.1894224E3,2.934575E3,1.4169416E4,7.9849614E3,1.9044316E4,1.742391E3,1.2699862E3,2.2216863E4,6.4187593E3,3.3913396E3,5.956048E3,8.438169E1],"tree_param":{"num_deleted":"0","num_feature":"19","num_nodes":"63","size_leaf_vector":"1"}},{"base_weights":[7.211681E-4,-5.626988E-1,1.0447031E0,-7.646348E-1,1.9645227E-1,9.282543E-1,1.1514491E0,-1.2080016E-1,-9.617376E-1,-1.3582952E0,2.7503017E-1,1.1056402E0,7.74564E-1,1.1069533E0,1.1813047E0,5.23293E-1,-8.985058E-1,-9.800498E-1,6.207027E-1,-1.4107032E0,-1.3298304E0,1.068324E0,1.08746134E-1,6.0767514E-1,1.1850053E0,6.371604E-2,1.0126268E0,1.1811795E0,1.0184103E0,1.1685879E0,1.1905948E0,-7.123521E-2,3.584456E-2,-5.3181436E-2,4.1569687E-2,-4.0252846E-2,-5.6044754E-2,4.9548935E-2,-4.1681144E-2,-6.3825175E-2,-7.317361E-2,-6.623218E-2,-8.567446E-2,2.9643387E-2,7.6214306E-2,-7.3651575E-2,1.2605934E-2,-9.464922E-2,5.4236323E-2,6.1283715E-2,4.8250422E-2,-1.9323844E-2,3.7734073E-2,5.9150565E-2,3.5064068E-2,5.916467E-2,-6.7843543E-3,5.247506E-2,1.2497286E-2,6.0195226E-2,5.775664E-2,5.9650164E-2,5.67072E-2],"categories":[],"categories_nodes":[],"categories_segments":[],"categories_sizes":[],"default_left":[0,0,0,0,0,0,0,0,0,0,0,0,0,0,0,0,0,0,0,0,0,0,0,0,0,0,0,0,0,0,0,0,0,0,0,0,0,0,0,0,0,0,0,0,0,0,0,0,0,0,0,0,0,0,0,0,0,0,0,0,0,0,0],"id":23,"left_children":[1,3,5,7,9,11,13,15,17,19,21,23,25,27,29,31,33,35,37,39,41,43,45,47,49,51,53,55,57,59,61,-1,-1,-1,-1,-1,-1,-1,-1,-1,-1,-1,-1,-1,-1,-1,-1,-1,-1,-1,-1,-1,-1,-1,-1,-1,-1,-1,-1,-1,-1,-1,-1],"loss_changes":[1.8838669E5,3.1888758E4,1.3943984E3,2.0850867E4,5.3400234E3,1.4630273E3,7.65E1,1.929195E4,3.6459531E3,1.2609863E0,5.488121E3,9.8431055E2,4.8690703E3,1.534668E2,2.75E0,7.945791E3,4.9845566E3,3.0641328E3,7.761065E2,3.256836E0,4.7705078E-1,1.5620684E3,7.8009634E3,4.0918809E3,1.9114844E2,2.2460796E3,1.1425938E3,3.5777344E1,2.5631348E2,5.6621094E0,1.3925781E0,0E0,0E0,0E0,0E0,0E0,0E0,0E0,0E0,0E0,0E0,0E0,0E0,0E0,0E0,0E0,0E0,0E0,0E0,0E0,0E0,0E0,0E0,0E0,0E0,0E0,0E0,0E0,0E0,0E0,0E0,0E0,0E0],"parents":[2147483647,0,0,1,1,2,2,3,3,4,4,5,5,6,6,7,7,8,8,9,9,10,10,11,11,12,12,13,13,14,14,15,15,16,16,17,17,18,18,19,19,20,20,21,21,22,22,23,23,24,24,25,25,26,26,27,27,28,28,29,29,30,30],"right_children":[2,4,6,8,10,12,14,16,18,20,22,24,26,28,30,32,34,36,38,40,42,44,46,48,50,52,54,56,58,60,62,-1,-1,-1,-1,-1,-1,-1,-1,-1,-1,-1,-1,-1,-1,-1,-1,-1,-1,-1,-1,-1,-1,-1,-1,-1,-1,-1,-1,-1,-1,-1,-1],"split_conditions":[1.5628484E0,1.3489168E0,2.3922172E0,-1.2920247E0,3E0,4E0,1.2021978E0,-2.3849232E-1,9.01E2,-1.7964861E-1,6E0,1E0,8E0,-1.2920247E0,1.810172E-1,3E0,8E0,-2.1867889E-1,1.156014E0,-1.1835693E0,1.4996458E0,2.3845756E-1,8E0,2.148941E0,2E0,2.148941E0,1.1E1,2.3637507E0,1.4154743E0,3E0,9E0,-7.123521E-2,3.584456E-2,-5.3181436E-2,4.1569687E-2,-4.0252846E-2,-5.6044754E-2,4.9548935E-2,-4.1681144E-2,-6.3825175E-2,-7.317361E-2,-6.623218E-2,-8.567446E-2,2.9643387E-2,7.6214306E-2,-7.3651575E-2,1.2605934E-2,-9.464922E-2,5.4236323E-2,6.1283715E-2,4.8250422E-2,-1.9323844E-2,3.7734073E-2,5.9150565E-2,3.5064068E-2,5.916467E-2,-6.7843543E-3,5.247506E-2,1.2497286E-2,6.0195226E-2,5.775664E-2,5.9650164E-2,5.67072E-2],"split_indices":[2,15,2,15,1,1,15,2,4,2,1,1,1,15,14,1,1,2,8,2,2,14,1,2,1,2,1,14,17,1,1,0,0,0,0,0,0,0,0,0,0,0,0,0,0,0,0,0,0,0,0,0,0,0,0,0,0,0,0,0,0,0,0],"split_type":[0,0,0,0,0,0,0,0,0,0,0,0,0,0,0,0,0,0,0,0,0,0,0,0,0,0,0,0,0,0,0,0,0,0,0,0,0,0,0,0,0,0,0,0,0,0,0,0,0,0,0,0,0,0,0,0,0,0,0,0,0,0,0],"sum_hessian":[3.2027447E5,2.0801347E5,1.12261E5,1.6430731E5,4.370615E4,5.3695E4,5.8566E4,3.8511484E4,1.25795836E5,2.101882E3,4.1604266E4,2.4923107E4,2.8771893E4,2.3532295E4,3.5033707E4,2.1065465E4,1.744602E4,1.2435713E5,1.4386984E3,7.22709E2,1.3791731E3,7.2086113E3,3.4395656E4,3.4273513E3,2.1495756E4,7.218611E3,2.1553281E4,1.2794342E4,1.0737952E4,1.4842864E4,2.0190842E4,1.9037234E3,1.9161742E4,1.5926212E4,1.5198087E3,5.5458965E4,6.889817E4,1.1469896E3,2.9170874E2,2.1108324E2,5.1162576E2,1.3651694E3,1.4003572E1,3.5299958E3,3.6786152E3,2.8577588E3,3.1537896E4,5.486115E2,2.8787397E3,1.8138139E4,3.3576174E3,4.371098E3,2.847513E3,1.3928227E4,7.6250547E3,1.2773939E4,2.040225E1,1.0320054E4,4.1789883E2,4.0704365E3,1.0772428E4,1.9345326E4,8.455149E2],"tree_param":{"num_deleted":"0","num_feature":"19","num_nodes":"63","size_leaf_vector":"1"}},{"base_weights":[-1.595905E-3,-5.552809E-1,1.0103898E0,-1.9089784E-1,-9.348323E-1,8.790422E-1,1.1370422E0,-9.458497E-1,1.263713E-1,-1.0558422E0,-6.088755E-1,1.0943036E0,7.3945117E-1,1.1619785E0,1.0973386E0,-1.1188054E0,-3.9071563E-1,6.2083197E-1,-2.621243E-1,-8.908285E-1,-1.1810249E0,-6.156384E-2,-2.771367E-1,5.622728E-1,1.1954124E0,2.8512627E-1,9.66436E-1,1.1881611E0,1.1349416E0,1.1118817E0,-1.2739168E-1,-5.6945045E-2,2.4465196E-2,7.2270274E-2,-2.8794987E-2,-6.642371E-2,4.652719E-2,-6.961788E-2,3.4903388E-3,-5.830949E-2,-1.5938228E-2,-6.048376E-2,-4.7146596E-2,8.465925E-2,-1.6575394E-2,-8.824853E-2,5.370834E-2,-4.551464E-3,6.0589757E-2,3.542107E-2,-3.1296674E-2,5.6791015E-2,3.5262078E-2,5.8596022E-2,6.0225405E-2,4.90141E-2,5.716316E-2,5.6828078E-2,5.2078474E-2],"categories":[],"categories_nodes":[],"categories_segments":[],"categories_sizes":[],"default_left":[0,0,0,0,0,0,0,0,0,0,0,0,0,0,0,0,0,0,0,0,0,0,0,0,0,0,0,0,0,0,0,0,0,0,0,0,0,0,0,0,0,0,0,0,0,0,0,0,0,0,0,0,0,0,0,0,0,0,0],"id":24,"left_children":[1,3,5,7,9,11,13,15,17,19,21,23,25,27,29,31,33,35,37,39,41,-1,43,45,47,49,51,53,55,57,-1,-1,-1,-1,-1,-1,-1,-1,-1,-1,-1,-1,-1,-1,-1,-1,-1,-1,-1,-1,-1,-1,-1,-1,-1,-1,-1,-1,-1],"loss_changes":[1.7465684E5,2.7864316E4,1.8327812E3,2.4621402E4,3.8918281E3,1.6253477E3,5.4289062E1,2.919959E3,1.3903585E4,1.4855234E3,5.5165654E3,1.1444004E3,3.3855352E3,2.3039062E1,1.1514004E3,7.499746E2,2.458121E3,1.9227402E4,1.5206273E4,4.890416E3,2.7797656E2,0E0,1.8679094E3,4.0538008E3,3.7706836E2,4.2193306E3,9.6781055E2,3.2304688E0,2.0722656E1,3.6265625E1,0E0,0E0,0E0,0E0,0E0,0E0,0E0,0E0,0E0,0E0,0E0,0E0,0E0,0E0,0E0,0E0,0E0,0E0,0E0,0E0,0E0,0E0,0E0,0E0,0E0,