{"learner":{"attributes":{"scikit_learn":"{\"_estimator_type\": \"classifier\"}"},"feature_names":["merchant","category","amt","gender","street","city","state","zip","lat","long","city_pop","job","merch_lat","merch_long","age","trans_hour","trans_day","trans_month","trans_dayofweek"],"feature_types":["int","int","float","int","int","int","int","int","float","float","float","int","float","float","float","float","float","float","float"],"gradient_booster":{"model":{"gbtree_model_param":{"num_parallel_tree":"1","num_trees":"500"},"iteration_indptr":[0,1,2,3,4,5,6,7,8,9,10,11,12,13,14,15,16,17,18,19,20,21,22,23,24,25,26,27,28,29,30,31,32,33,34,35,36,37,38,39,40,41,42,43,44,45,46,47,48,49,50,51,52,53,54,55,56,57,58,59,60,61,62,63,64,65,66,67,68,69,70,71,72,73,74,75,76,77,78,79,80,81,82,83,84,85,86,87,88,89,90,91,92,93,94,95,96,97,98,99,100,101,102,103,104,105,106,107,108,109,110,111,112,113,114,115,116,117,118,119,120,121,122,123,124,125,126,127,128,129,130,131,132,133,134,135,136,137,138,139,140,141,142,143,144,145,146,147,148,149,150,151,152,153,154,155,156,157,158,159,160,161,162,163,164,165,166,167,168,169,170,171,172,173,174,175,176,177,178,179,180,181,182,183,184,185,186,187,188,189,190,191,192,193,194,195,196,197,198,199,200,201,202,203,204,205,206,207,208,209,210,211,212,213,214,215,216,217,218,219,220,221,222,223,224,225,226,227,228,229,230,231,232,233,234,235,236,237,238,239,240,241,242,243,244,245,246,247,248,249,250,251,252,253,254,255,256,257,258,259,260,261,262,263,264,265,266,267,268,269,270,271,272,273,274,275,276,277,278,279,280,281,282,283,284,285,286,287,288,289,290,291,292,293,294,295,296,297,298,299,300,301,302,303,304,305,306,307,308,309,310,311,312,313,314,315,316,317,318,319,320,321,322,323,324,325,326,327,328,329,330,331,332,333,334,335,336,337,338,339,340,341,342,343,344,345,346,347,348,349,350,351,352,353,354,355,356,357,358,359,360,361,362,363,364,365,366,367,368,369,370,371,372,373,374,375,376,377,378,379,380,381,382,383,384,385,386,387,388,389,390,391,392,393,394,395,396,397,398,399,400,401,402,403,404,405,406,407,408,409,410,411,412,413,414,415,416,417,418,419,420,421,422,423,424,425,426,427,428,429,430,431,432,433,434,435,436,437,438,439,440,441,442,443,444,445,446,447,448,449,450,451,452,453,454,455,456,457,458,459,460,461,462,463,464,465,466,467,468,469,470,471,472,473,474,475,476,477,478,479,480,481,482,483,484,485,486,487,488,489,490,491,492,493,494,495,496,497,498,499,500],"tree_info":[0,0,0,0,0,0,0,0,0,0,0,0,0,0,0,0,0,0,0,0,0,0,0,0,0,0,0,0,0,0,0,0,0,0,0,0,0,0,0,0,0,0,0,0,0,0,0,0,0,0,0,0,0,0,0,0,0,0,0,0,0,0,0,0,0,0,0,0,0,0,0,0,0,0,0,0,0,0,0,0,0,0,0,0,0,0,0,0,0,0,0,0,0,0,0,0,0,0,0,0,0,0,0,0,0,0,0,0,0,0,0,0,0,0,0,0,0,0,0,0,0,0,0,0,0,0,0,0,0,0,0,0,0,0,0,0,0,0,0,0,0,0,0,0,0,0,0,0,0,0,0,0,0,0,0,0,0,0,0,0,0,0,0,0,0,0,0,0,0,0,0,0,0,0,0,0,0,0,0,0,0,0,0,0,0,0,0,0,0,0,0,0,0,0,0,0,0,0,0,0,0,0,0,0,0,0,0,0,0,0,0,0,0,0,0,0,0,0,0,0,0,0,0,0,0,0,0,0,0,0,0,0,0,0,0,0,0,0,0,0,0,0,0,0,0,0,0,0,0,0,0,0,0,0,0,0,0,0,0,0,0,0,0,0,0,0,0,0,0,0,0,0,0,0,0,0,0,0,0,0,0,0,0,0,0,0,0,0,0,0,0,0,0,0,0,0,0,0,0,0,0,0,0,0,0,0,0,0,0,0,0,0,0,0,0,0,0,0,0,0,0,0,0,0,0,0,0,0,0,0,0,0,0,0,0,0,0,0,0,0,0,0,0,0,0,0,0,0,0,0,0,0,0,0,0,0,0,0,0,0,0,0,0,0,0,0,0,0,0,0,0,0,0,0,0,0,0,0,0,0,0,0,0,0,0,0,0,0,0,0,0,0,0,0,0,0,0,0,0,0,0,0,0,0,0,0,0,0,0,0,0,0,0,0,0,0,0,0,0,0,0,0,0,0,0,0,0,0,0,0,0,0,0,0,0,0,0,0,0,0,0,0,0,0,0,0,0,0,0,0,0,0,0,0,0,0,0,0,0,0,0,0,0,0,0,0,0,0,0,0,0,0,0,0,0,0,0,0,0,0,0,0,0,0,0,0,0,0,0,0,0,0,0,0,0,0,0,0,0,0],"trees":[{"base_weights":[2.605444E-3,-1.1836637E0,1.8599594E0,-5.2826107E-1,-1.7454854E0,1.8920333E0,1.0025922E0,-1.7402334E0,1.0427483E-1,-1.8721768E0,-1.3855596E0,3.640763E-1,1.905855E0,-9.993388E-2,1.8701776E0,-1.8692814E0,-1.1509448E0,8.944512E-1,-4.422163E-1,-1.7253458E0,-1.9800702E0,-1.9917035E0,-5.921349E-1,1.2734827E0,-9.977778E-2,1.8128481E0,1.959025E0,-8.82353E-2,1.8757354E0,-9.937106E-2,-6.934044E-2,-6.86475E-3,-8.724635E-2,-9.9983744E-2,7.426808E-2,-6.65287E-2,2.6394311E-2,-9.640103E-2,-6.2717184E-2,-9.9837534E-2,-9.263229E-2,-9.999556E-2,-8.682511E-2,3.9755356E-2,-6.886078E-2,-9.902201E-2,7.922065E-2,9.724743E-2,-9.995405E-2,9.8401845E-2,9.645864E-2,9.540048E-2,6.584937E-2],"categories":[],"categories_nodes":[],"categories_segments":[],"categories_sizes":[],"default_left":[0,0,0,0,0,0,0,0,0,0,0,0,0,0,0,0,0,0,0,0,0,0,0,0,0,0,0,0,0,0,0,0,0,0,0,0,0,0,0,0,0,0,0,0,0,0,0,0,0,0,0,0,0],"id":0,"left_children":[1,3,5,7,9,11,13,15,17,19,21,23,25,-1,27,29,31,33,35,37,39,41,43,45,-1,47,49,-1,51,-1,-1,-1,-1,-1,-1,-1,-1,-1,-1,-1,-1,-1,-1,-1,-1,-1,-1,-1,-1,-1,-1,-1,-1],"loss_changes":[1.0564975E6,1.07745E5,5.1374375E3,1.0353934E5,7.181875E3,3.80375E3,1.755758E4,3.5200312E3,3.8322617E4,1.8426562E3,1.9728164E4,3.4707134E3,8.79375E2,0E0,1.089707E2,2.162875E3,5.011086E3,6.2053625E4,4.5212867E4,4.7101875E3,1.3909375E2,4.5242188E1,1.9352566E4,1.1840573E3,0E0,3.2711234E4,2.671875E1,0E0,9.166992E1,0E0,0E0,0E0,0E0,0E0,0E0,0E0,0E0,0E0,0E0,0E0,0E0,0E0,0E0,0E0,0E0,0E0,0E0,0E0,0E0,0E0,0E0,0E0,0E0],"parents":[2147483647,0,0,1,1,2,2,3,3,4,4,5,5,6,6,7,7,8,8,9,9,10,10,11,11,12,12,14,14,15,15,16,16,17,17,18,18,19,19,20,20,21,21,22,22,23,23,25,25,26,26,28,28],"right_children":[2,4,6,8,10,12,14,16,18,20,22,24,26,-1,28,30,32,34,36,38,40,42,44,46,-1,48,50,-1,52,-1,-1,-1,-1,-1,-1,-1,-1,-1,-1,-1,-1,-1,-1,-1,-1,-1,-1,-1,-1,-1,-1,-1,-1],"split_conditions":[1.5126271E0,-2.216944E-1,8E0,-1.1272409E0,8.5243857E-1,1.5820434E0,1.3E1,-1.2319958E0,6E0,3.6506003E-1,8E0,2E0,2.254616E0,-9.993388E-2,-1.9077656E0,1.1E1,6E0,3E0,-5.2056086E-1,2.6366115E-1,7.831028E-1,1.4657288E0,9E0,1E0,-9.977778E-2,3E0,7E0,-8.82353E-2,5.2309364E-1,-9.937106E-2,-6.934044E-2,-6.86475E-3,-8.724635E-2,-9.9983744E-2,7.426808E-2,-6.65287E-2,2.6394311E-2,-9.640103E-2,-6.2717184E-2,-9.9837534E-2,-9.263229E-2,-9.999556E-2,-8.682511E-2,3.9755356E-2,-6.886078E-2,-9.902201E-2,7.922065E-2,9.724743E-2,-9.995405E-2,9.8401845E-2,9.645864E-2,9.540048E-2,6.584937E-2],"split_indices":[2,2,1,2,2,2,1,2,1,2,1,1,2,0,12,1,1,1,2,2,2,2,1,1,0,1,1,0,14,0,0,0,0,0,0,0,0,0,0,0,0,0,0,0,0,0,0,0,0,0,0,0,0],"split_type":[0,0,0,0,0,0,0,0,0,0,0,0,0,0,0,0,0,0,0,0,0,0,0,0,0,0,0,0,0,0,0,0,0,0,0,0,0,0,0,0,0,0,0,0,0,0,0,0,0,0,0,0,0],"sum_hessian":[4.7950016E5,2.926125E5,1.8688766E5,1.3505903E5,1.5755348E5,1.8014717E5,6.740475E3,4.6315094E4,8.874393E4,1.16531125E5,4.102235E4,1.6152123E3,1.7853197E5,1.51125E3,5.229225E3,3.7992875E4,8.322218E3,3.628234E4,5.2461594E4,4.936623E4,6.71649E4,2.3254986E4,1.7767365E4,1.1662123E3,4.49E2,6.4951594E4,1.13580375E5,7.5E0,5.221725E3,3.051722E4,7.475655E3,3.0753184E3,5.2468994E3,6.1515E3,3.0130838E4,2.738437E4,2.5077225E4,3.4512312E4,1.4853916E4,5.9377484E4,7.7874136E3,2.252375E4,7.312356E2,6.421148E3,1.1346218E4,1.0125E2,1.0649623E3,6.2776594E4,2.175E3,8.719319E4,2.638719E4,4.934297E3,2.8742807E2],"tree_param":{"num_deleted":"0","num_feature":"19","num_nodes":"53","size_leaf_vector":"1"}},{"base_weights":[-3.228516E-3,-1.1380799E0,1.7695014E0,-1.4104348E0,1.677872E-1,1.8003215E0,9.021072E-1,-2.8974387E-1,-1.7234282E0,6.467892E-1,-5.8181834E-1,2.006331E-1,1.8134348E0,-9.518187E-2,1.7696105E0,9.497294E-1,-1.7857387E0,-1.5216357E0,-1.8579353E0,-9.7407085E-1,1.1115446E0,-1.1362281E0,3.972261E-1,1.1175216E0,-9.5038064E-2,1.7372398E0,1.8893261E0,1.1459792E0,1.8547077E0,-8.406574E-2,6.97932E-2,-9.50259E-2,1.1279455E-2,-9.221108E-2,-5.9525162E-2,-9.336251E-2,-6.168113E-2,-8.477117E-2,1.1043408E-2,6.0726047E-2,-9.871319E-2,-8.880352E-2,-1.4144762E-2,-9.517237E-2,3.8322233E-2,-9.434275E-2,7.229749E-2,9.3221284E-2,7.441308E-2,9.128658E-2,9.499588E-2,7.121927E-2,-1.0155E-1,-8.67089E-2,9.2953585E-2],"categories":[],"categories_nodes":[],"categories_segments":[],"categories_sizes":[],"default_left":[0,0,0,0,0,0,0,0,0,0,0,0,0,0,0,0,0,0,0,0,0,0,0,0,0,0,0,0,0,0,0,0,0,0,0,0,0,0,0,0,0,0,0,0,0,0,0,0,0,0,0,0,0,0,0],"id":1,"left_children":[1,3,5,7,9,11,13,15,17,19,21,23,25,-1,27,29,31,33,35,37,39,41,43,45,-1,47,49,51,53,-1,-1,-1,-1,-1,-1,-1,-1,-1,-1,-1,-1,-1,-1,-1,-1,-1,-1,-1,-1,-1,-1,-1,-1,-1,-1],"loss_changes":[9.609449E5,1.0357684E5,4.982375E3,8.452344E4,1.804603E4,3.7763125E3,1.5578535E4,9.7549516E4,5.1098125E3,2.3100387E4,1.0636286E4,2.8247268E3,1.0293125E3,0E0,2.5729297E2,3.377403E4,5.503547E3,8.0458125E3,6.549375E2,5.890794E3,7.575168E3,6.8302803E3,6.019875E3,1.0097438E3,0E0,2.8193125E3,5.68125E1,5.243501E2,7.05625E1,0E0,0E0,0E0,0E0,0E0,0E0,0E0,0E0,0E0,0E0,0E0,0E0,0E0,0E0,0E0,0E0,0E0,0E0,0E0,0E0,0E0,0E0,0E0,0E0,0E0,0E0],"parents":[2147483647,0,0,1,1,2,2,3,3,4,4,5,5,6,6,7,7,8,8,9,9,10,10,11,11,12,12,14,14,15,15,16,16,17,17,18,18,19,19,20,20,21,21,22,22,23,23,25,25,26,26,27,27,28,28],"right_children":[2,4,6,8,10,12,14,16,18,20,22,24,26,-1,28,30,32,34,36,38,40,42,44,46,-1,48,50,52,54,-1,-1,-1,-1,-1,-1,-1,-1,-1,-1,-1,-1,-1,-1,-1,-1,-1,-1,-1,-1,-1,-1,-1,-1,-1,-1],"split_conditions":[1.5126271E0,1.3489168E0,8E0,-1.2920247E0,-2.216944E-1,1.5820434E0,1.3E1,-2.4127603E-1,-2.216944E-1,-1.0996021E0,8.4291565E-1,2E0,1.3489168E0,-9.518187E-2,1.0554788E0,-1.2004436E0,8E0,-1.0594612E0,1.4306931E0,1.7861718E-1,1.3E1,1.7861718E-1,8E0,1E0,-9.5038064E-2,-1.2920247E0,2.254616E0,1E0,-1.1992886E0,-8.406574E-2,6.97932E-2,-9.50259E-2,1.1279455E-2,-9.221108E-2,-5.9525162E-2,-9.336251E-2,-6.168113E-2,-8.477117E-2,1.1043408E-2,6.0726047E-2,-9.871319E-2,-8.880352E-2,-1.4144762E-2,-9.517237E-2,3.8322233E-2,-9.434275E-2,7.229749E-2,9.3221284E-2,7.441308E-2,9.128658E-2,9.499588E-2,7.121927E-2,-1.0155E-1,-8.67089E-2,9.2953585E-2],"split_indices":[2,15,1,15,2,2,1,2,2,2,2,1,15,0,15,2,1,2,2,14,1,14,1,1,0,15,2,3,14,0,0,0,0,0,0,0,0,0,0,0,0,0,0,0,0,0,0,0,0,0,0,0,0,0,0],"split_type":[0,0,0,0,0,0,0,0,0,0,0,0,0,0,0,0,0,0,0,0,0,0,0,0,0,0,0,0,0,0,0,0,0,0,0,0,0,0,0,0,0,0,0,0,0,0,0,0,0,0,0,0,0,0,0],"sum_hessian":[4.7765584E5,2.912233E5,1.8643255E5,2.4096662E5,5.0256688E4,1.8003452E5,6.39802E3,5.2606816E4,1.8835981E5,3.0663002E4,1.9593688E4,1.4639596E3,1.7857056E5,1.510725E3,4.887295E3,2.877024E4,2.3836578E4,7.534165E4,1.1301816E5,6.832654E3,2.3830348E4,1.2509623E4,7.084064E3,1.0195666E3,4.4439304E2,8.9118875E4,8.945169E4,5.885562E2,4.298739E3,4.1707573E3,2.4599482E4,2.2549797E4,1.2867803E3,3.8161004E4,3.7180645E4,1.1135472E5,1.663443E3,4.2603667E3,2.572287E3,2.3061375E4,7.689731E2,7.1484907E3,5.3611323E3,9.790783E2,6.104986E3,1.00004654E2,9.1956195E2,5.8982363E4,3.0136516E4,1.2795661E4,7.665602E4,5.4164246E2,4.6913765E1,4.7392087E0,4.2939995E3],"tree_param":{"num_deleted":"0","num_feature":"19","num_nodes":"55","size_leaf_vector":"1"}},{"base_weights":[9.901265E-4,-1.0779344E0,1.6930808E0,-1.3373144E0,1.5935028E-1,1.7227651E0,8.9083385E-1,-2.7087787E-1,-1.6355494E0,5.9968066E-1,-5.176691E-1,2.4337904E-1,1.735332E0,-9.107693E-2,1.6984962E0,9.034643E-1,-1.6712223E0,-1.4399751E0,-1.7665544E0,-1.0835797E0,1.0342932E0,-9.9017835E-1,3.5277745E-1,1.116711E0,-9.094608E-2,1.6626278E0,1.8074495E0,1.1331319E0,1.8047181E0,-8.905234E-2,6.5483E-2,-9.132969E-2,2.7123962E-2,-8.8627055E-2,-5.5159505E-2,-8.876906E-2,-5.886025E-2,-8.952957E-2,5.0439E-3,-6.723816E-3,6.5144464E-2,-8.4688336E-2,-8.897384E-3,-9.1066875E-2,3.5036374E-2,-9.030876E-2,7.122438E-2,8.9152545E-2,7.1653016E-2,8.725735E-2,9.089105E-2,7.082334E-2,-1.0252813E-1,9.075727E-2,8.641687E-2],"categories":[],"categories_nodes":[],"categories_segments":[],"categories_sizes":[],"default_left":[0,0,0,0,0,0,0,0,0,0,0,0,0,0,0,0,0,0,0,0,0,0,0,0,0,0,0,0,0,0,0,0,0,0,0,0,0,0,0,0,0,0,0,0,0,0,0,0,0,0,0,0,0,0,0],"id":2,"left_children":[1,3,5,7,9,11,13,15,17,19,21,23,25,-1,27,29,31,33,35,37,39,41,43,45,-1,47,49,51,53,-1,-1,-1,-1,-1,-1,-1,-1,-1,-1,-1,-1,-1,-1,-1,-1,-1,-1,-1,-1,-1,-1,-1,-1,-1,-1],"loss_changes":[8.688467E5,9.326534E4,4.41125E3,7.640991E4,1.5014869E4,3.32175E3,1.4491965E4,8.634478E4,4.8076562E3,2.232681E4,8.164041E3,2.7149607E3,9.259375E2,0E0,3.0404102E2,3.1142402E4,8.237922E3,8.433844E3,5.8275E2,5.2450396E3,7.614662E3,7.351968E3,5.284852E3,9.5506006E2,0E0,2.4370312E3,5.43125E1,7.325145E2,2.7929688E-1,0E0,0E0,0E0,0E0,0E0,0E0,0E0,0E0,0E0,0E0,0E0,0E0,0E0,0E0,0E0,0E0,0E0,0E0,0E0,0E0,0E0,0E0,0E0,0E0,0E0,0E0],"parents":[2147483647,0,0,1,1,2,2,3,3,4,4,5,5,6,6,7,7,8,8,9,9,10,10,11,11,12,12,14,14,15,15,16,16,17,17,18,18,19,19,20,20,21,21,22,22,23,23,25,25,26,26,27,27,28,28],"right_children":[2,4,6,8,10,12,14,16,18,20,22,24,26,-1,28,30,32,34,36,38,40,42,44,46,-1,48,50,52,54,-1,-1,-1,-1,-1,-1,-1,-1,-1,-1,-1,-1,-1,-1,-1,-1,-1,-1,-1,-1,-1,-1,-1,-1,-1,-1],"split_conditions":[1.5126271E0,1.3489168E0,8E0,-1.2920247E0,-2.216944E-1,1.5820434E0,1.3E1,-2.4127603E-1,-2.216944E-1,-1.1272409E0,8.4291565E-1,2E0,1.3489168E0,-9.107693E-2,1.3489168E0,-1.2319958E0,8E0,-1.0594612E0,1.4306931E0,1.7861718E-1,9E0,1.21204436E-1,8E0,1E0,-9.094608E-2,-1.2920247E0,2.254616E0,1.7861718E-1,1E0,-8.905234E-2,6.5483E-2,-9.132969E-2,2.7123962E-2,-8.8627055E-2,-5.5159505E-2,-8.876906E-2,-5.886025E-2,-8.952957E-2,5.0439E-3,-6.723816E-3,6.5144464E-2,-8.4688336E-2,-8.897384E-3,-9.1066875E-2,3.5036374E-2,-9.030876E-2,7.122438E-2,8.9152545E-2,7.1653016E-2,8.725735E-2,9.089105E-2,7.082334E-2,-1.0252813E-1,9.075727E-2,8.641687E-2],"split_indices":[2,15,1,15,2,2,1,2,2,2,2,1,15,0,15,2,1,2,2,14,1,14,1,1,0,15,2,14,3,0,0,0,0,0,0,0,0,0,0,0,0,0,0,0,0,0,0,0,0,0,0,0,0,0,0],"split_type":[0,0,0,0,0,0,0,0,0,0,0,0,0,0,0,0,0,0,0,0,0,0,0,0,0,0,0,0,0,0,0,0,0,0,0,0,0,0,0,0,0,0,0,0,0,0,0,0,0,0,0,0,0,0,0],"sum_hessian":[4.75912E5,2.9061078E5,1.8530122E5,2.4024631E5,5.0364465E4,1.7868836E5,6.612865E3,5.2503793E4,1.8774252E5,3.0516672E4,1.9847793E4,1.5052852E3,1.7718306E5,1.5170157E3,5.0958496E3,2.8556443E4,2.3947352E4,7.531643E4,1.1242608E5,6.2620757E3,2.4254596E4,1.2864401E4,6.9833916E3,1.0577946E3,4.4749063E2,8.824464E4,8.893843E4,8.078336E2,4.288016E3,3.7525793E3,2.4803863E4,2.237697E4,1.5703806E3,3.7893445E4,3.7422984E4,1.1076512E5,1.6609655E3,3.921056E3,2.3410198E3,4.5324746E3,1.9722121E4,6.8926304E3,5.971771E3,9.628609E2,6.020531E3,1.0030943E2,9.574851E2,5.7877402E4,3.0367236E4,1.2716596E4,7.6221836E4,7.42325E2,6.550861E1,3.752915E3,5.3510077E2],"tree_param":{"num_deleted":"0","num_feature":"19","num_nodes":"55","size_leaf_vector":"1"}},{"base_weights":[9.9987E-3,-1.0296896E0,1.6263777E0,-4.5765108E-1,-1.5341305E0,1.6304775E0,-8.769239E-2,-1.5300661E0,8.53372E-2,-1.6423358E0,-1.2380706E0,1.4940472E0,1.7149436E0,-1.614396E0,-8.4614134E-1,6.792305E-1,-1.863972E-1,-1.7323589E0,-1.4845339E0,-1.5435473E0,-8.024214E-1,1.6051662E0,9.491907E-1,1.7048488E0,1.744928E0,-8.654212E-2,-7.317534E-2,-7.5698714E-3,-6.818878E-2,1.6588356E-2,4.9498614E-2,-3.0432627E-2,2.1619065E-2,-5.291422E-2,-8.727274E-2,-5.7881005E-2,-8.782215E-2,-6.999307E-2,-8.578284E-2,-4.920723E-2,2.6904618E-2,8.21762E-2,4.5364518E-2,-1.02965884E-1,5.3047504E-2,8.423751E-2,8.609395E-2,8.674524E-2,8.780873E-2],"categories":[],"categories_nodes":[],"categories_segments":[],"categories_sizes":[],"default_left":[0,0,0,0,0,0,0,0,0,0,0,0,0,0,0,0,0,0,0,0,0,0,0,0,0,0,0,0,0,0,0,0,0,0,0,0,0,0,0,0,0,0,0,0,0,0,0,0,0],"id":3,"left_children":[1,3,5,7,9,11,-1,13,15,17,19,21,23,25,27,29,31,33,35,37,39,41,43,45,47,-1,-1,-1,-1,-1,-1,-1,-1,-1,-1,-1,-1,-1,-1,-1,-1,-1,-1,-1,-1,-1,-1,-1,-1],"loss_changes":[7.9707694E5,8.328941E4,2.5758125E3,7.876283E4,4.911625E3,2.1343125E3,0E0,2.620836E3,1.4491407E4,1.5930938E3,5.462824E3,4.2918906E3,3.171875E1,7.0860156E2,1.7952871E3,3.043211E3,1.6097334E4,6.294844E2,3.6255547E3,5.944258E2,4.123616E3,1.5752188E3,4.0419688E3,2.64375E1,1.953125E-1,0E0,0E0,0E0,0E0,0E0,0E0,0E0,0E0,0E0,0E0,0E0,0E0,0E0,0E0,0E0,0E0,0E0,0E0,0E0,0E0,0E0,0E0,0E0,0E0],"parents":[2147483647,0,0,1,1,2,2,3,3,4,4,5,5,7,7,8,8,9,9,10,10,11,11,12,12,13,13,14,14,15,15,16,16,17,17,18,18,19,19,20,20,21,21,22,22,23,23,24,24],"right_children":[2,4,6,8,10,12,-1,14,16,18,20,22,24,26,28,30,32,34,36,38,40,42,44,46,48,-1,-1,-1,-1,-1,-1,-1,-1,-1,-1,-1,-1,-1,-1,-1,-1,-1,-1,-1,-1,-1,-1,-1,-1],"split_conditions":[1.5126271E0,-2.0200527E-1,6.72E2,-1.1272409E0,8.4291565E-1,2.254616E0,-8.769239E-2,-1.1856587E0,2.13E2,1.7861718E-1,3.76E2,2.82E2,7.66E2,1.7861718E-1,2.26E2,-8.8218105E-1,-4.6860972E-1,-1.6434541E-1,3.5864934E-1,1.0729461E0,1.4021734E0,1.9466655E0,3.15E2,1E0,9E2,-8.654212E-2,-7.317534E-2,-7.5698714E-3,-6.818878E-2,1.6588356E-2,4.9498614E-2,-3.0432627E-2,2.1619065E-2,-5.291422E-2,-8.727274E-2,-5.7881005E-2,-8.782215E-2,-6.999307E-2,-8.578284E-2,-4.920723E-2,2.6904618E-2,8.21762E-2,4.5364518E-2,-1.02965884E-1,5.3047504E-2,8.423751E-2,8.609395E-2,8.674524E-2,8.780873E-2],"split_indices":[2,2,0,2,2,2,0,2,0,14,0,0,4,14,0,2,2,2,2,2,2,2,0,3,4,0,0,0,0,0,0,0,0,0,0,0,0,0,0,0,0,0,0,0,0,0,0,0,0],"split_type":[0,0,0,0,0,0,0,0,0,0,0,0,0,0,0,0,0,0,0,0,0,0,0,0,0,0,0,0,0,0,0,0,0,0,0,0,0,0,0,0,0,0,0,0,0,0,0,0,0],"sum_hessian":[4.7429884E5,2.8864E5,1.8565883E5,1.3525831E5,1.5338169E5,1.8543444E5,2.2439493E2,4.5463996E4,8.979431E4,1.1232435E5,4.1057332E4,7.091327E4,1.14521164E5,4.047229E4,4.991708E3,2.8187402E4,6.160691E4,7.151586E4,4.0808496E4,2.4132861E4,1.6924473E4,5.8899305E4,1.2013974E4,8.57197E4,2.8801455E4,2.2837402E4,1.7634887E4,2.1318003E3,2.8599077E3,1.330838E4,1.4879022E4,3.6618445E4,2.4988465E4,1.3644841E3,7.0151375E4,1.8532406E4,2.227609E4,1.315747E4,1.0975392E4,1.4904279E4,2.0201929E3,5.5829355E4,3.0699485E3,4.2968326E2,1.158429E4,3.9363727E4,4.635598E4,1.5311074E4,1.349038E4],"tree_param":{"num_deleted":"0","num_feature":"19","num_nodes":"49","size_leaf_vector":"1"}},{"base_weights":[-1.8266254E-3,-9.9199843E-1,1.5636086E0,-4.3093985E-1,-1.473846E0,1.591317E0,7.8991127E-1,-1.4501824E0,1.00217864E-1,-1.6958855E0,-1.330675E0,2.0903425E-1,1.6035506E0,-8.887139E-2,1.5903308E0,-1.5568774E0,-9.605273E-1,8.1510466E-1,-4.027129E-1,-1.6987113E0,-1.3452498E0,-1.4894655E0,-8.700632E-1,1.0082748E0,-8.954902E-2,1.514571E0,1.6541566E0,-8.79433E-2,1.5961206E0,-8.4364705E-2,-5.2306164E-2,-1.6625246E-3,-7.5857565E-2,-9.265614E-2,6.7398384E-2,-6.1498847E-2,2.6061976E-2,-8.571928E-2,-8.472576E-2,-8.679368E-2,7.861131E-2,-3.1995714E-2,-7.817313E-2,-8.514582E-2,-2.7586041E-2,-8.880802E-2,6.4790905E-2,8.2332805E-2,-1.0523418E-1,8.221987E-2,8.413493E-2,8.088306E-2,3.9265618E-2],"categories":[],"categories_nodes":[],"categories_segments":[],"categories_sizes":[],"default_left":[0,0,0,0,0,0,0,0,0,0,0,0,0,0,0,0,0,0,0,0,0,0,0,0,0,0,0,0,0,0,0,0,0,0,0,0,0,0,0,0,0,0,0,0,0,0,0,0,0,0,0,0,0],"id":4,"left_children":[1,3,5,7,9,11,13,15,17,19,21,23,25,-1,27,29,31,33,35,37,39,41,43,45,-1,47,49,-1,51,-1,-1,-1,-1,-1,-1,-1,-1,-1,-1,-1,-1,-1,-1,-1,-1,-1,-1,-1,-1,-1,-1,-1,-1],"loss_changes":[7.236392E5,7.730931E4,3.8764688E3,7.153004E4,4.8883438E3,2.9526562E3,1.2858418E4,2.363336E3,3.123021E4,5.746875E1,6.8401406E3,2.4523884E3,7.76875E2,0E0,9.529297E1,2.4738438E3,4.1813403E3,5.1005203E4,3.897503E4,1.03125E0,5.576385E2,4.3716562E3,6.3574395E3,8.797938E2,0E0,3.0008828E4,2.796875E1,0E0,8.189746E1,0E0,0E0,0E0,0E0,0E0,0E0,0E0,0E0,0E0,0E0,0E0,0E0,0E0,0E0,0E0,0E0,0E0,0E0,0E0,0E0,0E0,0E0,0E0,0E0],"parents":[2147483647,0,0,1,1,2,2,3,3,4,4,5,5,6,6,7,7,8,8,9,9,10,10,11,11,12,12,14,14,15,15,16,16,17,17,18,18,19,19,20,20,21,21,22,22,23,23,25,25,26,26,28,28],"right_children":[2,4,6,8,10,12,14,16,18,20,22,24,26,-1,28,30,32,34,36,38,40,42,44,46,-1,48,50,-1,52,-1,-1,-1,-1,-1,-1,-1,-1,-1,-1,-1,-1,-1,-1,-1,-1,-1,-1,-1,-1,-1,-1,-1,-1],"split_conditions":[1.5126271E0,-2.4127603E-1,8E0,-1.1272409E0,4E0,1.5820434E0,1.3E1,-1.2319958E0,6E0,1.4657288E0,8.4291565E-1,2E0,2.254616E0,-8.887139E-2,-1.9077656E0,1.1E1,6E0,3E0,-5.2056086E-1,3.6506003E-1,1.8435867E0,5E0,8E0,1E0,-8.954902E-2,3E0,7.66E2,-8.79433E-2,1.0398083E0,-8.4364705E-2,-5.2306164E-2,-1.6625246E-3,-7.5857565E-2,-9.265614E-2,6.7398384E-2,-6.1498847E-2,2.6061976E-2,-8.571928E-2,-8.472576E-2,-8.679368E-2,7.861131E-2,-3.1995714E-2,-7.817313E-2,-8.514582E-2,-2.7586041E-2,-8.880802E-2,6.4790905E-2,8.2332805E-2,-1.0523418E-1,8.221987E-2,8.413493E-2,8.088306E-2,3.9265618E-2],"split_indices":[2,2,1,2,1,2,1,2,1,2,2,1,2,0,12,1,1,1,2,2,14,1,1,1,0,1,4,0,14,0,0,0,0,0,0,0,0,0,0,0,0,0,0,0,0,0,0,0,0,0,0,0,0],"split_type":[0,0,0,0,0,0,0,0,0,0,0,0,0,0,0,0,0,0,0,0,0,0,0,0,0,0,0,0,0,0,0,0,0,0,0,0,0,0,0,0,0,0,0,0,0,0,0,0,0,0,0,0,0],"sum_hessian":[4.6684697E5,2.85967E5,1.8087998E5,1.3212444E5,1.5384255E5,1.7462506E5,6.2549185E3,4.5264438E4,8.686001E4,6.0305562E4,9.353699E4,1.5320583E3,1.73093E5,1.4863246E3,4.7685938E3,3.716424E4,8.1002E3,3.5870938E4,5.098907E4,5.981964E4,4.859183E2,6.955611E4,2.3980885E4,1.0949808E3,4.3707748E2,6.276519E4,1.1032781E5,7.7066164E0,4.760887E3,2.960305E4,7.561188E3,3.0388525E3,5.0613477E3,5.970769E3,2.9900168E4,2.6901969E4,2.4087102E4,1.2546183E4,4.727346E4,4.2889777E2,5.7020535E1,5.5737886E3,6.398232E4,6.630278E3,1.7350605E4,1.0200781E2,9.929731E2,6.055575E4,2.2094438E3,8.225996E4,2.806785E4,4.6367095E3,1.2417783E2],"tree_param":{"num_deleted":"0","num_feature":"19","num_nodes":"53","size_leaf_vector":"1"}},{"base_weights":[-1.8671702E-3,-9.492769E-1,1.5092791E0,-1.1969382E0,2.1897952E-1,1.3763784E0,1.5938166E0,-1.9187462E-1,-1.4821316E0,6.0744894E-1,-4.0487424E-1,1.5871509E0,1.0948887E0,1.5232457E0,1.6278613E0,8.611542E-1,-1.5090055E0,-1.494349E0,2.3989539E-1,-1.0786304E-1,1.3485279E0,-8.2568574E-1,3.6627054E-1,1.5999652E0,1.224643E0,5.3493714E-1,1.5346633E0,1.6041381E0,1.4460626E0,1.6169212E0,8.175351E-2,-7.409908E-2,6.2023338E-2,-8.170329E-2,-6.23034E-2,-6.776359E-2,-7.9115026E-2,5.0804343E-2,-8.317583E-2,-4.7326215E-2,1.7441548E-2,7.309409E-2,3.3442758E-2,-7.4596114E-2,3.5383154E-3,-6.752716E-2,2.468722E-2,5.6961764E-2,8.043261E-2,7.71492E-2,-1.0448163E-1,5.341527E-2,-1.17492145E-2,7.19615E-2,8.1449E-2,8.162444E-2,-1.2716688E-1,6.60172E-2,7.756018E-2,7.827764E-2,8.140932E-2],"categories":[],"categories_nodes":[],"categories_segments":[],"categories_sizes":[],"default_left":[0,0,0,0,0,0,0,0,0,0,0,0,0,0,0,0,0,0,0,0,0,0,0,0,0,0,0,0,0,0,0,0,0,0,0,0,0,0,0,0,0,0,0,0,0,0,0,0,0,0,0,0,0,0,0,0,0,0,0,0,0],"id":5,"left_children":[1,3,5,7,9,11,13,15,17,19,21,23,25,27,29,31,33,35,37,39,41,43,45,47,49,51,53,55,57,59,-1,-1,-1,-1,-1,-1,-1,-1,-1,-1,-1,-1,-1,-1,-1,-1,-1,-1,-1,-1,-1,-1,-1,-1,-1,-1,-1,-1,-1,-1,-1],"loss_changes":[6.5891925E5,8.18487E4,1.9904062E3,6.690303E4,1.1991961E4,4.0897422E3,2.579375E2,7.1559086E4,3.8255625E3,1.6164969E4,6.1622295E3,1.8121875E2,7.271121E3,2.1801562E2,3.140625E0,2.5484416E4,7.5171875E2,2.2061562E3,1.8953219E3,5.9437344E3,1.152916E3,7.337384E3,1.4679346E3,1.5058594E2,1.428138E3,5.335367E3,1.4652734E2,2.0291719E3,2.3679688E2,1.43046875E1,0E0,0E0,0E0,0E0,0E0,0E0,0E0,0E0,0E0,0E0,0E0,0E0,0E0,0E0,0E0,0E0,0E0,0E0,0E0,0E0,0E0,0E0,0E0,0E0,0E0,0E0,0E0,0E0,0E0,0E0,0E0],"parents":[2147483647,0,0,1,1,2,2,3,3,4,4,5,5,6,6,7,7,8,8,9,9,10,10,11,11,12,12,13,13,14,14,15,15,16,16,17,17,18,18,19,19,20,20,21,21,22,22,23,23,24,24,25,25,26,26,27,27,28,28,29,29],"right_children":[2,4,6,8,10,12,14,16,18,20,22,24,26,28,30,32,34,36,38,40,42,44,46,48,50,52,54,56,58,60,-1,-1,-1,-1,-1,-1,-1,-1,-1,-1,-1,-1,-1,-1,-1,-1,-1,-1,-1,-1,-1,-1,-1,-1,-1,-1,-1,-1,-1,-1,-1],"split_conditions":[1.5126271E0,1.3489168E0,2.254616E0,-1.2920247E0,-2.0200527E-1,-1.2920247E0,1.3489168E0,-2.4127603E-1,9E2,-5.2056086E-1,8.4291565E-1,1.9466655E0,1.3489168E0,-1.2920247E0,2.3602992E-1,-1.1856587E0,8.080329E-1,-2.836211E-1,-3.27371E-1,-1.1856587E0,2.9344267E-1,2.3602992E-1,-1.1992886E0,1.5820434E0,2.3602992E-1,-1.1827295E-1,2.3602992E-1,2.3602992E-1,2.9344267E-1,1E0,8.175351E-2,-7.409908E-2,6.2023338E-2,-8.170329E-2,-6.23034E-2,-6.776359E-2,-7.9115026E-2,5.0804343E-2,-8.317583E-2,-4.7326215E-2,1.7441548E-2,7.309409E-2,3.3442758E-2,-7.4596114E-2,3.5383154E-3,-6.752716E-2,2.468722E-2,5.6961764E-2,8.043261E-2,7.71492E-2,-1.0448163E-1,5.341527E-2,-1.17492145E-2,7.19615E-2,8.1449E-2,8.162444E-2,-1.2716688E-1,6.60172E-2,7.756018E-2,7.827764E-2,8.140932E-2],"split_indices":[2,15,2,15,2,15,15,2,4,2,2,2,15,15,14,2,2,2,2,2,14,14,14,2,14,15,14,14,14,3,0,0,0,0,0,0,0,0,0,0,0,0,0,0,0,0,0,0,0,0,0,0,0,0,0,0,0,0,0,0,0],"split_type":[0,0,0,0,0,0,0,0,0,0,0,0,0,0,0,0,0,0,0,0,0,0,0,0,0,0,0,0,0,0,0,0,0,0,0,0,0,0,0,0,0,0,0,0,0,0,0,0,0,0,0,0,0,0,0,0,0,0,0,0,0],"sum_hessian":[4.602417E5,2.828868E5,1.7735488E5,2.3340645E5,4.9480363E4,6.896024E4,1.0839464E5,5.1591637E4,1.8181481E5,3.049276E4,1.8987604E4,3.94308E4,2.9529438E4,3.5289375E4,7.3105266E4,2.8670387E4,2.292125E4,1.805341E5,1.2807222E3,1.5516559E4,1.4976201E4,1.2284122E4,6.703482E3,3.808126E4,1.34954E3,1.299083E4,1.6538607E4,1.7220984E4,1.806839E4,2.9127246E4,4.397802E4,3.9941748E3,2.4676213E4,1.5529691E4,7.391559E3,6.99457E4,1.1058839E5,9.100709E2,3.7065118E2,5.4701826E3,1.0046376E4,1.2834542E4,2.141659E3,7.04653E3,5.237593E3,4.6266943E2,6.2408125E3,7.0716943E2,3.7374094E4,1.231762E3,1.1777809E2,7.6741343E3,5.316696E3,8.228722E3,8.309886E3,1.710467E4,1.16315025E2,8.235114E3,9.833275E3,5.263953E3,2.3863293E4],"tree_param":{"num_deleted":"0","num_feature":"19","num_nodes":"61","size_leaf_vector":"1"}},{"base_weights":[-4.769278E-3,-9.1020185E-1,1.45917E0,-1.1466525E0,2.0338672E-1,1.4862733E0,7.248698E-1,-1.7712185E-1,-1.4223057E0,-1.6928104E0,3.1175688E-1,5.138785E-3,1.4985113E0,-8.592244E-2,1.4871438E0,8.328177E-1,-1.4515965E0,-1.4342108E0,2.566907E-1,-1.8083371E0,-8.181871E-2,-9.37781E-1,4.5025384E-1,8.278682E-1,-8.6920545E-2,1.4246931E0,1.5701687E0,8.657209E-1,1.5657421E0,5.8475174E-2,-9.072622E-2,-7.928373E-2,2.755635E-2,-6.437701E-2,-7.669788E-2,5.0537057E-2,-8.050601E-2,-8.1945084E-2,-9.427748E-2,-8.15052E-2,3.8781834E-3,4.629877E-2,-1.02873435E-2,-1.06531635E-1,5.8701623E-2,7.737685E-2,5.9225548E-2,7.580723E-2,7.895625E-2,5.769518E-2,-1.0080105E-1,-9.498618E-2,7.8450054E-2],"categories":[],"categories_nodes":[],"categories_segments":[],"categories_sizes":[],"default_left":[0,0,0,0,0,0,0,0,0,0,0,0,0,0,0,0,0,0,0,0,0,0,0,0,0,0,0,0,0,0,0,0,0,0,0,0,0,0,0,0,0,0,0,0,0,0,0,0,0,0,0,0,0],"id":6,"left_children":[1,3,5,7,9,11,13,15,17,19,21,23,25,-1,27,29,31,33,35,37,-1,39,41,43,-1,45,47,49,51,-1,-1,-1,-1,-1,-1,-1,-1,-1,-1,-1,-1,-1,-1,-1,-1,-1,-1,-1,-1,-1,-1,-1,-1],"loss_changes":[5.9988375E5,7.36282E4,3.440875E3,6.1642375E4,1.0064572E4,3.0232812E3,1.1472113E4,6.572498E4,3.590125E3,1.4304199E1,8.017936E3,1.963552E3,8.7278125E2,0E0,2.2793066E2,2.5394113E4,6.062672E3,2.6069375E3,1.7827278E3,8.153809E0,0E0,3.249822E3,1.3015762E4,9.5493225E2,0E0,2.402625E3,3.8203125E1,4.4191034E2,5.0029297E1,0E0,0E0,0E0,0E0,0E0,0E0,0E0,0E0,0E0,0E0,0E0,0E0,0E0,0E0,0E0,0E0,0E0,0E0,0E0,0E0,0E0,0E0,0E0,0E0],"parents":[2147483647,0,0,1,1,2,2,3,3,4,4,5,5,6,6,7,7,8,8,9,9,10,10,11,11,12,12,14,14,15,15,16,16,17,17,18,18,19,19,21,21,22,22,23,23,25,25,26,26,27,27,28,28],"right_children":[2,4,6,8,10,12,14,16,18,20,22,24,26,-1,28,30,32,34,36,38,-1,40,42,44,-1,46,48,50,52,-1,-1,-1,-1,-1,-1,-1,-1,-1,-1,-1,-1,-1,-1,-1,-1,-1,-1,-1,-1,-1,-1,-1,-1],"split_conditions":[1.5126271E0,1.3489168E0,8E0,-1.2920247E0,3E0,1.5820434E0,1.3E1,-2.4127603E-1,9E2,-2.0200527E-1,-1.2319958E0,2E0,1.3489168E0,-8.592244E-2,1.0554788E0,6E0,8E0,-2.216944E-1,-3.27371E-1,-1.2319958E0,-8.181871E-2,1.1E1,-2.0200527E-1,3.36E2,-8.6920545E-2,-1.2920247E0,2.254616E0,1E0,-1.5931835E0,5.8475174E-2,-9.072622E-2,-7.928373E-2,2.755635E-2,-6.437701E-2,-7.669788E-2,5.0537057E-2,-8.050601E-2,-8.1945084E-2,-9.427748E-2,-8.15052E-2,3.8781834E-3,4.629877E-2,-1.02873435E-2,-1.06531635E-1,5.8701623E-2,7.737685E-2,5.9225548E-2,7.580723E-2,7.895625E-2,5.769518E-2,-1.0080105E-1,-9.498618E-2,7.8450054E-2],"split_indices":[2,15,1,15,1,2,1,2,4,2,2,1,15,0,15,1,1,2,2,2,0,1,2,5,0,15,2,3,10,0,0,0,0,0,0,0,0,0,0,0,0,0,0,0,0,0,0,0,0,0,0,0,0],"split_type":[0,0,0,0,0,0,0,0,0,0,0,0,0,0,0,0,0,0,0,0,0,0,0,0,0,0,0,0,0,0,0,0,0,0,0,0,0,0,0,0,0,0,0,0,0,0,0,0,0,0,0,0,0],"sum_hessian":[4.5257025E5,2.7962512E5,1.7294512E5,2.3065058E5,4.897455E4,1.6678789E5,6.1572246E3,5.1060766E4,1.7958981E5,2.6468533E3,4.6327695E4,1.3668315E3,1.6542106E5,1.463859E3,4.6933657E3,2.8486994E4,2.2573771E4,1.7832553E5,1.2642831E3,8.584789E2,1.7883744E3,4.6219634E3,4.1705734E4,9.289926E2,4.378389E2,8.149226E4,8.3928805E4,5.283207E2,4.165045E3,2.5273322E4,3.2136726E3,2.115753E4,1.4162416E3,7.218964E4,1.0613588E5,9.0086163E2,3.634214E2,2.7570203E2,5.8277686E2,2.7477659E3,1.8741975E3,2.4174414E4,1.753132E4,9.677216E1,8.3222046E2,5.3912613E4,2.757964E4,1.1959299E4,7.196951E4,4.8083533E2,4.748538E1,3.3663073E0,4.1616787E3],"tree_param":{"num_deleted":"0","num_feature":"19","num_nodes":"53","size_leaf_vector":"1"}},{"base_weights":[1.8242981E-3,-8.863041E-1,1.4040663E0,-1.1245534E0,2.0544201E-1,6.719727E-1,1.4297322E0,-1.7592299E-1,-1.3957071E0,5.665467E-1,-3.8236982E-1,-5.9612954E-1,1.5849746E0,1.4538715E0,2.4848212E-1,7.9055154E-1,-1.4216809E0,-1.4076602E0,2.4852964E-1,-6.696489E-1,9.700249E-1,1.90471E-1,-1.2336655E0,2.7665898E-1,-8.358393E-2,1.637613E0,3.4064305E-1,1.3812073E0,1.5254488E0,-8.291655E-2,1.387756E0,5.5687815E-2,-8.7287165E-2,-7.699911E-2,2.1025153E-2,-6.293551E-2,-7.550856E-2,4.7722958E-2,-7.816932E-2,1.8911032E-2,-8.870973E-2,5.581788E-2,-9.602768E-2,-7.925695E-2,2.5894782E-2,-8.093061E-2,6.732058E-2,-4.3984424E-2,6.957996E-2,9.766775E-2,7.600206E-2,-9.585787E-2,6.4510204E-2,7.51367E-2,5.7351947E-2,7.342484E-2,7.673751E-2,1.965963E-2,7.482485E-2],"categories":[],"categories_nodes":[],"categories_segments":[],"categories_sizes":[],"default_left":[0,0,0,0,0,0,0,0,0,0,0,0,0,0,0,0,0,0,0,0,0,0,0,0,0,0,0,0,0,0,0,0,0,0,0,0,0,0,0,0,0,0,0,0,0,0,0,0,0,0,0,0,0,0,0,0,0,0,0],"id":7,"left_children":[1,3,5,7,9,11,13,15,17,19,21,23,25,27,29,31,33,35,37,39,41,43,45,47,-1,49,51,53,55,-1,57,-1,-1,-1,-1,-1,-1,-1,-1,-1,-1,-1,-1,-1,-1,-1,-1,-1,-1,-1,-1,-1,-1,-1,-1,-1,-1,-1,-1],"loss_changes":[5.571454E5,7.124294E4,3.2586562E3,5.7832188E4,1.0414937E4,6.8059795E3,4.7786562E3,6.0177414E4,3.436875E3,1.5160659E4,9.105855E3,2.3107559E3,2.2329102E2,8.5209375E2,7.296252E3,2.3074283E4,4.759367E3,2.6486562E3,1.616729E3,8.657922E3,9.695098E3,6.4904023E3,7.461834E3,1.753926E3,0E0,1.18740234E2,3.0255148E2,2.3179688E3,4.1578125E1,0E0,2.2677979E2,0E0,0E0,0E0,0E0,0E0,0E0,0E0,0E0,0E0,0E0,0E0,0E0,0E0,0E0,0E0,0E0,0E0,0E0,0E0,0E0,0E0,0E0,0E0,0E0,0E0,0E0,0E0,0E0],"parents":[2147483647,0,0,1,1,2,2,3,3,4,4,5,5,6,6,7,7,8,8,9,9,10,10,11,11,12,12,13,13,14,14,15,15,16,16,17,17,18,18,19,19,20,20,21,21,22,22,23,23,25,25,26,26,27,27,28,28,30,30],"right_children":[2,4,6,8,10,12,14,16,18,20,22,24,26,28,30,32,34,36,38,40,42,44,46,48,-1,50,52,54,56,-1,58,-1,-1,-1,-1,-1,-1,-1,-1,-1,-1,-1,-1,-1,-1,-1,-1,-1,-1,-1,-1,-1,-1,-1,-1,-1,-1,-1,-1],"split_conditions":[1.4657288E0,1.3489168E0,1.5820434E0,-1.2920247E0,-2.0200527E-1,1.3E1,8E0,-2.4127603E-1,9E2,9E0,1E1,2E0,2.9344267E-1,1.3489168E0,1.3E1,6E0,8E0,-2.216944E-1,-3.27371E-1,5E0,1.3E1,3E0,1.300943E0,1E0,-8.358393E-2,1.5126271E0,1.9009993E0,-1.2920247E0,2.254616E0,-8.291655E-2,1.0554788E0,5.5687815E-2,-8.7287165E-2,-7.699911E-2,2.1025153E-2,-6.293551E-2,-7.550856E-2,4.7722958E-2,-7.816932E-2,1.8911032E-2,-8.870973E-2,5.581788E-2,-9.602768E-2,-7.925695E-2,2.5894782E-2,-8.093061E-2,6.732058E-2,-4.3984424E-2,6.957996E-2,9.766775E-2,7.600206E-2,-9.585787E-2,6.4510204E-2,7.51367E-2,5.7351947E-2,7.342484E-2,7.673751E-2,1.965963E-2,7.482485E-2],"split_indices":[2,15,2,15,2,1,1,2,4,1,1,1,14,15,1,1,1,2,2,1,1,1,2,3,0,2,14,15,2,0,15,0,0,0,0,0,0,0,0,0,0,0,0,0,0,0,0,0,0,0,0,0,0,0,0,0,0,0,0],"split_type":[0,0,0,0,0,0,0,0,0,0,0,0,0,0,0,0,0,0,0,0,0,0,0,0,0,0,0,0,0,0,0,0,0,0,0,0,0,0,0,0,0,0,0,0,0,0,0,0,0,0,0,0,0,0,0,0,0,0,0],"sum_hessian":[4.4737106E5,2.7389588E5,1.7347519E5,2.2483139E5,4.9064492E4,5.8766587E3,1.6759852E5,4.9979582E4,1.7485181E5,3.0393307E4,1.8671186E4,2.4600923E3,3.4165662E3,1.6424194E5,3.3565815E3,2.8144834E4,2.1834748E4,1.7359E5,1.2618065E3,7.478786E3,2.291452E4,1.1161402E4,7.5097837E3,1.3584652E3,1.1016271E3,3.277599E3,1.3896703E2,8.151225E4,8.2729695E4,1.2552323E3,2.1013494E3,2.4964166E4,3.1806692E3,2.0517332E4,1.317416E3,7.077139E4,1.0281861E5,9.083738E2,3.5343268E2,3.838194E3,3.6405923E3,2.1810975E4,1.1035457E3,1.7371376E3,9.424265E3,6.535118E3,9.746653E2,6.6695325E2,6.9151196E2,8.850809E2,2.3925183E3,4.0840446E1,9.812658E1,5.3659242E4,2.7853008E4,1.1636713E4,7.109298E4,2.0756236E2,1.8937869E3],"tree_param":{"num_deleted":"0","num_feature":"19","num_nodes":"59","size_leaf_vector":"1"}},{"base_weights":[-1.6270711E-3,-8.591893E-1,1.3768785E0,-3.8146412E-1,-1.2938854E0,1.4023271E0,6.6395223E-1,-1.3294193E0,6.571305E-2,-1.4039369E0,-9.816448E-1,1.19613506E-1,1.4137498E0,-8.034539E-2,1.3956538E0,-1.4153547E0,-8.7335527E-1,6.983099E-1,-3.6516362E-1,-1.485682E0,-1.2609417E0,-7.587012E-2,-3.264635E-1,8.608035E-1,-8.111571E-2,1.3244157E0,1.4647503E0,-1.1069107E-1,1.4055344E0,-7.6328106E-2,-4.8820697E-2,-5.2507565E-4,-7.009852E-2,-8.548474E-2,6.0084324E-2,-8.56229E-2,4.4365334E-3,-4.5799788E-2,-7.481546E-2,-4.895987E-2,-7.565937E-2,4.7280606E-2,-5.497679E-2,-8.635836E-2,5.7263732E-2,7.294879E-2,-1.0332479E-1,7.2734706E-2,7.473563E-2,7.282808E-2,4.8607152E-2],"categories":[],"categories_nodes":[],"categories_segments":[],"categories_sizes":[],"default_left":[0,0,0,0,0,0,0,0,0,0,0,0,0,0,0,0,0,0,0,0,0,0,0,0,0,0,0,0,0,0,0,0,0,0,0,0,0,0,0,0,0,0,0,0,0,0,0,0,0,0,0],"id":8,"left_children":[1,3,5,7,9,11,13,15,17,19,21,23,25,-1,27,29,31,33,35,37,39,-1,41,43,-1,45,47,-1,49,-1,-1,-1,-1,-1,-1,-1,-1,-1,-1,-1,-1,-1,-1,-1,-1,-1,-1,-1,-1,-1,-1],"loss_changes":[5.1835475E5,5.6135344E4,3.0500625E3,5.4593336E4,4.862047E3,2.3788438E3,9.635807E3,1.6166016E3,2.3852473E4,1.221375E3,1.2947723E4,1.8531272E3,7.313125E2,0E0,1.5951172E2,1.6939531E3,2.9864692E3,4.2978402E4,3.1832723E4,4.0170312E2,2.7041016E3,0E0,1.6321238E4,7.431696E2,0E0,2.6694234E4,2.8703125E1,0E0,9.531543E1,0E0,0E0,0E0,0E0,0E0,0E0,0E0,0E0,0E0,0E0,0E0,0E0,0E0,0E0,0E0,0E0,0E0,0E0,0E0,0E0,0E0,0E0],"parents":[2147483647,0,0,1,1,2,2,3,3,4,4,5,5,6,6,7,7,8,8,9,9,10,10,11,11,12,12,14,14,15,15,16,16,17,17,18,18,19,19,20,20,22,22,23,23,25,25,26,26,28,28],"right_children":[2,4,6,8,10,12,14,16,18,20,22,24,26,-1,28,30,32,34,36,38,40,-1,42,44,-1,46,48,-1,50,-1,-1,-1,-1,-1,-1,-1,-1,-1,-1,-1,-1,-1,-1,-1,-1,-1,-1,-1,-1,-1,-1],"split_conditions":[1.5126271E0,-2.0200527E-1,8E0,-1.1419326E0,8.618461E-1,1.5820434E0,1.3E1,-1.2319958E0,6E0,1.7861718E-1,8E0,2E0,2.254616E0,-8.034539E-2,-1.1992886E0,1.1E1,6E0,3E0,9E0,-1.6434541E-1,3.795371E-1,-7.587012E-2,9E0,1E0,-8.111571E-2,3E0,7.66E2,-1.1069107E-1,2.3602992E-1,-7.6328106E-2,-4.8820697E-2,-5.2507565E-4,-7.009852E-2,-8.548474E-2,6.0084324E-2,-8.56229E-2,4.4365334E-3,-4.5799788E-2,-7.481546E-2,-4.895987E-2,-7.565937E-2,4.7280606E-2,-5.497679E-2,-8.635836E-2,5.7263732E-2,7.294879E-2,-1.0332479E-1,7.2734706E-2,7.473563E-2,7.282808E-2,4.8607152E-2],"split_indices":[2,2,1,2,2,2,1,2,1,14,1,1,2,0,14,1,1,1,1,2,2,0,1,1,0,1,4,0,14,0,0,0,0,0,0,0,0,0,0,0,0,0,0,0,0,0,0,0,0,0,0],"split_type":[0,0,0,0,0,0,0,0,0,0,0,0,0,0,0,0,0,0,0,0,0,0,0,0,0,0,0,0,0,0,0,0,0,0,0,0,0,0,0,0,0,0,0,0,0,0,0,0,0,0,0],"sum_hessian":[4.3848116E5,2.7031794E5,1.6816322E5,1.28785875E5,1.4153208E5,1.6236642E5,5.7967915E3,4.1278684E4,8.7507195E4,1.0464549E5,3.6886582E4,1.4332278E3,1.609332E5,1.4123429E3,4.3844487E3,3.4732062E4,6.5466196E3,3.545414E4,5.2053055E4,6.6576625E4,3.8068867E4,2.0292006E4,1.6594576E4,1.00577606E3,4.2745175E2,5.8496305E4,1.0243689E5,1.1360169E1,4.3730884E3,2.7709322E4,7.02274E3,2.48743E3,4.0591897E3,6.129591E3,2.932455E4,1.3116519E4,3.8936535E4,1.2208088E3,6.5355812E4,1.798524E4,2.0083629E4,6.272718E3,1.0321859E4,9.91044E1,9.066717E2,5.6264168E4,2.232137E3,7.673254E4,2.570435E4,3.910328E3,4.6276047E2],"tree_param":{"num_deleted":"0","num_feature":"19","num_nodes":"51","size_leaf_vector":"1"}},{"base_weights":[3.5935927E-3,-8.163948E-1,1.3406497E0,-1.0542367E0,2.4044158E-1,1.2101314E0,1.4240576E0,-1.6961543E-1,-1.3067508E0,5.6029814E-1,-2.978576E-1,1.3225574E0,6.84406E-1,1.3552246E0,1.4577123E0,7.2790176E-1,-1.3181928E0,-1.3208197E0,4.1125712E-1,-5.852064E-2,1.1969583E0,-7.464335E-1,4.400862E-1,1.3613139E0,6.051413E-1,-1.5307751E-2,1.2944912E0,1.4327664E0,1.2830238E0,1.457904E0,-6.2156122E-2,-7.482902E-2,5.2504815E-2,-7.06909E-2,-2.6652241E-2,-5.9485614E-2,-7.030072E-2,5.072862E-2,-7.449818E-2,-4.4405658E-2,1.5131866E-2,-4.71753E-2,6.339348E-2,-7.466069E-2,5.5845384E-3,-8.05977E-2,2.8220017E-2,2.1378959E-2,6.9269136E-2,-2.3614836E-3,6.606736E-2,5.2319504E-2,-2.5483701E-2,6.5575205E-2,-7.9474516E-2,7.314345E-2,-1.351661E-1,5.727286E-2,6.952743E-2,7.234836E-2,7.327335E-2],"categories":[],"categories_nodes":[],"categories_segments":[],"categories_sizes":[],"default_left":[0,0,0,0,0,0,0,0,0,0,0,0,0,0,0,0,0,0,0,0,0,0,0,0,0,0,0,0,0,0,0,0,0,0,0,0,0,0,0,0,0,0,0,0,0,0,0,0,0,0,0,0,0,0,0,0,0,0,0,0,0],"id":9,"left_children":[1,3,5,7,9,11,13,15,17,19,21,23,25,27,29,31,33,35,37,39,41,43,45,47,49,51,53,55,57,59,-1,-1,-1,-1,-1,-1,-1,-1,-1,-1,-1,-1,-1,-1,-1,-1,-1,-1,-1,-1,-1,-1,-1,-1,-1,-1,-1,-1,-1,-1,-1],"loss_changes":[4.729535E5,6.721239E4,1.7834688E3,4.875722E4,8.458102E3,3.7785E3,2.2979688E2,4.996813E4,4.10475E3,1.2140079E4,6.0613975E3,1.4638594E3,4.8098726E3,1.8217188E2,3.65625E1,1.9503324E4,1.5956055E3,1.8795625E3,1.5844109E3,4.6823027E3,2.3064922E3,7.2980264E3,1.7669342E3,1.1225625E3,1.2623822E3,2.7556392E3,2.9741504E2,1.9759707E3,2.5029688E2,3.4375E0,0E0,0E0,0E0,0E0,0E0,0E0,0E0,0E0,0E0,0E0,0E0,0E0,0E0,0E0,0E0,0E0,0E0,0E0,0E0,0E0,0E0,0E0,0E0,0E0,0E0,0E0,0E0,0E0,0E0,0E0,0E0],"parents":[2147483647,0,0,1,1,2,2,3,3,4,4,5,5,6,6,7,7,8,8,9,9,10,10,11,11,12,12,13,13,14,14,15,15,16,16,17,17,18,18,19,19,20,20,21,21,22,22,23,23,24,24,25,25,26,26,27,27,28,28,29,29],"right_children":[2,4,6,8,10,12,14,16,18,20,22,24,26,28,30,32,34,36,38,40,42,44,46,48,50,52,54,56,58,60,-1,-1,-1,-1,-1,-1,-1,-1,-1,-1,-1,-1,-1,-1,-1,-1,-1,-1,-1,-1,-1,-1,-1,-1,-1,-1,-1,-1,-1,-1,-1],"split_conditions":[1.5126271E0,1.3489168E0,2.254616E0,-1.2920247E0,-1.6434541E-1,2.82E2,1.3489168E0,-2.4127603E-1,9E2,-5.2056086E-1,8.4291565E-1,1.9466655E0,1.3489168E0,-1.2920247E0,6.72E2,-1.2319958E0,3.47E2,-2.836211E-1,-3.27371E-1,-1.2319958E0,3.44E2,1.7861718E-1,-1.1992886E0,1.5820434E0,1.3489168E0,-1.2920247E0,6.58E2,2.3602992E-1,2.3602992E-1,2.3602992E-1,-6.2156122E-2,-7.482902E-2,5.2504815E-2,-7.06909E-2,-2.6652241E-2,-5.9485614E-2,-7.030072E-2,5.072862E-2,-7.449818E-2,-4.4405658E-2,1.5131866E-2,-4.71753E-2,6.339348E-2,-7.466069E-2,5.5845384E-3,-8.05977E-2,2.8220017E-2,2.1378959E-2,6.9269136E-2,-2.3614836E-3,6.606736E-2,5.2319504E-2,-2.5483701E-2,6.5575205E-2,-7.9474516E-2,7.314345E-2,-1.351661E-1,5.727286E-2,6.952743E-2,7.234836E-2,7.327335E-2],"split_indices":[2,15,2,15,2,0,15,2,4,2,2,2,15,15,0,2,0,2,2,2,0,14,14,2,15,15,0,14,14,14,0,0,0,0,0,0,0,0,0,0,0,0,0,0,0,0,0,0,0,0,0,0,0,0,0,0,0,0,0,0,0],"split_type":[0,0,0,0,0,0,0,0,0,0,0,0,0,0,0,0,0,0,0,0,0,0,0,0,0,0,0,0,0,0,0,0,0,0,0,0,0,0,0,0,0,0,0,0,0,0,0,0,0,0,0,0,0,0,0,0,0,0,0,0,0],"sum_hessian":[4.313791E5,2.67393E5,1.639861E5,2.1827094E5,4.912205E4,6.3942688E4,1.0004341E5,4.846997E4,1.6980097E5,3.0812982E4,1.830907E4,5.267636E4,1.1266329E4,3.286565E4,6.717776E4,2.7208875E4,2.1261094E4,1.6842197E5,1.3789916E3,1.562589E4,1.5187093E4,1.1387132E4,6.921938E3,4.997566E4,2.700698E3,5.248145E3,6.018184E3,1.5837608E4,1.702804E4,6.717345E4,4.306236E0,3.4418884E3,2.3766986E4,1.8952072E4,2.309022E3,6.634208E4,1.020799E5,1.0471616E3,3.3182993E2,4.7389336E3,1.0886956E4,4.8660364E2,1.4700489E4,6.0881743E3,5.298957E3,3.9469995E2,6.5272383E3,1.2563113E3,4.871935E4,1.4138226E3,1.2868754E3,1.6669968E3,3.5811484E3,5.983432E3,3.475153E1,1.5723816E4,1.1379222E2,7.475529E3,9.552511E3,2.754055E4,3.9632906E4],"tree_param":{"num_deleted":"0","num_feature":"19","num_nodes":"61","size_leaf_vector":"1"}},{"base_weights":[-8.903069E-3,-8.024611E-1,1.3046058E0,-1.0284606E0,2.0313156E-1,1.3297424E0,6.3749254E-1,-1.6121368E-1,-1.2771714E0,-1.5573876E0,2.9932407E-1,1.5796556E-1,1.3409418E0,-7.7944994E-2,1.3409715E0,7.063744E-1,-1.2894876E0,-1.1265764E0,-1.3836379E0,-1.6981939E0,-7.432144E-2,-7.522027E-1,4.3859124E-1,8.542631E-1,-7.901273E-2,1.266792E0,1.415688E0,9.4262123E-1,7.153546E-2,5.0347686E-2,-8.22415E-2,-7.1627475E-2,2.9841771E-2,-7.128784E-2,-4.479975E-2,-6.975397E-2,-3.3886757E-2,-7.6592825E-2,-8.843909E-2,-7.0577465E-2,8.699249E-3,4.3735124E-2,-8.044733E-3,-8.381849E-2,5.624465E-2,6.958295E-2,5.169771E-2,6.774116E-2,7.128918E-2,-1.1146154E-1,5.2364606E-2],"categories":[],"categories_nodes":[],"categories_segments":[],"categories_sizes":[],"default_left":[0,0,0,0,0,0,0,0,0,0,0,0,0,0,0,0,0,0,0,0,0,0,0,0,0,0,0,0,0,0,0,0,0,0,0,0,0,0,0,0,0,0,0,0,0,0,0,0,0,0,0],"id":10,"left_children":[1,3,5,7,9,11,13,15,17,19,21,23,25,-1,27,29,31,33,35,37,-1,39,41,43,-1,45,47,49,-1,-1,-1,-1,-1,-1,-1,-1,-1,-1,-1,-1,-1,-1,-1,-1,-1,-1,-1,-1,-1,-1,-1],"loss_changes":[4.367379E5,5.936014E4,2.6452812E3,4.599967E4,8.1174355E3,1.9954375E3,8.858501E3,4.6527887E4,2.6557188E3,2.2288086E1,6.6559023E3,1.745176E3,8.330625E2,0E0,1.538623E2,1.8991467E4,5.5766523E3,4.7343984E3,7.8321875E2,6.9785156E0,0E0,3.2464163E3,1.049274E4,7.0686127E2,0E0,2.1972969E3,4.4140625E1,2.6833936E2,0E0,0E0,0E0,0E0,0E0,0E0,0E0,0E0,0E0,0E0,0E0,0E0,0E0,0E0,0E0,0E0,0E0,0E0,0E0,0E0,0E0,0E0,0E0],"parents":[2147483647,0,0,1,1,2,2,3,3,4,4,5,5,6,6,7,7,8,8,9,9,10,10,11,11,12,12,14,14,15,15,16,16,17,17,18,18,19,19,21,21,22,22,23,23,25,25,26,26,27,27],"right_children":[2,4,6,8,10,12,14,16,18,20,22,24,26,-1,28,30,32,34,36,38,-1,40,42,44,-1,46,48,50,-1,-1,-1,-1,-1,-1,-1,-1,-1,-1,-1,-1,-1,-1,-1,-1,-1,-1,-1,-1,-1,-1,-1],"split_conditions":[1.5126271E0,1.3489168E0,8E0,-1.2920247E0,3E0,1.5820434E0,1.3E1,-2.4127603E-1,-2.216944E-1,-2.0200527E-1,-1.1419326E0,2E0,1.3489168E0,-7.7944994E-2,1.3489168E0,6E0,8E0,-1.1272409E0,1.4306931E0,-1.2319958E0,-7.432144E-2,1.1E1,-2.0200527E-1,1E0,-7.901273E-2,2E0,2.254616E0,-6.0115165E-1,7.153546E-2,5.0347686E-2,-8.22415E-2,-7.1627475E-2,2.9841771E-2,-7.128784E-2,-4.479975E-2,-6.975397E-2,-3.3886757E-2,-7.6592825E-2,-8.843909E-2,-7.0577465E-2,8.699249E-3,4.3735124E-2,-8.044733E-3,-8.381849E-2,5.624465E-2,6.958295E-2,5.169771E-2,6.774116E-2,7.128918E-2,-1.1146154E-1,5.2364606E-2],"split_indices":[2,15,1,15,1,2,1,2,2,2,2,1,15,0,15,1,1,2,2,2,0,1,2,1,0,1,2,9,0,0,0,0,0,0,0,0,0,0,0,0,0,0,0,0,0,0,0,0,0,0,0],"split_type":[0,0,0,0,0,0,0,0,0,0,0,0,0,0,0,0,0,0,0,0,0,0,0,0,0,0,0,0,0,0,0,0,0,0,0,0,0,0,0,0,0,0,0,0,0,0,0,0,0,0,0],"sum_hessian":[4.1899328E5,2.6119338E5,1.577999E5,2.1326388E5,4.7929504E4,1.5206903E5,5.730875E3,4.752997E4,1.657339E5,2.4823442E3,4.544716E4,1.4397994E3,1.5062923E5,1.3899563E3,4.3409185E3,2.6869217E4,2.0660754E4,6.86464E4,9.708751E4,8.241058E2,1.6582383E3,5.3146772E3,4.0132484E4,1.0283649E3,4.1143463E2,7.562544E4,7.500379E4,8.002175E2,3.540701E3,2.3824102E4,3.0451147E3,1.9204494E4,1.45626E3,2.9876438E4,3.876996E4,9.553803E4,1.5494723E3,2.5229195E2,5.7181384E2,3.1042554E3,2.210422E3,2.3231605E4,1.6900879E4,9.884845E1,9.2951636E2,4.9223043E4,2.6402396E4,1.0689985E4,6.431381E4,2.4915113E1,7.753024E2],"tree_param":{"num_deleted":"0","num_feature":"19","num_nodes":"51","size_leaf_vector":"1"}},{"base_weights":[2.6613183E-3,-7.664213E-1,1.2741578E0,-9.887066E-1,2.0922177E-1,1.2990717E0,5.7633483E-1,-1.4680271E-1,-1.2320174E0,-1.5167856E0,3.0149925E-1,7.3563014E-3,1.3102254E0,-7.584201E-2,1.2910993E0,6.981455E-1,-1.2914551E0,-1.0665143E0,-1.3511521E0,-1.6424189E0,-1.4512305E0,-8.6452967E-1,4.082177E-1,7.2091484E-1,-7.68227E-2,1.2346971E0,1.3859994E0,7.122056E-1,1.3748639E0,4.912663E-2,-7.9796E-2,-7.0585266E-2,2.01659E-2,-6.9914065E-2,-4.0934455E-2,-6.7790926E-2,-3.861824E-2,-7.4639E-2,-8.5178845E-2,-7.1172096E-2,-7.744189E-2,-6.837915E-2,2.5059655E-2,3.8307372E-2,-4.588136E-3,-8.092094E-2,4.99671E-2,6.81385E-2,4.9521603E-2,6.640142E-2,6.979634E-2,5.0905675E-2,-1.0169629E-1,-9.28048E-2,6.890192E-2],"categories":[],"categories_nodes":[],"categories_segments":[],"categories_sizes":[],"default_left":[0,0,0,0,0,0,0,0,0,0,0,0,0,0,0,0,0,0,0,0,0,0,0,0,0,0,0,0,0,0,0,0,0,0,0,0,0,0,0,0,0,0,0,0,0,0,0,0,0,0,0,0,0,0,0],"id":11,"left_children":[1,3,5,7,9,11,13,15,17,19,21,23,25,-1,27,29,31,33,35,37,39,41,43,45,-1,47,49,51,53,-1,-1,-1,-1,-1,-1,-1,-1,-1,-1,-1,-1,-1,-1,-1,-1,-1,-1,-1,-1,-1,-1,-1,-1,-1,-1],"loss_changes":[4.0360988E5,5.577489E4,2.7036719E3,4.2905984E4,7.601287E3,2.1639688E3,8.0273696E3,4.5421812E4,3.2025156E3,1.7564453E1,5.637511E3,1.4186628E3,8.504844E2,0E0,1.929458E2,1.7628873E4,4.0652031E3,5.59125E3,2.54125E2,4.987793E0,2.135498E0,2.610574E3,7.427463E3,5.752677E2,0E0,2.3319453E3,4.0921875E1,4.2848944E2,3.838037E1,0E0,0E0,0E0,0E0,0E0,0E0,0E0,0E0,0E0,0E0,0E0,0E0,0E0,0E0,0E0,0E0,0E0,0E0,0E0,0E0,0E0,0E0,0E0,0E0,0E0,0E0],"parents":[2147483647,0,0,1,1,2,2,3,3,4,4,5,5,6,6,7,7,8,8,9,9,10,10,11,11,12,12,14,14,15,15,16,16,17,17,18,18,19,19,20,20,21,21,22,22,23,23,25,25,26,26,27,27,28,28],"right_children":[2,4,6,8,10,12,14,16,18,20,22,24,26,-1,28,30,32,34,36,38,40,42,44,46,-1,48,50,52,54,-1,-1,-1,-1,-1,-1,-1,-1,-1,-1,-1,-1,-1,-1,-1,-1,-1,-1,-1,-1,-1,-1,-1,-1,-1,-1],"split_conditions":[1.5126271E0,1.3489168E0,8E0,-1.2920247E0,3E0,1.5820434E0,1.3E1,-2.4127603E-1,-2.216944E-1,-2.0200527E-1,-1.2980202E0,2E0,1.3489168E0,-7.584201E-2,1.0554788E0,6E0,8E0,-1.1272409E0,1.4657288E0,-1.2319958E0,1.7861718E-1,6.953318E-1,-2.0200527E-1,1E0,-7.68227E-2,-1.2920247E0,2.254616E0,1.7861718E-1,-1.5931835E0,4.912663E-2,-7.9796E-2,-7.0585266E-2,2.01659E-2,-6.9914065E-2,-4.0934455E-2,-6.7790926E-2,-3.861824E-2,-7.4639E-2,-8.5178845E-2,-7.1172096E-2,-7.744189E-2,-6.837915E-2,2.5059655E-2,3.8307372E-2,-4.588136E-3,-8.092094E-2,4.99671E-2,6.81385E-2,4.9521603E-2,6.640142E-2,6.979634E-2,5.0905675E-2,-1.0169629E-1,-9.28048E-2,6.890192E-2],"split_indices":[2,15,1,15,1,2,1,2,2,2,2,1,15,0,15,1,1,2,2,2,14,14,2,1,0,15,2,14,10,0,0,0,0,0,0,0,0,0,0,0,0,0,0,0,0,0,0,0,0,0,0,0,0,0,0],"split_type":[0,0,0,0,0,0,0,0,0,0,0,0,0,0,0,0,0,0,0,0,0,0,0,0,0,0,0,0,0,0,0,0,0,0,0,0,0,0,0,0,0,0,0,0,0,0,0,0,0,0,0,0,0,0,0],"sum_hessian":[4.1273522E5,2.5717792E5,1.5555731E5,2.0945647E5,4.772144E4,1.5019419E5,5.363124E3,4.6961598E4,1.6249488E5,2.4210674E3,4.5300375E4,1.2858159E3,1.4890836E5,1.3649044E3,3.9982197E3,2.7018062E4,1.9943537E4,6.8016125E4,9.447875E4,8.2189233E2,1.5991749E3,3.7977908E3,4.1502582E4,8.797316E2,4.0608432E2,7.458377E4,7.432459E4,5.0660315E2,3.4916167E3,2.4038648E4,2.979413E3,1.862238E4,1.3211565E3,2.9080719E4,3.8935402E4,9.372178E4,7.569744E2,2.4582538E2,5.7606696E2,1.2569164E3,3.422586E2,2.7754675E3,1.0223231E3,2.418693E4,1.7315652E4,9.305706E1,7.8667456E2,4.892622E4,2.5657557E4,1.0886539E4,6.343805E4,4.5639218E2,5.021098E1,2.8542938E0,3.4887625E3],"tree_param":{"num_deleted":"0","num_feature":"19","num_nodes":"55","size_leaf_vector":"1"}},{"base_weights":[4.471551E-3,-7.4754417E-1,1.2368737E0,-2.9652354E-1,-1.1702197E0,6.22569E-1,1.2592244E0,-1.1922879E0,1.2815613E-1,-1.3778694E0,-1.0413597E0,-5.588424E-1,1.4755102E0,1.2812912E0,2.4514744E-1,-1.296289E0,-7.8834665E-1,7.411662E-1,-3.202951E-1,-3.408844E-1,-6.923834E-2,-1.1904567E0,-6.1551243E-1,2.2486337E-1,-7.515814E-2,1.5321214E0,1.7966022E-1,1.1874864E0,1.3358694E0,-7.394973E-2,1.2355365E0,-6.8971656E-2,-3.3235934E-2,-7.311302E-2,-1.4618966E-2,-8.128952E-2,5.899177E-2,-5.1944476E-2,2.356863E-2,-7.317889E-2,1.1277894E-1,-2.1809E-2,-6.275815E-2,-7.020229E-2,-1.6923353E-2,-3.0021606E-2,7.014369E-2,9.727061E-2,6.726348E-2,-9.099057E-2,5.6401372E-2,6.655471E-2,-1.0532168E-1,6.733836E-2,6.489165E-2,6.50607E-2,2.3486357E-2],"categories":[],"categories_nodes":[],"categories_segments":[],"categories_sizes":[],"default_left":[0,0,0,0,0,0,0,0,0,0,0,0,0,0,0,0,0,0,0,0,0,0,0,0,0,0,0,0,0,0,0,0,0,0,0,0,0,0,0,0,0,0,0,0,0,0,0,0,0,0,0,0,0,0,0,0,0],"id":12,"left_children":[1,3,5,7,9,11,13,15,17,19,21,23,25,27,29,31,33,35,37,39,-1,41,43,45,-1,47,49,51,53,-1,55,-1,-1,-1,-1,-1,-1,-1,-1,-1,-1,-1,-1,-1,-1,-1,-1,-1,-1,-1,-1,-1,-1,-1,-1,-1,-1],"loss_changes":[3.7455278E5,4.784686E4,2.1020625E3,4.61914E4,3.4654219E3,5.420735E3,3.3065312E3,1.6395859E3,2.2644898E4,3.54375E2,5.075789E3,1.6698007E3,2.2888574E2,7.38875E2,5.3780264E3,1.6298086E3,2.6729849E3,3.6136695E4,2.7063717E4,9.6273083E2,0E0,2.88975E3,4.52956E3,1.2001714E3,0E0,2.2850928E2,2.5214493E2,2.517104E4,3.615625E1,0E0,9.999658E1,0E0,0E0,0E0,0E0,0E0,0E0,0E0,0E0,0E0,0E0,0E0,0E0,0E0,0E0,0E0,0E0,0E0,0E0,0E0,0E0,0E0,0E0,0E0,0E0,0E0,0E0],"parents":[2147483647,0,0,1,1,2,2,3,3,4,4,5,5,6,6,7,7,8,8,9,9,10,10,11,11,12,12,13,13,14,14,15,15,16,16,17,17,18,18,19,19,21,21,22,22,23,23,25,25,26,26,27,27,28,28,30,30],"right_children":[2,4,6,8,10,12,14,16,18,20,22,24,26,28,30,32,34,36,38,40,-1,42,44,46,-1,48,50,52,54,-1,56,-1,-1,-1,-1,-1,-1,-1,-1,-1,-1,-1,-1,-1,-1,-1,-1,-1,-1,-1,-1,-1,-1,-1,-1,-1,-1],"split_conditions":[1.4657288E0,-2.4127603E-1,1.5820434E0,-1.1272409E0,4E0,1.3E1,8E0,1.1E1,6E0,-2.0200527E-1,8.4291565E-1,2E0,2.9344267E-1,2.254616E0,1.3E1,-1.1856587E0,1.7861718E-1,3E0,-5.2056086E-1,3E0,-6.923834E-2,5E0,8E0,5.2309364E-1,-7.515814E-2,1.5126271E0,1.9009993E0,3E0,7E0,-7.394973E-2,1E0,-6.8971656E-2,-3.3235934E-2,-7.311302E-2,-1.4618966E-2,-8.128952E-2,5.899177E-2,-5.1944476E-2,2.356863E-2,-7.317889E-2,1.1277894E-1,-2.1809E-2,-6.275815E-2,-7.020229E-2,-1.6923353E-2,-3.0021606E-2,7.014369E-2,9.727061E-2,6.726348E-2,-9.099057E-2,5.6401372E-2,6.655471E-2,-1.0532168E-1,6.733836E-2,6.489165E-2,6.50607E-2,2.3486357E-2],"split_indices":[2,2,2,2,1,1,1,1,1,2,2,1,14,2,1,2,14,1,2,1,0,1,1,14,0,2,14,1,1,0,3,0,0,0,0,0,0,0,0,0,0,0,0,0,0,0,0,0,0,0,0,0,0,0,0,0,0],"split_type":[0,0,0,0,0,0,0,0,0,0,0,0,0,0,0,0,0,0,0,0,0,0,0,0,0,0,0,0,0,0,0,0,0,0,0,0,0,0,0,0,0,0,0,0,0,0,0,0,0,0,0,0,0,0,0,0,0],"sum_hessian":[4.0413972E5,2.5098703E5,1.5315269E5,1.2142298E5,1.29564055E5,5.3776313E3,1.4777505E5,3.9051336E4,8.237164E4,4.9610367E4,7.995369E4,2.2548193E3,3.1228123E3,1.4462761E5,3.1474478E3,3.105383E4,7.997504E3,3.480049E4,4.7571156E4,3.2813174E2,4.9282234E4,5.921842E4,2.0735268E4,1.2326151E3,1.02220416E3,2.9919233E3,1.308889E2,5.3205188E4,9.142242E4,1.1481573E3,1.9992903E3,2.7440232E4,3.613599E3,3.3896904E3,4.6078135E3,5.4407534E3,2.9359734E4,2.4936268E4,2.2634887E4,2.2938397E2,9.874778E1,4.6793467E3,5.4539074E4,5.3900127E3,1.5345256E4,7.25107E2,5.0750815E2,9.285924E2,2.0633308E3,4.1813442E1,8.907546E1,5.0983035E4,2.2221519E3,7.103562E4,2.03868E4,1.8407262E3,1.585641E2],"tree_param":{"num_deleted":"0","num_feature":"19","num_nodes":"57","size_leaf_vector":"1"}},{"base_weights":[-1.7941233E-3,-3.9390108E-1,8.904023E-1,5.9580106E-1,-8.92861E-1,1.1199664E0,4.5492265E-1,7.376716E-1,1.9084132E-1,-9.3691945E-1,7.86987E-1,8.3814687E-1,1.3454496E0,7.064739E-1,-1.4329724E-1,6.631777E-1,1.2485032E0,6.875984E-1,-7.736526E-1,-7.8370446E-1,-1.1480854E0,6.276774E-2,1.0308627E0,2.1911688E-1,1.0895618E0,1.2697693E0,1.3968103E0,8.6335415E-1,4.8419043E-2,2.4905443E-2,-9.593208E-1,1.16733415E-2,3.6408175E-2,5.3377356E-2,6.871247E-2,5.019424E-2,-3.1635936E-2,4.882408E-3,-7.925474E-2,-4.7227323E-2,-2.6459489E-2,-5.1157262E-2,-6.5626726E-2,4.2824224E-2,-4.4996474E-2,6.0285777E-2,1.0677931E-2,4.8711795E-2,-2.3345424E-2,6.2658995E-2,4.5275852E-2,6.785544E-2,3.4494814E-2,9.9780664E-2,6.75992E-2,-1.25326235E-2,4.524586E-2,2.0381434E-2,-3.2952383E-2,-1.8670375E-2,1.8893918E-2,-5.794848E-2,4.0354626E-4],"categories":[],"categories_nodes":[],"categories_segments":[],"categories_sizes":[],"default_left":[0,0,0,0,0,0,0,0,0,0,0,0,0,0,0,0,0,0,0,0,0,0,0,0,0,0,0,0,0,0,0,0,0,0,0,0,0,0,0,0,0,0,0,0,0,0,0,0,0,0,0,0,0,0,0,0,0,0,0,0,0,0,0],"id":13,"left_children":[1,3,5,7,9,11,13,15,17,19,21,23,25,27,29,31,33,35,37,39,41,43,45,47,49,51,53,55,57,59,61,-1,-1,-1,-1,-1,-1,-1,-1,-1,-1,-1,-1,-1,-1,-1,-1,-1,-1,-1,-1,-1,-1,-1,-1,-1,-1,-1,-1,-1,-1,-1,-1],"loss_changes":[1.375647E5,1.3489838E5,1.2001414E4,5.26017E3,1.3442094E4,4.9943594E3,6.236551E3,2.5794258E3,1.1382442E4,5.7247812E3,8.19813E2,5.4382188E3,1.6796875E2,3.0118682E3,1.6840146E3,1.6523809E3,1.9486914E2,6.5488022E3,5.7102285E3,4.198008E3,1.5275156E3,8.951293E2,4.9600464E2,5.229618E3,7.471992E2,8.9376953E2,6.953242E2,1.0910254E3,1.4278239E3,1.4304152E3,4.049735E2,0E0,0E0,0E0,0E0,0E0,0E0,0E0,0E0,0E0,0E0,0E0,0E0,0E0,0E0,0E0,0E0,0E0,0E0,0E0,0E0,0E0,0E0,0E0,0E0,0E0,0E0,0E0,0E0,0E0,0E0,0E0,0E0],"parents":[2147483647,0,0,1,1,2,2,3,3,4,4,5,5,6,6,7,7,8,8,9,9,10,10,11,11,12,12,13,13,14,14,15,15,16,16,17,17,18,18,19,19,20,20,21,21,22,22,23,23,24,24,25,25,26,26,27,27,28,28,29,29,30,30],"right_children":[2,4,6,8,10,12,14,16,18,20,22,24,26,28,30,32,34,36,38,40,42,44,46,48,50,52,54,56,58,60,62,-1,-1,-1,-1,-1,-1,-1,-1,-1,-1,-1,-1,-1,-1,-1,-1,-1,-1,-1,-1,-1,-1,-1,-1,-1,-1,-1,-1,-1,-1,-1,-1],"split_conditions":[1.3489168E0,-1.2920247E0,8E0,4E0,8.91E2,2.3602992E-1,1E0,8.56E2,2.3602992E-1,8E0,9E2,1E0,3E0,2.9344267E-1,1.3E1,1E0,9E2,1E0,6E0,1.7861718E-1,1E0,-6.2834936E-1,1.0880849E0,-1.1992886E0,-1.7190593E-1,2E0,5E0,-1.3141141E0,1.2E1,1.7861718E-1,4E1,1.16733415E-2,3.6408175E-2,5.3377356E-2,6.871247E-2,5.019424E-2,-3.1635936E-2,4.882408E-3,-7.925474E-2,-4.7227323E-2,-2.6459489E-2,-5.1157262E-2,-6.5626726E-2,4.2824224E-2,-4.4996474E-2,6.0285777E-2,1.0677931E-2,4.8711795E-2,-2.3345424E-2,6.2658995E-2,4.5275852E-2,6.785544E-2,3.4494814E-2,9.9780664E-2,6.75992E-2,-1.25326235E-2,4.524586E-2,2.0381434E-2,-3.2952383E-2,-1.8670375E-2,1.8893918E-2,-5.794848E-2,4.0354626E-4],"split_indices":[15,15,1,1,4,14,3,4,14,1,4,3,1,14,1,1,4,3,1,14,3,17,8,14,10,1,1,14,1,14,6,0,0,0,0,0,0,0,0,0,0,0,0,0,0,0,0,0,0,0,0,0,0,0,0,0,0,0,0,0,0,0,0],"split_type":[0,0,0,0,0,0,0,0,0,0,0,0,0,0,0,0,0,0,0,0,0,0,0,0,0,0,0,0,0,0,0,0,0,0,0,0,0,0,0,0,0,0,0,0,0,0,0,0,0,0,0,0,0,0,0,0,0,0,0,0,0,0,0],"sum_hessian":[3.932238E5,2.7317016E5,1.2005363E5,9.1559305E4,1.8161086E5,7.861173E4,4.1441906E4,6.78044E4,2.3754906E4,1.769698E5,4.641058E3,3.4943027E4,4.3668703E4,2.9174049E4,1.2267857E4,5.9177E4,8.6274E3,1.5679537E4,8.0753687E3,1.025602E5,7.440959E4,1.1694595E3,3.4715984E3,1.009331E4,2.4849717E4,1.766498E4,2.6003723E4,2.3557604E4,5.616446E3,1.0172104E4,2.0957534E3,7.7743794E3,5.140262E4,3.5410774E3,5.0863228E3,1.2649537E4,3.0299995E3,3.89448E3,4.180889E3,6.2843312E4,3.9716895E4,4.2288312E4,3.2121281E4,6.410457E2,5.2841376E2,2.8593894E3,6.12209E2,4.8045E3,5.2888096E3,1.3151798E4,1.1697918E4,1.5351436E4,2.3135454E3,1.8080288E3,2.4195693E4,8.4712854E2,2.2710475E4,3.7253552E3,1.8910907E3,4.779082E3,5.393022E3,1.737063E3,3.5869043E2],"tree_param":{"num_deleted":"0","num_feature":"19","num_nodes":"63","size_leaf_vector":"1"}},{"base_weights":[1.6889203E-3,-7.1762794E-1,1.1965449E0,-2.9019693E-1,-1.1270022E0,1.0541292E0,1.2920134E0,-1.1390868E0,1.0469055E-1,-1.3499072E0,-9.8816717E-1,1.254495E0,-6.283439E-2,1.2954894E0,-7.391959E-2,-1.2367429E0,-7.2163135E-1,6.623308E-1,-2.7951804E-1,-2.5791794E-1,-6.767901E-2,-1.1563348E0,-5.32292E-1,-1.611488E0,1.3084503E0,-1.7226642E0,1.3195975E0,1.3062239E0,1.2579622E0,-6.832703E-2,-3.7524696E-2,2.6978513E-3,-6.1677255E-2,-7.866323E-2,5.4827403E-2,-7.7965304E-2,6.698878E-3,-6.991594E-2,1.1276146E-1,-1.6162444E-2,-6.1633077E-2,-1.2689133E-3,-5.8912963E-2,-1.4135198E-1,1.5858807E-2,-4.549104E-2,6.625369E-2,-9.573681E-2,-7.282313E-2,6.9213495E-2,3.0277655E-2,6.494704E-2,6.660089E-2,6.437818E-2,6.007799E-2],"categories":[],"categories_nodes":[],"categories_segments":[],"categories_sizes":[],"default_left":[0,0,0,0,0,0,0,0,0,0,0,0,0,0,0,0,0,0,0,0,0,0,0,0,0,0,0,0,0,0,0,0,0,0,0,0,0,0,0,0,0,0,0,0,0,0,0,0,0,0,0,0,0,0,0],"id":14,"left_children":[1,3,5,7,9,11,13,15,17,19,21,23,25,27,-1,29,31,33,35,37,-1,39,41,43,45,47,49,51,53,-1,-1,-1,-1,-1,-1,-1,-1,-1,-1,-1,-1,-1,-1,-1,-1,-1,-1,-1,-1,-1,-1,-1,-1,-1,-1],"loss_changes":[3.3401206E5,4.244671E4,1.9841875E3,3.9782117E4,3.8332656E3,1.3117953E4,8.438281E2,1.5351523E3,1.7354066E4,1.9036719E2,5.853125E3,7.687289E3,2.046123E4,3.353125E1,0E0,1.9260938E3,2.8371038E3,3.2076645E4,2.5378574E4,4.6355585E2,0E0,3.5464062E3,6.738373E3,2.1549111E3,1.8000234E3,2.0438965E2,2.2382812E2,1.1015625E1,3.0919922E1,0E0,0E0,0E0,0E0,0E0,0E0,0E0,0E0,0E0,0E0,0E0,0E0,0E0,0E0,0E0,0E0,0E0,0E0,0E0,0E0,0E0,0E0,0E0,0E0,0E0,0E0],"parents":[2147483647,0,0,1,1,2,2,3,3,4,4,5,5,6,6,7,7,8,8,9,9,10,10,11,11,12,12,13,13,15,15,16,16,17,17,18,18,19,19,21,21,22,22,23,23,24,24,25,25,26,26,27,27,28,28],"right_children":[2,4,6,8,10,12,14,16,18,20,22,24,26,28,-1,30,32,34,36,38,-1,40,42,44,46,48,50,52,54,-1,-1,-1,-1,-1,-1,-1,-1,-1,-1,-1,-1,-1,-1,-1,-1,-1,-1,-1,-1,-1,-1,-1,-1,-1,-1],"split_conditions":[1.4657288E0,-2.216944E-1,2.254616E0,-1.1272409E0,4E0,3E0,8E0,-1.2319958E0,6E0,-2.0200527E-1,8.4291565E-1,1E0,1.3E1,7E0,-7.391959E-2,1.1E1,6E0,3E0,9E0,1.4381216E0,-6.767901E-2,5E0,9E0,2.080992E0,1.5126271E0,3.47E2,1E0,7.94E2,2.5548441E0,-6.832703E-2,-3.7524696E-2,2.6978513E-3,-6.1677255E-2,-7.866323E-2,5.4827403E-2,-7.7965304E-2,6.698878E-3,-6.991594E-2,1.1276146E-1,-1.6162444E-2,-6.1633077E-2,-1.2689133E-3,-5.8912963E-2,-1.4135198E-1,1.5858807E-2,-4.549104E-2,6.625369E-2,-9.573681E-2,-7.282313E-2,6.9213495E-2,3.0277655E-2,6.494704E-2,6.660089E-2,6.437818E-2,6.007799E-2],"split_indices":[2,2,2,2,1,1,1,2,1,2,2,1,1,1,0,1,1,1,1,8,0,1,1,2,2,0,3,7,2,0,0,0,0,0,0,0,0,0,0,0,0,0,0,0,0,0,0,0,0,0,0,0,0,0,0],"split_type":[0,0,0,0,0,0,0,0,0,0,0,0,0,0,0,0,0,0,0,0,0,0,0,0,0,0,0,0,0,0,0,0,0,0,0,0,0,0,0,0,0,0,0,0,0,0,0,0,0,0,0,0,0,0,0],"sum_hessian":[3.8861906E5,2.425822E5,1.4603684E5,1.1867471E5,1.239075E5,5.8612906E4,8.7423945E4,3.767749E4,8.099722E4,4.75521E4,7.63554E4,4.9697777E4,8.915126E3,8.731492E4,1.0902129E2,3.0532918E4,7.144571E3,3.3040914E4,4.7956305E4,1.596431E2,4.739246E4,5.577796E4,2.057744E4,9.17795E2,4.8779984E4,4.0510037E3,4.864122E3,6.78679E4,1.9447023E4,2.4098365E4,6.4345527E3,2.841053E3,4.3035176E3,5.373335E3,2.766758E4,1.1710132E4,3.624617E4,1.10118004E2,4.952509E1,4.6818657E3,5.1096094E4,1.1530265E4,9.047174E3,5.6269037E2,3.551046E2,3.6243356E2,4.841755E4,2.3495469E3,1.7014568E3,4.4592964E3,4.048256E2,5.2964242E4,1.4903656E4,1.2739313E4,6.707711E3],"tree_param":{"num_deleted":"0","num_feature":"19","num_nodes":"55","size_leaf_vector":"1"}},{"base_weights":[4.336348E-3,-6.839403E-1,1.1838112E0,-9.039673E-1,2.2246306E-1,1.2066864E0,5.55263E-1,-1.4301541E-1,-1.1295967E0,-1.4281576E0,3.0679628E-1,7.621986E-2,1.2175361E0,-6.9685124E-2,1.1978209E0,6.276258E-1,-1.2039263E0,-9.654605E-1,-1.2521204E0,-1.5232687E0,-6.8836495E-2,-7.2971946E-1,4.127402E-1,6.9375354E-1,-7.116064E-2,1.1470944E0,1.2910315E0,6.362777E-1,1.2829202E0,-9.109413E-2,4.387931E-2,-6.730742E-2,2.7420163E-2,-6.300825E-2,-3.5295274E-2,-6.312922E-2,-3.1208545E-2,-7.040846E-2,-7.848193E-2,-6.947138E-2,6.501682E-3,3.6633022E-2,-1.1698479E-3,-7.401867E-2,4.6722423E-2,6.367943E-2,4.5601483E-2,6.154744E-2,6.507731E-2,4.6283092E-2,-9.836639E-2,-9.665992E-2,6.43683E-2],"categories":[],"categories_nodes":[],"categories_segments":[],"categories_sizes":[],"default_left":[0,0,0,0,0,0,0,0,0,0,0,0,0,0,0,0,0,0,0,0,0,0,0,0,0,0,0,0,0,0,0,0,0,0,0,0,0,0,0,0,0,0,0,0,0,0,0,0,0,0,0,0,0],"id":15,"left_children":[1,3,5,7,9,11,13,15,17,19,21,23,25,-1,27,29,31,33,35,37,-1,39,41,43,-1,45,47,49,51,-1,-1,-1,-1,-1,-1,-1,-1,-1,-1,-1,-1,-1,-1,-1,-1,-1,-1,-1,-1,-1,-1,-1,-1],"loss_changes":[3.0775378E5,4.7744195E4,2.0079375E3,3.307422E4,6.509921E3,1.6531719E3,6.1474404E3,3.6020785E4,2.9868281E3,9.021484E0,4.885922E3,1.1884829E3,6.897344E2,0E0,1.7557715E2,1.5627098E4,4.6206777E3,4.857164E3,5.582031E2,1.9976807E0,0E0,2.3404543E3,5.63217E3,4.7708038E2,0E0,2.0261719E3,3.9671875E1,3.6931836E2,4.8305176E1,0E0,0E0,0E0,0E0,0E0,0E0,0E0,0E0,0E0,0E0,0E0,0E0,0E0,0E0,0E0,0E0,0E0,0E0,0E0,0E0,0E0,0E0,0E0,0E0],"parents":[2147483647,0,0,1,1,2,2,3,3,4,4,5,5,6,6,7,7,8,8,9,9,10,10,11,11,12,12,14,14,15,15,16,16,17,17,18,18,19,19,21,21,22,22,23,23,25,25,26,26,27,27,28,28],"right_children":[2,4,6,8,10,12,14,16,18,20,22,24,26,-1,28,30,32,34,36,38,-1,40,42,44,-1,46,48,50,52,-1,-1,-1,-1,-1,-1,-1,-1,-1,-1,-1,-1,-1,-1,-1,-1,-1,-1,-1,-1,-1,-1,-1,-1],"split_conditions":[1.5126271E0,1.3489168E0,8E0,-1.2920247E0,3E0,1.5820434E0,1.3E1,-2.0200527E-1,-2.216944E-1,-2.0200527E-1,-1.2319958E0,2E0,1.3489168E0,-6.9685124E-2,1.0554788E0,3E0,8E0,-1.0594612E0,1.4306931E0,-1.2319958E0,-6.8836495E-2,1.1E1,-2.0200527E-1,1E0,-7.116064E-2,2E0,2.254616E0,1E0,-1.5931835E0,-9.109413E-2,4.387931E-2,-6.730742E-2,2.7420163E-2,-6.300825E-2,-3.5295274E-2,-6.312922E-2,-3.1208545E-2,-7.040846E-2,-7.848193E-2,-6.947138E-2,6.501682E-3,3.6633022E-2,-1.1698479E-3,-7.401867E-2,4.6722423E-2,6.367943E-2,4.5601483E-2,6.154744E-2,6.507731E-2,4.6283092E-2,-9.836639E-2,-9.665992E-2,6.43683E-2],"split_indices":[2,15,1,15,1,2,1,2,2,2,2,1,15,0,15,1,1,2,2,2,0,1,2,1,0,1,2,3,10,0,0,0,0,0,0,0,0,0,0,0,0,0,0,0,0,0,0,0,0,0,0,0,0],"split_type":[0,0,0,0,0,0,0,0,0,0,0,0,0,0,0,0,0,0,0,0,0,0,0,0,0,0,0,0,0,0,0,0,0,0,0,0,0,0,0,0,0,0,0,0,0,0,0,0,0,0,0,0,0],"sum_hessian":[3.7909616E5,2.3939742E5,1.3969873E5,1.9263562E5,4.6761793E4,1.3479223E5,4.906496E3,4.4055797E4,1.4857983E5,2.2722385E3,4.4489555E4,1.2814615E3,1.3351078E5,1.2162563E3,3.6902397E3,2.551918E4,1.8536615E4,6.3509535E4,8.50703E4,7.8739734E2,1.4848412E3,4.125112E3,4.036444E4,9.0803094E2,3.734306E2,6.8180086E4,6.5330695E4,4.8675784E2,3.2034817E3,2.3623955E3,2.3156785E4,1.7145307E4,1.3913098E3,2.9739172E4,3.3770363E4,8.367495E4,1.3953416E3,2.3512814E2,5.5226917E2,2.3337534E3,1.7913585E3,2.3284129E4,1.7080312E4,8.99937E1,8.180373E2,4.4323887E4,2.3856197E4,9.747869E3,5.558283E4,4.386477E2,4.811011E1,3.8232133E0,3.1996587E3],"tree_param":{"num_deleted":"0","num_feature":"19","num_nodes":"53","size_leaf_vector":"1"}},{"base_weights":[5.866498E-3,-3.5899028E-1,8.3084345E-1,5.53475E-1,-8.204144E-1,1.0554808E0,4.2338988E-1,6.918242E-1,1.6553919E-1,-8.542786E-1,9.583675E-1,1.2480512E0,9.8528963E-1,3.899327E-1,1.5598483E0,2.1958841E-1,7.5675714E-1,-1.6163458E-1,2.5978306E-1,-6.707357E-1,-1.0466112E0,1.1284924E0,1.9904894E-1,1.2337276E0,1.2811859E0,2.8921944E-1,1.0597265E0,5.7740307E-1,2.011469E-1,1.5939305E0,-8.029353E-2,-3.5134252E-2,2.4480935E-2,3.506648E-2,6.1927047E-2,-1.6007855E-3,-4.082883E-2,2.2453172E-2,6.5976786E-3,-3.009524E-2,-5.730325E-2,-5.4235447E-2,-4.431322E-2,6.254562E-2,1.7584463E-3,-7.512936E-2,3.997613E-2,6.0942233E-2,6.383822E-2,6.414067E-2,5.0112713E-2,1.7080748E-2,-7.084841E-2,4.968505E-2,6.266004E-2,3.3088215E-2,1.0505743E-2,1.2143301E-2,-8.70759E-2,-8.0394305E-2,8.068297E-2],"categories":[],"categories_nodes":[],"categories_segments":[],"categories_sizes":[],"default_left":[0,0,0,0,0,0,0,0,0,0,0,0,0,0,0,0,0,0,0,0,0,0,0,0,0,0,0,0,0,0,0,0,0,0,0,0,0,0,0,0,0,0,0,0,0,0,0,0,0,0,0,0,0,0,0,0,0,0,0,0,0],"id":16,"left_children":[1,3,5,7,9,11,13,15,17,19,21,23,25,27,29,31,33,35,37,39,41,43,45,47,49,51,53,55,57,59,-1,-1,-1,-1,-1,-1,-1,-1,-1,-1,-1,-1,-1,-1,-1,-1,-1,-1,-1,-1,-1,-1,-1,-1,-1,-1,-1,-1,-1,-1,-1],"loss_changes":[1.1152083E5,1.0815978E5,1.0398469E4,4.630463E3,1.0278055E4,9.886797E2,1.5346841E3,1.9499473E3,6.994186E2,5.9096562E3,4.1158423E2,7.703125E0,2.780871E3,1.3881221E3,1.27113525E2,1.9152244E3,1.492127E3,4.3064307E2,4.2602112E2,2.8023203E3,4.9846875E2,3.48511E2,5.9866626E2,7.2089844E0,1.3818359E0,4.6418274E2,6.181914E2,6.096587E2,1.5845065E3,7.477124E1,0E0,0E0,0E0,0E0,0E0,0E0,0E0,0E0,0E0,0E0,0E0,0E0,0E0,0E0,0E0,0E0,0E0,0E0,0E0,0E0,0E0,0E0,0E0,0E0,0E0,0E0,0E0,0E0,0E0,0E0,0E0],"parents":[2147483647,0,0,1,1,2,2,3,3,4,4,5,5,6,6,7,7,8,8,9,9,10,10,11,11,12,12,13,13,14,14,15,15,16,16,17,17,18,18,19,19,20,20,21,21,22,22,23,23,24,24,25,25,26,26,27,27,28,28,29,29],"right_children":[2,4,6,8,10,12,14,16,18,20,22,24,26,28,30,32,34,36,38,40,42,44,46,48,50,52,54,56,58,60,-1,-1,-1,-1,-1,-1,-1,-1,-1,-1,-1,-1,-1,-1,-1,-1,-1,-1,-1,-1,-1,-1,-1,-1,-1,-1,-1,-1,-1,-1,-1],"split_conditions":[1.3489168E0,-1.2920247E0,8E0,4E0,8.89E2,2E0,8.89E2,1E0,5E0,3.38E2,1.0880849E0,1E0,3E0,-4.4399735E-2,1.4227809E0,-3.8919163E-1,8.63E2,6.965509E-1,-3.3637455E-1,1.4154743E0,3.36E2,1.9643345E0,4.6745494E-1,7.83E2,2.2159023E0,4.2E1,7.44E2,1.3E1,1.9643345E0,-1.7830788E0,-8.029353E-2,-3.5134252E-2,2.4480935E-2,3.506648E-2,6.1927047E-2,-1.6007855E-3,-4.082883E-2,2.2453172E-2,6.5976786E-3,-3.009524E-2,-5.730325E-2,-5.4235447E-2,-4.431322E-2,6.254562E-2,1.7584463E-3,-7.512936E-2,3.997613E-2,6.0942233E-2,6.383822E-2,6.414067E-2,5.0112713E-2,1.7080748E-2,-7.084841E-2,4.968505E-2,6.266004E-2,3.3088215E-2,1.0505743E-2,1.2143301E-2,-8.70759E-2,-8.0394305E-2,8.068297E-2],"split_indices":[15,15,1,1,7,1,7,1,1,0,8,1,1,17,8,10,7,12,17,17,11,10,16,7,10,6,7,1,10,10,0,0,0,0,0,0,0,0,0,0,0,0,0,0,0,0,0,0,0,0,0,0,0,0,0,0,0,0,0,0,0],"split_type":[0,0,0,0,0,0,0,0,0,0,0,0,0,0,0,0,0,0,0,0,0,0,0,0,0,0,0,0,0,0,0,0,0,0,0,0,0,0,0,0,0,0,0,0,0,0,0,0,0,0,0,0,0,0,0,0,0,0,0,0,0],"sum_hessian":[3.70501E5,2.5688905E5,1.1361195E5,8.627675E4,1.706123E5,7.323463E4,4.0377316E4,6.3595844E4,2.2680906E4,1.6742539E5,3.186898E3,1.9558602E4,5.3676035E4,3.9223914E4,1.1534033E3,7.6879937E3,5.5907848E4,5.072092E3,1.7608814E4,8.567258E4,8.175282E4,2.6031726E3,5.8372516E2,1.3682217E4,5.8763843E3,5.1859844E3,4.849005E4,1.9679488E4,1.9544426E4,1.1416093E3,1.17940855E1,1.7407968E3,5.9471973E3,5.014168E4,5.766171E3,4.234997E3,8.370947E2,7.0972383E3,1.0511576E4,7.483782E4,1.0834758E4,6.60531E4,1.5699714E4,2.340915E3,2.622576E2,1.5186482E2,4.3186035E2,1.0188255E4,3.4939622E3,5.8387183E3,3.766581E1,5.032248E3,1.5373613E2,3.6157125E4,1.2332927E4,1.6003009E4,3.6764788E3,1.9134387E4,4.1003976E2,6.4982986E0,1.135111E3],"tree_param":{"num_deleted":"0","num_feature":"19","num_nodes":"61","size_leaf_vector":"1"}},{"base_weights":[4.8467398E-4,-6.748518E-1,1.143362E0,-8.799552E-1,1.5126523E-1,1.0010272E0,1.2385943E0,-1.6117823E-1,-1.1002136E0,2.6906422E-1,-1.0508649E0,1.1975427E0,-4.6815563E-2,1.2419388E0,-6.9908254E-2,5.9456587E-1,-1.1669902E0,-9.361664E-1,-1.2255088E0,-4.8129967E-1,4.8314813E-1,-1.6527163E0,1.5407374E0,-1.59003E0,1.2543856E0,-1.6661977E0,1.2850063E0,1.1958667E0,1.2659906E0,-7.222345E-2,4.3831818E-2,-6.6086955E-2,2.971229E-2,-5.308345E-2,-1.4746623E-2,-6.289015E-2,-5.547565E-2,-5.1161118E-2,5.6212187E-2,4.0127788E-2,-6.253837E-3,-9.6189134E-2,-7.596762E-2,8.650795E-2,-9.009998E-2,-1.325834E-1,8.496877E-3,-4.1533846E-2,6.3515306E-2,-9.005858E-2,-6.846052E-2,8.6436905E-2,5.9703838E-2,6.290533E-2,5.723223E-2,6.275629E-2,6.365425E-2],"categories":[],"categories_nodes":[],"categories_segments":[],"categories_sizes":[],"default_left":[0,0,0,0,0,0,0,0,0,0,0,0,0,0,0,0,0,0,0,0,0,0,0,0,0,0,0,0,0,0,0,0,0,0,0,0,0,0,0,0,0,0,0,0,0,0,0,0,0,0,0,0,0,0,0,0,0],"id":17,"left_children":[1,3,5,7,9,11,13,15,17,19,21,23,25,27,-1,29,31,33,35,37,39,41,43,45,47,49,51,53,55,-1,-1,-1,-1,-1,-1,-1,-1,-1,-1,-1,-1,-1,-1,-1,-1,-1,-1,-1,-1,-1,-1,-1,-1,-1,-1,-1,-1],"loss_changes":[2.8120972E5,3.88044E4,1.8331094E3,2.9045562E4,6.4506987E3,1.1171719E4,7.1671875E2,3.2712887E4,2.8853594E3,6.6646133E3,6.3436494E3,7.240996E3,1.8482936E4,8.821094E1,0E0,1.4134202E4,5.0328906E3,4.893965E3,2.9684375E2,8.014095E3,6.27076E3,1.1636426E2,4.885863E2,1.7071243E3,1.4873125E3,1.5256152E2,1.8767236E2,8.716406E1,2.5E0,0E0,0E0,0E0,0E0,0E0,0E0,0E0,0E0,0E0,0E0,0E0,0E0,0E0,0E0,0E0,0E0,0E0,0E0,0E0,0E0,0E0,0E0,0E0,0E0,0E0,0E0,0E0,0E0],"parents":[2147483647,0,0,1,1,2,2,3,3,4,4,5,5,6,6,7,7,8,8,9,9,10,10,11,11,12,12,13,13,15,15,16,16,17,17,18,18,19,19,20,20,21,21,22,22,23,23,24,24,25,25,26,26,27,27,28,28],"right_children":[2,4,6,8,10,12,14,16,18,20,22,24,26,28,-1,30,32,34,36,38,40,42,44,46,48,50,52,54,56,-1,-1,-1,-1,-1,-1,-1,-1,-1,-1,-1,-1,-1,-1,-1,-1,-1,-1,-1,-1,-1,-1,-1,-1,-1,-1,-1,-1],"split_conditions":[1.4657288E0,1.3489168E0,2.254616E0,-1.2920247E0,1.3E1,3E0,8E0,-2.836211E-1,-2.216944E-1,8E0,1.2217509E0,1E0,1.3E1,1.3489168E0,-6.9908254E-2,-1.2488335E0,8E0,-4.4448608E-1,8.9099E-1,2.3602992E-1,-2.216944E-1,-2.0200527E-1,1.21204436E-1,2.080992E0,1.5126271E0,8E0,1.5126271E0,-1.2920247E0,1.7861718E-1,-7.222345E-2,4.3831818E-2,-6.6086955E-2,2.971229E-2,-5.308345E-2,-1.4746623E-2,-6.289015E-2,-5.547565E-2,-5.1161118E-2,5.6212187E-2,4.0127788E-2,-6.253837E-3,-9.6189134E-2,-7.596762E-2,8.650795E-2,-9.009998E-2,-1.325834E-1,8.496877E-3,-4.1533846E-2,6.3515306E-2,-9.005858E-2,-6.846052E-2,8.6436905E-2,5.9703838E-2,6.290533E-2,5.723223E-2,6.275629E-2,6.365425E-2],"split_indices":[2,15,2,15,1,1,1,2,2,1,2,1,1,15,0,2,1,2,2,14,2,2,14,2,2,1,2,15,14,0,0,0,0,0,0,0,0,0,0,0,0,0,0,0,0,0,0,0,0,0,0,0,0,0,0,0,0],"split_type":[0,0,0,0,0,0,0,0,0,0,0,0,0,0,0,0,0,0,0,0,0,0,0,0,0,0,0,0,0,0,0,0,0,0,0,0,0,0,0,0,0,0,0,0,0,0,0,0,0,0,0,0,0,0,0,0,0],"sum_hessian":[3.6434106E5,2.2901467E5,1.353264E5,1.8346502E5,4.554966E4,5.4252184E4,8.107422E4,4.3033637E4,1.4043138E5,4.148522E4,4.0644377E3,4.568428E4,8.567902E3,8.097204E4,1.021778E2,2.4571547E4,1.8462092E4,6.0815227E4,7.961614E4,9.208431E3,3.227679E4,3.2987314E3,7.657065E2,9.124175E2,4.4771863E4,3.866417E3,4.701485E3,2.7789947E4,5.3182094E4,2.9855366E3,2.158601E4,1.6971188E4,1.4909036E3,5.086019E4,9.955036E3,6.2269848E4,1.7346297E4,6.884913E3,2.3235176E3,2.1162854E4,1.1113936E4,1.083354E3,2.2153774E3,7.250999E2,4.0606564E1,5.6880145E2,3.43616E2,3.3887988E2,4.4432984E4,2.6548047E3,1.2116123E3,7.9651587E2,3.9049692E3,1.2535063E4,1.5254884E4,2.1078578E4,3.2103516E4],"tree_param":{"num_deleted":"0","num_feature":"19","num_nodes":"57","size_leaf_vector":"1"}},{"base_weights":[2.0518603E-3,-6.435518E-1,1.1305923E0,-2.5386268E-1,-1.0253243E0,1.152543E0,5.0254804E-1,-1.1361156E0,8.828679E-2,-1.284326E0,-8.6867434E-1,-9.983236E-3,1.1634843E0,-6.657969E-2,1.1439217E0,-1.2523216E0,-7.0259094E-1,6.2947077E-1,-2.8221706E-1,-6.439961E-2,-8.869898E-1,-1.0389256E0,-4.3632033E-1,5.831183E-1,-6.8510436E-2,1.0618479E0,1.2219014E0,-1.238778E-1,1.1519532E0,1.0693335E-2,-6.351788E-2,-1.3315426E-2,-6.9209814E-2,-7.532456E-2,5.226779E-2,-4.6824176E-2,2.4601636E-2,5.0171953E-2,-6.7421116E-2,-7.231721E-3,-5.6310095E-2,-6.613929E-2,-7.232604E-3,-1.2630275E-2,5.945177E-2,6.0640026E-2,-9.4412275E-2,6.1710816E-2,5.8933377E-2,6.051922E-2,3.4046017E-2],"categories":[],"categories_nodes":[],"categories_segments":[],"categories_sizes":[],"default_left":[0,0,0,0,0,0,0,0,0,0,0,0,0,0,0,0,0,0,0,0,0,0,0,0,0,0,0,0,0,0,0,0,0,0,0,0,0,0,0,0,0,0,0,0,0,0,0,0,0,0,0],"id":18,"left_children":[1,3,5,7,9,11,13,15,17,19,21,23,25,-1,27,29,31,33,35,-1,37,39,41,43,-1,45,47,-1,49,-1,-1,-1,-1,-1,-1,-1,-1,-1,-1,-1,-1,-1,-1,-1,-1,-1,-1,-1,-1,-1,-1],"loss_changes":[2.5842566E5,3.3566055E4,1.7787969E3,3.3704387E4,4.622867E3,1.5862969E3,5.1311646E3,1.5709688E3,1.6132161E4,6.1414062E1,5.2271836E3,9.39703E2,7.322656E2,0E0,9.6839355E1,6.5091016E2,1.9616284E3,2.9046316E4,2.4193523E4,0E0,3.4668384E2,3.976793E3,5.188063E3,4.1104208E2,0E0,2.008689E4,4.03125E1,0E0,8.793408E1,0E0,0E0,0E0,0E0,0E0,0E0,0E0,0E0,0E0,0E0,0E0,0E0,0E0,0E0,0E0,0E0,0E0,0E0,0E0,0E0,0E0,0E0],"parents":[2147483647,0,0,1,1,2,2,3,3,4,4,5,5,6,6,7,7,8,8,9,9,10,10,11,11,12,12,14,14,15,15,16,16,17,17,18,18,20,20,21,21,22,22,23,23,25,25,26,26,28,28],"right_children":[2,4,6,8,10,12,14,16,18,20,22,24,26,-1,28,30,32,34,36,-1,38,40,42,44,-1,46,48,-1,50,-1,-1,-1,-1,-1,-1,-1,-1,-1,-1,-1,-1,-1,-1,-1,-1,-1,-1,-1,-1,-1,-1],"split_conditions":[1.5126271E0,-2.216944E-1,8E0,-1.1711501E0,4E0,1.5820434E0,1.3E1,1.1E1,6E0,1.4657288E0,8.4291565E-1,2E0,2.254616E0,-6.657969E-2,-1.56043E0,8E0,-2.489941E-1,3E0,-4.9436533E-1,-6.439961E-2,-1.646606E0,5E0,8E0,1E0,-6.8510436E-2,3E0,7E0,-1.238778E-1,1E0,1.0693335E-2,-6.351788E-2,-1.3315426E-2,-6.9209814E-2,-7.532456E-2,5.226779E-2,-4.6824176E-2,2.4601636E-2,5.0171953E-2,-6.7421116E-2,-7.231721E-3,-5.6310095E-2,-6.613929E-2,-7.232604E-3,-1.2630275E-2,5.945177E-2,6.0640026E-2,-9.4412275E-2,6.1710816E-2,5.8933377E-2,6.051922E-2,3.4046017E-2],"split_indices":[2,2,1,2,1,2,1,1,1,2,2,1,2,0,16,0,10,1,2,0,8,1,1,3,0,1,1,0,3,0,0,0,0,0,0,0,0,0,0,0,0,0,0,0,0,0,0,0,0,0,0],"split_type":[0,0,0,0,0,0,0,0,0,0,0,0,0,0,0,0,0,0,0,0,0,0,0,0,0,0,0,0,0,0,0,0,0,0,0,0,0,0,0,0,0,0,0,0,0,0,0,0,0,0,0],"sum_hessian":[3.546909E5,2.2562062E5,1.2907028E5,1.11653484E5,1.1396714E5,1.2471071E5,4.3595664E3,3.1200027E4,8.045346E4,4.2948996E4,7.101815E4,1.1628075E3,1.2354791E5,1.1292278E3,3.2303386E3,2.460325E4,6.596778E3,3.2695465E4,4.7757996E4,4.2554113E4,3.9488287E2,5.095271E4,2.0065438E4,8.1013446E2,3.5267307E2,4.510008E4,7.844783E4,6.467737E0,3.2238708E3,2.9884195E2,2.4304408E4,4.0230754E3,2.5737026E3,5.328087E3,2.7367377E4,2.588452E4,2.1873479E4,7.724511E1,3.1763776E2,4.5307017E3,4.6422008E4,4.966686E3,1.5098751E4,3.40742E2,4.6939246E2,4.2905258E4,2.1948196E3,6.1034816E4,1.7413012E4,2.866691E3,3.5717993E2],"tree_param":{"num_deleted":"0","num_feature":"19","num_nodes":"51","size_leaf_vector":"1"}},{"base_weights":[2.6360997E-3,-6.3134176E-1,1.1139138E0,-8.4766436E-1,1.9700615E-1,1.1349453E0,5.7179755E-1,-1.8915364E-1,-1.0447252E0,-1.3728355E0,2.736947E-1,8.951149E-2,1.1456318E0,-6.54788E-2,1.1376135E0,5.155811E-1,-1.137332E0,-8.7911767E-1,-1.1735933E0,-1.45186E0,-1.3268362E0,3.8025162E-1,-6.3602644E-1,6.349037E-1,-6.7209505E-2,1.0466112E0,1.2034997E0,3.2996646E-1,1.2251512E0,-8.6033605E-2,3.810749E-2,-6.464652E-2,2.8134102E-2,-6.0069907E-2,-3.0611157E-2,-5.92528E-2,-2.5792642E-2,-6.798034E-2,-7.429978E-2,-6.497867E-2,-7.1423404E-2,-3.715169E-2,2.4192816E-2,-7.680955E-2,8.342897E-2,-4.965071E-2,4.5155123E-2,5.9647735E-2,-8.639318E-2,5.7496727E-2,6.1652493E-2,-1.1744703E-1,4.4869576E-2,-9.2396595E-2,6.14321E-2],"categories":[],"categories_nodes":[],"categories_segments":[],"categories_sizes":[],"default_left":[0,0,0,0,0,0,0,0,0,0,0,0,0,0,0,0,0,0,0,0,0,0,0,0,0,0,0,0,0,0,0,0,0,0,0,0,0,0,0,0,0,0,0,0,0,0,0,0,0,0,0,0,0,0,0],"id":19,"left_children":[1,3,5,7,9,11,13,15,17,19,21,23,25,-1,27,29,31,33,35,37,39,41,43,45,-1,47,49,51,53,-1,-1,-1,-1,-1,-1,-1,-1,-1,-1,-1,-1,-1,-1,-1,-1,-1,-1,-1,-1,-1,-1,-1,-1,-1,-1],"loss_changes":[2.4367975E5,3.9464164E4,1.431875E3,2.266104E4,5.490763E3,1.3511406E3,4.9986484E3,2.6878346E4,2.8674375E3,5.7956543E0,4.2152754E3,9.5866156E2,6.8478125E2,0E0,2.5478467E2,1.2724301E4,4.537201E3,5.058965E3,5.692656E2,4.0759277E-1,1.8959961E0,4.530205E3,9.461328E3,3.8862265E2,0E0,1.7935465E4,1.1817969E2,5.407176E2,3.7200684E1,0E0,0E0,0E0,0E0,0E0,0E0,0E0,0E0,0E0,0E0,0E0,0E0,0E0,0E0,0E0,0E0,0E0,0E0,0E0,0E0,0E0,0E0,0E0,0E0,0E0,0E0],"parents":[2147483647,0,0,1,1,2,2,3,3,4,4,5,5,6,6,7,7,8,8,9,9,10,10,11,11,12,12,14,14,15,15,16,16,17,17,18,18,19,19,20,20,21,21,22,22,23,23,25,25,26,26,27,27,28,28],"right_children":[2,4,6,8,10,12,14,16,18,20,22,24,26,-1,28,30,32,34,36,38,40,42,44,46,-1,48,50,52,54,-1,-1,-1,-1,-1,-1,-1,-1,-1,-1,-1,-1,-1,-1,-1,-1,-1,-1,-1,-1,-1,-1,-1,-1,-1,-1],"split_conditions":[1.5126271E0,1.3489168E0,8E0,-1.2920247E0,3E0,1.5820434E0,1.3E1,-2.0200527E-1,-2.216944E-1,-1.6434541E-1,1.3E1,2E0,2.254616E0,-6.54788E-2,1.0554788E0,3E0,8E0,-1.0594612E0,1.4306931E0,-1.2319958E0,2.3602992E-1,-1.2980202E0,1.3260252E0,3.36E2,-6.7209505E-2,3E0,1.3489168E0,2.2E1,-1.5931835E0,-8.6033605E-2,3.810749E-2,-6.464652E-2,2.8134102E-2,-6.0069907E-2,-3.0611157E-2,-5.92528E-2,-2.5792642E-2,-6.798034E-2,-7.429978E-2,-6.497867E-2,-7.1423404E-2,-3.715169E-2,2.4192816E-2,-7.680955E-2,8.342897E-2,-4.965071E-2,4.5155123E-2,5.9647735E-2,-8.639318E-2,5.7496727E-2,6.1652493E-2,-1.1744703E-1,4.4869576E-2,-9.2396595E-2,6.14321E-2],"split_indices":[2,15,1,15,1,2,1,2,2,2,1,1,2,0,15,1,1,2,2,2,14,2,2,5,0,1,15,6,10,0,0,0,0,0,0,0,0,0,0,0,0,0,0,0,0,0,0,0,0,0,0,0,0,0,0],"split_type":[0,0,0,0,0,0,0,0,0,0,0,0,0,0,0,0,0,0,0,0,0,0,0,0,0,0,0,0,0,0,0,0,0,0,0,0,0,0,0,0,0,0,0,0,0,0,0,0,0,0,0,0,0,0,0],"sum_hessian":[3.4587588E5,2.20234E5,1.2564186E5,1.7462956E5,4.560444E4,1.2094854E5,4.6933223E3,4.022227E4,1.3440728E5,2.1232783E3,4.3481164E4,1.2239287E3,1.1972461E5,1.0848417E3,3.608481E3,2.3073395E4,1.7148873E4,5.88226E4,7.558469E4,7.699626E2,1.3533157E3,3.892268E4,4.5584863E3,8.870461E2,3.3688272E2,4.4167105E4,7.55575E4,3.5333005E2,3.255151E3,2.2908213E3,2.0782572E4,1.571111E4,1.437763E3,2.6644879E4,3.2177725E4,7.428923E4,1.2954568E3,2.189822E2,5.5098035E2,1.0779435E3,2.753722E2,3.2863027E3,3.5636375E4,3.2783262E3,1.2801599E3,1.25087135E2,7.619589E2,4.195472E4,2.212389E3,2.6877371E4,4.8680133E4,6.1209637E1,2.921204E2,3.0938842E0,3.252057E3],"tree_param":{"num_deleted":"0","num_feature":"19","num_nodes":"55","size_leaf_vector":"1"}},{"base_weights":[3.0394434E-3,-3.391419E-1,7.639286E-1,4.9262106E-1,-7.595721E-1,9.793557E-1,4.1501886E-1,6.33113E-1,1.1601983E-1,-7.9664475E-1,6.873696E-1,6.692458E-1,1.2219118E0,6.2733257E-1,-7.0113674E-2,1.505266E-1,6.9960123E-1,6.4108115E-1,-9.197983E-1,-6.374422E-1,-9.708522E-1,8.810822E-1,-1.8458831E-1,4.3045472E-2,9.350326E-1,1.1377954E0,1.2761927E0,7.7979845E-1,3.4328315E-2,9.169165E-2,-9.929759E-1,2.828193E-2,-8.0884054E-2,3.203635E-2,5.6379266E-2,4.593112E-2,-2.5866717E-2,-8.136697E-3,-7.698441E-2,-3.9804813E-2,-1.7865695E-2,-4.4789344E-2,-5.4707795E-2,4.5845218E-2,-7.021769E-2,-4.9703475E-2,5.5049803E-2,3.8447876E-2,-2.5281489E-2,5.5889934E-2,3.757365E-2,6.1484672E-2,2.7099108E-2,8.745153E-2,6.136474E-2,-1.575651E-2,4.1393187E-2,1.8700337E-2,-3.218807E-2,-1.3789785E-2,2.0681703E-2,-7.0384264E-2,-3.4469124E-2],"categories":[],"categories_nodes":[],"categories_segments":[],"categories_sizes":[],"default_left":[0,0,0,0,0,0,0,0,0,0,0,0,0,0,0,0,0,0,0,0,0,0,0,0,0,0,0,0,0,0,0,0,0,0,0,0,0,0,0,0,0,0,0,0,0,0,0,0,0,0,0,0,0,0,0,0,0,0,0,0,0,0,0],"id":20,"left_children":[1,3,5,7,9,11,13,15,17,19,21,23,25,27,29,31,33,35,37,39,41,43,45,47,49,51,53,55,57,59,61,-1,-1,-1,-1,-1,-1,-1,-1,-1,-1,-1,-1,-1,-1,-1,-1,-1,-1,-1,-1,-1,-1,-1,-1,-1,-1,-1,-1,-1,-1,-1,-1],"loss_changes":[8.773683E4,8.1286375E4,7.8568438E3,4.1292754E3,8.282945E3,4.8605117E3,4.1103726E3,1.8237051E3,1.1533779E4,4.1746406E3,6.517616E2,4.72121E3,1.641211E2,2.5096611E3,1.8142156E3,5.053943E3,1.2580664E3,4.525076E3,3.3476216E3,3.4957734E3,6.6435156E2,2.597185E2,7.316969E2,3.3673516E3,6.6725195E2,7.7859375E2,5.0725E2,1.162331E3,1.3081172E3,1.2231431E3,2.2721606E2,0E0,0E0,0E0,0E0,0E0,0E0,0E0,0E0,0E0,0E0,0E0,0E0,0E0,0E0,0E0,0E0,0E0,0E0,0E0,0E0,0E0,0E0,0E0,0E0,0E0,0E0,0E0,0E0,0E0,0E0,0E0,0E0],"parents":[2147483647,0,0,1,1,2,2,3,3,4,4,5,5,6,6,7,7,8,8,9,9,10,10,11,11,12,12,13,13,14,14,15,15,16,16,17,17,18,18,19,19,20,20,21,21,22,22,23,23,24,24,25,25,26,26,27,27,28,28,29,29,30,30],"right_children":[2,4,6,8,10,12,14,16,18,20,22,24,26,28,30,32,34,36,38,40,42,44,46,48,50,52,54,56,58,60,62,-1,-1,-1,-1,-1,-1,-1,-1,-1,-1,-1,-1,-1,-1,-1,-1,-1,-1,-1,-1,-1,-1,-1,-1,-1,-1,-1,-1,-1,-1,-1,-1],"split_conditions":[1.3489168E0,-1.2920247E0,8E0,4E0,8.91E2,2.3602992E-1,1E0,1E0,2.3602992E-1,3.47E2,8E0,1E0,3E0,2.3602992E-1,1.3E1,1.7861718E-1,8.56E2,1E0,6E0,2.9344267E-1,1.7861718E-1,5.39E2,7.5274456E-1,-1.1992886E0,-2.2873296E-1,2E0,5E0,-1.2567014E0,1.2E1,1.7861718E-1,1.9E1,2.828193E-2,-8.0884054E-2,3.203635E-2,5.6379266E-2,4.593112E-2,-2.5866717E-2,-8.136697E-3,-7.698441E-2,-3.9804813E-2,-1.7865695E-2,-4.4789344E-2,-5.4707795E-2,4.5845218E-2,-7.021769E-2,-4.9703475E-2,5.5049803E-2,3.8447876E-2,-2.5281489E-2,5.5889934E-2,3.757365E-2,6.1484672E-2,2.7099108E-2,8.745153E-2,6.136474E-2,-1.575651E-2,4.1393187E-2,1.8700337E-2,-3.218807E-2,-1.3789785E-2,2.0681703E-2,-7.0384264E-2,-3.4469124E-2],"split_indices":[15,15,1,1,4,14,3,1,14,0,1,3,1,14,1,14,4,3,1,14,14,0,14,14,10,1,1,14,1,14,6,0,0,0,0,0,0,0,0,0,0,0,0,0,0,0,0,0,0,0,0,0,0,0,0,0,0,0,0,0,0,0,0],"split_type":[0,0,0,0,0,0,0,0,0,0,0,0,0,0,0,0,0,0,0,0,0,0,0,0,0,0,0,0,0,0,0,0,0,0,0,0,0,0,0,0,0,0,0,0,0,0,0,0,0,0,0,0,0,0,0,0,0,0,0,0,0,0,0],"sum_hessian":[3.3697803E5,2.3244511E5,1.04532914E5,7.804457E4,1.5440055E5,6.4627934E4,3.990498E4,5.6839707E4,2.1204861E4,1.5054386E5,3.856688E3,2.8365795E4,3.6262137E4,2.7757066E4,1.2147913E4,6.883195E3,4.995651E4,1.4072051E4,7.13281E3,7.8661945E4,7.1881914E4,3.155629E3,7.0105927E2,8.452547E3,1.9913248E4,1.4231019E4,2.203112E4,2.2079854E4,5.6772124E3,1.0336514E4,1.8113992E3,5.575052E3,1.308143E3,4.3917625E4,6.038888E3,1.1352376E4,2.7196746E3,3.2116824E3,3.9211277E3,5.021834E4,2.8443602E4,4.468604E4,2.7195877E4,3.10752E3,4.810878E1,4.3032654E2,2.707327E2,3.6384194E3,4.8141274E3,9.975643E3,9.937605E3,1.2328424E4,1.902595E3,2.0615312E3,1.9969588E4,9.282692E2,2.1151584E4,3.782751E3,1.8944613E3,4.8269E3,5.5096143E3,7.640576E2,1.0473416E3],"tree_param":{"num_deleted":"0","num_feature":"19","num_nodes":"63","size_leaf_vector":"1"}},{"base_weights":[4.3908395E-3,-6.096159E-1,1.0798008E0,-2.390223E-1,-1.0023714E0,9.3956476E-1,1.1751461E0,-1.0463415E0,9.508772E-2,-1.136158E0,-6.728034E-1,9.991136E-1,4.629651E-1,1.1612331E0,1.2060128E0,-1.1469958E0,-6.4072925E-1,4.1905545E-2,1.348712E0,-1.2357316E0,-9.2966056E-1,-4.5327678E-1,-9.486712E-1,5.3088295E-1,1.05375E0,-1.0083596E-1,4.8961297E-1,1.1319115E0,1.1869203E0,1.1877141E0,6.0752578E-2,-6.251683E-2,-4.5025364E-2,-8.963137E-3,-4.868235E-2,-6.7915446E-3,1.7260065E-2,6.8005234E-2,-7.9386234E-2,-6.248177E-2,-5.1550306E-2,-2.7362777E-2,-6.29512E-2,-1.1442832E-2,-4.2318325E-2,-5.2708186E-2,5.9857187E-3,4.4588182E-2,1.4382052E-2,5.4732155E-2,4.3232825E-2,3.4018263E-2,1.0268342E-2,5.6643393E-2,-1.6046596E-1,6.073745E-2,5.8248397E-2,5.9734877E-2,5.4617967E-2],"categories":[],"categories_nodes":[],"categories_segments":[],"categories_sizes":[],"default_left":[0,0,0,0,0,0,0,0,0,0,0,0,0,0,0,0,0,0,0,0,0,0,0,0,0,0,0,0,0,0,0,0,0,0,0,0,0,0,0,0,0,0,0,0,0,0,0,0,0,0,0,0,0,0,0,0,0,0,0],"id":21,"left_children":[1,3,5,7,9,11,13,15,17,19,21,23,25,27,29,31,33,35,37,39,41,43,45,47,49,-1,51,53,55,57,-1,-1,-1,-1,-1,-1,-1,-1,-1,-1,-1,-1,-1,-1,-1,-1,-1,-1,-1,-1,-1,-1,-1,-1,-1,-1,-1,-1,-1],"loss_changes":[2.1874773E5,3.0693797E4,1.6087656E3,2.9266738E4,4.5132656E3,1.382668E3,2.9382812E1,1.295918E3,5.1164443E3,1.4960859E3,1.7898887E3,1.1076875E3,3.5878064E2,3.5882812E1,2.2363281E0,6.47E2,9.7025854E2,3.9687122E3,1.0664014E2,1.3854688E2,2.9834922E3,1.4522385E3,1.476501E3,3.9728455E2,2.9902344E2,0E0,2.9037E2,9.9546875E1,1.4667969E1,3.6230469E0,0E0,0E0,0E0,0E0,0E0,0E0,0E0,0E0,0E0,0E0,0E0,0E0,0E0,0E0,0E0,0E0,0E0,0E0,0E0,0E0,0E0,0E0,0E0,0E0,0E0,0E0,0E0,0E0,0E0],"parents":[2147483647,0,0,1,1,2,2,3,3,4,4,5,5,6,6,7,7,8,8,9,9,10,10,11,11,12,12,13,13,14,14,15,15,16,16,17,17,18,18,19,19,20,20,21,21,22,22,23,23,24,24,26,26,27,27,28,28,29,29],"right_children":[2,4,6,8,10,12,14,16,18,20,22,24,26,28,30,32,34,36,38,40,42,44,46,48,50,-1,52,54,56,58,-1,-1,-1,-1,-1,-1,-1,-1,-1,-1,-1,-1,-1,-1,-1,-1,-1,-1,-1,-1,-1,-1,-1,-1,-1,-1,-1,-1,-1],"split_conditions":[1.4657288E0,-1.6434541E-1,2.254616E0,-1.1272409E0,8.4291565E-1,1.9466655E0,6.99E2,-1.2319958E0,9E2,3.508554E-1,1.0595517E0,1.5820434E0,-1.7617402E0,1E0,7.94E2,6.953318E-1,-3.3637455E-1,-4.6860972E-1,1.3937144E0,7.831028E-1,3.5864934E-1,2.3602992E-1,1.4306931E0,-3.407985E-1,1.7834634E0,-1.0083596E-1,1E0,6.96E2,-2.5951487E-1,1.4154743E0,6.0752578E-2,-6.251683E-2,-4.5025364E-2,-8.963137E-3,-4.868235E-2,-6.7915446E-3,1.7260065E-2,6.8005234E-2,-7.9386234E-2,-6.248177E-2,-5.1550306E-2,-2.7362777E-2,-6.29512E-2,-1.1442832E-2,-4.2318325E-2,-5.2708186E-2,5.9857187E-3,4.4588182E-2,1.4382052E-2,5.4732155E-2,4.3232825E-2,3.4018263E-2,1.0268342E-2,5.6643393E-2,-1.6046596E-1,6.073745E-2,5.8248397E-2,5.9734877E-2,5.4617967E-2],"split_indices":[2,2,2,2,2,2,4,2,4,14,2,2,8,3,7,14,17,2,13,2,2,14,2,10,2,0,3,4,10,17,0,0,0,0,0,0,0,0,0,0,0,0,0,0,0,0,0,0,0,0,0,0,0,0,0,0,0,0,0],"split_type":[0,0,0,0,0,0,0,0,0,0,0,0,0,0,0,0,0,0,0,0,0,0,0,0,0,0,0,0,0,0,0,0,0,0,0,0,0,0,0,0,0,0,0,0,0,0,0,0,0,0,0,0,0,0,0,0,0,0,0],"sum_hessian":[3.312789E5,2.1087817E5,1.20400734E5,1.0850107E5,1.0237709E5,4.87334E4,7.1667336E4,3.175894E4,7.674213E4,7.281555E4,2.956155E4,4.331971E4,5.4136865E3,4.942697E4,2.2240363E4,2.5443268E4,6.315673E3,7.362E4,3.122129E3,4.9123195E4,2.3692348E4,1.6463266E4,1.3098285E4,4.527767E3,3.8791945E4,5.676546E1,5.3569214E3,2.310174E4,2.632523E4,7.397186E3,1.4843178E4,1.7924361E4,7.5189062E3,2.6474744E3,3.6681987E3,4.641852E4,2.7201484E4,3.1105974E3,1.1531583E1,4.599444E4,3.1287556E3,1.0964616E4,1.2727732E4,1.0481067E4,5.982198E3,1.1921199E4,1.1770859E3,1.8219713E3,2.7057957E3,3.189057E4,6.9013745E3,3.2048274E3,2.152094E3,2.309739E4,4.3489428E0,1.1584937E4,1.4740293E4,6.8816714E3,5.155142E2],"tree_param":{"num_deleted":"0","num_feature":"19","num_nodes":"59","size_leaf_vector":"1"}},{"base_weights":[6.877795E-4,-5.841655E-1,1.0581747E0,-2.0614368E-1,-9.877109E-1,9.148931E-1,1.1574358E0,-9.7952265E-1,1.1340874E-1,-6.1960507E-2,-8.3544755E-1,1.115158E0,-9.85734E-2,1.1609147E0,-6.6519834E-2,-1.0993091E0,-5.398486E-1,6.197077E-1,-2.2799778E-1,-5.9513587E-1,-1.1365333E0,-1.8074821E0,1.1792765E0,-1.5223464E0,1.204492E0,1.1735188E0,1.1199982E0,-6.1895408E-2,-2.5528101E-2,-4.1276063E-3,-6.602783E-2,-7.136271E-2,5.014762E-2,-7.326287E-2,7.621222E-3,-6.199689E-2,-1.9491337E-2,-6.2095888E-2,2.7912233E-2,-1.3393836E-1,-2.6334405E-3,6.013972E-3,6.0531463E-2,-7.8989305E-2,-3.409123E-2,6.3961975E-2,3.2180063E-2,5.7919215E-2,5.956469E-2,-1.379283E-1,5.6035865E-2],"categories":[],"categories_nodes":[],"categories_segments":[],"categories_sizes":[],"default_left":[0,0,0,0,0,0,0,0,0,0,0,0,0,0,0,0,0,0,0,0,0,0,0,0,0,0,0,0,0,0,0,0,0,0,0,0,0,0,0,0,0,0,0,0,0,0,0,0,0,0,0],"id":22,"left_children":[1,3,5,7,9,11,13,15,17,-1,19,21,23,25,-1,27,29,31,33,35,37,39,41,43,45,47,49,-1,-1,-1,-1,-1,-1,-1,-1,-1,-1,-1,-1,-1,-1,-1,-1,-1,-1,-1,-1,-1,-1,-1,-1],"loss_changes":[1.9980586E5,3.1732531E4,1.6351641E3,2.6543953E4,3.8517734E3,9.557043E3,5.8971094E2,1.6533398E3,1.3137643E4,0E0,4.5339844E3,7.3701523E3,1.4417838E4,3.36875E1,0E0,2.0131562E3,2.401109E3,2.4014648E4,2.136654E4,4.6139043E3,4.9690234E3,1.2909883E3,1.2773047E3,1.7821387E2,1.692959E2,1.25703125E1,4.772461E1,0E0,0E0,0E0,0E0,0E0,0E0,0E0,0E0,0E0,0E0,0E0,0E0,0E0,0E0,0E0,0E0,0E0,0E0,0E0,0E0,0E0,0E0,0E0,0E0],"parents":[2147483647,0,0,1,1,2,2,3,3,4,4,5,5,6,6,7,7,8,8,10,10,11,11,12,12,13,13,15,15,16,16,17,17,18,18,19,19,20,20,21,21,22,22,23,23,24,24,25,25,26,26],"right_children":[2,4,6,8,10,12,14,16,18,-1,20,22,24,26,-1,28,30,32,34,36,38,40,42,44,46,48,50,-1,-1,-1,-1,-1,-1,-1,-1,-1,-1,-1,-1,-1,-1,-1,-1,-1,-1,-1,-1,-1,-1,-1,-1],"split_conditions":[1.4657288E0,-2.0200527E-1,2.254616E0,-1.1272409E0,4E0,3E0,8E0,1.1E1,6E0,-6.1960507E-2,1E1,1E0,1.3E1,7E0,-6.6519834E-2,-1.2166035E0,-2.489941E-1,3E0,9E0,2.6366115E-1,1.300943E0,2.080992E0,1.5820434E0,6.56E2,1E0,5.74E2,-2.4431868E0,-6.1895408E-2,-2.5528101E-2,-4.1276063E-3,-6.602783E-2,-7.136271E-2,5.014762E-2,-7.326287E-2,7.621222E-3,-6.199689E-2,-1.9491337E-2,-6.2095888E-2,2.7912233E-2,-1.3393836E-1,-2.6334405E-3,6.013972E-3,6.0531463E-2,-7.8989305E-2,-3.409123E-2,6.3961975E-2,3.2180063E-2,5.7919215E-2,5.956469E-2,-1.379283E-1,5.6035865E-2],"split_indices":[2,2,2,2,1,1,1,1,1,0,1,1,1,1,0,2,10,1,1,2,2,2,2,0,3,4,12,0,0,0,0,0,0,0,0,0,0,0,0,0,0,0,0,0,0,0,0,0,0,0,0],"split_type":[0,0,0,0,0,0,0,0,0,0,0,0,0,0,0,0,0,0,0,0,0,0,0,0,0,0,0,0,0,0,0,0,0,0,0,0,0,0,0,0,0,0,0,0,0,0,0,0,0,0,0],"sum_hessian":[3.2306028E5,2.0801567E5,1.1504461E5,1.0740519E5,1.00610484E5,4.708637E4,6.7958234E4,3.1402637E4,7.6002555E4,3.7938637E4,6.267185E4,3.931707E4,7.769303E3,6.7863875E4,9.436425E1,2.4677818E4,6.7248184E3,3.0609084E4,4.539347E4,3.4855164E4,2.7816686E4,8.434591E2,3.847361E4,3.7126113E3,4.0566921E3,5.1860668E4,1.6003206E4,1.9974457E4,4.703362E3,4.2414893E3,2.4833293E3,4.8266367E3,2.5782447E4,1.0674286E4,3.471918E4,8.4166045E3,2.643856E4,2.6188502E4,1.628182E3,5.63265E2,2.801941E2,1.1064392E3,3.736717E4,3.4743042E3,2.3830714E2,3.5785178E3,4.7817422E2,2.8046615E4,2.381405E4,2.2555559E0,1.6000951E4],"tree_param":{"num_deleted":"0","num_feature":"19","num_nodes":"51","size_leaf_vector":"1"}},{"base_weights":[-5.1335674E-3,-5.754629E-1,1.0526434E0,-7.896879E-1,1.9725499E-1,1.074224E0,4.9071392E-1,-1.5915638E-1,-9.872555E-1,-1.3238364E0,2.6870736E-1,1.2134738E-1,1.0851492E0,-6.343501E-2,1.0583941E0,5.0532824E-1,-1.0876535E0,-8.169841E-1,-1.1125276E0,-1.3957301E0,-1.2808195E0,3.6893636E-1,-6.20595E-1,6.3334733E-1,-6.525407E-2,1.010123E0,1.1679436E0,7.701132E-2,1.1675097E0,-8.0417804E-2,3.685741E-2,-6.263018E-2,2.8431678E-2,-5.6969594E-2,-2.70432E-2,-5.6213886E-2,-2.3327189E-2,-6.519518E-2,-7.145066E-2,-6.279513E-2,-6.840278E-2,2.5451524E-2,-9.888909E-3,-7.584836E-2,7.1781255E-2,-2.502037E-2,5.0886817E-2,5.7362057E-2,3.8737945E-2,5.389305E-2,5.9010096E-2,2.9642573E-2,-1.1917209E-1,-9.1126256E-2,5.8589913E-2],"categories":[],"categories_nodes":[],"categories_segments":[],"categories_sizes":[],"default_left":[0,0,0,0,0,0,0,0,0,0,0,0,0,0,0,0,0,0,0,0,0,0,0,0,0,0,0,0,0,0,0,0,0,0,0,0,0,0,0,0,0,0,0,0,0,0,0,0,0,0,0,0,0,0,0],"id":23,"left_children":[1,3,5,7,9,11,13,15,17,19,21,23,25,-1,27,29,31,33,35,37,39,41,43,45,-1,47,49,51,53,-1,-1,-1,-1,-1,-1,-1,-1,-1,-1,-1,-1,-1,-1,-1,-1,-1,-1,-1,-1,-1,-1,-1,-1,-1,-1],"loss_changes":[1.8908939E5,3.370947E4,1.3309453E3,1.9861281E4,4.804509E3,1.1006172E3,4.0589646E3,2.3469883E4,2.5885547E3,4.3461914E0,3.7634526E3,8.770023E2,6.4816406E2,0E0,3.2887964E2,1.0865676E4,4.335879E3,4.5805977E3,5.303203E2,3.7182617E-1,1.0056152E0,3.0126108E3,7.8849116E3,3.8553757E2,0E0,1.7692227E3,5.3601562E1,3.9291388E2,3.7585938E1,0E0,0E0,0E0,0E0,0E0,0E0,0E0,0E0,0E0,0E0,0E0,0E0,0E0,0E0,0E0,0E0,0E0,0E0,0E0,0E0,0E0,0E0,0E0,0E0,0E0,0E0],"parents":[2147483647,0,0,1,1,2,2,3,3,4,4,5,5,6,6,7,7,8,8,9,9,10,10,11,11,12,12,14,14,15,15,16,16,17,17,18,18,19,19,20,20,21,21,22,22,23,23,25,25,26,26,27,27,28,28],"right_children":[2,4,6,8,10,12,14,16,18,20,22,24,26,-1,28,30,32,34,36,38,40,42,44,46,-1,48,50,52,54,-1,-1,-1,-1,-1,-1,-1,-1,-1,-1,-1,-1,-1,-1,-1,-1,-1,-1,-1,-1,-1,-1,-1,-1,-1,-1],"split_conditions":[1.5126271E0,1.3489168E0,8E0,-1.2920247E0,3E0,1.5820434E0,1.3E1,-2.0200527E-1,-3.0518785E-1,-1.6434541E-1,1.3E1,2E0,1.3489168E0,-6.343501E-2,1.0554788E0,3E0,8E0,-1.0594612E0,1.4306931E0,-1.2319958E0,2.3602992E-1,3.6506003E-1,1.2217509E0,5.39E2,-6.525407E-2,2E0,2.080992E0,1.294741E-1,-1.5931835E0,-8.0417804E-2,3.685741E-2,-6.263018E-2,2.8431678E-2,-5.6969594E-2,-2.70432E-2,-5.6213886E-2,-2.3327189E-2,-6.519518E-2,-7.145066E-2,-6.279513E-2,-6.840278E-2,2.5451524E-2,-9.888909E-3,-7.584836E-2,7.1781255E-2,-2.502037E-2,5.0886817E-2,5.7362057E-2,3.8737945E-2,5.389305E-2,5.9010096E-2,2.9642573E-2,-1.1917209E-1,-9.1126256E-2,5.8589913E-2],"split_indices":[2,15,1,15,1,2,1,2,2,2,1,1,15,0,15,1,1,2,2,2,14,2,2,4,0,1,2,16,10,0,0,0,0,0,0,0,0,0,0,0,0,0,0,0,0,0,0,0,0,0,0,0,0,0,0],"split_type":[0,0,0,0,0,0,0,0,0,0,0,0,0,0,0,0,0,0,0,0,0,0,0,0,0,0,0,0,0,0,0,0,0,0,0,0,0,0,0,0,0,0,0,0,0,0,0,0,0,0,0,0,0,0,0],"sum_hessian":[3.134329E5,2.0363695E5,1.0979595E5,1.5943566E5,4.4201285E4,1.0573439E5,4.0615598E3,3.8038535E4,1.21397125E5,1.9823854E3,4.22189E4,1.198696E3,1.04535695E5,9.90491E2,3.0710686E3,2.2171688E4,1.5866848E4,5.1459836E4,6.993729E4,7.3033514E2,1.2520502E3,3.79431E4,4.2757993E3,8.824919E2,3.1620416E2,5.4847492E4,4.9688207E4,3.074626E2,2.7636062E3,2.1907715E3,1.9980916E4,1.4430005E4,1.4368435E3,2.373863E4,2.7721203E4,6.8687164E4,1.2501263E3,2.0497981E2,5.2535535E2,9.8585986E2,2.6619034E2,3.0422611E4,7.520489E3,2.9778997E3,1.2978995E3,2.2336763E2,6.5912427E2,3.4654586E4,2.0192906E4,5.9622607E3,4.3725945E4,2.5480179E2,5.266078E1,3.3508759E0,2.7602554E3],"tree_param":{"num_deleted":"0","num_feature":"19","num_nodes":"55","size_leaf_vector":"1"}},{"base_weights":[3.8853863E-3,-5.529503E-1,1.0275613E0,-1.9173755E-1,-9.3978906E-1,8.819878E-1,1.1292703E0,-8.599744E-1,1.5686718E-1,-6.06151E-2,-7.8096575E-1,1.0854551E0,-1.5619493E-1,1.1326412E0,-6.4438686E-2,-1.0418223E0,-4.8741361E-1,2.6037535E-1,-1.5242939E0,-5.247423E-1,-1.112897E0,-1.895594E0,1.1514494E0,-1.4955845E0,1.1241717E0,1.1082267E0,1.1534733E0,-6.089126E-2,-2.2659851E-2,1.636857E-2,-5.7557505E-2,-6.908873E-2,1.8639378E-2,-7.1046725E-2,-8.155935E-2,-4.7824588E-2,-8.890866E-3,-5.983004E-2,4.3987002E-2,-1.2855256E-1,-1.6694138E-2,-3.703418E-2,5.840501E-2,-7.768684E-2,-3.284769E-2,5.9859235E-2,1.1494688E-2,5.2874874E-2,5.7678092E-2,5.8935452E-2,5.6771155E-2],"categories":[],"categories_nodes":[],"categories_segments":[],"categories_sizes":[],"default_left":[0,0,0,0,0,0,0,0,0,0,0,0,0,0,0,0,0,0,0,0,0,0,0,0,0,0,0,0,0,0,0,0,0,0,0,0,0,0,0,0,0,0,0,0,0,0,0,0,0,0,0],"id":24,"left_children":[1,3,5,7,9,11,13,15,17,-1,19,21,23,25,-1,27,29,31,33,35,37,39,41,43,45,47,49,-1,-1,-1,-1,-1,-1,-1,-1,-1,-1,-1,-1,-1,-1,-1,-1,-1,-1,-1,-1,-1,-1,-1,-1],"loss_changes":[1.7485673E5,2.7761805E4,1.5991562E3,2.3934672E4,4.1513594E3,9.3909375E3,5.200078E2,2.3859219E3,1.1750127E4,0E0,5.154629E3,7.315E3,1.2496258E4,3.1039062E1,0E0,2.4516328E3,6.2496685E3,1.1742125E4,4.095117E1,5.124045E3,4.4052344E3,8.4879004E2,1.1466133E3,1.7265625E2,2.4298145E2,6.6109375E1,1.4269531E1,0E0,0E0,0E0,0E0,0E0,0E0,0E0,0E0,0E0,0E0,0E0,0E0,0E0,0E0,0E0,0E0,0E0,0E0,0E0,0E0,0E0,0E0,0E0,0E0],"parents":[2147483647,0,0,1,1,2,2,3,3,4,4,5,5,6,6,7,7,8,8,10,10,11,11,12,12,13,13,15,15,16,16,17,17,18,18,19,19,20,20,21,21,22,22,23,23,24,24,25,25,26,26],"right_children":[2,4,6,8,10,12,14,16,18,-1,20,22,24,26,-1,28,30,32,34,36,38,40,42,44,46,48,50,-1,-1,-1,-1,-1,-1,-1,-1,-1,-1,-1,-1,-1,-1,-1,-1,-1,-1,-1,-1,-1,-1,-1,-1],"split_conditions":[1.4657288E0,-2.216944E-1,2.254616E0,-1.0594612E0,4E0,3E0,8E0,-1.2319958E0,1.3E1,-6.06151E-2,1E1,1E0,1.3E1,1E0,-6.4438686E-2,1.1E1,6E0,3E0,-5.2056086E-1,8E0,1.3753115E0,2.080992E0,1.5126271E0,6.56E2,2.9344267E-1,2.3602992E-1,-2.5951487E-1,-6.089126E-2,-2.2659851E-2,1.636857E-2,-5.7557505E-2,-6.908873E-2,1.8639378E-2,-7.1046725E-2,-8.155935E-2,-4.7824588E-2,-8.890866E-3,-5.983004E-2,4.3987002E-2,-1.2855256E-1,-1.6694138E-2,-3.703418E-2,5.840501E-2,-7.768684E-2,-3.284769E-2,5.9859235E-2,1.1494688E-2,5.2874874E-2,5.7678092E-2,5.8935452E-2,5.6771155E-2],"split_indices":[2,2,2,2,1,1,1,2,1,0,1,1,1,3,0,1,1,1,2,1,2,2,2,0,14,14,10,0,0,0,0,0,0,0,0,0,0,0,0,0,0,0,0,0,0,0,0,0,0,0,0],"split_type":[0,0,0,0,0,0,0,0,0,0,0,0,0,0,0,0,0,0,0,0,0,0,0,0,0,0,0,0,0,0,0,0,0,0,0,0,0,0,0,0,0,0,0,0,0,0,0,0,0,0,0],"sum_hessian":[3.0675378E5,1.9868056E5,1.0807323E5,1.0274415E5,9.5936414E4,4.4455242E4,6.361799E4,3.5223367E4,6.752078E4,3.5322527E4,6.061389E4,3.717039E4,7.284851E3,6.3529957E4,8.8032974E1,2.366878E4,1.1554589E4,6.3605473E4,3.9153088E3,3.420954E4,2.640435E4,8.04454E2,3.6365938E4,3.5602798E3,3.7245713E3,2.9274896E4,3.425506E4,1.8219852E4,5.4489272E3,5.1873027E3,6.367286E3,4.074386E3,5.9531086E4,1.9978214E3,1.9174874E3,1.52406875E4,1.8968852E4,2.5340291E4,1.0640586E3,5.61118E2,2.4333597E2,3.168461E2,3.604909E4,3.3286147E3,2.3166508E2,3.4431204E3,2.81451E2,1.3827038E4,1.5447859E4,1.4257487E4,1.999757E4],"tree_param":{"num_deleted":"0","num_feature":"19","num_nodes":"51","size_leaf_vector":"1"}},{"base_weights":[3.5697229E-3,-5.23799E-1,1.0214312E0,-7.5250435E-1,2.4823014E-1,8.8384944E-1,1.1143194E0,-1.5254772E-1,-9.393907E-1,-1.2859187E0,3.1393504E-1,1.086211E0,-2.5337827E-1,1.1178169E0,-6.3491195E-2,4.7495085E-1,-1.0519257E0,-9.558203E-1,5.7841384E-1,-6.742313E-2,-1.2481447E0,3.9670044E-1,-4.102161E-1,-1.5918303E0,1.1523494E0,-1.4727894E0,1.045109E0,1.0454953E0,1.1589894E0,3.6706455E-2,-7.142814E-2,-6.1202914E-2,2.7793346E-2,-4.016741E-2,-5.417114E-2,5.1858038E-2,-6.274811E-2,-6.129966E-2,-6.616185E-2,2.164378E-2,-8.574409E-2,-7.271662E-2,7.1812734E-2,-1.253153E-1,-1.8393714E-3,1.61323E-2,5.8416344E-2,-4.3770526E-2,-7.575125E-2,2.9892677E-2,5.8394194E-2,5.695479E-2,4.8336167E-2,5.7215746E-2,5.843533E-2],"categories":[],"categories_nodes":[],"categories_segments":[],"categories_sizes":[],"default_left":[0,0,0,0,0,0,0,0,0,0,0,0,0,0,0,0,0,0,0,0,0,0,0,0,0,0,0,0,0,0,0,0,0,0,0,0,0,0,0,0,0,0,0,0,0,0,0,0,0,0,0,0,0,0,0],"id":25,"left_children":[1,3,5,7,9,11,13,15,17,19,21,23,25,27,-1,29,31,33,35,-1,37,39,41,43,45,47,49,51,53,-1,-1,-1,-1,-1,-1,-1,-1,-1,-1,-1,-1,-1,-1,-1,-1,-1,-1,-1,-1,-1,-1,-1,-1,-1,-1],"loss_changes":[1.6012769E5,3.4695348E4,1.3000859E3,1.6996844E4,4.527179E3,9.444297E3,5.0816406E2,2.032095E4,2.882914E3,2.6748047E0,2.5812163E3,6.1724883E3,9.818626E3,1.7949219E2,0E0,1.0464748E4,4.0960146E3,2.2238828E3,1.0428594E3,0E0,3.1298828E-1,2.9529287E3,8.518935E3,1.1945356E3,4.5033594E2,7.935596E1,1.6421509E2,1.6128906E2,4.1757812E0,0E0,0E0,0E0,0E0,0E0,0E0,0E0,0E0,0E0,0E0,0E0,0E0,0E0,0E0,0E0,0E0,0E0,0E0,0E0,0E0,0E0,0E0,0E0,0E0,0E0,0E0],"parents":[2147483647,0,0,1,1,2,2,3,3,4,4,5,5,6,6,7,7,8,8,9,9,10,10,11,11,12,12,13,13,15,15,16,16,17,17,18,18,20,20,21,21,22,22,23,23,24,24,25,25,26,26,27,27,28,28],"right_children":[2,4,6,8,10,12,14,16,18,20,22,24,26,28,-1,30,32,34,36,-1,38,40,42,44,46,48,50,52,54,-1,-1,-1,-1,-1,-1,-1,-1,-1,-1,-1,-1,-1,-1,-1,-1,-1,-1,-1,-1,-1,-1,-1,-1,-1,-1],"split_conditions":[1.5126271E0,1.3489168E0,2.254616E0,-1.2920247E0,3E0,3E0,8E0,-2.0200527E-1,8.89E2,-1.6434541E-1,1.3E1,1E0,1.3E1,1.3489168E0,-6.3491195E-2,6E0,8E0,-2.216944E-1,-3.27371E-1,-6.742313E-2,2.3602992E-1,1.1528139E0,1.2217509E0,2.080992E0,1.5820434E0,-1.5854627E0,1.3489168E0,-1.2920247E0,1.7861718E-1,3.6706455E-2,-7.142814E-2,-6.1202914E-2,2.7793346E-2,-4.016741E-2,-5.417114E-2,5.1858038E-2,-6.274811E-2,-6.129966E-2,-6.616185E-2,2.164378E-2,-8.574409E-2,-7.271662E-2,7.1812734E-2,-1.253153E-1,-1.8393714E-3,1.61323E-2,5.8416344E-2,-4.3770526E-2,-7.575125E-2,2.9892677E-2,5.8394194E-2,5.695479E-2,4.8336167E-2,5.7215746E-2,5.843533E-2],"split_indices":[2,15,2,15,1,1,1,2,7,2,1,1,1,15,0,1,1,2,2,0,14,2,2,2,2,15,15,15,14,0,0,0,0,0,0,0,0,0,0,0,0,0,0,0,0,0,0,0,0,0,0,0,0,0,0],"split_type":[0,0,0,0,0,0,0,0,0,0,0,0,0,0,0,0,0,0,0,0,0,0,0,0,0,0,0,0,0,0,0,0,0,0,0,0,0,0,0,0,0,0,0,0,0,0,0,0,0,0,0,0,0,0,0],"sum_hessian":[2.9830494E5,1.9649733E5,1.018076E5,1.5159033E5,4.4906992E4,4.103657E4,6.0771035E4,3.6005285E4,1.1558505E5,1.8435371E3,4.3063457E4,3.4837527E4,6.199043E3,6.0682547E4,8.848925E1,2.1208516E4,1.479677E4,1.1434766E5,1.2373937E3,6.811055E2,1.1624315E3,3.8646844E4,4.416611E3,8.390755E2,3.399845E4,3.1967947E3,3.0022483E3,2.2023488E4,3.865906E4,1.8667416E4,2.5410996E3,1.3366022E4,1.4307467E3,5.210031E4,6.2247344E4,9.900883E2,2.4730536E2,9.110156E2,2.5141591E2,3.7996688E4,6.5015576E2,2.8214114E3,1.5951996E3,5.279763E2,3.110992E2,6.4273535E2,3.3355715E4,2.1252783E2,2.9842668E3,6.4789716E2,2.3543513E3,1.0058288E4,1.19652E4,1.5448222E4,2.3210836E4],"tree_param":{"num_deleted":"0","num_feature":"19","num_nodes":"55","size_leaf_vector":"1"}},{"base_weights":[-6.7995503E-3,-5.4342145E-1,1.0014513E0,-2.0780908E-1,-9.1668504E-1,8.622343E-1,1.1011933E0,-9.441292E-1,8.403659E-2,-5.9433993E-2,-7.6073825E-1,1.0556154E0,-7.792042E-2,1.1044568E0,-6.257133E-2,-1.06026E0,-5.6500334E-1,1.7636059E-1,-1.4558166E0,-4.9746057E-1,-1.1125335E0,-1.4825779E0,1.1223449E0,-1.4246675E0,1.128838E0,1.0798914E0,1.1340162E0,-6.0456604E-2,-2.7595177E-2,8.711424E-3,-5.6338646E-2,-6.786321E-2,1.4188982E-2,-6.8638295E-2,-7.705878E-2,-5.7725996E-2,-1.4791151E-2,-5.9421837E-2,3.7017018E-2,-1.1345579E-1,2.4749915E-4,9.804068E-4,5.7767995E-2,-7.41679E-2,-2.9359339E-2,6.029266E-2,2.7116671E-2,5.2180614E-2,5.5654448E-2,5.574847E-2,5.7821102E-2],"categories":[],"categories_nodes":[],"categories_segments":[],"categories_sizes":[],"default_left":[0,0,0,0,0,0,0,0,0,0,0,0,0,0,0,0,0,0,0,0,0,0,0,0,0,0,0,0,0,0,0,0,0,0,0,0,0,0,0,0,0,0,0,0,0,0,0,0,0,0,0],"id":26,"left_children":[1,3,5,7,9,11,13,15,17,-1,19,21,23,25,-1,27,29,31,33,35,37,39,41,43,45,47,49,-1,-1,-1,-1,-1,-1,-1,-1,-1,-1,-1,-1,-1,-1,-1,-1,-1,-1,-1,-1,-1,-1,-1,-1],"loss_changes":[1.5635089E5,2.3625941E4,1.392875E3,2.134085E4,3.7865156E3,7.618324E3,4.5035156E2,1.2405156E3,1.0111236E4,0E0,5.2560664E3,5.8880586E3,1.1620997E4,4.1179688E1,0E0,1.6323613E3,2.7460542E3,1.1054334E4,2.6404297E1,4.300628E3,3.4173906E3,1.042147E3,1.2328672E3,1.6522559E2,1.6969482E2,3.7273438E1,1.0011719E1,0E0,0E0,0E0,0E0,0E0,0E0,0E0,0E0,0E0,0E0,0E0,0E0,0E0,0E0,0E0,0E0,0E0,0E0,0E0,0E0,0E0,0E0,0E0,0E0],"parents":[2147483647,0,0,1,1,2,2,3,3,4,4,5,5,6,6,7,7,8,8,10,10,11,11,12,12,13,13,15,15,16,16,17,17,18,18,19,19,20,20,21,21,22,22,23,23,24,24,25,25,26,26],"right_children":[2,4,6,8,10,12,14,16,18,-1,20,22,24,26,-1,28,30,32,34,36,38,40,42,44,46,48,50,-1,-1,-1,-1,-1,-1,-1,-1,-1,-1,-1,-1,-1,-1,-1,-1,-1,-1,-1,-1,-1,-1,-1,-1],"split_conditions":[1.4657288E0,-2.0200527E-1,2.254616E0,-1.1272409E0,4E0,3E0,8E0,-1.2488335E0,1.3E1,-5.9433993E-2,1E1,1E0,1.3E1,5.74E2,-6.257133E-2,1.1E1,6E0,3E0,-5.2056086E-1,2.6366115E-1,1.3753115E0,2.080992E0,1.5820434E0,6.56E2,1E0,1E0,7.94E2,-6.0456604E-2,-2.7595177E-2,8.711424E-3,-5.6338646E-2,-6.786321E-2,1.4188982E-2,-6.8638295E-2,-7.705878E-2,-5.7725996E-2,-1.4791151E-2,-5.9421837E-2,3.7017018E-2,-1.1345579E-1,2.4749915E-4,9.804068E-4,5.7767995E-2,-7.41679E-2,-2.9359339E-2,6.029266E-2,2.7116671E-2,5.2180614E-2,5.5654448E-2,5.574847E-2,5.7821102E-2],"split_indices":[2,2,2,2,1,1,1,2,1,0,1,1,1,4,0,1,1,1,2,2,2,2,2,0,3,3,7,0,0,0,0,0,0,0,0,0,0,0,0,0,0,0,0,0,0,0,0,0,0,0,0],"split_type":[0,0,0,0,0,0,0,0,0,0,0,0,0,0,0,0,0,0,0,0,0,0,0,0,0,0,0,0,0,0,0,0,0,0,0,0,0,0,0,0,0,0,0,0,0,0,0,0,0,0,0],"sum_hessian":[2.8897503E5,1.885979E5,1.0037711E5,9.930836E4,8.9289555E4,4.190166E4,5.8475453E4,2.8188121E4,7.1120234E4,3.2535717E4,5.6753836E4,3.475314E4,7.1485205E3,5.839498E4,8.04716E1,2.1577023E4,6.611098E3,6.7098164E4,4.0220764E3,3.2462129E4,2.4291707E4,8.897168E2,3.386342E4,3.3782263E3,3.7702944E3,3.1912055E4,2.6482928E4,1.668844E4,4.8885835E3,2.8549556E3,3.7561426E3,4.391333E3,6.270683E4,2.0472588E3,1.9748176E3,7.6215854E3,2.4840545E4,2.3336098E4,9.5560944E2,5.8164417E2,3.0807266E2,9.8441534E2,3.2879008E4,3.1562646E3,2.2196156E2,3.3317402E3,4.3855405E2,1.5263781E4,1.6648273E4,1.4341905E4,1.2141021E4],"tree_param":{"num_deleted":"0","num_feature":"19","num_nodes":"51","size_leaf_vector":"1"}},{"base_weights":[-3.2212618E-3,-5.161341E-1,9.981711E-1,-7.342904E-1,2.1567428E-1,8.9433765E-1,1.1149578E0,-1.1541961E-1,-9.329623E-1,