{"learner":{"attributes":{"scikit_learn":"{\"_estimator_type\": \"classifier\"}"},"feature_names":["merchant","category","amt","gender","street","city","state","zip","lat","long","city_pop","job","merch_lat","merch_long","age","trans_hour","trans_day","trans_month","trans_dayofweek"],"feature_types":["int","int","float","int","int","int","int","int","float","float","float","int","float","float","float","float","float","float","float"],"gradient_booster":{"model":{"gbtree_model_param":{"num_parallel_tree":"1","num_trees":"500"},"iteration_indptr":[0,1,2,3,4,5,6,7,8,9,10,11,12,13,14,15,16,17,18,19,20,21,22,23,24,25,26,27,28,29,30,31,32,33,34,35,36,37,38,39,40,41,42,43,44,45,46,47,48,49,50,51,52,53,54,55,56,57,58,59,60,61,62,63,64,65,66,67,68,69,70,71,72,73,74,75,76,77,78,79,80,81,82,83,84,85,86,87,88,89,90,91,92,93,94,95,96,97,98,99,100,101,102,103,104,105,106,107,108,109,110,111,112,113,114,115,116,117,118,119,120,121,122,123,124,125,126,127,128,129,130,131,132,133,134,135,136,137,138,139,140,141,142,143,144,145,146,147,148,149,150,151,152,153,154,155,156,157,158,159,160,161,162,163,164,165,166,167,168,169,170,171,172,173,174,175,176,177,178,179,180,181,182,183,184,185,186,187,188,189,190,191,192,193,194,195,196,197,198,199,200,201,202,203,204,205,206,207,208,209,210,211,212,213,214,215,216,217,218,219,220,221,222,223,224,225,226,227,228,229,230,231,232,233,234,235,236,237,238,239,240,241,242,243,244,245,246,247,248,249,250,251,252,253,254,255,256,257,258,259,260,261,262,263,264,265,266,267,268,269,270,271,272,273,274,275,276,277,278,279,280,281,282,283,284,285,286,287,288,289,290,291,292,293,294,295,296,297,298,299,300,301,302,303,304,305,306,307,308,309,310,311,312,313,314,315,316,317,318,319,320,321,322,323,324,325,326,327,328,329,330,331,332,333,334,335,336,337,338,339,340,341,342,343,344,345,346,347,348,349,350,351,352,353,354,355,356,357,358,359,360,361,362,363,364,365,366,367,368,369,370,371,372,373,374,375,376,377,378,379,380,381,382,383,384,385,386,387,388,389,390,391,392,393,394,395,396,397,398,399,400,401,402,403,404,405,406,407,408,409,410,411,412,413,414,415,416,417,418,419,420,421,422,423,424,425,426,427,428,429,430,431,432,433,434,435,436,437,438,439,440,441,442,443,444,445,446,447,448,449,450,451,452,453,454,455,456,457,458,459,460,461,462,463,464,465,466,467,468,469,470,471,472,473,474,475,476,477,478,479,480,481,482,483,484,485,486,487,488,489,490,491,492,493,494,495,496,497,498,499,500],"tree_info":[0,0,0,0,0,0,0,0,0,0,0,0,0,0,0,0,0,0,0,0,0,0,0,0,0,0,0,0,0,0,0,0,0,0,0,0,0,0,0,0,0,0,0,0,0,0,0,0,0,0,0,0,0,0,0,0,0,0,0,0,0,0,0,0,0,0,0,0,0,0,0,0,0,0,0,0,0,0,0,0,0,0,0,0,0,0,0,0,0,0,0,0,0,0,0,0,0,0,0,0,0,0,0,0,0,0,0,0,0,0,0,0,0,0,0,0,0,0,0,0,0,0,0,0,0,0,0,0,0,0,0,0,0,0,0,0,0,0,0,0,0,0,0,0,0,0,0,0,0,0,0,0,0,0,0,0,0,0,0,0,0,0,0,0,0,0,0,0,0,0,0,0,0,0,0,0,0,0,0,0,0,0,0,0,0,0,0,0,0,0,0,0,0,0,0,0,0,0,0,0,0,0,0,0,0,0,0,0,0,0,0,0,0,0,0,0,0,0,0,0,0,0,0,0,0,0,0,0,0,0,0,0,0,0,0,0,0,0,0,0,0,0,0,0,0,0,0,0,0,0,0,0,0,0,0,0,0,0,0,0,0,0,0,0,0,0,0,0,0,0,0,0,0,0,0,0,0,0,0,0,0,0,0,0,0,0,0,0,0,0,0,0,0,0,0,0,0,0,0,0,0,0,0,0,0,0,0,0,0,0,0,0,0,0,0,0,0,0,0,0,0,0,0,0,0,0,0,0,0,0,0,0,0,0,0,0,0,0,0,0,0,0,0,0,0,0,0,0,0,0,0,0,0,0,0,0,0,0,0,0,0,0,0,0,0,0,0,0,0,0,0,0,0,0,0,0,0,0,0,0,0,0,0,0,0,0,0,0,0,0,0,0,0,0,0,0,0,0,0,0,0,0,0,0,0,0,0,0,0,0,0,0,0,0,0,0,0,0,0,0,0,0,0,0,0,0,0,0,0,0,0,0,0,0,0,0,0,0,0,0,0,0,0,0,0,0,0,0,0,0,0,0,0,0,0,0,0,0,0,0,0,0,0,0,0,0,0,0,0,0,0,0,0,0,0,0,0,0,0,0,0,0,0,0,0,0,0,0,0,0,0,0,0,0,0,0,0,0,0,0],"trees":[{"base_weights":[3.4255453E-3,-1.1529497E0,1.9403645E0,-5.229266E-1,-1.6785063E0,1.7833387E0,2.0429897E0,-1.7065834E0,9.215246E-2,-1.709289E0,-2.1232444E-1,2.0050442E0,9.341563E-1,2.0470376E0,1.7680078E0,-1.7811946E0,-1.079797E0,9.282256E-1,-4.9075475E-1,-1.8012103E0,-1.4339015E0,-1.4683402E0,1.7269037E0,-3.472407E-1,2.0548906E0,-8.3417547E-1,1.5115163E0,2.0568311E0,2.0145433E0,-1.3434335E0,1.0446423E-1,-9.471797E-2,-6.596758E-2,-1.2151127E-3,-8.516026E-2,-9.582222E-2,7.7099234E-2,-5.977161E-2,2.8043082E-2,-8.325197E-2,-9.511293E-2,-9.390088E-2,-3.9769452E-2,-7.8747235E-2,3.894889E-2,9.1169685E-2,-9.299267E-2,-9.567088E-2,6.57187E-2,7.322021E-2,1.0348695E-1,3.059738E-3,-7.8923486E-2,8.8594064E-2,-2.0329399E-2,1.02514766E-1,1.04001835E-1,9.826259E-2,1.0266812E-1,8.4428616E-2,-9.504234E-2],"categories":[],"categories_nodes":[],"categories_segments":[],"categories_sizes":[],"default_left":[0,0,0,0,0,0,0,0,0,0,0,0,0,0,0,0,0,0,0,0,0,0,0,0,0,0,0,0,0,0,0,0,0,0,0,0,0,0,0,0,0,0,0,0,0,0,0,0,0,0,0,0,0,0,0,0,0,0,0,0,0],"id":0,"left_children":[1,3,5,7,9,11,13,15,17,19,21,23,25,27,29,31,33,35,37,39,41,43,45,47,49,51,53,55,57,59,-1,-1,-1,-1,-1,-1,-1,-1,-1,-1,-1,-1,-1,-1,-1,-1,-1,-1,-1,-1,-1,-1,-1,-1,-1,-1,-1,-1,-1,-1,-1],"loss_changes":[1.0277011E6,9.512966E4,2.7604375E3,9.513184E4,7.0691875E3,1.2763078E4,1.11875E2,2.0876484E3,4.190637E4,3.8810625E3,7.85078E3,6.304672E3,1.4334427E4,2.8375E1,1.5142974E3,2.0842734E3,3.1291533E3,6.1675055E4,3.7545734E4,1.5795E3,1.0887336E4,4.6986035E2,4.4190283E2,2.908083E3,4.5859375E2,2.3033176E3,5.2863145E3,7.65625E0,4.134375E1,2.4341177E2,0E0,0E0,0E0,0E0,0E0,0E0,0E0,0E0,0E0,0E0,0E0,0E0,0E0,0E0,0E0,0E0,0E0,0E0,0E0,0E0,0E0,0E0,0E0,0E0,0E0,0E0,0E0,0E0,0E0,0E0,0E0],"parents":[2147483647,0,0,1,1,2,2,3,3,4,4,5,5,6,6,7,7,8,8,9,9,10,10,11,11,12,12,13,13,14,14,15,15,16,16,17,17,18,18,19,19,20,20,21,21,22,22,23,23,24,24,25,25,26,26,27,27,28,28,29,29],"right_children":[2,4,6,8,10,12,14,16,18,20,22,24,26,28,30,32,34,36,38,40,42,44,46,48,50,52,54,56,58,60,-1,-1,-1,-1,-1,-1,-1,-1,-1,-1,-1,-1,-1,-1,-1,-1,-1,-1,-1,-1,-1,-1,-1,-1,-1,-1,-1,-1,-1,-1,-1],"split_conditions":[1.5185881E0,-2.2139232E-1,2.2702136E0,-1.1409445E0,1.4339216E0,4E0,1.1E1,-1.2004436E0,6E0,8.4375834E-1,1.3E1,1E0,8E0,7E0,1.2E1,1.1E1,6E0,3E0,-4.681945E-1,3.6548555E-1,8E0,4.4E1,6.979804E-1,2.0904214E0,1.5904278E0,6E0,1.9561851E0,7.12E2,1.810172E-1,3.35E2,1.0446423E-1,-9.471797E-2,-6.596758E-2,-1.2151127E-3,-8.516026E-2,-9.582222E-2,7.7099234E-2,-5.977161E-2,2.8043082E-2,-8.325197E-2,-9.511293E-2,-9.390088E-2,-3.9769452E-2,-7.8747235E-2,3.894889E-2,9.1169685E-2,-9.299267E-2,-9.567088E-2,6.57187E-2,7.322021E-2,1.0348695E-1,3.059738E-3,-7.8923486E-2,8.8594064E-2,-2.0329399E-2,1.02514766E-1,1.04001835E-1,9.826259E-2,1.0266812E-1,8.4428616E-2,-9.504234E-2],"split_indices":[2,2,2,2,2,1,1,2,1,2,1,1,1,1,1,1,1,1,2,2,1,6,14,2,2,1,2,5,14,0,0,0,0,0,0,0,0,0,0,0,0,0,0,0,0,0,0,0,0,0,0,0,0,0,0,0,0,0,0,0,0],"split_type":[0,0,0,0,0,0,0,0,0,0,0,0,0,0,0,0,0,0,0,0,0,0,0,0,0,0,0,0,0,0,0,0,0,0,0,0,0,0,0,0,0,0,0,0,0,0,0,0,0,0,0,0,0,0,0,0,0,0,0,0,0],"sum_hessian":[4.588283E5,2.8730453E5,1.7152377E5,1.30666766E5,1.5663778E5,6.7800766E4,1.03723E5,4.4680992E4,8.598577E4,1.5341661E5,3.2211704E3,5.3762914E4,1.4037855E4,1.0221195E5,1.5110438E3,3.9926406E4,4.754585E3,3.532211E4,5.066366E4,1.15018984E5,3.839763E4,1.9551105E3,1.2660598E3,1.115503E3,5.264741E4,3.4551167E3,1.0582738E4,7.849228E4,2.371967E4,1.411247E2,1.3699192E3,3.2066168E4,7.8602383E3,1.7658524E3,2.9887327E3,6.2681533E3,2.9053957E4,3.0335807E4,2.0327852E4,4.900206E4,6.601692E4,2.2645006E4,1.5752624E4,1.866853E3,8.825747E1,1.2333716E3,3.268822E1,5.7416486E2,5.413382E2,1.293833E3,5.135358E4,1.5688005E3,1.8863163E3,9.317984E3,1.2647538E3,6.1312703E4,1.717958E4,1.0472975E4,1.3246695E4,2.16006E1,1.195241E2],"tree_param":{"num_deleted":"0","num_feature":"19","num_nodes":"61","size_leaf_vector":"1"}},{"base_weights":[-2.0882064E-3,-1.1087435E0,1.8380902E0,-1.3640845E0,1.6305037E-1,1.6855255E0,1.9368788E0,-2.8576496E-1,-1.6556596E0,6.599226E-1,-6.071014E-1,1.8994848E0,8.620012E-1,1.8632641E0,1.9760802E0,9.588975E-1,-1.672348E0,-1.4558461E0,-1.7885983E0,-1.0315368E0,1.123119E0,-1.1485306E0,3.8205767E-1,-5.2899104E-1,1.9478909E0,-7.437969E-1,1.415677E0,1.9525808E0,1.7731308E0,1.9771794E0,1.8702892E0,-8.748789E-2,7.047E-2,-8.921623E-2,1.7013488E-2,-9.029923E-2,-5.8259465E-2,-8.978565E-2,-4.6392065E-2,-8.4183365E-2,6.629597E-3,6.151973E-2,-9.455524E-2,-8.5715614E-2,-1.7364351E-2,-8.0165766E-2,3.750078E-2,-9.149886E-2,5.576104E-2,6.74902E-2,9.810182E-2,6.812669E-3,-7.561254E-2,8.354258E-2,-2.1866402E-2,9.7792804E-2,-9.44968E-2,8.945376E-2,5.463288E-2,9.8353036E-2,9.920701E-2,-8.762364E-2,9.8988265E-2],"categories":[],"categories_nodes":[],"categories_segments":[],"categories_sizes":[],"default_left":[0,0,0,0,0,0,0,0,0,0,0,0,0,0,0,0,0,0,0,0,0,0,0,0,0,0,0,0,0,0,0,0,0,0,0,0,0,0,0,0,0,0,0,0,0,0,0,0,0,0,0,0,0,0,0,0,0,0,0,0,0,0,0],"id":1,"left_children":[1,3,5,7,9,11,13,15,17,19,21,23,25,27,29,31,33,35,37,39,41,43,45,47,49,51,53,55,57,59,61,-1,-1,-1,-1,-1,-1,-1,-1,-1,-1,-1,-1,-1,-1,-1,-1,-1,-1,-1,-1,-1,-1,-1,-1,-1,-1,-1,-1,-1,-1,-1,-1],"loss_changes":[9.31186E5,9.272706E4,2.5848125E3,7.476581E4,1.8270488E4,1.1891609E4,2.9709375E2,8.735484E4,4.9695625E3,2.2738777E4,1.0028094E4,6.2992188E3,1.2378935E4,2.8822656E2,4.1875E0,3.2550686E4,5.396547E3,7.6090312E3,6.86625E2,4.736938E3,7.3692715E3,5.4849736E3,4.8402993E3,2.2435137E3,4.4178125E2,2.4146243E3,4.8959395E3,2.3260938E2,1.9382031E2,8.4375E-1,2.881255E2,0E0,0E0,0E0,0E0,0E0,0E0,0E0,0E0,0E0,0E0,0E0,0E0,0E0,0E0,0E0,0E0,0E0,0E0,0E0,0E0,0E0,0E0,0E0,0E0,0E0,0E0,0E0,0E0,0E0,0E0,0E0,0E0],"parents":[2147483647,0,0,1,1,2,2,3,3,4,4,5,5,6,6,7,7,8,8,9,9,10,10,11,11,12,12,13,13,14,14,15,15,16,16,17,17,18,18,19,19,20,20,21,21,22,22,23,23,24,24,25,25,26,26,27,27,28,28,29,29,30,30],"right_children":[2,4,6,8,10,12,14,16,18,20,22,24,26,28,30,32,34,36,38,40,42,44,46,48,50,52,54,56,58,60,62,-1,-1,-1,-1,-1,-1,-1,-1,-1,-1,-1,-1,-1,-1,-1,-1,-1,-1,-1,-1,-1,-1,-1,-1,-1,-1,-1,-1,-1,-1,-1,-1],"split_conditions":[1.5185881E0,1.3489168E0,2.2702136E0,-1.2920247E0,-2.2139232E-1,4E0,1.3489168E0,-2.4096623E-1,-2.2139232E-1,-1.1262712E0,8.4375834E-1,1E0,8E0,-1.2920247E0,1E1,-1.2319958E0,8E0,-1.1262712E0,1.4692941E0,1.810172E-1,1.3E1,1.810172E-1,8E0,2.0904214E0,1.5904278E0,6E0,1.9561851E0,2.1339893E0,9E0,2.3845756E-1,1.2E1,-8.748789E-2,7.047E-2,-8.921623E-2,1.7013488E-2,-9.029923E-2,-5.8259465E-2,-8.978565E-2,-4.6392065E-2,-8.4183365E-2,6.629597E-3,6.151973E-2,-9.455524E-2,-8.5715614E-2,-1.7364351E-2,-8.0165766E-2,3.750078E-2,-9.149886E-2,5.576104E-2,6.74902E-2,9.810182E-2,6.812669E-3,-7.561254E-2,8.354258E-2,-2.1866402E-2,9.7792804E-2,-9.44968E-2,8.945376E-2,5.463288E-2,9.8353036E-2,9.920701E-2,-8.762364E-2,9.8988265E-2],"split_indices":[2,15,2,15,2,1,15,2,2,2,2,1,1,15,1,2,1,2,2,14,1,14,1,2,2,1,2,14,1,14,1,0,0,0,0,0,0,0,0,0,0,0,0,0,0,0,0,0,0,0,0,0,0,0,0,0,0,0,0,0,0,0,0],"split_type":[0,0,0,0,0,0,0,0,0,0,0,0,0,0,0,0,0,0,0,0,0,0,0,0,0,0,0,0,0,0,0,0,0,0,0,0,0,0,0,0,0,0,0,0,0,0,0,0,0,0,0,0,0,0,0,0,0,0,0,0,0,0,0],"sum_hessian":[4.57259E5,2.8553997E5,1.7171902E5,2.3779689E5,4.7743086E4,6.7497336E4,1.0422168E5,5.0614273E4,1.8718261E5,2.902039E4,1.8722695E4,5.357639E4,1.3920944E4,3.623185E4,6.798983E4,2.6672281E4,2.3941992E4,7.478659E4,1.12396016E5,6.238385E3,2.2782006E4,1.2099638E4,6.623057E3,1.0468595E3,5.252953E4,3.5691562E3,1.0351788E4,1.8187984E4,1.8043865E4,6.72731E4,7.167296E2,3.8031108E3,2.286917E4,2.2680236E4,1.2617544E3,3.3919914E4,4.0866684E4,1.1147354E5,9.224801E2,3.9981975E3,2.2401873E3,2.1999635E4,7.823711E2,7.0911963E3,5.008441E3,1.0350312E3,5.588026E3,5.8436584E2,4.6249368E2,1.2159056E3,5.1313625E4,1.6641537E3,1.9050024E3,9.098892E3,1.2528965E3,1.8172986E4,1.4999062E1,1.7629164E4,4.1470157E2,2.7532559E4,3.974054E4,2.05833E1,6.961463E2],"tree_param":{"num_deleted":"0","num_feature":"19","num_nodes":"63","size_leaf_vector":"1"}},{"base_weights":[-7.9064094E-4,-1.0513474E0,1.7519193E0,-1.2966229E0,1.5853237E-1,1.6028731E0,1.8463808E0,-2.6784188E-1,-1.575863E0,6.109829E-1,-5.300733E-1,1.810531E0,7.991313E-1,1.778501E0,1.8835235E0,9.0910894E-1,-1.5702622E0,-1.381046E0,-1.7061888E0,-1.0948278E0,1.0628908E0,-1.0091002E0,3.6515084E-1,-4.9745497E-1,1.8568555E0,-7.9755706E-1,1.3342674E0,1.8614751E0,1.6935098E0,1.884617E0,1.769454E0,-8.073014E-2,6.792791E-2,-8.579518E-2,3.061277E-2,-8.537587E-2,-5.244857E-2,-8.565101E-2,-4.4015463E-2,-8.6590216E-2,2.1915592E-3,5.834138E-2,-9.0538196E-2,-8.091806E-2,-1.2453292E-2,-6.9663726E-2,3.494676E-2,-8.785943E-2,5.2988734E-2,6.495475E-2,9.351184E-2,2.9509523E-4,-7.234758E-2,7.8849316E-2,-1.1970942E-2,9.3228266E-2,-9.028676E-2,8.549375E-2,4.0968973E-2,9.3765095E-2,9.45604E-2,-8.4367804E-2,9.435134E-2],"categories":[],"categories_nodes":[],"categories_segments":[],"categories_sizes":[],"default_left":[0,0,0,0,0,0,0,0,0,0,0,0,0,0,0,0,0,0,0,0,0,0,0,0,0,0,0,0,0,0,0,0,0,0,0,0,0,0,0,0,0,0,0,0,0,0,0,0,0,0,0,0,0,0,0,0,0,0,0,0,0,0,0],"id":2,"left_children":[1,3,5,7,9,11,13,15,17,19,21,23,25,27,29,31,33,35,37,39,41,43,45,47,49,51,53,55,57,59,61,-1,-1,-1,-1,-1,-1,-1,-1,-1,-1,-1,-1,-1,-1,-1,-1,-1,-1,-1,-1,-1,-1,-1,-1,-1,-1,-1,-1,-1,-1,-1,-1],"loss_changes":[8.3752425E5,8.439384E4,2.3969688E3,6.7927375E4,1.4935421E4,1.1036297E4,2.596875E2,7.738154E4,4.7194375E3,2.2301816E4,8.151808E3,5.6197656E3,1.1604393E4,2.5717188E2,5.078125E0,3.0080988E4,7.618074E3,8.0802656E3,6.271875E2,4.3949287E3,6.8331504E3,5.733552E3,3.8903013E3,2.0319365E3,3.8209375E2,1.7789558E3,3.885496E3,2.149375E2,2.596328E2,5.625E-1,2.6999976E2,0E0,0E0,0E0,0E0,0E0,0E0,0E0,0E0,0E0,0E0,0E0,0E0,0E0,0E0,0E0,0E0,0E0,0E0,0E0,0E0,0E0,0E0,0E0,0E0,0E0,0E0,0E0,0E0,0E0,0E0,0E0,0E0],"parents":[2147483647,0,0,1,1,2,2,3,3,4,4,5,5,6,6,7,7,8,8,9,9,10,10,11,11,12,12,13,13,14,14,15,15,16,16,17,17,18,18,19,19,20,20,21,21,22,22,23,23,24,24,25,25,26,26,27,27,28,28,29,29,30,30],"right_children":[2,4,6,8,10,12,14,16,18,20,22,24,26,28,30,32,34,36,38,40,42,44,46,48,50,52,54,56,58,60,62,-1,-1,-1,-1,-1,-1,-1,-1,-1,-1,-1,-1,-1,-1,-1,-1,-1,-1,-1,-1,-1,-1,-1,-1,-1,-1,-1,-1,-1,-1,-1,-1],"split_conditions":[1.5185881E0,1.3489168E0,2.2702136E0,-1.2920247E0,-2.2139232E-1,4E0,1.3489168E0,-2.4096623E-1,-2.2139232E-1,-1.1262712E0,8.4375834E-1,1E0,8E0,-1.2920247E0,1E1,-1.2004436E0,8E0,-1.0594612E0,1.4692941E0,1.810172E-1,1.3E1,1.2357685E-1,8E0,2.0904214E0,1.5904278E0,6E0,1.9561851E0,2.1339893E0,9E0,2.3845756E-1,1.2E1,-8.073014E-2,6.792791E-2,-8.579518E-2,3.061277E-2,-8.537587E-2,-5.244857E-2,-8.565101E-2,-4.4015463E-2,-8.6590216E-2,2.1915592E-3,5.834138E-2,-9.0538196E-2,-8.091806E-2,-1.2453292E-2,-6.9663726E-2,3.494676E-2,-8.785943E-2,5.2988734E-2,6.495475E-2,9.351184E-2,2.9509523E-4,-7.234758E-2,7.8849316E-2,-1.1970942E-2,9.3228266E-2,-9.028676E-2,8.549375E-2,4.0968973E-2,9.3765095E-2,9.45604E-2,-8.4367804E-2,9.435134E-2],"split_indices":[2,15,2,15,2,1,15,2,2,2,2,1,1,15,1,2,1,2,2,14,1,14,1,2,2,1,2,14,1,14,1,0,0,0,0,0,0,0,0,0,0,0,0,0,0,0,0,0,0,0,0,0,0,0,0,0,0,0,0,0,0,0,0],"split_type":[0,0,0,0,0,0,0,0,0,0,0,0,0,0,0,0,0,0,0,0,0,0,0,0,0,0,0,0,0,0,0,0,0,0,0,0,0,0,0,0,0,0,0,0,0,0,0,0,0,0,0,0,0,0,0,0,0,0,0,0,0,0,0],"sum_hessian":[4.5484762E5,2.8438844E5,1.7045919E5,2.3645294E5,4.7935508E4,6.613154E4,1.0432765E5,5.047907E4,1.8597386E5,2.8928232E4,1.9007275E4,5.255259E4,1.357895E4,3.691418E4,6.741347E4,2.651695E4,2.396212E4,7.4547875E4,1.1142599E5,6.058368E3,2.2869865E4,1.2381769E4,6.625507E3,1.0338575E3,5.151873E4,3.4085E3,1.017045E4,1.8668172E4,1.8246008E4,6.675798E4,6.554915E2,4.0081443E3,2.2508805E4,2.2463336E4,1.4987844E3,3.7588992E4,3.6958887E4,1.1051081E5,9.151765E2,3.8847063E3,2.1736619E3,2.2072135E4,7.977296E2,6.8719365E3,5.5098315E3,1.0565054E3,5.5690015E3,5.7145E2,4.6240756E2,1.2093376E3,5.0309395E4,1.5239698E3,1.8845303E3,8.811412E3,1.359038E3,1.8652945E4,1.5226417E1,1.7909752E4,3.3625592E2,2.7780725E4,3.897725E4,2.1122005E1,6.343695E2],"tree_param":{"num_deleted":"0","num_feature":"19","num_nodes":"63","size_leaf_vector":"1"}},{"base_weights":[9.47451E-3,-1.0054986E0,1.6784637E0,-4.4834793E-1,-1.4875396E0,1.536831E0,1.7681829E0,-1.4862822E0,9.208063E-2,-1.5957758E0,-1.1910913E0,1.6552311E0,1.0993078E0,1.757649E0,1.7993348E0,-1.5687953E0,-8.2349735E-1,6.641603E-1,-1.573997E-1,-1.463722E0,-1.6885812E0,-1.529313E0,-8.7356514E-1,1.6917176E0,1.082776E0,-5.294005E-1,1.1768466E0,1.7585787E0,1.3456118E0,1.7882379E0,9.05915E-2,-1.3439144E-2,-7.896496E-2,-4.212505E-3,-6.497811E-2,1.4721624E-2,4.984192E-2,-2.7040323E-2,2.162503E-2,-8.3729446E-2,-4.7710698E-2,-8.5016966E-2,-7.990123E-2,-7.788624E-2,-4.5959E-2,-5.0237235E-2,2.323608E-2,4.349028E-2,8.596633E-2,-8.893273E-2,5.6739718E-2,-4.294236E-2,7.291012E-2,6.989334E-2,3.7123986E-2,8.691022E-2,8.880803E-2,7.319238E-2,-8.051805E-2,8.952194E-2,8.287051E-2],"categories":[],"categories_nodes":[],"categories_segments":[],"categories_sizes":[],"default_left":[0,0,0,0,0,0,0,0,0,0,0,0,0,0,0,0,0,0,0,0,0,0,0,0,0,0,0,0,0,0,0,0,0,0,0,0,0,0,0,0,0,0,0,0,0,0,0,0,0,0,0,0,0,0,0,0,0,0,0,0,0],"id":3,"left_children":[1,3,5,7,9,11,13,15,17,19,21,23,25,27,29,31,33,35,37,39,41,43,45,47,49,51,53,55,57,59,-1,-1,-1,-1,-1,-1,-1,-1,-1,-1,-1,-1,-1,-1,-1,-1,-1,-1,-1,-1,-1,-1,-1,-1,-1,-1,-1,-1,-1,-1,-1],"loss_changes":[7.683348E5,7.574819E4,2.176875E3,7.338741E4,4.8500312E3,3.4443438E3,3.128125E1,2.4485625E3,1.2279392E4,1.3550625E3,4.342504E3,1.0916875E3,1.7902988E3,2.7703125E1,4.296875E-1,5.4353906E2,1.7460232E3,3.2132715E3,1.3550313E4,4.9109844E3,6.653125E1,3.380664E2,3.6633428E3,1.1152969E3,4.6935962E2,4.23404E2,1.297668E3,2.496875E1,6.561655E1,1.0976562E0,0E0,0E0,0E0,0E0,0E0,0E0,0E0,0E0,0E0,0E0,0E0,0E0,0E0,0E0,0E0,0E0,0E0,0E0,0E0,0E0,0E0,0E0,0E0,0E0,0E0,0E0,0E0,0E0,0E0,0E0,0E0],"parents":[2147483647,0,0,1,1,2,2,3,3,4,4,5,5,6,6,7,7,8,8,9,9,10,10,11,11,12,12,13,13,14,14,15,15,16,16,17,17,18,18,19,19,20,20,21,21,22,22,23,23,24,24,25,25,26,26,27,27,28,28,29,29],"right_children":[2,4,6,8,10,12,14,16,18,20,22,24,26,28,30,32,34,36,38,40,42,44,46,48,50,52,54,56,58,60,-1,-1,-1,-1,-1,-1,-1,-1,-1,-1,-1,-1,-1,-1,-1,-1,-1,-1,-1,-1,-1,-1,-1,-1,-1,-1,-1,-1,-1,-1,-1],"split_conditions":[1.5185881E0,-2.0171076E-1,2.2702136E0,-1.1262712E0,8.4375834E-1,2.82E2,7.66E2,-1.1856587E0,2.13E2,3.5822007E-1,2.82E2,1.9561851E0,3.15E2,6.72E2,9E2,8E0,2.11E2,-8.8218105E-1,-4.681945E-1,2.6398444E-1,7.7561545E-1,4.4E1,1.4339216E0,1.5904278E0,-1.5871185E0,8.31E2,1E0,1E0,4.7309965E-1,6.22E2,9.05915E-2,-1.3439144E-2,-7.896496E-2,-4.212505E-3,-6.497811E-2,1.4721624E-2,4.984192E-2,-2.7040323E-2,2.162503E-2,-8.3729446E-2,-4.7710698E-2,-8.5016966E-2,-7.990123E-2,-7.788624E-2,-4.5959E-2,-5.0237235E-2,2.323608E-2,4.349028E-2,8.596633E-2,-8.893273E-2,5.6739718E-2,-4.294236E-2,7.291012E-2,6.989334E-2,3.7123986E-2,8.691022E-2,8.880803E-2,7.319238E-2,-8.051805E-2,8.952194E-2,8.287051E-2],"split_indices":[2,2,2,2,2,0,4,2,0,2,0,2,0,0,4,0,0,2,2,2,2,6,2,2,12,7,3,3,10,0,0,0,0,0,0,0,0,0,0,0,0,0,0,0,0,0,0,0,0,0,0,0,0,0,0,0,0,0,0,0,0],"split_type":[0,0,0,0,0,0,0,0,0,0,0,0,0,0,0,0,0,0,0,0,0,0,0,0,0,0,0,0,0,0,0,0,0,0,0,0,0,0,0,0,0,0,0,0,0,0,0,0,0,0,0,0,0,0,0,0,0,0,0,0,0],"sum_hessian":[4.5356603E5,2.8204472E5,1.7152128E5,1.3083058E5,1.5121416E5,6.65237E4,1.0499758E5,4.479555E4,8.603502E4,1.1076747E5,4.0446688E4,5.235335E4,1.4170351E4,7.850789E4,2.6489695E4,3.9834953E4,4.960597E3,2.6125459E4,5.9909566E4,4.5723582E4,6.5043883E4,1.9583242E4,2.0863447E4,4.921461E4,3.1387427E3,6.436942E2,1.3526657E4,7.832789E4,1.7999837E2,1.41062E4,1.2383495E4,3.194942E2,3.951546E4,1.9436372E3,3.01696E3,1.2374606E4,1.3750854E4,3.630994E4,2.3599629E4,3.2337832E4,1.338575E4,5.755325E4,7.490635E3,1.871041E4,8.72831E2,1.900119E4,1.8622573E3,1.6004982E3,4.7614113E4,5.544825E1,3.0832944E3,5.5265857E2,9.103565E1,8.963512E3,4.563145E3,3.6329035E4,4.1998855E4,1.735609E2,6.4374676E0,1.38603545E4,2.4584602E2],"tree_param":{"num_deleted":"0","num_feature":"19","num_nodes":"61","size_leaf_vector":"1"}},{"base_weights":[-3.6796352E-3,-9.7483283E-1,1.6093432E0,-4.284156E-1,-1.4350854E0,1.4716674E0,1.6981748E0,-1.4128187E0,9.967901E-2,-1.4585664E0,-2.703877E-1,1.6705385E0,6.8594646E-1,1.7015312E0,1.4595287E0,-1.5165868E0,-9.3704915E-1,8.43922E-1,-4.283164E-1,-1.6362588E0,-1.3420362E0,-1.2728271E0,1.5453631E0,-3.465006E-1,1.713948E0,-8.3856386E-1,1.2124268E0,1.7109989E0,1.6706392E0,-1.3780034E0,8.7685905E-2,-8.180574E-2,-5.2007824E-2,-3.4371174E-3,-7.129661E-2,-8.983917E-2,6.9668554E-2,-9.110849E-2,3.405181E-3,-8.1880495E-2,1.2044167E-1,-7.3106885E-2,-4.7972616E-2,-7.076701E-2,4.405808E-2,8.239033E-2,-8.579018E-2,-8.6542E-2,5.6486707E-2,6.3212186E-2,8.6287804E-2,-5.1953695E-3,-7.165602E-2,7.252366E-2,-1.838561E-2,8.516433E-2,8.664581E-2,8.136703E-2,8.549294E-2,7.6277815E-2,-9.6502535E-2],"categories":[],"categories_nodes":[],"categories_segments":[],"categories_sizes":[],"default_left":[0,0,0,0,0,0,0,0,0,0,0,0,0,0,0,0,0,0,0,0,0,0,0,0,0,0,0,0,0,0,0,0,0,0,0,0,0,0,0,0,0,0,0,0,0,0,0,0,0,0,0,0,0,0,0,0,0,0,0,0,0],"id":4,"left_children":[1,3,5,7,9,11,13,15,17,19,21,23,25,27,29,31,33,35,37,39,41,43,45,47,49,51,53,55,57,59,-1,-1,-1,-1,-1,-1,-1,-1,-1,-1,-1,-1,-1,-1,-1,-1,-1,-1,-1,-1,-1,-1,-1,-1,-1,-1,-1,-1,-1,-1,-1],"loss_changes":[6.990927E5,7.005544E4,2.0486562E3,6.6210164E4,4.13475E3,1.027775E4,7.9125E1,2.1939844E3,3.2574059E4,3.0668125E3,5.443091E3,4.596953E3,1.0666736E4,2.65625E1,1.1884133E3,2.0771562E3,3.3810122E3,4.9918008E4,3.3553848E4,3.2475E2,4.1118594E3,5.9264795E2,3.5821655E2,2.263792E3,2.7070312E2,1.4900659E3,3.7160518E3,1.003125E1,3.7335938E1,2.1776956E2,0E0,0E0,0E0,0E0,0E0,0E0,0E0,0E0,0E0,0E0,0E0,0E0,0E0,0E0,0E0,0E0,0E0,0E0,0E0,0E0,0E0,0E0,0E0,0E0,0E0,0E0,0E0,0E0,0E0,0E0,0E0],"parents":[2147483647,0,0,1,1,2,2,3,3,4,4,5,5,6,6,7,7,8,8,9,9,10,10,11,11,12,12,13,13,14,14,15,15,16,16,17,17,18,18,19,19,20,20,21,21,22,22,23,23,24,24,25,25,26,26,27,27,28,28,29,29],"right_children":[2,4,6,8,10,12,14,16,18,20,22,24,26,28,30,32,34,36,38,40,42,44,46,48,50,52,54,56,58,60,-1,-1,-1,-1,-1,-1,-1,-1,-1,-1,-1,-1,-1,-1,-1,-1,-1,-1,-1,-1,-1,-1,-1,-1,-1,-1,-1,-1,-1,-1,-1],"split_conditions":[1.5185881E0,-2.4096623E-1,2.2702136E0,-1.1262712E0,1.4339216E0,4E0,1.1E1,-1.2319958E0,6E0,4E0,1.3E1,1E0,8E0,7E0,1.2E1,1.1E1,6E0,3E0,9E0,5E1,8.4375834E-1,4.28E2,6.979804E-1,2.0904214E0,1.5904278E0,6E0,1.9561851E0,7.66E2,2.3845756E-1,3.35E2,8.7685905E-2,-8.180574E-2,-5.2007824E-2,-3.4371174E-3,-7.129661E-2,-8.983917E-2,6.9668554E-2,-9.110849E-2,3.405181E-3,-8.1880495E-2,1.2044167E-1,-7.3106885E-2,-4.7972616E-2,-7.076701E-2,4.405808E-2,8.239033E-2,-8.579018E-2,-8.6542E-2,5.6486707E-2,6.3212186E-2,8.6287804E-2,-5.1953695E-3,-7.165602E-2,7.252366E-2,-1.838561E-2,8.516433E-2,8.664581E-2,8.136703E-2,8.549294E-2,7.6277815E-2,-9.6502535E-2],"split_indices":[2,2,2,2,2,1,1,2,1,1,1,1,1,1,1,1,1,1,1,6,2,11,14,2,2,1,2,4,14,0,0,0,0,0,0,0,0,0,0,0,0,0,0,0,0,0,0,0,0,0,0,0,0,0,0,0,0,0,0,0,0],"split_type":[0,0,0,0,0,0,0,0,0,0,0,0,0,0,0,0,0,0,0,0,0,0,0,0,0,0,0,0,0,0,0,0,0,0,0,0,0,0,0,0,0,0,0,0,0,0,0,0,0,0,0,0,0,0,0,0,0,0,0,0,0],"sum_hessian":[4.4627706E5,2.7856297E5,1.677141E5,1.2736074E5,1.5120222E5,6.578099E4,1.019331E5,4.446792E4,8.289281E4,1.4821389E5,2.9883325E3,5.2493438E4,1.3287554E4,1.0051336E5,1.4197435E3,3.6504008E4,7.9639175E3,3.4401344E4,4.8491473E4,5.869662E4,8.9517266E4,1.9255656E3,1.062767E3,1.1057848E3,5.1387652E4,3.4107046E3,9.87685E3,7.6892984E4,2.3620375E4,1.3302263E2,1.286721E3,2.9180652E4,7.323353E3,2.8691506E3,5.094767E3,5.924647E3,2.8476695E4,1.2734038E4,3.5757434E4,5.8677617E4,1.9003922E1,6.812767E4,2.1389594E4,1.8063932E3,1.191724E2,1.0308785E3,3.188845E1,5.7056494E2,5.352199E2,1.3175353E3,5.0070117E4,1.5261324E3,1.884572E3,8.583791E3,1.293058E3,5.6936906E4,1.9956082E4,1.1246589E4,1.2373785E4,2.0969187E1,1.1205344E2],"tree_param":{"num_deleted":"0","num_feature":"19","num_nodes":"61","size_leaf_vector":"1"}},{"base_weights":[-3.8780943E-3,-9.3392175E-1,1.5495521E0,-1.1711679E0,2.1730796E-1,1.4403614E0,1.6589012E0,-2.0018457E-1,-1.4379858E0,6.0798067E-1,-4.2928904E-1,1.6407195E0,1.0923967E0,1.6014402E0,1.6734064E0,8.524072E-1,-1.4373001E0,-1.4507065E0,3.2954162E-1,-1.1796251E-1,1.349042E0,-8.807331E-1,3.7637076E-1,1.3063936E0,1.6459721E0,5.9863675E-1,1.4736845E0,1.5049585E0,1.6888722E0,1.6632739E0,8.400973E-2,-7.181308E-2,6.2389787E-2,-7.79223E-2,-5.252728E-2,-6.568182E-2,-7.713964E-2,5.538232E-2,-8.078547E-2,-4.741381E-2,1.7103285E-2,7.235688E-2,2.2096898E-2,-7.6380186E-2,1.7167581E-3,-6.810854E-2,2.550931E-2,-1.2066887E-2,7.454473E-2,8.36781E-2,7.960413E-2,5.547455E-2,-8.0070103E-4,6.757162E-2,7.899011E-2,7.6368116E-2,-1.8189409E-3,8.3759405E-2,8.783456E-2,8.0898464E-2,8.374139E-2],"categories":[],"categories_nodes":[],"categories_segments":[],"categories_sizes":[],"default_left":[0,0,0,0,0,0,0,0,0,0,0,0,0,0,0,0,0,0,0,0,0,0,0,0,0,0,0,0,0,0,0,0,0,0,0,0,0,0,0,0,0,0,0,0,0,0,0,0,0,0,0,0,0,0,0,0,0,0,0,0,0],"id":5,"left_children":[1,3,5,7,9,11,13,15,17,19,21,23,25,27,29,31,33,35,37,39,41,43,45,47,49,51,53,55,57,59,-1,-1,-1,-1,-1,-1,-1,-1,-1,-1,-1,-1,-1,-1,-1,-1,-1,-1,-1,-1,-1,-1,-1,-1,-1,-1,-1,-1,-1,-1,-1],"loss_changes":[6.356636E5,7.516695E4,1.9649375E3,5.9117094E4,1.1879259E4,5.7465625E3,6.5953125E1,6.405327E4,4.025125E3,1.5770393E4,6.4423867E3,8.9734375E1,5.6717344E3,1.3761328E2,1.71875E0,2.4051521E4,1.0578516E3,2.2411875E3,1.9389672E3,5.6569526E3,1.2901641E3,6.7194717E3,1.4806234E3,2.3284766E2,7.390625E1,4.12305E3,2.1842578E2,2.731289E2,5.140625E0,1.1140625E1,0E0,0E0,0E0,0E0,0E0,0E0,0E0,0E0,0E0,0E0,0E0,0E0,0E0,0E0,0E0,0E0,0E0,0E0,0E0,0E0,0E0,0E0,0E0,0E0,0E0,0E0,0E0,0E0,0E0,0E0,0E0],"parents":[2147483647,0,0,1,1,2,2,3,3,4,4,5,5,6,6,7,7,8,8,9,9,10,10,11,11,12,12,13,13,14,14,15,15,16,16,17,17,18,18,19,19,20,20,21,21,22,22,23,23,24,24,25,25,26,26,27,27,28,28,29,29],"right_children":[2,4,6,8,10,12,14,16,18,20,22,24,26,28,30,32,34,36,38,40,42,44,46,48,50,52,54,56,58,60,-1,-1,-1,-1,-1,-1,-1,-1,-1,-1,-1,-1,-1,-1,-1,-1,-1,-1,-1,-1,-1,-1,-1,-1,-1,-1,-1,-1,-1,-1,-1],"split_conditions":[1.5185881E0,1.3489168E0,1.3489168E0,-1.2920247E0,-1.6406485E-1,-1.2920247E0,2.2702136E0,-2.0171076E-1,9E2,-5.462932E-1,8.4375834E-1,1.5904278E0,2.2702136E0,1.810172E-1,2.3845756E-1,-1.1856587E0,9.127999E-1,-2.2139232E-1,-3.2702488E-1,-1.1856587E0,-2.616825E-1,2.3845756E-1,-1.1975513E0,3.46E2,2.3845756E-1,-1.1827295E-1,2.958979E-1,1.5585941E0,1.9561851E0,1E0,8.400973E-2,-7.181308E-2,6.2389787E-2,-7.79223E-2,-5.252728E-2,-6.568182E-2,-7.713964E-2,5.538232E-2,-8.078547E-2,-4.741381E-2,1.7103285E-2,7.235688E-2,2.2096898E-2,-7.6380186E-2,1.7167581E-3,-6.810854E-2,2.550931E-2,-1.2066887E-2,7.454473E-2,8.36781E-2,7.960413E-2,5.547455E-2,-8.0070103E-4,6.757162E-2,7.899011E-2,7.6368116E-2,-1.8189409E-3,8.3759405E-2,8.783456E-2,8.0898464E-2,8.374139E-2],"split_indices":[2,15,15,15,2,15,2,2,4,2,2,2,2,14,14,2,2,2,2,2,2,14,14,4,14,15,14,10,2,3,0,0,0,0,0,0,0,0,0,0,0,0,0,0,0,0,0,0,0,0,0,0,0,0,0,0,0,0,0,0,0],"split_type":[0,0,0,0,0,0,0,0,0,0,0,0,0,0,0,0,0,0,0,0,0,0,0,0,0,0,0,0,0,0,0,0,0,0,0,0,0,0,0,0,0,0,0,0,0,0,0,0,0,0,0,0,0,0,0,0,0,0,0,0,0],"sum_hessian":[4.3997734E5,2.7520916E5,1.647682E5,2.2818469E5,4.7024465E4,8.245088E4,8.231732E4,4.9187406E4,1.7899728E5,2.9313414E4,1.771105E4,5.2320812E4,3.0130068E4,1.6613867E4,6.5703445E4,2.6575838E4,2.261157E4,1.7771844E5,1.2788402E3,1.4808178E4,1.4505236E4,1.1350698E4,6.360352E3,8.131521E2,5.150766E4,1.3129805E4,1.7000264E4,7.906845E3,8.707022E3,2.6457559E4,3.924589E4,3.9144985E3,2.266134E4,1.7215885E4,5.395684E3,7.142207E4,1.0629637E5,9.1376337E2,3.650768E2,5.2789814E3,9.529196E3,1.3089162E4,1.4160746E3,6.649461E3,4.7012373E3,4.5391193E2,5.9064404E3,8.657648E1,7.265756E2,3.4046715E4,1.7460947E4,7.1698926E3,5.959912E3,7.905967E3,9.094296E3,7.793572E3,1.13273224E2,7.266519E3,1.4405037E3,5.4048604E3,2.1052697E4],"tree_param":{"num_deleted":"0","num_feature":"19","num_nodes":"61","size_leaf_vector":"1"}},{"base_weights":[-3.6118513E-3,-8.9347494E-1,1.494943E0,-1.1198525E0,2.0173255E-1,1.3859159E0,1.6028796E0,-1.7465672E-1,-1.3819988E0,-1.6584417E0,3.124131E-1,1.5837554E0,1.0485907E0,1.5410161E0,1.6185977E0,8.383914E-1,-1.3737934E0,-1.3956296E0,4.2304733E-1,-1.7845547E0,-7.982332E-2,-8.204403E-1,4.7029316E-1,1.1295984E0,1.5896499E0,6.043514E-1,1.415011E0,1.6159459E0,1.4148049E0,8.098535E-2,1.5252508E0,-6.9922455E-2,6.0302872E-2,-7.501599E-2,3.1068727E-2,-6.23719E-2,-7.482803E-2,5.6610014E-2,-6.795175E-2,-7.990898E-2,-9.389833E-2,-7.136879E-2,5.928741E-3,5.047475E-2,-1.0507162E-2,6.21386E-2,-9.707966E-2,8.0471404E-2,7.622363E-2,6.392403E-2,-1.8656304E-2,7.159146E-2,3.4594562E-2,8.154425E-2,7.91378E-2,1.3087853E-2,7.644251E-2,-8.4018886E-2,8.115875E-2],"categories":[],"categories_nodes":[],"categories_segments":[],"categories_sizes":[],"default_left":[0,0,0,0,0,0,0,0,0,0,0,0,0,0,0,0,0,0,0,0,0,0,0,0,0,0,0,0,0,0,0,0,0,0,0,0,0,0,0,0,0,0,0,0,0,0,0,0,0,0,0,0,0,0,0,0,0,0,0],"id":6,"left_children":[1,3,5,7,9,11,13,15,17,19,21,23,25,27,29,31,33,35,37,39,-1,41,43,45,47,49,51,53,55,-1,57,-1,-1,-1,-1,-1,-1,-1,-1,-1,-1,-1,-1,-1,-1,-1,-1,-1,-1,-1,-1,-1,-1,-1,-1,-1,-1,-1,-1],"loss_changes":[5.781184E5,6.7439516E4,1.8985938E3,5.585325E4,9.593515E3,5.361453E3,7.64375E1,5.9458707E4,4.3425625E3,1.7604004E1,7.8660903E3,1.3379688E2,4.8355293E3,1.5341797E2,4.21875E0,2.1821658E4,5.6592266E3,2.6178438E3,1.6740247E3,1.1862061E1,0E0,3.066168E3,1.4162058E4,2.2918884E2,6.2E1,8.851051E3,1.9700977E2,2.5351562E0,8.071797E2,0E0,2.466012E2,0E0,0E0,0E0,0E0,0E0,0E0,0E0,0E0,0E0,0E0,0E0,0E0,0E0,0E0,0E0,0E0,0E0,0E0,0E0,0E0,0E0,0E0,0E0,0E0,0E0,0E0,0E0,0E0],"parents":[2147483647,0,0,1,1,2,2,3,3,4,4,5,5,6,6,7,7,8,8,9,9,10,10,11,11,12,12,13,13,14,14,15,15,16,16,17,17,18,18,19,19,21,21,22,22,23,23,24,24,25,25,26,26,27,27,28,28,30,30],"right_children":[2,4,6,8,10,12,14,16,18,20,22,24,26,28,30,32,34,36,38,40,-1,42,44,46,48,50,52,54,56,-1,58,-1,-1,-1,-1,-1,-1,-1,-1,-1,-1,-1,-1,-1,-1,-1,-1,-1,-1,-1,-1,-1,-1,-1,-1,-1,-1,-1,-1],"split_conditions":[1.5185881E0,1.3489168E0,1.3489168E0,-1.2920247E0,3E0,-1.2920247E0,2.2702136E0,-2.4096623E-1,9E2,-2.0171076E-1,-1.1409445E0,1.5904278E0,2.2702136E0,4E0,1E1,-1.2004436E0,8E0,-2.2139232E-1,-3.2702488E-1,-1.1856587E0,-7.982332E-2,1.1E1,-2.4096623E-1,1.1434166E0,4E0,4E0,9E0,2E0,8E0,8.098535E-2,1.2E1,-6.9922455E-2,6.0302872E-2,-7.501599E-2,3.1068727E-2,-6.23719E-2,-7.482803E-2,5.6610014E-2,-6.795175E-2,-7.990898E-2,-9.389833E-2,-7.136879E-2,5.928741E-3,5.047475E-2,-1.0507162E-2,6.21386E-2,-9.707966E-2,8.0471404E-2,7.622363E-2,6.392403E-2,-1.8656304E-2,7.159146E-2,3.4594562E-2,8.154425E-2,7.91378E-2,1.3087853E-2,7.644251E-2,-8.4018886E-2,8.115875E-2],"split_indices":[2,15,15,15,1,15,2,2,4,2,2,2,2,1,1,2,1,2,2,2,0,1,2,16,1,1,1,1,1,0,1,0,0,0,0,0,0,0,0,0,0,0,0,0,0,0,0,0,0,0,0,0,0,0,0,0,0,0,0],"split_type":[0,0,0,0,0,0,0,0,0,0,0,0,0,0,0,0,0,0,0,0,0,0,0,0,0,0,0,0,0,0,0,0,0,0,0,0,0,0,0,0,0,0,0,0,0,0,0,0,0,0,0,0,0,0,0,0,0,0,0],"sum_hessian":[4.3352975E5,2.7200797E5,1.6152178E5,2.2541503E5,4.6592934E4,8.036179E4,8.1159984E4,4.8944E4,1.7647103E5,2.6158108E3,4.397712E4,5.0651332E4,2.9710459E4,1.6463117E4,6.4696863E4,2.6530742E4,2.2413258E4,1.7514862E5,1.3224113E3,8.5275366E2,1.763057E3,5.3786846E3,3.8598438E4,6.51447E2,4.9999887E4,1.3430408E4,1.6280051E4,1.0322806E4,6.14031E3,6.392097E4,7.758945E2,3.744825E3,2.2785918E4,2.1076883E4,1.3363738E3,7.096613E4,1.0418249E5,9.462356E2,3.7617563E2,2.9075327E2,5.620004E2,3.2667134E3,2.1119712E3,2.1533805E4,1.706463E4,6.288685E2,2.257848E1,3.8341453E4,1.1658434E4,7.948394E3,5.4820137E3,1.5909062E4,3.709888E2,7.085461E3,3.2373452E3,5.5295807E2,5.587352E3,2.2520092E1,7.533744E2],"tree_param":{"num_deleted":"0","num_feature":"19","num_nodes":"59","size_leaf_vector":"1"}},{"base_weights":[1.8017046E-3,-8.645424E-1,1.4474382E0,-1.0964532E0,2.1931E-1,1.3144592E0,1.5327957E0,-1.7721303E-1,-1.352267E0,5.7347924E-1,-3.3773428E-1,1.5067027E0,6.000895E-1,1.4610134E0,1.5700847E0,7.956759E-1,-1.3429285E0,-1.3654053E0,3.7352544E-1,-9.971184E-2,1.3133334E0,-8.38854E-1,4.994357E-1,-6.3627404E-1,1.552061E0,-7.8235275E-1,1.0902331E0,1.5479813E0,1.3734316E0,1.5711129E0,1.4799396E0,-7.603661E-2,5.6791186E-2,-7.310151E-2,2.6913052E-2,-6.0963243E-2,-7.326414E-2,5.192262E-2,-6.5854296E-2,-3.181727E-2,3.1613972E-2,7.013338E-2,-9.304914E-2,-6.91237E-2,-2.3034303E-3,-6.812175E-2,4.033229E-2,-8.7872885E-2,4.0044874E-2,5.2887715E-2,7.823721E-2,4.249918E-4,-7.408924E-2,6.571176E-2,-1.9792981E-2,7.7556424E-2,-1.01554506E-1,6.2044006E-2,7.397776E-2,7.806613E-2,7.887127E-2,-8.0741525E-2,7.871949E-2],"categories":[],"categories_nodes":[],"categories_segments":[],"categories_sizes":[],"default_left":[0,0,0,0,0,0,0,0,0,0,0,0,0,0,0,0,0,0,0,0,0,0,0,0,0,0,0,0,0,0,0,0,0,0,0,0,0,0,0,0,0,0,0,0,0,0,0,0,0,0,0,0,0,0,0,0,0,0,0,0,0,0,0],"id":7,"left_children":[1,3,5,7,9,11,13,15,17,19,21,23,25,27,29,31,33,35,37,39,41,43,45,47,49,51,53,55,57,59,61,-1,-1,-1,-1,-1,-1,-1,-1,-1,-1,-1,-1,-1,-1,-1,-1,-1,-1,-1,-1,-1,-1,-1,-1,-1,-1,-1,-1,-1,-1,-1,-1],"loss_changes":[5.362458E5,6.729484E4,1.819125E3,5.1860062E4,9.310001E3,8.61418E3,2.5925E2,5.4453156E4,3.9123438E3,1.4368246E4,7.6952817E3,4.8055625E3,9.015291E3,2.5242188E2,3.65625E0,2.0622936E4,4.894629E3,2.4974062E3,1.4675514E3,5.933967E3,3.8999434E3,4.945027E3,3.9299155E3,1.6534031E3,3.018125E2,1.926488E3,3.270085E3,1.919414E2,2.3251953E2,1.453125E0,2.1951294E2,0E0,0E0,0E0,0E0,0E0,0E0,0E0,0E0,0E0,0E0,0E0,0E0,0E0,0E0,0E0,0E0,0E0,0E0,0E0,0E0,0E0,0E0,0E0,0E0,0E0,0E0,0E0,0E0,0E0,0E0,0E0,0E0],"parents":[2147483647,0,0,1,1,2,2,3,3,4,4,5,5,6,6,7,7,8,8,9,9,10,10,11,11,12,12,13,13,14,14,15,15,16,16,17,17,18,18,19,19,20,20,21,21,22,22,23,23,24,24,25,25,26,26,27,27,28,28,29,29,30,30],"right_children":[2,4,6,8,10,12,14,16,18,20,22,24,26,28,30,32,34,36,38,40,42,44,46,48,50,52,54,56,58,60,62,-1,-1,-1,-1,-1,-1,-1,-1,-1,-1,-1,-1,-1,-1,-1,-1,-1,-1,-1,-1,-1,-1,-1,-1,-1,-1,-1,-1,-1,-1,-1,-1],"split_conditions":[1.5185881E0,1.3489168E0,2.2702136E0,-1.2920247E0,-2.0171076E-1,4E0,1.3489168E0,-2.4096623E-1,9E2,-5.196733E-1,8.4375834E-1,1E0,8E0,-1.2920247E0,1E1,-1.2319958E0,8E0,-2.2139232E-1,-3.2702488E-1,1.1E1,1.3E1,2.3845756E-1,8E0,2.0904214E0,1.5904278E0,6E0,1.9561851E0,2.1339893E0,2.3845756E-1,1.810172E-1,1.2E1,-7.603661E-2,5.6791186E-2,-7.310151E-2,2.6913052E-2,-6.0963243E-2,-7.326414E-2,5.192262E-2,-6.5854296E-2,-3.181727E-2,3.1613972E-2,7.013338E-2,-9.304914E-2,-6.91237E-2,-2.3034303E-3,-6.812175E-2,4.033229E-2,-8.7872885E-2,4.0044874E-2,5.2887715E-2,7.823721E-2,4.249918E-4,-7.408924E-2,6.571176E-2,-1.9792981E-2,7.7556424E-2,-1.01554506E-1,6.2044006E-2,7.397776E-2,7.806613E-2,7.887127E-2,-8.0741525E-2,7.871949E-2],"split_indices":[2,15,2,15,2,1,15,2,4,2,2,1,1,15,1,2,1,2,2,1,1,14,1,2,2,1,2,14,14,14,1,0,0,0,0,0,0,0,0,0,0,0,0,0,0,0,0,0,0,0,0,0,0,0,0,0,0,0,0,0,0,0,0],"split_type":[0,0,0,0,0,0,0,0,0,0,0,0,0,0,0,0,0,0,0,0,0,0,0,0,0,0,0,0,0,0,0,0,0,0,0,0,0,0,0,0,0,0,0,0,0,0,0,0,0,0,0,0,0,0,0,0,0,0,0,0,0,0,0],"sum_hessian":[4.2816616E5,2.6772422E5,1.6044194E5,2.2053628E5,4.7187926E4,6.273033E4,9.771161E4,4.801199E4,1.725243E5,2.8846969E4,1.8340957E4,4.9427754E4,1.3302572E4,3.3419105E4,6.42925E4,2.617066E4,2.1841328E4,1.7122102E5,1.3032795E3,1.5104393E4,1.3742576E4,1.1473224E4,6.867734E3,1.0242352E3,4.840352E4,3.4817517E3,9.820821E3,1.6759967E4,1.665914E4,6.3551215E4,7.4128406E2,3.3504712E3,2.282019E4,2.0541057E4,1.3002714E3,6.951699E4,1.0170402E5,9.356636E2,3.67616E2,8.715247E3,6.3891445E3,1.3366951E4,3.7562558E2,6.805731E3,4.667493E3,9.722009E2,5.895533E3,5.752452E2,4.4899008E2,1.2130117E3,4.7190508E4,1.6345464E3,1.8472053E3,8.534511E3,1.2863102E3,1.6745809E4,1.41581745E1,7.4128994E3,9.246241E3,2.5010104E4,3.8541113E4,2.147673E1,7.198074E2],"tree_param":{"num_deleted":"0","num_feature":"19","num_nodes":"63","size_leaf_vector":"1"}},{"base_weights":[-1.0165491E-3,-8.455706E-1,1.4057688E0,-3.7753353E-1,-1.2656511E0,1.2770377E0,1.4892176E0,-1.306499E0,6.5863356E-2,-1.3776152E0,-9.483393E-1,1.4643117E0,5.689067E-1,1.4926205E0,1.2777945E0,-1.3833429E0,-8.949695E-1,7.381282E-1,-4.0315714E-1,-1.2615267E0,-1.4598848E0,-1.4383559E0,-3.2199633E-1,-3.74157E-1,1.5076814E0,-7.592189E-1,1.0451168E0,1.5023286E0,1.4592649E0,-9.924622E-2,7.7585645E-2,-7.4245214E-2,-4.8884016E-2,-3.4204472E-3,-6.804218E-2,-8.339765E-2,6.244985E-2,-8.404437E-2,2.2628878E-3,-7.2036855E-2,-3.522509E-2,-7.383661E-2,-6.423244E-2,-7.2294004E-2,2.3070106E-2,4.9319085E-2,-5.027433E-2,-8.4673285E-2,4.910222E-2,5.0742406E-2,7.601702E-2,-7.042984E-4,-7.118499E-2,6.3248746E-2,-1.8599596E-2,7.474408E-2,7.634803E-2,7.081865E-2,7.497928E-2],"categories":[],"categories_nodes":[],"categories_segments":[],"categories_sizes":[],"default_left":[0,0,0,0,0,0,0,0,0,0,0,0,0,0,0,0,0,0,0,0,0,0,0,0,0,0,0,0,0,0,0,0,0,0,0,0,0,0,0,0,0,0,0,0,0,0,0,0,0,0,0,0,0,0,0,0,0,0,0],"id":8,"left_children":[1,3,5,7,9,11,13,15,17,19,21,23,25,27,29,31,33,35,37,39,41,43,45,47,49,51,53,55,57,-1,-1,-1,-1,-1,-1,-1,-1,-1,-1,-1,-1,-1,-1,-1,-1,-1,-1,-1,-1,-1,-1,-1,-1,-1,-1,-1,-1,-1,-1],"loss_changes":[4.9883138E5,5.15815E4,1.6900312E3,5.111464E4,4.910703E3,8.21482E3,6.6859375E1,1.2666641E3,2.6486535E4,9.741719E2,1.1068262E4,3.907E3,8.196773E3,2.825E1,1.3619421E3,1.3904141E3,2.430276E3,4.243567E4,2.8350467E4,4.2308984E3,1.7464844E2,2.8988672E2,1.4158351E4,2.0233828E3,2.970625E2,1.693671E3,2.9724795E3,1.10625E1,3.459375E1,0E0,0E0,0E0,0E0,0E0,0E0,0E0,0E0,0E0,0E0,0E0,0E0,0E0,0E0,0E0,0E0,0E0,0E0,0E0,0E0,0E0,0E0,0E0,0E0,0E0,0E0,0E0,0E0,0E0,0E0],"parents":[2147483647,0,0,1,1,2,2,3,3,4,4,5,5,6,6,7,7,8,8,9,9,10,10,11,11,12,12,13,13,14,14,15,15,16,16,17,17,18,18,19,19,20,20,21,21,22,22,23,23,24,24,25,25,26,26,27,27,28,28],"right_children":[2,4,6,8,10,12,14,16,18,20,22,24,26,28,30,32,34,36,38,40,42,44,46,48,50,52,54,56,58,-1,-1,-1,-1,-1,-1,-1,-1,-1,-1,-1,-1,-1,-1,-1,-1,-1,-1,-1,-1,-1,-1,-1,-1,-1,-1,-1,-1,-1,-1],"split_conditions":[1.5185881E0,-2.0171076E-1,2.2702136E0,-1.1409445E0,8.625938E-1,4E0,1.1E1,-1.2319958E0,6E0,3.6548555E-1,8E0,1E0,8E0,7E0,1.2E1,1.1E1,6E0,3E0,9E0,2.8941983E-1,8.0867404E-1,8.89E2,9E0,2.0904214E0,1.5904278E0,6E0,1.9561851E0,7.9E2,2.3845756E-1,-9.924622E-2,7.7585645E-2,-7.4245214E-2,-4.8884016E-2,-3.4204472E-3,-6.804218E-2,-8.339765E-2,6.244985E-2,-8.404437E-2,2.2628878E-3,-7.2036855E-2,-3.522509E-2,-7.383661E-2,-6.423244E-2,-7.2294004E-2,2.3070106E-2,4.9319085E-2,-5.027433E-2,-8.4673285E-2,4.910222E-2,5.0742406E-2,7.601702E-2,-7.042984E-4,-7.118499E-2,6.3248746E-2,-1.8599596E-2,7.474408E-2,7.634803E-2,7.081865E-2,7.497928E-2],"split_indices":[2,2,2,2,2,1,1,2,1,2,1,1,1,1,1,1,1,1,1,2,2,7,1,2,2,1,2,4,14,0,0,0,0,0,0,0,0,0,0,0,0,0,0,0,0,0,0,0,0,0,0,0,0,0,0,0,0,0,0],"split_type":[0,0,0,0,0,0,0,0,0,0,0,0,0,0,0,0,0,0,0,0,0,0,0,0,0,0,0,0,0,0,0,0,0,0,0,0,0,0,0,0,0,0,0,0,0,0,0,0,0,0,0,0,0,0,0,0,0,0,0],"sum_hessian":[4.1985216E5,2.6235156E5,1.575006E5,1.2409345E5,1.3825812E5,6.1950312E4,9.555028E4,4.0092758E4,8.4000695E4,1.0219506E5,3.6063055E4,4.899256E4,1.2957751E4,9.403082E4,1.519459E3,3.378231E4,6.3104478E3,3.4520535E4,4.948016E4,4.2392465E4,5.98026E4,2.0232752E4,1.5830302E4,1.1289269E3,4.7863633E4,3.419723E3,9.538027E3,7.279864E4,2.1232182E4,1.1720078E2,1.4022582E3,2.7015947E4,6.766361E3,2.2750923E3,4.0353555E3,6.0454614E3,2.8475074E4,1.2853154E4,3.6627008E4,3.2072316E4,1.0320146E4,5.455062E4,5.2519795E3,2.0153174E4,7.957882E1,5.4318623E3,1.0398438E4,5.721208E2,5.568061E2,1.200682E3,4.6662953E4,1.6125121E3,1.8072108E3,8.257084E3,1.2809432E3,5.594604E4,1.6852604E4,1.0305565E4,1.0926615E4],"tree_param":{"num_deleted":"0","num_feature":"19","num_nodes":"59","size_leaf_vector":"1"}},{"base_weights":[1.7798885E-3,-8.1394136E-1,1.3535774E0,-1.0379626E0,2.1765403E-1,7.014772E-1,1.3801905E0,-1.7401019E-1,-1.2788335E0,5.6223494E-1,-3.8483518E-1,5.2542053E-2,1.432906E0,1.2883911E0,1.4738984E0,7.235033E-1,-1.2811886E0,-1.2935524E0,4.6990696E-1,-7.460966E-1,8.705073E-1,-7.699566E-1,3.1929755E-1,-5.5877584E-1,5.987425E-1,-8.698453E-2,1.4401278E0,1.4572929E0,9.957686E-1,1.4116085E0,1.487231E0,-6.995558E-2,5.1612426E-2,-6.939172E-2,-2.0439832E-2,-5.76409E-2,-6.940704E-2,5.362487E-2,-7.352685E-2,-6.870212E-2,1.5942873E-2,1.8513452E-2,6.113124E-2,-6.778975E-2,5.5302344E-3,-7.922979E-2,2.253328E-2,-4.570938E-2,1.6985191E-2,-1.2387901E-2,4.3075264E-2,5.5710595E-2,7.4630894E-2,7.423302E-2,7.007872E-2,2.8424693E-2,6.456664E-2,6.320741E-2,7.546692E-2,7.3849246E-2,7.470068E-2],"categories":[],"categories_nodes":[],"categories_segments":[],"categories_sizes":[],"default_left":[0,0,0,0,0,0,0,0,0,0,0,0,0,0,0,0,0,0,0,0,0,0,0,0,0,0,0,0,0,0,0,0,0,0,0,0,0,0,0,0,0,0,0,0,0,0,0,0,0,0,0,0,0,0,0,0,0,0,0,0,0],"id":9,"left_children":[1,3,5,7,9,11,13,15,17,19,21,23,25,27,29,31,33,35,37,39,41,43,45,47,49,-1,51,53,55,57,59,-1,-1,-1,-1,-1,-1,-1,-1,-1,-1,-1,-1,-1,-1,-1,-1,-1,-1,-1,-1,-1,-1,-1,-1,-1,-1,-1,-1,-1,-1],"loss_changes":[4.5484525E5,5.945097E4,2.693E3,4.3982906E4,9.52904E3,2.890052E3,1.281125E3,4.579118E4,4.2547188E3,1.1777373E4,4.528966E3,1.0779923E3,6.809082E1,3.722625E3,5.9203125E1,1.6680318E4,1.9188555E3,2.1801875E3,1.6154545E3,3.7243376E3,4.1620957E3,5.5694136E3,1.477699E3,4.867998E2,3.7945416E2,0E0,4.720459E1,7.075781E1,3.4820293E3,1.8588281E2,2.015625E0,0E0,0E0,0E0,0E0,0E0,0E0,0E0,0E0,0E0,0E0,0E0,0E0,0E0,0E0,0E0,0E0,0E0,0E0,0E0,0E0,0E0,0E0,0E0,0E0,0E0,0E0,0E0,0E0,0E0,0E0],"parents":[2147483647,0,0,1,1,2,2,3,3,4,4,5,5,6,6,7,7,8,8,9,9,10,10,11,11,12,12,13,13,14,14,15,15,16,16,17,17,18,18,19,19,20,20,21,21,22,22,23,23,24,24,26,26,27,27,28,28,29,29,30,30],"right_children":[2,4,6,8,10,12,14,16,18,20,22,24,26,28,30,32,34,36,38,40,42,44,46,48,50,-1,52,54,56,58,60,-1,-1,-1,-1,-1,-1,-1,-1,-1,-1,-1,-1,-1,-1,-1,-1,-1,-1,-1,-1,-1,-1,-1,-1,-1,-1,-1,-1,-1,-1],"split_conditions":[1.4692941E0,1.3489168E0,1.5904278E0,-1.2920247E0,-1.6406485E-1,1.3489168E0,1.3489168E0,-2.0171076E-1,9E2,-1.1409445E0,8.4375834E-1,2.39E2,-1.9077656E0,-1.2920247E0,2.2702136E0,-1.2319958E0,3.47E2,-2.616825E-1,-3.2702488E-1,1.810172E-1,-5.196733E-1,3.5333827E-1,-1.1975513E0,5.08E2,1.7E1,-8.698453E-2,3.64E2,2.3845756E-1,2.2702136E0,1.810172E-1,1.810172E-1,-6.995558E-2,5.1612426E-2,-6.939172E-2,-2.0439832E-2,-5.76409E-2,-6.940704E-2,5.362487E-2,-7.352685E-2,-6.870212E-2,1.5942873E-2,1.8513452E-2,6.113124E-2,-6.778975E-2,5.5302344E-3,-7.922979E-2,2.253328E-2,-4.570938E-2,1.6985191E-2,-1.2387901E-2,4.3075264E-2,5.5710595E-2,7.4630894E-2,7.423302E-2,7.007872E-2,2.8424693E-2,6.456664E-2,6.320741E-2,7.546692E-2,7.3849246E-2,7.470068E-2],"split_indices":[2,15,2,15,2,15,15,2,4,2,2,11,12,15,2,2,0,2,2,14,2,14,14,5,6,0,0,14,2,14,14,0,0,0,0,0,0,0,0,0,0,0,0,0,0,0,0,0,0,0,0,0,0,0,0,0,0,0,0,0,0],"split_type":[0,0,0,0,0,0,0,0,0,0,0,0,0,0,0,0,0,0,0,0,0,0,0,0,0,0,0,0,0,0,0,0,0,0,0,0,0,0,0,0,0,0,0,0,0,0,0,0,0,0,0,0,0,0,0,0,0,0,0,0,0],"sum_hessian":[4.12485E5,2.5725116E5,1.5523383E5,2.1135362E5,4.5897535E4,6.0879663E3,1.4914588E5,4.6079207E4,1.6527442E5,2.9198273E4,1.6699264E4,3.226466E3,2.8615E3,7.534764E4,7.379823E4,2.5449441E4,2.0629766E4,1.638952E5,1.3792166E3,5.5675874E3,2.3630686E4,1.0794939E4,5.9043237E3,1.5224679E3,1.7039982E3,5.954034E0,2.855546E3,4.777051E4,2.7577129E4,1.3029811E4,6.0768414E4,3.2312378E3,2.2218203E4,1.8382055E4,2.2477112E3,6.588321E4,9.801199E4,1.0527426E3,3.2647403E2,3.5022253E3,2.0653623E3,9.762941E3,1.3867744E4,6.4819507E3,4.3129883E3,3.803867E2,5.523937E3,1.0909165E3,4.3155142E2,4.036574E2,1.3003407E3,3.9918585E2,2.45636E3,3.2018314E4,1.5752199E4,1.1277307E4,1.6299823E4,5.199089E3,7.8307217E3,2.4291275E4,3.647714E4],"tree_param":{"num_deleted":"0","num_feature":"19","num_nodes":"61","size_leaf_vector":"1"}},{"base_weights":[-1.0156254E-2,-7.917542E-1,1.3268857E0,-1.0098011E0,2.0026669E-1,1.2197624E0,1.435509E0,-1.6032891E-1,-1.2481427E0,-1.5397236E0,2.9901522E-1,1.4159092E0,9.0608156E-1,1.3736179E0,1.4514334E0,7.098336E-1,-1.2226857E0,-1.2595783E0,2.540943E-1,-1.6765136E0,-7.337304E-2,-7.6128477E-1,4.407116E-1,1.4388305E0,1.3423417E0,4.807512E-1,1.2505171E0,1.4473709E0,1.254968E0,7.262653E-2,1.3528345E0,5.162535E-2,-6.746759E-2,-6.78584E-2,3.23267E-2,-5.6038946E-2,-6.78484E-2,4.249279E-2,-6.0937393E-2,-7.398283E-2,-8.814893E-2,-6.737127E-2,5.1617385E-3,4.4304527E-2,-8.831784E-3,6.593864E-2,7.3039226E-2,4.418947E-2,7.129626E-2,5.6581873E-2,-2.2918653E-2,6.273687E-2,-9.59409E-2,7.2936475E-2,6.9524646E-2,1.3403619E-2,6.791992E-2,-7.75289E-2,7.278101E-2],"categories":[],"categories_nodes":[],"categories_segments":[],"categories_sizes":[],"default_left":[0,0,0,0,0,0,0,0,0,0,0,0,0,0,0,0,0,0,0,0,0,0,0,0,0,0,0,0,0,0,0,0,0,0,0,0,0,0,0,0,0,0,0,0,0,0,0,0,0,0,0,0,0,0,0,0,0,0,0],"id":10,"left_children":[1,3,5,7,9,11,13,15,17,19,21,23,25,27,29,31,33,35,37,39,-1,41,43,45,47,49,51,53,55,-1,57,-1,-1,-1,-1,-1,-1,-1,-1,-1,-1,-1,-1,-1,-1,-1,-1,-1,-1,-1,-1,-1,-1,-1,-1,-1,-1,-1,-1],"loss_changes":[4.1896416E5,5.472792E4,1.7192656E3,4.1994703E4,7.8340728E3,4.5807812E3,7.0359375E1,4.2013008E4,2.782875E3,2.174414E1,6.4823086E3,7.533594E1,4.197244E3,1.2984766E2,4.3515625E0,1.6601855E4,5.1450234E3,2.1714062E3,1.0755021E3,1.1678955E1,0E0,2.5775474E3,1.0464495E4,9.011719E1,4.1647852E2,7.838869E3,2.1417383E2,3.9609375E0,5.891201E2,0E0,1.9838013E2,0E0,0E0,0E0,0E0,0E0,0E0,0E0,0E0,0E0,0E0,0E0,0E0,0E0,0E0,0E0,0E0,0E0,0E0,0E0,0E0,0E0,0E0,0E0,0E0,0E0,0E0,0E0,0E0],"parents":[2147483647,0,0,1,1,2,2,3,3,4,4,5,5,6,6,7,7,8,8,9,9,10,10,11,11,12,12,13,13,14,14,15,15,16,16,17,17,18,18,19,19,21,21,22,22,23,23,24,24,25,25,26,26,27,27,28,28,30,30],"right_children":[2,4,6,8,10,12,14,16,18,20,22,24,26,28,30,32,34,36,38,40,-1,42,44,46,48,50,52,54,56,-1,58,-1,-1,-1,-1,-1,-1,-1,-1,-1,-1,-1,-1,-1,-1,-1,-1,-1,-1,-1,-1,-1,-1,-1,-1,-1,-1,-1,-1],"split_conditions":[1.5185881E0,1.3489168E0,1.3489168E0,-1.2920247E0,3E0,-1.2920247E0,2.2702136E0,-2.4096623E-1,9E2,-1.6406485E-1,-1.1409445E0,4E0,2.2702136E0,4E0,9E0,6E0,8E0,-2.2139232E-1,-3.4913796E-1,-1.1856587E0,-7.337304E-2,1.1E1,-2.0171076E-1,1E0,2.2702136E0,4E0,6.72E2,3.18E2,8E0,7.262653E-2,1.2E1,5.162535E-2,-6.746759E-2,-6.78584E-2,3.23267E-2,-5.6038946E-2,-6.78484E-2,4.249279E-2,-6.0937393E-2,-7.398283E-2,-8.814893E-2,-6.737127E-2,5.1617385E-3,4.4304527E-2,-8.831784E-3,6.593864E-2,7.3039226E-2,4.418947E-2,7.129626E-2,5.6581873E-2,-2.2918653E-2,6.273687E-2,-9.59409E-2,7.2936475E-2,6.9524646E-2,1.3403619E-2,6.791992E-2,-7.75289E-2,7.278101E-2],"split_indices":[2,15,15,15,1,15,2,2,4,2,2,1,2,1,1,1,1,2,2,2,0,1,2,1,2,1,0,0,1,0,1,0,0,0,0,0,0,0,0,0,0,0,0,0,0,0,0,0,0,0,0,0,0,0,0,0,0,0,0],"split_type":[0,0,0,0,0,0,0,0,0,0,0,0,0,0,0,0,0,0,0,0,0,0,0,0,0,0,0,0,0,0,0,0,0,0,0,0,0,0,0,0,0,0,0,0,0,0,0,0,0,0,0,0,0,0,0,0,0,0,0],"sum_hessian":[4.009094E5,2.530082E5,1.4790122E5,2.0741762E5,4.5590574E4,7.4470914E4,7.3430305E4,4.5445875E4,1.6197175E5,2.447635E3,4.3142938E4,4.581745E4,2.8653463E4,1.5044922E4,5.8385383E4,2.4982977E4,2.0462896E4,1.6074823E5,1.2235151E3,8.383952E2,1.6092397E3,5.0853545E3,3.8057586E4,3.4919176E4,1.0898271E4,1.2822204E4,1.583126E4,9.270911E3,5.7740107E3,5.77292E4,6.5618414E2,2.1598934E4,3.3840437E3,1.9089746E4,1.3731499E3,6.62877E4,9.446054E4,8.714418E2,3.5207336E2,2.6139163E2,5.770036E2,3.0302795E3,2.0550752E3,2.2107742E4,1.5949842E4,5.407665E3,2.9511512E4,1.6820186E3,9.216253E3,7.573189E3,5.249015E3,1.581081E4,2.0449589E1,7.7071226E3,1.563789E3,5.4807416E2,5.2259365E3,2.1954166E1,6.3423E2],"tree_param":{"num_deleted":"0","num_feature":"19","num_nodes":"59","size_leaf_vector":"1"}},{"base_weights":[3.8138014E-4,-7.5781155E-1,1.2935882E0,-9.7313833E-1,2.0773739E-1,1.1874651E0,1.4014316E0,-1.4920299E-1,-1.2065316E0,-1.5011189E0,3.025876E-1,1.3828179E0,8.624477E-1,1.3317935E0,1.4192576E0,6.9879985E-1,-1.2315243E0,-1.0397146E0,-1.3268512E0,-1.6270036E0,-1.4355968E0,4.3175817E-1,-7.4372715E-1,1.003389E0,1.3881675E0,4.415243E-1,1.2102122E0,1.4137607E0,1.1869146E0,1.4202374E0,1.3294578E0,5.031046E-2,-6.693871E-2,-6.7183495E-2,2.1627959E-2,-6.893404E-2,-3.921137E-2,-6.656398E-2,-3.972886E-2,-7.226773E-2,-8.537474E-2,-7.049012E-2,-7.681941E-2,-4.2687535E-2,2.7934236E-2,-8.259263E-2,8.384424E-2,-7.896286E-2,5.566398E-2,7.088782E-2,6.6553034E-2,6.018237E-2,-1.6744148E-2,5.3748894E-2,6.614837E-2,4.7586847E-2,7.077947E-2,-6.74944E-4,6.541E-2,7.047592E-2,7.135736E-2,-7.495809E-2,7.1153626E-2],"categories":[],"categories_nodes":[],"categories_segments":[],"categories_sizes":[],"default_left":[0,0,0,0,0,0,0,0,0,0,0,0,0,0,0,0,0,0,0,0,0,0,0,0,0,0,0,0,0,0,0,0,0,0,0,0,0,0,0,0,0,0,0,0,0,0,0,0,0,0,0,0,0,0,0,0,0,0,0,0,0,0,0],"id":11,"left_children":[1,3,5,7,9,11,13,15,17,19,21,23,25,27,29,31,33,35,37,39,41,43,45,47,49,51,53,55,57,59,61,-1,-1,-1,-1,-1,-1,-1,-1,-1,-1,-1,-1,-1,-1,-1,-1,-1,-1,-1,-1,-1,-1,-1,-1,-1,-1,-1,-1,-1,-1,-1,-1],"loss_changes":[3.870548E5,5.173883E4,1.6680938E3,3.9128438E4,7.355544E3,4.6682734E3,8.79375E1,4.122541E4,3.181125E3,1.7348145E1,5.810883E3,9.1828125E1,4.0412969E3,1.7364258E2,3.171875E0,1.5776362E4,3.6830098E3,5.7533125E3,2.160625E2,9.366455E0,1.9365234E0,6.24461E3,1.0388651E4,1.8402393E2,7.464844E1,7.392961E3,2.2911914E2,6.6132812E0,7.775918E2,2.2109375E0,1.7088379E2,0E0,0E0,0E0,0E0,0E0,0E0,0E0,0E0,0E0,0E0,0E0,0E0,0E0,0E0,0E0,0E0,0E0,0E0,0E0,0E0,0E0,0E0,0E0,0E0,0E0,0E0,0E0,0E0,0E0,0E0,0E0,0E0],"parents":[2147483647,0,0,1,1,2,2,3,3,4,4,5,5,6,6,7,7,8,8,9,9,10,10,11,11,12,12,13,13,14,14,15,15,16,16,17,17,18,18,19,19,20,20,21,21,22,22,23,23,24,24,25,25,26,26,27,27,28,28,29,29,30,30],"right_children":[2,4,6,8,10,12,14,16,18,20,22,24,26,28,30,32,34,36,38,40,42,44,46,48,50,52,54,56,58,60,62,-1,-1,-1,-1,-1,-1,-1,-1,-1,-1,-1,-1,-1,-1,-1,-1,-1,-1,-1,-1,-1,-1,-1,-1,-1,-1,-1,-1,-1,-1,-1,-1],"split_conditions":[1.5185881E0,1.3489168E0,1.3489168E0,-1.2920247E0,3E0,-1.2920247E0,2.2702136E0,-2.4096623E-1,-2.2139232E-1,-2.0171076E-1,1.3E1,1.5904278E0,2.2702136E0,4E0,1E1,6E0,8E0,-1.1262712E0,1.4692941E0,-1.1856587E0,2.3845756E-1,-1.2980202E0,1.3031915E0,1E0,2.3845756E-1,2E0,2.3845756E-1,-1.3698723E0,8E0,1.810172E-1,1.2E1,5.031046E-2,-6.693871E-2,-6.7183495E-2,2.1627959E-2,-6.893404E-2,-3.921137E-2,-6.656398E-2,-3.972886E-2,-7.226773E-2,-8.537474E-2,-7.049012E-2,-7.681941E-2,-4.2687535E-2,2.7934236E-2,-8.259263E-2,8.384424E-2,-7.896286E-2,5.566398E-2,7.088782E-2,6.6553034E-2,6.018237E-2,-1.6744148E-2,5.3748894E-2,6.614837E-2,4.7586847E-2,7.077947E-2,-6.74944E-4,6.541E-2,7.047592E-2,7.135736E-2,-7.495809E-2,7.1153626E-2],"split_indices":[2,15,15,15,1,15,2,2,2,2,1,2,2,1,1,1,1,2,2,2,14,2,2,1,14,1,14,14,1,14,1,0,0,0,0,0,0,0,0,0,0,0,0,0,0,0,0,0,0,0,0,0,0,0,0,0,0,0,0,0,0,0,0],"split_type":[0,0,0,0,0,0,0,0,0,0,0,0,0,0,0,0,0,0,0,0,0,0,0,0,0,0,0,0,0,0,0,0,0,0,0,0,0,0,0,0,0,0,0,0,0,0,0,0,0,0,0,0,0,0,0,0,0,0,0,0,0,0,0],"sum_hessian":[3.947504E5,2.4885175E5,1.4589864E5,2.0347488E5,4.537688E4,7.3541914E4,7.235673E4,4.4915133E4,1.5855975E5,2.3854214E3,4.2991457E4,4.5931414E4,2.7610502E4,1.4762415E4,5.759431E4,2.5183848E4,1.9731285E4,6.644576E4,9.211399E4,8.084159E2,1.5770055E3,3.8267777E4,4.7236797E3,6.412136E2,4.5290203E4,1.2492381E4,1.5118121E4,9.422664E3,5.339751E3,5.6958035E4,6.362742E2,2.1882879E4,3.3009695E3,1.8485695E4,1.2455905E3,2.8555504E4,3.789025E4,9.1352484E4,7.6150665E2,2.5404834E2,5.543676E2,1.2675929E3,3.0941257E2,3.4383662E3,3.482941E4,3.4352256E3,1.288454E3,2.5624151E1,6.155894E2,2.981719E4,1.5473011E4,6.303904E3,6.188477E3,6.8786562E3,8.239465E3,3.9205402E1,9.383459E3,4.9008252E2,4.8496685E3,2.2405617E4,3.4552418E4,1.9902256E1,6.163719E2],"tree_param":{"num_deleted":"0","num_feature":"19","num_nodes":"63","size_leaf_vector":"1"}},{"base_weights":[3.64836E-3,-7.404731E-1,1.2533144E0,-2.9490146E-1,-1.1530272E0,6.149091E-1,1.2801049E0,-1.1768187E0,1.3092661E-1,-1.2435836E0,-8.993555E-1,-2.0717812E-1,1.4455509E0,1.3032998E0,6.140569E-1,-1.2779602E0,-7.823739E-1,7.6612324E-1,-3.375137E-1,-1.0991645E0,-1.3573098E0,-1.3133856E0,-3.6731288E-1,4.8583144E-1,-8.659054E-1,1.5085574E0,-3.3790283E-2,1.2204672E0,1.3521876E0,-1.3339213E0,1.2594837E0,-6.8781815E-2,-4.2603325E-2,-6.736492E-2,-1.6988536E-2,-7.959542E-2,6.0757395E-2,-7.896496E-2,4.2960034E-3,-6.364777E-2,-2.693579E-2,-6.843921E-2,-5.888626E-2,-6.840862E-2,-5.978805E-2,4.6192106E-2,-5.3113252E-2,-1.5687434E-2,6.901809E-2,-7.684009E-2,2.1189505E-3,7.589295E-2,-9.6270345E-2,-1.0409379E-1,5.5548538E-2,6.731005E-2,1.83783E-2,6.818949E-2,6.558533E-2,6.0313787E-2,-9.133926E-2,-1.1707797E-1,6.3544296E-2],"categories":[],"categories_nodes":[],"categories_segments":[],"categories_sizes":[],"default_left":[0,0,0,0,0,0,0,0,0,0,0,0,0,0,0,0,0,0,0,0,0,0,0,0,0,0,0,0,0,0,0,0,0,0,0,0,0,0,0,0,0,0,0,0,0,0,0,0,0,0,0,0,0,0,0,0,0,0,0,0,0,0,0],"id":12,"left_children":[1,3,5,7,9,11,13,15,17,19,21,23,25,27,29,31,33,35,37,39,41,43,45,47,49,51,53,55,57,59,61,-1,-1,-1,-1,-1,-1,-1,-1,-1,-1,-1,-1,-1,-1,-1,-1,-1,-1,-1,-1,-1,-1,-1,-1,-1,-1,-1,-1,-1,-1,-1,-1],"loss_changes":[3.5999103E5,4.4603E4,2.4703438E3,4.380943E4,2.8930625E3,3.975186E3,2.141375E3,1.514418E3,2.3408889E4,1.523375E3,7.301365E3,1.3363389E3,2.69938E2,5.409844E2,5.871029E3,1.2564492E3,1.9385327E3,3.5358113E4,2.3808758E4,3.983711E3,1.0540625E2,1.1849219E2,1.3018761E4,1.020904E3,9.145222E2,9.163086E1,2.8193445E2,5.3338516E3,3.7765625E1,1.4573655E3,1.4697021E2,0E0,0E0,0E0,0E0,0E0,0E0,0E0,0E0,0E0,0E0,0E0,0E0,0E0,0E0,0E0,0E0,0E0,0E0,0E0,0E0,0E0,0E0,0E0,0E0,0E0,0E0,0E0,0E0,0E0,0E0,0E0,0E0],"parents":[2147483647,0,0,1,1,2,2,3,3,4,4,5,5,6,6,7,7,8,8,9,9,10,10,11,11,12,12,13,13,14,14,15,15,16,16,17,17,18,18,19,19,20,20,21,21,22,22,23,23,24,24,25,25,26,26,27,27,28,28,29,29,30,30],"right_children":[2,4,6,8,10,12,14,16,18,20,22,24,26,28,30,32,34,36,38,40,42,44,46,48,50,52,54,56,58,60,62,-1,-1,-1,-1,-1,-1,-1,-1,-1,-1,-1,-1,-1,-1,-1,-1,-1,-1,-1,-1,-1,-1,-1,-1,-1,-1,-1,-1,-1,-1,-1,-1],"split_conditions":[1.4692941E0,-2.4096623E-1,1.5904278E0,-1.1262712E0,8.4375834E-1,1.3E1,1.1E1,1.1E1,6E0,3.6548555E-1,8E0,2E0,2.958979E-1,2.2702136E0,1.2E1,-1.2319958E0,1.810172E-1,3E0,9E0,2.8941983E-1,8.0867404E-1,3E0,9E0,1E0,9E0,1.4813975E0,1.9042279E0,4E0,7E0,1.7936189E0,-1.56043E0,-6.8781815E-2,-4.2603325E-2,-6.736492E-2,-1.6988536E-2,-7.959542E-2,6.0757395E-2,-7.896496E-2,4.2960034E-3,-6.364777E-2,-2.693579E-2,-6.843921E-2,-5.888626E-2,-6.840862E-2,-5.978805E-2,4.6192106E-2,-5.3113252E-2,-1.5687434E-2,6.901809E-2,-7.684009E-2,2.1189505E-3,7.589295E-2,-9.6270345E-2,-1.0409379E-1,5.5548538E-2,6.731005E-2,1.83783E-2,6.818949E-2,6.558533E-2,6.0313787E-2,-9.133926E-2,-1.1707797E-1,6.3544296E-2],"split_indices":[2,2,2,2,2,1,1,1,1,2,1,1,14,2,1,2,14,1,1,2,2,1,1,3,1,16,14,1,1,2,16,0,0,0,0,0,0,0,0,0,0,0,0,0,0,0,0,0,0,0,0,0,0,0,0,0,0,0,0,0,0,0,0],"split_type":[0,0,0,0,0,0,0,0,0,0,0,0,0,0,0,0,0,0,0,0,0,0,0,0,0,0,0,0,0,0,0,0,0,0,0,0,0,0,0,0,0,0,0,0,0,0,0,0,0,0,0,0,0,0,0,0,0,0,0,0,0,0,0],"sum_hessian":[3.8712538E5,2.4264267E5,1.4448269E5,1.1665416E5,1.2598852E5,5.8199395E3,1.3866275E5,3.7984355E4,7.86698E4,9.284173E4,3.3146793E4,2.925409E3,2.8945305E3,1.3399545E5,4.6673003E3,3.0230555E4,7.7538022E3,3.3391242E4,4.527856E4,4.090623E4,5.19355E4,1.8639924E4,1.450687E4,1.4257358E3,1.4996731E3,2.7762668E3,1.1826354E2,4.974185E4,8.42536E4,1.1612966E3,3.5060037E3,2.4588984E4,5.64157E3,3.4053188E3,4.3484834E3,5.3409497E3,2.8050291E4,1.1512786E4,3.3765773E4,3.122296E4,9.683269E3,4.88102E4,3.1252998E3,1.2709503E4,5.9304204E3,5.075935E3,9.430935E3,7.53165E2,6.725708E2,8.621567E2,6.375165E2,2.7693237E3,6.943166E0,4.2108627E1,7.6154915E1,4.3350574E4,6.391276E3,6.5459824E4,1.879378E4,1.8847221E2,9.7282434E2,1.0421017E1,3.4955825E3],"tree_param":{"num_deleted":"0","num_feature":"19","num_nodes":"63","size_leaf_vector":"1"}},{"base_weights":[-2.8779334E-3,-3.8572052E-1,8.950137E-1,5.976096E-1,-8.657545E-1,1.1303041E0,4.772639E-1,5.3417957E-1,1.2758081E0,-9.03494E-1,1.0408168E0,8.419667E-1,1.3706858E0,7.0447046E-1,-4.282266E-3,7.1305287E-1,2.535056E-1,9.852719E-1,1.3919102E0,-7.580347E-1,-1.0998957E0,1.2153076E0,2.2296771E-1,2.7803534E-1,1.0952828E0,1.2762082E0,1.4341636E0,8.480529E-1,1.9041026E-1,-7.159281E-2,1.5503843E0,3.0428732E-2,5.9505224E-2,2.5492579E-2,-5.513815E-2,5.2267987E-2,-7.639726E-2,6.972704E-2,-5.829243E-2,-4.5629974E-2,-2.5507519E-2,1.3869363E-2,-5.6729842E-2,6.658525E-2,-1.5628147E-4,-7.7816196E-2,4.3271683E-2,4.7599453E-2,-9.986562E-3,6.3208975E-2,4.5655686E-2,6.873631E-2,3.467161E-2,1.0084807E-1,6.868603E-2,-9.9742655E-3,4.4555232E-2,3.0661563E-3,7.547073E-2,-1.3936013E-2,2.044986E-2,7.977424E-2,-7.55884E-2],"categories":[],"categories_nodes":[],"categories_segments":[],"categories_sizes":[],"default_left":[0,0,0,0,0,0,0,0,0,0,0,0,0,0,0,0,0,0,0,0,0,0,0,0,0,0,0,0,0,0,0,0,0,0,0,0,0,0,0,0,0,0,0,0,0,0,0,0,0,0,0,0,0,0,0,0,0,0,0,0,0,0,0],"id":13,"left_children":[1,3,5,7,9,11,13,15,17,19,21,23,25,27,29,31,33,35,37,39,41,43,45,47,49,51,53,55,57,59,61,-1,-1,-1,-1,-1,-1,-1,-1,-1,-1,-1,-1,-1,-1,-1,-1,-1,-1,-1,-1,-1,-1,-1,-1,-1,-1,-1,-1,-1,-1,-1,-1],"loss_changes":[1.29492445E5,1.24663195E5,1.1067789E4,3.7261484E3,1.2770109E4,4.991547E3,4.4391865E3,3.9773672E3,2.4854395E2,4.970672E3,4.9136914E2,4.6784863E3,2.3375E2,2.0345498E3,1.3613177E3,2.4109863E3,1.0722592E4,3.2156372E2,3.7226562E1,3.8301797E3,3.5390547E3,4.0265186E2,6.9523315E2,3.2695051E3,6.9419727E2,9.05916E2,8.2460156E2,9.7195703E2,1.0249009E3,1.2413145E3,7.696826E1,0E0,0E0,0E0,0E0,0E0,0E0,0E0,0E0,0E0,0E0,0E0,0E0,0E0,0E0,0E0,0E0,0E0,0E0,0E0,0E0,0E0,0E0,0E0,0E0,0E0,0E0,0E0,0E0,0E0,0E0,0E0,0E0],"parents":[2147483647,0,0,1,1,2,2,3,3,4,4,5,5,6,6,7,7,8,8,9,9,10,10,11,11,12,12,13,13,14,14,15,15,16,16,17,17,18,18,19,19,20,20,21,21,22,22,23,23,24,24,25,25,26,26,27,27,28,28,29,29,30,30],"right_children":[2,4,6,8,10,12,14,16,18,20,22,24,26,28,30,32,34,36,38,40,42,44,46,48,50,52,54,56,58,60,62,-1,-1,-1,-1,-1,-1,-1,-1,-1,-1,-1,-1,-1,-1,-1,-1,-1,-1,-1,-1,-1,-1,-1,-1,-1,-1,-1,-1,-1,-1,-1,-1],"split_conditions":[1.3489168E0,-1.2920247E0,8E0,8.76E2,9E2,2.3845756E-1,1E0,2.3845756E-1,9E2,8E0,1.0880849E0,1E0,3E0,2.958979E-1,9E2,6E0,6E0,1.4154743E0,1.4256631E0,1.810172E-1,-1.1827295E-1,1.9643345E0,4.6745494E-1,-1.1975513E0,-1.7380491E-1,2E0,6E0,-1.3124319E0,8.84E2,3.3E1,1.174766E0,3.0428732E-2,5.9505224E-2,2.5492579E-2,-5.513815E-2,5.2267987E-2,-7.639726E-2,6.972704E-2,-5.829243E-2,-4.5629974E-2,-2.5507519E-2,1.3869363E-2,-5.6729842E-2,6.658525E-2,-1.5628147E-4,-7.7816196E-2,4.3271683E-2,4.7599453E-2,-9.986562E-3,6.3208975E-2,4.5655686E-2,6.873631E-2,3.467161E-2,1.0084807E-1,6.868603E-2,-9.9742655E-3,4.4555232E-2,3.0661563E-3,7.547073E-2,-1.3936013E-2,2.044986E-2,7.977424E-2,-7.55884E-2],"split_indices":[15,15,1,4,4,14,3,14,4,1,8,3,1,14,4,1,1,17,13,14,15,10,16,14,10,1,1,14,4,6,8,0,0,0,0,0,0,0,0,0,0,0,0,0,0,0,0,0,0,0,0,0,0,0,0,0,0,0,0,0,0,0,0],"split_type":[0,0,0,0,0,0,0,0,0,0,0,0,0,0,0,0,0,0,0,0,0,0,0,0,0,0,0,0,0,0,0,0,0,0,0,0,0,0,0,0,0,0,0,0,0,0,0,0,0,0,0,0,0,0,0,0,0,0,0,0,0,0,0],"sum_hessian":[3.7670206E5,2.6409706E5,1.12605E5,8.663288E4,1.7746417E5,7.203232E4,4.0572676E4,7.922498E4,7.407902E3,1.7402006E5,3.4441E3,3.2751494E4,3.9280832E4,2.756588E4,1.3006796E4,4.838666E4,3.0838316E4,2.11779E3,5.290112E3,9.997863E4,7.404144E4,2.838097E3,6.060033E2,1.0152386E4,2.2599107E4,1.5794319E4,2.3486512E4,2.1546943E4,6.0189375E3,1.246794E4,5.388556E2,3.9695336E4,8.691327E3,2.593669E4,4.901626E3,2.0689092E3,4.8880985E1,5.285131E3,4.9807377E0,6.1579137E4,3.8399496E4,1.8194823E3,7.222195E4,2.5905295E3,2.4756735E2,1.6038873E2,4.456146E2,4.2110884E3,5.941297E3,1.1723663E4,1.0875445E4,1.3509234E4,2.2850845E3,2.2039011E3,2.1282611E4,8.504359E2,2.0696506E4,5.4833447E3,5.355926E2,8.713127E3,3.754814E3,5.3150635E2,7.349241E0],"tree_param":{"num_deleted":"0","num_feature":"19","num_nodes":"63","size_leaf_vector":"1"}},{"base_weights":[1.014466E-3,-7.063865E-1,1.2223684E0,-2.8593245E-1,-1.1010164E0,1.099699E0,1.305469E0,-1.1261967E0,1.1022479E-1,-1.2187934E0,-7.965319E-1,1.2849344E0,4.8495E-1,1.3088374E0,1.0940894E0,-1.2208177E0,-7.216246E-1,6.9378865E-1,-3.0021632E-1,-1.0746067E0,-1.3299704E0,-1.2862189E0,-2.0870441E-1,-6.826868E-1,1.3347616E0,-7.486933E-1,9.302369E-1,1.320134E0,1.2697557E0,-1.3933285E0,6.939195E-2,-6.69328E-2,-3.858821E-2,2.075978E-3,-5.974502E-2,-7.7312216E-2,5.6696046E-2,-7.6170914E-2,4.975845E-3,-6.451579E-2,-3.0007694E-2,-6.67665E-2,-6.2216837E-2,-6.4694494E-2,2.4559215E-2,4.8854414E-2,-4.429871E-2,-8.87326E-2,3.275225E-2,6.8291984E-2,5.5286605E-2,-2.7385354E-3,-6.903061E-2,5.6877363E-2,-2.226123E-2,6.562557E-2,6.7370646E-2,6.503675E-2,6.0653746E-2,6.745376E-2,-9.415351E-2],"categories":[],"categories_nodes":[],"categories_segments":[],"categories_sizes":[],"default_left":[0,0,0,0,0,0,0,0,0,0,0,0,0,0,0,0,0,0,0,0,0,0,0,0,0,0,0,0,0,0,0,0,0,0,0,0,0,0,0,0,0,0,0,0,0,0,0,0,0,0,0,0,0,0,0,0,0,0,0,0,0],"id":14,"left_children":[1,3,5,7,9,11,13,15,17,19,21,23,25,27,29,31,33,35,37,39,41,43,45,47,49,51,53,55,57,59,-1,-1,-1,-1,-1,-1,-1,-1,-1,-1,-1,-1,-1,-1,-1,-1,-1,-1,-1,-1,-1,-1,-1,-1,-1,-1,-1,-1,-1,-1,-1],"loss_changes":[3.2215988E5,3.9177242E4,1.3926406E3,3.805453E4,4.3668906E3,6.289328E3,5.6609375E1,1.4013047E3,1.8608871E4,1.4064219E3,9.779479E3,4.1623516E3,7.0274004E3,3.3765625E1,9.407031E2,1.5697422E3,2.5085603E3,3.163035E4,2.230251E4,3.9129922E3,2.1101562E1,2.5334375E2,1.2401925E4,1.5334899E3,2.9314844E2,1.4878209E3,2.6807173E3,1.11640625E1,3.0060547E1,1.8546637E2,0E0,0E0,0E0,0E0,0E0,0E0,0E0,0E0,0E0,0E0,0E0,0E0,0E0,0E0,0E0,0E0,0E0,0E0,0E0,0E0,0E0,0E0,0E0,0E0,0E0,0E0,0E0,0E0,0E0,0E0,0E0],"parents":[2147483647,0,0,1,1,2,2,3,3,4,4,5,5,6,6,7,7,8,8,9,9,10,10,11,11,12,12,13,13,14,14,15,15,16,16,17,17,18,18,19,19,20,20,21,21,22,22,23,23,24,24,25,25,26,26,27,27,28,28,29,29],"right_children":[2,4,6,8,10,12,14,16,18,20,22,24,26,28,30,32,34,36,38,40,42,44,46,48,50,52,54,56,58,60,-1,-1,-1,-1,-1,-1,-1,-1,-1,-1,-1,-1,-1,-1,-1,-1,-1,-1,-1,-1,-1,-1,-1,-1,-1,-1,-1,-1,-1,-1,-1],"split_conditions":[1.5185881E0,-2.2139232E-1,2.2702136E0,-1.1262712E0,8.4375834E-1,4E0,1.1E1,-1.2319958E0,6E0,3.6548555E-1,8E0,1E0,8E0,7E0,1.2E1,1.1E1,6E0,3E0,9E0,2.6398444E-1,8.0867404E-1,8.89E2,9E0,2.0904214E0,2E0,6E0,1.9561851E0,7.94E2,2.5633366E0,3.35E2,6.939195E-2,-6.69328E-2,-3.858821E-2,2.075978E-3,-5.974502E-2,-7.7312216E-2,5.6696046E-2,-7.6170914E-2,4.975845E-3,-6.451579E-2,-3.0007694E-2,-6.67665E-2,-6.2216837E-2,-6.4694494E-2,2.4559215E-2,4.8854414E-2,-4.429871E-2,-8.87326E-2,3.275225E-2,6.8291984E-2,5.5286605E-2,-2.7385354E-3,-6.903061E-2,5.6877363E-2,-2.226123E-2,6.562557E-2,6.7370646E-2,6.503675E-2,6.0653746E-2,6.745376E-2,-9.415351E-2],"split_indices":[2,2,2,2,2,1,1,2,1,2,1,1,1,1,1,1,1,1,1,2,2,7,1,2,1,1,2,7,2,0,0,0,0,0,0,0,0,0,0,0,0,0,0,0,0,0,0,0,0,0,0,0,0,0,0,0,0,0,0,0,0],"split_type":[0,0,0,0,0,0,0,0,0,0,0,0,0,0,0,0,0,0,0,0,0,0,0,0,0,0,0,0,0,0,0,0,0,0,0,0,0,0,0,0,0,0,0,0,0,0,0,0,0,0,0,0,0,0,0,0,0,0,0,0,0],"sum_hessian":[3.7287384E5,2.361168E5,1.3675703E5,1.14318805E5,1.21797984E5,5.5235383E4,8.152166E4,3.6627875E4,7.769093E4,8.7824E4,3.3973984E4,4.2444863E4,1.2790519E4,8.023787E4,1.2837925E3,2.968351E4,6.9443647E3,3.2079588E4,4.5611344E4,3.8240332E4,4.9583668E4,1.8533527E4,1.5440459E4,1.0479956E3,4.1396867E4,3.3921284E3,9.39839E3,6.22201E4,1.801776E4,1.352E2,1.1485925E3,2.3511705E4,6.1718047E3,2.6585076E3,4.2858574E3,5.267644E3,2.6811943E4,1.1233503E4,3.4377844E4,2.6287191E4,1.1953139E4,4.664938E4,2.9342864E3,1.8454154E4,7.937348E1,5.6128315E3,9.827627E3,5.768209E2,4.7117468E2,3.6446355E4,4.9505137E3,1.6172649E3,1.7748634E3,8.167546E3,1.2308444E3,4.8669312E4,1.3550792E4,1.1636065E4,6.381695E3,2.0219921E1,1.1498008E2],"tree_param":{"num_deleted":"0","num_feature":"19","num_nodes":"61","size_leaf_vector":"1"}},{"base_weights":[1.7319636E-3,-6.870596E-1,1.1858001E0,-8.947884E-1,1.9374749E-1,5.4581726E-1,1.2122052E0,-1.438611E-1,-1.1150879E0,-1.4191467E0,2.8033054E-1,-1.3322294E-1,1.3656254E0,1.2355204E0,5.5855346E-1,6.295319E-1,-1.1487491E0,-9.4577193E-1,-1.2431296E0,-1.5116482E0,-6.833165E-2,4.106736E-1,-9.1912526E-1,-7.751632E-1,6.010674E-1,1.4400187E0,6.235778E-1,1.1634026E0,1.3119534E0,-1.1327028E0,1.1762892E0,-8.656161E-2,4.3597374E-2,-6.372954E-2,2.451042E-2,-6.2391188E-2,-3.3865824E-2,-6.514333E-2,-6.0340334E-2,-6.8289645E-2,-7.8298435E-2,-3.439814E-2,2.665387E-2,-7.832214E-2,7.6303534E-2,-5.561465E-2,6.1920475E-2,6.895528E-2,-1.8285928E-2,7.237612E-2,-9.6825145E-2,-9.769308E-2,6.1290365E-2,6.4500876E-2,4.7378253E-2,6.296776E-2,6.6018514E-2,5.847118E-2,-8.412548E-2,3.737054E-2,6.583641E-2],"categories":[],"categories_nodes":[],"categories_segments":[],"categories_sizes":[],"default_left":[0,0,0,0,0,0,0,0,0,0,0,0,0,0,0,0,0,0,0,0,0,0,0,0,0,0,0,0,0,0,0,0,0,0,0,0,0,0,0,0,0,0,0,0,0,0,0,0,0,0,0,0,0,0,0,0,0,0,0,0,0],"id":15,"left_children":[1,3,5,7,9,11,13,15,17,19,21,23,25,27,29,31,33,35,37,39,-1,41,43,45,47,49,51,53,55,57,59,-1,-1,-1,-1,-1,-1,-1,-1,-1,-1,-1,-1,-1,-1,-1,-1,-1,-1,-1,-1,-1,-1,-1,-1,-1,-1,-1,-1,-1,-1],"loss_changes":[2.9618172E5,4.200921E4,2.2563594E3,3.0733562E4,6.1191963E3,2.9472766E3,1.9540938E3,3.2751857E4,3.1129062E3,8.77832E0,6.5016562E3,1.3658033E3,1.3150781E2,6.8115625E2,4.6185234E3,1.363009E4,3.7807695E3,5.0149023E3,1.7589062E2,4.1917725E0,0E0,5.044445E3,6.4543643E3,1.0507784E3,1.0172052E3,5.8015137E1,3.4436722E2,1.7404688E3,2.4953125E1,1.4991414E3,1.9401904E2,0E0,0E0,0E0,0E0,0E0,0E0,0E0,0E0,0E0,0E0,0E0,0E0,0E0,0E0,0E0,0E0,0E0,0E0,0E0,0E0,0E0,0E0,0E0,0E0,0E0,0E0,0E0,0E0,0E0,0E0],"parents":[2147483647,0,0,1,1,2,2,3,3,4,4,5,5,6,6,7,7,8,8,9,9,10,10,11,11,12,12,13,13,14,14,15,15,16,16,17,17,18,18,19,19,21,21,22,22,23,23,24,24,25,25,26,26,27,27,28,28,29,29,30,30],"right_children":[2,4,6,8,10,12,14,16,18,20,22,24,26,28,30,32,34,36,38,40,-1,42,44,46,48,50,52,54,56,58,60,-1,-1,-1,-1,-1,-1,-1,-1,-1,-1,-1,-1,-1,-1,-1,-1,-1,-1,-1,-1,-1,-1,-1,-1,-1,-1,-1,-1,-1,-1],"split_conditions":[1.4692941E0,1.3489168E0,1.5904278E0,-1.2920247E0,3E0,1.3E1,1.1E1,-2.4096623E-1,-2.2139232E-1,-1.6406485E-1,1.3E1,1E0,1E0,1.3489168E0,1.2E1,3E0,8E0,-1.0594612E0,4E0,-1.2319958E0,-6.833165E-2,-1.2319958E0,1.2234898E0,4.28E2,2E0,1.1413347E0,1.3489168E0,-1.2920247E0,2.0904214E0,1.7936189E0,1.2021978E0,-8.656161E-2,4.3597374E-2,-6.372954E-2,2.451042E-2,-6.2391188E-2,-3.3865824E-2,-6.514333E-2,-6.0340334E-2,-6.8289645E-2,-7.8298435E-2,-3.439814E-2,2.665387E-2,-7.832214E-2,7.6303534E-2,-5.561465E-2,6.1920475E-2,6.895528E-2,-1.8285928E-2,7.237612E-2,-9.6825145E-2,-9.769308E-2,6.1290365E-2,6.4500876E-2,4.7378253E-2,6.296776E-2,6.6018514E-2,5.847118E-2,-8.412548E-2,3.737054E-2,6.583641E-2],"split_indices":[2,15,2,15,1,1,1,2,2,2,1,3,3,15,1,1,1,2,1,2,0,2,2,11,1,13,15,15,2,2,15,0,0,0,0,0,0,0,0,0,0,0,0,0,0,0,0,0,0,0,0,0,0,0,0,0,0,0,0,0,0],"split_type":[0,0,0,0,0,0,0,0,0,0,0,0,0,0,0,0,0,0,0,0,0,0,0,0,0,0,0,0,0,0,0,0,0,0,0,0,0,0,0,0,0,0,0,0,0,0,0,0,0,0,0,0,0,0,0,0,0,0,0,0,0],"sum_hessian":[3.631545E5,2.295955E5,1.33559E5,1.8578105E5,4.381447E4,5.2930303E3,1.2826597E5,4.2140348E4,1.4364069E5,2.231426E3,4.1583043E4,2.8955269E3,2.3975034E3,1.2384754E5,4.418425E3,2.3813281E4,1.8327066E4,6.185506E4,8.178563E4,7.979923E2,1.4334336E3,3.7507785E4,4.0752566E3,1.544884E3,1.3506428E3,2.1781902E3,2.1931308E2,6.3730977E4,6.0116562E4,1.1818593E3,3.2365654E3,2.2169895E3,2.1596291E4,1.7020436E4,1.3066317E3,2.9104535E4,3.2750525E4,3.091232E4,5.0873312E4,2.236405E2,5.743518E2,3.7595242E3,3.374826E4,3.2225176E3,8.5273895E2,1.3237053E3,2.2117868E2,7.481386E2,6.025043E2,2.1739304E3,4.2597723E0,4.1112823E1,1.7820026E2,4.016459E4,2.3566387E4,8.313734E3,5.180283E4,2.2762614E2,9.542331E2,7.999543E2,2.436611E3],"tree_param":{"num_deleted":"0","num_feature":"19","num_nodes":"61","size_leaf_vector":"1"}},{"base_weights":[4.6017757E-3,-3.5176966E-1,8.314549E-1,5.5192775E-1,-7.9544544E-1,1.0608196E0,4.4209453E-1,5.006701E-1,1.2781943E0,-8.271129E-1,9.5200133E-1,1.2590915E0,9.9058056E-1,4.043015E-1,1.5325793E0,6.1848795E-1,2.3104417E-1,9.063578E-1,1.3221253E0,-6.563694E-1,-1.0010006E0,1.130279E0,1.5645123E-1,1.2449973E0,6.475337E-2,2.8693807E-1,1.0708528E0,5.9158885E-1,2.1604921E-1,1.5612935E0,-7.8294925E-2,8.1881E-3,3.421932E-2,7.1015083E-3,7.839804E-2,5.208225E-2,-7.198222E-2,6.0109277E-3,6.64306E-2,-2.9307622E-2,-5.7105977E-2,-5.0461825E-2,6.9079064E-2,6.291298E-2,-1.6887399E-3,-7.4063666E-2,3.435677E-2,6.2298506E-2,3.017E-2,1.0082389E-2,6.0593195E-2,5.0079484E-2,6.387826E-2,-8.493818E-2,3.017369E-2,1.2820157E-2,-7.848654E-2,-8.042265E-2,7.891024E-2],"categories":[],"categories_nodes":[],"categories_segments":[],"categories_sizes":[],"default_left":[0,0,0,0,0,0,0,0,0,0,0,0,0,0,0,0,0,0,0,0,0,0,0,0,0,0,0,0,0,0,0,0,0,0,0,0,0,0,0,0,0,0,0,0,0,0,0,0,0,0,0,0,0,0,0,0,0,0,0],"id":16,"left_children":[1,3,5,7,9,11,13,15,17,19,21,23,25,27,29,31,33,35,37,39,41,43,45,47,-1,49,51,53,55,57,-1,-1,-1,-1,-1,-1,-1,-1,-1,-1,-1,-1,-1,-1,-1,-1,-1,-1,-1,-1,-1,-1,-1,-1,-1,-1,-1,-1,-1],"loss_changes":[1.0470355E5,9.955936E4,9.557031E3,3.0432383E3,9.216828E3,9.3664844E2,1.6344829E3,2.4261133E3,8.68418E1,4.8560625E3,4.203269E2,7.3183594E0,2.8088242E3,1.3518867E3,1.2064966E2,1.5925977E3,2.7639102E3,1.8325623E2,3.740332E1,2.8145547E3,1.591625E3,3.6085278E2,4.7376047E2,7.1621094E0,0E0,4.0161533E2,6.378711E2,5.242656E2,1.3786741E3,7.313013E1,0E0,0E0,0E0,0E0,0E0,0E0,0E0,0E0,0E0,0E0,0E0,0E0,0E0,0E0,0E0,0E0,0E0,0E0,0E0,0E0,0E0,0E0,0E0,0E0,0E0,0E0,0E0,0E0,0E0],"parents":[2147483647,0,0,1,1,2,2,3,3,4,4,5,5,6,6,7,7,8,8,9,9,10,10,11,11,12,12,13,13,14,14,15,15,16,16,17,17,18,18,19,19,20,20,21,21,22,22,23,23,25,25,26,26,27,27,28,28,29,29],"right_children":[2,4,6,8,10,12,14,16,18,20,22,24,26,28,30,32,34,36,38,40,42,44,46,48,-1,50,52,54,56,58,-1,-1,-1,-1,-1,-1,-1,-1,-1,-1,-1,-1,-1,-1,-1,-1,-1,-1,-1,-1,-1,-1,-1,-1,-1,-1,-1,-1,-1],"split_conditions":[1.3489168E0,-1.2920247E0,8E0,8.8E2,8.89E2,2E0,8.89E2,4E0,8.89E2,3.38E2,1.0880849E0,7.5E2,3E0,-4.4399735E-2,1.4227809E0,1E0,9E0,9.247315E-1,-1.798479E0,1.4154743E0,8.27E2,1.9643345E0,2.4213439E-1,7.47E2,6.475337E-2,8.72E2,7.44E2,-2.2875838E0,1.9643345E0,-1.798479E0,-7.8294925E-2,8.1881E-3,3.421932E-2,7.1015083E-3,7.839804E-2,5.208225E-2,-7.198222E-2,6.0109277E-3,6.64306E-2,-2.9307622E-2,-5.7105977E-2,-5.0461825E-2,6.9079064E-2,6.291298E-2,-1.6887399E-3,-7.4063666E-2,3.435677E-2,6.2298506E-2,3.017E-2,1.0082389E-2,6.0593195E-2,5.0079484E-2,6.387826E-2,-8.493818E-2,3.017369E-2,1.2820157E-2,-7.848654E-2,-8.042265E-2,7.891024E-2],"split_indices":[15,15,1,7,7,1,7,1,7,0,8,7,1,17,8,1,1,18,10,17,5,10,16,7,0,7,7,8,10,10,0,0,0,0,0,0,0,0,0,0,0,0,0,0,0,0,0,0,0,0,0,0,0,0,0,0,0,0,0],"split_type":[0,0,0,0,0,0,0,0,0,0,0,0,0,0,0,0,0,0,0,0,0,0,0,0,0,0,0,0,0,0,0,0,0,0,0,0,0,0,0,0,0,0,0,0,0,0,0,0,0,0,0,0,0,0,0,0,0,0,0],"sum_hessian":[3.5532662E5,2.4830738E5,1.0701923E5,8.176493E4,1.6654245E5,6.734553E4,3.9673695E4,7.637622E4,5.3887085E3,1.635786E5,2.9638684E3,1.761232E4,4.973321E4,3.83461E4,1.3275934E3,5.315005E4,2.3226166E4,5.7167053E2,4.817038E3,8.253788E4,8.10407E4,2.4209324E3,5.429359E2,1.2680227E4,4.9320933E3,5.093106E3,4.4640105E4,1.922124E4,1.9124861E4,1.3158949E3,1.1698499E1,6.7279473E3,4.6422105E4,2.1777307E4,1.4488611E3,5.4102704E2,3.06435E1,2.596239E1,4.7910757E3,7.211553E4,1.0422351E4,8.076212E4,2.785907E2,2.1810576E3,2.3987488E2,1.324367E2,4.104992E2,1.2660089E4,2.0137474E1,4.6642217E3,4.2888434E2,3.3440918E4,1.1199188E4,9.849356E1,1.9122748E4,1.8703078E4,4.2178397E2,6.4838996E0,1.309411E3],"tree_param":{"num_deleted":"0","num_feature":"19","num_nodes":"59","size_leaf_vector":"1"}},{"base_weights":[-1.2271613E-3,-6.7214936E-1,1.1531891E0,-2.644347E-1,-1.0716125E0,5.826027E-1,1.1787387E0,-1.0923678E0,1.0990378E-1,-1.1975764E0,-3.483498E-1,-1.4940074E-1,1.3572531E0,1.201292E0,5.4488903E-1,-1.2036408E0,-6.9361115E-1,6.521066E-1,-2.6368362E-1,-1.2489774E0,-1.0059464E0,2.0292981E-1,-1.1231554E0,8.085042E-1,-6.5275705E-1,1.4159082E0,-6.0461533E-1,1.1338027E0,1.273411E0,-1.1793365E0,1.1571684E0,-6.530191E-2,-4.0319715E-2,-1.759466E-3,-5.440224E-2,-7.382538E-2,5.3205293E-2,-4.699373E-2,3.531001E-2,-6.254918E-2,7.5218074E-2,-6.254905E-2,-2.9248847E-2,-2.1429187E-2,4.6522364E-2,-6.867581E-2,5.185197E-2,-4.085274E-2,5.371095E-2,-5.245281E-2,2.3463791E-2,7.275584E-2,4.021207E-2,-9.8449536E-2,5.8950193E-2,6.3075684E-2,4.712743E-2,6.0442667E-2,6.416019E-2,7.264709E-2,-7.6975904E-2,-1.1850033E-1,5.848333E-2],"categories":[],"categories_nodes":[],"categories_segments":[],"categories_sizes":[],"default_left":[0,0,0,0,0,0,0,0,0,0,0,0,0,0,0,0,0,0,0,0,0,0,0,0,0,0,0,0,0,0,0,0,0,0,0,0,0,0,0,0,0,0,0,0,0,0,0,0,0,0,0,0,0,0,0,0,0,0,0,0,0,0,0],"id":17,"left_children":[1,3,5,7,9,11,13,15,17,19,21,23,25,27,29,31,33,35,37,39,41,43,45,47,49,51,53,55,57,59,61,-1,-1,-1,-1,-1,-1,-1,-1,-1,-1,-1,-1,-1,-1,-1,-1,-1,-1,-1,-1,-1,-1,-1,-1,-1,-1,-1,-1,-1,-1,-1,-1],"loss_changes":[2.7075988E5,3.6007945E4,1.8725156E3,3.3911168E4,1.0173711E4,3.1240703E3,1.7574688E3,1.5107852E3,1.5262943E4,9.355781E2,7.0760835E3,1.3666893E3,3.088667E2,5.765781E2,4.464325E3,1.0823359E3,1.9308425E3,2.6958668E4,2.9258428E4,4.1610938E2,2.0747734E3,4.4477334E3,3.7260586E3,4.2264124E2,8.2663824E2,6.1166016E1,1.931163E2,1.4974688E3,3.475E1,1.0530115E3,1.4031885E2,0E0,0E0,0E0,0E0,0E0,0E0,0E0,0E0,0E0,0E0,0E0,0E0,0E0,0E0,0E0,0E0,0E0,0E0,0E0,0E0,0E0,0E0,0E0,0E0,0E0,0E0,0E0,0E0,0E0,0E0,0E0,0E0],"parents":[2147483647,0,0,1,1,2,2,3,3,4,4,5,5,6,6,7,7,8,8,9,9,10,10,11,11,12,12,13,13,14,14,15,15,16,16,17,17,18,18,19,19,20,20,21,21,22,22,23,23,24,24,25,25,26,26,27,27,28,28,29,29,30,30],"right_children":[2,4,6,8,10,12,14,16,18,20,22,24,26,28,30,32,34,36,38,40,42,44,46,48,50,52,54,56,58,60,62,-1,-1,-1,-1,-1,-1,-1,-1,-1,-1,-1,-1,-1,-1,-1,-1,-1,-1,-1,-1,-1,-1,-1,-1,-1,-1,-1,-1,-1,-1,-1,-1],"split_conditions":[1.4692941E0,-2.2139232E-1,1.5904278E0,-1.1262712E0,1.3489168E0,1.3E1,1.1E1,-1.2488335E0,6E0,9.127999E-1,1E1,-1.2920247E0,2.958979E-1,1.3489168E0,1.2E1,1.1E1,6E0,3E0,1.3489168E0,4.9E1,8E0,1.2357685E-1,1.3031915E0,3.46E2,1.3489168E0,1E0,2.593512E0,2E0,2.0904214E0,-2.6499194E-1,-1.715225E0,-6.530191E-2,-4.0319715E-2,-1.759466E-3,-5.440224E-2,-7.382538E-2,5.3205293E-2,-4.699373E-2,3.531001E-2,-6.254918E-2,7.5218074E-2,-6.254905E-2,-2.9248847E-2,-2.1429187E-2,4.6522364E-2,-6.867581E-2,5.185197E-2,-4.085274E-2,5.371095E-2,-5.245281E-2,2.3463791E-2,7.275584E-2,4.021207E-2,-9.8449536E-2,5.8950193E-2,6.3075684E-2,4.712743E-2,6.0442667E-2,6.416019E-2,7.264709E-2,-7.6975904E-2,-1.1850033E-1,5.848333E-2],"split_indices":[2,2,2,2,15,1,1,2,1,2,1,15,14,15,1,1,1,1,15,6,1,14,2,7,15,3,14,1,2,15,12,0,0,0,0,0,0,0,0,0,0,0,0,0,0,0,0,0,0,0,0,0,0,0,0,0,0,0,0,0,0,0,0],"split_type":[0,0,0,0,0,0,0,0,0,0,0,0,0,0,0,0,0,0,0,0,0,0,0,0,0,0,0,0,0,0,0,0,0,0,0,0,0,0,0,0,0,0,0,0,0,0,0,0,0,0,0,0,0,0,0,0,0,0,0,0,0,0,0],"sum_hessian":[3.4958053E5,2.2108883E5,1.284917E5,1.0941517E5,1.1167366E5,5.5080127E3,1.22983695E5,3.406684E4,7.5348336E4,9.510878E4,1.6564873E4,2.8323757E3,2.6756372E3,1.18757234E5,4.2264585E3,2.6632904E4,7.433937E3,3.0737291E4,4.4611043E4,7.498894E4,2.0119848E4,9.678961E3,6.8859116E3,9.7545123E2,1.8569246E3,2.5982344E3,7.740263E1,6.1356285E4,5.740095E4,1.1072976E3,3.1191611E3,2.117292E4,5.459984E3,2.785401E3,4.648536E3,4.984102E3,2.575319E4,2.6285295E4,1.8325748E4,7.493488E4,5.4054985E1,1.2716159E4,7.403688E3,5.1815684E3,4.4973926E3,6.171066E3,7.148457E2,1.3675462E2,8.386966E2,1.3722976E3,4.8462698E2,2.4404211E3,1.5781343E2,4.3796597E1,3.3606033E1,3.678638E4,2.4569908E4,7.5766733E3,4.9824273E4,1.3291252E2,9.743851E2,1.0347387E1,3.1088137E3],"tree_param":{"num_deleted":"0","num_feature":"19","num_nodes":"63","size_leaf_vector":"1"}},{"base_weights":[3.116259E-4,-6.406748E-1,1.1375929E0,-2.5226408E-1,-1.0244894E0,1.0036207E0,1.2280624E0,-1.1160151E0,8.157381E-2,-1.255045E0,-8.811097E-1,1.2029496E0,3.5076118E-1,1.2444115E0,1.1750364E0,-1.2318174E0,-6.809632E-1,6.229862E-1,-2.9136148E-1,-1.2568654E0,1.5376887E-1,-1.049843E0,-4.6005183E-1,-9.1146994E-1,1.2571858E0,-8.456397E-1,8.280942E-1,1.2335695E0,6.320673E-2,1.2235761E0,1.0817059E0,8.060286E-3,-6.2394E-2,-1.5576804E-2,-6.0425032E-2,-7.2713085E-2,5.1650178E-2,-4.5739885E-2,2.4577005E-2,-6.3093126E-2,-1.4157019E-2,-4.410144E-3,-5.6867342E-2,-5.783992E-2,-1.0795268E-2,-8.826646E-2,1.8239822E-2,3.197767E-2,6.366894E-2,-5.497923E-2,9.790463E-3,5.065718E-2,-7.1288045E-3,6.0561504E-2,6.255485E-2,6.0729768E-2,6.5803155E-2,5.6290746E-2,-8.295236E-2],"categories":[],"categories_nodes":[],"categories_segments":[],"categories_sizes":[],"default_left":[0,0,0,0,0,0,0,0,0,0,0,0,0,0,0,0,0,0,0,0,0,0,0,0,0,0,0,0,0,0,0,0,0,0,0,0,0,0,0,0,0,0,0,0,0,0,0,0,0,0,0,0,0,0,0,0,0,0,0],"id":18,"left_children":[1,3,5,7,9,11,13,15,17,19,21,23,25,27,29,31,33,35,37,39,-1,41,43,45,47,49,51,53,-1,55,57,-1,-1,-1,-1,-1,-1,-1,-1,-1,-1,-1,-1,-1,-1,-1,-1,-1,-1,-1,-1,-1,-1,-1,-1,-1,-1,-1,-1],"loss_changes":[2.4810581E5,3.2448914E4,1.4857031E3,3.1196018E4,3.6179922E3,6.4354688E3,6.2007812E1,1.5185195E3,1.5755288E4,3.3477344E2,4.795535E3,4.3460312E3,6.607704E3,1.040625E1,7.692969E1,5.331211E2,1.2356235E3,2.7108213E4,2.2552299E4,2.038125E2,0E0,4.0551133E3,3.2852793E3,1.033857E3,3.6864062E2,8.7295386E2,1.4856787E3,1.26328125E1,0E0,7.8339844E0,7.174077E2,0E0,0E0,0E0,0E0,0E0,0E0,0E0,0E0,0E0,0E0,0E0,0E0,0E0,0E0,0E0,0E0,0E0,0E0,0E0,0E0,0E0,0E0,0E0,0E0,0E0,0E0,0E0,0E0],"parents":[2147483647,0,0,1,1,2,2,3,3,4,4,5,5,6,6,7,7,8,8,9,9,10,10,11,11,12,12,13,13,14,14,15,15,16,16,17,17,18,18,19,19,21,21,22,22,23,23,24,24,25,25,26,26,27,27,29,29,30,30],"right_children":[2,4,6,8,10,12,14,16,18,20,22,24,26,28,30,32,34,36,38,40,-1,42,44,46,48,50,52,54,-1,56,58,-1,-1,-1,-1,-1,-1,-1,-1,-1,-1,-1,-1,-1,-1,-1,-1,-1,-1,-1,-1,-1,-1,-1,-1,-1,-1,-1,-1],"split_conditions":[1.5185881E0,-2.0171076E-1,2.2702136E0,-1.170124E0,4E0,4E0,7E0,1.1E1,6E0,5E1,8.4375834E-1,1E0,8E0,6.7E2,2.5633366E0,8E0,-2.489941E-1,3E0,-4.9393615E-1,8.89E2,1.5376887E-1,5E0,8E0,2.0904214E0,1.5904278E0,3.96E2,1.9561851E0,1E0,6.320673E-2,1.2E1,8E0,8.060286E-3,-6.2394E-2,-1.5576804E-2,-6.0425032E-2,-7.2713085E-2,5.1650178E-2,-4.5739885E-2,2.4577005E-2,-6.3093126E-2,-1.4157019E-2,-4.410144E-3,-5.6867342E-2,-5.783992E-2,-1.0795268E-2,-8.826646E-2,1.8239822E-2,3.197767E-2,6.366894E-2,-5.497923E-2,9.790463E-3,5.065718E-2,-7.1288045E-3,6.0561504E-2,6.255485E-2,6.0729768E-2,6.5803155E-2,5.6290746E-2,-8.295236E-2],"split_indices":[2,2,2,2,1,1,1,1,1,6,2,1,1,4,2,0,10,1,2,7,0,1,1,2,2,0,2,3,0,1,1,0,0,0,0,0,0,0,0,0,0,0,0,0,0,0,0,0,0,0,0,0,0,0,0,0,0,0,0],"split_type":[0,0,0,0,0,0,0,0,0,0,0,0,0,0,0,0,0,0,0,0,0,0,0,0,0,0,0,0,0,0,0,0,0,0,0,0,0,0,0,0,0,0,0,0,0,0,0,0,0,0,0,0,0,0,0,0,0,0,0],"sum_hessian":[3.4034362E5,2.1766516E5,1.2267847E5,1.0818566E5,1.094795E5,4.945497E4,7.32235E4,3.0157004E4,7.802866E4,4.197526E4,6.750424E4,3.7886688E4,1.1568281E4,5.5950297E4,1.7273203E4,2.3815857E4,6.3411465E3,3.18253E4,4.6203355E4,4.1958332E4,1.6928501E1,4.819089E4,1.9313348E4,9.4711774E2,3.693957E4,3.298944E3,8.269338E3,3.6144797E4,1.98055E4,1.1355367E4,5.9178364E3,2.713816E2,2.3544475E4,3.7303938E3,2.6107524E3,5.2458755E3,2.6579424E4,2.5721094E4,2.048226E4,4.174381E4,2.1452362E2,4.0195278E3,4.4171363E4,5.010531E3,1.4302817E4,5.672367E2,3.7988104E2,9.447617E2,3.599481E4,2.6521846E3,6.467593E2,6.9452466E3,1.3240912E3,1.5921846E4,2.0222951E4,1.0363203E4,9.921643E2,5.8246846E3,9.3151855E1],"tree_param":{"num_deleted":"0","num_feature":"19","num_nodes":"59","size_leaf_vector":"1"}},{"base_weights":[1.9145329E-3,-6.33334E-1,1.1084765E0,-8.3958626E-1,1.7693855E-1,5.157741E-1,1.1349293E0,-1.8011883E-1,-1.0360937E0,4.4453943E-1,-2.8360543E-1,-2.0332964E-1,1.1888394E0,1.157715E0,5.480319E-1,5.287504E-1,-1.0875001E0,-8.6289376E-1,-1.1729015E0,-8.6136535E-2,1.0238677E0,2.5120145E-1,-1.0568287E0,4.5777056E-1,-1.0019935E0,1.3023617E0,2.8116912E-2,1.0871847E0,1.2357762E0,-1.060447E0,1.1169548E0,-8.050424E-2,3.8069338E-2,-6.1528105E-2,2.9105887E-2,-5.959257E-2,-2.943552E-2,-6.2143262E-2,-5.6545507E-2,-2.8280346E-2,2.7626267E-2,5.5859435E-2,-8.8239E-2,-6.63278E-2,2.5892884E-2,-6.869839E-2,6.0151573E-2,-4.3052744E-2,4.2248845E-2,-5.921027E-2,5.816849E-2,-8.991613E-2,6.5626964E-2,-6.695706E-2,5.4231174E-2,6.099363E-2,4.353438E-2,5.835518E-2,6.235029E-2,5.6500085E-2,-8.062321E-2,-1.1526026E-1,5.653285E-2],"categories":[],"categories_nodes":[],"categories_segments":[],"categories_sizes":[],"default_left":[0,0,0,0,0,0,0,0,0,0,0,0,0,0,0,0,0,0,0,0,0,0,0,0,0,0,0,0,0,0,0,0,0,0,0,0,0,0,0,0,0,0,0,0,0,0,0,0,0,0,0,0,0,0,0,0,0,0,0,0,0,0,0],"id":19,"left_children":[1,3,5,7,9,11,13,15,17,19,21,23,25,27,29,31,33,35,37,39,41,43,45,47,49,51,53,55,57,59,61,-1,-1,-1,-1,-1,-1,-1,-1,-1,-1,-1,-1,-1,-1,-1,-1,-1,-1,-1,-1,-1,-1,-1,-1,-1,-1,-1,-1,-1,-1,-1,-1],"loss_changes":[2.3365933E5,3.5291508E4,1.900125E3,2.1813266E4,5.280763E3,2.5079778E3,1.55125E3,2.4857057E4,3.0718438E3,8.331939E3,6.512293E3,1.323513E3,3.526311E2,6.137031E2,3.971775E3,1.0796489E4,4.0491875E3,5.161461E3,2.1144531E2,4.3319136E3,3.3738154E3,3.917485E3,4.6162944E3,7.0117395E2,4.492544E2,7.92959E1,3.4736368E2,1.6850391E3,3.9429688E1,1.3732826E3,1.5292725E2,0E0,0E0,0E0,0E0,0E0,0E0,0E0,0E0,0E0,0E0,0E0,0E0,0E0,0E0,0E0,0E0,0E0,0E0,0E0,0E0,0E0,0E0,0E0,0E0,0E0,0E0,0E0,0E0,0E0,0E0,0E0,0E0],"parents":[2147483647,0,0,1,1,2,2,3,3,4,4,5,5,6,6,7,7,8,8,9,9,10,10,11,11,12,12,13,13,14,14,15,15,16,16,17,17,18,18,19,19,20,20,21,21,22,22,23,23,24,24,25,25,26,26,27,27,28,28,29,29,30,30],"right_children":[2,4,6,8,10,12,14,16,18,20,22,24,26,28,30,32,34,36,38,40,42,44,46,48,50,52,54,56,58,60,62,-1,-1,-1,-1,-1,-1,-1,-1,-1,-1,-1,-1,-1,-1,-1,-1,-1,-1,-1,-1,-1,-1,-1,-1,-1,-1,-1,-1,-1,-1,-1,-1],"split_conditions":[1.4692941E0,1.3489168E0,1.5904278E0,-1.2920247E0,-1.6406485E-1,1.1E1,1.1E1,-2.4096623E-1,-2.2139232E-1,-5.196733E-1,1E1,2E0,2.958979E-1,1.3489168E0,1.2E1,3E0,8E0,-1.0594612E0,4E0,1.1E1,1.3E1,3E0,1.3286124E0,1.5185881E0,8.63E2,-1.9077656E0,1.3489168E0,-1.2920247E0,2.0904214E0,1.7936189E0,-1.56043E0,-8.050424E-2,3.8069338E-2,-6.1528105E-2,2.9105887E-2,-5.959257E-2,-2.943552E-2,-6.2143262E-2,-5.6545507E-2,-2.8280346E-2,2.7626267E-2,5.5859435E-2,-8.8239E-2,-6.63278E-2,2.5892884E-2,-6.869839E-2,6.0151573E-2,-4.3052744E-2,4.2248845E-2,-5.921027E-2,5.816849E-2,-8.991613E-2,6.5626964E-2,-6.695706E-2,5.4231174E-2,6.099363E-2,4.353438E-2,5.835518E-2,6.235029E-2,5.6500085E-2,-8.062321E-2,-1.1526026E-1,5.653285E-2],"split_indices":[2,15,2,15,2,1,1,2,2,2,1,1,14,15,1,1,1,2,1,1,1,1,2,2,7,12,15,15,2,2,16,0,0,0,0,0,0,0,0,0,0,0,0,0,0,0,0,0,0,0,0,0,0,0,0,0,0,0,0,0,0,0,0],"split_type":[0,0,0,0,0,0,0,0,0,0,0,0,0,0,0,0,0,0,0,0,0,0,0,0,0,0,0,0,0,0,0,0,0,0,0,0,0,0,0,0,0,0,0,0,0,0,0,0,0,0,0,0,0,0,0,0,0,0,0,0,0,0,0],"sum_hessian":[3.3240006E5,2.1117208E5,1.21227984E5,1.6832536E5,4.284672E4,5.180232E3,1.1604775E5,3.864315E4,1.296822E5,2.7100123E4,1.5746598E4,2.5047996E3,2.6754321E3,1.1170979E5,4.337967E3,2.1694934E4,1.6948217E4,5.7232543E4,7.2449664E4,1.4144416E4,1.2955707E4,9.308774E3,6.437823E3,1.3706556E3,1.1341438E3,2.4369673E3,2.3846494E2,5.869362E4,5.3016168E4,1.1332208E3,3.2047458E3,2.127646E3,1.9567287E4,1.5610855E4,1.3373612E3,2.6015967E4,3.1216576E4,2.716323E4,4.5286434E4,8.0791626E3,6.0652534E3,1.2536769E4,4.1893832E2,1.345242E3,7.9635327E3,5.6458945E3,7.9192865E2,3.1081058E2,1.0598451E3,1.0465328E3,8.761098E1,7.3979917E0,2.4295693E3,1.0382903E2,1.346359E2,3.6387574E4,2.2306045E4,7.4657495E3,4.5550418E4,2.2788957E2,9.0533124E2,1.2113569E1,3.1926323E3],"tree_param":{"num_deleted":"0","num_feature":"19","num_nodes":"63","size_leaf_vector":"1"}},{"base_weights":[1.0072397E-3,-3.3276314E-1,7.6360005E-1,4.945652E-1,-7.4059147E-1,9.7875005E-1,4.3019968E-1,4.4199818E-1,1.1608872E0,-7.771736E-1,6.944565E-1,6.610911E-1,1.239534E0,6.174178E-1,4.4823606E-2,6.1757386E-1,1.7870888E-1,8.4328216E-1,1.2427356E0,-6.2607014E-1,-9.380677E-1,7.646365E-2,8.9264375E-1,1.0281403E-1,9.2660695E-1,1.1391623E0,1.3037252E0,7.3006153E-1,-6.45227E-2,-2.7954398E-2,1.4721537E0,2.509377E-2,5.5636104E-2,2.1480579E-2,-5.2503712E-2,4.576979E-2,-1.7408505E-2,8.16937E-2,6.14792E-2,-3.855723E-2,-1.8193336E-2,-4.7385238E-2,6.251829E-2,2.6853621E-2,-5.8064014E-2,5.23778E-2,7.90023E-3,3.6288075E-2,-1.33518865E-2,5.5788107E-2,3.671167E-2,6.1999686E-2,2.868833E-2,8.891162E-2,6.204006E-2,-1.2874196E-2,3.862564E-2,-1.3576559E-2,7.354673E-2,5.347393E-3,-3.6874603E-2,7.687065E-2,-8.1723325E-2],"categories":[],"categories_nodes":[],"categories_segments":[],"categories_sizes":[],"default_left":[0,0,0,0,0,0,0,0,0,0,0,0,0,0,0,0,0,0,0,0,0,0,0,0,0,0,0,0,0,0,0,0,0,0,0,0,0,0,0,0,0,0,0,0,0,0,0,0,0,0,0,0,0,0,0,0,0,0,0,0,0,0,0],"id":20,"left_children":[1,3,5,7,9,11,13,15,17,19,21,23,25,27,29,31,33,35,37,39,41,43,45,47,49,51,53,55,57,59,61,-1,-1,-1,-1,-1,-1,-1,-1,-1,-1,-1,-1,-1,-1,-1,-1,-1,-1,-1,-1,-1,-1,-1,-1,-1,-1,-1,-1,-1,-1,-1,-1],"loss_changes":[8.239154E4,7.596925E4,7.068336E3,2.603463E3,7.91775E3,4.9607773E3,2.7887456E3,3.185329E3,1.4025098E2,3.574789E3,4.591588E2,4.0028008E3,2.1042578E2,1.9983926E3,1.3129757E3,2.3677188E3,8.500236E3,9.627887E1,2.0211914E1,2.8846914E3,1.5032812E3,5.203114E2,3.2291577E2,2.0057827E3,6.651084E2,7.311426E2,5.965586E2,9.361904E2,1.172913E3,1.1512781E3,1.268324E2,0E0,0E0,0E0,0E0,0E0,0E0,0E0,0E0,0E0,0E0,0E0,0E0,0E0,0E0,0E0,0E0,0E0,0E0,0E0,0E0,0E0,0E0,0E0,0E0,0E0,0E0,0E0,0E0,0E0,0E0,0E0,0E0],"parents":[2147483647,0,0,1,1,2,2,3,3,4,4,5,5,6,6,7,7,8,8,9,9,10,10,11,11,12,12,13,13,14,14,15,15,16,16,17,17,18,18,19,19,20,20,21,21,22,22,23,23,24,24,25,25,26,26,27,27,28,28,29,29,30,30],"right_children":[2,4,6,8,10,12,14,16,18,20,22,24,26,28,30,32,34,36,38,40,42,44,46,48,50,52,54,56,58,60,62,-1,-1,-1,-1,-1,-1,-1,-1,-1,-1,-1,-1,-1,-1,-1,-1,-1,-1,-1,-1,-1,-1,-1,-1,-1,-1,-1,-1,-1,-1,-1,-1],"split_conditions":[1.3489168E0,-1.2920247E0,8E0,8.84E2,8.91E2,2.3845756E-1,1E0,2.3845756E-1,9E2,3.47E2,9E2,1E0,3E0,7.5542074E-1,9E2,6E0,6E0,1.3796941E0,8E0,2.958979E-1,8.19E2,3.74E2,1.0880849E0,-1.1975513E0,-1.7380491E-1,2E0,6E0,-1.2549917E0,8.84E2,1.3E1,1.1236367E0,2.509377E-2,5.5636104E-2,2.1480579E-2,-5.2503712E-2,4.576979E-2,-1.7408505E-2,8.16937E-2,6.14792E-2,-3.855723E-2,-1.8193336E-2,-4.7385238E-2,6.251829E-2,2.6853621E-2,-5.8064014E-2,5.23778E-2,7.90023E-3,3.6288075E-2,-1.33518865E-2,5.5788107E-2,3.671167E-2,6.1999686E-2,2.868833E-2,8.891162E-2,6.204006E-2,-1.2874196E-2,3.862564E-2,-1.3576559E-2,7.354673E-2,5.347393E-3,-3.6874603E-2,7.687065E-2,-8.1723325E-2],"split_indices":[15,15,1,4,4,14,3,14,4,0,4,3,1,14,4,1,1,18,0,14,5,0,8,14,10,1,1,14,4,1,8,0,0,0,0,0,0,0,0,0,0,0,0,0,0,0,0,0,0,0,0,0,0,0,0,0,0,0,0,0,0,0,0],"split_type":[0,0,0,0,0,0,0,0,0,0,0,0,0,0,0,0,0,0,0,0,0,0,0,0,0,0,0,0,0,0,0,0,0,0,0,0,0,0,0,0,0,0,0,0,0,0,0,0,0,0,0,0,0,0,0,0,0,0,0,0,0,0,0],"sum_hessian":[3.236976E5,2.251534E5,9.854421E4,7.434187E4,1.5081153E5,5.9892457E4,3.8651754E4,6.8907336E4,5.434527E3,1.4706308E5,3.7484568E3,2.7003383E4,3.2889074E4,2.6013584E4,1.2638168E4,4.1338934E4,2.7568406E4,1.1158562E3,4.318671E3,7.584152E4,7.122155E4,9.105478E2,2.8379092E3,8.70388E3,1.8299504E4,1.2836372E4,2.0052701E4,2.2325725E4,3.6878591E3,1.2025958E4,6.1221E2,3.351069E4,7.8282407E3,2.2894312E4,4.6740923E3,1.0523911E3,6.3465084E1,1.3647836E2,4.1821924E3,4.8825133E4,2.7016395E4,7.090985E4,3.1169498E2,6.640115E2,2.4653633E2,2.3433452E3,4.9456396E2,3.2421353E3,5.4617446E3,9.224516E3,9.074987E3,1.0892615E4,1.9437566E3,2.3446362E3,1.7708064E4,9.1994366E2,2.1405781E4,3.2504592E3,4.373998E2,1.0105482E4,1.9204757E3,6.0010895E2,1.21010895E1],"tree_param":{"num_deleted":"0","num_feature":"19","num_nodes":"63","size_leaf_vector":"1"}},{"base_weights":[1.9491402E-3,-6.093604E-1,1.0802383E0,-2.3937668E-1,-9.9953306E-1,4.9396136E-1,1.106929E0,-1.032924E0,9.208519E-2,-1.1268477E0,-6.8426585E-1,2.3806179E-1,7.962412E-1,9.855698E-1,1.1843309E0,-1.1348606E0,-6.241179E-1,4.014346E-2,1.3310304E0,-1.2143298E0,-9.4236696E-1,-4.6220678E-1,-9.605892E-1,3.679069E-1,-9.587597E-1,8.3445805E-1,-1.7539865E0,1.0701255E0,4.1475862E-1,1.1704113E0,1.2178586E0,-6.2330075E-2,-4.7319945E-2,-9.559154E-3,-4.6266895E-2,-8.123769E-3,1.8240564E-2,6.7146555E-2,-7.917905E-2,-6.078549E-2,1.0049188E-1,-2.8876318E-2,-6.232446E-2,-2.5036106E-2,7.2419524E-2,-5.2533906E-2,1.3238908E-3,2.1165688E-2,-8.5845314E-2,-8.53324E-2,3.0866548E-2,9.1305435E-2,3.7177186E-2,-6.708224E-2,-9.742346E-2,5.5794794E-2,4.0940654E-2,2.2237652E-3,3.0628031E-2,5.7108354E-2,5.9781995E-2,6.286564E-2,6.0697753E-2],"categories":[],"categories_nodes":[],"categories_segments":[],"categories_sizes":[],"default_left":[0,0,0,0,0,0,0,0,0,0,0,0,0,0,0,0,0,0,0,0,0,0,0,0,0,0,0,0,0,0,0,0,0,0,0,0,0,0,0,0,0,0,0,0,0,0,0,0,0,0,0,0,0,0,0,0,0,0,0,0,0,0,0],"id":21,"left_children":[1,3,5,7,9,11,13,15,17,19,21,23,25,27,29,31,33,35,37,39,41,43,45,47,49,51,53,55,57,59,61,-1,-1,-1,-1,-1,-1,-1,-1,-1,-1,-1,-1,-1,-1,-1,-1,-1,-1,-1,-1,-1,-1,-1,-1,-1,-1,-1,-1,-1,-1,-1,-1],"loss_changes":[2.1003106E5,2.93545E4,1.8034062E3,2.7454027E4,3.9718203E3,3.8824768E2,1.0345781E3,1.2808086E3,4.737879E3,1.1366406E3,1.7466895E3,4.2317725E2,2.2579529E2,2.0722852E3,2.9992188E1,5.171504E2,8.0052075E2,4.648525E3,1.0487988E2,2.1521094E2,2.5160254E3,1.1625779E3,1.1280918E3,2.8434293E2,3.1527728E2,2.0315405E2,1.3697815E-1,4.2932812E2,4.0590955E2,3.255078E1,1.5097656E0,0E0,0E0,0E0,0E0,0E0,0E0,0E0,0E0,0E0,0E0,0E0,0E0,0E0,0E0,0E0,0E0,0E0,0E0,0E0,0E0,0E0,0E0,0E0,0E0,0E0,0E0,0E0,0E0,0E0,0E0,0E0,0E0],"parents":[2147483647,0,0,1,1,2,2,3,3,4,4,5,5,6,6,7,7,8,8,9,9,10,10,11,11,12,12,13,13,14,14,15,15,16,16,17,17,18,18,19,19,20,20,21,21,22,22,23,23,24,24,25,25,26,26,27,27,28,28,29,29,30,30],"right_children":[2,4,6,8,10,12,14,16,18,20,22,24,26,28,30,32,34,36,38,40,42,44,46,48,50,52,54,56,58,60,62,-1,-1,-1,-1,-1,-1,-1,-1,-1,-1,-1,-1,-1,-1,-1,-1,-1,-1,-1,-1,-1,-1,-1,-1,-1,-1,-1,-1,-1,-1,-1,-1],"split_conditions":[1.4692941E0,-1.6406485E-1,1.5904278E0,-1.1262712E0,8.4375834E-1,5.5E2,2.2702136E0,-1.2319958E0,8.89E2,3.5333827E-1,1.0607105E0,7.269669E-1,1.6170261E0,1.9561851E0,7.16E2,4.107786E-1,-3.3637455E-1,-4.9393615E-1,1.3937144E0,5E1,3.5822007E-1,8.89E2,1.4339216E0,5.07E2,1.713068E0,5.55E2,1.5185881E0,1.7936189E0,4.12E2,1E0,7.02E2,-6.2330075E-2,-4.7319945E-2,-9.559154E-3,-4.6266895E-2,-8.123769E-3,1.8240564E-2,6.7146555E-2,-7.917905E-2,-6.078549E-2,1.0049188E-1,-2.8876318E-2,-6.232446E-2,-2.5036106E-2,7.2419524E-2,-5.2533906E-2,1.3238908E-3,2.1165688E-2,-8.5845314E-2,-8.53324E-2,3.0866548E-2,9.1305435E-2,3.7177186E-2,-6.708224E-2,-9.742346E-2,5.5794794E-2,4.0940654E-2,2.2237652E-3,3.0628031E-2,5.7108354E-2,5.9781995E-2,6.286564E-2,6.0697753E-2],"split_indices":[2,2,2,2,2,7,2,2,7,14,2,12,14,2,4,14,17,2,13,6,2,7,2,7,12,4,2,2,4,3,7,0,0,0,0,0,0,0,0,0,0,0,0,0,0,0,0,0,0,0,0,0,0,0,0,0,0,0,0,0,0,0,0],"split_type":[0,0,0,0,0,0,0,0,0,0,0,0,0,0,0,0,0,0,0,0,0,0,0,0,0,0,0,0,0,0,0,0,0,0,0,0,0,0,0,0,0,0,0,0,0,0,0,0,0,0,0,0,0,0,0,0,0,0,0,0,0,0,0],"sum_hessian":[3.186283E5,2.0334647E5,1.15281836E5,1.043744E5,9.897207E4,5.020598E3,1.1026124E5,3.0751244E4,7.362316E4,7.0499586E4,2.847248E4,2.7198533E3,2.3007449E3,4.2943492E4,6.731775E4,2.4612332E4,6.138913E3,7.066176E4,2.961402E3,4.7818246E4,2.268134E4,1.5787774E4,1.2684707E4,2.4542773E3,2.6557596E2,2.2674387E3,3.330627E1,3.7402145E4,5.541346E3,4.759411E4,1.9723639E4,1.5447653E4,9.164678E3,2.5194355E3,3.6194775E3,4.3509082E4,2.7152672E4,2.9498965E3,1.1505521E1,4.779841E4,1.9836279E1,1.0312654E4,1.2368687E4,1.5476524E4,3.1125E2,1.1623749E4,1.0609573E3,2.3915164E3,6.2760937E1,1.8005379E2,8.5522156E1,1.8881787E2,2.0786208E3,1.3205832E1,2.010044E1,3.1636826E4,5.7653193E3,1.9298715E3,3.6114746E3,2.2476709E4,2.5117398E4,1.7467892E3,1.797685E4],"tree_param":{"num_deleted":"0","num_feature":"19","num_nodes":"63","size_leaf_vector":"1"}},{"base_weights":[2.2557181E-4,-5.844376E-1,1.0586972E0,-2.0679441E-1,-9.8601E-1,9.13083E-1,1.1654371E0,-9.934121E-1,1.0368288E-1,-1.2126087E0,-8.464263E-1,1.1221776E0,3.3838835E-1,1.1822987E0,1.1141586E0,-1.1193768E0,-5.353149E-1,6.269915E-1,-2.62347E-1,-1.214617E0,1.40629E-1,-9.891988E-1,-4.2473885E-1,-8.608333E-1,1.1847411E0,-9.210633E-1,8.171506E-1,1.1667562E0,1.2005937E0,1.1664548E0,1.0063195E0,-6.086839E-2,-2.9662928E-2,-5.409742E-3,-6.053358E-2,-6.992542E-2,5.010593E-2,-7.210507E-2,5.5189664E-3,-3.8496926E-2,-6.0833734E-2,-5.222755E-3,-5.357337E-2,-5.739796E-2,-8.953196E-3,-8.609308E-2,2.1898786E-2,1.6827459E-2,6.09554E-2,-6.1776664E-2,1.1727819E-2,4.875676E-2,-8.434873E-3,5.867329E-2,5.4146577E-2,6.064656E-2,5.9540797E-2,2.8191645E-2,5.8398515E-2,5.250479E-2,-7.857392E-2],"categories":[],"categories_nodes":[],"categories_segments":[],"categories_sizes":[],"default_left":[0,0,0,0,0,0,0,0,0,0,0,0,0,0,0,0,0,0,0,0,0,0,0,0,0,0,0,0,0,0,0,0,0,0,0,0,0,0,0,0,0,0,0,0,0,0,0,0,0,0,0,0,0,0,0,0,0,0,0,0,0],"id":22,"left_children":[1,3,5,7,9,11,13,15,17,19,21,23,25,27,29,31,33,35,37,39,-1,41,43,45,47,49,51,53,55,57,59,-1,-1,-1,-1,-1,-1,-1,-1,-1,-1,-1,-1,-1,-1,-1,-1,-1,-1,-1,-1,-1,-1,-1,-1,-1,-1,-1,-1,-1,-1],"loss_changes":[1.9256789E5,3.039818E4,1.7198672E3,2.5229686E4,3.0716719E3,5.627832E3,5.390625E1,1.6863789E3,1.4187986E4,3.027422E2,3.6190664E3,4.2615977E3,7.535783E3,1.2265625E1,8.808008E1,1.1813809E3,1.8191868E3,2.3164977E4,1.9165686E4,3.2929688E1,0E0,3.268879E3,2.7019133E3,1.1760049E3,9.7004297E2,1.251279E3,1.4104663E3,1.3359375E1,1.2167969E0,9.068359E0,5.8570654E2,0E0,0E0,0E0,0E0,0E0,0E0,0E0,0E0,0E0,0E0,0E0,0E0,0E0,0E0,0E0,0E0,0E0,0E0,0E0,0E0,0E0,0E0,0E0,0E0,0E0,0E0,0E0,0E0,0E0,0E0],"parents":[2147483647,0,0,1,1,2,2,3,3,4,4,5,5,6,6,7,7,8,8,9,9,10,10,11,11,12,12,13,13,14,14,15,15,16,16,17,17,18,18,19,19,21,21,22,22,23,23,24,24,25,25,26,26,27,27,28,28,29,29,30,30],"right_children":[2,4,6,8,10,12,14,16,18,20,22,24,26,28,30,32,34,36,38,40,-1,42,44,46,48,50,52,54,56,58,60,-1,-1,-1,-1,-1,-1,-1,-1,-1,-1,-1,-1,-1,-1,-1,-1,-1,-1,-1,-1,-1,-1,-1,-1,-1,-1,-1,-1,-1,-1],"split_conditions":[1.4692941E0,-2.0171076E-1,2.2702136E0,-1.1409445E0,4E0,4E0,7E0,1.1E1,6E0,5E1,8.9185417E-1,1E0,8E0,5.74E2,2.5633366E0,-1.2166035E0,-2.489941E-1,3E0,9E0,-2.5321755E0,1.40629E-1,5E0,8E0,2.0904214E0,1.5904278E0,3.96E2,1.9561851E0,1.4154743E0,-1.7380491E-1,-2.2611377E0,1.1E1,-6.086839E-2,-2.9662928E-2,-5.409742E-3,-6.053358E-2,-6.992542E-2,5.010593E-2,-7.210507E-2,5.5189664E-3,-3.8496926E-2,-6.0833734E-2,-5.222755E-3,-5.357337E-2,-5.739796E-2,-8.953196E-3,-8.609308E-2,2.1898786E-2,1.6827459E-2,6.09554E-2,-6.1776664E-2,1.1727819E-2,4.875676E-2,-8.434873E-3,5.867329E-2,5.4146577E-2,6.064656E-2,5.9540797E-2,2.8191645E-2,5.8398515E-2,5.250479E-2,-7.857392E-2],"split_indices":[2,2,2,2,1,1,1,1,1,6,2,1,1,4,2,2,10,1,1,13,0,1,1,2,2,0,2,17,10,12,1,0,0,0,0,0,0,0,0,0,0,0,0,0,0,0,0,0,0,0,0,0,0,0,0,0,0,0,0,0,0],"split_type":[0,0,0,0,0,0,0,0,0,0,0,0,0,0,0,0,0,0,0,0,0,0,0,0,0,0,0,0,0,0,0,0,0,0,0,0,0,0,0,0,0,0,0,0,0,0,0,0,0,0,0,0,0,0,0,0,0,0,0,0,0],"sum_hessian":[3.1116884E5,2.0044847E5,1.1072036E5,1.0330284E5,9.714563E4,4.6836137E4,6.388422E4,2.9234027E4,7.406882E4,3.7027652E4,6.0117977E4,3.4340773E4,1.2495363E4,4.8059168E4,1.5825052E4,2.292799E4,6.306037E3,3.0484611E4,4.3584207E4,3.7009887E4,1.7767061E1,4.4910945E4,1.520703E4,1.0499155E3,3.329086E4,3.4413867E3,9.053978E3,2.6019293E4,2.2039877E4,1.065038E4,5.1746714E3,1.932697E4,3.6010193E3,3.8636714E3,2.442366E3,4.763164E3,2.5721447E4,1.0463197E4,3.3121008E4,1.7219289E2,3.683769E4,3.8209937E3,4.1089953E4,3.8549922E3,1.1352038E4,6.311664E2,4.1874915E2,1.2967671E3,3.1994092E4,2.7051782E3,7.3620856E2,7.803464E3,1.2505132E3,2.407894E4,1.940353E3,9.690078E3,1.2349798E4,2.7653872E1,1.0622727E4,5.0888447E3,8.582637E1],"tree_param":{"num_deleted":"0","num_feature":"19","num_nodes":"61","size_leaf_vector":"1"}},{"base_weights":[-4.200412E-3,-5.7816285E-1,1.0398932E0,-7.820382E-1,1.7783408E-1,8.9008087E-1,1.1496795E0,-1.5251927E-1,-9.792436E-1,2.820017E-1,-9.153495E-1,1.1038587E0,2.9806805E-1,1.0791081E0,1.1909229E0,5.0807565E-1,-1.0478685E0,-8.1194955E-1,-1.1179329E0,-1.3272853E0,3.7060124E-1,-1.4719081E0,1.3182064E0,-8.425453E-1,1.1663146E0,-8.5226643E-1,7.5486827E-1,1.1716354E0,9.9846023E-1,1.1785845E0,1.1989115E0,-7.6746605E-2,3.6484472E-2,-6.0089525E-2,2.9956207E-2,-5.6165185E-2,-2.8470064E-2,-5.9669137E-2,-5.365439E-2,-7.0223294E-2,-6.4058505E-2,2.5714561E-2,-1.1026523E-2,-8.415847E-2,-6.746015E-2,7.443639E-2,-8.9990206E-2,-7.860796E-2,4.0516373E-2,-4.2199392E-2,5.9288632E-2,-5.809475E-2,4.9538626E-3,4.6441697E-2,-1.9592281E-2,5.8856018E-2,-1.4904657E-1,4.2374544E-2,5.677327E-2,5.6389686E-2,5.969081E-2,5.998195E-2,5.569774E-2],"categories":[],"categories_nodes":[],"categories_segments":[],"categories_sizes":[],"default_left":[0,0,0,0,0,0,0,0,0,0,0,0,0,0,0,0,0,0,0,0,0,0,0,0,0,0,0,0,0,0,0,0,0,0,0,0,0,0,0,0,0,0,0,0,0,0,0,0,0,0,0,0,0,0,0,0,0,0,0,0,0,0,0],"id":23,"left_children":[1,3,5,7,9,11,13,15,17,19,21,23,25,27,29,31,33,35,37,39,41,43,45,47,49,51,53,55,57,59,61,-1,-1,-1,-1,-1,-1,-1,-1,-1,-1,-1,-1,-1,-1,-1,-1,-1,-1,-1,-1,-1,-1,-1,-1,-1,-1,-1,-1,-1,-1,-1,-1],"loss_changes":[1.8111308E5,3.0057977E4,1.7622266E3,1.9067953E4,4.7171787E3,5.7381875E3,1.7878125E2,2.1671566E4,2.7127188E3,5.392843E3,4.481962E3,4.0506172E3,6.322518E3,1.691875E2,2.4335938E0,9.547332E3,3.944336E3,4.0030078E3,2.1507031E2,5.2250977E0,3.0449092E3,7.252832E1,3.8518372E2,1.2509839E3,1.263582E3,1.0075281E3,1.7183223E3,2.4553125E2,2.5146875E2,1.0566406E1,1.25E-1,0E0,0E0,0E0,0E0,0E0,0E0,0E0,0E0,0E0,0E0,0E0,0E0,0E0,0E0,0E0,0E0,0E0,0E0,0E0,0E0,0E0,0E0,0E0,0E0,0E0,0E0,0E0,0E0,0E0,0E0,0E0,0E0],"parents":[2147483647,0,0,1,1,2,2,3,3,4,4,5,5,6,6,7,7,8,8,9,9,10,10,11,11,12,12,13,13,14,14,15,15,16,16,17,17,18,18,19,19,20,20,21,21,22,22,23,23,24,24,25,25,26,26,27,27,28,28,29,29,30,30],"right_children":[2,4,6,8,10,12,14,16,18,20,22,24,26,28,30,32,34,36,38,40,42,44,46,48,50,52,54,56,58,60,62,-1,-1,-1,-1,-1,-1,-1,-1,-1,-1,-1,-1,-1,-1,-1,-1,-1,-1,-1,-1,-1,-1,-1,-1,-1,-1,-1,-1,-1,-1,-1,-1],"split_conditions":[1.4692941E0,1.3489168E0,2.2702136E0,-1.2920247E0,1.3E1,4E0,1.3489168E0,-2.0171076E-1,-2.2139232E-1,3E0,1.2234898E0,1E0,8E0,-1.2920247E0,1.810172E-1,3E0,8E0,-1.0594612E0,4E0,-1.6406485E-1,3.6548555E-1,-2.0171076E-1,2.3845756E-1,7.620409E-1,1.5185881E0,1.2021978E0,1.9561851E0,2.1339893E0,2.958979E-1,1E0,1E1,-7.6746605E-2,3.6484472E-2,-6.0089525E-2,2.9956207E-2,-5.6165185E-2,-2.8470064E-2,-5.9669137E-2,-5.365439E-2,-7.0223294E-2,-6.4058505E-2,2.5714561E-2,-1.1026523E-2,-8.415847E-2,-6.746015E-2,7.443639E-2,-8.9990206E-2,-7.860796E-2,4.0516373E-2,-4.2199392E-2,5.9288632E-2,-5.809475E-2,4.9538626E-3,4.6441697E-2,-1.9592281E-2,5.8856018E-2,-1.4904657E-1,4.2374544E-2,5.677327E-2,5.6389686E-2,5.969081E-2,5.998195E-2,5.569774E-2],"split_indices":[2,15,2,15,1,1,15,2,2,1,2,1,1,15,14,1,1,2,1,2,2,2,14,15,2,15,2,14,14,3,1,0,0,0,0,0,0,0,0,0,0,0,0,0,0,0,0,0,0,0,0,0,0,0,0,0,0,0,0,0,0,0,0],"split_type":[0,0,0,0,0,0,0,0,0,0,0,0,0,0,0,0,0,0,0,0,0,0,0,0,0,0,0,0,0,0,0,0,0,0,0,0,0,0,0,0,0,0,0,0,0,0,0,0,0,0,0,0,0,0,0,0,0,0,0,0,0,0,0],"sum_hessian":[3.0222062E5,1.9501617E5,1.0720446E5,1.53595E5,4.1421164E4,4.534151E4,6.186295E4,3.6638703E4,1.169563E5,3.7818266E4,3.6028962E3,3.3311684E4,1.2029826E4,2.2828385E4,3.9034562E4,2.1083547E4,1.5555156E4,5.301446E4,6.394184E4,1.9727128E3,3.5845555E4,2.884481E3,7.1841547E2,1.035279E3,3.2276406E4,3.4190237E3,8.610803E3,1.0624907E4,1.2203477E4,1.5399424E4,2.363514E4,2.0626367E3,1.902091E4,1.4225923E4,1.3292332E3,2.3212908E4,2.9801553E4,2.3827549E4,4.0114293E4,7.268188E2,1.245894E3,2.8836275E4,7.009279E3,1.0551366E3,1.8293444E3,6.816586E2,3.6756805E1,7.1826855E2,3.170105E2,3.0900702E2,3.1967398E4,2.579324E3,8.396996E2,7.4767153E3,1.1340873E3,1.0611607E4,1.3299902E1,5.809275E3,6.3942017E3,3.5700288E3,1.18293955E4,2.34215E4,2.1364008E2],"tree_param":{"num_deleted":"0","num_feature":"19","num_nodes":"63","size_leaf_vector":"1"}},{"base_weights":[3.5031335E-3,-5.523883E-1,1.0248318E0,-1.8947628E-1,-9.404622E-1,4.3610185E-1,1.0531039E0,-8.663136E-1,1.4964749E-1,-1.1880964E0,-7.937737E-1,-1.9881546E-1,1.1906475E0,1.0791967E0,3.759918E-1,-1.0315428E0,-4.9589047E-1,2.52523E-1,-1.4780856E0,-1.1940591E0,-1.6290584E-1,-9.6927077E-1,-3.6527056E-1,4.3769762E-1,-8.1755006E-1,1.2573786E0,-6.48427E-1,9.8414403E-1,1.1384262E0,-1.2375594E0,9.939685E-1,-5.9964E-2,-2.3194602E-2,1.3285793E-2,-5.296391E-2,-6.7718E-2,1.817942E-2,-7.222165E-2,-7.6393865E-2,-3.5798796E-2,-5.9814848E-2,9.0484716E-2,-6.2427472E-2,-6.614905E-3,-5.2437898E-2,3.9547533E-3,-4.485404E-2,-1.4939308E-2,6.454455E-2,-5.1763292E-2,9.290081E-2,6.522649E-2,3.0529616E-2,5.527195E-2,-9.524134E-2,5.677097E-2,8.438971E-3,5.5637848E-2,5.8024187E-2,4.2710282E-2,-7.7982835E-2,-1.1436337E-1,5.0412145E-2],"categories":[],"categories_nodes":[],"categories_segments":[],"categories_sizes":[],"default_left":[0,0,0,0,0,0,0,0,0,0,0,0,0,0,0,0,0,0,0,0,0,0,0,0,0,0,0,0,0,0,0,0,0,0,0,0,0,0,0,0,0,0,0,0,0,0,0,0,0,0,0,0,0,0,0,0,0,0,0,0,0,0,0],"id":24,"left_children":[1,3,5,7,9,11,13,15,17,19,21,23,25,27,29,31,33,35,37,39,41,43,45,47,49,51,53,55,57,59,61,-1,-1,-1,-1,-1,-1,-1,-1,-1,-1,-1,-1,-1,-1,-1,-1,-1,-1,-1,-1,-1,-1,-1,-1,-1,-1,-1,-1,-1,-1,-1,-1],"loss_changes":[1.6780052E5,2.695404E4,1.7333906E3,2.2700955E4,3.3586484E3,2.2877637E3,1.7556641E3,2.0200273E3,1.1033721E4,2.1010938E2,4.367672E3,1.0219022E3,2.6860156E2,5.376875E2,3.6802725E3,2.1730957E3,4.370531E3,1.1060751E4,4.3554688E0,3.573828E1,4.3077173E2,2.7413047E3,3.9887786E3,8.041936E2,7.683036E2,6.34292E1,1.719182E2,4.532621E3,3.209375E1,6.9004614E2,1.2728711E2,0E0,0E0,0E0,0E0,0E0,0E0,0E0,0E0,0E0,0E0,0E0,0E0,0E0,0E0,0E0,0E0,0E0,0E0,0E0,0E0,0E0,0E0,0E0,0E0,0E0,0E0,0E0,0E0,0E0,0E0,0E0,0E0],"parents":[2147483647,0,0,1,1,2,2,3,3,4,4,5,5,6,6,7,7,8,8,9,9,10,10,11,11,12,12,13,13,14,14,15,15,16,16,17,17,18,18,19,19,20,20,21,21,22,22,23,23,24,24,25,25,26,26,27,27,28,28,29,29,30,30],"right_children":[2,4,6,8,10,12,14,16,18,20,22,24,26,28,30,32,34,36,38,40,42,44,46,48,50,52,54,56,58,60,62,-1,-1,-1,-1,-1,-1,-1,-1,-1,-1,-1,-1,-1,-1,-1,-1,-1,-1,-1,-1,-1,-1,-1,-1,-1,-1,-1,-1,-1,-1,-1,-1],"split_conditions":[1.4692941E0,-2.2139232E-1,1.5904278E0,-1.0720096E0,4E0,1.3E1,1.1E1,-1.2319958E0,1.3E1,8.89E2,8.4375834E-1,2E0,2.958979E-1,2.2702136E0,1.2E1,1.1E1,6E0,3E0,-4.681945E-1,-2.5321755E0,3.05E2,5E0,9E0,1E0,8.8E2,1E0,-1.56043E0,4E0,